conf,c_0,c_1,c_2,c_3,c_4,c_5,c_6,c_7,c_8,c_9,c_10,c_11,c_12,c_13,c_14,c_15,c_16,c_17,c_18,c_19,c_20,c_21,c_22,c_23,c_24,c_25,c_26,c_27,c_28,c_29,c_30,c_31,c_32,c_33,c_34,c_35,c_36,c_37,c_38,c_39,c_40,c_41,c_42,c_43,c_44,c_45,c_46,c_47,c_48,c_49,c_50,c_51,c_52,c_53,c_54,c_55,c_56,c_57,c_58,c_59,c_60,c_61,c_62,c_63,c_64,c_65,c_66,c_67,c_68,c_69,c_70,c_71,c_72,c_73,c_74,c_75,c_76,c_77,c_78,c_79,c_80,c_81,c_82,c_83,c_84,c_85,c_86,c_87,c_88,c_89,c_90,c_91,c_92,c_93,c_94,c_95,c_96,c_97,c_98,c_99
conf_0,-0.109569885,-0.3077442,0.108002976,0.034018293,0.20800652,-0.10925144,0.122685246,0.2585426,-0.22061808,-0.19444783,-0.076534644,0.36340138,-0.24369834,0.27005032,-0.11271394,0.093466796,0.11446258,0.015386367,-0.11616096,0.042503394,0.0045929854,-0.075658925,0.148161,-0.21229888,0.26481864,0.040406372,-0.21228968,-0.13361122,-0.17831028,0.006123564,0.302955,-0.14381237,0.058074232,0.112293616,0.11556799,-0.1567563,-0.07057827,-0.3942072,-0.16415837,0.24742106,-0.16354312,-0.114822045,-0.3037189,-0.06654879,-0.17446236,-0.11157053,-0.39197984,0.21112104,0.3494259,0.15470287,0.24783337,0.19635604,0.26168814,-0.18583526,-0.1614382,0.10439503,0.09084617,0.15542415,-0.1319327,0.18741553,-0.18411309,-0.111224316,0.0745106,-0.14963484,0.16382314,-0.323088,0.2663915,0.2676167,-0.11777474,0.1535818,-0.19367728,0.37693557,-0.26914927,-0.3298625,0.19574204,-0.3145284,-0.17868689,0.14651719,0.07886414,0.14164089,-0.26864985,0.37469158,-0.11648814,0.27283457,0.15682721,0.20300978,-0.24471126,-0.13680524,-0.053807113,-0.1330973,0.21371303,-0.32086903,-0.13786806,0.17046253,0.19831789,-0.32531846,-0.030430626,0.17398918,-0.18367533,-0.018713167
conf_1,-0.08104331,-0.19539009,0.101644464,0.13668622,-0.2183145,-0.07575103,0.29919383,0.1449733,-0.048345033,-0.19883399,0.2264936,0.30060443,-0.15363535,0.19482322,-0.3704951,0.25601983,0.21626459,0.27601913,-0.08516167,0.26345426,0.043035556,-0.1429293,0.2693547,-0.18349501,0.1954927,0.21861656,-0.1366418,-0.23243749,-0.061105438,-0.022628896,0.031175261,-0.09842314,-0.12421866,0.25032058,-0.109471835,-0.08388696,-0.1001963,0.04741301,-0.18918367,0.019840736,-0.059849966,-0.21618262,-0.26050088,-0.008876464,-0.1723628,-0.12696135,0.08966378,0.22268732,0.41919526,0.16807966,0.19729479,0.030489793,0.14939226,-0.18866536,-0.22018275,0.17338777,0.2297677,0.29036173,-0.069962256,0.020555187,-0.05040315,-0.23100755,-0.1230929,-0.1665104,0.16143383,0.027465366,0.18009605,0.088443965,-0.11268443,0.008081408,-0.14019206,-0.15295574,-0.16805142,-0.33827582,0.2736521,0.20498897,-0.31308663,0.19721536,0.31652534,0.10215853,0.13399926,0.006243281,0.3311732,0.1624281,0.14610624,0.25193778,-0.09848846,-0.15074714,-0.0003696455,-0.11173007,0.08122935,-0.18618073,-0.14617105,0.028346568,0.1375481,-0.34334326,-0.008473057,0.012102989,-0.09066008,0.13956912
conf_2,-0.21132663,-0.08183252,0.13551337,-0.14037393,0.15031214,0.10911727,0.21326041,0.11521713,-0.2126748,-0.18985784,0.11606357,0.37427604,-0.16710097,0.17671448,-0.31832185,0.17740484,-0.108438134,0.054233454,-0.08993593,0.054586343,-0.21936081,-0.1295188,-0.023410581,-0.14048833,0.11373791,0.15844752,-0.12941346,-0.061986774,-0.19920735,-0.06956478,0.08302735,-0.14842469,-0.11461911,-0.044780012,-0.26041108,-0.23595808,-0.20750837,-0.396948,-0.1557246,0.073087804,-0.218159,-0.20338352,-0.20688316,-0.117027394,-0.19242267,-0.08053735,-0.27681708,0.078774124,0.36440104,0.2326664,0.23149921,0.30196732,0.3102984,-0.21362394,-0.18288314,0.2232641,0.19556987,0.10087427,-0.094225325,-0.1962235,-0.20747687,-0.15427387,-0.049121935,-0.17088754,0.19851479,-0.13760486,0.24453829,0.11250096,0.037449803,0.18378584,-0.15631954,0.021027928,-0.095692925,-0.1909246,0.162271,-0.2884838,-0.23049659,0.19750224,0.19052152,0.17153467,0.0073813046,0.19482781,-0.26141018,0.19038178,0.11481666,0.16551736,-0.19257604,-0.1367681,-0.30991578,-0.2260568,0.16204946,-0.31540808,-0.21566884,-0.09605455,0.14594135,-0.172268,-0.12029725,0.2071912,-0.073111504,-0.28060877
conf_3,-0.20840219,-0.18503855,0.08382845,-0.10522127,-0.1052908,-0.035111416,0.08838023,0.17433938,-0.028925842,-0.28854755,0.03171419,0.00096733693,-0.13177742,0.20753509,-0.23029591,0.24596968,0.07659515,-0.44529456,-0.24478844,-0.025739478,0.30109477,-0.20365115,-0.09938639,-0.107287146,0.2681962,0.11290926,-0.15603282,-0.1588241,-0.14864177,-0.12763324,0.012758611,-0.2453503,-0.40574336,0.17656343,-0.22098862,-0.16872805,0.008475404,-0.4144847,-0.10028575,0.1597042,-0.1128761,-0.09592693,-0.0027401398,0.079143494,-0.22112226,-0.18732327,0.29060298,0.08590859,0.2229731,0.12181267,0.17786488,0.1286279,0.28694597,-0.13273992,-0.100351945,0.16154934,0.2099456,0.10992407,-0.019832622,-0.2660588,-0.22081079,-0.060583625,0.02469055,-0.334304,0.27189082,0.0009532123,0.24698275,0.24778493,0.0400377,0.1701967,-0.2079061,-0.3229698,-0.2627568,-0.40108153,0.16506097,0.288885,-0.28467095,0.15620016,0.24992195,0.2639042,-0.1902066,0.24322943,0.575383,0.1866675,0.054009415,0.1656631,-0.28689998,0.020197734,-0.24987486,0.020142503,0.20339485,-0.23500179,-0.23692332,0.068836704,0.09591191,-0.32154566,-0.21290945,0.06506448,-0.02885715,0.22699365
conf_4,-0.1308218,-0.1860328,-0.015051325,-0.17919022,0.20441249,-0.16258954,0.05585039,0.12681578,-0.12327446,-0.2557205,-0.23721986,0.2606809,-0.15991282,0.26275778,-0.16981588,0.219546,-0.16710614,-0.24570824,-0.102399245,0.04903591,-0.08683037,-0.06745261,-0.14880688,-0.17108469,0.16766286,0.194419,-0.18907467,-0.21721491,-0.1851954,0.013063061,0.26155016,-0.025226047,-0.08149436,0.026633743,-0.2808948,-0.303748,-0.13630654,-0.2562597,-0.24714856,0.22246249,-0.2628362,-0.1609358,-0.077146776,0.11224142,-0.22560547,0.028301127,-0.121089384,0.074046545,0.4172634,0.08942663,0.29119933,0.2261327,-0.0792332,-0.12388292,-0.19362964,0.09661545,0.18654731,0.029471576,-0.04148825,-0.03673279,-0.26068747,-0.13967606,-0.20753479,0.004445242,0.17987804,0.058626678,0.20128754,0.08470301,-0.051826954,0.2300522,-0.17157874,-0.22945787,-0.072889686,-0.013091608,0.12567414,-0.040808823,-0.22281091,0.10655094,0.12949674,0.108754456,-0.5318796,0.1288858,-0.052403383,0.21005788,0.10837664,0.23629819,-0.31741735,-0.15823926,-0.17724296,-0.21624522,0.09880553,-0.09788288,-0.21773274,0.34075308,0.03598201,-0.09693102,-0.37777063,0.14965476,-0.14701386,-0.18806072
conf_5,-0.12183019,-0.09469451,0.017159052,-0.011989223,-0.21083201,-0.113725685,0.022855598,0.17926876,-0.26680413,0.1875511,-0.22250043,0.042468835,-0.1498959,0.16224274,-0.08903412,0.215138,0.02276208,0.34966156,-0.32769892,-0.13472456,0.14219679,-0.2965402,0.27614713,-0.17261395,0.19198817,0.13698289,-0.26122522,-0.11978643,-0.15888561,0.16077748,0.055857882,-0.1651674,-0.17810252,0.109620295,-0.26586702,-0.15691127,-0.019881487,-0.15543088,-0.20741549,0.024378577,-0.12794332,-0.22291394,-0.1728422,-0.06480851,-0.16158344,-0.11406881,0.19693378,0.15472269,0.1636764,0.2138532,0.21568501,0.17500761,0.23186672,-0.15050676,-0.21384984,0.18625586,0.34873217,0.24650346,0.0462988,0.43891418,-0.2546657,-0.23798926,-0.38939512,-0.014749281,0.17666888,-0.02465867,0.17286825,0.044240084,0.38666183,0.08933078,-0.14510545,-0.22721934,-0.05646936,-0.33170474,0.16794136,0.4343162,-0.17245436,0.19114709,0.19278498,0.13219377,-0.04370347,0.25104326,0.2371732,0.21583289,0.07220357,0.21021707,-0.15783283,-0.26053762,-0.12503456,-0.10005266,0.15695308,-0.20899361,-0.085769296,0.030011313,0.13931607,-0.33651212,-0.091089144,0.0062542344,-0.1844049,-0.12503089
conf_6,-0.15752253,-0.2103625,0.036771767,-0.096823,0.19654413,-0.033579044,0.2696597,0.10592389,-0.24550249,-0.08091144,-0.121622026,0.031487964,-0.12062711,0.19552392,-0.22921488,0.22186054,-0.17864323,0.2162679,-0.30883622,-0.060424652,-0.18159504,-0.26112872,-0.29076976,-0.23879771,0.18142289,0.30087525,-0.21737161,-0.18320708,-0.20185024,0.25059023,0.11117533,-0.12635712,-0.119705975,0.20401327,-0.24124691,-0.25544408,-0.06336877,-0.07329197,-0.20640269,0.21618864,-0.15575325,-0.060209207,-0.10782186,-0.27102932,-0.18819183,-0.010283573,-0.2816914,0.16378015,0.26528594,0.17643759,0.1568026,0.19072574,0.26049536,-0.18188255,-0.13261251,0.22671397,0.18619291,0.24155511,-0.115365446,0.106512725,-0.109412596,-0.12336955,0.13364145,0.002351006,0.16450539,-0.046272736,0.22068849,0.13413818,0.410482,0.17157769,-0.13244838,0.3109677,-0.08990072,-0.046690736,0.13787329,-0.042284805,-0.20005925,0.20140214,0.09556708,0.02806404,0.32431918,0.23684727,-0.14742072,0.16287124,0.27536613,0.21168292,-0.39664733,-0.2289663,-0.14486647,-0.22199133,0.031145014,-0.24577777,-0.22348997,-0.0016235377,0.20664705,-0.13927022,-0.28190595,0.07448451,-0.22438265,-0.012430913
conf_7,-0.11377715,-0.053679053,-0.02354143,-0.08516965,0.007533384,-0.030642508,0.31179565,0.21651514,-0.1527985,0.013952421,0.08769737,-0.08438001,-0.11372277,0.24414594,-0.14544763,0.2576018,0.21255316,0.39168778,-0.021013118,0.16557008,-0.059958536,-0.16497068,0.14899652,-0.1976969,0.14266184,0.14631401,-0.17580447,-0.14612535,-0.14468113,0.23184934,-0.092794895,-0.12589721,-0.32046428,0.109890506,-0.34340438,-0.1642677,-0.11794356,-0.15047954,-0.21575768,0.32572725,-0.064819194,-0.15064064,-0.22631702,-0.3276197,-0.22443213,-0.036990397,0.5197604,0.05174456,0.35151428,0.24635471,0.19525287,0.06928687,0.044069923,-0.09678649,-0.25561714,0.14952031,0.15295848,0.06729067,-0.13782056,0.14083321,-0.054101504,-0.24322626,-0.18186176,-0.074317835,0.065570064,-0.15278296,0.22159243,0.08427111,-0.051606685,0.167914,-0.20318517,-0.32618988,-0.09676069,-0.24827336,0.17793468,0.40376437,-0.15579306,0.26789615,0.3409318,0.18304697,0.4203802,0.040755875,0.22050929,0.26083243,0.21245755,0.1387157,0.023141757,-0.16185237,-0.08028566,-0.06777141,0.3020121,-0.17732322,-0.19633122,-0.07356607,0.18999772,-0.23091362,-0.21298942,0.3491465,-0.1242969,-0.06659726
conf_8,-0.1803611,-0.17204517,0.26905072,0.019205874,0.2888473,0.021824941,0.13974854,0.18202682,-0.1674152,-0.2691366,0.31192678,0.35151744,-0.25918835,0.16322914,-0.13577516,0.15384011,-0.18578808,-0.046973437,-0.087050065,0.34307563,-0.26165286,-0.23317261,-0.023819463,-0.17716423,0.12509266,0.07595505,-0.19520609,-0.18307976,-0.16507208,0.15915343,0.20003186,-0.04016848,-0.19557776,0.21810238,-0.11306311,-0.17714743,-0.28188518,-0.0011866407,-0.20872928,0.3144512,-0.13540621,-0.14796138,-0.079991534,-0.11856805,-0.18096317,-0.10547722,0.13513424,0.257599,0.21990907,0.17187443,0.23844111,0.20412627,0.12929143,-0.21549387,-0.15446691,0.22326729,0.16916597,0.077527806,-0.09906532,-0.09727919,-0.24234374,-0.23915036,-0.15985553,-0.0261025,0.21072306,0.0014996398,0.17826232,0.29046455,-0.116035774,0.20571205,-0.16658391,-0.23583493,-0.046928838,-0.2019795,0.10614046,-0.22951439,-0.1796083,0.1660155,0.2013434,0.18302016,-0.19498518,-0.04290448,-0.011960047,0.12574215,0.06810184,0.22654435,-0.2523742,-0.100139774,-0.13557667,-0.21327731,0.022483496,-0.29533952,-0.11562057,0.20473215,0.19200347,-0.21180658,-0.1955344,-0.052687462,-0.2320789,-0.44958633
conf_9,-0.028143188,-0.18776618,0.061565712,-0.05800851,-0.031516787,0.018992642,0.14320225,0.17294747,-0.10462974,-0.08880371,0.16226327,0.17983581,-0.08995853,0.14447251,-0.24544959,0.17776859,0.04617681,-0.055294342,-0.12737826,0.13967063,-0.08412225,-0.18263155,-0.21779656,-0.104188986,0.19844672,-0.0056782435,-0.060467497,-0.124429286,-0.15013945,-0.0053997943,0.016264932,-0.11907797,-0.341032,0.2822507,-0.28210026,-0.11396576,-0.07319873,0.35243118,-0.122930296,0.029331783,0.011555644,-0.13218997,-0.10249093,0.039344143,-0.13992235,-0.10706516,0.35995418,0.11645566,0.19942588,0.17257406,0.2978653,0.0065294765,0.29881454,-0.15425193,-0.08423815,0.08321308,0.12577505,0.20386167,-0.017751891,0.05834039,-0.17628758,-0.19861174,0.034175668,-0.042777985,0.14249334,-0.16375054,0.2958304,0.19008234,-0.042068955,0.12021285,-0.23579496,-0.3329508,-0.2010851,-0.32404912,0.16833615,0.25389546,-0.34800094,0.12796395,0.30904078,0.09821047,0.095134474,0.23403743,0.3101418,0.14623997,0.13413993,0.17094679,-0.18157685,-0.21259068,0.042499736,-0.2524606,0.048416436,-0.20739906,-0.080083944,0.063476466,0.056181755,-0.22832327,-0.16466829,-0.0566045,-0.1854821,-0.004808309
conf_10,-0.15477805,-0.05188484,0.027225805,-0.13399856,0.29921213,0.35366803,0.22959155,0.20261934,-0.3185213,-0.1415798,0.055555988,0.4093134,-0.23041087,0.13342205,-0.075307555,-0.010497854,-0.487556,-0.050054852,-0.14928174,-0.09093716,-0.27324748,-0.09626177,-0.09948022,-0.16439755,0.095759526,0.1348352,-0.23258248,-0.22663583,-0.20463446,-0.17387223,0.06812902,-0.17328654,-0.028970204,0.07120754,-0.0071039805,-0.15142612,-0.07200067,-0.13745284,-0.20390014,0.19997588,-0.08819889,-0.21353886,-0.26744694,0.049836867,-0.18088338,-0.15407616,-0.5202383,0.076342024,0.3205512,0.24823235,0.21601877,0.11444258,0.14493287,-0.17188314,-0.069298014,0.15792353,0.22491856,0.12044708,0.032013506,-0.06281547,-0.15913367,-0.1135275,0.046275537,-0.10823423,0.2023421,-0.29811305,0.18434623,0.115824714,-0.17711407,0.2095924,-0.105942614,-0.07397044,-0.15420352,-0.2630121,0.12727414,-0.0142134605,-0.22169901,0.18402234,0.2919498,0.21499564,0.06591407,0.59895664,0.09382106,0.17621084,0.06309491,0.24307789,0.07075068,-0.021022437,-0.001533605,-0.14623626,0.008840817,-0.48474568,-0.23925252,0.2616915,0.020819454,-0.22519803,-0.15346746,0.2864454,-0.15029879,0.044675045
conf_11,0.017533652,-0.15592003,-0.004642911,-0.2604948,0.15901104,-0.24074963,0.01836132,0.1302055,-0.19097525,-0.08069663,-0.026786756,0.06733585,-0.09676584,0.12878405,-0.19898315,0.31387916,0.33888802,0.16540414,-0.20379001,0.029927125,0.04803364,-0.118725955,-0.31646705,-0.107948,0.20322743,-0.18558766,-0.15494066,-0.25464347,-0.2194878,0.41202942,0.20814408,-0.20095067,-0.13000523,0.35384202,-0.47446755,-0.10451451,-0.22736534,0.09213974,-0.16957854,-0.16876467,-0.07649377,-0.1715234,-0.15840249,-0.44780976,-0.10058768,-0.2105772,0.19898729,0.21299823,0.22313362,0.18744454,0.15763286,0.24095915,-0.058820207,-0.16204605,-0.1652099,0.10304901,0.25920236,0.17866287,-0.15039122,0.006820714,-0.20855841,-0.17004636,-0.11582355,-0.05015204,0.17822193,0.082501665,0.19434449,0.115274906,-0.026382789,0.14587387,-0.11550237,-0.4531362,-0.099397086,-0.03392261,0.18073684,0.340138,-0.10961334,0.004583043,0.09090161,0.09027879,0.013210173,-0.012177779,-0.017233046,0.1818353,0.26201776,0.18248403,-0.21969374,-0.15249442,0.07602114,-0.40519595,0.20466028,-0.3810152,-0.12693731,0.05176827,0.16985865,-0.1198441,-0.15113403,-0.124533,-0.12987798,0.23707585
conf_12,-0.116151735,-0.041868355,0.090113476,-0.048991486,0.24576753,0.09585641,0.18718445,0.09478326,-0.13857481,-0.09290763,0.03171383,0.17665038,-0.27190673,0.07028769,-0.30530733,0.12957728,-0.14770618,-0.1566722,-0.07112072,0.123689905,0.12840067,-0.07269823,-0.077619776,-0.18295702,0.16303124,0.016204348,-0.09241269,-0.09267397,-0.12444539,-0.066524185,0.0028884837,-0.120816775,0.02717077,0.14165714,-0.021465156,-0.2299026,-0.13139144,0.09885857,-0.24370028,0.29079235,-0.22814077,-0.25769755,-0.25106904,-0.15971254,-0.26418224,-0.2292813,-0.34135666,0.1045684,0.3680281,0.063484035,0.33174637,0.32212108,0.19801092,-0.23837373,-0.24960157,0.1713571,0.11161259,0.063599646,-0.12703931,0.27838916,-0.11782401,-0.08810721,-0.10297215,-0.07798179,0.115578555,-0.23662627,0.26712605,0.18011206,-0.2794215,0.17828833,-0.06261269,-0.20239002,-0.28613383,0.18670803,0.18649584,-0.09892912,-0.2088581,0.054785434,0.19952725,0.07544641,0.02374755,0.25113368,-0.1043093,0.213134,0.08941644,0.19999443,0.052670617,-0.12832619,0.18801418,-0.11595712,0.0010076157,0.023069823,-0.17600359,0.03469456,0.096243024,-0.17414431,-0.19546445,0.38958538,-0.12859051,-0.36612055
conf_13,-0.10678043,-0.08476951,-0.010359379,-0.18398511,-0.0064306795,-0.1917919,0.2191318,0.2797143,-0.17964953,-0.036745932,0.23139547,-0.016007949,-0.2735513,0.23719278,-0.18923241,0.17734163,-0.02901408,0.054101214,-0.10662345,0.12381176,0.054454867,-0.30871427,-0.3267965,-0.07523691,0.08966342,0.10344624,-0.08330811,-0.2626933,-0.18171996,0.15808831,0.18028386,-0.2087771,-0.16985653,0.21831042,-0.4629066,-0.14406276,0.020611476,-0.0014364315,-0.11830179,-0.04732746,-0.11555142,-0.10378492,-0.06243208,-0.07556829,-0.08222165,-0.3326426,-0.23163925,0.08757729,0.0957705,0.12984131,0.1457714,0.20253076,0.25387827,-0.17522871,-0.1810797,0.2577234,0.23197578,0.08653506,0.010832573,0.33329275,-0.15136492,-0.29312447,-0.2753589,0.057864524,0.2061267,0.13766637,0.2091192,0.114585675,0.28161487,0.124059886,-0.06122283,-0.3048345,-0.22013225,-0.39303198,0.298386,0.108178064,-0.29566976,0.044902463,0.2494246,0.1086142,0.121313944,-0.043975692,0.054092683,0.15321083,0.11755389,0.23482804,-0.14861488,-0.21493562,0.15187514,-0.23107123,0.2142325,-0.32100284,-0.164924,0.23464723,0.2874084,-0.14035055,-0.25235003,0.33812186,-0.10215395,0.20059176
conf_14,-0.24924566,-0.22916415,0.15216306,-0.14665009,0.27842483,0.028053744,0.028533626,0.1208949,-0.1729145,-0.22808325,-0.20051341,0.32160515,-0.14531362,0.22544353,-0.15023653,0.06419515,-0.0033450811,0.16096607,-0.16601805,0.24342585,0.009469523,-0.17331128,-0.050154716,-0.18658601,0.12045594,0.25710002,-0.23373862,-0.15406339,-0.11006418,0.14613593,0.19216298,-0.17966668,-0.32665604,0.047349017,-0.20326747,-0.21169586,-0.13373323,-0.25630924,-0.14124165,0.28457096,-0.10087028,-0.2251403,-0.20379564,-0.12493458,-0.2162303,-0.08217846,-0.22734825,0.07861717,0.3351149,0.104433365,0.22599788,0.17313191,-0.09113574,-0.1933714,-0.20837675,0.18304045,0.2059027,0.19145109,-0.22043118,0.05412308,-0.21183054,-0.18930691,-0.024090614,-0.04185868,0.2295539,-0.18315862,0.13207014,0.17268325,-0.032299645,0.25993252,-0.17651477,0.003762938,-0.19872971,-0.33808935,0.2573905,-0.4442388,-0.20873868,0.19308603,0.3364418,0.19335976,-0.097702645,0.0162207,0.043318808,0.20008513,0.13273308,0.08907832,0.026139928,-0.2659663,-0.24614808,-0.13977207,0.13242494,0.19166815,-0.22373442,0.06078012,0.09740262,-0.18227427,-0.18596265,0.20734094,-0.149638,-0.4841853
conf_15,-0.02166427,-0.109524585,0.19258466,-0.22881366,0.16285862,-0.051636897,-0.06402822,0.12599832,-0.22224548,-0.16764937,-0.22781132,0.05415751,-0.117135495,0.108024366,-0.045709085,0.20461121,0.031151688,-0.0919209,-0.2118406,-0.20453584,0.19260274,-0.22429855,-0.060543887,-0.078437544,0.14844386,0.29574344,-0.19935815,-0.19424868,-0.13620341,0.15773836,0.12781231,-0.20800982,-0.2687145,0.15491743,-0.21055178,-0.17238998,-0.19706964,0.1163099,-0.19848016,0.14486134,-0.13351834,-0.2182037,-0.2073487,-0.16109796,-0.17819197,-0.19612329,0.29714012,0.15924734,0.14025286,0.13183253,0.18465647,-0.009348317,-0.024351917,-0.1761627,-0.19296959,0.08715889,0.1978365,0.23044553,0.028857013,0.3050702,-0.20780872,-0.25927886,0.10240346,-0.1956436,0.2207005,-0.28308338,0.19825652,0.17692338,0.13838583,0.0173483,-0.17721504,-0.042626508,-0.2370921,-0.2104659,0.23203427,-0.0117291575,-0.15947232,0.1280343,0.1382763,0.15620148,-0.291717,0.064760745,0.096155554,0.18529704,0.1738703,0.09627729,0.010581787,-0.24709266,-0.16837835,-0.07093988,0.070564486,0.048269622,-0.206584,-0.06732497,0.16588458,-0.10808492,-0.1840486,0.066165715,-0.093452975,-0.20286644
conf_16,-0.057037294,-0.22920829,-0.072448604,-0.17182662,0.3720209,0.18480052,0.015651464,0.17839971,-0.1422875,-0.031203793,-0.18092236,0.1884879,-0.17038493,0.14873031,-0.07487417,0.20416102,0.26946846,0.07945443,-0.2534954,0.13921484,-0.1481939,-0.099935256,-0.060221758,-0.19984087,0.22158436,0.04626542,-0.1346592,-0.18854961,-0.13843833,0.18188173,0.35427803,-0.13350023,-0.12136058,0.17727052,-0.14417724,-0.14991267,-0.28796253,0.12863308,-0.15885666,-0.001670083,-0.084433965,-0.2711585,-0.36678058,0.030399568,-0.14325267,-0.19228926,-0.35505915,0.13908768,0.27269375,0.21497384,0.113683954,0.110907994,0.17788021,-0.29146856,-0.18236226,0.17808439,0.16854165,0.03453769,-0.12751341,0.16833097,-0.23456492,-0.12517644,-0.045466065,-0.23069607,0.19743869,-0.14423564,0.21383142,0.09666413,-0.057170972,0.15146653,-0.16575566,-0.014466156,-0.100359924,-0.18354526,0.19644137,-0.13134651,-0.15903889,0.10332698,0.21203487,0.23302706,-0.4660579,-0.053019356,0.06393423,0.19601488,0.11958881,0.06859242,0.19081295,-0.18399484,-0.097608514,-0.2769743,0.11033459,0.15841278,-0.23665768,0.182312,0.16420591,-0.19883387,-0.18078166,0.3083562,-0.26119822,-0.113191634
conf_17,-0.15709947,-0.07991151,0.12243448,-0.08220556,0.18769455,0.09699153,-0.035837267,0.15994407,-0.06282431,-0.22120759,0.033305984,0.39046645,-0.25416127,0.13038853,-0.25291583,0.13870786,0.24703686,-0.015818737,-0.18170989,-0.06905725,-0.03276317,-0.15239343,-0.121265106,-0.21577103,0.12979896,0.3636697,-0.22769432,-0.14774147,-0.11152933,-0.29043612,0.088524505,-0.20314147,-0.20898889,0.19618759,0.14436923,-0.21194197,-0.21047215,-0.270539,-0.17667876,0.11404948,0.02844689,-0.26079735,-0.41071728,-0.3624771,-0.064650215,-0.22627872,-0.061527703,0.20055759,0.42324555,0.16663843,0.22378245,0.17478497,0.15933062,-0.19895238,-0.24380994,0.057844825,0.3056914,0.19691293,-0.04349802,0.005328714,-0.1992987,-0.18436839,0.025116554,-0.29140246,0.18154205,-0.40488943,0.17691112,0.17730743,-0.16205217,0.08962571,-0.16937286,-0.34670883,0.07975676,-0.34569895,0.28783086,0.08088462,-0.19347414,0.100738674,0.19628015,0.1567467,0.2174771,0.059832484,0.36700174,0.13164046,0.26302302,0.02158248,0.036836535,-0.048635915,-0.059406817,-0.04908038,0.18437669,0.2127488,-0.15628104,0.032345235,0.23907584,-0.18348265,-0.12732163,0.08230775,-0.12241314,-0.015894772
conf_18,-0.20725688,-0.20746791,0.2266585,-0.17132606,0.1503062,-0.073151074,0.19838133,0.17379789,-0.14296144,-0.21750812,0.08945343,0.29965624,-0.19690254,0.10110215,-0.2291793,0.24629375,-0.14663976,-0.2356665,-0.027510505,-0.032357056,-0.2153056,-0.15106262,-0.15976378,-0.15136802,0.083738066,0.110981695,-0.086850934,-0.11622502,-0.19812357,0.24142396,0.17920938,-0.12070585,-0.20459375,0.2526129,0.15718396,-0.123995416,-0.31382287,0.24210453,-0.153656,0.13133278,0.003517754,-0.23496126,-0.16160132,-0.0848113,-0.25817674,-0.1850751,-0.34854484,0.16753252,0.37240374,0.0927917,0.14058301,0.21930099,-0.036528025,-0.17027679,-0.1527696,0.13376163,0.18624748,0.14954972,-0.14766261,0.036984455,-0.3184466,-0.043707985,-0.0012158303,-0.27544326,0.20141992,-0.13377087,0.15280256,0.24092598,-0.27262053,0.13406798,-0.07817356,0.07025796,0.007003264,0.0069762706,0.13225985,-0.31834903,-0.3660347,0.18390717,0.26826373,0.18249245,-0.1985188,0.18236206,-0.33826202,0.14774849,0.11535565,0.034397546,0.045080695,-0.26214063,-0.1885429,-0.10771631,0.16388348,-0.10181286,-0.1649476,0.23638093,-0.011865869,-0.102521166,0.015046704,0.14802335,-0.14636244,0.11752646
conf_19,-0.24590072,-0.17968173,0.15958643,-0.25036162,-0.0019368549,-0.12494395,0.13802937,0.1765017,-0.1728305,-0.18043388,0.17555663,-0.25118777,-0.25482246,0.17902216,-0.22775865,0.23316047,-0.022278467,-0.061267976,-0.20399337,-0.01882726,-0.058966517,-0.3269675,0.32325473,-0.18916321,0.17846735,0.19942933,-0.20781304,-0.15540197,-0.1453833,0.11935043,0.12992361,-0.20080458,-0.27540943,0.29433507,-0.11371288,-0.120892264,-0.036903597,-0.021595627,-0.068827696,0.016895918,-0.07928204,-0.23857826,-0.19116718,-0.030102814,-0.12014503,-0.2943679,0.40995637,0.218269,0.14521027,0.1743827,0.23412822,0.10133064,-0.13410193,-0.1402208,-0.1539813,0.111133285,0.26325527,0.1912042,-0.18432565,-0.059411567,-0.12961955,-0.29784003,0.06646549,-0.25129485,0.13818224,-0.030245546,0.20731811,0.15884066,-0.030910093,0.20395882,-0.20137623,-0.14221197,-0.037788596,-0.10503609,0.14648584,0.1615797,-0.19387588,0.22399466,0.38669202,0.21141541,0.25853726,0.23341723,0.3192554,0.18533722,0.24498549,0.13695985,0.033653177,-0.15373711,0.15723473,-0.20488149,0.16719228,-0.19990876,-0.17200364,0.22238146,0.084063604,-0.23275153,-0.21334969,-0.091725215,-0.120849594,0.25872773
conf_20,-0.2068875,-0.19208975,0.13987206,0.0062380936,0.38217166,0.120440066,0.14154801,0.10261538,-0.11941511,-0.19500752,0.2589595,0.25179464,-0.16757216,0.14323261,-0.3223363,0.11815681,-0.23220935,0.10671019,-0.010817851,0.2088125,-0.15515496,-0.16682276,-0.34074736,-0.12730636,0.10312623,0.24457254,-0.22575644,-0.12215951,-0.1917681,-0.09062381,-0.051606424,-0.11059772,-0.058411732,0.18118267,-0.074256636,-0.27529624,-0.10330931,0.22611043,-0.23785873,0.06205615,-0.07909504,-0.10902333,-0.2660942,-0.10595069,-0.03620017,-0.105740644,-0.39659622,0.153054,0.040444933,0.08970692,0.15979914,0.15261567,0.24222188,-0.1475237,-0.047716852,0.19432665,0.24539445,0.13388723,-0.089979015,0.010667875,-0.22075997,-0.15782712,0.018727684,0.024672065,0.15534322,-0.15407947,0.20149392,0.11542012,-0.1975874,0.16480663,-0.21263081,0.026846696,-0.10906046,-0.122348525,0.24014424,-0.35361007,-0.1718129,0.085389875,0.18569115,0.1919496,0.36212134,-0.13355026,-0.33825627,0.1704427,0.13805433,0.20950074,-0.2546244,-0.23034635,-0.15209672,-0.23979793,0.1796995,-0.31031483,-0.23643738,-0.09823146,0.23858972,-0.16916527,-0.17863306,0.05311321,-0.20225455,0.18895204
conf_21,-0.2258029,-0.1841138,0.11911993,-0.100216255,-0.118176445,0.0002093477,0.106003344,0.19910575,-0.1770032,-0.2027095,0.20467176,0.15388183,-0.22679621,0.03491286,-0.26856554,0.23379405,-0.09522992,-0.18247415,-0.19302756,-0.1448079,-0.0011527123,-0.17906848,-0.008406081,-0.1542141,0.22919136,0.064537145,-0.22463645,-0.3002671,-0.12592891,0.08076806,0.0947614,-0.26018566,-0.40744674,0.22365597,-0.31410283,-0.057350792,-0.0806455,0.2885163,-0.14252695,0.08673231,-0.053837713,-0.0835476,-0.09198278,-0.298723,-0.16095679,-0.22890462,0.30211046,0.236883,0.022809017,0.20314787,0.19226328,0.26815987,0.28411752,-0.14943357,-0.13017336,0.012093584,0.32499322,0.2217114,0.09880558,0.14841573,-0.13655256,-0.24390431,-0.2456705,-0.27928287,0.17434493,-0.084068894,0.26513535,0.10131238,0.11463628,0.11062136,-0.13429295,0.00057121256,0.014796028,-0.11735843,0.17195347,0.39454424,-0.20425521,0.23751612,0.08653029,0.14764309,-0.12595418,0.055314127,0.38840368,0.11043306,0.16794361,0.09976566,-0.117375515,-0.19018388,0.039536227,-0.12554564,0.18509208,0.07637591,-0.17748424,0.27360702,0.13777144,-0.21175903,-0.08336848,-0.23413594,-0.045865957,0.41882852
conf_22,-0.07397942,-0.069199584,-0.010999084,-0.27554074,0.23466437,0.24975108,0.14170079,0.06322311,-0.15980825,-0.24883634,0.1477252,0.32487074,-0.18941383,0.12682205,-0.18374279,0.17190598,-0.227289,-0.101977296,-0.23722267,0.13163869,0.06008059,-0.22510028,-0.07128409,-0.22989577,0.23370707,0.13369521,-0.18457513,-0.15636523,-0.11670927,0.084084,0.0880676,-0.0831364,0.058575083,0.17983972,-0.09867957,-0.18120301,-0.17696679,0.18889526,-0.20647974,0.10958465,-0.17951842,-0.17791529,-0.01426017,-0.15971544,-0.123272605,-0.092966095,-0.4487028,0.13856897,0.38461193,0.05945382,0.22809756,0.18704304,0.21738386,-0.14054406,-0.20521207,0.20883363,0.17784195,0.050959684,-0.093415946,0.18623626,-0.23876324,-0.19390658,-0.2342732,-0.10726122,0.25350106,-0.32920462,0.15614124,0.20861074,-0.11747734,0.18251705,-0.13491437,0.15584427,-0.257076,0.08711131,0.20150943,-0.03434628,-0.26219904,0.23789473,0.20942329,0.15352502,-0.036035478,-0.08429882,-0.33918387,0.13647868,0.07626647,0.21070178,-0.21453908,-0.25719485,-0.28117168,-0.21161696,0.22247384,-0.13666162,-0.25986686,0.11627761,0.15210624,-0.30681175,-0.25967455,0.23461989,-0.18598501,0.022744745
conf_23,-0.0427858,-0.08194388,0.17443798,-0.20469542,-0.12333322,0.12510675,0.11047012,0.15630752,-0.12997866,0.04943612,0.14964922,0.048938908,-0.21961178,0.17109649,-0.09952139,0.22165233,0.1857842,-0.0738683,-0.016835364,0.19927827,-0.16427247,-0.19124825,-0.08105344,-0.21668255,0.22969466,-0.032977007,-0.25272414,-0.050895926,-0.12024466,0.22221851,0.174805,-0.1820135,-0.21396656,0.2289182,-0.31924954,-0.09819443,-0.19552384,0.056959204,-0.14727594,-0.15014532,-0.06620714,-0.18533601,-0.0030940927,-0.2282582,-0.12707798,-0.25467655,0.36204675,0.24165735,0.19802867,0.17679925,0.02870269,0.21185018,0.27044657,-0.09637843,-0.10336125,0.078709066,0.25517982,0.27739093,0.009533669,0.43854827,-0.14057948,-0.16327128,-0.31739146,-0.10595845,0.28915486,0.08018431,0.1273069,0.20921016,-0.03723642,0.037652317,-0.2131324,-0.2719822,-0.15366203,-0.1214474,0.2925379,0.33875185,-0.13567585,0.18762371,0.22499435,0.23280737,-0.053709097,-0.053361483,0.24696094,0.1796868,0.16107596,0.20998184,-0.031991445,-0.20627424,0.09599019,-0.22280599,0.12583694,-0.021288902,-0.13633592,0.17722441,0.13670878,-0.23174505,-0.064597376,-0.19264525,-0.24064386,0.2585073
conf_24,-0.11952853,-0.05025788,-0.051213942,0.30968112,0.15150288,-0.0011870614,0.3313602,0.13406247,-0.17872745,-0.17147219,-0.033813324,0.32393658,-0.10466575,0.1502616,-0.1688311,0.039262436,-0.08777403,0.1353858,0.022244893,-0.07833365,-0.25659856,-0.28872752,0.06174225,-0.20009342,0.18529265,0.23706971,-0.15986274,-0.16327871,-0.22065462,-0.08342231,0.17104456,-0.18862982,-0.15881982,0.20046107,0.077056535,-0.17600924,-0.0356502,-0.3695434,-0.14123252,0.2831179,-0.048210017,-0.04664576,-0.040719945,-0.3240165,-0.21356873,-0.0005371821,-0.14913343,0.18967903,0.39739335,0.13304351,0.10829175,0.11716235,0.4122291,-0.19162199,-0.19843854,0.20717406,0.17050079,0.112002395,-0.02068157,-0.19557698,-0.16033556,-0.108227305,0.11648855,-0.27996695,0.22555107,-0.2868789,0.16453011,0.14533,-0.30740723,0.10072027,-0.19505842,0.02736299,-0.14337829,-0.2621145,0.19971664,-0.40935487,-0.2631441,0.21004198,0.28982905,0.19103144,0.15975682,-0.10162545,-0.028460722,0.2024404,0.13507222,0.32064247,0.0006472282,-0.06041218,-0.27578643,-0.15505351,0.18496777,-0.33361435,-0.21019919,-0.04505069,0.063325234,-0.21490976,-0.0119257085,-0.10974647,-0.14185928,0.15703736
conf_25,-0.03802895,-0.17600997,0.1678932,-0.15206526,0.13186298,0.08128409,0.22450808,0.22697496,-0.15896305,-0.13549946,0.28297755,0.08655094,-0.28555954,0.10332113,-0.16652487,0.23765755,-0.14460222,0.1391806,-0.17063121,0.075466596,-0.08755617,-0.34074137,-0.10374434,-0.20012869,0.21979819,0.28158996,-0.14199501,-0.12265722,-0.2193187,-0.22814077,-0.017468823,-0.18299606,-0.2889421,0.22205645,-0.19842066,-0.09964399,-0.14497225,-0.045374583,-0.2340963,0.11879516,-0.1416161,-0.23157834,-0.11835201,-0.037611574,-0.113518745,-0.38361928,-0.108098686,0.16322464,0.14636965,0.19371267,0.14858428,0.20525323,0.092781335,-0.16483977,-0.21972647,0.16226509,0.23545049,0.15528288,-0.28246397,0.12345939,-0.24307387,-0.17803179,-0.3887126,-0.22264886,0.20355843,-0.21367908,0.24733828,0.13552867,-0.20847966,0.0789351,-0.20108649,-0.0665203,-0.23666336,-0.096536845,0.22301117,0.03396459,-0.09246483,0.09993669,0.20231992,0.12883179,0.03688428,-0.21443947,-0.031496704,0.1774,0.23714463,0.21382146,-0.11019416,-0.2380744,-0.080785416,-0.078512706,0.098779544,-0.3127312,-0.20601036,0.10127699,0.16195798,-0.24289528,-0.06993478,0.07518236,-0.19682874,0.102903634
conf_26,-0.022955775,-0.11696636,0.08761645,0.041819554,0.341755,0.05802953,0.393375,0.24547811,-0.110813566,-0.01265285,-0.015290312,0.2627216,-0.08147606,0.091549486,-0.17760913,0.1526584,-0.09252748,0.15057683,-0.096919015,0.0013196663,-0.0014479168,-0.040745765,-0.08396361,-0.13280883,0.20920742,-0.04810203,-0.13780583,-0.22251485,-0.29829884,0.1235967,0.14096618,-0.19895831,-0.17405216,0.1619762,0.116431385,-0.13746844,0.01977637,0.15998378,-0.20514631,0.10497155,-0.23003401,-0.10830829,-0.3262842,-0.2185098,-0.091879316,-0.19370425,-0.40698385,0.09064548,0.17872186,0.23806551,0.2130867,0.26833853,0.25808343,-0.16853862,-0.20971248,0.13732773,0.20334423,0.20691076,-0.09340704,0.28372142,-0.1307146,-0.061172456,0.096434966,-0.36630428,0.24715787,-0.35977286,0.25054502,0.100461446,-0.22523655,0.044302516,-0.27011427,0.41794696,-0.14533591,-0.41400287,0.16032371,-0.2458875,-0.27718973,0.12824678,-0.057586394,0.24970871,0.19193318,-0.023632756,-0.26978108,0.3110136,0.1587599,0.10753321,-0.084508374,-0.1160351,-0.27893427,-0.21837047,0.24891855,-0.30935553,-0.16400471,-0.04540194,0.26004693,-0.25031036,-0.11123918,0.1585686,-0.19969743,0.26032504
conf_27,-0.01310863,-0.14938655,-0.09888534,-0.15548229,-0.17343047,0.0692296,0.33392677,0.17306925,-0.20706908,-0.35470697,0.05816998,-0.09933055,-0.21110849,0.21090157,-0.20157191,0.29364845,0.049151454,-0.39200494,-0.29491925,-0.04645605,0.22478653,-0.15515785,0.07014443,-0.18905282,0.23807758,0.014818078,-0.07051563,-0.25383893,-0.21249478,0.25594994,0.10413318,-0.23108964,-0.14002955,0.24144562,-0.33416834,-0.09392591,-0.08488614,-0.35553774,-0.21120894,-0.124843106,-0.011343495,-0.16572864,-0.027311942,0.20349377,-0.20282763,-0.23479296,0.15465505,0.13807905,0.29176658,0.18088044,0.07000904,0.13489504,0.34763876,-0.07407734,-0.20665964,0.12733145,0.24819385,0.19568434,0.25538787,-0.034649923,-0.26497617,-0.18251546,-0.27574328,-0.1440898,0.20881148,0.34721184,0.24094518,0.29719883,0.21618189,0.18484718,-0.10093085,-0.36319748,-0.047843665,-0.23352924,0.20418552,0.42566937,-0.3128543,0.18613371,0.3089072,0.10300476,-0.4857074,0.33197528,0.21597904,0.2218572,0.09948876,0.20493071,-0.013615059,-0.15214778,0.02311485,-0.15795882,0.14247733,-0.19742672,-0.17131001,0.3967279,-0.14027674,-0.25068593,-0.05314225,-0.06825986,-0.20173502,0.14528322
conf_28,-0.21614513,-0.14208841,-0.07876816,0.2677976,0.2227631,0.023678906,0.3211093,0.117220804,-0.14102522,0.059963778,0.13281412,0.18933801,-0.24858545,0.14092307,-0.2632657,0.13294952,0.24813089,0.16053386,-0.101928495,-0.059586853,-0.21750721,-0.090874955,-0.239775,-0.17039803,0.186303,0.06686271,-0.25772294,-0.20170699,-0.1653963,0.34670147,0.23110011,-0.12405985,-0.10014387,0.14800107,-0.2552596,-0.20774025,-0.18667951,0.079235196,-0.18114457,0.028536342,-0.080225386,-0.1535769,-0.04487709,-0.19395421,-0.14032453,-0.2871655,-0.13514778,0.095213674,0.33383125,0.22769138,0.08508332,0.06243924,0.30124822,-0.22496401,-0.1600112,0.15703933,0.138272,0.16135915,-0.08395584,0.1993209,-0.20846128,-0.15380424,-0.005079532,-0.17184386,0.22279997,0.02710421,0.20050874,0.096763,0.0371429,0.13425496,-0.16226996,0.015592678,-0.0652941,-0.2771078,0.33137396,-0.018278357,-0.19978732,0.23175901,0.31335145,0.057460513,0.12296658,-0.52172613,-0.21216835,0.17186818,0.058782402,0.2259064,-0.13011703,-0.10574615,0.0072983573,-0.14347057,0.20677933,-0.23362324,-0.16998653,0.15667978,0.16463725,-0.14417444,-0.05544176,-0.2098844,-0.14191222,-0.13747954
conf_29,-0.14788744,-0.15100597,0.1945078,-0.106288746,-0.120517,0.076998025,0.17027374,0.17057197,-0.13991988,-0.04413835,-0.09694115,0.2358365,-0.10677537,0.10196094,-0.06536436,0.055772386,-0.03955029,0.06993057,-0.18415709,-0.08698708,0.16444868,-0.34999588,0.020613499,-0.092033446,0.14780572,0.1704623,-0.19862711,-0.05196643,-0.12733641,-0.29896986,-0.012035935,-0.29455692,-0.10409726,0.369152,0.052672688,-0.19777322,-0.0714434,0.3196481,-0.24811855,-0.10531028,-0.21139804,-0.25061816,-0.31250447,0.033078384,-0.23942555,-0.14144705,0.03961174,0.2145371,0.20799665,0.10677528,0.2498782,0.21450803,0.025087975,-0.28467783,-0.13106728,0.03452911,0.20734513,0.22530362,-0.06837234,0.28703332,-0.03131205,-0.29790825,-0.0323117,-0.26925144,0.09370456,-0.43709087,0.19345407,0.19017605,-0.20002112,0.0214262,-0.12262355,-0.739927,-0.14203726,-0.33889088,0.21017644,-0.072902575,-0.21963936,0.11922107,0.16874622,0.12268508,0.21278802,-0.069811665,-0.141914,0.062696055,0.10697431,0.06387437,-0.13093357,-0.19024871,-0.04920075,-0.23938484,0.037059445,-0.41163102,-0.14776924,0.20909147,0.11565572,-0.21346387,-0.023336962,-0.061897624,-0.10707755,0.05137813
conf_30,-0.14620177,-0.19136523,0.13687378,-0.07795964,0.058283087,0.14576988,0.17591733,0.26044258,-0.33453646,-0.32206962,0.25778812,0.22714612,-0.2348201,0.21041542,-0.19700989,0.11938379,-0.20616426,0.1019088,-0.14262493,-0.008304176,-0.12058674,-0.28007343,-0.031720046,-0.19513072,0.12897511,0.10960069,-0.16891381,-0.2134756,-0.22040361,-0.15734649,0.08112368,-0.16727205,-0.22711027,0.09644134,-0.20753603,-0.23607296,-0.25714007,0.049700826,-0.15296425,0.19098231,-0.13974643,-0.08636266,-0.12209087,0.023689779,-0.24892469,-0.25274333,-0.5914919,0.22576302,0.3931407,0.18601872,0.23702924,0.291482,0.069217615,-0.28130862,-0.1235955,0.22951493,0.23233081,0.24740605,-0.14203377,-0.041355386,-0.19084615,-0.11997775,-0.1297266,-0.06788925,0.17454721,-0.2874501,0.3246761,0.20287296,-0.10456896,0.18463266,-0.162579,0.039705504,-0.12570944,0.029091237,0.13014728,-0.11553415,-0.14056422,0.17092328,0.159686,0.20452578,-0.01362516,0.22002338,0.045147117,0.2513196,0.17163953,0.115125544,0.08436313,-0.15623964,-0.29299068,-0.2024727,0.05659702,-0.1493412,-0.25571653,0.18240468,0.2026786,-0.19028422,-0.111047626,0.20007747,-0.2557632,0.11558371
conf_31,-0.2174246,-0.17056143,0.012787489,-0.18638459,-0.19669193,-0.041179888,0.16681302,0.10994101,-0.14446554,-0.21449472,0.23993395,0.23746985,-0.20650163,0.20189796,-0.25630435,0.2698588,-0.102951095,0.07730666,-0.15848213,0.02738816,0.30301964,-0.20495069,-0.21920854,-0.19177422,0.18259063,0.25393447,-0.17262696,-0.049361944,-0.20809098,0.020566545,0.24259204,-0.22371688,-0.19064811,0.13850482,-0.04756798,-0.08180977,-0.22659251,-0.0038357854,-0.21619312,0.31742153,-0.06203034,-0.14900932,-0.02694064,0.04685746,-0.10298483,-0.28036976,0.39926618,0.1573291,0.32603806,0.13825628,0.082044385,0.05828395,0.40785542,-0.09029829,-0.19839987,0.06938267,0.2468912,0.21763864,-0.0058496767,0.30472985,-0.10535887,-0.21129134,-0.07366489,-0.23917285,0.16937692,0.29023728,0.091802895,0.27871192,0.05110731,0.1389876,-0.18269242,-0.19525287,-0.19040294,-0.04584024,0.20553504,0.1171362,-0.17475642,0.10677635,0.11119046,0.17261916,-0.018399157,-0.1178028,0.23646878,0.2494542,0.17738795,0.20367809,0.0832238,-0.2795913,-0.08403259,-0.15965956,0.19948933,-0.37305304,-0.30236498,0.21443245,0.101782076,-0.07385564,-0.17796296,-0.005181713,-0.07961085,0.0013320999
conf_32,-0.19999598,-0.15873855,0.19353372,-0.16048177,0.27972046,-0.037489098,0.23616192,0.054185938,-0.1884685,-0.19786727,-0.03879577,0.29561844,-0.19709872,0.10419116,-0.21093354,0.23959722,0.0034197012,0.1034257,-0.11617141,0.2587976,-0.17981267,-0.14831395,-0.2971333,-0.19046399,0.2558101,0.047292512,-0.3177226,-0.14602773,-0.15302289,0.039044466,-0.011068463,-0.20930496,-0.23453124,0.17901565,0.071740665,-0.056714177,-0.23958431,-0.11885083,-0.14696518,0.23754221,-0.17594105,-0.12582763,-0.21701907,-0.2190651,-0.21389993,-0.19002433,-0.30857685,0.1680284,0.2586016,0.11598064,0.14998905,0.09468977,-0.18204741,-0.18003044,-0.14018188,0.17671497,0.24322817,0.22868551,-0.3041635,0.19139567,-0.14761323,-0.1511212,-0.26874244,-0.33024356,0.096944675,-0.07109666,0.21406516,0.11507094,-0.108672984,0.10718692,-0.21650924,0.17714076,-0.20895047,-0.2143214,0.112285756,-0.2814178,-0.28116813,0.28297424,0.06368975,0.13785964,0.21149196,-0.028684929,-0.055033267,0.18232426,0.17059824,0.12840223,0.1459878,-0.2232891,-0.1463087,-0.03229873,0.17806816,-0.23382749,-0.2924846,0.15157051,0.020996708,-0.24312775,-0.14828266,0.34267575,-0.1681349,-0.2983644
conf_33,-0.15202047,-0.22551754,0.025096767,-0.25836134,-0.07931488,0.22980948,0.23723798,0.21273652,-0.26460326,-0.24289586,0.026860632,0.02588732,-0.12841918,0.115551986,-0.068265736,0.20219018,0.03175726,-0.27336752,-0.009851342,-0.110866375,-0.10427126,-0.2217997,0.064923234,-0.1981419,0.18487304,0.23604603,-0.17064427,-0.13611667,-0.075654455,-0.19301501,0.13123573,-0.24514224,-0.3790043,0.30603376,-0.21665126,-0.09881775,-0.18678765,-0.060043987,-0.20640163,0.038601346,-0.18303858,-0.30831435,-0.07437721,0.19688709,-0.30135438,-0.2813376,0.37215889,0.2032804,0.26953098,0.23783502,0.11123691,-0.063296445,0.13736661,-0.19571471,-0.2788576,0.1481108,0.1813207,0.157412,0.07258631,0.07127856,-0.18713668,-0.27175668,-0.16806439,-0.29117876,0.1524607,-0.03435194,0.13304393,0.26441878,0.045839753,0.10529041,-0.3143581,-0.3528643,-0.022928376,-0.2192783,0.20149933,0.19120973,-0.21681046,0.19257659,0.19146127,0.2381999,0.067717664,0.07356817,0.05028074,0.11055779,0.33551642,0.11368642,0.15455817,-0.18575293,-0.06940675,-0.22703493,0.0485409,-0.120731585,-0.27099952,0.44924086,0.040152606,-0.21509202,-0.336737,0.005892903,-0.2364,0.1301484
conf_34,-0.2091587,-0.2649131,0.17935003,-0.2048324,0.27225107,0.017522631,0.122931324,0.173878,-0.2239715,-0.041908834,0.07121385,0.1043955,-0.17907195,0.22183609,-0.062425215,0.23925377,-0.10211755,0.23954473,-0.109721504,0.20508598,-0.23388527,-0.17464048,-0.027182108,-0.14592609,0.27145702,0.1416516,-0.17198606,-0.20797765,-0.21434414,0.25291076,0.16370314,-0.14677228,-0.0937116,0.15484506,-0.18885961,-0.118797384,-0.07792769,0.17399597,-0.113395125,0.046824105,-0.049622092,-0.1482615,-0.1641235,-0.037737004,-0.18942839,-0.35928017,-0.47374737,0.15249255,0.25222135,0.15951858,0.17615859,0.28487483,0.14206064,-0.19923373,-0.18882555,0.12891278,0.20010826,0.19547889,-0.14474654,0.2725343,-0.3103737,-0.14614765,-0.036132947,-0.06585729,0.21556328,0.010642167,0.2774729,0.28265497,-0.1955487,0.16924617,-0.1479861,-0.056075986,-0.1486522,-0.14137036,0.13876429,-0.011916898,-0.113262445,0.20433837,0.17473638,0.23748536,-0.014706953,-0.083747186,-0.26619598,0.22873224,0.1124969,0.2502776,-0.22224352,-0.20340158,-0.013101079,-0.0138953235,0.1827105,-0.026984105,-0.22067946,0.32501453,0.18168554,-0.27088308,-0.23309647,0.17795323,-0.33999234,0.099407636
conf_35,-0.13341568,-0.17301017,0.17326486,-0.10913771,-0.16650112,0.2438481,0.20667511,0.16413178,-0.21355417,-0.014807644,0.43833414,0.018354464,-0.10521803,0.09982926,-0.013053184,0.29556793,0.085424356,0.11937107,-0.10029578,0.35353926,0.012926763,-0.24853836,-0.24067089,-0.21661383,0.22842188,0.21305521,-0.18105946,-0.19555324,-0.25695336,-0.3431077,-0.015744798,-0.17352344,-0.03771635,0.32781193,-0.3513896,-0.05710776,0.028275559,-0.07917469,-0.19231209,0.090585716,-0.0019860123,-0.19949497,0.020598626,-0.12973148,-0.16981904,-0.2661175,0.24152422,0.24258372,0.17921674,0.22753894,0.18137702,0.12873174,0.2323253,-0.1984902,-0.14912327,0.15726463,0.32964608,0.22065482,-0.09642836,0.25268847,-0.24903464,-0.23050353,-0.3611148,-0.20278935,0.17392115,0.14797448,0.14905615,0.31292084,-0.05250475,0.091560476,-0.1764696,-0.30130923,0.07078456,-0.052570034,0.21875091,0.27260777,-0.22143205,0.19971822,0.22571732,0.15025857,-0.048948385,-0.17989199,0.08428338,0.20611784,0.14786375,0.22190784,-0.36895886,-0.28333867,-0.062440403,-0.17166731,0.18783233,0.056590237,-0.20383339,0.32571143,0.047053553,-0.24392582,-0.15282573,-0.25060827,-0.09628836,0.14602177
conf_36,-0.18214145,-0.13381194,0.005230712,-0.13601582,0.30374807,-0.19747435,0.22529316,0.18472214,-0.13204351,-0.07735027,0.118827485,0.098136574,-0.18522131,0.11697231,-0.24145383,0.14029954,-0.085647546,0.02619388,-0.16731046,0.224885,-0.063462116,-0.20609409,0.11311904,-0.16769284,0.1863832,0.27094072,-0.201132,-0.1444988,-0.1154057,0.05413524,0.1884079,-0.16993369,-0.0864491,0.23346098,0.012302246,-0.21887612,0.061477132,-0.13176177,-0.23998134,0.19883241,-0.11920243,-0.15764095,-0.18304501,0.013711437,-0.13946831,-0.15780233,-0.10199905,0.2988912,0.002696523,0.14223143,0.22880535,0.043502066,0.27140993,-0.2158455,-0.23638159,0.14742617,0.15667096,0.18564713,-0.13108923,0.15695372,-0.19348755,-0.13605912,0.0059573306,-0.15386689,0.17541471,-0.08231966,0.20409398,0.20160031,-0.033474516,0.19754367,-0.09754057,-0.048375152,-0.3850325,-0.06620387,0.17551981,-0.21116512,-0.1543863,0.2157467,0.3115448,0.24469611,-0.0601904,-0.06573214,-0.24194066,0.114981815,0.15900388,0.18563823,-0.37186122,-0.18121064,-0.23861292,-0.103274815,0.17357193,-0.07470777,-0.12671483,0.2883046,0.13090368,-0.20596704,-0.19537008,0.023426576,-0.14789802,0.110799454
conf_37,-0.22440343,-0.19154182,0.09811302,-0.038183358,-0.05306621,0.03042579,0.098102935,0.22453742,-0.22696404,-0.36003587,0.19986546,0.195393,-0.17249925,0.22057743,-0.17243394,0.14785017,-0.12498831,0.09001507,-0.27181453,-0.09667035,0.32308233,-0.27025804,-0.162473,-0.15014738,0.24047314,0.097830825,-0.21686567,-0.1269646,-0.21546,-0.09938676,0.07602429,-0.23710755,-0.22019407,0.2859676,-0.22658662,-0.08425287,-0.07599711,0.21931525,-0.080431715,0.09957918,-0.12771952,-0.23417647,-0.18203028,0.102183804,-0.15360682,-0.3508907,0.030840574,0.22243579,0.119873144,0.16202849,0.18851261,0.099925354,0.20660892,-0.21759848,-0.27490705,0.114071794,0.17586751,0.15802883,-0.06329166,0.083316825,-0.110468395,-0.20622186,-0.46426892,-0.2743783,0.2857559,-0.110569306,0.26241395,0.26130348,-0.10683154,0.14141963,-0.12422349,-0.68312913,0.08329617,-0.04684859,0.049703047,0.14328834,-0.07699599,0.17033054,0.34533867,0.133259,0.030348815,-0.21371269,0.12464092,0.24567668,0.16865784,0.25136065,-0.109462745,-0.21525903,-0.16559002,-0.08881928,0.13455504,-0.23950951,-0.16201341,0.22226632,0.009720072,-0.18819839,-0.26840258,0.1551083,-0.2566025,-0.01772576
conf_38,-0.21172951,-0.18609886,0.12502953,-0.21303289,0.2840776,0.16967085,0.35665002,0.1806134,-0.17711577,-0.25794098,-0.008178156,0.23683845,-0.118296474,0.051409185,-0.12490236,0.2553627,0.09766939,0.092219904,-0.34103873,0.05209979,-0.15364876,-0.12685671,-0.22255222,-0.28516376,0.22794054,0.061590444,-0.17648695,-0.14752807,-0.09666162,0.056513194,0.10365711,-0.09923093,-0.19630554,0.19077691,-0.01958838,-0.17757809,-0.09536627,-0.17145638,-0.18135838,0.37140825,-0.21535954,-0.13892072,-0.033478096,-0.09865862,-0.23982361,-0.2625807,-0.27047294,0.21369599,0.28015026,0.16264366,0.109512545,0.16241567,0.3728334,-0.24006234,-0.24275091,0.16531052,0.13753967,0.10321901,-0.15388152,0.16710903,-0.13323541,-0.17468476,-0.008571953,-0.338461,0.20927882,-0.24692515,0.20041372,0.0860163,0.0073315795,0.1653917,-0.24493514,0.3439991,-0.17884119,-0.014032374,0.24584822,-0.064691655,-0.34255305,0.22702576,0.013608398,0.1965877,0.0048384434,-0.1557246,-0.3627668,0.28333297,0.11218289,0.21456176,-0.28814602,-0.20620959,-0.20266263,0.019486757,0.1380627,-0.259304,-0.22029658,0.15467915,0.12301549,-0.24801196,-0.21446067,0.2024639,-0.12942238,0.048487335
conf_39,-0.21465158,-0.07463735,0.036376838,-0.055649605,0.0376406,-0.20391065,0.1976184,0.14809021,-0.11449499,-0.124711655,0.16296013,0.08060508,-0.26444685,0.06552754,-0.18012945,0.38591117,0.23036173,-0.055000518,0.046083145,0.1269763,-0.04677913,-0.05104542,-0.08062075,-0.2976626,0.08106016,0.13923714,-0.19212699,-0.16835117,-0.12794296,0.22094883,0.2803926,-0.20088679,0.07235433,0.014250748,-0.41525045,-0.10621015,-0.3046407,-0.38173527,-0.2595747,0.17078829,-0.12668738,-0.1355023,0.04463142,0.12343954,-0.2042439,-0.3579961,-0.044338558,0.048627805,0.383308,0.072100244,0.27647585,0.10182796,-0.2355209,-0.13389334,-0.27222082,0.24402376,0.35325646,0.13404481,-0.094894,-0.0033553164,-0.20317653,-0.20395361,-0.4477762,-0.08921603,0.18687594,-0.2345538,0.2473117,0.21266139,-0.060432825,0.11232308,-0.14503722,-0.33681193,0.021345038,-0.074391894,0.22729976,0.26411593,-0.16364959,0.07111249,0.24123482,0.23717676,-0.03219168,-0.11062271,-0.02096213,0.25184688,0.1259535,0.21215479,-0.14096561,0.0532653,0.0017942894,-0.057883985,0.07740918,-0.27654335,-0.16637887,0.17660016,0.22599308,-0.18772219,-0.36759138,0.16648114,-0.12643014,-0.20743619
conf_40,-0.0538556,-0.053689748,-0.17579721,-0.038166918,0.43205404,0.00022888026,0.39621133,0.08573148,-0.24026632,-0.1630889,-0.20033908,0.316483,-0.17411634,0.11451978,-0.22358315,0.19708517,-0.12791824,0.034219045,-0.23713006,0.05668326,0.058618672,-0.13761212,-0.17423894,-0.113305904,0.15073702,-0.07754349,-0.290263,-0.22873837,-0.11220804,-0.19328615,0.1545852,-0.17698579,-0.09184985,0.30607387,-0.09557775,-0.07163503,-0.060711436,-0.06347596,-0.13642284,0.089861,-0.13921067,-0.30570725,-0.07725835,-0.24212478,-0.19315875,-0.1907129,-0.1572056,0.0035620816,0.38729835,0.042923383,0.19316122,0.06986865,0.25997207,-0.15921515,-0.12054457,0.073197104,0.17693226,0.08588573,-0.20600596,0.3354604,-0.15342046,0.008917983,0.1947527,-0.17216614,0.20172152,0.0855326,0.17605443,0.11390565,-0.2943026,0.19203238,-0.23310642,0.0064351126,-0.1071836,-0.27486396,0.2045406,-0.21643743,-0.26657397,0.25312778,0.28794095,0.059018854,0.12397973,-0.13368456,0.13762547,0.17054519,0.022425607,0.22027719,-0.19909005,-0.025218671,0.045560915,-0.16206646,0.19054827,-0.07055161,-0.21336524,-0.09174123,0.039964605,-0.10374644,-0.1386425,0.2721463,-0.13973154,0.111226186
conf_41,-0.09418689,-0.1383717,-0.10301627,-0.085965276,-0.12515324,0.11802186,0.30001694,0.15268274,-0.1598225,-0.10810871,-0.04591158,0.11695536,-0.13296235,0.089096785,-0.13183817,0.2103088,-0.20739137,0.046085533,0.05005657,-0.47832233,0.1037495,-0.25530234,-0.25657344,-0.18170719,0.20080937,0.17672215,-0.17896946,-0.103851564,-0.17111573,0.15104531,0.083772115,-0.19485064,-0.051371716,0.1354606,-0.25503695,-0.05078394,0.00068570825,-0.067398295,-0.17236847,0.019154001,-0.047038484,-0.26380885,-0.10888645,-0.18829665,-0.11564006,-0.20500965,-0.092100196,0.102973685,0.4953038,0.22974876,0.15763158,0.10900053,0.15026513,-0.086861625,-0.27769402,0.1826898,0.33276477,0.15145954,0.07388767,0.281822,-0.1625273,-0.18245731,-0.24666221,-0.15001999,0.21322964,-0.30653325,0.3051154,0.2209891,-0.12964956,0.15098803,-0.14470577,-0.13449526,-0.19588472,-0.05663769,0.2176728,0.26955652,-0.28659585,0.1517187,0.29082513,0.26400417,0.29701364,-0.21949723,0.10702175,0.27388415,0.064934075,0.13747106,-0.2195486,-0.08831091,-0.068460375,0.015726067,0.009461582,-0.25432533,-0.15869322,0.18453524,0.19496591,-0.17640959,-0.2534141,0.053348813,-0.14028274,-0.111734934
conf_42,-0.18066625,-0.052463453,0.120599814,0.25665435,0.22341374,-0.22432637,0.25842696,0.13117391,-0.17057292,0.031483,-0.15746297,0.14873418,-0.12693939,0.21700649,-0.2221721,0.16418256,0.10993639,0.27137217,0.08171908,0.010270738,-0.09278316,-0.22555506,0.00782585,-0.17368783,0.087110944,0.0010466867,-0.2664408,-0.20401299,-0.27036312,0.15723696,0.15107621,-0.14870952,-0.19496408,0.04796903,0.042253073,-0.1452409,-0.22563955,0.087502085,-0.14855157,0.35819438,-0.20322974,-0.06740791,-0.23635863,-0.2717052,-0.17879638,-0.14977205,-0.23603746,0.2255237,0.110094815,0.0934859,0.23384944,0.28225034,0.3015621,-0.22421551,-0.16110831,0.2178903,0.20394523,0.090627104,-0.3398761,0.29734382,-0.08078111,-0.11330869,0.15386206,-0.25094873,0.25904635,-0.20369585,0.22067355,0.08581906,-0.39961416,0.18829787,-0.13700664,0.18830495,-0.27632806,-0.19592352,0.21288534,0.024136882,-0.18893148,0.1954198,0.023330199,0.203844,0.36953503,-0.31620443,0.024354236,0.25612053,0.10579162,0.15226458,-0.08546549,-0.0137659125,-0.19738066,-0.10001961,0.23080684,-0.30273268,-0.24833488,-0.09070717,0.29509142,-0.12596214,-0.13626242,0.08536194,-0.29649684,-0.040242396
conf_43,-0.19227372,-0.069528855,0.2166213,-0.15707955,-0.011497062,0.20480523,0.37806422,0.079662636,-0.14309104,-0.11679722,0.15027513,0.1620679,-0.16384988,0.15649888,-0.24590091,0.09891076,-0.06618698,0.56990176,-0.27185553,-0.07011378,0.103169724,-0.22851926,0.32596958,-0.27276656,0.14368686,0.28057945,-0.1983401,-0.18280923,-0.24322534,-0.35827592,0.1397706,-0.1499365,-0.11421423,0.14347196,-0.008501044,-0.20950766,-0.28631136,0.22982225,-0.12837496,0.28798166,-0.08655186,-0.111180246,-0.26034352,0.09745321,-0.15950792,-0.16800334,0.386142,0.21165942,-0.014538266,0.24223922,0.227676,0.16354695,-0.039860904,-0.16450463,-0.21519297,0.18633686,0.16267537,0.21187116,-0.17832641,0.3550796,-0.13385768,-0.15664257,0.08103842,-0.38548142,0.15685606,-0.23147249,0.15676685,0.07122986,-0.033961542,0.029220792,-0.16841522,-0.11231973,-0.06876493,-0.110865325,0.14410587,0.114523426,-0.16267778,0.10136109,-0.031965867,0.12801513,0.31965294,-0.10674162,0.07995263,0.14386193,0.09156175,0.09860011,0.039259065,-0.2112371,-0.27070773,-0.39240253,0.22086686,-0.16393377,-0.23679699,0.1152451,0.16841798,-0.072697,-0.23188734,-0.19195326,-0.10530717,0.1657715
conf_44,-0.2388507,-0.12731004,0.22712019,-0.05034139,0.20700939,0.03804248,0.24397214,0.19361804,-0.24484713,-0.09806685,0.08609777,0.14965226,-0.271309,0.13128588,-0.054706663,0.21601665,0.02705778,0.19292796,-0.117711954,-0.004353989,0.01361922,-0.2739004,0.062514335,-0.147301,0.19823025,0.1743707,-0.14770092,-0.23056734,-0.14965358,0.15438904,0.2191206,-0.08775971,-0.20032993,0.13182752,-0.20604944,-0.08774864,-0.21103054,0.41983607,-0.131605,0.22536732,-0.19554366,-0.25549304,-0.20958315,-0.014401924,-0.1927252,-0.11127768,-0.37462023,0.2250951,0.19885822,0.20925888,0.04950761,0.29444143,0.08017201,-0.2579679,-0.17213899,0.19871914,0.16866496,0.16487174,-0.17664671,0.25915283,-0.030088713,-0.1943842,0.030133022,-0.12064427,0.207582,-0.16516836,0.20082052,0.15117706,0.0005427209,0.17175749,-0.26666778,-0.12960625,-0.09195973,-0.09460831,0.1645479,-0.23769788,-0.13264139,0.14994209,0.1921148,0.21391135,0.22671801,-0.34384045,-0.19929229,0.2011716,0.20303613,0.18204147,-0.061456468,-0.19121183,-0.2504585,-0.20388936,0.19693303,-0.2702819,-0.13699862,0.20543233,0.13024318,-0.18230863,-0.3299324,0.08287748,-0.26909792,-0.11504578
conf_45,-0.10929804,-0.21460253,-0.0013629225,-0.2404246,0.08579987,0.1168059,0.24175647,0.16988762,-0.18565847,-0.14341097,-0.14888225,-0.031327046,-0.08503271,0.023360746,-0.14268136,0.2614762,0.20018545,0.26742348,-0.27573723,-0.07751366,0.09167884,-0.24264728,0.15483984,-0.15252323,0.14732218,-0.025151365,-0.12871316,-0.16545185,-0.20774025,-0.018435253,0.08175367,-0.11524179,-0.39197382,0.09713639,-0.22177486,-0.18409905,-0.16222404,0.29309398,-0.20846626,0.15527698,-0.14034155,-0.21681525,-0.19133554,-0.28745064,-0.13899215,-0.18237457,0.28012353,0.18880452,0.17886226,0.19039454,0.2716004,0.18152851,0.05827038,-0.14306577,-0.2373929,0.1435145,0.24266016,0.13053669,-0.18755622,0.061549082,-0.074000604,-0.28529674,-0.3311034,-0.3474475,0.21239783,-0.12436026,0.22881581,0.17179994,0.0941948,0.11570819,-0.18040998,-0.26901448,-0.12521712,-0.11459134,0.09093056,0.49072325,-0.21861526,0.10769852,0.022895765,0.13344188,0.24345471,-0.04642962,0.38967618,0.22868173,0.21442828,0.15898755,-0.075138964,-0.2303888,-0.063819386,-0.18673602,0.00970566,-0.10390564,-0.17155957,-0.01759666,0.17497598,-0.2370917,-0.31013995,0.06434294,-0.2466203,-0.16907172
conf_46,-0.038447667,-0.10288463,0.20776966,0.0051376796,0.373101,-0.24251701,0.21805488,0.1510502,-0.14458159,-0.16904214,0.16418265,0.32042345,-0.23148353,0.07894123,-0.0986407,0.20201528,0.0026217946,0.09783418,-0.18218414,0.39268705,-0.1118704,-0.09650319,-0.12718506,-0.1567932,0.2222793,-0.1582212,-0.16689523,-0.13098252,-0.15673009,0.117237315,0.31112802,-0.11851687,-0.23136087,0.1740449,-0.0518757,-0.2377058,-0.33548403,0.41619542,-0.25382105,0.2476575,-0.13739778,-0.20011096,-0.115644656,-0.37567222,-0.17556657,-0.20298494,-0.42800972,0.061131217,0.13498029,0.1476458,0.19876793,0.15374757,-0.0980559,-0.20306347,-0.10669918,0.12367028,0.19512102,0.11647137,-0.10987801,0.043106835,-0.13444649,-0.16685785,-0.13774887,-0.28807256,0.17919424,-0.18369596,0.18650866,0.16223587,0.018749222,0.15761074,-0.20056188,0.08284963,-0.025319574,-0.22806025,0.17523576,-0.49828926,-0.232663,0.09933806,0.16035554,0.045229,0.06512445,-0.45814553,-0.08940743,0.21266323,0.19401489,0.1720835,0.29942104,-0.16047515,-0.16840681,-0.10388064,0.090351515,-0.03909618,-0.24546677,0.00604276,0.26189628,-0.23753698,-0.14124542,0.31555533,-0.20322166,-0.082859635
conf_47,-0.09739659,-0.14056028,0.112005524,-0.18287098,0.023728503,-0.049843736,0.21357632,0.1467497,-0.1708699,-0.07227121,0.19801468,0.21976148,-0.15220873,0.08647771,-0.16839203,0.21755151,-0.058927923,0.2016004,0.075410575,-0.11875308,-0.047404755,-0.27054298,0.026027413,-0.20048863,0.07395336,0.098495014,-0.21236593,-0.12879704,-0.19432534,0.2833068,-0.010286955,-0.17060854,-0.017362386,0.117196396,-0.07548567,-0.19745578,-0.15933046,0.1359605,-0.12375834,0.056575466,-0.11597037,-0.101618685,0.0059109833,-0.14847863,-0.189529,-0.37937006,0.24633652,0.16366802,0.3192615,0.25634015,0.13158178,0.16612095,0.26540694,-0.08446608,-0.21945618,0.12376734,0.22139175,0.24647066,-0.0042475252,0.10050853,-0.17084509,-0.22065073,-0.09798185,-0.17093253,0.13842016,-0.039097838,0.2770247,0.14478104,-0.0458566,0.097270265,-0.19150528,0.14094314,0.12713993,-0.16043103,0.13342328,0.31762722,-0.15000191,0.05385988,0.19561769,0.17342821,0.09537417,0.19431314,-0.3619663,0.2200873,0.105812125,0.20570925,-0.24153051,-0.17079479,0.028543992,-0.21001287,0.18926717,-0.21634531,-0.12720829,0.12177769,0.23128599,-0.107033,-0.017381858,-0.11984562,-0.1984402,0.11008732
conf_48,-0.16200651,-0.1209009,0.03182974,0.08960943,0.22614194,-0.28931168,0.17860273,0.20235972,-0.12355566,-0.10569404,-0.008914932,0.22023001,-0.090310834,0.24619482,-0.34981042,0.15467496,-0.008490874,0.27923775,-0.24321713,-0.10300006,0.26195064,-0.082658686,-0.11517644,-0.12582958,0.17075914,0.193683,-0.2011981,-0.1712088,-0.21362837,-0.070476875,0.14399955,-0.22000818,-0.11424816,0.18569028,0.09582256,-0.1812733,-0.060741417,-0.37292597,-0.12824886,0.32613236,-0.09782926,-0.11960624,-0.3682925,-0.23564339,-0.15722963,-0.1547535,-0.44468823,0.14968556,0.35911676,0.093348116,0.35449883,0.21397822,0.160456,-0.102008484,-0.19845854,0.09536685,0.1375072,0.053746037,-0.2176619,0.17825915,-0.20776907,-0.09825861,0.4245711,-0.019574044,0.13909635,0.11103949,0.1891936,0.025180863,-0.0035103906,0.20729102,-0.14425421,0.14954963,-0.23154463,-0.18363516,0.17678101,-0.22214071,-0.15196486,0.13774551,0.081090935,0.16699713,-0.20099652,0.29754275,-0.06287718,0.13671981,0.11945337,0.22762023,0.048636787,-0.10315548,-0.1547817,-0.10740298,0.114933364,-0.07136906,-0.20630223,-0.0710189,0.08483494,-0.10799204,-0.16038239,0.12904195,-0.06833758,-0.19356626
conf_49,-0.13850367,-0.01594928,0.15087213,-0.1448762,-0.08408088,0.055111315,0.1448193,0.067319304,-0.10834725,-0.1629254,0.1798141,0.0076798596,-0.2817367,0.17785011,-0.2062063,0.19653437,0.34076005,0.067238644,0.018273855,-0.08881479,0.30807495,-0.26858577,0.03771198,-0.25392658,0.14676325,0.43705198,-0.13842218,-0.098967545,-0.17463757,-0.11149207,-0.007902577,-0.13507718,-0.07064889,0.19299331,-0.15184349,-0.085659966,-0.14896946,-0.28553465,-0.14578879,0.10144197,-0.056555346,-0.051474623,-0.2376605,0.06546679,-0.107520044,-0.21250705,0.06998311,0.23182072,0.47687918,0.23019433,0.10127665,0.17401047,0.17099705,-0.12777282,-0.29110655,0.16890226,0.19210128,0.18325597,-0.050432388,0.06273639,-0.17077218,-0.20039971,0.0042545213,-0.21603435,0.222595,-0.22835818,0.24052314,0.23123246,-0.25505966,0.11166194,-0.17901221,-0.2690699,-0.15729614,-0.18329929,0.25960246,0.033585273,-0.14441195,0.115658,0.3188126,0.20435435,0.25238624,0.52882963,0.0280297,0.21842836,0.1298581,0.14605424,0.011458214,-0.10298601,0.012084123,-0.21184938,0.00091870537,-0.126512,-0.15928559,0.15658055,0.17175987,-0.16704205,-0.14880656,-0.0022131738,-0.057547152,0.34539893
conf_50,-0.22321287,-0.0758945,0.09095279,-0.046082236,0.2080815,0.20293619,0.06389847,0.21442942,-0.2326246,-0.1741517,0.13396692,0.31093127,-0.16896667,0.18395503,-0.14792188,0.1712495,0.19732338,0.3048924,-0.2880219,0.14820719,0.09006452,-0.16619213,0.06416625,-0.17432457,0.27462754,0.28526095,-0.18059796,-0.13499287,-0.17027985,0.37203515,0.22230448,-0.15013246,-0.12844124,-0.10087916,-0.03832516,-0.21175414,-0.11093505,0.0358985,-0.19591072,0.059112336,-0.2497964,-0.20420207,-0.20253268,-0.20726572,-0.14066908,-0.18626893,-0.2388285,0.15207243,0.1938308,0.11283163,0.23666206,-0.115010425,0.20617844,-0.20001516,-0.21589041,0.27850026,0.15843123,0.19398232,0.011953131,0.07715715,-0.18496117,-0.23589744,0.10763319,-0.32374963,0.2898128,-0.15115392,0.2421014,0.022910122,0.2671189,0.274514,-0.18251893,0.05483654,-0.18518688,-0.20604575,0.21892901,-0.2198242,-0.15994914,0.19119619,0.0638207,0.22965072,0.51696855,0.352186,-0.1966818,0.21901675,0.049511958,0.2073857,-0.009433423,-0.15117073,-0.18244398,-0.24579392,0.085321434,-0.30262062,-0.17845057,-0.16043065,0.15593219,-0.20487103,-0.071689546,0.19052908,-0.12675957,-0.13773967
conf_51,-0.20061508,-0.09520386,0.0065639196,-0.32525128,0.09733989,-0.2417469,0.07597148,0.11373184,-0.20406061,-0.12112425,-0.032445043,0.23512803,-0.055543132,0.28482392,-0.19603196,0.20809287,0.2619707,-0.059218742,-0.009602681,-0.183353,0.2681387,-0.31733784,-0.18232356,-0.1894665,0.18377608,0.12789543,-0.094630435,-0.31927675,-0.15804458,0.19607082,0.18413952,-0.19341892,-0.34096175,0.1919733,-0.059098475,-0.12408742,0.05593731,-0.18155706,-0.27294034,0.270092,-0.18389915,-0.25335655,-0.120353274,-0.27505508,-0.22089988,-0.17382918,0.09351172,0.13422939,0.37947655,0.10292663,0.06225787,0.15594216,0.1391255,-0.21113728,-0.15767588,0.101317056,0.2521241,0.19335434,-0.14373867,0.2676299,-0.081216566,-0.16573083,-0.092719905,-0.124722265,0.1696358,-0.49276358,0.25287008,0.19324921,-0.053612392,0.19863035,-0.20570035,-0.1420566,-0.23629494,-0.20267145,0.26312152,0.19917536,-0.17278974,0.20634483,0.1837288,0.107444465,-0.23867823,-0.054428745,0.20160443,0.2569707,0.23162733,0.18394166,-0.22449385,-0.08323785,-0.035499834,0.021557117,0.31270388,-0.18192732,-0.17511196,0.077862695,0.18163641,-0.25639534,-0.10188898,0.06266461,-0.0123144705,0.014982805
conf_52,-0.115261205,-0.16867085,0.043525707,-0.07258981,0.20393002,-0.113472514,0.21572702,0.171158,-0.04352215,-0.20889711,-0.0022993472,0.1656852,-0.092007436,0.2884577,-0.1761924,0.1691674,0.022145886,0.16590653,-0.007980715,0.1429866,-0.11692173,-0.073381595,0.26812524,-0.14808987,0.21035777,0.051333413,-0.16134904,-0.08814302,-0.16266465,0.2882663,0.1379207,-0.12634908,0.11112249,-0.098128304,-0.11611396,-0.2022646,-0.08219465,-0.21175411,-0.16155958,-0.0054300176,-0.18056057,-0.2782162,-0.15685728,-0.124906704,-0.18973069,0.2533159,-0.31714886,0.22540917,0.14227211,0.15736207,0.22777994,0.0959313,0.2510887,-0.14235461,-0.14355735,0.18912041,0.13654642,0.14588116,-0.01545092,0.08500646,-0.19298846,-0.24168001,-0.15034652,-0.07730843,0.20874314,-0.1764614,0.18321289,0.25338212,-0.09848558,0.19726823,-0.26713222,0.18200113,-0.33741623,-0.02508366,0.13775963,-0.19762473,-0.071752466,0.130143,0.24514112,0.14108025,0.05109588,0.31717518,-0.33596355,0.14741424,0.18420447,0.20408913,-0.041754097,-0.2318444,-0.07569928,-0.16634463,0.11672168,-0.102939576,-0.12765577,0.05912916,0.14165547,-0.2710149,-0.22389385,0.12175843,-0.21248916,0.19759534
conf_53,-0.12852007,-0.10902252,0.09523352,-0.11327769,-0.09781172,-0.13414091,-0.012326257,0.26732236,-0.12447853,-0.17764218,0.12355266,0.16117482,-0.1519366,0.25280225,-0.17155747,0.21805297,0.11252851,-0.20165142,-0.089601465,-0.10105839,-0.017281301,-0.24617141,0.06328065,-0.2557015,0.19444396,0.33631557,-0.2277412,-0.16509698,-0.13503915,0.12540418,0.29629904,-0.1679153,-0.12499933,0.047451135,-0.16311227,-0.1687933,0.019709691,0.047223296,-0.18316089,0.1267332,-0.21523698,-0.22764066,-0.056365125,-0.1400803,-0.21562038,-0.17193115,0.100719385,0.21642017,0.39438996,0.1392125,0.13652015,0.09926941,-0.09320943,-0.20999649,-0.25420102,0.16175246,0.23697922,0.18152654,-0.118352525,0.15089597,-0.1724153,-0.30428872,-0.31212324,-0.21893919,0.23088427,-0.20648888,0.27168208,0.21923818,0.028745826,0.18448322,-0.19381462,-0.19046326,-0.1818243,-0.23826075,0.23090994,0.17226271,-0.32200062,0.17828465,0.3643139,0.18907171,-0.019034572,0.0788373,-0.11156036,0.25080416,0.25245726,0.24477845,-0.22261591,-0.11050572,-0.22112322,-0.09377622,0.16217189,-0.36090076,-0.2233005,0.18160474,0.1938184,-0.20845592,-0.2842019,0.21300142,-0.054907795,0.0013550454
conf_54,-0.08617112,-0.17378984,0.22670563,-0.08744076,0.12618083,0.11023398,0.3941602,0.22231372,-0.18840975,-0.033871,-0.0005438371,0.34014672,-0.13150701,0.12804525,-0.23466554,0.12532666,0.06540757,0.29507443,-0.21612696,-0.16706187,-0.1012864,-0.22116894,-0.26615527,-0.090553574,0.17950189,0.22546095,-0.23982596,-0.1669421,-0.1601309,0.11828286,0.18715607,-0.176427,-0.20088206,0.23056988,-0.022415668,-0.13212183,-0.14444824,0.03970674,-0.11997756,0.08491753,-0.12684439,-0.20253295,-0.37664574,-0.30260086,-0.11021735,-0.02910839,-0.52257264,0.23808636,0.14127094,0.16513221,0.1297735,0.18386967,0.07898365,-0.16259344,-0.12533732,0.13207139,0.16421372,0.17903475,-0.037400033,0.27663693,-0.1368781,-0.15152876,0.079583056,-0.1470203,0.23657599,-0.33085552,0.19723111,0.21880026,-0.00040978688,0.17164573,-0.15682146,0.025790269,0.010725585,-0.31491962,0.23256832,-0.0635199,0.022638502,0.21408187,0.008390033,0.19442904,0.27292296,0.21744017,-0.124126665,0.1901767,0.30270746,0.2125398,0.014951892,-0.08730118,-0.09396739,-0.18428952,0.15120344,-0.18969993,-0.13175108,0.09428192,0.2011752,-0.24890096,-0.1441849,0.09630553,-0.19728632,0.026630266
conf_55,-0.18321918,-0.11022213,0.17864883,-0.3425395,-0.2762759,0.0488091,0.25527075,0.21629179,-0.25715,0.01732644,0.089412384,-0.020591611,-0.07310603,0.27385017,-0.2093332,0.1704693,-0.16141862,-0.3230504,-0.1662497,-0.18480068,0.09649449,-0.24890052,-0.22597218,-0.1777063,0.26482788,0.14518291,0.025556415,-0.24470443,-0.21272467,0.30118692,0.045998137,-0.12961298,-0.19262454,0.238624,-0.20988722,0.057693653,-0.013954478,-0.22675705,-0.22467789,-0.14673035,-0.12090705,-0.24212462,-0.07979204,0.28778037,-0.17810734,-0.2533105,0.23197399,0.11010296,0.33070093,0.18506643,0.2021334,0.20949067,-0.3262393,-0.16929267,-0.22228642,0.16081882,0.15030989,0.12758826,0.034378413,0.34761652,-0.24454793,-0.18824032,-0.2892689,-0.1816441,0.17084235,0.007236575,0.30362228,0.18643221,-5.2928925e-05,0.18936944,-0.2277942,-0.18088403,-0.09552717,0.14018576,0.25552496,0.36833644,-0.319612,0.20006058,0.19878852,0.07590988,-0.23020907,0.35786885,0.114522494,0.10764644,0.13116166,0.31128198,-0.31525365,-0.15251093,-0.1460609,-0.17130259,0.23218493,-0.27036658,-0.21849807,0.4325312,0.03190607,-0.14134268,-0.15120532,0.14169197,-0.1496182,0.28208107
conf_56,-0.1707611,-0.13646139,0.31919312,-0.2416401,0.30243063,-0.25812075,0.20276937,0.15771106,-0.104402155,-0.13472283,0.022210054,0.31989715,-0.1262067,0.22701621,-0.3092944,0.14225434,-0.024029547,-0.24524257,-0.18282779,0.10895528,0.042395495,-0.25850525,-0.34513152,-0.13721682,0.15054104,0.05169314,-0.060240373,-0.20006315,-0.1264559,0.23535924,-0.04624702,-0.07123321,-0.38925976,0.1852382,-0.12344314,-0.10797951,-0.30125344,-0.21211809,-0.20856763,0.2064653,-0.12241066,-0.10889066,-0.2783223,-0.25156003,-0.19430305,-0.22888805,-0.28860232,0.19408394,0.3728623,0.09044157,0.14873396,0.2873807,-0.10948448,-0.14623925,-0.15376419,0.24184287,0.23639119,0.06792215,-0.13682468,-0.111112565,-0.23431937,-0.1579777,-0.021314112,-0.22683884,0.12161048,-0.2525607,0.22767438,0.19976075,-0.30146468,0.14360885,-0.1784616,0.26631823,0.10166112,0.06138635,0.017421912,-0.013149104,-0.17651998,0.27443486,0.44041845,0.12415203,0.07499352,0.1908073,0.11866111,0.14463462,0.06404177,0.24279757,0.22647962,-0.14344427,-0.2677352,-0.12420742,0.2881428,-0.25990793,-0.17561962,-0.016627379,0.05547949,-0.08358651,-0.19665714,0.24948232,-0.18585078,-0.15274502
conf_57,-0.068398714,-0.26006925,-0.01793791,-0.26624623,-0.045943834,-0.06899321,0.13956983,0.16290334,-0.22834903,0.010734712,0.22278702,0.1793465,-0.15503746,0.2592011,-0.16114385,0.23589124,0.07005778,0.11134925,-0.076609366,0.004645097,0.17915824,-0.2701093,-0.2145631,-0.19059613,0.24367638,0.09439263,-0.12513494,-0.11982179,-0.13595799,0.22609615,0.015587665,-0.13277993,-0.17884558,0.2157263,-0.43352318,-0.036454815,-0.32688123,0.17378913,-0.26854822,0.264714,-0.2021708,-0.20805718,-0.045876835,0.06813106,-0.1997404,-0.334198,0.44034457,0.14280182,0.3617811,0.12131869,0.18654762,0.05024055,-0.14427039,-0.19680068,-0.2092971,0.18726595,0.20957072,0.24530827,-0.21781276,0.3953776,-0.15264325,-0.22987367,-0.35922533,-0.09687957,0.234925,0.08657331,0.2181413,0.2488639,0.040452532,0.050751645,-0.15331647,-0.58034235,-0.103682056,0.029461395,0.20514862,0.3960701,-0.14235704,0.21044628,0.20994529,0.1674404,-0.06495642,0.04079669,0.14475425,0.20361303,0.21932457,0.18022224,-0.011612567,-0.21345611,-0.19654827,-0.09933148,0.08708276,-0.19106035,-0.17280677,0.45926705,0.063546106,-0.10323442,-0.148351,0.08387678,-0.06360103,-0.15165195
conf_58,-0.22342217,-0.04945529,-0.0051205917,0.042425975,0.204942,0.1548645,0.22928126,0.13753222,-0.25696853,0.06627201,0.108720414,0.23034221,-0.124116175,0.124049515,-0.10006811,0.18281361,0.15635829,0.4182113,-0.12706847,-0.036797937,-0.25287265,-0.07764662,-0.192038,-0.19232911,0.22873104,0.16639169,-0.20754428,-0.17790882,-0.18930319,0.28449315,0.16133334,-0.14878912,-0.15252356,0.14469548,-0.14622292,-0.24946932,-0.35702753,0.15208209,-0.18426295,-0.04524717,-0.07200835,-0.20936278,-0.37260222,-0.4072927,-0.13630535,-0.24050017,-0.38984326,0.0093344,0.16865847,0.16147959,0.10317772,0.11537743,-0.24125914,-0.11212354,-0.12907232,0.1465893,0.27191278,0.14570361,-0.08640238,0.26722816,-0.18336816,-0.121493876,-0.1337026,-0.32942507,0.20190497,-0.10618644,0.189977,0.11673298,0.12140885,0.15464017,-0.22379054,-0.02306048,0.036059797,-0.27246675,0.23128055,-0.079455115,-0.32119006,0.17015263,-0.022276321,0.12933852,0.037515648,0.11950225,-0.22998708,0.16853102,0.14979902,0.23640941,0.30326897,-0.18619409,-0.10659647,-0.20954648,0.17300859,-0.3056353,-0.16139486,-0.041128576,0.022905331,-0.10109355,-0.0032379166,0.314051,-0.17409301,-0.06332725
conf_59,-0.038133267,-0.14813524,0.14913984,-0.2527763,-0.047984976,-0.0025987313,-0.014514162,0.23750137,-0.16720572,-0.11855305,0.027911967,0.16022313,-0.16130093,0.15360032,-0.029145382,0.12642042,0.058181502,0.36118904,-0.4681549,0.032230776,0.12651649,-0.2873323,0.047790255,-0.1432288,0.26898482,0.30945724,-0.10925321,-0.071070164,-0.09216288,-0.15706311,0.09125573,-0.2085259,-0.22325398,0.1770031,-0.23615159,-0.1705653,0.071852,0.34830743,-0.20512074,0.09797607,-0.18231872,-0.16316639,-0.12503833,0.042021587,-0.2419492,-0.048188753,0.17665899,0.217183,0.15182142,0.24885753,0.27703267,0.0030563304,0.04315985,-0.21507874,-0.12596154,0.070863195,0.17428502,0.12317102,-0.124456175,0.070162766,-0.07206389,-0.1377112,-0.048025914,-0.24461988,0.18042849,-0.3178381,0.1785107,0.10877627,0.40453252,0.16950044,-0.14026137,-0.65745026,-0.04796623,-0.3129984,0.13981679,0.29413813,-0.19174142,0.16105653,0.34431264,0.21508257,0.39560238,0.24400641,0.09652626,0.23807202,0.2944811,0.2296498,-0.015586682,-0.035595983,0.1682045,-0.13751954,0.10370943,-0.07251272,-0.21722601,0.120972574,0.19399662,-0.2664665,-0.24906382,0.20967911,-0.13320222,-0.24017997
conf_60,-0.04107315,-0.13014588,0.015275227,-0.3899564,0.08958284,0.12720564,0.29623404,0.099001385,-0.059036512,-0.28761473,-0.15857546,0.12828386,-0.116012625,0.285826,-0.2263507,0.16328499,0.02805872,0.06777974,-0.31701,0.045907155,0.27208894,-0.1377147,-0.30965784,-0.12257545,0.21149357,0.13598795,-0.105695255,-0.13530138,-0.054350223,0.11018442,0.1330833,-0.15522829,-0.008659968,-0.0143177835,-0.34406486,-0.14524691,-0.14360644,0.20246668,-0.20347777,0.11315231,-0.07540097,-0.17285655,-0.23447321,-0.046561033,-0.22338848,0.021348298,-0.31970283,0.11201369,0.264295,0.12591638,0.27920777,0.14266934,0.08287352,-0.13845676,-0.18083948,0.11037557,0.15926942,0.2743705,-0.012063311,-0.031953186,-0.16522442,-0.090882175,-0.1995553,-0.002122241,0.2194163,-0.17056671,0.26362056,0.07528171,0.09024337,0.16273981,-0.14944014,-0.035047825,-0.2969608,0.030348511,0.17362258,-0.4235759,-0.18484688,0.13749023,0.14865495,0.14451836,0.009598177,0.17276862,0.0955416,0.1598414,0.07722669,0.18353093,-0.13384283,-0.15727015,-0.1804827,-0.161568,0.19127722,0.017332528,-0.19222938,0.28535795,0.01676728,-0.28675124,-0.20011543,0.10835783,-0.17223527,0.0671107
conf_61,-0.15372124,-0.16977422,0.048107322,-0.2481097,-0.03136745,0.02326704,0.24062714,0.21533881,-0.12020256,-0.14425202,0.19290136,-0.06307587,-0.092257716,0.31504497,-0.22104968,0.24786474,0.16320531,-0.059254695,-0.19141428,0.2231041,0.13096485,-0.16487113,-0.5020484,-0.1611294,0.13595405,0.19614273,-0.14062738,-0.18131052,-0.17509703,0.07815018,-0.06698672,-0.17181827,-0.17610405,0.31133133,-0.23403811,-0.24626489,-0.05612054,0.08268671,-0.18527679,0.26483902,-0.14883597,-0.21412885,-0.024501061,-0.07196827,-0.24833654,-0.26886633,0.30864912,0.058711004,0.3128647,0.055901736,0.15785313,-0.052110795,-0.09360957,-0.026768804,-0.13657935,0.06242652,0.15463272,0.17571113,-0.00013147594,0.10668408,-0.053035352,-0.2637296,-0.25533077,-0.1312627,0.15754503,-0.029085452,0.18790404,0.13268107,0.06799628,0.1924481,-0.15009163,-0.5822148,-0.21174926,0.008238807,0.28013033,0.17037545,-0.32670674,0.18008882,0.12753753,0.06737817,-0.06116777,0.22206612,0.031522017,0.1123776,0.21486989,0.19312547,-0.041737575,-0.06815578,0.14557874,0.03309528,0.14858128,-0.22507823,-0.20864742,0.26539245,0.17055799,-0.20344652,-0.15579608,0.3023626,-0.08953862,0.07054109
conf_62,-0.13082571,-0.09261981,0.14892769,0.003980108,0.31487483,0.28271183,0.102368,0.29671806,-0.1530994,-0.37029868,0.040373076,0.31026557,-0.22200492,0.1510586,-0.23741612,0.05560889,-0.013563557,0.12220639,-0.21423218,0.0006019144,-0.23329976,-0.07539004,-0.41219828,-0.21767694,0.151693,-0.08032267,-0.1628324,-0.20612517,-0.25394547,0.14225292,0.21933083,-0.1248612,-0.16391526,0.29328537,-0.13413684,-0.18473856,-0.048362877,-0.06788508,-0.09246567,-0.0886859,-0.11143635,-0.27651936,-0.36675972,-0.34093785,-0.15653993,-0.13781452,-0.46372578,0.21551993,0.1350513,0.1915043,0.13219525,0.26591188,0.30691475,-0.24473472,-0.10394308,0.14774717,0.22909787,0.1708064,-0.12999932,0.032557555,-0.34984866,-0.11833414,0.054671135,-0.1711083,0.17117648,-0.01707288,0.19850928,0.1781304,-0.11177108,0.2742179,-0.16269353,-0.004080862,-0.0916157,-0.27825555,0.2116179,-0.100743525,-0.08722667,0.15491325,-0.08097673,0.12515916,0.060969464,0.18871908,0.061360344,0.113104865,0.16287646,0.23182568,-0.2645535,-0.17152691,-0.07598336,-0.39772257,0.2281614,0.0038955663,-0.23546115,-0.025538106,0.044651486,-0.17260158,-0.052909523,0.07708416,-0.20265,0.19510445
conf_63,-0.009735748,-0.08704479,-0.0446412,-0.2748974,-0.18790305,0.2125111,-0.006041382,0.15108377,-0.19072944,-0.24621138,0.3279455,-0.05527264,-0.1367718,0.21711707,-0.17198806,0.2617832,0.30662143,-0.009226187,-0.24168901,0.049104583,0.44028068,-0.058560614,-0.44426572,-0.1886331,0.15189113,0.08600968,-0.015514952,-0.12652849,-0.14577632,-0.23616026,0.11326642,-0.27156976,-0.25969073,0.28224668,-0.25463,-0.12331227,-0.19615054,-0.12544747,-0.14230293,-0.026377441,-0.020048667,-0.24525547,-0.17084739,0.11557419,-0.20376065,-0.24350385,0.16013837,0.16391517,0.29286647,0.111278646,0.13099682,-0.18094935,0.111691475,-0.14043324,-0.3155799,0.14657566,0.24144714,0.17568448,-0.0145235425,0.10853905,-0.2773808,-0.20110555,-0.31633204,-0.11520919,0.3044355,-0.027507491,0.17311147,0.27348006,0.18217213,0.13578084,-0.20479348,-0.2739692,0.08899583,-0.32278076,0.20662531,0.260169,-0.1558361,0.132395,0.13934298,0.3017543,-0.11551282,0.32709503,0.122686386,0.1483761,0.009928274,0.071730025,0.09541468,-0.16313836,-0.14174967,-0.21545897,0.14178638,-0.05287704,-0.16629837,0.20908369,0.07385165,-0.3042559,-0.13245375,0.10404711,-0.052396536,0.21597068
conf_64,-0.2669152,-0.30215687,0.032009386,0.07734559,0.100075565,0.24775873,0.20820765,0.172768,-0.2128095,-0.17065562,-0.07953244,0.20045285,-0.07836199,0.266619,-0.17517607,0.17699715,0.23333982,0.22434011,-0.1234292,0.23010655,0.027943905,-0.10650086,-0.024668744,-0.15768318,0.1548536,0.12186287,-0.114873804,-0.1500193,-0.23135962,0.24145247,0.22531928,-0.114109404,-0.012569093,0.17971194,-0.17259796,-0.1579185,-0.0912762,0.26901338,-0.18136005,-0.03200333,-0.20933323,-0.27098754,-0.37951058,-0.35544804,-0.20086901,-0.06780822,-0.08667894,0.03477292,0.27084985,0.092510775,0.24219115,-0.05148096,0.11802366,-0.18245366,-0.12785317,0.17198749,0.19544603,0.057252597,-0.11542115,0.034774717,-0.2064819,-0.14651182,0.11380519,-0.19971798,0.20552804,-0.32727805,0.17997028,0.14121324,-0.30569732,0.15877572,-0.15530838,-0.0022403572,0.0054846955,-0.32226178,0.24714097,-0.539003,-0.36687773,0.20454317,0.088645436,0.138291,0.12991633,0.090062335,-0.35093144,0.20161776,0.14988066,0.07608189,-0.26015967,-0.23646595,-0.25687322,-0.26319566,0.12936507,-0.020068048,-0.107633784,-0.13331659,0.31495672,-0.15937623,-0.058941107,0.28764123,-0.117010206,-0.0017827027
conf_65,-0.16274095,-0.15009397,0.15233696,-0.2185392,-0.1107252,-0.0321654,0.028347127,0.20416486,-0.10863322,-0.22458975,0.15429366,0.036299467,-0.09258958,0.19672032,-0.046512283,0.18024784,0.26487646,-0.19025365,-0.29701754,0.072202004,0.2574074,-0.256577,-0.05549427,-0.083573274,0.21825992,0.16515912,-0.1530895,-0.14881603,-0.08507842,-0.07971852,0.18681122,-0.12139216,-0.17871061,0.25567174,-0.13537124,-0.2584754,-0.016480375,-0.10808504,-0.11968511,0.14275315,-0.13516161,-0.27622047,-0.009177714,-0.07974812,-0.21216017,-0.050385755,0.3328152,0.22013827,0.019038985,0.046736594,0.14641722,0.12727052,0.3089898,-0.128712,-0.17055178,0.1148513,0.24809745,0.19066098,-0.017455522,-0.07352731,-0.11564351,-0.2673203,-0.29282844,0.078782,0.20361002,-0.10672584,0.22020894,0.29151127,0.13425721,0.18945016,-0.124410726,-0.46447796,-0.15504071,0.12625502,0.21991172,0.35694417,-0.22560377,0.13352685,0.120659456,0.21002913,0.13346866,0.37234125,-0.013935007,0.15223914,0.17811382,0.25600892,-0.11228753,-0.16048096,-0.012897715,-0.049416177,0.1027032,0.06834075,-0.21728857,0.21388763,0.12611333,-0.26874787,-0.17571494,0.14438942,-0.17769437,0.22497699
conf_66,-0.11549283,-0.24718359,0.15448366,-0.089587055,0.17007083,0.2417668,0.17094006,0.17216448,-0.2216886,-0.065573014,0.11548525,0.23769471,-0.22373188,0.25520757,-0.1523832,0.14065479,0.13331036,0.2937295,-0.28115925,0.24207601,-0.086512074,-0.06674294,-0.19869679,-0.18347116,0.19314209,0.14778805,-0.15563782,-0.108962275,-0.23226431,0.18192728,0.122313455,-0.20658448,-0.12418142,0.26148108,-0.111464724,-0.2151105,-0.29219487,0.29608288,-0.21760705,0.33439872,-0.15996747,-0.21496044,-0.10781952,-0.22615162,-0.12419291,-0.21018128,-0.34690243,0.19391903,0.19694728,0.24939884,0.22425571,0.09580053,-0.019567583,-0.23306851,-0.10426639,0.2344598,0.28012666,0.14661142,-0.21853231,0.23996307,-0.21862434,-0.105170906,0.06266199,-0.09760816,0.23851413,-0.22804524,0.17923868,0.10555047,0.11418181,0.15716341,-0.2517741,0.20491491,-0.21012758,-0.1669609,0.20238906,-0.116897516,-0.18471155,0.09945374,0.10188219,0.20927463,0.17261218,0.012821029,-0.26208198,0.17886214,0.25335908,0.16076747,0.08106379,-0.12845606,-0.114260025,-0.27183062,0.169406,-0.06475237,-0.18006295,0.1580477,0.23187803,-0.14060645,-0.1819081,0.23004091,-0.27895623,-0.032089204
conf_67,-0.08884022,-0.24307053,0.011324981,-0.07450311,-0.120791025,0.16280256,0.0064726234,0.17416744,-0.120894715,-0.1614242,0.08966893,0.15611255,-0.035855573,0.067353286,-0.3454775,0.35882702,0.2364493,-0.39513403,-0.21089877,0.2937652,0.27340046,-0.13387369,0.14419143,-0.099588774,0.21501227,0.19325425,0.09144336,-0.08489713,-0.112530835,-0.067173526,0.11212854,-0.19807881,0.047339898,0.24075496,-0.24655761,-0.04533178,-0.09371491,0.2012561,-0.2648944,0.10498748,-0.11632371,-0.28183028,-0.100434765,-0.018297669,-0.05663674,-0.19193746,0.4477098,0.066421576,0.2107277,0.22704564,0.13109513,0.042511255,0.2952645,-0.10493088,-0.19105041,0.11283756,0.12032082,0.20405228,0.0011475215,0.23106074,-0.22392954,-0.2593108,-0.34908172,-0.14161845,0.11878601,0.0929427,0.13794798,0.30162856,0.04318728,0.08122918,-0.15528253,-0.19128503,-0.14972371,-0.1011288,0.2078349,0.3253312,-0.32631823,0.18483713,0.120127074,0.221234,-0.27139497,0.19918482,-0.0263817,0.25321692,0.047658052,0.25593305,-0.28087887,-0.29498383,-0.109177895,-0.016130807,0.071856804,-0.31641975,-0.18510221,0.23169893,0.046852008,-0.12921186,-0.076087974,-0.082174726,-0.036376532,-0.081516996
conf_68,-0.21088503,-0.19958128,0.062109333,-0.108127214,0.2157258,0.11508183,0.027158652,0.23259795,-0.15609398,-0.16877496,0.37796006,0.15768449,-0.1264747,0.17024527,-0.24778591,0.1589744,0.44716617,0.3312154,-0.18888994,-0.11209217,0.13735718,-0.22287272,-0.22362348,-0.21767503,0.1685401,0.13006254,-0.22703011,-0.07059621,-0.1585101,0.087024584,0.143893,-0.088551424,-0.3486478,0.12805757,-0.07255864,-0.2416427,-0.20514876,0.28137332,-0.14324751,0.11382849,-0.12691447,-0.18329203,-0.29381198,-0.22488353,-0.12707418,-0.24909528,-0.30246228,0.25211674,0.3252559,0.08165579,0.19048521,0.1649565,-0.19302665,-0.23799556,-0.14577854,0.2200022,0.15449177,0.17640316,-0.21586987,0.13934723,-0.14387317,-0.10690052,-0.06694314,-0.3036693,0.121209726,-0.26945537,0.20139638,0.100178815,-0.12728249,0.102283195,-0.18666978,-0.08198336,-0.24258159,0.26812592,0.21481375,-0.20532244,-0.06668489,0.13901517,0.050104007,0.1583359,0.3003278,0.15819982,0.24625553,0.20375067,0.12567976,0.21798845,0.07344056,-0.1724025,-0.2241608,-0.3028793,0.2620642,-0.1356357,-0.26547873,0.031035477,0.14111273,-0.17234702,-0.25117263,-0.06278538,-0.21994914,0.13666287
conf_69,-0.0818535,-0.18126427,0.077175885,-0.40029684,-0.119337626,-0.1945363,-0.044982344,0.13731843,-0.12939523,-0.16970433,0.02376816,0.049241517,-0.10693233,0.27531418,-0.19248895,0.19155161,0.21497186,-0.2149677,-0.34648627,0.22561188,0.22518598,-0.22359554,-0.051325187,-0.13455708,0.16983932,0.114523195,-0.08287152,-0.11036338,-0.07419059,-0.05050949,-0.00045848105,-0.2072085,-0.108060464,0.28941986,-0.48386058,-0.16083476,-0.063135386,-0.010157138,-0.1052766,0.38396075,-0.07230977,-0.15824845,-0.0105596,-0.101212755,-0.1031373,-0.2548231,0.2720319,0.056662574,0.07143605,0.22322308,0.18665364,0.21663867,0.07912664,-0.10671805,-0.24388121,0.09899961,0.2837729,0.28107378,0.048926294,0.3569523,-0.19823377,-0.19753124,-0.21898209,0.05812352,0.20784868,0.058418598,0.16709864,0.3128181,0.14324489,0.13546559,-0.18283738,-0.39093468,-0.18555301,-0.22915508,0.1985206,0.32027447,-0.24325188,0.119005404,0.21240585,0.23399083,-0.055097077,0.14633177,0.06915522,0.14457192,0.17151958,0.12385459,-0.16697593,-0.15512504,0.005419546,-0.0987147,0.06474919,0.18230182,-0.189598,0.28557578,0.12840617,-0.18341862,-0.27951297,0.2608349,-0.15442736,0.112488
conf_70,-0.09315626,-0.03586943,0.17656907,-0.07245729,0.16779718,0.08299918,0.14931327,0.19258556,-0.25770292,-0.21797544,0.21128413,0.25217003,-0.19154839,0.25633952,-0.036446,0.15797877,-0.08070164,0.12669939,-0.2695336,0.036727283,-0.04552776,-0.19765568,-0.0016530886,-0.1694094,0.21782495,0.07211611,-0.03727345,-0.10081001,-0.20061448,-0.15518355,0.1146486,-0.2388894,-0.27612165,0.065711975,0.075522125,-0.05439362,-0.04432033,0.31703117,-0.26339984,-0.10737637,-0.0937409,-0.26816463,-0.17553952,-0.17529778,-0.15919559,-0.012212144,-0.31280053,0.10411079,0.33282226,0.17436238,0.16085824,0.073591836,-0.07963485,-0.20062505,-0.08608201,0.24539772,0.22029719,0.14828964,-0.17672071,0.022298956,-0.30057254,-0.11680141,0.08550057,-0.15120703,0.19669639,-0.32388225,0.1949228,0.14691432,-0.15866731,0.2634693,-0.16039401,0.36030036,-0.012143424,-0.28128543,0.23587832,-0.28491288,-0.22765942,0.1921965,-0.10931174,0.303602,0.55147195,0.29675943,-0.18888389,0.23481283,0.17812122,0.10039143,-0.20582233,-0.11001678,-0.2627173,-0.2814918,0.039793845,-0.17002557,-0.056390587,-0.07734298,0.20948212,-0.2942034,-0.11452965,0.099736534,-0.20995529,0.029813867
conf_71,-0.10102043,-0.07458783,-0.076643825,-0.10747124,0.003248386,0.07897701,0.23550229,0.20107684,-0.10921958,-0.058583353,-0.06407966,0.20274873,-0.2566888,0.13773957,-0.19958958,0.13818707,0.066212706,0.20042625,0.054473195,-0.13169335,-0.032589693,-0.19568494,-0.28951013,-0.24210437,0.09738376,0.068027556,-0.2783851,-0.1793282,-0.21765149,0.25707155,0.039401397,-0.1943013,-0.00067915337,0.057769626,-0.24864289,-0.16327459,-0.0997994,-0.36106732,-0.19818048,0.13230798,0.049149904,-0.19457029,-0.18231416,0.015352849,-0.16790232,-0.09765165,-0.32709515,0.14607967,0.22584413,0.21317877,0.22279207,0.31504065,0.00228803,-0.17007749,-0.12488308,0.11726517,0.2373058,0.25932127,-0.09714548,0.12141887,-0.26330736,-0.19150174,-0.24867763,-0.06646196,0.21868867,-0.12687843,0.16386281,0.17648081,-0.14923474,0.0963657,-0.1390924,-0.20432961,0.015288901,-0.116523266,0.2661499,0.36159497,-0.2513783,0.10703656,0.158382,0.13127926,0.0066405917,0.16793704,0.33128548,0.2392627,0.1808859,0.08821759,-0.19363609,-0.16474234,-0.0588002,-0.23460437,0.25318718,0.035048895,-0.13838616,0.31828475,0.2564997,-0.21142529,-0.0755839,-0.18627116,-0.19537333,0.26412097
conf_72,-0.2873066,-0.24317111,0.19170643,0.04342241,0.2990815,0.03891017,0.3582007,0.18775299,-0.053045794,0.048429795,0.19341712,0.24684788,-0.22450435,0.22808173,-0.36107498,0.22888811,0.1375556,-0.29587182,-0.12872225,0.20740315,0.037371516,-0.24441229,-0.046645887,-0.11156815,0.13273442,0.180608,-0.25863883,-0.15776213,-0.18939172,0.24134107,0.122053936,-0.19976084,-0.120451145,0.02479104,-0.12474869,-0.09873578,-0.01579523,-0.009327155,-0.14190356,0.09127675,-0.13606945,-0.12214233,-0.26444402,-0.13426612,-0.15174218,-0.37084633,-0.1516197,0.098030806,0.34186313,0.105078965,0.14090374,-0.07298688,0.2629823,-0.21031329,-0.19924572,0.07102545,0.16390163,0.15269709,0.037200868,0.27814934,-0.1500872,-0.044848595,0.1682854,-0.2363747,0.20949511,-0.14477956,0.20381969,0.23381795,-0.2487168,0.086664625,-0.2011714,-0.01684442,-0.08501239,0.094843924,0.25758845,-0.19560094,-0.11328585,0.17154118,0.3503378,0.26494956,0.5693594,-0.2541137,-0.103978954,0.20485397,0.036915194,0.20296828,-0.12155776,0.091249324,0.09338859,-0.15626101,0.06929215,-0.46228936,-0.18484627,0.095855676,0.100930005,-0.18386136,-0.1265756,0.11326297,-0.13840525,0.002854846
conf_73,-0.25353366,-0.21951154,0.030243557,-0.16340248,-0.1285046,0.061660096,0.27090782,0.16070382,-0.19711703,-0.41809377,-0.042524476,0.11327734,-0.16815656,0.19120058,-0.34824055,0.15552968,0.12311659,0.11618008,-0.38744843,-0.31293133,-0.114818595,-0.18742257,0.16520253,-0.16464221,0.23656486,0.28266528,-0.25152823,-0.12315326,-0.19281146,0.17277071,0.1622314,-0.1465297,-0.19908808,0.10759421,-0.30394304,-0.25832388,-0.04790733,0.024116188,-0.24414903,-0.06924706,-0.09823371,-0.2283492,-0.26690298,0.08021797,-0.11422404,-0.17801689,-0.07349329,0.20021755,0.24530903,0.3054732,0.24790399,0.20089808,0.05229168,-0.18374455,-0.16161372,0.10664129,0.24962105,0.092866994,0.093673676,-0.13521686,-0.20873702,-0.21994807,-0.16762407,-0.3576436,0.12497767,-0.16039905,0.27484885,0.20446052,0.52648395,0.19581588,-0.16763178,-0.067708775,-0.100948244,0.038321517,0.18154398,0.22733736,-0.18185565,0.2564942,0.1896725,0.22829816,0.1996123,0.36748412,-0.12472538,0.24947163,0.16656886,0.28502098,-0.13527922,-0.24743623,0.04120348,-0.11916376,0.14350568,-0.40206674,-0.3213708,0.19464865,0.10487676,-0.30174726,-0.15198722,0.18973185,-0.14669876,0.35381112
conf_74,-0.21817589,-0.28072798,0.04473776,-0.12103748,0.2199741,0.0333006,0.29608238,0.20066884,-0.20371774,0.06512613,-0.038554374,0.3419847,-0.1915669,0.09177931,-0.33104804,0.30123278,0.057539143,0.17625362,-0.23353052,0.08763544,0.08034741,-0.2803948,-0.262136,-0.22561704,0.22841316,-0.009157836,-0.16355355,-0.052213527,-0.27544907,0.20088892,0.17452417,-0.15347786,-0.15338886,0.03423042,-0.10852101,-0.14981064,-0.106462546,-0.07012839,-0.2183904,0.01870119,-0.22761309,-0.10953108,-0.25646752,-0.20923127,-0.13658202,-0.246244,-0.18359308,0.09462528,0.086796574,0.2041935,0.10326294,0.13122627,-0.010693428,-0.1288888,-0.23798664,0.1575375,0.20936662,0.2250537,-0.1200037,0.30840245,-0.12308322,-0.06456766,-0.07569087,-0.09479361,0.15115309,-0.11258327,0.15063632,0.10907357,-0.07966444,0.13144496,-0.20592973,0.0449023,-0.16283667,-0.17244224,0.14542016,-0.058490634,-0.1610986,0.0777745,0.07042048,0.20063777,0.22098096,-0.17119692,0.04880174,0.26241237,0.15131742,0.36538172,-0.14711945,-0.19745345,-0.27362984,-0.25904197,0.108979605,-0.20359315,-0.3076308,0.1455224,0.07374043,-0.088080466,-0.21123722,0.10399116,-0.32066432,-0.047769528
conf_75,-0.09758982,-0.20970859,0.15383725,0.004792894,-0.21448371,0.16433774,0.22312056,0.022235554,-0.120927036,-0.23648404,0.17930536,0.0004929366,-0.1729414,0.16872644,-0.21756855,0.150308,0.13851245,-0.069982745,-0.2489451,-0.06998039,0.16442424,-0.21852928,-0.22006682,-0.19908358,0.18381858,0.15208805,-0.13102941,-0.17356473,-0.15207109,-0.51512176,0.091484375,-0.09952153,-0.26748785,0.2648302,-0.2542562,-0.077696465,0.024021527,-0.09511672,-0.30460253,0.18395565,-0.11618538,-0.21539463,0.0464193,0.042199735,-0.09439837,-0.13513438,0.2986439,0.17786989,0.30042744,0.23613743,0.21228154,0.19204502,0.51374704,-0.19716208,-0.24319486,0.1974971,0.22849832,0.04747746,-0.03374087,0.0064606494,-0.2559423,-0.17078297,-0.1383524,-0.3263235,0.19733185,-0.0075479615,0.20834935,0.21727914,-0.027989008,0.24592204,-0.1311813,-0.5386402,-0.20804407,-0.14092189,0.26662248,0.36213902,-0.19577834,0.09732983,0.34707192,0.20658006,0.026508017,0.32622427,0.041765556,0.16668361,0.15736778,0.18760431,-0.087786935,-0.08128495,-0.023601029,-0.17942633,0.18884735,-0.38309318,-0.26181895,0.2906017,0.1886673,-0.18417975,-0.18269533,0.016343843,-0.07800541,0.20060658
conf_76,-0.100451626,-0.15229377,-0.0017678484,0.08541135,0.15528338,-0.12604433,0.2508416,0.17945547,-0.093865484,-0.25637838,-0.057875626,0.2860176,-0.20612606,0.23398587,-0.017800119,0.12717478,0.12038898,0.06405434,-0.24758315,0.10414629,-0.14448778,-0.16078517,-0.14823668,-0.20224668,0.15358627,0.19339196,-0.24922125,-0.13174339,-0.1421227,0.008400243,0.13403504,-0.22364885,-0.21109596,0.046885442,-0.20438784,-0.23511714,-0.131734,-0.27675334,-0.19119693,0.12525323,-0.20505042,-0.1433764,-0.21657477,-0.118960544,-0.24238776,-0.02888072,-0.17861328,0.14584963,0.20702264,0.17492302,0.27280185,0.14522782,0.21740063,-0.16231677,-0.21260214,0.24710704,0.17491026,0.16488309,-0.11791859,-0.039974663,-0.3256846,-0.09716561,-0.28691274,0.08805316,0.17247032,0.011387385,0.14838791,0.1919855,-0.14597808,0.12358342,-0.20220509,0.19579503,-0.29748842,-0.06875612,0.18493913,-0.05586812,-0.13419895,0.1622594,0.22320776,0.24899557,0.041204844,0.12578465,-0.23196378,0.23676676,0.15283181,0.22370446,-0.30116788,-0.17490757,-0.30038592,-0.11070014,0.110237546,-0.3348423,-0.11582426,0.12740314,0.10457207,-0.14137828,-0.25522557,0.11747766,-0.21335874,-0.33186504
conf_77,-0.11100656,-0.2006906,0.2925746,-0.06822403,-0.027019426,0.14899048,0.11312885,0.13391197,-0.028343081,-0.28412032,0.28322744,0.24443404,-0.2965311,0.23158404,-0.14465825,0.20019826,0.43269047,0.12594026,-0.4126704,0.18927608,-0.076300375,-0.24554668,0.13397703,-0.3073719,0.19412191,0.2675053,-0.14609599,-0.11942784,-0.13291746,-0.083248004,0.22362052,-0.1675847,-0.12805614,0.13404036,-0.08497371,-0.09134132,-0.09891556,0.12035766,-0.26396132,0.025919288,-0.10541239,-0.22979411,-0.43539265,0.089068435,-0.1580899,-0.21594895,0.13405026,0.16250327,0.24844766,0.18269764,0.07915906,0.15917632,0.073757656,-0.17178756,-0.18248379,0.18426651,0.1806415,0.22927205,-0.15249845,0.0978182,-0.13927893,-0.221712,-0.3779413,-0.1767512,0.23330618,0.049461376,0.19640045,0.22148824,0.059440147,0.13634837,-0.14517806,-0.3958574,0.054721165,-0.14353515,0.23488934,0.056937512,-0.22554956,0.15375154,0.102334015,0.13911638,-0.0086386865,-0.19688669,0.15273112,0.2560121,0.078672625,0.19857818,-0.21223874,-0.11004569,-0.19572489,-0.15264916,0.14537247,-0.0286132,-0.21157317,0.20684955,0.04494401,-0.16356365,-0.3389669,0.026740236,-0.12155362,0.121015385
conf_78,-0.18330233,-0.222204,0.2671367,-0.07343573,0.2700114,0.09855313,0.3317273,0.10290546,-0.13111536,-0.050827105,0.13123126,0.2702838,-0.1429926,0.20491177,-0.17508133,0.22196925,-0.01540298,0.060311064,-0.14123161,0.28686413,-0.07538705,-0.10501211,0.28220809,-0.17803797,0.15514961,0.2882227,-0.17233427,-0.21441278,-0.09396284,0.12604125,0.020786133,-0.23874368,-0.1861405,0.20735985,0.21273026,-0.14964105,-0.14102808,0.16961128,-0.19268051,0.09279479,-0.14522822,-0.07641923,0.05578359,-0.14767396,-0.11623244,-0.20634279,-0.49889106,0.15099692,0.35677287,0.14724611,0.2470281,0.06687997,-0.17236279,-0.086546935,-0.13236977,0.115040526,0.22517994,0.15325274,-0.07040625,0.13522297,-0.17031524,-0.15130186,-0.06165656,-0.21749546,0.17977059,-0.21836725,0.2150381,0.19085243,-0.1929292,0.032594547,-0.15868053,-0.07361767,-0.15491968,0.11755619,0.18864039,-0.029869564,-0.22083387,0.11827913,0.25049782,0.12363403,0.22505982,-0.03374338,-0.07446867,0.17417465,0.23060402,0.13484211,0.011791069,-0.13497756,-0.16746694,-0.0680528,0.074416004,0.0395374,-0.19757794,0.06462669,0.17105946,-0.24743132,-0.31962004,0.18450665,-0.28598276,0.034004442
conf_79,-0.08929042,-0.081638195,0.33488974,-0.1431209,0.06457718,0.057820458,0.41003674,0.14728643,-0.17282216,-0.071567,-0.1488745,0.20102659,-0.0662813,0.26399726,-0.23795716,0.11548169,0.11246074,0.02891198,-0.3013206,0.14163451,0.04961157,-0.25282282,-0.1761612,-0.04097806,0.14547381,0.065993816,-0.14525986,-0.30586055,-0.22627494,0.08479012,0.12074819,-0.17115222,-0.44547123,0.48128086,0.018095015,0.03609793,-0.18039158,0.17166765,-0.15447041,0.2857726,-0.11587432,-0.27274844,-0.08466084,-0.15317284,-0.15268734,-0.19205147,-0.21634215,0.064502835,0.34680495,0.18315458,0.15901189,0.31211263,-0.2924241,-0.24915545,-0.20680174,-0.029231846,0.15059698,0.094286814,-0.1556332,0.27146748,-0.11563462,-0.19146836,-0.011755914,-0.2000848,0.22804143,-0.26284838,0.18373248,0.25802144,-0.13033782,0.063639365,-0.19486879,-0.2730386,0.06634678,-0.09139919,0.29402006,0.2304523,-0.21407126,0.11100806,0.08083264,0.1699647,-0.36027792,-0.060278576,0.07778445,0.02956945,0.2670171,0.08948022,0.16040754,-0.22177728,-0.11303503,0.03218226,0.2582158,-0.075920634,-0.18438885,0.26193887,0.19300734,-0.16155507,-0.07905927,0.17526379,-0.106407665,-0.03120608
conf_80,-0.08913816,-0.17549813,0.20973897,0.0017234386,0.36437503,0.20622931,0.257368,0.14830506,-0.072116174,0.21967934,0.060642727,0.32060698,-0.10170638,0.09377021,-0.08947521,0.16334324,0.33043987,0.28033894,0.0139603345,0.44038016,-0.27201238,-0.05065227,-0.19032605,-0.14446235,0.14548038,0.3156976,-0.10926005,-0.14121725,-0.16682732,0.113287576,0.03497796,-0.14290692,0.3244829,0.22088774,-0.1629407,-0.15856846,-0.27746424,0.21921514,-0.15010114,0.15318984,-0.04883965,-0.101656295,-0.47869802,-0.0049607777,-0.06089314,-0.28156385,-0.27518523,0.10607774,0.20074552,0.2220131,0.26238385,0.090892665,0.051735908,-0.16910279,-0.06775995,0.12362266,0.19872719,0.08791133,-0.11133439,0.29608253,-0.21512198,-0.15068595,-0.061439652,-0.079268835,0.10545793,-0.14068589,0.21863692,0.04056296,-0.054005805,-0.0068870666,-0.23479189,-0.12564245,-0.16474782,-0.100288026,0.27581802,0.06097262,-0.3010661,0.17035745,0.029616412,0.09524359,-0.099316254,0.19274391,-0.41021058,0.15494974,0.090731986,0.20738703,-0.10761063,-0.30728525,-0.137106,0.0046935533,0.24496111,-0.23958696,-0.20372647,0.07569272,0.20103405,-0.20967239,-0.14283246,0.10037012,-0.21393578,0.044755418
conf_81,-0.09835959,-0.09559815,0.062982485,-0.21460675,-0.07904778,0.18638645,0.13043727,0.22279792,-0.19573149,-0.21544942,0.36050984,0.078298666,-0.21379596,0.08070582,-0.20674162,0.25506818,0.22285439,0.28067252,-0.29351237,0.20575255,0.0905268,-0.17894594,-0.06591916,-0.22871254,0.13246006,0.03852903,-0.047566764,-0.11190778,-0.16151121,-0.0007849291,0.1462495,-0.16829489,-0.16710736,0.16077568,-0.28089967,-0.11518918,-0.106124334,-0.0029283708,-0.21742195,0.048529863,-0.10328786,-0.042731468,-0.0661732,0.13968274,-0.1488049,-0.16495557,0.39120924,0.1515817,0.09803791,0.21059379,0.18697473,-0.05682332,0.16527793,-0.03464066,-0.1631788,0.08449182,0.20055173,0.10363494,-0.049448606,-0.03415227,-0.2571397,-0.1208663,-0.2918646,-0.282916,0.21306251,0.05112491,0.22324763,0.19230054,0.33343315,0.18739773,-0.24662131,-0.021795433,0.13248934,-0.25772843,0.16267245,0.23493227,-0.23013781,0.12843934,0.31678295,0.12683097,0.13182902,0.3479296,0.07603002,0.20199344,0.12620798,0.18657188,-0.06323521,-0.15305515,-0.14042395,-0.24996349,0.036108512,-0.25384915,-0.2127044,0.35272735,0.093578994,0.009472352,-0.22526474,-0.13707954,-0.14484456,0.29415515
conf_82,-0.19670428,-0.07663699,0.29310066,-0.015229264,0.2604922,-0.04034506,0.12436325,0.23134801,-0.1682398,-0.10090483,-0.21256258,0.2307583,-0.17278117,0.10192334,-0.0012470719,0.17026679,0.19566105,-0.049974475,-0.0044876114,-0.122648366,-0.18490493,-0.17495878,-0.41944674,-0.26648214,0.16754778,0.22736068,-0.15959379,-0.1587929,-0.2317729,-0.28821385,0.20568566,-0.08475144,0.06641406,0.14032246,-0.15694654,-0.19135761,-0.32629737,0.101403646,-0.22067772,0.10809096,-0.022015762,-0.11466041,-0.40396166,0.15812245,-0.12360782,-0.27371818,-0.40963104,0.21981183,0.23388201,0.13801508,0.17817654,0.02899708,-0.120018095,-0.22933456,-0.053054705,0.10854345,0.13705352,-0.022328893,-0.12923244,-0.10567763,-0.13213694,-0.07627306,0.042302005,-0.3095329,0.12781638,-0.2745687,0.11946151,0.26102847,-0.16831148,0.063919134,-0.17286557,-0.0032836231,-0.05882821,0.05610411,0.18199342,-0.38539958,-0.24553545,0.13613932,0.044400413,0.091375776,-0.07550484,-0.22387807,-0.09386501,0.17619516,0.12673438,0.11981583,-0.2557009,-0.051253356,-0.17577745,-0.21407115,0.096091874,-0.3724035,-0.13780454,0.07683577,0.110014,-0.14835578,-0.12152475,-0.06453641,-0.0834541,0.030282509
conf_83,-0.23518781,-0.15381049,0.02960923,0.16416278,0.07627109,0.05449166,0.13932164,0.2524938,-0.16936581,-0.16678962,0.15647212,0.11510236,-0.22890086,0.122284316,-0.08408627,0.15152754,0.21802726,0.37773076,-0.18479082,-0.13501734,-0.11347089,-0.3022999,-0.034943257,-0.0996354,0.09853781,0.26078188,-0.24640995,-0.24175912,-0.15592226,-0.04151761,0.043624796,-0.18845873,-0.0777991,-0.032087132,-0.13146332,-0.12702495,0.07440978,-0.27127358,-0.17509364,0.18598557,-0.019935532,-0.15394138,-0.022890313,-0.044648804,-0.235687,-0.24864765,-0.19332322,0.17538008,0.20978588,0.06973854,0.24734487,0.065102816,-0.06682009,-0.15339512,-0.2675621,0.20500799,0.24299976,0.1508742,-0.0812666,0.112415716,-0.14159945,-0.24025832,-0.46656883,-0.21634373,0.18014286,-0.13820612,0.20612401,0.15279129,0.05256828,0.057687018,-0.27740857,-0.4222496,-0.016092021,-0.3098062,0.20067608,0.17122227,-0.176676,0.21843514,0.17431359,0.20203072,0.004481681,-0.19009386,0.021649996,0.2803319,0.20975934,0.23165803,-0.37618256,-0.18516919,-0.19944158,-0.086032145,0.19873607,-0.28676772,-0.22458707,0.106515564,0.17345946,-0.107506126,-0.26474202,0.05735549,-0.14903605,0.18603054
conf_84,-0.24217843,-0.13505949,-0.028703552,-0.15800752,0.32069373,-0.02732998,0.3151136,0.20913604,-0.19458038,-0.040688384,-0.2126292,0.11998262,-0.22766463,0.1463119,-0.120745085,0.1584917,0.08905271,0.102285564,-0.14913836,0.042092577,-0.024641268,-0.1840482,0.12770559,-0.14662725,0.16198203,0.18906434,-0.11053101,-0.2952102,-0.11697542,0.36416727,0.24761094,-0.1058427,0.01645262,0.13038318,-0.111833505,-0.114708856,-0.15870099,0.06522825,-0.124405235,0.13082068,-0.15451251,-0.1629715,-0.24001317,0.24387972,-0.22847989,-0.22317371,-0.13908379,0.21457055,0.1792548,0.1527559,0.18443625,0.20897031,0.15061414,-0.17403562,-0.1198064,0.17043078,0.1499252,0.1855136,-0.20500399,0.2160229,-0.12116787,-0.15400098,0.050395377,-0.04824558,0.20504923,-0.02173725,0.23466943,0.06264641,0.12347411,0.20618682,-0.20294157,0.095744945,-0.18682791,-0.09911542,0.24270774,-0.37821525,-0.2862571,0.17985377,0.11631828,0.08958659,-0.31213924,-0.28048283,-0.09952537,0.1442871,0.211277,0.15835413,-0.12528263,-0.13950041,-0.23215216,-0.14314187,0.26913843,-0.09299224,-0.17160007,0.390288,0.10808313,-0.159704,-0.36821064,0.0042963284,-0.19510816,-0.04835201
