conf,c_0,c_1,c_2,c_3,c_4,c_5,c_6,c_7,c_8,c_9,c_10,c_11,c_12,c_13,c_14,c_15,c_16,c_17,c_18,c_19,c_20,c_21,c_22,c_23,c_24,c_25,c_26,c_27,c_28,c_29,c_30,c_31,c_32,c_33,c_34,c_35,c_36,c_37,c_38,c_39,c_40,c_41,c_42,c_43,c_44,c_45,c_46,c_47,c_48,c_49,c_50,c_51,c_52,c_53,c_54,c_55,c_56,c_57,c_58,c_59,c_60,c_61,c_62,c_63,c_64,c_65,c_66,c_67,c_68,c_69,c_70,c_71,c_72,c_73,c_74,c_75,c_76,c_77,c_78,c_79,c_80,c_81,c_82,c_83,c_84,c_85,c_86,c_87,c_88,c_89,c_90,c_91,c_92,c_93,c_94,c_95,c_96,c_97,c_98,c_99,c_100,c_101,c_102,c_103,c_104,c_105,c_106,c_107,c_108,c_109,c_110,c_111,c_112,c_113,c_114,c_115,c_116,c_117,c_118,c_119,c_120,c_121,c_122,c_123,c_124,c_125,c_126,c_127,c_128,c_129,c_130,c_131,c_132,c_133,c_134,c_135,c_136,c_137,c_138,c_139,c_140,c_141,c_142,c_143,c_144,c_145,c_146,c_147,c_148,c_149,c_150,c_151,c_152,c_153,c_154,c_155,c_156,c_157,c_158,c_159,c_160,c_161,c_162,c_163,c_164,c_165,c_166,c_167,c_168,c_169,c_170,c_171,c_172,c_173,c_174,c_175,c_176,c_177,c_178,c_179,c_180,c_181,c_182,c_183,c_184,c_185,c_186,c_187,c_188,c_189,c_190,c_191,c_192,c_193,c_194,c_195,c_196,c_197,c_198,c_199
conf_0,-0.08584566,0.069980964,-0.16100302,0.04531201,-0.06766027,-0.08426826,0.2431441,0.100551344,0.04631031,-0.169727,0.019178838,0.13028029,-0.068444796,0.1558446,-0.098019905,0.08998342,0.13985369,-0.09068846,0.16961636,-0.21070279,0.100075774,-0.21373855,0.08226371,0.0054690735,-0.16182335,-0.06501457,-0.1300656,0.16955201,0.06438734,0.16369082,-0.05829304,-0.2440881,0.14627674,0.05773083,-0.0059593865,-0.1573283,-0.10651876,0.18644857,0.15888953,-0.10470559,-0.2716874,-0.05812063,-0.030262982,0.25173187,-0.124138765,0.08576077,0.12359778,-0.19606787,0.099052384,-0.014143244,-0.25126746,-0.1398098,-0.19084777,0.36256605,0.18049157,-0.11851864,-0.25855327,-0.1741875,-0.123061076,0.1595167,0.054728653,-0.024090575,-0.082949415,-0.19197108,0.25061914,0.16768967,-0.12892835,0.110960744,0.1947621,0.12534031,-0.12578364,0.11220942,0.42893606,0.16040863,-0.20699513,0.056939468,0.14119607,0.18637404,-0.12949875,0.100752115,-0.023089157,0.29368684,0.22249593,-0.14654224,-0.246354,-0.018614504,-0.1686771,0.1592449,-0.05129989,0.022785736,-0.08047996,0.07040356,0.11416012,-0.20980072,0.11168644,-0.1599665,-0.23455642,-0.20329672,-0.37664655,-0.24101765,0.183923,-0.013176148,-0.15598351,-0.04344022,-0.2484855,0.104623795,0.16886458,-0.053216174,0.16905268,-0.0064676246,0.1981366,-0.09990497,0.116773754,0.12238641,-0.08386064,-0.06610152,-0.014384468,-0.20888971,-0.18669575,0.035890497,-0.06774457,-0.03226241,-0.04571991,0.13752112,-0.13730796,-0.059255283,0.053891834,-0.1446597,0.25947747,-0.25403893,0.021759741,0.23972417,0.00139657,0.39143124,0.3254009,0.10994629,0.110925004,0.15422232,0.07053202,-0.04259138,0.00364706,0.02198401,-0.2104981,-0.18930039,0.13129805,-0.031795163,-0.17816855,-0.04058838,-0.20438315,0.14672717,-0.11782346,-0.111719534,0.057032753,0.122473456,0.12925816,-0.16661939,0.015007529,-0.16814443,0.2363344,-0.17116098,0.2395891,-0.11565918,-0.2213285,0.11674962,-0.23202653,-0.13596961,0.18610518,-0.30198923,-0.07755576,-0.2952464,0.27188164,-0.19618462,0.17598793,-0.054015838,-0.13285056,0.16229337,-0.12429588,0.020345788,-0.24207291,-0.056927897,0.16244484,0.011133259,-0.20939589,0.08180215,0.09468115,-0.15689784,0.043007754,0.06150709,-0.18317088,0.050837528,0.028196748,0.26409638,0.10646237,-0.14313062,0.06971287,-0.07066081,-0.2684943,0.057261646,-0.22391437,0.14857082
conf_1,-0.22916962,0.11393122,-0.08270085,0.34995908,-0.28953388,-0.13405411,0.21691477,0.1183245,0.14124,-0.15801644,0.2048495,0.10902371,-0.109257445,0.21156397,-0.008649145,0.2651323,0.19074094,-0.14363846,0.22666468,-0.21581909,0.025858236,-0.22065698,0.07782608,-0.09679297,0.033817217,0.17927687,-0.27476382,0.32116225,0.14243868,0.16090706,-0.047612946,0.26520106,0.0062236153,0.14127114,0.21925715,-0.1616126,-0.15603806,0.10810333,0.2569204,-0.24052685,-0.26887825,-0.12758794,-0.14604832,0.10769036,-0.022063557,0.054822296,0.06072954,-0.17249733,0.04118234,-0.2556318,0.32783386,-0.14109078,-0.027561182,0.045282867,0.16211212,0.012058622,-0.10066496,-0.09032394,0.09597346,0.21503504,0.048695616,-0.09107864,-0.025110092,-0.20906377,0.24271204,0.13961655,-0.07709364,0.2669162,0.07964776,0.04162255,-0.046712242,0.050789185,-0.07378043,0.059916403,-0.21780702,0.13866666,0.1894079,0.17686912,-0.104202956,0.052594338,0.2927624,0.2081301,0.11465694,-0.15574089,-0.27897283,0.08083372,-0.21900591,0.008310924,-0.23287497,0.11779305,-0.14591226,0.12539996,0.12546018,-0.20698316,0.2510061,-0.24715337,-0.024360796,-0.07579457,-0.036926106,-0.17074324,-0.024840416,-0.24538223,-0.06401122,-0.021309452,-0.10208607,0.10508704,0.23199433,-0.083832026,-0.048882782,-0.14816229,0.083304204,-0.10758066,0.28327575,0.12048547,-0.044507965,-0.15453011,0.117091976,-0.14111447,0.37438908,0.12771608,0.064548,0.089436494,-0.23627913,-0.1533012,-0.22828668,-0.23491314,0.21211854,-0.20194432,0.034677614,-0.20119987,-0.31566605,0.09398838,0.11883946,0.1180383,-0.08680007,0.045615222,0.3336803,0.14763455,-0.011334641,-0.07489199,-0.15045027,-0.07144683,-0.10570814,-0.29342484,0.13578649,-0.13821916,-0.07475458,-0.017248219,-0.26800308,0.21055327,0.06408086,-0.07870698,0.11184299,-0.17163771,0.15408567,-0.123680376,0.07989201,-0.22328466,0.1439953,-0.01978617,0.09013015,-0.15442836,-0.15712781,0.15536995,-0.17851843,-0.1712071,0.07177932,0.19705702,0.016074331,-0.123309165,0.09875979,-0.15076733,0.16239972,-0.21404612,-0.20212755,0.07291403,0.020814063,0.18749599,-0.04941414,-0.14558159,0.23785552,0.10284119,-0.14614972,0.19437774,0.06684017,-0.08861559,-0.11707827,0.05729203,-0.16671011,-0.1913313,0.14411773,0.24123447,0.062339127,0.013741591,-0.0022756357,-0.27084434,-0.11716109,0.13120332,-0.14650804,0.18845832
conf_2,-0.147287,0.14078027,-0.14341944,0.07865811,-0.10064123,-0.18400316,0.009368738,0.06419869,0.0048112595,-0.13488965,0.06790476,0.103402056,-0.11669743,0.1738009,0.14741509,0.2427683,0.12923037,-0.15307179,0.083698474,-0.20116052,-0.16593617,-0.17429233,0.028048797,-0.25941277,0.063339084,0.23730126,-0.05773031,0.046716277,0.14130518,0.107875444,0.016294774,0.2647772,0.11378069,0.12650663,0.04001179,-0.09940772,-0.004585977,0.17208917,-0.067718096,-0.055131163,-0.2187209,-0.18342392,-0.07900405,0.19442764,-0.19049601,0.1389558,0.21072195,-0.15602687,0.16851449,-0.07427901,-0.17569974,-0.19873995,0.17077684,0.20261838,0.07004832,-0.10709401,-0.17212977,-0.23259324,-0.07857698,0.028500574,-0.099794075,-0.023177573,-0.18321109,-0.13874318,0.16646837,0.08730404,-0.16946669,0.13364974,0.11868397,0.060612913,-0.074606195,0.070933715,0.31594473,0.054077618,-0.18296306,0.07915322,0.08215572,0.1970147,-0.039492916,0.12605625,-0.014835549,0.222426,0.05825702,-0.104687236,-0.071749374,-0.19468443,-0.18597096,0.13985236,-0.06657231,0.00015078773,-0.09374996,0.013641974,0.15614338,-0.070132785,0.2550899,-0.09618571,-0.13612355,-0.2716857,-0.047974132,-0.18834394,0.019801952,-0.16508915,-0.2417354,-0.07500217,-0.25312582,0.12187724,0.12360468,0.0992631,-0.07794538,0.12153805,0.3421958,-0.061360754,0.14096057,0.2141796,-0.18704323,-0.07457709,0.05042777,-0.03065581,0.039733402,0.25712797,0.2324476,0.0404718,-0.0978968,0.17894877,-0.14015393,-0.12894142,0.15325023,-0.20743603,0.09556416,-0.12759146,-0.018014569,0.13982518,0.2688635,0.1986151,0.14546591,0.09695542,0.34475464,0.19366997,0.019146174,-0.14808057,-0.024457054,-0.13020629,-0.14766273,-0.041331787,0.07131138,-0.09642775,-0.1778476,-0.054116495,-0.051027525,0.17582688,-0.074706115,-0.023868375,0.16284828,0.077850774,0.094257504,-0.012716982,0.21394616,-0.19744267,0.19461769,-0.13926692,0.3132201,-0.13831891,-0.00882619,0.13025112,-0.089680515,-0.0069839526,0.1952556,0.024734786,0.06411528,-0.07485819,0.17672782,-0.12370876,0.06397999,-0.15972066,-0.0060534435,0.18218315,-0.23149098,0.024078045,-0.15782742,-0.1329916,0.27205804,-0.32450283,-0.1806324,0.14086573,0.0357047,-0.1408803,-0.12467756,0.11228284,-0.11060594,-0.02397415,0.05725689,0.09581506,-0.074487895,-0.12982501,0.049999446,-0.025311753,-0.06539208,0.088075034,-0.061216313,0.17956387
conf_3,-0.16114673,0.04703545,0.03564137,0.27490768,-0.10567582,-0.035499763,0.062383953,0.06654728,0.16486648,-0.1375631,0.11753823,0.13317242,-0.17925152,0.10020583,-0.2352778,0.16906305,0.14859739,-0.19228575,0.19044274,-0.17122409,-0.005243918,-0.1450453,0.06877498,-0.1417058,-0.03120845,0.25749904,-0.22448345,0.15298544,0.19708584,0.14912152,-0.1696322,0.23327927,0.09263749,0.177481,0.21888286,-0.016261522,-0.1757306,0.19130069,0.061375882,-0.15716596,0.03072154,-0.22694759,-0.14536455,0.21329194,-0.10691939,0.099950835,0.15290846,-0.25029513,0.09742723,-0.21850063,-0.017879764,-0.007598854,0.046856254,-0.027914252,0.056322057,-0.3032646,0.023117881,-0.0919145,-0.26816288,0.055084668,0.22160524,-0.06545466,-0.28046766,-0.13649689,0.077141665,0.13619526,-0.08046095,0.3151209,0.17580108,-0.16496217,-0.079731345,0.086830445,-0.1722474,-0.13207933,-0.20992006,0.17659058,0.21015334,0.15688927,-0.16044375,0.24548085,-0.011123828,0.063672245,0.14783761,-0.17752519,-0.25355145,-0.11904515,-0.17874716,-0.075654656,-0.14800318,0.21386525,-0.073329985,0.21854243,0.13243175,-0.09870318,0.12768875,-0.08594162,-0.07974162,-0.058768943,-0.17567728,-0.0355557,0.08058055,-0.23237288,-0.21893585,-0.07619825,-0.15353449,0.120227486,0.0050783283,-0.19364272,-0.03976833,-0.008250511,0.105769336,-0.115226805,0.2767282,0.11835668,-0.08000354,-0.11328136,0.17315857,-0.04003848,0.119371824,0.13379534,-0.09497531,0.3508417,-0.15183808,-0.13044843,-0.1430428,-0.16407715,-0.076721705,-0.09540163,0.08133745,-0.06638693,0.049627513,0.14054914,0.22298446,-0.11124391,-0.11164234,0.105232686,0.070810005,-0.028614866,0.10232652,-0.32478017,-0.12802543,-0.03781288,-0.23477748,-0.09256332,0.04980985,-0.11933372,-0.21919574,-0.0059659868,-0.12640998,0.3463929,-0.22498548,-0.0025538674,0.12638536,-0.31175113,0.115645245,0.20870882,0.19894876,-0.17435738,0.036253974,0.091286995,0.025131378,-0.19769005,-0.16742271,0.063433856,-0.15916854,0.028252829,-0.2510772,0.098787196,0.23535435,-0.14119567,0.105242595,-0.21734129,0.03157221,-0.15007806,-0.17503802,-0.012138896,-0.20840819,0.09940294,-0.087470464,-0.07574025,0.23402542,-0.03539507,-0.12501979,0.17965461,0.008757738,-0.07667012,-0.14044027,0.12683757,-0.13409217,-0.07448113,0.19492298,-0.08666542,-0.10276673,-0.23487593,0.086217456,-0.0825074,-0.073552094,0.15686634,-0.09254602,0.17099565
conf_4,0.23185153,0.17270318,-0.12122769,0.16551593,-0.06273334,-0.072449304,0.12863545,0.1801749,0.01757915,-0.21331438,0.107959,0.09202585,-0.13131236,0.09825354,-0.11277776,0.09193836,0.12610841,-0.057842348,0.14318581,-0.22980742,-0.03835997,-0.12381028,0.13252972,-0.14432698,-0.040412623,-0.080461875,-0.12716174,0.20941748,0.018765667,0.12631413,-0.10332718,-0.07439725,-0.021140717,0.12128844,0.14829516,-0.055454448,-0.19703674,0.16430974,0.06025108,0.21294853,-0.11618915,-0.003294665,-0.09055545,-0.0105611645,-0.09785546,0.025702482,0.13965811,-0.14765823,0.1425487,-0.00665964,0.5160043,-0.015388918,0.061228856,0.20977499,0.25121626,-0.1692193,-0.19489816,-0.012704685,-0.1355536,0.2707661,0.08768458,-0.052637078,-0.2100961,-0.2580724,0.1567987,0.21815267,-0.13359232,0.1280464,0.15254879,0.09824001,-0.12042754,-0.16230522,0.09452795,0.13738082,-0.12087878,0.13475193,0.018069671,0.09826898,0.015370824,0.09276139,-0.2112373,0.17219633,0.1113498,-0.22455241,-0.077447645,0.2983358,-0.30399337,0.17046584,0.0245035,0.05448385,-0.06517898,0.08006616,0.013867572,-0.19905901,-0.074179955,-0.09319728,0.19617778,-0.26258767,0.37118804,-0.09622147,0.13661791,-0.12765259,0.052487273,-0.19940749,-0.18084267,0.14632922,0.29547668,-0.006230658,-0.16272195,-0.07821314,0.17063326,-0.14030732,0.36421564,0.08100913,-0.21926168,-0.071717,0.04552237,-0.1599249,0.013515831,0.23090461,0.25260162,0.049851723,-0.04317839,-0.18454166,-0.23904622,-0.042631153,0.2645593,-0.07339482,0.15526207,0.089394756,0.31755885,0.14963129,0.2025345,0.0002917766,0.29206496,0.14391921,-0.009186548,0.078770414,0.12192184,-0.22608534,0.029725993,-0.091843545,-0.18389967,-0.035587285,0.056742985,-0.2511708,-0.10346289,-0.13264818,-0.17105463,0.20907065,-0.14391145,-0.1333513,0.19587994,-0.1579,0.013461447,0.058809847,0.024241876,-0.1752938,0.118384235,0.04952825,0.12930003,-0.09487176,-0.115514554,0.31716895,-0.054207157,-0.109488465,0.28100833,-0.2431449,-0.22525351,-0.12087812,0.3218464,-0.10587668,0.24618186,-0.1868145,-0.14304869,0.15928964,-0.105301954,0.08968114,-0.1425403,-0.12863459,0.20841336,0.06280634,-0.017267259,0.10193418,-0.017213218,-0.18938206,0.29556224,0.15119293,-0.12987477,-0.1355015,-0.09836623,0.1770057,-0.15502305,-0.23839124,0.19506827,-0.20475145,-0.17288217,0.24344528,-0.13749015,0.12209597
conf_5,-0.052116722,0.09263566,-0.10106199,-0.06784275,-0.12384418,-0.13906531,0.27099904,0.16761298,0.26373947,-0.17872985,0.17991409,0.25434244,-0.22279176,0.31110927,-0.03367362,0.024803732,0.16410883,-0.15752581,0.119360335,-0.09089344,-0.24405132,-0.12351756,0.13773713,-0.27387962,-0.09219251,0.14426436,-0.21688078,0.06998002,0.28440663,0.13390785,-0.13473609,0.12891875,0.26111537,0.16985755,0.18795046,-0.24912284,-0.061928492,0.11516036,0.11798622,-0.19859193,-0.0852522,-0.17777638,-0.15349251,0.120722264,-0.067592315,0.20098516,0.016383015,-0.15367183,0.17146376,0.060837325,-0.22838973,-0.14810872,0.15827985,-0.0599928,0.15116237,-0.19368438,-0.07981617,-0.15148546,-0.27692026,0.00504011,0.07828133,-0.16706346,0.2395592,-0.08761024,0.20398168,0.15700237,-0.113978095,0.20861386,0.09024176,-0.20697123,-0.013854054,0.021584388,-0.016045561,-0.0868604,-0.22681864,0.10125708,0.13267253,0.024232253,-0.15002106,0.115875974,0.28011745,-0.028932828,0.1194357,-0.076556586,-0.2813702,0.039682936,-0.17859805,-0.014949971,-0.14531869,0.15702023,-0.16731463,0.2302881,0.10041018,-0.24811365,0.08339017,-0.28335738,-0.09898845,-0.09451659,0.1627559,-0.16200729,0.1449068,-0.25022703,-0.23727983,-0.23929197,-0.1727248,0.14812775,0.15449233,0.015315206,0.2618105,0.27419773,0.0483576,-0.082660176,0.06293633,0.09860516,-0.08496513,-0.16077109,0.00042773745,-0.13731322,0.14309858,0.11818029,0.0111901155,0.25865784,-0.42866394,0.085754834,-0.21760948,-0.14014149,-0.08833061,-0.18562998,0.06823263,-0.1830029,0.19096915,0.15590446,0.15860024,0.25105503,-0.050419644,0.18105306,0.19592373,0.15485626,0.08275412,-0.13729396,-0.137122,-0.1706487,-0.16284284,-0.09317638,0.07228195,-0.13563144,-0.17732371,-0.11054049,-0.19056226,0.0425111,-0.085432015,0.04060136,0.17709413,-0.285204,0.17445374,0.07861856,0.17972371,-0.1226497,0.03161285,-0.18591946,0.025851544,-0.10129755,-0.08841249,0.17577866,-0.13728613,0.23071042,-0.0300842,0.16077878,-0.19142538,-0.09488091,-0.1536334,-0.20444883,0.097316995,-0.14148773,-0.08855986,0.30419096,-0.012607135,0.16680281,0.112640746,-0.15844709,0.26879847,-0.07847858,-0.08116118,0.1776939,0.012741902,-0.1850864,-0.09344239,0.09779086,-0.10779114,-0.15090717,0.073678955,-0.070282005,0.093098655,-0.17114536,0.13751292,-0.16149686,-0.15770905,0.13580567,-0.15821436,0.1378912
conf_6,-0.073954254,0.08552203,-0.26054698,0.27084407,-0.045666113,-0.053152855,0.012857357,0.15894769,-0.029252358,-0.111908674,0.124426536,0.062327433,-0.2580297,0.12773205,0.3154288,0.31123036,0.19335662,-0.050545964,0.18295868,-0.02065231,-0.2820265,-0.14784802,0.07780912,-0.05771154,-0.11730254,0.055089287,0.0035828953,0.25696817,0.01910426,0.15006861,-0.12317945,-0.1812677,0.2517199,0.142966,0.009033378,0.012125451,-0.017599436,0.20025133,0.08107502,0.019209234,-0.34265018,0.23163132,-0.06764392,-0.053233568,-0.14524028,0.15820669,0.09120702,-0.21958385,0.17840615,0.096396044,-0.043028448,-0.06857191,-0.18803321,0.275849,0.027474394,-0.020488024,-0.1669097,0.06814952,-0.22833945,0.25471225,0.07370955,-0.18069643,-0.16673458,-0.2256062,0.14975657,0.12701766,-0.119564466,0.2907695,0.1826067,0.2665038,-0.10589684,-0.18113434,0.034372907,0.2002803,-0.16178602,0.02669468,0.32108644,0.13701746,-0.15268458,0.14696553,0.043702226,0.067556,0.024796404,-0.1288256,-0.10937786,-0.055653535,-0.21287692,-0.036863495,-0.00642722,0.08548748,0.04127271,0.030888911,0.053935785,-0.04125661,0.12525283,-0.13724579,0.50169903,-0.29203573,-0.12120702,-0.24120237,0.17931084,0.009355014,0.26435006,-0.0858388,-0.08747838,0.05359536,-0.08780805,0.0012950161,0.021683156,-0.11574395,0.097619146,-0.019953609,0.0894138,0.18384011,-0.117100224,-0.12643649,0.068413556,-0.07845874,-0.16526821,-0.018079808,-0.0639639,0.03158324,-0.2809067,-0.11408232,-0.065047674,-0.14674003,-0.100708,-0.009587422,0.19665286,-0.1839566,0.098275274,0.2570201,-0.1866411,0.11149787,0.09183629,0.21230355,-0.082540445,0.08292431,0.09879627,-0.17748684,0.049010728,-0.18813601,-0.09668381,-0.061030507,0.05488404,-0.08793422,-0.10108456,0.08737063,-0.1444244,0.25327602,-0.058535844,-0.23400441,0.060534894,-0.0944219,0.24256293,-0.072949,0.13760342,-0.12734784,-0.027003475,-0.11199031,0.30066395,-0.059901815,-0.0045162532,0.109117165,-0.08965178,-0.22639082,0.16793162,-0.069900095,-0.064986885,0.0352911,0.29335862,-0.0027421692,0.06513528,-0.10981443,-0.19498031,0.2425615,0.108122006,0.08765218,-0.23207983,-0.31838757,-0.077662826,0.0045863795,-0.19492584,0.09489598,0.006519996,-0.11934106,0.21777396,0.1928187,-0.18155824,-0.32589743,-0.08097266,0.096014366,-0.0062817233,0.12959352,0.12938577,-0.087344125,-0.05820659,-0.07079824,-0.09373454,0.06080083
conf_7,0.05548029,0.040087037,0.05877474,0.18767227,-0.186207,-0.033456784,0.1082254,0.040735483,0.21075644,-0.05314065,0.07732916,0.101381615,-0.29827023,0.06569633,0.053584304,0.007063738,0.15828513,0.1852033,0.1052024,-0.08234743,-0.0010547875,-0.18146545,0.0863875,-0.055022202,0.21244982,0.117821485,-0.27072704,0.009639899,0.1439523,0.18102923,-0.17010552,-0.020307695,0.066269174,0.16341935,0.29882982,-0.06968152,-0.1261621,0.14388905,0.04082288,-0.054842357,-0.104488395,-0.050292708,-0.18589006,0.19101313,-0.20177664,0.044590533,0.24336503,-0.22541372,0.15718001,-0.039895885,-0.12764445,-0.036572333,-0.0007402985,-0.34497312,0.1397062,-0.046326317,-0.06722026,-0.067216024,-0.23616475,0.14459807,0.096209474,-0.16302113,-0.0034270373,-0.16173667,0.034461692,0.1099518,-0.14601243,0.14578125,0.047001276,-0.1384941,-0.08733592,0.13170789,0.15438391,-0.051091768,-0.165283,0.24653503,0.07873812,0.15922108,-0.07843918,0.08891475,0.19048572,0.11006668,0.112441495,-0.21058273,-0.18818624,-0.013874213,-0.096242934,-0.023851072,-0.11484906,0.19904724,-0.1738294,0.21720096,0.068193324,-0.19043308,0.2731506,-0.19937617,-0.30136967,0.17517418,0.0060973708,-0.04653894,0.12787597,-0.3041356,-0.2137023,-0.15332809,-0.10037094,0.13012959,0.08620775,-0.20457713,0.14589006,-0.008195299,0.21649164,-0.049260106,0.33094236,0.13685077,-0.09758836,-0.10798292,-0.070822105,-0.1213593,0.14908917,0.17097081,-0.3658784,0.32781652,-0.08931572,0.08947615,-0.12728108,-0.25506574,-0.38246334,-0.1644124,-0.021783734,-0.18378274,-0.19165973,0.09292028,0.18325417,0.086662576,-0.23469862,0.074522875,0.072167486,0.17327322,0.12071917,-0.16350387,0.0679511,-0.17910546,-0.14390987,0.15842979,0.053067196,-0.2749787,-0.10995592,-0.189197,-0.09362043,-0.044798627,-0.11279683,0.106970534,0.1597143,-0.19474566,0.13926426,0.23371354,-0.09876142,-0.030531254,0.16364029,0.2474792,0.15055074,-0.17817031,-0.12600537,0.23943244,-0.20286323,0.07463799,-0.21341023,0.15513262,0.041937616,-0.13074698,0.09762441,-0.11188143,-0.0062876516,-0.19438623,-0.09782347,0.033838626,0.09390755,0.24352902,-0.06687209,-0.25450873,0.20110877,-0.14501156,0.11500539,0.14930831,-0.06877674,-0.15219115,-0.21727042,0.11980779,-0.07709996,-0.25465116,-0.027930172,-0.17476717,0.116919994,-0.18350661,0.11088903,-0.073048696,0.0958986,0.21129836,-0.09039988,0.1579954
conf_8,-0.2046207,0.2084062,-0.1452382,0.16664295,-0.0060485806,-0.074714854,0.23321971,0.2240257,-0.028081682,-0.06693049,0.17316273,0.023245743,-0.29281083,0.2597351,-0.16460484,0.12653722,0.13180862,-0.20300807,0.054064713,-0.10541353,-0.13001746,-0.11541107,0.11541888,-0.17800832,-0.077940606,0.036334347,0.012341642,0.09825734,0.07413611,0.20394024,-0.115394466,0.10074004,0.09133696,0.16699718,0.002676795,0.03398739,-0.030733105,0.15842348,0.16346304,-0.1823173,-0.3231192,-0.039603997,0.00014892654,0.056759436,-0.19979155,0.19882807,0.06099311,-0.110712565,0.14013967,0.14380533,-0.17208545,-0.11668026,-0.02888685,0.01980474,0.1884898,-0.15248471,-0.113111585,-0.14321972,-0.15498099,0.17985852,-0.015869416,-0.029724114,-0.19661357,-0.273171,0.09409496,0.1434822,-0.06447924,0.08307825,0.15455529,0.15162264,-0.10196289,-0.23572361,0.37401903,0.35243154,-0.20723668,0.0071274727,0.14666219,0.13322954,-0.08093845,0.041374072,-0.21466081,0.12994853,0.057635,-0.18561654,-0.18400697,-0.039126683,-0.141054,0.031231947,-0.1420869,0.19079965,-0.09869793,0.00829621,0.11752594,0.0015309212,-0.12859628,-0.107079044,0.018621337,-0.19363412,0.4304106,-0.11967098,0.073613666,0.09561907,0.07656242,-0.08565096,-0.16902551,0.17272888,-0.1310267,-0.005443421,-0.27424094,0.22308876,0.16287799,-0.08505777,-0.1279949,0.25557718,-0.13484412,-0.21965262,0.2526549,-0.09049536,-0.051607594,0.093603455,-0.16823952,-0.025010949,-0.19753167,-0.008642408,-0.10167663,-0.11170769,0.14256075,-0.19016732,0.13770267,-0.17601079,0.03443699,0.17117931,-0.15870494,-0.06198549,0.12730291,0.17488432,-0.05801399,0.01376844,0.15975443,-0.060427222,-0.028279,-0.110146575,-0.2474695,-0.2696284,0.12835057,-0.005665892,-0.1515067,-0.28635785,-0.32331485,0.1306256,0.02738511,-0.14659831,0.056919508,-0.17762223,0.20561205,-0.15630922,0.09809154,-0.15684827,0.14904243,-0.035840306,0.13419688,-0.0672726,-0.14463891,0.060814906,-0.08942528,-0.008238186,0.16876268,-0.166264,-0.09995884,-0.15836406,0.23098843,-0.15121652,0.064022444,-0.1264522,-0.10688093,0.21074495,-0.06620086,0.12039782,-0.22958139,-0.23561953,0.078587405,0.28169245,-0.2649342,0.18903518,0.17767501,-0.2366069,0.21782126,0.2422134,-0.0989648,0.086292565,0.20976245,0.2509347,-0.25396305,0.07529847,0.24350406,-0.10203678,-0.1445186,0.052776735,-0.29490063,0.13520667
conf_9,0.10342508,0.08928246,0.0020038683,0.26568553,-0.17381077,-0.19736698,0.21997364,0.14689672,0.24047138,-0.080748685,0.044772446,0.1441984,-0.108019575,0.2728776,0.07599108,0.15588184,0.217003,-0.11625622,0.09603599,-0.10804003,-0.006192381,-0.16511326,0.2255583,-0.12223269,0.40316752,-0.010567311,-0.30437595,0.03542148,0.17877083,0.1737003,-0.03736242,0.20674312,0.07821459,0.0642187,0.17098314,-0.37547868,-0.08496435,0.1381558,0.107914984,-0.25121954,-0.0959292,-0.16432074,-0.19309509,-0.0299837,-0.04350251,0.16308443,0.22843635,-0.15229167,0.17193934,-0.28696534,-0.18858847,-0.16098185,0.34875938,0.14797229,0.085876375,-0.10916258,-0.08516628,-0.058399644,-0.24252313,0.10604933,0.018760754,-0.14968032,0.016041148,-0.16769966,0.07291924,0.105060026,-0.21770586,0.12822409,0.13009986,-0.19975825,-0.033711147,0.071670935,0.16668634,-0.13112137,-0.103333615,0.17443438,-0.09561252,0.032384783,-0.043884065,0.1659184,0.3849877,0.29240325,0.12176976,-0.090318434,-0.12643652,0.102949895,-0.24503148,-0.09752693,-0.28706893,0.17246869,-0.18364392,0.3075201,0.110200725,-0.07473272,0.2346579,-0.16030423,0.055576086,-0.02137818,-0.1459248,-0.09535833,0.14534333,-0.2070801,-0.10107827,-0.124209255,-0.11064811,0.07716189,0.1653595,-0.08030191,0.22752547,0.03313125,0.24702354,-0.15185072,0.019304173,0.098466165,-0.15595648,-0.12488202,-0.20953923,-0.18144055,0.043468762,0.094511524,0.08801091,0.26631796,-0.28636175,0.067329414,-0.23956487,-0.16247484,-0.18003587,-0.10944898,0.025000764,-0.1878813,0.23034456,5.6842713e-05,0.10493177,0.24537858,-0.09079428,-0.0026343132,0.16016208,0.069753274,0.18154444,0.002227786,-0.124828316,-0.06970374,-0.043060575,-0.0022284214,0.061358728,-0.15700658,-0.20702292,-0.19825438,-0.29267094,0.1874548,-0.15194497,-0.16456763,0.123822,-0.1019277,0.1473916,0.07362407,0.36611396,-0.15074874,0.029702723,-0.13670535,0.28519377,-0.12890777,-0.101531304,0.2673474,-0.18930033,0.3681554,-0.13629137,0.19852412,-0.19234179,-0.109721825,-0.1654056,-0.07811128,0.18785554,-0.22411944,-0.21331918,0.33570084,-0.039398376,0.25363302,-0.08998362,-0.02431081,0.26961753,0.0045840084,-0.036079027,0.2003407,0.053799037,-0.11391478,-0.11763321,0.18068078,-0.19774164,-0.2583544,-0.12208467,-0.10355699,0.025529724,-0.061340883,0.0023314573,-0.23446111,0.0040950077,0.08068448,-0.0024735457,0.06996712
conf_10,0.07743708,0.108454876,-0.124134146,-0.068577565,-0.008884799,-0.1879134,0.1543845,0.12794851,-0.057021987,-0.16724154,0.18196929,0.05066082,-0.16931993,0.14590196,0.0052953707,0.16581269,0.20734821,0.008638448,0.069497846,-0.10771137,-0.15272793,-0.14499834,0.23034924,0.09610976,-0.1477243,0.08995749,-0.056894977,0.23224452,0.14816765,0.20943293,-0.0936045,-0.009921027,0.15495406,0.18583985,-0.07289768,-0.2239715,0.12402815,0.11386223,-0.117342934,0.14351234,-0.0060760197,0.43536818,-0.08818536,-0.035927776,-0.20853868,0.21090001,0.084131986,-0.11022601,0.25602508,0.3283114,-0.11746505,-0.027612487,-0.14856955,0.0051500387,0.19570519,-0.05754509,-0.09640743,-0.12980357,-0.00042864075,0.13900447,-0.16935048,-0.1702666,0.008044583,-0.12734084,0.18691082,0.12650806,0.040029384,0.24495393,0.12863265,0.08087875,-0.14216061,-0.11324561,0.12715359,0.12799926,-0.116100244,0.06506204,0.098022476,0.17772532,-0.13344383,0.06978942,-0.17063887,0.050979618,0.07921359,-0.13057987,-0.11275689,0.016501848,-0.18445438,0.03552492,-0.21699943,0.083311,-0.048936352,0.13894844,0.18798769,-0.029557845,0.041681338,-0.12379685,0.35653263,-0.16803649,0.14928646,-0.12834267,0.1573059,0.29875374,0.0024357224,-0.15132853,-0.17435196,0.046425745,-0.082852185,-0.09936917,-0.21546464,0.08123463,-0.12174729,-0.1191984,0.35880265,0.12113491,-0.10305281,-0.09704162,0.02375088,-0.27514514,-0.3006604,-0.037940834,0.0059169214,-0.11145551,0.010029295,-0.20680636,0.042569593,-0.050613593,-0.2933106,-0.10220387,0.15176064,-0.12565511,0.23978637,0.056551483,0.08966719,0.0875377,0.144365,0.15985325,0.072692186,0.16164209,0.16103643,-0.32293618,-0.12580065,-0.15649316,-0.1360327,-0.29549173,0.03299569,-0.075150184,-0.15313976,-0.11971076,-0.17126624,0.09454766,-0.02076883,-0.20239861,-0.01025529,-0.16044599,-0.0048118248,-0.15225038,0.089216344,-0.07183646,0.23087192,-0.17356652,0.27737668,-0.16352385,-0.21858823,0.29554155,-0.2986252,-0.22206266,0.3247756,0.0732774,0.03339221,-0.091158904,0.11802451,-0.1372977,0.15168175,-0.070287935,-0.26141933,0.32823172,-0.091861434,0.08107057,-0.084216215,-0.13242081,-0.043617222,-0.2610781,-0.09598285,0.07362807,0.14061916,-0.14287235,0.34042832,0.17871745,-0.09076157,-0.13854887,0.07847962,0.34974173,-0.033328526,0.004914603,0.107158035,-0.02934787,-0.14027089,-0.13215685,-0.10093224,0.10935793
conf_11,0.03394342,0.060970098,0.17202589,0.21280247,-0.21392152,-0.16957457,0.056458987,0.1479917,0.17397481,-0.13204907,0.10150518,0.22966117,-0.19970009,0.1745022,-0.015047011,0.12713166,0.22673315,0.03644004,0.18815926,-0.20274243,0.083976604,-0.1013747,0.014815388,-0.04153067,0.09373414,0.19434421,-0.24477533,0.027693402,0.19565183,0.15962768,-0.17020966,0.1685496,-0.10130948,0.045878872,0.26234922,-0.21927619,0.017373381,0.09920236,0.25127283,-0.13245064,-0.07302438,-0.2422397,-0.1996935,0.19380827,0.0031043526,0.14888756,0.11428688,-0.09660214,0.12706652,0.063013345,0.055826526,-0.054588825,0.24851134,0.124163955,0.12120448,-0.1849325,-0.09760146,-0.07053466,-0.26960355,0.10362551,-0.075334914,-0.15183905,-0.11878202,-0.13553265,0.0901634,0.124174625,-0.1410963,0.34190252,0.062827155,-0.09795222,-0.11462942,0.19898652,0.032309003,-0.07041961,-0.2320759,0.24538733,0.010089605,-0.083409525,-0.078712426,0.12684157,0.30268732,0.065972276,0.041684747,-0.15823968,-0.12645131,-0.08752124,-0.065615274,0.26946318,-0.037591893,0.098922536,-0.18764043,0.17661943,0.20589529,-0.13429967,0.09969705,-0.1455798,-0.22584374,0.018742636,-0.11022928,0.06936679,0.18498522,-0.14752828,-0.25892618,-0.07533238,-0.06413827,0.16312465,0.17794934,-0.21376513,0.24855943,0.15008278,0.24877445,-0.139338,0.48565847,0.15803812,-0.042446855,-0.14979976,0.04837994,-0.049566958,0.31500465,0.23447151,0.13337232,0.09413062,0.2022355,0.07293111,-0.16179685,-0.32399252,-0.24675208,-0.13542666,0.04013439,-0.19022582,-0.07314508,0.14273547,0.27850637,-0.12309834,-0.19918144,0.093596056,0.2304699,0.22425908,0.021311102,-0.23127125,-0.24809149,-0.109488554,-0.07487835,-0.14740962,0.16182327,-0.21742475,-0.066872954,-0.14434704,-0.2500341,0.075199,-0.06362954,-0.27597415,0.0048267837,-0.116296925,0.08608943,0.30848923,0.03314936,-0.17464203,0.16174412,0.01258616,0.28901717,-0.19017734,-0.18303987,0.26588434,-0.17217101,0.21168737,-0.13333042,0.36525273,-0.011514603,-0.16780305,-0.26581523,-0.09579395,0.15895665,-0.2035292,-0.077189624,0.038237415,-0.23561679,0.1880921,-0.17604898,-0.125275,0.3461153,0.09715358,-0.10640906,0.15096724,-0.05350503,-0.084520474,-0.19002886,0.13459069,-0.21886605,-0.13012862,-0.012522637,0.025551118,0.18138237,-0.113814086,0.08665302,-0.177597,-0.0021971525,0.24570146,-0.08204105,0.14239013
conf_12,-0.13553785,0.1929694,-0.17621212,0.0811647,0.009997208,-0.16054495,0.03215401,0.14308096,0.14651509,-0.19859903,0.086601414,0.08176278,-0.14794363,0.22219376,-0.17055456,0.09950287,0.19345753,0.000909312,0.05535842,-0.17008205,-0.08706998,-0.20046039,0.13355486,-0.29651988,0.043530326,0.08021936,-0.11371595,0.114585444,0.20688987,0.14800078,-0.17447205,0.015771454,0.017044013,0.15878855,0.119557135,0.08477995,-0.1380987,0.06889637,0.3348778,-0.1983238,-0.10279669,0.0011854933,-0.22180586,0.064793885,-0.09009996,0.18197455,0.24290426,-0.08267227,0.1804777,-0.023232885,0.07224314,-0.22746992,0.06243793,0.16279782,0.19806963,-0.16898906,-0.07867251,-0.14719403,-0.14316332,0.11376165,0.2097157,-0.10267323,-0.11371755,-0.09783229,0.20627776,0.0953959,-0.16982107,0.08918778,0.1212687,0.11597056,-0.15056106,-0.24465396,-0.057491943,0.05173746,-0.20002314,0.060191363,0.15905859,0.17505589,-0.14884183,0.17439206,0.02563032,0.09412144,0.15146509,-0.10683242,-0.124991976,0.13562359,-0.10542017,0.088871874,-0.044507455,-0.011905206,-0.09310222,0.10692833,0.08449053,-0.23728727,0.1107407,-0.145551,-0.25427222,-0.2538272,0.071420096,-0.20906046,0.11133229,0.21105532,0.1792781,-0.15156755,-0.2241745,0.10338728,-0.012869563,-0.047646724,0.19003104,0.19904588,0.1744111,-0.11497489,0.08258103,0.03283262,-0.11635509,-0.17413576,0.30738845,-0.14009961,-0.07215338,-0.023464255,0.38770097,0.07911947,0.0017683723,-0.06071112,-0.21567774,-0.1978578,0.113428794,-0.22123672,0.21256456,-0.15160649,0.1864048,0.05696893,0.07772989,-0.075697735,0.16634016,0.204407,-0.093851805,0.039636716,0.23638958,-0.030045923,-0.12961936,-0.21932067,-0.17202406,-0.07263557,0.13445832,-0.20317101,-0.15051274,-0.0895851,-0.23873436,0.074518844,-0.26636806,0.057298552,0.16114274,-0.18248624,-0.04341278,0.10132217,0.12993596,-0.108390115,0.037487406,-0.16313013,0.021107832,-0.18582685,-0.13950862,0.22714692,-0.10562852,-0.08751436,0.036901463,-0.18131362,0.006414211,-0.10701759,0.1268166,-0.107831426,0.23238961,-0.1933443,-0.10620143,0.18344097,-0.002533875,0.061231274,0.0022540237,-0.09675189,0.14619227,-0.08454343,-0.21021092,0.20118724,0.18648763,-0.15006895,0.019002313,0.23008755,-0.17772292,-0.34083468,0.043056272,-0.018625708,-0.070042536,0.016908402,0.10016755,-0.120894216,-0.10425836,0.16681619,-0.25175112,0.18938367
conf_13,-0.28992268,0.104298495,-0.2332103,0.09438229,-0.012105332,-0.18295044,0.0651653,0.17731625,0.11319969,-0.108152784,0.03649621,0.08449846,-0.12921317,0.10524604,-0.21353161,-0.04625407,0.0462006,-0.21177194,0.0889048,-0.17037238,0.0030465638,-0.13645852,0.13154154,-0.15071508,-0.11500091,-0.0217363,-0.10756277,-0.0440832,0.067972116,0.17183909,-0.09308533,0.07176455,-0.06749793,0.14228636,0.15381794,0.12904742,-0.13641311,0.07838438,-0.06407169,-0.08276185,0.05471069,0.098041475,-0.12177548,0.26830375,-0.05977801,0.17355579,0.21087988,-0.07836355,0.0721363,0.31258288,-0.07574383,-0.14302658,0.07817272,0.33134183,0.21331173,-0.11358461,-0.20695116,-0.11752131,-0.04039135,0.13192864,0.17319995,-0.12033299,-0.1952932,-0.088974275,0.09270943,0.1749191,-0.1624378,0.26971903,0.10969315,-0.00033349593,-0.10399256,0.10464773,0.33254322,0.11019895,-0.19678506,0.19575581,0.006890932,0.119274214,0.04216791,0.20011047,0.11871842,0.23322168,0.2160999,-0.05165706,-0.13450854,0.116512336,-0.076413125,0.11522018,0.10135453,0.15175292,-0.10740107,0.18974973,0.14395723,-0.075993724,-0.069004826,-0.1168451,-0.24199319,-0.21512063,-0.03299406,-0.030718155,0.05005828,0.042553302,0.027320689,-0.1416991,-0.22018911,0.23818398,0.2613847,-0.060250357,0.05213064,0.10296757,0.114516705,-0.2097488,0.43262398,0.12275202,-0.12363406,-0.16790679,0.10906707,-0.19019878,-0.12544328,0.055229712,-0.0705361,-0.078422695,0.34993395,-0.07684534,-0.11752659,-0.21401553,0.30476904,-0.11837718,0.12834011,-0.08671735,0.30812725,0.19749412,0.19861154,-0.093721405,0.16245806,0.04445724,0.014380486,0.18281816,0.072561435,0.013916196,-0.20230807,-0.24505194,-0.15135588,-0.07920456,0.14262857,-0.13491002,-0.10789141,0.074165024,-0.16906898,0.03196726,-0.14768972,0.07383406,0.04427855,0.01829732,0.1650923,-0.023521254,-0.052379727,-0.20522958,0.176923,0.14144555,0.0626979,-0.21032368,-0.14337878,0.25622174,-0.14334457,0.05400137,0.07337699,-0.13830721,-0.07336098,-0.16224101,0.26800954,-0.21518704,0.13425133,-0.11272237,-0.119747564,-0.02230882,-0.06572915,0.15032563,-0.21647136,-0.19707122,0.07264332,-0.07530314,-0.05383149,0.09534409,-0.040637046,-0.087734304,0.17397423,0.11362605,-0.21003777,-0.17750362,0.2268616,0.16690516,0.11806631,-0.23716809,0.23454416,-0.17324482,-0.15082783,0.10196378,-0.18259713,0.1706026
conf_14,0.1674937,0.1398222,-0.11815072,0.108958006,-0.024793291,-0.07620446,0.2568468,0.06498728,0.15046044,-0.16029385,0.27288175,0.07719211,-0.20249549,-0.032762177,-0.13283414,0.25481358,0.20537387,-0.048363686,0.12829296,-0.18225595,-0.09810031,-0.25417054,0.22300485,-0.12631011,-0.22465134,-0.09568646,0.015173544,0.14529026,0.18228234,0.0948121,-0.15516794,0.1716391,0.11914782,0.13781118,-0.09941892,0.013436151,0.058416344,0.21871601,0.20084263,-0.017199166,0.008401463,-0.15981013,-0.07543728,0.11038291,-0.06437484,0.11154741,0.13938437,-0.00040894662,0.110840335,0.31298855,0.1922483,-0.067660175,-0.19270878,0.10104369,0.13153495,-0.07146655,-0.13858743,-0.14456572,0.12438763,-0.052516278,0.20218807,-0.15805109,-0.2020062,-0.046270028,0.111194156,0.17144664,-0.14641933,0.033260643,0.06330985,0.06853923,-0.108273804,-0.17777492,0.24898395,0.03425753,-0.14614178,0.11779758,0.058602788,-0.0010528667,-0.16895735,0.13304564,-0.11649293,0.10842463,0.16343313,-0.17976707,-0.08532878,0.09173324,-0.22138691,-0.042807866,-0.1724104,0.1615147,-0.0019722392,0.04146314,0.09777289,-0.032440715,0.01912957,-0.0742921,-0.24294713,-0.14891657,0.09110677,-0.09426063,0.19733787,0.0046627773,-0.14626482,-0.1754399,-0.0669413,0.049702074,0.119553655,-0.010393484,-0.24635683,0.1544036,-0.18316834,-0.15936379,-0.15357342,0.1405279,-0.07669085,-0.07511549,-0.022413224,-0.1567149,-0.26585773,0.20312092,0.117841385,0.13058802,0.085260004,-0.05711232,-0.11394898,-0.08288693,0.2701489,-0.0698725,0.26913434,0.021077245,0.4506112,0.099342085,-0.17315786,-0.2290425,0.1366819,0.15816763,-0.00017595911,0.073222786,0.050626554,-0.067809075,0.08401491,-0.11170704,-0.25755683,-0.19584122,0.09243529,0.01866717,-0.21726564,-0.09734053,-0.1654507,0.23296605,-0.09831915,-0.15343806,0.15810147,-0.1035682,0.024663711,-0.22414942,0.22380365,-0.12538996,0.10694223,-0.29700378,0.18640772,-0.032751705,-0.12806357,0.28814173,-0.211356,-0.15840611,0.31429008,-0.0933712,-0.097215876,-0.06508029,0.36644846,-0.21833302,0.05938223,-0.20843072,-0.12882432,0.1605495,-0.10894773,0.18434706,-0.14427878,-0.19085197,0.12542701,-0.08777567,-0.21321324,0.11258538,0.06273715,-0.15835065,0.08000069,0.22189565,-0.18627827,0.004353083,0.084919415,0.05141189,-0.13543339,-0.22368664,0.08296804,-0.09084382,-0.10134877,-0.052529976,-0.19545525,0.1356745
conf_15,-0.09078424,0.15176372,-0.066847496,-0.098658375,-0.039249767,-0.11419062,0.085085474,0.08378132,0.07817685,-0.21772122,0.14298044,0.39957216,-0.099457674,0.014188281,-0.089692876,0.22676237,0.0982998,-0.29932103,0.20386793,-0.14523989,-0.30318138,-0.17734976,0.082653575,-0.11303471,0.00074982404,0.08329079,-0.15816131,0.09058662,0.18816176,0.18709671,-0.044910368,0.057823263,0.19782318,0.14098282,0.21894716,-0.19050148,-0.09531298,0.15645695,-0.09856203,-0.15423182,0.0076293275,-0.08344031,-0.1585445,0.16444026,-0.12617873,-0.0359122,-0.030912502,-0.07717113,0.15458173,0.118527256,-0.08275694,-0.078158826,-0.21647626,0.14715505,0.12009086,-0.014358595,-0.28538647,0.057443734,-0.08817006,0.11209713,0.10642691,-0.20319419,-0.17764641,-0.1435393,0.15144096,0.131189,-0.23751387,0.3075115,0.10340375,0.10594683,-0.17120679,-0.025966404,0.22086021,-0.030431662,-0.27842686,0.20346184,0.14296705,-0.046269964,-0.13969015,0.17650147,0.20506927,0.029414136,0.16971825,-0.1022181,-0.1514888,0.02464901,-0.21704322,-0.039123215,0.21491203,0.13020495,-0.2103933,0.059024837,0.1403443,-0.20130852,0.27919158,-0.24251363,0.03885439,-0.20166638,0.1184654,-0.026532445,0.10958817,-0.29925492,-0.1710687,-0.15628755,-0.085309066,0.107799366,0.23562548,-0.12916066,0.238039,0.15218876,0.24525458,-0.1450644,0.11851146,0.10884784,-0.14378798,-0.18937834,-0.006574513,-0.08795919,0.058121685,0.17118596,-0.27482638,0.11319175,-0.0005418896,-0.14707665,-0.053758517,-0.2513123,0.24580444,0.035357606,0.07936467,-0.15368178,0.1355441,0.14189863,0.077515,0.031378962,0.1267615,0.1042207,0.0038688183,0.053206816,0.095646836,-0.15451106,-0.18260056,-0.17127378,-0.17299865,-0.25404885,0.1402046,-0.19928902,-0.14283212,0.05871188,-0.077336825,0.034378584,-0.09055291,0.25550807,0.1374661,0.027667878,0.106025286,0.17849877,-0.14520185,-0.05302605,0.20637363,0.12331819,0.04281301,-0.100757144,-0.053682957,0.2689463,-0.11627097,-0.039900877,0.19801754,0.008523961,-0.2501763,-0.04367627,-0.010963951,-0.06464799,-0.020519175,-0.14666107,0.008756209,0.05406462,-0.18030955,0.2133712,-0.13335556,-0.20803799,0.29251078,-0.21206973,-0.097209774,0.06901363,0.023789717,-0.18514195,-0.13756067,0.11844122,-0.147454,-0.16980371,0.19656016,0.14372484,0.30457065,-0.19937423,-0.05733586,-0.13919857,-0.10121239,0.15122646,-0.18464461,0.12909698
conf_16,-0.2629994,0.27555692,-0.16363546,0.17424935,0.061917607,-0.23420626,0.027827075,0.09854705,0.12092581,-0.18479939,0.23712738,-0.00493322,-0.045140084,0.23059225,-0.09722856,0.017490987,0.2253439,-0.19468747,0.11895884,-0.16455993,-0.1198717,-0.15143247,0.080660574,-0.14183526,-0.0646143,0.31542295,-0.0750464,0.2267078,0.1721084,0.18508478,-0.03500791,0.08380333,0.23016274,0.18067609,0.13882066,-0.13587451,0.029584683,0.14957607,0.029259384,0.06643351,-0.06477726,-0.07982379,-0.1265107,0.087451026,-0.23084696,0.058038883,0.12055626,-0.09077821,0.11746862,-0.04830825,-0.23422924,-0.05408332,-0.12305003,0.13161032,0.16682003,-0.13562566,-0.09244577,-0.03257457,-0.2017566,0.08025671,0.17644775,-0.18534039,-0.2745795,-0.14862905,0.12359917,0.17439553,-0.09554594,0.051039405,0.16444671,-0.037920095,-0.0588774,-0.19712494,-0.009958373,0.11719989,-0.13250677,0.108733624,-0.036968436,0.2726504,-0.14312167,0.14953886,-0.10745789,0.14724158,0.05652837,-0.05435539,-0.117265105,0.22777955,-0.07330391,0.20223112,-0.0788282,0.15956242,-0.055929966,0.21566153,0.13130519,-0.22857821,0.09642213,-0.1350372,0.22288619,-0.21737126,0.09206879,-0.11486545,0.19730917,0.19217685,-0.15433572,-0.10053911,-0.2601739,0.16335192,0.17204987,-0.14250614,-0.11101156,0.07982974,0.004607319,-0.112209976,-0.17063095,0.16851401,-0.16285603,-0.1329668,0.1870054,-0.11783927,-0.17427841,0.17052573,0.20432055,0.17099214,0.02305986,-0.12863524,-0.1536162,0.03584803,0.020365776,0.022859754,0.18458168,-0.052013386,0.42382756,0.1384536,0.05936869,0.08846291,0.085506216,0.14932634,-0.19463788,0.14320113,0.06551132,-0.16606504,-0.059455216,-0.18287988,-0.15904744,-0.19203724,0.10781169,-0.056412473,-0.15609066,0.08769306,-0.06523715,0.1362685,-0.23573698,0.38874134,0.12894548,-0.10422784,0.14415273,0.16262616,0.16168682,-0.10974983,0.057866514,-0.03015451,0.0050478755,-0.06619257,-0.119375944,0.08675727,-0.023344807,-0.30009943,0.20821472,-0.29907393,0.039319817,-0.11595304,0.03642966,-0.07094623,-0.001000515,-0.16931908,-0.1904687,0.30118364,-0.12557006,-0.047617607,-0.17918077,-0.11317577,-0.083292544,0.07879517,-0.20944084,0.09959831,0.19890462,-0.19285282,0.15249373,0.23987465,-0.18613894,0.1498619,0.0926873,0.02906799,-0.20873067,-0.032821704,0.07865885,-0.05720659,-0.089603595,0.0040708445,-0.14027038,0.15520461
conf_17,-0.31440684,0.15533619,-0.006210021,0.27333286,-0.089138635,-0.28467113,0.15496068,0.08248082,0.1454486,-0.006739665,0.1883075,0.15633099,-0.17443708,0.054758377,-0.07595287,-0.08661023,0.07442975,-0.11264693,0.12573819,-0.16357529,-0.27632156,-0.028225183,0.107855655,-0.10165556,-0.18598065,0.051503945,-0.16496484,0.13150197,0.21852362,0.10438232,-0.19796528,0.1621593,0.1616464,0.14820723,0.17274684,-0.17048728,-0.18726975,0.21328619,-0.005865038,-0.0957249,-0.20788468,-0.28066078,-0.09599229,0.13968922,-0.17394438,0.17929783,0.061020967,-0.07660326,0.16030262,0.27535793,-0.20251699,-0.08694154,-0.19194707,0.07829986,0.11694469,-0.13093236,0.016214944,-0.029900711,-0.0723064,0.020999435,0.20018199,-0.12425285,-0.3348267,-0.11277124,0.13458946,0.121821985,-0.14833352,0.10781847,0.073860444,0.33518556,-0.14022827,-0.18826522,0.18243442,0.06502498,-0.059692692,0.16427912,0.097945094,0.18968175,-0.039232254,0.14790688,0.038525898,0.19673154,0.15277013,0.020800196,-0.21096621,0.13177031,-0.20749114,-0.16358273,-0.17574465,0.2348701,-0.25364885,0.2565538,0.13377415,-0.054973483,0.096842155,-0.24736826,-0.056468315,-0.11442006,-0.10674785,0.0032045946,0.083773114,-0.060547415,-0.17661397,-0.15579963,-0.14139901,0.007720454,0.105397895,-0.005252041,0.06205936,0.2302355,0.19144578,-0.12769076,-0.04971337,0.16876341,-0.11232239,-0.19518548,0.2963703,-0.16281073,0.057354756,0.12432145,-0.04328475,-0.11787435,0.13868769,-0.16940047,-0.18565577,-0.2348976,0.264362,-0.088939495,-0.012786751,-0.16818663,-0.060725994,0.26720935,-0.16476592,-0.20733514,0.11954334,0.088420734,0.10616382,0.035271976,0.19735828,-0.2705433,0.22064966,-0.12852098,-0.16340707,-0.24290271,0.16462387,-0.1465738,-0.06990097,0.020402059,-0.027110023,0.14119914,-0.102814674,0.2524958,0.14265518,0.0022518819,0.1577414,0.027307091,0.14275837,-0.18558758,0.13843504,-0.13659906,0.04585098,-0.100883394,-0.2011359,0.28764826,-0.16704796,-0.08032143,0.13802367,-0.146576,-0.25702935,-0.1742767,0.15303504,-0.0994861,0.069047846,-0.12917884,-0.07726839,0.02682583,-0.033851076,0.06380738,-0.11694702,-0.16057345,0.17111388,0.007960961,-0.15112045,0.16659531,0.04804371,-0.18819967,-0.15502736,0.13734981,-0.16397144,0.022461727,0.105039366,0.16010807,0.042936757,-0.17988881,0.1210033,-0.21913521,-0.22209807,0.069537975,-0.103213474,0.1896617
conf_18,-0.19234467,0.1513287,-0.09205898,0.23839696,-0.053720567,-0.07634388,0.0202614,0.16986558,-0.05043584,-0.068627186,0.21295178,0.025660155,-0.17483662,0.20661856,-0.18164675,0.11442344,0.18472275,-0.14840674,0.06881689,-0.18271196,-0.05621053,-0.08082803,0.19576967,-0.16627927,-0.25252053,0.02518555,-0.054252453,0.26269686,0.13961439,0.12672514,-0.08416064,0.072539605,0.09397775,0.18387023,0.06200655,0.014307598,-0.052265707,0.20649548,0.09855396,0.04109348,-0.26268247,-0.050255,-0.16695651,-0.037217464,-0.18982613,0.19991177,0.15682073,-0.062022608,0.065424025,0.2965723,0.15012437,-0.16477352,-0.09394783,0.23448224,0.09381781,-0.20758176,-0.05394613,-0.073434606,-0.05071252,-0.041211855,0.24449344,-0.10150956,-0.37663853,-0.056580212,0.10983285,0.14432053,-0.023293141,0.03534314,0.15271853,0.019088404,-0.02711623,-0.05904887,0.07041035,0.182378,-0.15116046,0.052908212,0.082456246,0.020605579,-0.15960303,0.20514132,-0.18514389,-0.044536613,0.09297711,-0.11967815,-0.15445952,-0.055362143,-0.08120879,0.30809328,0.19383514,0.22427766,-0.10395173,0.06623875,0.1387275,-0.039558485,0.103985585,-0.24479894,-0.17984445,-0.20970583,-0.2214309,-0.041406296,0.0809268,0.08421939,0.063573174,0.013645873,-0.15145187,0.066723876,0.049940217,-0.10425382,0.10249656,0.21097969,0.24250807,-0.119937144,0.037649777,0.17174624,-0.0590581,-0.25892454,0.29116258,-0.043664295,-0.19287817,0.20654964,0.2734174,0.056836337,0.41596732,-0.099680364,-0.14021234,-0.15737413,0.11297947,-0.037780795,0.13713677,-0.21637136,0.20865363,0.17202821,0.09488019,-0.3529819,0.070935115,0.17098016,-0.06947,0.28424752,0.16792335,-0.19846137,-0.0903958,-0.054390457,-0.19747946,-0.18875116,0.041988343,-0.14833012,-0.10079001,-0.06637916,-0.14513382,0.23935203,0.0161204,-0.0848822,-0.012072316,0.07412587,0.07799478,0.117550515,0.10586683,-0.12528762,0.10293517,-0.13846582,0.01079816,-0.15522344,-0.17602494,0.29800433,-0.18474485,-0.14517964,0.27389243,0.07302183,-0.055453688,0.017991025,0.09519261,-0.19210683,0.010157295,-0.15426499,0.06460731,0.2362362,-0.1798751,0.115283504,-0.060335517,0.0147369215,0.059500266,-0.0912656,-0.18752758,0.052269634,0.16238326,-0.1677148,-0.032816608,0.28586596,-0.17645048,0.20345476,0.12061344,0.11931967,-0.029404953,-0.06327022,0.10926518,-0.14545485,-0.0820943,0.15902303,-0.17736241,0.13380103
conf_19,-0.020873975,0.035844486,-0.047240086,0.1327014,-0.14223462,-0.10151393,0.08301192,0.1699172,0.24533677,-0.077410795,0.19510613,0.102996096,-0.103520416,0.14257728,-0.253518,0.031932216,0.13061486,-0.071155146,0.1932574,-0.15386333,-0.1880314,-0.16130607,0.17454325,-0.094308294,0.40495706,0.10691028,-0.18851174,0.034286767,0.19994824,0.13255459,-0.09085381,0.079992734,0.015441763,0.036417358,0.30264437,-0.16165361,-0.18058074,0.072031274,0.14707781,-0.16989176,0.028472917,-0.035214964,-0.18384182,0.18047701,-0.059842914,0.19333291,0.14221235,-0.1402725,0.11464377,0.12115175,-0.134186,-0.10448952,0.33416674,-0.09545537,0.16246636,-0.08762253,-0.04857126,-0.14701483,-0.045290403,0.22028746,0.08879928,-0.08300682,0.09322376,-0.08860642,0.17963791,0.1282271,-0.15910102,0.2391951,0.16658717,-0.30117902,-0.23305435,0.12517484,-0.076295905,0.03466435,-0.072998546,0.22658007,-0.0350785,-0.0021064843,-0.12382265,0.15560864,0.2420598,0.0611567,0.07636311,-0.18840289,-0.24399762,0.006106929,-0.124492474,-0.089252986,0.013391145,0.15131104,-0.16633838,0.17711663,0.15801413,-0.13476218,0.22442228,-0.22131367,-0.12884058,-0.009135997,-0.10805077,-0.002445696,0.066381,-0.15677518,-0.06832777,-0.050598808,-0.14043581,0.12009731,0.080844186,-0.13340093,0.20487049,0.08124804,0.2258711,-0.13726553,0.064058244,0.15091227,-0.21710508,-0.14686178,0.0018488179,-0.15811785,0.0054709683,0.23626463,-0.04044267,0.29089567,0.14951941,-0.23511812,-0.17051302,-0.24747002,-0.22299428,-0.15821093,-0.05745405,-0.11950073,0.3787973,0.19750337,0.17153929,0.019516503,-0.18573311,0.11095507,0.1287977,0.16718584,0.1561811,0.010697026,-0.3809262,-0.17014386,-0.23213942,-0.082675695,0.052421376,-0.09048936,-0.16754657,-0.29008228,-0.11531325,0.16796684,-0.18520878,-0.10882162,0.12788229,-0.12631033,0.13922916,0.08302657,0.12120885,-0.18840745,0.06406619,0.17368542,0.20334876,-0.15796849,-0.19367917,0.25941116,-0.1465321,-0.019864617,-0.10028961,0.2114752,-0.014120791,-0.14815784,0.051373888,-0.19951388,0.1628762,-0.2224375,-0.15820514,0.093715794,-0.06280613,0.15093976,-0.21803023,-0.17163984,0.2385479,-0.02902425,-0.06756731,0.130869,0.1200036,-0.16878295,-0.11935895,0.11946745,-0.20710091,-0.024096936,-0.111717775,-0.26603603,-0.03933713,-0.23489651,-0.042138256,-0.20773928,-0.14886966,0.1442217,-0.121898845,0.120846786
conf_20,-0.23946963,0.09769588,-0.1634898,0.12971456,0.05599077,-0.01161115,0.095861025,0.12188971,0.018531766,-0.06351418,0.17581792,0.10406054,-0.09511598,0.1127645,0.14139108,0.1146697,0.118527144,-0.19219816,0.026575869,-0.12311689,-0.1377011,-0.16203023,0.20777658,-0.16336925,-0.07601981,0.09633084,-0.20559005,0.15065897,0.19117035,0.07472321,-0.13637696,0.14898458,-0.0026152816,0.17454182,-0.0102614835,-0.015603481,-0.08599067,0.12695056,0.16043276,-0.12840164,-0.296342,-0.028685618,-0.15153117,0.11044679,-0.12054299,0.12878847,0.24433003,-0.23901509,0.16024034,0.03926806,-0.1301893,-0.19023886,-0.060211908,0.23160806,0.06407899,-0.11999196,-0.07702574,-0.04379361,-0.0019503788,0.1589627,0.22455394,0.01788459,-0.25934744,-0.16426751,0.1497408,0.22116917,-0.076648735,0.3136521,0.1762447,0.23911482,-0.15346602,-0.06308175,0.31756198,0.1246302,-0.21451029,0.21952103,0.088568166,0.19603263,-0.14131898,0.18732044,-0.1396321,0.055007234,-0.0008358024,-0.13341102,-0.15072812,0.05969737,-0.17039637,0.065717965,-0.016821515,0.1451889,-0.19045903,0.087652035,0.17329165,-0.080524415,-0.0997324,-0.16481276,0.035044353,-0.15112126,-0.032405846,-0.069414355,0.079612926,-0.25012618,-0.16297814,-0.11887957,-0.18805139,0.14304273,-0.08597052,-0.25868088,-0.2904656,0.27144656,0.091924824,-0.110302925,-0.20025674,0.12991858,-0.10415734,-0.13560702,0.02802789,-0.08031043,0.05202935,0.14235766,0.03374337,0.1501838,0.13032153,0.08301711,-0.16367538,-0.15800917,0.105725065,-0.18047324,0.11712134,-0.031966176,0.09798514,0.111326635,-0.038132507,-0.35901055,0.14347106,0.1779521,-0.110629655,0.04512111,0.1187683,-0.016268782,-0.050465472,-0.20200527,-0.1278178,-0.040802013,0.12925239,-0.16282476,-0.09197448,0.0057178284,-0.1528426,0.20396371,-0.1391458,-0.20752478,0.15061085,-0.06163669,0.08707763,0.048384186,0.17455743,-0.16590075,0.14716844,-0.106637836,0.09226075,-0.042268362,-0.09772706,0.26479593,-0.14382933,-0.03342957,0.2593769,0.042023256,-0.1495502,-0.1667398,0.0063439044,-0.2316769,0.076669216,-0.10466277,-0.118552394,0.144697,-0.06354485,0.07142634,-0.19808927,-0.16740116,-0.030542905,-0.24883786,-0.1735509,0.084414005,0.1274201,-0.07061816,0.0052963165,0.11986401,-0.08074269,-0.1594014,0.13066685,0.0041388283,-0.048884388,-0.0014610644,0.21364686,-0.14942619,-0.07562776,0.12866843,-0.1764685,0.116837785
conf_21,-0.019948471,0.09231354,-0.0077307434,0.42770875,-0.14830776,-0.14314838,0.118996404,0.03844054,0.18138853,-0.15512912,0.037505813,0.16116855,-0.10811691,0.31483433,0.009036955,-0.10796969,0.12921752,-0.09824383,0.21374671,-0.12719928,-0.15502419,-0.06729857,0.1605246,-0.08969581,0.27140194,-0.20528333,-0.1685821,0.12773684,0.15951881,0.13051757,-0.1470913,0.034622323,0.04162844,0.10551286,0.2169509,-0.15885185,-0.1431146,0.19077821,0.0525049,-0.06905574,-0.25130966,0.14641237,-0.17650303,0.09243078,-0.15705407,0.04189675,0.16654035,-0.07364993,0.09062932,-0.0562929,-0.12807871,-0.11142029,0.12589808,-0.22403844,0.22373876,-0.065643996,-0.23107061,-0.14057948,-0.23431136,0.15707618,-0.0108713675,-0.12144605,-0.10267308,-0.13208462,0.10415897,0.15287702,-0.19019385,0.16072324,0.08438961,-0.25487298,0.048561838,0.26736093,-0.06484869,-0.0702351,-0.005372785,0.1226703,0.07304981,0.115952894,-0.06673144,0.21732244,0.3570341,-0.029874524,0.19475813,-0.09796317,-0.2028139,0.10435701,-0.06218352,0.07866942,0.017458206,0.057144683,-0.15503715,0.14881554,0.19226876,-0.14981201,0.21723582,-0.19827943,-0.087141216,-0.03604223,-0.24542311,-0.05092537,0.16770831,-0.13043912,-0.18089515,0.0775497,-0.12118462,0.12707917,0.28541654,-0.06814226,0.1865977,-0.07412202,0.29201952,-0.14640716,-0.14049636,0.14083494,-0.052080944,-0.16981426,0.26849043,-0.10815044,0.24195817,0.23300734,-0.22977696,0.196994,0.15215932,-0.1863937,-0.17638743,-0.17797358,-0.20992428,-0.098171614,0.0004580836,-0.11744962,0.013489336,0.022502042,0.15055145,-0.15832661,-0.07447737,0.11467681,0.2706029,0.06974099,0.12255396,-0.19776435,-0.28067696,-0.15869954,-0.16280054,-0.1593081,0.13720685,-0.13395879,-0.14637099,-0.16767037,-0.18251082,0.053700548,-0.14376806,0.16425563,0.033969767,-0.23785256,0.006723929,0.2625729,0.11457232,-0.016228776,0.13681498,0.22225341,0.045427363,-0.115618534,-0.14562446,0.26160306,-0.26727384,0.028931744,-0.14415368,0.28866428,-0.15151607,-0.16674754,0.14942667,-0.12267995,0.1663696,-0.14720318,-0.18040818,0.12629738,-0.18935378,0.23981811,-0.035515282,0.03350925,0.10605562,-0.17840688,-0.15050042,0.085102566,0.15960516,-0.0988047,-0.12721619,0.15955143,-0.2010501,0.10941809,0.06301519,0.043270163,0.07228653,-0.25690374,-0.053994346,-0.05634947,-0.047041733,0.15534572,0.024471652,0.05976995
conf_22,-0.26471364,0.17575146,-0.23602352,-0.040268175,-0.032079503,-0.15422022,0.061455853,0.13097762,0.026224498,0.014681016,0.09525724,0.17957932,-0.18686219,-0.0018423828,-0.13169387,0.2885557,0.18016493,-0.07475701,0.13147646,-0.06010914,-0.13843645,-0.09557613,0.19272444,-0.22001919,-0.07587344,0.16932088,-0.06551098,0.08894759,0.1158272,0.20225196,-0.15927595,0.14536665,0.20705241,0.22915778,0.155827,0.19901896,-0.083511315,0.15033296,-0.0442435,-0.19132395,-0.17740601,0.22301473,-0.08383358,0.08633067,-0.12539676,0.10384059,0.17772508,-0.10723221,0.21239589,0.16932048,-0.047535945,-0.26116234,-0.111071095,0.21060331,0.16691601,-0.14139101,-0.02526717,-0.22640382,-0.20532812,0.15697254,0.025247524,-0.104544245,-0.11744546,-0.15449642,0.20039879,0.17663673,-0.11526931,-0.05338442,0.2162057,0.069508195,-0.20427142,-0.312046,-0.04350628,0.3179054,-0.20906226,0.16195403,0.27101701,0.18985455,-0.13618352,0.084819965,-0.087687,0.04576045,0.12910324,-0.13891514,-0.07276032,-0.09466055,-0.115755774,0.31210127,0.10964259,0.02546246,-0.15218754,0.028104566,0.15401824,-0.20799403,0.11508206,-0.18297267,-0.111886784,-0.07784298,0.09483876,-0.22279328,0.17054799,-0.13755655,0.048730027,-0.25768292,-0.21306561,0.16326964,0.017082762,-0.1785264,-0.24570963,0.26391834,0.12854905,-0.16452748,-0.0818408,0.13083877,-0.16733249,-0.21541058,-0.04330637,-0.1123327,-0.115003295,0.14390099,-0.093043186,-0.018966842,-0.12868649,-0.08364323,-0.103504635,-0.1638941,-0.02619234,-0.1673227,0.14177464,-0.32836807,-0.039057106,0.15881482,-0.0440522,-0.280735,-0.05849216,0.1448868,0.12987901,-0.053848583,0.092904255,0.13349631,0.07166133,-0.18555085,-0.1718029,-0.12079115,0.19810808,-0.1492772,-0.17151947,-0.17128764,-0.16315535,-0.03772996,-0.19028334,-0.37561712,0.12507051,0.07220339,0.1599172,-0.10122958,0.17215396,-0.15880537,0.10630535,-0.09522451,0.24166542,-0.16790149,-0.09377495,0.21328892,-0.15656705,-0.031010186,0.20259608,-0.28713205,-0.34482092,-0.11679768,-0.006904278,-0.17187797,0.23405783,-0.09435496,-0.003548494,0.18366686,-0.1832878,0.12180041,-0.15379399,-0.09721457,0.03454001,-0.22062944,-0.1726813,0.13671093,0.16850312,-0.120956585,0.0843142,0.14291571,-0.14030498,-0.2657291,0.13922526,0.12025883,-0.07756735,-0.06327072,0.18985844,-0.14286898,0.008230458,-0.03644172,-0.19600096,0.20291764
conf_23,-0.17863716,0.07664188,0.10219363,0.18150856,-0.16020004,-0.14322962,-0.032035887,0.12423974,0.3072088,-0.022425245,0.00812091,0.12105486,-0.13901116,0.24333595,0.09563525,-0.17614155,0.11753282,-0.13461445,0.24499458,-0.16687468,-0.12356515,-0.1622708,0.16995585,-0.11887653,0.13862605,0.21875039,-0.22026336,0.109740265,0.21993321,0.1564791,-0.14804153,-0.009184234,-0.06443807,0.15322013,0.24371326,-0.16129681,-0.1113984,0.075398155,0.11325671,-0.12038372,-0.09208029,-0.027166646,-0.111395024,0.21056297,-0.022149123,0.10955888,0.14567944,-0.24489254,0.14914174,-0.3945625,0.036571432,-0.10403766,0.028186541,-0.021207446,0.10144331,-0.08813408,-0.016089655,-0.16968696,-0.29401916,0.19637004,-0.02958591,-0.027543657,-0.0940434,-0.18161643,0.05794982,0.113619186,-0.22799653,0.3052618,0.07803096,-0.30730402,0.092227615,0.30724993,-0.045843005,0.10237364,-0.21909818,0.18794368,0.08913687,0.10610691,0.0029519505,0.18002288,0.14566794,0.09975426,0.06814349,-0.21480705,-0.29742125,0.11095849,-0.10441231,-0.11679859,-0.15257378,0.18124144,-0.17513856,0.19219288,0.13064848,-0.18089506,0.08247763,-0.17635207,-0.13501847,0.03636949,-0.32502532,-0.13663182,0.11243097,-0.22800104,-0.15069401,-0.15972583,-0.06850749,0.14160027,0.26497445,0.07551822,0.081099525,0.045011763,0.15889695,-0.07758281,-0.0738651,0.13404042,-0.24331494,-0.07431187,0.1864792,-0.105879754,0.23880526,0.19052109,-0.25127834,0.21737365,0.036077145,-0.13595411,-0.16773818,-0.13340671,-0.29547173,-0.07073108,-0.0058628405,-0.12154081,-0.16260546,0.10714557,0.20693351,0.41106707,-0.12310203,0.13624927,0.21978077,0.11548713,-0.0045757736,-0.03107779,-0.345724,-0.029363628,-0.07532844,0.20524345,0.14912203,-0.11319019,-0.16487156,-0.21163741,-0.26011798,0.1870679,-0.2302961,-0.107813016,-0.0029653723,-0.24470703,0.21616256,0.3686192,0.24755947,-0.12312165,0.019063665,0.33803168,0.34292668,-0.119822755,-0.039205182,0.094339475,-0.16325068,0.020984335,-0.06038021,0.17251638,-0.02969498,-0.14806926,-0.318029,-0.1583146,0.12085409,-0.15123919,-0.109401785,0.211204,-0.12867212,0.22770296,-0.09906973,-0.16625291,0.2444067,0.19590317,-0.0764648,0.12443224,0.118637316,-0.17895697,-0.24810667,0.123188555,-0.17964178,0.045558088,0.03137298,-0.04605145,-0.08223082,0.0061884364,0.19804917,-0.07117198,-0.063684106,0.2968484,-0.097464755,0.18214063
conf_24,0.0084144715,0.15741725,-0.25295228,-0.07881941,-0.094663344,-0.052645013,0.058949627,0.035310756,0.24183823,-0.10969471,0.14704537,0.08525365,-0.12753592,0.21044514,-0.19694155,0.19129023,0.16671427,-0.14533648,0.017138552,-0.15919474,-0.025375333,-0.13509063,0.052140236,-0.0058538737,-0.32314324,0.049758963,-0.031798683,0.13249797,0.16175057,0.21840177,-0.101544745,-0.08231021,0.11968882,0.253683,0.061748657,0.26230517,-0.21775115,0.15049016,0.05281662,0.04648621,-0.10152586,0.15602627,-0.099693224,0.15470593,-0.20689546,0.056084655,0.100479156,-0.1796315,0.1302642,0.2504117,0.09126652,-0.084723346,-0.25521305,0.20718919,0.21867669,-0.16183308,-0.277275,-0.22480027,0.030873314,0.1014309,0.11353909,-0.07608474,-0.114488676,-0.07731109,0.20214127,0.13705504,-0.185673,0.013767105,0.026791798,0.17171524,-0.2235378,-0.023850568,0.10095689,-0.009565286,-0.23843014,0.07324769,0.27713832,0.22567631,-0.13023669,0.086249806,-0.26176992,0.10442438,0.15826032,-0.026409214,-0.16264607,0.22874828,-0.14752862,-0.074716985,-0.06351097,0.15455003,-0.18342218,0.11613748,0.0760665,-0.13733755,-0.12178743,-0.2038154,-0.20658262,-0.16159855,0.07775494,-0.17361335,0.10715808,0.23650576,-0.06804231,-0.18012135,-0.070041165,0.15275867,0.050852258,0.026657484,-0.029526344,0.15013331,0.17069004,-0.04946341,-0.12352827,0.058079127,-0.11740497,-0.13736016,0.2759088,-0.116710916,-0.0038209567,0.13772035,-0.2883335,-0.018719615,-0.23303191,-0.062877946,-0.16181986,0.046857737,-0.016756397,-0.18603078,0.19368133,-0.17367303,0.21092677,0.11919147,0.12511319,0.03487331,0.14667188,0.1120442,-0.03618439,0.13068594,0.12112019,-0.24849986,-0.005719902,-0.0662875,-0.1521383,-0.15311705,0.1070439,-0.16266243,-0.17830862,-0.11076499,-0.14790972,0.12715061,-0.17937703,-0.21222587,0.0885165,-0.22389105,0.106609344,0.23654638,-0.057643376,-0.1335992,0.2566305,-0.08640022,0.02200416,-0.14351998,-0.07587018,0.11126243,-0.0951074,-0.31653985,0.27981943,-0.3303726,-0.028017573,-0.083301686,0.12547164,-0.20771752,0.256446,-0.14713983,-0.14012635,0.10417852,-0.033858784,0.061171792,-0.13580069,-0.15348585,0.034697127,0.10531424,-0.272618,0.2022031,0.11367431,-0.13238847,0.07294603,0.13945933,-0.21976146,0.088918254,0.24428032,0.12688555,-0.0559081,-0.20799063,0.1429015,-0.074236065,-0.17083843,0.06977687,-0.111428015,0.18245779
conf_25,0.1835726,0.04189197,-0.06382213,0.18765138,-0.13003895,-0.059776627,0.1485109,0.18928774,0.15827394,-0.11543655,0.1623894,0.25326467,-0.13275908,0.13238755,-0.1661316,-0.024596976,0.06754228,-0.3130924,0.197135,-0.11380969,-0.06396313,-0.12623958,0.21328266,-0.21617086,0.015134425,0.13638431,-0.26103827,0.07834118,0.14977722,0.1505502,-0.07795824,0.25484905,0.20554192,0.06626986,0.17783836,-0.16932827,0.003968543,0.08706443,0.021795996,-0.07843516,-0.06394719,-0.23912595,-0.26952323,0.20752396,-0.112366855,0.05660322,0.05157118,-0.20950976,0.21430956,-0.12961835,0.23583859,-0.014567198,-0.065442875,-0.11990013,0.13729654,-0.17858051,-0.2020403,-0.10816462,-0.19399488,0.13387448,0.15913442,-0.12289568,-0.23345374,-0.10637719,0.19911136,0.10729325,-0.26141942,0.21460652,0.1667841,-0.29350024,-0.10631818,0.030755656,0.030257909,-0.060042858,-0.09684262,0.16102828,0.22298595,0.16953161,-0.16138682,0.19124538,-0.21474692,0.024722073,0.15373579,-0.115484945,-0.06649451,-0.08232643,-0.16993077,-0.05238056,-0.115264915,0.2788105,-0.16732337,0.19895978,0.14893287,-0.16444486,0.23287955,-0.19476734,-0.13436595,-0.05691137,0.015349831,-0.11762692,0.08963659,-0.17391294,0.041785747,-0.1543977,-0.09344864,0.14682265,0.030203512,-0.058758765,0.19529733,-0.08760245,0.16854632,-0.13728136,-0.07394214,0.08000108,-0.09745056,-0.16378626,0.020061722,-0.052986607,0.16972715,0.22311464,-0.11329294,0.30052662,-0.24911456,-0.02409098,-0.1309543,-0.12733485,-0.2603874,-0.16926298,-0.006850625,-0.19427933,-0.01459983,0.070034,0.039522905,0.041095674,0.046484426,0.10834812,0.13628949,0.1368429,0.05921361,-0.16145226,-0.18738279,-0.14322594,-0.09435553,-0.1996079,0.19119097,-0.13458025,-0.123204954,-0.13397159,-0.1491057,0.14997527,-0.11909088,-0.010087966,0.107832365,-0.27109033,0.23232152,0.254546,0.11031715,-0.0006821046,0.1403677,-0.0042624385,0.08986637,-0.1417418,-0.13644046,-0.020793322,-0.127452,0.0023460875,-0.074290216,0.100569926,0.013995512,-0.098688684,-0.32816088,-0.17341971,-0.02279372,-0.20154859,-0.17156622,-0.033277035,-0.007045174,0.09654139,-0.05359648,-0.1569608,0.38430405,0.093413174,-0.20918436,0.15363032,0.13037781,-0.17196813,-0.20952488,0.115182854,-0.19719177,-0.052769557,0.0749687,-0.078155726,-0.12050416,-0.14541739,-0.07873095,-0.07142949,-0.03853129,0.2338276,-0.1444,0.19376346
conf_26,-0.269518,0.18799122,-0.10505064,-0.029912913,-0.1628565,-0.22172377,0.10823111,0.15205476,-0.011704598,-0.0266475,0.21124549,-0.20343299,0.013940244,0.23272732,-0.051376767,0.28029537,0.1700912,-0.30501026,0.122979544,-0.08519415,-0.19804046,-0.088414736,0.13554057,-0.28468123,-0.19441809,0.18561406,0.01998992,0.061660964,0.00024775267,0.13873395,-0.19402361,0.08436764,0.09272605,0.08806325,0.03579936,-0.06742878,-0.10809047,0.18934387,0.057892382,0.15157455,-0.088654906,-0.07060668,-0.08141152,-0.07950466,-0.11519061,0.19666521,0.08994297,-0.10635784,0.04990225,0.2312474,-0.26056254,-0.055002697,-0.06950413,0.30675822,0.21186127,-0.19537814,-0.017608965,-0.1564416,-0.10035451,-0.13294324,0.20753866,0.008389491,-0.19057517,-0.11749534,0.1653248,0.006402139,-0.13206793,-0.10416895,0.112242475,0.14593409,-0.13965794,-0.16156828,0.1393109,0.30672914,-0.122442126,0.119712144,0.09630445,0.11529621,-0.19985108,0.18239328,-0.32843354,0.09036485,0.10315428,0.004624053,-0.090062805,-0.05127028,-0.1013711,0.13646734,-0.030910324,0.07387365,-0.19563022,0.103836626,0.121473886,-0.108704455,0.15209678,0.070302345,-0.004724588,-0.019059688,0.18763153,-0.27518526,0.20831588,0.04601217,-0.047042236,-0.16179805,-0.03735316,0.10457517,0.14015543,-0.15897267,-0.22708863,0.19611923,0.017557902,-0.097093455,0.25557458,0.20292038,-0.047807977,-0.13940085,-0.027497916,0.05170921,0.20271242,0.059454907,0.029290378,-0.06933657,-0.3056549,-0.023049837,-0.16738012,0.070978254,-0.33349678,-0.0019520053,0.22264436,-0.034341823,0.030566666,0.16064633,0.13132389,-0.22332561,0.12405042,0.20467742,-0.07898927,-0.09191337,0.14129771,-0.19609147,-0.10751572,-0.23832257,-0.12965225,-0.1996098,0.034715228,-0.15750636,-0.060032837,-0.0069800206,-0.091695644,0.1017313,-0.07517165,-0.0062098713,0.13481344,-0.15745988,0.0007275714,-0.018977584,0.18385048,-0.10546977,0.22871934,-0.27969185,-0.23875317,-0.23305112,-0.15113239,0.092627555,-0.17269704,-0.018501591,0.22479972,-0.3563246,-0.22026265,-0.048456024,0.22881845,-0.051295713,0.13992944,-0.030412756,-0.07988029,0.1441892,0.03872076,0.16612165,-0.08453371,-0.12526399,0.08296538,0.13680254,-0.22407456,0.17860019,0.033838727,-0.1450062,0.397954,0.16602701,-0.103112236,-0.0626605,0.11830308,0.0012207212,-0.030453023,0.15963961,0.14369582,-0.07635939,-0.07223658,0.33852464,-0.16055721,0.22948228
conf_27,0.43876475,0.11936667,0.08406452,0.17071365,-0.20847264,-0.101838075,0.17789204,0.07308611,0.22579068,-0.07723521,0.12986521,0.24969529,-0.15658036,0.07866003,0.14198163,0.21987523,0.17776896,-0.06355279,0.10062776,-0.13268323,-0.25227964,-0.1113725,0.15133892,-0.106264584,-0.18537131,-0.21459469,-0.24396065,0.058344405,0.17196043,0.107272275,-0.17030643,0.051458377,0.093405664,0.16191451,0.22543205,-0.19688205,-0.001170052,0.14683914,-0.017137863,-0.14698437,0.010573045,-0.14338008,-0.16956915,0.113057554,-0.030526266,0.06008811,0.13800779,-0.14322945,0.20442024,-0.11453866,-0.059343215,-0.13193695,0.12467782,0.21493971,0.11828698,-0.17093965,-0.14122209,-0.1569061,-0.1361,0.10248732,0.1084093,-0.14030465,-0.003770035,-0.12768443,0.118675664,0.13856794,-0.14061634,0.19992463,0.08089943,-0.18902852,-0.0047186054,0.22114922,0.31803718,0.1248526,-0.031173406,0.105154626,0.18659611,-0.08019191,-0.21026202,0.119430624,0.24575472,0.15386248,0.19769777,-0.2190972,-0.2374593,0.07006609,-0.14335664,-0.1488293,0.025872307,0.10611153,-0.18293361,0.091603644,0.1172202,-0.1846494,0.08356888,-0.24989128,-0.043761395,-0.08837774,-0.07411101,-0.078559,0.24033876,-0.29928786,-0.346343,-0.20384431,0.040040243,0.099371396,0.29757255,-0.14839925,0.1792669,0.1818875,0.20287009,-0.19296005,-0.033327308,0.17867623,-0.07976629,-0.13117248,-0.08941631,-0.16948104,0.13544281,0.09498768,-0.33269277,0.081140384,-0.15562287,0.10721052,-0.18028437,-0.16538572,-0.27469608,-0.12194253,0.06683154,-0.22054075,0.19579871,0.13439265,0.26607504,-0.01360768,-0.11479034,0.090949185,0.17339775,0.107601546,0.14907743,-0.1961147,-0.24061362,-0.10045174,-0.13194612,-0.08040829,0.06910529,-0.3424099,-0.12427269,-0.03228682,-0.03756985,0.14205553,0.03976993,-0.105384596,0.12390985,-0.07821552,0.12557223,0.12477872,0.08088471,-0.092241935,0.222976,-0.1982894,0.20565492,-0.17041714,-0.13273694,0.2809524,-0.18229723,0.19105746,-0.07113065,0.067633875,-0.22128256,-0.0076981215,0.051408567,-0.20249437,0.06507192,-0.18670511,-0.14945127,0.13869715,-0.17885157,0.125344,-0.02308948,-0.17748751,0.26646897,-0.10779217,-0.002505036,0.12723075,0.04227332,-0.19797042,-0.08831676,0.05197476,-0.14407192,-0.18213455,-0.050157014,0.14755712,0.17378932,-0.25794426,0.1218492,-0.060380075,-0.04898826,0.19415186,-0.14778517,0.05390418
conf_28,0.08100957,0.016824022,-0.24815153,0.04130295,-0.20746689,-0.16575298,0.22506231,0.107728675,-0.006096674,0.035719223,0.20775837,-0.017488284,-0.12989824,0.37383014,-0.09069662,0.26214072,0.14864032,-0.038701043,0.1966484,-0.16265003,-0.027298573,-0.12562172,0.16642877,0.0003898522,-0.16289441,0.060749985,-0.030027274,0.19099458,0.051072944,0.19163612,-0.15184712,0.09571445,0.14864303,0.07595258,-0.074054204,0.05452645,-0.1890425,0.14707403,0.20213285,-0.08636653,-0.26176032,0.10991671,-0.1643158,0.048120048,-0.10985015,0.15134612,0.107227854,-0.015996316,0.21674275,0.30334136,0.100421734,-0.1638026,0.012705548,0.044707064,0.21181136,-0.10404005,-0.04656953,-0.15112233,-0.25557342,0.01595618,0.22495721,-0.11732039,-0.069219306,-0.20499009,0.08515286,0.14203204,-0.045259114,-0.0280838,0.16166806,-0.28934354,-0.18501557,-0.22257476,0.2666872,0.1637864,-0.23072085,0.056007016,0.1464522,0.08155145,-0.060839146,0.1730576,-0.50254744,0.08649883,0.016041873,-0.21132077,-0.15132579,0.25560632,-0.15090896,0.11186384,-0.19817437,0.0063781566,-0.10070832,-0.021461915,0.04685783,-0.09487749,-0.3598948,-0.17903976,-0.059827514,-0.29167914,-0.02511895,-0.040277842,0.14812464,-0.13526043,0.19633187,-0.15352207,-0.17130432,0.08079534,0.11581188,-0.012821476,-0.24360779,0.07863313,0.02600736,-0.15660043,-0.37338346,0.08173148,-0.06225256,-0.09362642,0.1295421,-0.09157816,0.05665224,0.077451535,0.39540514,0.1648923,-0.1032722,-0.049927626,-0.10453972,0.011517977,0.18448377,-0.07579636,0.1842987,-0.13404776,0.24664313,0.13168205,0.054186456,-0.022881394,0.24639629,0.19454738,-0.047262393,0.07272257,0.119412504,-0.1564799,-0.1141233,-0.22169971,-0.17014892,-0.16897008,0.07242477,-0.082524404,-0.13600105,-0.30836776,-0.18769965,0.19311935,-0.1277058,-0.24709016,0.06249525,-0.11260244,0.16647853,-0.1787763,0.29223958,-0.13736099,0.07698696,-0.39652932,0.09491865,-0.080049664,-0.08033646,0.17843878,-0.2072533,-0.07013931,0.19203173,-0.24447592,-0.17514026,-0.15000072,0.13929106,-0.18061951,0.30434704,-0.17555486,-0.11421533,0.36720666,0.0011188979,0.110004716,-0.14257354,-0.17150845,0.07382029,0.1435604,-0.13562325,0.11349275,0.11203649,-0.19145659,0.34323975,0.11041905,-0.19663365,-0.16285716,0.10571197,-0.051399313,-0.21745978,0.06546315,0.2891043,-0.24136716,-0.19540888,-0.008463751,-0.0846852,0.11985588
conf_29,0.09902588,-0.050618686,0.01447012,0.025341768,-0.2540587,-0.1262163,0.12584831,0.18923926,0.11896816,-0.07591312,0.108912505,0.32923904,-0.102771915,0.1462966,0.057973605,0.1253992,0.10092104,-0.17306222,0.13553359,-0.10560355,-0.10747374,-0.20570655,0.17442177,-0.074531704,0.16725333,-0.1340032,-0.17302702,0.117808565,0.10625168,0.07066846,-0.060262334,-0.14657392,-0.057168465,0.23811942,0.17722268,-0.06432417,-0.11295099,0.13481164,0.036993623,-0.20822796,-0.1433225,0.09788557,-0.24151303,0.096014515,-0.11136235,0.06757207,0.01854427,-0.19996968,0.16178028,0.09194439,0.124232434,-0.07184784,0.23751083,0.33615804,0.12993553,-0.16329436,-0.091292664,-0.080431364,-0.21358842,0.055255875,-0.03828226,-0.12604892,0.16271085,-0.1880534,0.14527899,0.13324015,-0.18710616,0.13110477,-0.028138015,-0.32324356,-0.10435668,0.20755534,0.3021216,0.05984428,-0.16423474,0.13680515,0.06377217,-0.021248057,0.0019441335,0.1604188,0.14412966,0.11549212,0.06334842,-0.267796,-0.09982756,0.010607344,-0.11241754,-0.010577914,-0.076856434,-0.059292324,-0.19656682,0.07949333,0.09132921,-0.12451464,0.16708906,-0.30303422,-0.004396135,-0.29188645,0.15581219,-0.09562654,0.13762033,-0.3577245,-0.24288157,-0.039532457,-0.068797015,0.11455077,0.23827274,0.045631506,0.24183628,0.18631274,0.27761653,-0.15626164,-0.051082656,0.14194101,-0.027495623,-0.14951007,0.09249957,-0.10085899,0.33914286,0.22833519,-0.10567894,-0.0135186,-0.3387198,0.035540905,-0.09625,-0.18932286,-0.3159698,-0.13793284,-0.02993089,-0.15568486,0.11834151,0.056888156,0.09540745,0.24680954,-0.12764886,0.09163396,0.27330977,0.11670253,0.05798794,-0.027604507,-0.17839856,-0.15516636,-0.12775701,0.085883304,0.021766378,-0.20412974,-0.15454064,-0.09627291,-0.23179215,0.16220781,-0.0023906042,-0.04682963,0.07356924,-0.07616481,0.1677502,0.15487075,0.20027915,-0.22986218,0.21944559,0.08528295,0.22671294,-0.13619491,-0.10585908,0.16470544,-0.18624094,0.07835588,0.14887297,0.14159617,-0.1354149,0.020190781,-0.22876254,-0.102968544,0.10463816,-0.23308657,-0.093627274,0.21784748,-0.13490473,0.120179184,-0.1050308,-0.10028024,0.3010575,0.042207345,-0.056269802,0.14294192,0.14726129,-0.11356201,0.0921353,0.14825283,-0.12334038,-0.23460205,0.05858926,0.0971159,-0.046505615,-0.030830296,0.058852497,-0.08402145,-0.08383648,0.1334156,-0.0784915,0.05083007
conf_30,-0.20410635,0.07202992,-0.14383183,0.06162141,0.031860467,-0.21784475,0.11243465,0.2413258,-0.030144578,0.09809655,0.16275056,0.052608065,-0.1714471,0.0980431,0.19464196,0.15075667,0.24887572,-0.24129784,0.1932587,-0.10093782,-0.08984523,-0.12252578,0.22396491,-0.095118284,-0.060346026,0.28975832,-0.017406793,0.23240441,0.1826209,0.0868528,-0.14288993,-0.2669353,0.14851077,0.25829205,0.06815934,0.22861485,-0.17847407,0.17519026,-0.0409678,-0.07552209,-0.1275299,0.21108373,-0.06408661,0.092369966,-0.12983967,0.18520088,0.039654534,-0.19827658,0.14093624,0.100724876,-0.19963501,-0.057441935,-0.36775264,0.3694273,0.12470766,-0.1295099,0.08551596,-0.072511695,-0.21026877,0.17184168,0.10211972,-0.09517528,-0.12979236,-0.16479823,0.13062766,0.13885063,-0.16849457,0.18438458,0.1282912,0.20190634,-0.16539052,-0.12433515,0.29551068,-0.01129804,-0.18504809,0.1396822,0.23141617,0.2465515,-0.1335707,0.12655167,-0.13019563,0.17568578,0.13049108,-0.19784716,0.040104523,0.18463448,-0.18290843,0.06655877,-0.0841474,0.12757488,-0.18393077,0.058913585,0.10214763,-0.13837984,-0.06504898,-0.16959481,0.11933515,-0.20957097,-0.026685249,-0.096270695,0.011434625,-0.11937729,0.024346702,-0.06702425,-0.16329724,0.08759504,-0.25368217,-0.051316574,0.068915755,0.25619438,0.018314645,-0.087430656,0.33007917,0.17606312,-0.14698224,-0.2081324,0.19252385,-0.21534525,-0.20930307,0.10755321,-0.031448837,0.010225703,-0.17962196,-0.15291318,-0.20356475,-0.03744616,-0.096823834,0.00095714076,0.18209323,-0.07998705,-0.0862125,0.14553171,0.08763947,-0.0768429,0.20277119,0.20793702,-0.05255607,0.035842165,0.11306248,-0.1478889,-0.31532815,-0.20884655,-0.17364748,0.038275436,0.24440119,-0.08844835,-0.11697539,-0.15128003,-0.067544594,0.18193722,-0.097158045,0.084071144,0.06174579,-0.119186305,0.13762659,-0.22143346,0.14375132,-0.18425243,0.18808962,-0.157224,0.14481601,-0.13549614,-0.09269615,0.096269965,-0.07999974,-0.29448,0.17166354,0.00082962756,-0.19783874,-0.04443146,-0.03909722,-0.12640926,0.13152899,-0.15607776,-0.183853,0.12849931,-0.10146113,-0.0021734594,-0.1570316,-0.21783455,0.035915032,-0.02727978,-0.28549567,0.15392661,0.110692196,-0.14596955,0.27822787,0.054580815,-0.1145168,-0.2279622,0.17501174,0.1098884,-0.15076114,0.043772828,0.18129466,-0.013582539,-0.14624089,0.0117334165,-0.22375447,0.1696173
conf_31,-0.10958882,0.07226988,-0.0041506747,0.2605629,-0.3009054,-0.017585704,0.033125874,0.12628461,0.22898394,0.08336131,0.12961584,0.06594802,-0.19323005,0.09490995,-0.024095044,-0.024310011,0.16273093,-0.034399476,0.12114113,-0.14635028,-0.08223727,-0.07570587,0.18596447,-0.08759759,0.18431696,0.02682335,-0.175397,0.152943,0.22367659,0.14527021,-0.14070414,-0.015221337,0.021503618,0.2748092,0.11332467,-0.13671988,-0.17666021,0.111637905,0.18357219,-0.16104583,-0.12186234,-0.2164585,-0.22367185,0.16339383,-0.13185395,0.16048373,0.13678062,-0.19509396,0.15985194,-0.031493887,-0.09760007,-0.135266,0.067920536,0.15200092,0.14220256,-0.06497132,-0.07666951,-0.09510944,-0.16638426,0.046347637,0.1059369,-0.16342255,-0.08017566,-0.11352828,0.13283882,0.15822308,-0.09684684,0.2511791,-0.0029680806,-0.25005648,-0.09432433,0.14531843,0.17731139,-0.0038895742,-0.16732734,0.19773932,-0.0037026317,0.1429303,-0.16189934,0.13624577,0.34507838,0.16302934,0.12842093,-0.20018306,-0.09631385,0.18232909,-0.040516444,-0.029704655,-0.079708785,0.14017749,-0.16719925,0.3085925,0.16452706,-0.1680389,0.1358468,-0.2319728,-0.14157458,0.033673756,-0.29082668,-0.049985502,0.039623808,-0.08155919,-0.17298684,-0.13798386,-0.11836901,0.20343195,0.11293722,-0.07501505,0.30608976,0.13029137,0.28552032,-0.13341016,0.29557207,0.17998649,-0.14007007,-0.111206956,0.05723291,-0.10001647,0.039047945,0.16302127,-0.13689327,0.27943867,0.13804197,-0.14480375,-0.12388766,-0.20351349,-0.15542118,-0.18422712,0.10099196,-0.2081418,-0.018290736,0.15414178,0.49166337,-0.009229438,-0.18685097,0.06861119,0.057020232,0.09408826,0.14320251,-0.20198122,-0.38515145,-0.11178242,-0.14656368,0.07808163,0.21824104,-0.2349039,-0.054176003,-0.15766954,-0.12230973,0.09848506,-0.21375878,-0.014324611,0.22792824,-0.04956804,0.11996214,0.25097722,-0.00965433,-0.0020697091,0.09569586,-0.046899714,-0.13128507,-0.18721664,-0.19602735,0.2637542,-0.11203355,-0.077264905,-0.220002,0.17758943,-0.09123348,-0.11398688,-0.12931247,-0.08924749,0.16681546,-0.26340362,-0.19046319,-0.15193637,0.021634199,0.13538563,-0.08957493,-0.1641456,0.08730592,0.3053775,-0.088595934,0.07895243,0.09855355,-0.19107737,0.034437377,0.12715253,-0.09817419,-0.26744974,-0.19119702,-0.19491239,0.0046819746,-0.1598348,0.13785848,-0.15880291,-0.09735358,0.15252538,-0.14750093,0.15905143
conf_32,-0.019821925,0.17016421,-0.1981992,0.0032820364,-0.00043143652,-0.15445034,0.08524693,0.13224626,-0.06829209,0.00055083615,0.21933946,0.14793088,-0.025456846,0.2280585,-0.10013634,0.15680084,0.21180898,-0.35004368,0.16129068,-0.044081934,-0.13723876,-0.13155796,0.24566515,-0.16717324,-0.13930526,0.14744094,-0.10461122,0.19875614,0.11717477,0.20155895,-0.104768105,-0.0753566,0.07260509,0.18071963,0.088448144,-0.11138234,-0.065193966,0.06108269,0.2800561,-0.012131197,-0.17758147,-0.35610157,-0.059146654,0.07702381,-0.20943905,0.13334279,0.14172053,-0.15881906,0.19722496,0.08713753,-0.15324885,-0.16365889,-0.12641385,0.2778753,0.1428313,-0.12048163,-0.14193128,-0.02532017,0.07785237,0.03214999,0.011546313,-0.11638854,-0.33427212,-0.04807926,0.17619078,0.12886669,-0.16036925,0.063767895,0.17643559,0.32484466,-0.07365403,-0.19294254,0.32940325,0.15941873,-0.27727732,0.07241967,0.2876962,0.19360164,-0.101335004,0.08287362,-0.40123734,-0.006833918,0.048898887,-0.053260945,-0.11162706,0.03385213,-0.12856601,0.118743174,0.014735332,0.14315437,-0.17092872,0.13469063,0.064925335,-0.19850792,-0.08624418,-0.05476447,0.13311112,-0.21235906,0.23335375,-0.24955091,-0.05041464,0.052653167,0.019988183,-0.20378037,-0.08557159,0.1288836,-0.19321781,-0.12109992,-0.23045994,0.32803863,-0.021290014,-0.107475705,0.115147,0.114675604,-0.042466566,-0.051677212,0.11019826,-0.026353735,0.10724881,0.21345256,0.26422855,0.06355531,0.0028052954,0.024758235,-0.13623925,0.16643795,-0.077147305,-0.1947094,0.08333433,-0.2174101,-0.3115105,0.20579362,-0.25313875,-0.22754602,0.1675323,0.16752395,-0.18443911,0.070597224,0.12832735,-0.18963753,-0.1283532,-0.16301048,-0.10780102,-0.21413998,0.14512342,-0.28317454,-0.08273269,0.20961894,-0.19822465,0.032899957,-0.059405837,-0.45003754,0.14974122,-0.19088078,0.02210539,-0.026823375,0.043450527,-0.23584665,0.2905325,-0.1739794,0.2826288,-0.15077576,-0.10075378,0.41769868,-0.16159667,-0.08410369,0.17936224,-0.1080464,-0.014353848,-0.11874955,-0.06533847,-0.17360842,0.063398734,-0.123529084,-0.049742192,0.06447627,0.17763028,-0.08129632,-0.22963786,-0.16753785,0.050528206,0.18520495,-0.3270164,0.18706027,0.19617516,-0.16053484,0.09239388,0.1906259,-0.12684652,-0.24158493,0.20474946,0.16412933,-0.19621852,0.034765247,0.205631,-0.12468739,-0.14232248,0.08319324,-0.15830022,0.1485713
conf_33,0.02889651,-0.028204693,-0.04222542,0.28950912,-0.15972777,-0.08484844,0.0789984,0.06647449,0.08906383,-0.11873945,0.14989612,0.23950584,-0.15170635,0.28301415,0.27580783,0.15363722,0.2000723,-0.26531148,0.10386421,-0.113091804,0.037214387,-0.07673436,0.13231869,-0.16360354,0.41682705,0.02505486,-0.20845863,0.09967692,0.18074149,0.14915302,-0.11887098,0.13210699,-0.19076523,0.15681529,0.23153096,-0.29141355,-0.09878443,0.21239974,-0.12280657,-0.09334627,-0.19825913,0.12917182,-0.15454131,0.05901083,-0.116317384,0.04556579,0.0277833,-0.06407896,0.105394386,0.0099385325,-0.11947828,-0.23507975,-0.014795715,0.0280363,0.13991348,-0.08249497,-0.19904158,-0.085126705,-0.04167015,0.12722993,0.018925749,-0.11801153,0.029004076,-0.20312236,0.109811276,0.19918014,-0.2511961,0.30757228,0.051752377,-0.18901457,-0.11078281,0.09946504,0.04416046,-0.030895108,-0.06231033,0.20065065,-0.028272202,-0.040708993,-0.12037519,0.08040068,0.2550903,0.07240711,0.16550264,-0.15779674,-0.092428625,-0.03473155,-0.12632775,0.020880662,-0.014654562,0.054320045,-0.25096574,0.08329524,0.1282999,-0.14640424,0.2470985,-0.18242536,0.10709305,-0.13673769,-0.10268165,0.014894548,0.21372676,-0.24708547,-0.18000078,0.00038951603,-0.16236742,0.19676024,0.075799204,-0.019771118,0.37398246,-0.07781111,0.28208324,-0.16984627,0.30462486,0.07980001,-0.07996194,-0.107323274,0.03212805,-0.035323285,0.18774618,0.21405248,-0.07315075,0.17997575,-0.047366705,-0.020499984,-0.16751593,-0.269123,-0.108336434,-0.019201405,-0.03171571,-0.14708282,-0.011368191,0.051787987,0.33540893,0.23718916,-0.18783478,0.09032416,0.24211633,0.1598195,0.05213497,-0.046669748,-0.29207268,-0.15180846,-0.1835425,0.0129478825,0.09642984,-0.17883973,-0.18457206,-0.0008774635,-0.11433882,0.18765195,-0.13246638,0.070444144,0.088918164,-0.05952551,0.1404913,0.32550716,0.2895333,-0.24353237,0.17520384,0.25331315,0.15309739,-0.054352425,-0.22462623,0.16264704,-0.22223757,0.2045811,0.056681126,0.375287,0.09771236,-0.026531149,-0.3143075,-0.054131955,-0.0048845336,-0.15690781,-0.25729364,0.13045213,-0.2660287,0.13692108,-0.084484115,0.01972443,0.22911847,0.14686902,-0.05021316,0.17713004,0.14195727,-0.13965446,0.05444971,0.15093713,-0.14908096,0.13600382,-0.09866111,0.2087792,0.18194146,0.04808389,-0.047599472,-0.032523137,-0.069012016,0.16418144,-0.14267747,0.048669055
conf_34,-0.019000294,0.026593026,-0.21361546,0.03824657,0.012089696,-0.07923931,0.09643786,0.118865505,-0.05013099,-0.040640924,-0.012804747,-0.09086133,-0.39036807,0.0018294367,0.046266004,0.24054947,0.1651193,0.04226917,0.08408558,-0.06437629,-0.06273451,-0.0850759,0.15679176,-0.11249805,-0.18495955,-0.17092314,0.00077369355,-0.059848044,0.07831313,0.10685266,-0.099434786,0.0106204515,0.15342872,0.2138556,0.10604775,-0.034639478,-0.27138445,0.13554221,-0.03559791,0.03477769,-0.22603147,-0.12522383,-0.13303374,-0.016901283,-0.1768239,0.22093673,0.08158414,-0.12506339,0.23781967,0.3053653,-0.13514124,-0.25212666,-0.33656585,0.09717495,0.17677082,-0.2167463,-0.06822384,-0.1161876,-0.26670876,0.1320923,0.09640809,-0.09611222,-0.040939245,-0.17691128,0.2629675,0.23430945,-0.05559995,0.15403144,0.08307547,-0.089539975,-0.17633377,-0.20663,0.04809329,0.10801599,-0.29723728,0.115558825,0.098614536,0.13475068,-0.23157018,0.21715228,-0.13672215,-0.15602194,0.11130887,-0.21939757,-0.107585154,-0.0029313175,-0.14095798,-0.063220955,0.052367233,0.028170068,-0.12777953,0.10256864,0.019174917,-0.17668284,0.028884776,-0.24404603,0.032335546,-0.19076057,0.10913892,-0.13092026,0.24449857,0.015405062,0.03281331,-0.10204874,-0.25946027,0.17169958,-0.04877389,-0.053804174,-0.2017413,0.2426697,0.33876,-0.20784092,0.086186394,0.22790618,-0.21090114,-0.18030871,0.05836135,-0.22476189,-0.12577869,0.15574358,-0.17150053,0.119252175,-0.028375903,0.0981449,-0.10869318,-0.13373582,0.14428294,-0.036807343,0.23431054,-0.3107146,0.2506777,0.14016914,0.13292134,0.060343076,0.12537803,0.1303587,0.012334395,0.19543469,0.1841211,-0.14416714,0.04735759,-0.19822358,-0.19528073,-0.07350639,0.1889317,-0.13289382,-0.15386496,0.016428018,-0.25383028,0.0769962,-0.13757454,-0.33362037,0.13327076,0.032395437,0.21278931,0.07097223,0.09444376,-0.1741201,0.03159393,0.005832752,0.19632597,-0.25604743,-0.020743543,0.32790953,-0.11732732,0.0785262,0.21328898,-0.058600515,-0.04440681,0.01608122,0.06868146,-0.1566568,0.171283,-0.11248777,-0.07971288,0.16427891,-0.21686193,-0.039033122,0.12896036,0.008625143,-0.08430705,-0.443637,-0.16860177,0.086027056,0.17525204,-0.118346006,0.19172628,0.13311684,-0.068439566,0.06023853,0.029198365,0.03265538,-0.09209359,0.086475976,0.18627632,-0.07608815,-0.20762378,0.080914654,-0.20007518,0.17101876
conf_35,0.073641695,0.056996793,0.02963898,0.29598925,-0.113437116,-0.045998856,-0.026555112,0.07250992,0.21108927,0.034261428,0.14881006,0.08939594,-0.17029378,0.10415774,0.0853372,0.20137854,0.26859915,-0.11073651,0.12206956,-0.09067268,-0.14980176,-0.13481952,0.18417524,-0.063896164,0.25478578,-0.071924634,-0.15560462,0.12392985,0.10028501,0.14062743,-0.088784575,0.26664293,0.013978871,0.18372649,0.24153516,-0.2070091,-0.12703486,0.13413833,0.16449028,-0.2689175,0.02509167,-0.23995084,-0.100143746,0.08289474,-0.04436254,0.13392748,0.027962202,-0.19167946,0.1505041,0.12980169,0.2758343,-0.107193574,0.15016979,-0.030983191,0.06380764,-0.06417135,-0.018275486,-0.12865755,-0.1038542,0.1826111,0.022421127,-0.06758321,0.019379066,-0.13247244,0.05572307,0.058578674,-0.19265485,0.10788783,0.025688654,-0.09458147,-0.07380313,0.21150635,-0.024231184,0.06938614,-0.12660524,0.1858605,-0.082375646,0.013103868,-0.20473275,0.10774176,0.2546012,0.19405624,0.082088135,-0.1328559,-0.05011883,0.06278721,-0.05353999,-0.0115536135,-0.07424809,0.10875895,-0.17388266,0.26970437,0.008812496,-0.10556017,0.19115964,-0.26921308,0.116899505,0.03483001,0.05766481,-0.081081584,0.14598024,-0.16265537,-0.2345065,0.02840292,-0.22783087,0.19227785,0.1292282,-0.17331645,-0.018317346,-0.11631132,0.15926671,-0.1182203,0.13419019,0.05850796,-0.14747915,-0.09572043,-0.17359112,-0.20294221,0.2358373,0.21702188,-0.39715195,0.19974355,0.11002705,0.15473977,-0.20951825,-0.22166435,-0.33490723,-0.12730615,0.061409943,-0.171553,0.08993114,0.19899647,0.12405642,0.02912305,-0.19070528,0.0726849,0.14028205,0.2597616,0.02641729,-0.07580841,-0.18021365,-0.074299,-0.12251857,0.04152356,-0.018851316,-0.18747151,-0.21677805,-0.057356082,-0.09199435,0.05255148,-0.12948366,0.047746915,0.19539917,-0.22584283,0.21254298,0.17147216,0.1390394,-0.17045505,0.13678735,0.019008214,0.08190909,-0.1020129,-0.21259928,0.35265967,-0.15595739,0.17791587,-0.1296314,0.10227433,-0.050200056,-0.12665927,-0.2245451,-0.05788538,0.18953477,-0.14400674,-0.16276762,0.27103117,0.028064365,0.20231569,-0.10040121,-0.08705168,0.24393885,-0.25163692,-0.103465475,0.12773198,0.15332633,-0.2138499,-0.23315066,0.16823332,-0.16526818,-0.054420333,-0.07536005,0.05021501,0.18309471,-0.15174514,0.21447621,-0.054738753,-0.031399388,0.16616389,-0.016504532,0.07127692
conf_36,0.2729752,0.022885498,-0.17076062,-0.073789865,-0.053829808,-0.20700318,0.0644094,0.21942537,-0.0042027617,-0.10347454,0.22151752,0.07802923,-0.06232193,-0.048493322,0.14189328,0.073098615,0.2250618,-0.21304111,0.18572813,-0.118148975,-0.17507881,-0.14129339,0.16541967,-0.16889434,-0.2626432,0.23916326,0.005100201,0.194037,0.1416293,0.16676196,-0.18509966,0.12899789,0.34136143,0.0704611,0.10597127,0.09126445,-0.11604235,0.15849423,-0.057054136,-0.08916264,-0.27365887,-0.1013127,-0.13140023,-0.027097382,-0.05910913,0.14895882,0.13128436,-0.05261819,0.16294067,0.24860068,0.08547453,-0.101039715,-0.30872157,0.06122401,0.19113173,-0.1446241,-0.17193946,0.016249906,-0.14929631,0.0458639,0.020400839,-0.17395851,-0.14099638,-0.09917636,0.15668191,0.18200037,-0.08959742,0.0004687963,0.16088364,0.0434663,-0.12471938,-0.30703613,0.076956764,0.19053742,-0.012523511,-0.011517853,0.2342729,0.1465385,-0.07242375,0.16958636,0.16079684,-0.12681682,0.24292654,-0.14709444,0.035338208,0.121468,-0.16351812,-0.03125607,0.13292262,0.15523942,-0.042681858,0.06947577,0.07855854,-0.10084636,-0.0029733046,-0.117091425,-0.061495353,-0.28663456,0.2224858,-0.1363766,0.30053592,0.24726397,-0.17107853,-0.109381646,-0.05659385,0.15507388,0.22727105,0.01656729,0.1207938,0.31079116,-0.052275307,-0.056153145,0.13585,0.14515902,-0.23645112,-0.13663685,0.042101365,-0.16793218,-0.07184615,0.090818405,0.0357732,0.047871843,-0.0013713978,-0.15374885,-0.120050706,0.09519523,0.11245877,-0.16373844,0.17543995,-0.098134965,0.22041818,0.20956033,-0.23293328,-0.38857237,0.057745054,0.18089567,0.040446565,0.0825777,0.14007646,-0.19497146,0.05314345,-0.09075769,-0.1789662,-0.3845845,0.09254542,-0.03826234,-0.17511459,0.0049538417,-0.11694413,0.22819252,0.012843739,0.15695734,0.14655593,-0.016016763,0.089472614,-0.24298243,-0.044180375,-0.04796772,0.21952419,-0.18378413,0.16405705,-0.16045482,-0.116299994,0.15126613,-0.17480738,-0.14081377,0.26037607,-0.24776955,-0.12687701,-0.117502674,-0.06113219,-0.18183172,0.062758364,-0.11113491,-0.24689735,0.18727693,-0.1038555,0.15067789,-0.15198956,-0.22973372,-0.054192755,-0.42069346,-0.2327054,0.08763065,0.1396399,-0.14804305,0.11203729,0.21946317,-0.13133201,-0.12878917,0.23516496,-0.045723926,0.04838022,-0.021342179,0.14039235,-0.07137781,-0.056289572,0.082217745,-0.10473078,0.041638855
conf_37,-0.07555968,0.20589314,-0.20663193,0.031467002,0.0030104648,-0.095947415,0.078692995,0.1599562,0.04951885,-0.026433427,0.21933241,0.046173736,-0.10558501,0.197336,-0.31127882,-0.013521358,0.14490804,-0.20414346,0.11894674,-0.2100258,-0.10300505,-0.106160596,0.22237168,-0.14397168,-0.08879934,0.29593438,-0.11769353,0.15592645,0.14850652,0.09872097,-0.18396208,0.08342755,0.18219881,0.14755076,0.17171532,0.015065776,-0.1920533,0.15407145,0.11116992,-0.09125813,-0.24775232,-0.16929017,-0.1295264,0.067692496,-0.14249222,0.17399393,0.2088053,-0.10154106,0.08872049,0.004646309,-0.0065240487,-0.09199801,0.028385894,0.08106055,0.097828776,-0.18384969,-0.19034821,-0.19436881,-0.10480877,0.10176706,0.24773264,-0.043826826,-0.20988552,-0.040652864,0.16405667,0.16001394,-0.25423864,-0.006608593,0.14405215,-0.17051077,-0.18248993,-0.09728972,0.16740474,0.103032626,-0.15026014,0.12389106,-0.080609314,0.17001282,-0.09038448,0.1138922,0.026112488,0.25797176,0.19076723,-0.12392438,-0.18520555,0.1596537,-0.14973207,0.12361817,0.04937142,0.06909987,-0.10392451,0.1762996,0.14678292,-0.2269534,0.060222615,-0.1825077,-0.30223328,-0.07252405,-0.044390187,-0.12063137,0.13759266,0.01142533,-0.08605618,-0.04986615,-0.09357802,0.15410683,0.2901563,-0.029371433,0.00946135,0.18148278,0.12313946,-0.2080282,-0.1278693,0.11854247,-0.16358382,-0.10044794,0.022401946,-0.08342836,-0.21482031,0.14439054,0.10426553,0.08825208,0.18441008,-0.21822026,-0.18804589,0.089011274,0.14417894,-0.17460763,0.1529183,-0.1916214,0.21765631,0.13460456,-0.051177103,0.052724957,0.10149103,0.16568702,0.14435753,0.14113298,0.1274494,-0.11786278,0.08913731,-0.17732519,-0.19910084,-0.16860157,0.10487282,-0.107919954,-0.15379012,-0.15933509,-0.17694397,0.19870245,-0.22822069,0.10511985,0.17455612,0.038742624,0.11597617,0.17264609,-0.1571773,-0.113947116,0.054445602,-0.1753465,-0.10463928,-0.09305824,-0.13128959,0.25171167,-0.12883441,-0.21547243,0.021741325,-0.23634878,-0.23390545,-0.1282696,0.20510451,-0.08584739,0.13622974,-0.18273517,-0.16039185,0.15431286,-0.31907213,0.037048407,-0.0466028,-0.0006694435,0.07200211,-0.20547879,-0.2849873,0.16397162,0.16584797,-0.09274673,0.06450499,0.19422023,-0.12328983,-0.23539057,0.110594355,0.17466317,-0.01805071,-0.20242152,0.08462926,-0.18974811,-0.10641222,0.09580831,-0.1236447,0.14375578
conf_38,-0.060012717,0.105337754,-0.21190509,-0.08431049,-0.14480262,-0.16096462,0.19378608,0.14867723,0.0070301355,-0.20017579,0.16335954,0.13619934,-0.104710095,0.03998993,0.02749204,0.22592919,0.118209675,-0.0031381545,0.092697546,-0.08009732,-0.09465064,-0.17366308,0.19868515,-0.14662303,-0.13001639,-0.026101813,-0.08625046,0.13314563,-0.008550636,0.20540047,-0.21720405,0.05267718,0.13439207,0.06979057,0.0020998283,0.19975814,-0.15364634,0.160989,0.057684194,-0.300895,-0.14928252,0.25835013,-0.17911391,0.15543775,-0.24132217,0.14939533,0.13956244,-0.17526567,0.08930536,0.22084798,-0.055285532,-0.20713289,-0.22443615,0.004717536,0.18599276,-0.1654073,-0.11576436,-0.11523807,-0.27293167,0.13550386,0.23464061,-0.08028319,-0.06602164,-0.21946195,0.22477877,0.21407738,-0.16167165,0.12806267,0.15669025,0.3140263,-0.2922036,-0.1960054,0.056318693,0.15120925,-0.13329682,0.064404726,0.13166663,0.13383311,-0.14754602,0.1439408,-0.0381841,-0.019179,0.11167769,-0.14769074,-0.16852884,0.085664466,-0.16037285,-0.01697548,0.060188197,-0.035696246,-0.122931264,-0.10588729,0.13216895,-0.12278972,0.0015665669,-0.038656402,-0.06474155,-0.20914933,0.068276964,-0.1729598,0.21099268,-0.26255167,0.24138771,-0.15011624,-0.16674244,0.093616046,0.056809437,-0.036358856,-0.1903399,0.17561243,-0.01743876,-0.22179133,0.025326956,0.21308474,-0.24439485,-0.21401334,0.28033137,-0.19943899,0.1369388,0.09767871,0.10956398,0.041831523,-0.28725144,-0.13861348,-0.11533859,-0.0849422,0.14961453,-0.14209332,0.20291653,-0.13879856,0.011292147,0.15702094,-0.22124584,-0.002411364,0.23810026,0.25910324,-0.112952426,0.034617472,0.115465865,0.13235052,-0.078695565,-0.21980333,-0.11476298,-0.0991613,0.14304486,-0.03859218,-0.11539553,-0.097966485,-0.089620344,-0.020157987,-0.2432585,-0.30361953,0.13082857,0.0238987,0.04245893,-0.001875608,0.28964674,-0.17339955,0.058353715,-0.11712261,0.15099028,-0.09883557,-0.08360233,-0.19283855,-0.19499274,0.039332792,0.2217405,-0.12697683,-0.09871315,-0.19440585,0.2695981,-0.2027243,0.18844873,-0.1140681,-0.24549648,0.19053051,-0.11468586,0.16493616,-0.07531415,-0.23006716,-0.06425067,0.0042809807,-0.07372709,0.15968826,0.07528792,-0.1302873,0.25144854,0.25539345,-0.14742827,-0.18175103,0.11545947,0.1885664,0.025644472,-0.0017642538,0.24459146,-0.16381931,-0.15030539,0.02007038,-0.090479285,0.09356514
conf_39,-0.00757478,0.017903876,-0.071686625,0.1642641,-0.31161332,-0.10523915,0.027499601,0.026371758,0.19860052,-0.16701269,0.12261629,0.19222063,-0.17111042,0.23960821,0.24676926,0.2307912,0.26390833,-0.3108795,0.14014629,-0.1408209,0.021864697,-0.16138177,0.22771107,-0.2385122,0.1345748,-0.15592347,-0.18088391,0.060067654,0.11045946,0.12574328,-0.1644517,0.136879,0.0010651259,0.17406937,0.19922152,-0.1474885,0.055228468,0.14108825,-0.035495993,0.044468507,-0.16701405,-0.02068894,-0.13447177,0.21199921,-0.052832436,0.15405221,0.07457704,-0.10157674,0.18045144,-0.3158607,0.25665346,-0.12736198,0.07931395,-0.017295823,0.22525573,-0.10802092,-0.25673723,0.055418935,-0.086551026,0.039215993,0.22229846,-0.040533345,-0.07945859,-0.20918092,0.06784144,0.1473515,-0.19608739,0.102869436,0.09925915,-0.005152703,-0.10932084,0.21668203,-0.1280661,0.16912013,-0.11278663,0.14023365,0.04384489,0.08087952,-0.09910194,0.18236582,0.23933525,0.11020201,0.11558228,-0.08961962,-0.2994062,-0.06313298,-0.21262819,-0.20108882,0.1932305,0.16162369,-0.22526276,0.10032609,0.06507683,-0.10706798,0.023263881,-0.18551089,-0.196186,-0.06580337,0.0822457,-0.09593628,0.11976644,-0.26905656,-0.27700916,-0.22486377,-0.062001552,0.2170762,0.32306668,-0.16188903,0.16430093,0.28612286,0.11140302,-0.035182506,0.37313333,0.17296714,-0.13392694,-0.13575898,-0.06442347,-0.020161206,0.1704516,0.1959805,-0.15404366,0.2265563,0.16591392,-0.23130026,-0.16209757,-0.25802693,-0.26282802,-0.12453207,0.13397613,-0.22170913,0.25471833,0.026960583,0.25572968,-0.083151415,-0.23661657,0.107982114,0.2763686,0.12787534,0.060105573,-0.09357357,0.021676837,-0.13838504,-0.14440125,0.0058752727,0.04251401,-0.20503707,-0.21188712,-0.09714041,-0.22054447,0.22910923,0.0015874319,0.1994971,0.030510804,-0.32117635,0.08137665,0.041315824,-0.18688823,-0.14022182,0.17390352,0.009610374,0.009726041,-0.12357117,-0.067785785,0.07986408,-0.12294665,0.36235616,0.033881247,-0.025354266,-0.0945893,-0.047173083,-0.037545063,-0.117553376,0.07302697,-0.16420001,-0.22095452,0.2873497,0.014654445,0.22405693,-0.23369369,-0.26742426,0.2650861,0.072074935,-0.0314462,0.17346811,-0.015572096,-0.115670815,-0.16253875,0.08862236,-0.18253462,0.09286591,-0.05850563,0.073615395,-0.056826647,-0.25516236,0.21037115,-0.1730551,-0.0032577305,0.18809931,-0.032548446,0.21119185
conf_40,-0.09323846,0.1537111,-0.14773397,0.0214756,-0.19959365,-0.1743087,0.26391664,0.15964638,-0.0077148667,-0.11146156,0.14610381,0.06289619,-0.19567549,0.002988604,0.030096255,0.209232,0.16623478,-0.19522761,0.23471232,-0.13176553,0.0016667976,-0.15439677,0.138705,-0.09016797,-0.10463536,0.08309494,-0.023329394,0.19995831,0.07883959,0.091094926,-0.08760469,-0.2103618,0.022301314,0.20187688,0.15830353,0.20422958,-0.09828672,0.16829991,0.011111578,-0.25099373,-0.2755035,-0.13212349,0.05521697,0.055063475,-0.12972811,0.14062192,0.028669283,-0.055803362,0.14982824,0.032701325,0.07872446,-0.2528886,-0.3462626,0.1555501,0.21372956,-0.09383664,-0.28814217,-0.010654507,-0.13425964,0.20495553,0.06337572,-0.13722503,-0.17574699,-0.24073371,0.08713067,0.18363215,-0.1944749,0.034109734,0.05732538,0.43160975,-0.07550291,-0.04708335,0.08236966,0.13658743,-0.17354633,0.013300892,0.14454149,0.16680294,-0.14220804,0.08466641,0.08417145,0.058522657,0.067469716,-0.17133808,-0.08198458,0.0907493,-0.12621681,0.12946527,-0.011986764,0.016580908,-0.13129997,-0.0008086539,0.08175802,-0.08824911,-0.12818582,-0.017412828,0.12452252,-0.18113478,0.07212094,-0.18190464,0.20072302,0.14357702,-0.06552301,-0.13397059,-0.20042418,0.1681507,0.12188038,0.059955653,-0.13245869,-0.029942116,0.083558984,-0.08190087,0.14649878,0.05257336,-0.17945029,-0.109025724,0.14404954,-0.10506314,0.07359503,0.08292674,0.15298513,-0.11076356,-0.049087968,-0.16978665,-0.12790094,0.08951842,-0.16690855,-0.08590341,0.17797299,-0.24822979,0.1949348,0.2631531,-0.18662786,0.12835386,0.18164554,0.21093394,-0.079881124,-0.04168958,0.09607642,0.0554058,0.13693696,-0.09811775,-0.24437314,-0.029913632,0.09721351,-0.17033723,-0.032588158,-0.0059866486,-0.23968701,0.18818656,-0.059059463,-0.015430842,0.13277408,0.0028197225,0.09025767,0.049521163,0.10306275,-0.23775148,0.15435177,-0.08806844,0.34433964,-0.09453915,-0.12770487,0.12744704,-0.05738343,-0.17990293,0.1917257,-0.15104763,-0.056699082,-0.22787955,0.07036737,-0.16051565,0.26243302,-0.21099705,-0.237654,0.23919883,-0.04217581,0.05428057,-0.24410476,-0.13856931,0.02857889,-0.108843006,-0.27458754,0.117827065,0.17309493,-0.08960904,0.3221842,0.09452096,-0.18860587,-0.15267149,-0.0063947365,0.19878772,-0.114105105,-0.06484801,0.215094,-0.1687531,-0.16597572,0.13759707,-0.07198377,0.16574053
conf_41,0.013814365,0.102059685,0.016317729,-0.011265265,0.030976307,-0.09587939,0.24188775,0.063205026,0.09145425,-0.20945838,0.08963913,0.028515182,-0.058462862,-0.14856732,-0.08812778,0.18071225,0.17263348,0.08682499,0.2359469,-0.17826714,-0.10689573,-0.09840103,0.18453567,-0.07149401,-0.21998283,0.07005161,-0.12807964,0.07003168,0.19887014,0.15822119,-0.18567014,-0.13881278,0.14769478,0.126349,0.083912596,-0.15575153,-0.09630758,0.1446767,0.18071131,-0.21514297,-0.0067908484,-0.13652109,-0.17120336,0.05155368,-0.09690805,0.04134787,-0.048273012,-0.07244904,0.23764718,0.15789062,0.12470873,-0.057935793,-0.032627303,-0.17953463,0.11635028,-0.13688281,-0.1547055,-0.073478036,-0.019494979,0.04568415,0.22696914,-0.06834621,-0.21168657,-0.17225002,0.07604902,0.02319286,-0.20232785,0.1922638,0.15668218,0.117177285,-0.11219273,-0.07712482,-0.042389695,0.07512258,-0.18177547,0.2273311,0.011141886,0.06871981,0.086687036,0.2000997,0.30245122,0.0023782398,0.21303506,-0.08227741,-0.22530401,0.19309685,-0.17738578,0.009925891,-0.16782537,0.123917535,-0.11020219,0.18074754,0.07049844,-0.25875318,0.34852472,-0.1553302,0.033013247,-0.16437484,0.15086217,-0.12052894,0.20306778,0.067893706,-0.18959475,-0.118948124,-0.1683727,0.10647971,0.15784125,-0.15813445,-0.00878491,0.14131023,0.1349082,-0.14956194,-0.00014698948,0.2122572,-0.11099084,-0.12237755,0.106397286,-0.2812865,0.2651879,0.06997018,0.25198156,0.02797301,0.44845226,-0.17387663,-0.053628627,-0.18509337,0.1511856,-0.16385473,0.073746026,-0.17041002,0.030815331,0.18076023,-0.064762376,0.053194396,0.15533103,-0.065518975,0.11690739,0.15052181,0.119662076,-0.15259042,0.13343643,-0.08600582,-0.12760647,-0.1637613,0.12570138,-0.25442612,-0.111529276,0.15490621,-0.2242136,0.14038853,-0.07813792,-0.06693648,0.016636599,-0.13895832,0.13715835,-0.053691283,-0.1334238,-0.1073491,0.15712065,-0.04181158,-0.040950205,-0.16685738,-0.09802224,0.17804591,-0.036811195,-0.0043852106,0.15226616,-0.09457619,-0.16682588,-0.19080348,-0.2694245,-0.13137488,0.0003813524,-0.054248452,-0.0903691,-0.022154063,0.04985233,0.13030472,-0.16547443,-0.040386777,0.117345706,-0.00027754938,-0.16529015,0.15768725,0.066429995,-0.1455933,-0.16205628,0.16124758,-0.2332059,0.19330011,-0.18336785,-0.017440878,-0.033138644,-0.13790524,0.14462747,-0.0916142,-0.14651915,0.0030707016,-0.11574753,0.117352575
