conf,c_0,c_1,c_2,c_3,c_4,c_5,c_6,c_7,c_8,c_9,c_10,c_11,c_12,c_13,c_14,c_15,c_16,c_17,c_18,c_19,c_20,c_21,c_22,c_23,c_24,c_25,c_26,c_27,c_28,c_29,c_30,c_31,c_32,c_33,c_34,c_35,c_36,c_37,c_38,c_39,c_40,c_41,c_42,c_43,c_44,c_45,c_46,c_47,c_48,c_49,c_50,c_51,c_52,c_53,c_54,c_55,c_56,c_57,c_58,c_59,c_60,c_61,c_62,c_63,c_64,c_65,c_66,c_67,c_68,c_69,c_70,c_71,c_72,c_73,c_74,c_75,c_76,c_77,c_78,c_79,c_80,c_81,c_82,c_83,c_84,c_85,c_86,c_87,c_88,c_89,c_90,c_91,c_92,c_93,c_94,c_95,c_96,c_97,c_98,c_99
conf_0,-0.0799985,-0.17717353,0.050487585,0.24748436,0.16939667,0.107449904,0.18861534,0.15764907,-0.1686488,-0.10521817,0.13201709,0.30515724,-0.17489836,0.21839646,-0.07517003,0.08912413,0.00018800236,0.1465257,-0.07352798,0.10372849,-0.015963664,-0.03553372,-0.035699982,-0.17974126,0.20406933,0.06334819,-0.13352114,-0.10433647,-0.13357748,0.020775624,0.051576044,-0.11738096,0.2961746,0.15148434,-0.02387159,-0.103714935,-0.10971568,-0.086728334,-0.14970091,0.13940305,-0.09183731,-0.13059825,-0.1755602,-0.06480649,-0.13792141,-0.25258848,-0.17171608,0.083876155,0.2247595,0.12968923,0.1991884,0.050102256,-0.12969042,-0.12216933,-0.1467224,0.07297887,0.13495539,0.100231096,-0.05132802,0.1993137,-0.12573327,-0.08523255,-0.045099933,-0.0374585,0.12993388,-0.25615382,0.18908253,0.13053754,0.056569204,0.08401775,-0.13721743,0.15805951,-0.11584666,-0.2960907,0.1750166,-0.18078296,-0.21811794,0.14946139,0.17251498,0.09000231,0.13017151,-0.012161233,0.024504228,0.22555658,0.072372794,0.16979803,-0.09833185,-0.08704535,0.07287942,-0.17882112,0.10132989,-0.1944529,-0.10514362,0.041061383,0.07915704,-0.15587136,-0.014560631,0.18067887,-0.16745004,0.044680536
conf_1,-0.08834705,-0.22808996,0.11436939,0.024726903,0.0036221032,0.11562538,0.15815431,0.1365364,-0.16398448,-0.17841698,0.1385479,0.19375157,-0.19285639,0.18705231,-0.24254356,0.21520242,0.024095012,-0.044214934,-0.21787158,0.0630171,0.09860818,-0.19638427,0.21885863,-0.18249804,0.23083657,0.22575001,-0.14953627,-0.23819241,-0.118965454,0.039421022,0.14864628,-0.17103459,-0.08641856,0.19214796,-0.12417796,-0.15345488,-0.114940986,-0.19659466,-0.17861804,0.15827769,-0.13068713,-0.20163032,-0.055405658,0.068423696,-0.21004012,-0.19503355,-0.20490791,0.18591984,0.32312012,0.23375347,0.17821075,0.13065392,-0.0800156,-0.20148648,-0.1567802,0.19804467,0.24407636,0.26238135,-0.124634586,0.20355581,-0.070919774,-0.2764774,-0.027736727,-0.15164998,0.20903516,-0.008186715,0.15449326,0.19587293,0.0032454187,0.11039917,-0.122425884,-0.26042658,-0.13794468,-0.11323056,0.2048463,0.00519174,-0.16928288,0.1269931,0.14023194,0.14366253,0.0591764,-0.08650359,-0.15183802,0.20483835,0.104312025,0.18915144,-0.15196227,-0.06156108,-0.12907048,-0.17162983,0.10425569,-0.13874674,-0.19615597,0.18739225,0.052896123,-0.22056453,-0.11379792,-0.008749202,-0.097895116,0.007664364
conf_2,-0.21256293,-0.11972531,0.18576714,0.05010631,0.15587111,0.03354668,0.20186159,0.17250818,-0.19285981,-0.10472726,0.033829022,0.23441021,-0.12139358,0.20833401,-0.1835797,0.19284873,0.006631707,0.084359676,-0.15436909,-0.007887415,-0.17466635,-0.08866235,0.0859325,-0.14117926,0.12923796,0.089057654,-0.095789604,-0.118615925,-0.1602205,0.15350913,0.09339902,-0.113965675,0.26936027,0.13083924,-0.14578497,-0.20487307,-0.18519047,-0.0775173,-0.16466762,0.16180794,-0.18161982,-0.20482518,-0.18465875,-0.13813457,-0.16500005,-0.07771656,-0.23158118,0.09382699,0.23497243,0.1897654,0.22469746,0.16286832,-0.024682513,-0.21721882,-0.16584465,0.17131303,0.20247194,0.16108608,-0.117214285,0.05298535,-0.18022162,-0.17499024,-0.09749025,-0.09819747,0.21299002,-0.13428046,0.25252348,0.1324279,-0.03383292,0.17685214,-0.10121352,0.030428942,-0.13199228,-0.1500833,0.16441172,-0.20366667,-0.22051816,0.19801407,0.14210476,0.18898407,0.091087006,-0.15021092,-0.069202475,0.14471635,0.104967035,0.18162166,-0.1656443,-0.18722974,-0.09592724,-0.14843887,0.12313758,-0.107232675,-0.1528139,0.10237549,0.024486063,-0.1362456,-0.19163214,0.21149886,-0.15356122,-0.15977447
conf_3,-0.17673656,-0.12005337,0.091508895,-0.01489069,0.09284234,0.15166883,0.16483983,0.1183019,-0.068742536,-0.03513051,0.03892623,0.18995343,-0.13857798,0.122437224,-0.1503324,0.22700837,0.04514724,-0.22949643,-0.19987333,-0.009083381,0.10392462,-0.19289908,0.11773704,-0.09884944,0.255422,0.13784173,-0.1570409,-0.08679325,-0.12048938,0.07700807,-0.05002439,-0.21754253,-0.053706,0.1988088,-0.18447255,-0.12934285,-0.07657478,-0.15075026,-0.08729628,0.1586114,-0.07712387,-0.13123007,-0.07764984,-0.01828842,-0.20382617,-0.2022932,0.011162649,0.12589294,0.30870345,0.13352993,0.12261731,0.22214197,-0.055511832,-0.11586317,-0.08946896,0.11943275,0.19629695,0.15780558,-0.055241335,0.16037837,-0.22327183,-0.11279804,0.00978909,-0.23794381,0.22057468,-0.1795395,0.20846921,0.16976485,-0.15925334,0.08169981,-0.17604008,-0.29011038,-0.020332903,-0.19795777,0.10703878,0.21247004,-0.26893598,0.18416776,0.2353731,0.22606789,0.18643452,0.061770603,-0.1090999,0.14078672,0.05997305,0.12564155,-0.0406414,0.02101431,-0.07621974,-0.09086438,0.11472804,-0.25061852,-0.24773172,0.264869,-0.014109226,-0.10393668,-0.085883744,0.11966351,-0.114219576,-0.04053755
conf_4,-0.16086325,-0.14548804,0.08886401,0.042185266,0.12620682,0.14802831,0.13427758,0.17133379,-0.16285746,-0.008439075,0.09163264,0.23931625,-0.11735994,0.24294822,-0.13653657,0.16283208,-0.12812169,0.083868,-0.18255849,0.10637693,-0.10016676,-0.09759712,0.23833807,-0.18205452,0.1983394,0.16879202,-0.22708833,-0.23455401,-0.23704645,-0.020482248,0.12310265,-0.09125431,0.17109266,0.050573237,-0.1149853,-0.22077934,-0.15797162,-0.21160498,-0.20572095,-0.09173354,-0.20241679,-0.20088774,-0.23370272,-0.097961634,-0.22216253,-0.19666395,-0.19804028,0.104745656,0.25545284,0.1522711,0.18016146,0.12536778,-0.06642788,-0.1295469,-0.15915453,0.12739095,0.24357453,0.1263236,-0.16941388,0.1304449,-0.18478785,-0.1461344,-0.11967286,-0.167008,0.17818944,-0.13333401,0.19254892,0.10423411,-0.0058430866,0.20221172,-0.1825078,-0.11213623,-0.12119189,-0.10153347,0.19490519,-0.17629178,-0.18525779,0.13363668,0.1476471,0.15630214,0.10563187,-0.08832454,-0.14789458,0.21378064,0.11537694,0.27023283,-0.1523131,-0.1690856,-0.16047387,-0.2280689,0.096621044,-0.16391811,-0.13752234,0.23978704,0.0058212876,-0.13751274,-0.20821473,0.16721052,-0.14561754,-0.056161966
conf_5,-0.064986914,0.03328673,-0.026812026,0.07619096,0.17639194,0.0690824,0.26026335,0.14738259,-0.16734785,-0.1043025,0.09573043,0.10345684,-0.10878593,0.072238974,-0.1879114,0.11384137,0.003637398,-0.22282949,-0.22714745,0.025490638,0.18921718,-0.23519588,0.21254355,-0.12946084,0.13751267,0.075109065,-0.18901302,-0.1014941,-0.106993645,-0.09149565,-0.017250609,-0.15080969,-0.24300395,0.2493015,-0.12976798,-0.17616948,-0.06696054,-0.0797124,-0.17753206,0.07964277,-0.06832737,-0.20039204,-0.086008295,0.063578635,-0.08215115,-0.116032965,-0.07191365,0.08635964,0.24205601,0.05839419,0.13108788,0.20500377,-0.035953715,-0.10549248,-0.13856934,0.11478133,0.23879088,0.12589303,0.031108625,0.13237645,-0.19377202,-0.18717846,-0.13484608,-0.110419996,0.1579445,-0.1390936,0.07240659,0.12658575,0.08724556,0.07653048,-0.11131939,-0.3235231,0.10450987,-0.153824,0.15885563,0.111491375,-0.12928452,0.12674633,0.23762566,0.1268028,0.06381791,-0.028478451,-0.19026008,0.09216772,-0.0013683174,0.09587802,-0.086293645,-0.22500037,-0.059011728,-0.105851635,0.06456535,-0.2653044,-0.17152187,0.12851232,0.07623148,-0.10599801,-0.030333811,0.003761779,-0.04337032,0.090032764
conf_6,-0.1886723,-0.19690044,0.1896786,-0.018771723,0.12837245,0.0849323,0.19708872,0.18415935,-0.20672855,-0.13997652,0.15821725,0.21784121,-0.15883419,0.20766456,-0.23252511,0.19670352,-0.12315862,0.1450691,-0.17311274,0.024146132,-0.16752805,-0.1943316,0.076984376,-0.21847886,0.22195275,0.087875344,-0.21794641,-0.18780182,-0.20450301,0.16079195,0.005133549,-0.16452307,0.044814393,0.16884331,-0.101673,-0.259554,-0.18655728,-0.1374903,-0.22940986,0.20289683,-0.23513198,-0.13477811,-0.16891389,-0.17624138,-0.2009803,-0.13316892,-0.28439054,0.102006935,0.10711339,0.14401844,0.13076052,0.059700746,0.048077922,-0.17832498,-0.14216834,0.24975745,0.19274752,0.17718104,-0.12058918,0.062458966,-0.12973839,-0.089707516,-0.043127403,-0.11950928,0.19365008,-0.048831914,0.2208962,0.10646176,-0.12556295,0.17135893,-0.20406982,0.14190288,-0.22081944,-0.19293982,0.15277864,-0.23171215,-0.17856866,0.13743816,0.127836,0.12443653,0.11685763,0.040325645,-0.18886022,0.16720738,0.22931693,0.19705977,-0.12734064,-0.19969319,-0.18808542,-0.2692958,0.081641614,-0.23083597,-0.17965466,0.082349904,0.16108395,-0.20047234,-0.22257024,0.093615495,-0.2560611,-0.014568832
conf_7,-0.12428078,-0.07384844,0.029482206,0.1500533,0.019682368,0.09884334,0.24038242,0.15039186,-0.12283126,0.020308059,0.07455378,0.13011883,-0.10534825,0.12846833,-0.17162734,0.17295171,-0.02065014,-0.012676568,-0.17082046,-0.037443046,0.109554134,-0.08431799,0.1142645,-0.151757,0.16726238,0.16465458,-0.1931717,-0.15801199,-0.1322981,0.030482387,0.09999952,-0.09104345,-0.14184335,0.19368199,0.04630045,-0.10203875,-0.042845152,-0.101393886,-0.2362002,0.21376185,-0.08183113,-0.17043339,-0.16873604,-0.15105052,-0.19649835,-0.1510912,-0.15784322,0.06699229,0.23569244,0.13334504,0.12039093,0.093403876,-0.1625486,-0.11714404,-0.16408524,0.14694107,0.1880153,0.07309127,-0.1602279,0.18341945,-0.06502262,-0.17750077,-0.07614692,-0.19867867,0.10071722,-0.2315056,0.19847764,0.16053359,-0.018062824,0.18235481,-0.17663732,0.17943263,-0.259172,-0.19312577,0.20308742,-0.12348499,-0.0960919,0.2021166,0.1337392,0.16917735,0.20000203,-0.026662815,-0.11431864,0.20788851,0.09496086,0.12133446,-0.035854023,-0.14006205,-0.088355295,-0.13369143,0.18815526,-0.23834574,-0.14879191,0.052055698,0.041263375,-0.17978695,-0.15513124,0.09062814,-0.14512222,-0.003513383
conf_8,-0.21889442,-0.09764274,0.09888797,0.03981724,0.25688896,0.1924627,0.108991615,0.16131516,-0.154112,-0.08755672,0.07116106,0.19775568,-0.1959912,0.1408608,-0.15661596,0.11114622,-0.15240726,0.0787206,-0.17502663,-0.06829474,-0.08510362,-0.16473593,0.23890424,-0.16748536,0.16117516,0.11564471,-0.19368598,-0.14761747,-0.16348839,0.07602433,-0.02443738,-0.04807693,0.08803297,0.20802726,0.0599439,-0.11092519,-0.16914816,-0.13563049,-0.15872316,0.13180003,-0.07445032,-0.2135742,-0.20343575,-0.070805386,-0.15264729,-0.14498739,-0.07430087,0.22687508,0.2316738,0.15401149,0.21883708,0.14063622,-0.07337842,-0.21574758,-0.16897981,0.18708374,0.14802106,0.08046662,-0.03278931,0.08416912,-0.21811369,-0.20354162,-0.110274374,-0.083916955,0.1897411,-0.15204878,0.15223327,0.18940967,0.04817923,0.22814415,-0.14158952,0.06965173,-0.07324718,-0.17648743,0.072287306,-0.1727872,-0.17316872,0.14857538,0.17800377,0.1974545,0.09212465,-0.061692037,-0.104321964,0.12211437,0.062406853,0.22331272,-0.11211514,-0.12321066,-0.065806784,-0.2218093,0.07363508,-0.23308401,-0.065978914,0.13268563,0.14369835,-0.16575009,-0.108291194,0.16776422,-0.18645814,-0.1694766
conf_9,-0.024286063,-0.19556898,0.17790018,-0.0054413155,0.09188194,0.069730856,0.068939544,0.10894098,-0.15669633,-0.06998232,0.18864064,0.13765144,-0.14633177,0.14845598,-0.14846665,0.1403135,-0.042906523,0.049153827,-0.119230196,-0.033469256,0.038863182,-0.267921,0.21046796,-0.13024993,0.19923298,0.14682315,-0.105257854,-0.09027479,-0.1511364,0.020310853,0.030017566,-0.1391237,0.07052863,0.25524536,-0.2265175,-0.1772453,-0.08524045,-0.10072616,-0.14385352,0.16281787,-0.044520248,-0.17460859,-0.08590503,-0.055929605,-0.16912599,-0.22397467,-0.17841971,0.06895056,0.27357826,0.17734432,0.2376903,0.08065782,-0.2831584,-0.1725701,-0.093270786,0.102773406,0.14780234,0.13409169,-0.023570146,0.17522578,-0.092701845,-0.26419798,-0.10203792,-0.08185583,0.15922669,-0.16313663,0.262971,0.20814781,-0.047220655,0.12318845,-0.20128404,-0.29517126,-0.06056551,-0.04409351,0.15256976,0.13105728,-0.18839522,0.105400905,0.18680902,0.08872437,0.18171695,0.011212488,-0.22908968,0.12773043,0.15080558,0.18638957,-0.05487321,-0.13840653,-0.08410749,-0.20497906,0.072760284,-0.17568007,-0.11609866,0.14530079,0.065257646,-0.106588446,-0.19123533,-0.010945888,-0.16429844,-0.14890212
conf_10,-0.12723091,-0.11159398,0.1557999,0.09509601,0.10307512,0.045191802,0.20185025,0.19652782,-0.24109115,0.05764473,0.068379074,0.25146016,-0.2029209,0.12868969,-0.13793945,0.1324888,-0.121182114,0.10126335,-0.11789864,0.089441255,-0.09167712,-0.1229403,0.083671354,-0.144104,0.11535139,0.19267224,-0.17398089,-0.24964714,-0.1574163,0.1014383,0.030364495,-0.19223636,0.037243295,0.1586462,-0.012674686,-0.16099365,-0.21378398,-0.13605013,-0.20061666,0.18820636,-0.071703166,-0.13680743,-0.2311822,-0.14446555,-0.16462676,-0.22179897,-0.11552103,0.09273935,0.15325421,0.17872117,0.18876404,0.026477378,-0.065986745,-0.20813341,-0.070906356,0.20368525,0.2459524,0.13219537,-0.13614003,0.07189987,-0.12121527,-0.20489402,-0.15848404,-0.16603112,0.18984665,-0.2124638,0.14537895,0.09111746,-0.20383634,0.21349445,-0.11092508,0.085841775,-0.13798076,-0.20667216,0.15266044,-0.123758756,-0.18373384,0.1508343,0.17917937,0.2366454,0.17991248,0.061986346,-0.0399128,0.1274082,0.11210977,0.17104578,-0.1105936,-0.15329392,-0.19173872,-0.18579276,0.05792503,-0.25747272,-0.18632604,0.08108533,0.11544845,-0.18908972,-0.20228374,0.09390494,-0.13061482,-0.25780165
conf_11,-0.036037106,-0.10868518,0.0032935147,0.007199639,0.17179959,0.06778459,0.10839411,0.16210862,-0.14066303,-0.04259583,0.053275842,0.15460078,-0.09353153,0.070641294,-0.24124038,0.23949857,0.0021160112,0.11079108,-0.11630841,-0.116170935,-0.00700998,-0.09811729,0.20733435,-0.09786256,0.14924864,0.04607851,-0.13853021,-0.1593844,-0.15792747,0.04222407,0.10771255,-0.16605566,-0.12303784,0.26331112,-0.17398036,-0.08686759,-0.14559996,-0.17216867,-0.15055837,0.20638466,-0.08135507,-0.13904653,-0.07828482,-0.1537362,-0.13374044,-0.09760938,-0.09536471,0.07461606,0.28524977,0.11440806,0.08706115,0.18228465,0.0667291,-0.0817127,-0.15406905,0.0744988,0.24396212,0.12759498,-0.10664684,0.06912913,-0.19262487,-0.11291608,-0.16407709,-0.09727953,0.1469316,-0.12007628,0.17572618,0.12932196,-0.023961136,0.12902871,-0.12830576,-0.269209,0.10486292,-0.14883159,0.1301131,0.032041043,-0.15320852,-0.019860666,0.1880968,0.06678879,0.06946232,-0.10761835,-0.121365085,0.11690075,0.14121008,0.16566537,-0.09416478,-0.14311913,0.02109322,-0.17428651,0.11667977,-0.19606069,-0.18214254,0.1149104,0.07015011,-0.13632272,-0.16347505,0.087736726,-0.10662454,0.011686327
conf_12,-0.18207857,-0.10193623,0.13436696,0.23675802,0.2000064,0.085625134,0.13391486,0.0948537,-0.17318545,-0.042545777,0.12145196,0.12411654,-0.23549147,0.16257516,-0.15278222,0.13835119,-0.21059239,0.05573018,-0.12947747,0.16662733,-0.15674508,-0.12411748,0.080168754,-0.14409432,0.16851997,0.12508823,-0.12724659,-0.10735089,-0.15781182,0.016709993,0.12709977,-0.1555541,0.1291196,0.1387688,-0.13010515,-0.23952655,-0.15271164,-0.19600298,-0.2675565,0.14898539,-0.1968622,-0.2296174,-0.25801718,-0.13497892,-0.26283228,-0.19200191,-0.20736106,0.067788795,0.27206898,0.170288,0.22712986,0.14997345,-0.0020916087,-0.23773143,-0.24164231,0.21573941,0.22843233,0.085842356,-0.19648229,0.20741086,-0.15625562,-0.15305954,-0.17804568,-0.19668962,0.15876503,-0.1438056,0.23460588,0.16461979,-0.031773258,0.2111269,-0.13670605,0.055933733,-0.09387583,-0.20073235,0.24118684,-0.16175978,-0.229114,0.11157572,0.10105282,0.14930005,0.14198302,-0.17066294,-0.10176705,0.21148624,0.13105464,0.19379382,-0.121446595,-0.14261866,-0.086843364,-0.18847016,0.15638427,-0.04246302,-0.21588022,0.092711695,0.11685893,-0.18261094,-0.18984513,0.27042496,-0.1647694,-0.18539765
conf_13,-0.103294805,-0.12681751,0.07251927,0.029570417,0.09253802,0.03328063,0.22721092,0.1675918,-0.14629535,-0.102741905,0.13997644,0.12237378,-0.19859758,0.19025262,-0.21341263,0.12507464,-0.016753407,-0.07438009,-0.13409005,0.10006569,-0.009222244,-0.19447519,0.025903149,-0.05716209,0.08444108,0.12230928,-0.12473185,-0.21197827,-0.18352716,0.13914531,0.0873992,-0.09237588,0.04204641,0.07582245,-0.14627935,-0.17168708,-0.09966906,-0.09570669,-0.13421828,0.14714003,-0.1193066,-0.101059645,-0.15820028,-0.13496226,-0.079325244,-0.14118801,-0.11184453,0.07197351,0.114288986,0.12654828,0.12310361,0.09394469,-0.1132504,-0.18127486,-0.17847358,0.17700194,0.16541484,0.08734706,-0.058138855,0.16024892,-0.16938883,-0.22215575,-0.061151847,-0.10288827,0.1646072,-0.005535976,0.15931353,0.1354017,-0.038891256,0.0738035,-0.05372447,-0.11660296,-0.06676599,-0.22577171,0.18014692,-0.19434132,-0.23798779,0.0897535,0.09559712,0.12878221,0.032346226,0.016698383,-0.19762185,0.1528282,0.10971485,0.18487313,-0.10761419,-0.12152433,-0.02186519,-0.15959023,0.17365813,-0.14395465,-0.120954156,0.10752025,0.22621608,-0.17644864,-0.22152776,0.19237767,-0.15185747,-0.005253765
conf_14,-0.25451964,-0.1912915,0.09445895,0.07951111,0.098769434,0.034502458,0.12238212,0.14640726,-0.17326853,-0.049090136,0.06490554,0.25289157,-0.15485369,0.16878793,-0.21243109,0.11712194,-0.07819615,0.16043764,-0.15307587,0.041171864,-0.01498764,-0.19202527,0.2535165,-0.19853996,0.1072293,0.15783606,-0.2582571,-0.1285158,-0.10689432,0.036928497,0.02440852,-0.20605676,0.13687724,0.034411203,-0.17177294,-0.20726952,-0.1993809,-0.18539482,-0.123623155,0.08704995,-0.07969543,-0.23711833,-0.22379427,-0.14281403,-0.18425263,-0.17195572,-0.17077324,0.12178118,0.18584852,0.1174458,0.29187977,0.14760795,-0.09891315,-0.19145763,-0.18717985,0.16615178,0.21886192,0.13717864,-0.20977388,0.08350539,-0.19162256,-0.25097045,-0.056900747,-0.15691932,0.22395901,-0.18573347,0.12936278,0.14847463,-0.017767088,0.2253596,-0.20597142,-0.1329035,-0.094031036,-0.1085094,0.23224933,-0.12568823,-0.14717922,0.13741295,0.16992426,0.14639546,0.18269332,-0.07919721,-0.17034784,0.22094133,0.11535513,0.096104406,-0.14394929,-0.18850115,-0.20382005,-0.16139835,0.11501628,-0.11413548,-0.17701608,0.035880804,0.14180069,-0.20574553,-0.18629235,0.05052217,-0.13715528,-0.16341543
conf_15,-0.08073479,-0.17903374,-0.013850432,-0.04832667,0.17181252,0.04642141,0.06373359,0.12204474,-0.17583162,-0.15905772,0.06778873,0.14153014,-0.09039315,0.09423186,-0.14691666,0.14361022,0.08236427,-0.17719881,-0.19666126,-0.011594645,0.085317194,-0.12650596,0.16537103,-0.047639836,0.13674174,0.08844302,-0.16773267,-0.17620344,-0.09328008,0.075097926,0.10721934,-0.16665307,0.03144236,0.14411855,-0.1887066,-0.13780423,-0.10308052,-0.08895604,-0.1578976,0.1713187,-0.013299837,-0.20738415,-0.15170193,-0.082588434,-0.10156347,-0.13638622,-0.14742449,0.14419042,0.21830156,0.09882132,0.15934515,0.12003292,-0.051923826,-0.08051843,-0.12716155,0.058612317,0.16334823,0.14820145,0.01031894,0.13460657,-0.15117256,-0.15911736,0.02911579,-0.16027486,0.20934513,-0.22646725,0.16319676,0.14759393,0.016013702,0.02805576,-0.14762299,-0.163773,-0.11044884,-0.16307355,0.20313844,0.015194072,-0.13818462,0.122243665,0.14376965,0.15301853,0.053473093,-0.045819998,-0.08403577,0.15120356,0.08242311,0.10239188,-0.10787301,-0.08621027,-0.0038014965,-0.08504492,0.1257519,-0.14769696,-0.17635046,0.014142811,0.09797049,-0.17444664,-0.1270912,0.069806844,-0.11033896,-0.12876807
conf_16,-0.09895107,-0.11368359,0.014609766,0.05063472,0.12631485,0.07134881,0.16659679,0.15031043,-0.19615403,-0.03184134,0.0776457,0.107166976,-0.15250105,0.1447436,-0.25952557,0.15318595,-0.086138375,0.06300999,-0.1816927,0.04018924,0.07685806,-0.08532064,0.2014725,-0.099287204,0.17557412,0.06214444,-0.12656137,-0.18741854,-0.12634222,0.048373904,0.0409281,-0.10833293,0.05690718,0.16882487,-0.11769364,-0.08260455,-0.16688265,-0.1904533,-0.13034295,0.020585535,-0.06979732,-0.20027338,-0.22186601,-0.14636761,-0.10832964,-0.22390413,-0.19248877,0.030736998,0.16759734,0.108208925,0.10616835,0.17222446,0.062231477,-0.22741681,-0.13658103,0.11922448,0.13924247,0.021479644,-0.06204022,0.1334062,-0.1490981,-0.11496842,-0.123034075,-0.22487442,0.13639338,-0.14833798,0.19373383,0.036470525,-0.006405731,0.15071072,-0.12502702,-0.00684327,0.049873587,-0.20541577,0.16045816,-0.1483224,-0.16122964,0.108734354,0.13348278,0.14578064,0.17450917,-0.05211324,-0.1121679,0.18929222,0.051080387,0.0877943,-0.04749945,-0.04539449,-0.044422314,-0.24890663,0.14459978,-0.117213495,-0.18106845,0.080660835,0.16875242,-0.123543896,-0.10631803,0.18526094,-0.20715497,-0.1449742
conf_17,-0.1291044,-0.08013296,0.057194836,-0.0055007236,0.2660988,0.16277725,0.076496206,0.12041173,-0.07962698,-0.01472241,0.019407446,0.13632269,-0.1194612,0.12020309,-0.17745556,0.109698616,0.11005204,-0.05690686,-0.09109447,-0.09862275,-0.08540871,-0.059873898,0.030476095,-0.1664861,0.06139276,0.19900921,-0.17923617,-0.072238065,-0.08850613,0.052383788,0.0315144,-0.09175423,0.027872289,0.19156787,0.030757489,-0.16300823,-0.08639669,-0.14663032,-0.11122717,0.13120706,0.004859577,-0.1998503,-0.17708062,-0.03273065,-0.03641358,-0.19276406,-0.19468263,0.13304114,0.19190918,0.15899946,0.1604204,0.02975618,-0.1281662,-0.15937932,-0.16590206,0.06945027,0.21969154,0.19163609,-0.06497562,0.21684706,-0.12227954,-0.121295385,-0.086380735,-0.16533943,0.11901643,-0.22151607,0.1304991,0.09029057,-0.04928094,0.06684626,-0.13984002,-0.1712664,-0.12924202,-0.17536247,0.24134511,-0.11302204,-0.18535343,0.14080912,0.16887406,0.14364792,0.07750774,-0.04382494,-0.089707285,0.11746557,0.16528192,0.105280206,-0.09320854,-0.0903871,-0.044150863,-0.062125966,0.03221438,-0.21513063,-0.11744049,0.053987246,0.073417574,-0.13842255,-0.103670426,0.11589337,-0.21240185,-0.20245941
conf_18,-0.22006777,-0.1866773,0.182863,0.2093299,0.10599758,0.11210242,0.16928081,0.18125413,-0.19246045,-0.20253664,0.2107467,0.22083145,-0.21882056,0.120221056,-0.16885263,0.27965236,-0.07870273,0.07344388,-0.1329058,0.053147357,-0.027336854,-0.10446655,0.09684773,-0.15984929,0.1358735,0.06655977,-0.15976445,-0.11428106,-0.2354086,0.11438726,0.14409055,-0.15881848,0.11975129,0.20242856,-0.035381526,-0.1468196,-0.17928067,-0.0816968,-0.16999242,0.15420422,-0.12614374,-0.25146887,-0.15827079,-0.1280877,-0.23889233,-0.13850226,-0.17527892,0.15537389,0.1209188,0.14955813,0.17381701,0.12862568,0.10029236,-0.14023599,-0.20952106,0.13069631,0.1827366,0.14706907,-0.09429473,0.10315041,-0.2538697,-0.058518346,-0.12855598,-0.18702906,0.23088557,-0.12929453,0.14787483,0.18019141,0.007202846,0.19794777,-0.09941117,-0.050693005,-0.18140401,-0.08906472,0.13901545,-0.1850059,-0.23463319,0.15847683,0.07615276,0.21325636,0.19772002,-0.13063501,-0.08956892,0.17040819,0.1840378,0.10368318,-0.18673134,-0.26167125,-0.14296938,-0.18904074,0.1275853,-0.13318656,-0.15306579,0.11995867,0.04337597,-0.1463545,-0.09723934,0.21939076,-0.16526708,-0.19393077
conf_19,-0.25211698,-0.20235384,0.2080307,-0.083797656,0.17027125,0.060161453,0.13598137,0.18965083,-0.20097612,-0.089469306,0.17806308,0.12839015,-0.2539265,0.24651076,-0.24824351,0.15352926,-0.17639658,0.10285105,-0.17150803,0.16132405,-0.1294716,-0.25936615,0.14847204,-0.17670701,0.185545,0.15318546,-0.26482132,-0.16512053,-0.22976685,0.1362895,0.04907355,-0.18282828,0.1700876,0.22224258,-0.15174715,-0.13214642,-0.107549585,-0.14833905,-0.13579422,0.09538863,-0.13615225,-0.19374526,-0.27293515,-0.123878196,-0.14127254,-0.26535085,-0.18888906,0.16708638,0.07050285,0.1827147,0.25034472,0.25889164,-0.03907017,-0.1863158,-0.16992578,0.11841662,0.2203264,0.13841663,-0.19625169,0.17054488,-0.16790505,-0.22881243,-0.093423374,-0.09040426,0.15799378,-0.0889763,0.22330743,0.15295547,-0.14382629,0.2652305,-0.19979505,-0.07694025,-0.09453062,-0.1419126,0.15221305,-0.2556199,-0.1945238,0.1395018,0.11087859,0.22129698,0.1832709,-0.05763597,-0.20860595,0.2457532,0.20982417,0.13046902,-0.12744886,-0.21908666,-0.10731726,-0.26531553,0.1513514,-0.18640974,-0.15791638,0.06272825,0.16762578,-0.2101427,-0.25769037,0.10538193,-0.2080136,-0.15792535
conf_20,-0.15972792,-0.21126594,0.12496932,0.012835996,0.18053515,0.15396495,0.19034442,0.12397628,-0.13228266,0.036789004,0.12256236,0.28460196,-0.12482756,0.12202384,-0.22940129,0.11386321,-0.047050923,0.09491162,-0.11869132,0.08510121,-0.04479766,-0.13541944,0.0876126,-0.13492513,0.13448203,0.19061819,-0.20738953,-0.13019481,-0.22040509,0.003272922,0.072293416,-0.124018766,0.12506048,0.114613876,-0.082513824,-0.26597223,-0.15824232,-0.18435985,-0.25316933,0.12121075,-0.14052306,-0.16144684,-0.18279485,-0.047388185,-0.08597279,-0.20647176,-0.27301025,0.14467554,0.0920777,0.11084306,0.15072927,0.1818227,-0.08416536,-0.17597345,-0.09395594,0.16289328,0.21991742,0.17093533,-0.13950236,0.1548229,-0.17655748,-0.15835552,-0.08886448,-0.13958338,0.16530757,-0.2043847,0.19948816,0.07748167,-0.05797075,0.12883584,-0.2136923,0.06464412,-0.2632647,-0.07372758,0.21706542,-0.20909405,-0.27703726,0.09108422,0.1251833,0.18274322,0.070434265,-0.1035368,-0.08990921,0.17010784,0.16536584,0.19556704,-0.15442224,-0.22909525,-0.17934532,-0.23108073,0.14438955,-0.14623411,-0.24116401,0.124831855,0.15926999,-0.18277337,-0.12958159,0.08680501,-0.1897956,-0.11003863
conf_21,-0.25658768,-0.16614375,0.07812809,-0.033399507,0.16919726,-0.03704672,0.1223265,0.16414429,-0.15393195,-0.13706776,0.16974218,0.14496624,-0.12324898,0.15331315,-0.18047085,0.15693443,-0.07831468,0.16819377,-0.119166754,-0.07243958,-0.018705422,-0.12010381,0.045190215,-0.110937715,0.16503133,0.11741395,-0.21914059,-0.20549649,-0.14977853,0.05811459,0.0062334836,-0.18125018,0.050725393,0.10276645,-0.23999082,-0.13379036,-0.2073704,-0.025372844,-0.15175128,0.09487013,-0.044752277,-0.10535575,-0.22561108,-0.11783454,-0.1406152,-0.1813209,-0.24644646,0.16408971,0.15665928,0.14548536,0.22467674,0.17288661,-0.0037660683,-0.12696005,-0.10734394,0.07328353,0.25299674,0.14703694,-0.06920691,0.08328189,-0.115060024,-0.18751828,-0.11707168,-0.026489526,0.13202329,-0.13603052,0.21774682,0.055368785,0.008576648,0.16774082,-0.120436914,0.052145675,-0.11652262,-0.17877032,0.17463855,-0.12093667,-0.16206588,0.12525141,0.11234415,0.16114901,0.085016,-0.06010198,-0.18449442,0.13393624,0.079558015,0.1018668,-0.12924907,-0.16000806,-0.032890324,-0.11969595,0.08638879,-0.08849102,-0.13247956,0.15931028,0.079568304,-0.15668884,-0.18929099,0.13993964,-0.12441848,-0.17186877
conf_22,-0.019415576,0.02090825,0.0071777753,0.02596439,0.25256056,0.0815728,0.17208636,0.030652892,-0.08761365,-0.10192011,0.15992637,0.19935508,-0.10461061,0.13233311,-0.20766534,0.19282626,-0.1495333,0.1231197,-0.108373314,0.06986954,0.06321036,-0.11870967,0.071867354,-0.13071111,0.17493558,-0.031310372,-0.16740604,-0.12775064,-0.07809497,0.04875559,0.10384843,-0.07423252,0.12969403,0.12438847,-0.116728276,-0.15837312,-0.21076462,-0.0056732106,-0.1262529,-0.10241502,-0.113861606,-0.16180761,-0.24068138,-0.06477195,-0.10622889,-0.14215185,-0.17932507,0.10943085,0.2601613,0.10052395,0.16756879,0.096514575,-0.2127486,-0.107165,-0.1565401,0.15402196,0.16662373,0.049373716,-0.043898612,0.2036989,-0.18506874,-0.15832713,-0.16252081,-0.10817822,0.2514014,-0.24387376,0.12101521,0.1616546,0.012855061,0.16963486,-0.0988684,0.08720205,-0.18402977,-0.2509672,0.15367289,-0.19883583,-0.15058742,0.13356927,0.22168048,0.06784533,0.13536395,-0.066966124,-0.08953189,0.15221038,0.09167848,0.20439813,-0.06741075,-0.090170324,-0.09083423,-0.18985128,0.15774186,-0.2501445,-0.14720851,0.05490827,0.12220557,-0.19357443,-0.109817535,0.088722,-0.15873645,-0.10161563
conf_23,-0.09467872,-0.09630956,0.11888447,-0.063627176,0.14374298,0.048151065,0.2514456,0.15232944,-0.10452186,-0.0015640055,0.108399235,0.08254969,-0.23581852,0.1638772,-0.16387904,0.18143536,-0.03834756,-0.06736868,-0.15505888,-0.009005852,0.030403249,-0.17676495,0.12626882,-0.15928395,0.18473782,0.08771619,-0.15775742,-0.08023376,-0.091686025,0.04587666,0.07620238,-0.15370762,-0.062656984,0.11254136,-0.07222415,-0.18777747,-0.1587572,-0.09855504,-0.17656986,0.1577049,-0.047656644,-0.16775857,-0.09002885,0.04042038,-0.11480462,-0.13841246,-0.19514358,0.17781577,0.18696034,0.172361,0.12775669,0.14911498,-0.028935594,-0.08543627,-0.12893498,0.10747344,0.15520047,0.17396897,-0.091367714,0.17456456,-0.096127585,-0.126899,-0.101549596,-0.1912349,0.2307122,-0.0883749,0.106914654,0.17515445,0.13207997,0.07189135,-0.17351474,-0.12974797,-0.11647777,-0.16396637,0.2311925,0.08377083,-0.1822318,0.16520445,0.104971625,0.17039543,0.11514342,-0.0006717285,-0.08140401,0.17480646,0.1070814,0.20117708,-0.13098711,-0.016633628,0.0008592145,-0.09774086,0.07491851,-0.12330232,-0.14960557,0.15830341,0.10479644,-0.16051863,-0.1311009,0.010573027,-0.21438044,-0.040393617
conf_24,-0.15984349,-0.04187796,0.06689348,0.19517447,0.04278061,0.0049290657,0.20555177,0.052082002,-0.17107888,-0.0692701,0.12495147,0.2430726,-0.07393544,0.10742378,-0.1436517,0.10457122,-0.1726886,0.1418014,-0.17111845,-0.0022487328,0.090875246,-0.17110543,-0.008416049,-0.13139027,0.18073294,0.22218987,-0.13807797,-0.14396782,-0.17612104,-0.015191148,0.0076388484,-0.12094764,0.109313406,0.16296537,0.018869169,-0.09560104,-0.035886046,-0.10428525,-0.13722934,0.106818765,-0.056818906,-0.10486495,-0.15217431,-0.20905074,-0.15776475,-0.18745655,-0.13036783,0.11493547,0.21168678,0.090348534,0.16631459,0.13134535,-0.108157314,-0.17219175,-0.19114749,0.17376165,0.21657886,0.15006325,-0.14855151,0.12163071,-0.12835677,-0.0739589,-0.18023115,-0.12560739,0.20701525,-0.22369365,0.16616338,0.10507889,-0.19034791,0.11801968,-0.15087222,0.03975498,-0.12314176,-0.21105853,0.16125228,-0.14630778,-0.22105423,0.19374895,0.1385804,0.1522623,0.25263128,-0.13671781,-0.09583457,0.11834152,0.06695224,0.19609137,-0.026001044,-0.05829807,-0.23324728,-0.21659058,0.10616987,-0.27393135,-0.127104,0.10464035,0.060135953,-0.13284099,-0.051509883,0.14903009,-0.15740132,-0.041389845
conf_25,-0.03558237,-0.16663106,0.17293283,0.20626748,0.1050428,0.09495831,0.15237527,0.15162274,-0.21273635,-0.15048835,0.116832964,0.15390901,-0.22283722,0.13119951,-0.14174937,0.15397547,0.07302951,-0.00085586635,-0.18367064,-0.049219746,-0.040942907,-0.2489694,0.25093833,-0.15411949,0.18329358,0.23524432,-0.11977098,-0.08771909,-0.21548472,-0.0016740088,0.054523792,-0.1483083,-0.09988233,0.2020934,-0.07693568,-0.096830204,-0.14163905,-0.18148224,-0.21738179,0.27507648,-0.08568302,-0.19291222,-0.038748883,0.025111686,-0.104237646,-0.17913353,-0.21108288,0.086346604,0.20892514,0.16654132,0.12188746,0.14933668,-0.08448795,-0.10019816,-0.20564817,0.17188261,0.2683914,0.14419675,-0.1328877,0.13371812,-0.23165336,-0.111077085,-0.109742746,-0.18641177,0.18561403,-0.16438973,0.23603791,0.118232265,0.1417264,0.12285053,-0.14439277,-0.2175739,0.0014032144,-0.1880722,0.23382542,-0.06809982,-0.12885492,0.069704495,0.2132611,0.15412915,0.16062969,-0.10362059,-0.2527615,0.1941878,0.15927269,0.10986871,-0.07049735,-0.18550539,-0.09966888,-0.12615389,0.082537144,-0.16039161,-0.24769673,0.13336481,0.12245786,-0.2651114,-0.04022011,0.048478056,-0.17086096,0.054877717
conf_26,-0.039816055,-0.048971795,0.0835083,0.21105215,0.27413195,-0.022554532,0.22542654,0.18422766,-0.043621007,-0.024632875,0.101521306,0.12391891,-0.1095191,0.10488153,-0.12267185,0.17051573,-0.0035325207,0.06161424,-0.13015984,0.030540086,-0.100342475,-0.1762977,0.02489961,-0.09924755,0.13625239,0.07702098,-0.061247762,-0.16622922,-0.20233999,0.056926508,0.028692618,-0.12988718,0.12676279,0.1624933,-0.07378755,-0.20219564,-0.07626603,-0.10425952,-0.1335097,0.07595809,-0.10530743,-0.14196673,-0.19414066,-0.0022422688,-0.04893714,-0.16534387,-0.1659631,0.08623659,0.18810657,0.16173883,0.17199364,0.11674277,-0.0470258,-0.12881698,-0.16102834,0.08247081,0.1380583,0.21581271,-0.048225652,0.17182523,-0.10423277,-0.11229538,-0.052798707,-0.19950962,0.21180193,-0.14280266,0.17365555,0.103504814,-0.027323196,0.029440567,-0.2039525,-0.1800496,-0.088824846,-0.11672935,0.14812443,-0.052463073,-0.22154324,0.12552384,0.059998035,0.18239465,0.12560984,-0.15712458,-0.113583475,0.17704947,0.1160097,0.13664816,-0.15587059,-0.13969134,-0.18020643,-0.17532647,0.17964241,-0.1741742,-0.15339358,0.0030846973,0.07264648,-0.17792004,-0.119415924,0.10452546,-0.15991107,0.07699429
conf_27,-0.055368856,-0.09969269,0.03480227,0.04156266,0.07655249,-0.025957564,0.23806955,0.13305345,-0.13995883,-0.1588034,0.09715442,0.1006401,-0.11349718,0.1796843,-0.13743162,0.19430842,0.054747663,-0.111688234,-0.16811977,0.038696203,0.084595956,-0.20480749,0.09836406,-0.17704016,0.19977133,0.10091178,-0.1800607,-0.20987038,-0.17693333,0.13859646,0.17299238,-0.18586443,-0.049631905,0.23362799,-0.22761022,-0.14249492,0.0036564623,-0.11911991,-0.128543,0.1720623,0.016519554,-0.12682132,-0.040316664,-0.031756625,-0.14557861,-0.22225134,-0.13812268,0.097417496,0.25032964,0.12211128,0.075388715,0.16094002,-0.034291126,-0.036858276,-0.17107339,0.10837912,0.24532838,0.15691707,-0.042872477,0.14201497,-0.18225336,-0.19227637,-0.11926185,-0.17245518,0.18983948,-0.062465176,0.138577,0.2360748,0.010587866,0.15473472,-0.07349791,-0.32745528,0.063240394,-0.22528039,0.20766617,0.08663232,-0.17757343,0.14321943,0.22976303,0.061239023,-0.012186239,-0.027443783,-0.19572401,0.15439035,0.10531239,0.1731841,-0.16225664,-0.043076426,-0.053661432,-0.039720792,0.10705574,-0.18753105,-0.18196288,0.21600024,0.04047367,-0.1895792,-0.059743505,0.16033964,-0.15302886,-0.09243054
conf_28,-0.2053533,-0.17891759,0.039316207,0.14185958,0.22837664,-0.054570302,0.21951677,0.08305308,-0.0873772,-0.006102373,0.043459814,0.115100235,-0.24456438,0.12908168,-0.24367255,0.105910555,-0.037061743,0.2638788,-0.14961524,-0.024739573,-0.10067887,-0.16323383,0.06478973,-0.18300727,0.18160932,0.14336292,-0.18949048,-0.17851765,-0.1727209,0.07803041,0.0119847115,-0.17451862,0.0791908,0.16533536,-0.09092682,-0.25413442,-0.11831733,-0.16207084,-0.19931546,0.12053382,-0.10002517,-0.16975679,-0.18044405,-0.14955838,-0.14354308,-0.1585257,-0.24767332,0.10589285,0.19515964,0.20500274,0.1816316,0.083220236,0.033813447,-0.21951629,-0.2156077,0.17921007,0.18313658,0.11238745,-0.07784158,0.051323924,-0.17145665,-0.17149097,-0.05821311,-0.12983462,0.15884061,-0.26139486,0.17210345,0.070237,-0.0848511,0.12985264,-0.18549971,-0.025355041,-0.14928888,-0.17355464,0.23617144,-0.15366341,-0.20743269,0.21005034,0.18114203,0.06826413,0.21629234,-0.24879214,-0.14981148,0.17975901,0.11820937,0.22123256,-0.10452459,-0.1903049,-0.12778616,-0.076493494,0.16436166,-0.10347228,-0.18430623,0.07036917,0.2088217,-0.20171165,-0.22121473,0.09170864,-0.113606416,-0.18954232
conf_29,-0.22065154,-0.17587885,0.12667905,-0.13212872,0.052539688,0.03727695,0.18020767,0.18449351,-0.24023378,-0.07378121,0.11226177,0.058657724,-0.21414712,0.15881048,-0.13858157,0.20753546,0.08179993,0.0136054,-0.30032167,0.09960589,0.11841877,-0.30272138,0.24690118,-0.21833819,0.1685676,0.17587528,-0.18167208,-0.09345386,-0.20272687,0.11993443,0.1492979,-0.26687717,0.08119759,0.2929188,-0.16964775,-0.2593718,-0.09633418,-0.117334686,-0.27946752,0.10765209,-0.20818648,-0.24082552,-0.15447009,-0.08067264,-0.24559155,-0.2106958,-0.19959867,0.15377884,0.24548912,0.121268995,0.24842729,0.1663793,0.022679789,-0.24229349,-0.18394639,0.18169604,0.25138533,0.25314882,-0.20201418,0.2422222,-0.14031817,-0.24062058,-0.11056285,-0.12906437,0.14510302,-0.11106625,0.1951195,0.22561295,-0.054286845,0.18809694,-0.13956165,-0.35780808,0.07170474,-0.15538101,0.20119286,-0.05518448,-0.19383782,0.17685436,0.19488463,0.1847427,0.20659637,-0.16036832,-0.26826185,0.1487448,0.11598001,0.1590519,-0.2192663,-0.16473709,-0.0063255955,-0.16785434,0.17731531,-0.12280822,-0.22312711,0.23084193,0.12442002,-0.21145397,-0.15038076,0.06984074,-0.19201817,-0.050740883
conf_30,-0.11303626,-0.109859966,0.06445636,0.19183466,0.10988208,0.077790014,0.14779447,0.20900115,-0.22934842,-0.20253623,0.20804116,0.17703699,-0.16302693,0.15773745,-0.17245014,0.13262998,-0.22907731,0.10490165,-0.10489927,0.08910837,-0.019175418,-0.18427968,0.2079775,-0.1491829,0.12101032,0.08438782,-0.15541679,-0.16320847,-0.16548327,0.007737745,0.055752672,-0.17900014,0.055174142,0.10603029,-0.0790947,-0.20369653,-0.212609,-0.039015222,-0.09900104,0.14026569,-0.10076954,-0.07484953,-0.18592651,-0.15592983,-0.18845452,-0.2086929,-0.2335946,0.17965268,0.19751039,0.1319728,0.17963357,0.19714768,0.10141097,-0.20182468,-0.10163513,0.18713227,0.23365673,0.23572378,-0.11788976,0.07213119,-0.15670292,-0.12308016,-0.18968911,-0.14435892,0.15072542,-0.12328873,0.24623145,0.12765744,-0.03455415,0.1837507,-0.12374739,0.10397714,-0.060513936,-0.11923869,0.17932793,-0.1613391,-0.15150785,0.11535401,0.17388234,0.17328115,0.08479482,-0.19397096,-0.016464336,0.24198398,0.108042605,0.1231681,-0.10931476,-0.10193184,-0.200503,-0.10691228,0.10838104,-0.064794034,-0.17842159,0.054679085,0.16182117,-0.16553268,-0.115306064,0.121266164,-0.19623001,-0.04542763
conf_31,-0.20388612,-0.15516768,0.20223676,0.061724603,0.14363651,0.00038155817,0.1645209,0.10924532,-0.13195834,-0.12611158,0.18855612,0.12983286,-0.17298764,0.2789798,-0.11747866,0.28535655,-0.18009222,0.057211768,-0.20724769,0.12609342,-0.0073536057,-0.13913213,0.07420381,-0.18838501,0.20956545,0.19535604,-0.17681322,-0.11179605,-0.21298422,0.11707114,0.09880854,-0.18220018,0.18132338,0.13842417,-0.10561131,-0.16710569,-0.17821984,-0.096069135,-0.27963224,0.112787634,-0.1312275,-0.19744265,-0.16065575,-0.109799124,-0.10728124,-0.14234014,-0.21821947,0.14493744,0.21095417,0.23606193,0.18199688,0.08577261,-0.11989633,-0.12983009,-0.22038971,0.09996861,0.29642484,0.15461111,-0.16731997,0.27781898,-0.15432364,-0.2366207,-0.16189824,-0.16394605,0.2101463,-0.097354144,0.13798726,0.24304728,-0.07466854,0.19053155,-0.14405261,-0.016109454,-0.1596184,-0.08470947,0.1630222,-0.08615686,-0.18855186,0.08190079,0.15948203,0.17216867,0.15374795,-0.19821076,-0.13838392,0.24881285,0.16010974,0.10329308,-0.10391563,-0.24600512,-0.12199975,-0.18914895,0.16270515,-0.23107414,-0.22676979,0.2048322,0.118390456,-0.16725506,-0.21723147,0.15393941,-0.1644968,-0.07516077
conf_32,-0.213492,-0.221825,0.13105795,-0.025648806,0.20122872,0.10313676,0.12413359,0.09169171,-0.22480726,-0.13536987,0.070750415,0.18995838,-0.18870339,0.13835137,-0.2515925,0.22634213,-0.039213438,0.048035763,-0.11980126,0.12427534,-0.095146984,-0.17039992,0.06404462,-0.16485871,0.21043514,0.103335485,-0.20828432,-0.13144122,-0.18629333,0.082564995,-0.013188613,-0.21182285,0.09130577,0.14812982,-0.01426091,-0.08216312,-0.17760232,-0.22003111,-0.17736007,0.16494314,-0.19377121,-0.13856182,-0.21507427,-0.19777274,-0.14759389,-0.16924293,-0.2689219,0.13291875,0.1808237,0.10516184,0.13054441,0.11490249,0.041453782,-0.16534765,-0.16487476,0.17484415,0.22954656,0.12015259,-0.17789999,0.08348388,-0.14455403,-0.1761881,-0.125938,-0.25068623,0.11512312,-0.12939757,0.16604574,0.08413663,-0.026425278,0.13147095,-0.17448147,-0.016222827,-0.15690131,-0.17645857,0.11646328,-0.084709965,-0.21503639,0.24985534,0.033073906,0.18768665,0.21979496,-0.12650633,-0.13218941,0.20823942,0.14383687,0.16611172,-0.07882111,-0.16736437,-0.13919705,-0.075861976,0.17538348,-0.21813458,-0.24663308,0.10332764,0.110156715,-0.18573608,-0.16641073,0.21134448,-0.14642984,-0.18413934
conf_33,-0.17986532,-0.14876024,0.18194386,0.038752653,0.25642756,0.14273581,0.23430276,0.17188136,-0.25271967,0.038305067,0.13908888,0.111891024,-0.15317366,0.12932871,-0.13553931,0.12610611,-0.14862134,-0.045200817,-0.046975967,0.05479362,-0.07118384,-0.15314887,0.1880151,-0.16317613,0.10883311,0.09330732,-0.20066829,-0.12181447,-0.07977105,0.06479837,0.02819529,-0.12310105,-0.081301086,0.173256,0.00049718143,-0.100211844,-0.08708237,-0.13456662,-0.14997542,0.09973107,-0.13519627,-0.2086507,-0.24359094,-0.032550007,-0.2145734,-0.25400832,-0.1196321,0.09165867,0.21227664,0.16942711,0.10532826,0.06180053,-0.105998315,-0.13941145,-0.19641083,0.118281156,0.11947008,0.07509381,-0.05415652,0.10716816,-0.19313523,-0.18091656,-0.10980693,-0.13949718,0.10928218,-0.14411901,0.11015222,0.1559044,0.0062376577,0.101646975,-0.19784236,-0.079864256,0.01770762,-0.07821358,0.1605777,-0.12589145,-0.14805636,0.15385924,0.06833905,0.16825777,0.07733697,-0.14997153,-0.24936472,0.08263551,0.18310225,0.09882612,-0.063312866,-0.06824475,-0.1572034,-0.16213252,0.07016047,-0.29941383,-0.15570226,0.15326916,0.13244215,-0.08003419,-0.26174188,0.07369931,-0.25936,-0.040565945
conf_34,-0.17545718,-0.14792423,0.18927476,-0.112829275,0.18464,0.10074587,0.17026895,0.17649981,-0.20839478,-0.02747997,0.056792364,0.10688646,-0.2313281,0.16425566,-0.1337739,0.22101124,-0.1196842,0.11833894,-0.089982115,0.11934727,-0.1821444,-0.1717699,0.2113285,-0.16051063,0.26217002,0.20868453,-0.17764218,-0.1764086,-0.23536603,0.20423213,0.19030954,-0.15372421,0.0962636,0.11857501,-0.08348542,-0.13322033,-0.13898149,-0.12019004,-0.11907918,0.22732115,-0.07488203,-0.13487442,-0.1722436,-0.06135208,-0.18459833,-0.25057462,-0.17679255,0.12429177,0.2636107,0.13429146,0.16738974,0.17614163,-0.009832056,-0.16992126,-0.21533355,0.12943624,0.19578652,0.124463685,-0.16368623,0.1652388,-0.28793567,-0.20840885,-0.041931774,-0.13500142,0.20990038,-0.1308643,0.2415598,0.20564578,-0.2030451,0.17081733,-0.19344015,0.09548393,-0.1399995,-0.1758684,0.14290221,-0.2092096,-0.13915636,0.24326183,0.12872799,0.19283612,0.02278892,0.048875947,-0.2512193,0.22030964,0.119157836,0.18202539,-0.16090983,-0.17238864,-0.16000856,-0.087904714,0.13285665,-0.1997798,-0.1916071,0.15522718,0.14501555,-0.19771618,-0.22531724,0.108356126,-0.22093235,-0.10308177
conf_35,-0.21056554,-0.20476142,0.1633155,-0.10612588,0.08114397,0.07387238,0.09323582,0.22146441,-0.186682,-0.08402382,0.20872293,0.17275038,-0.12322471,0.18341829,-0.14430593,0.22088727,-0.108023465,0.14040923,-0.17390288,0.16981708,0.0034789252,-0.19448105,0.10330053,-0.1866457,0.2002155,0.14503995,-0.16135384,-0.20345138,-0.2804247,0.038333453,0.039011512,-0.20058016,0.025822649,0.2547711,-0.18584651,-0.11733275,-0.1940112,-0.12004848,-0.17915495,0.12873533,-0.11566742,-0.26425594,-0.20345312,-0.19691645,-0.15381944,-0.18947405,-0.25037974,0.21170686,0.17361413,0.16796978,0.26459196,0.001537764,-0.038471553,-0.23303828,-0.16132233,0.17107232,0.29251748,0.1708688,-0.16438949,0.24488436,-0.22600219,-0.21068363,-0.16041826,-0.10450503,0.14076394,-0.08827495,0.16058092,0.25499162,-0.079157464,0.1733918,-0.20449696,-0.11774226,-0.057178985,-0.069075756,0.16542315,-0.0619683,-0.2044205,0.13560897,0.19458142,0.17651191,0.12223706,-0.29694897,-0.18627474,0.22119619,0.15831648,0.2594344,-0.16095626,-0.22777992,-0.0817653,-0.13403332,0.18655838,-0.066247046,-0.23411243,0.19492672,0.11460451,-0.23122685,-0.24381337,0.1358669,-0.12677278,-0.15282169
conf_36,-0.1817307,-0.13645129,0.055422816,0.11027916,0.17410949,0.09336717,0.24340829,0.1804147,-0.14507297,0.030333228,0.03473558,0.16651733,-0.1585085,0.10282964,-0.1019281,0.1824886,-0.08071666,-0.04193576,-0.1024035,0.123269744,0.0014050723,-0.14210518,0.119073465,-0.16197167,0.21021673,0.112687185,-0.15117837,-0.17564002,-0.15142038,0.12406034,0.12380639,-0.13548043,0.18088083,0.1842373,-0.1455945,-0.20202889,-0.08665404,-0.087919556,-0.22738974,0.12454993,-0.19170041,-0.2136712,-0.25605357,-0.062083192,-0.13313474,-0.23411095,-0.13760038,0.23045778,0.10941367,0.15525696,0.1721615,0.066295415,-0.16881128,-0.20100392,-0.21982504,0.19874854,0.19379677,0.11032957,-0.115542725,0.15644297,-0.12584276,-0.18348631,-0.050785247,-0.22763334,0.22475867,-0.18725093,0.18443558,0.19186898,0.023308352,0.21069211,-0.09818493,-0.16539693,-0.2430294,-0.06514356,0.17518824,-0.2330244,-0.14260525,0.16097818,0.17669356,0.22000048,0.14231525,-0.12892756,-0.10879371,0.1294853,0.20010038,0.20588952,-0.17124373,-0.19144434,-0.1735527,-0.1991717,0.1369384,-0.13665707,-0.07718902,0.18837036,0.15395841,-0.1014356,-0.15534747,0.17484236,-0.21884412,-0.064896986
conf_37,-0.15187714,-0.014467115,0.05319443,0.1070991,0.13070752,0.031255268,0.20396137,0.15837601,-0.12514003,-0.23544262,0.15640992,0.1245208,-0.16184458,0.11456001,-0.22236721,0.11501045,0.05439823,0.00019169229,-0.22385964,-0.016342573,0.18220352,-0.19524495,0.07698635,-0.12506366,0.15403719,0.06576045,-0.19070846,-0.09300783,-0.13289532,-0.03611308,0.0946595,-0.22766933,-0.28801727,0.21867913,-0.08852419,-0.10369812,-0.15307452,-0.07936325,-0.07789985,0.11984409,-0.040880006,-0.18233252,-0.07601292,-0.049304925,-0.0981258,-0.2767401,-0.13529932,0.15294728,0.24136846,0.11975686,0.14732628,0.021610722,0.05092802,-0.12231241,-0.2023552,0.07455341,0.17926608,0.16987194,-0.044798482,0.06209168,-0.098153554,-0.15403795,-0.14651026,-0.19279172,0.26484925,-0.17670979,0.23958945,0.16574162,-0.10714961,0.13025941,-0.09621025,-0.37052038,0.124981456,-0.17354383,0.0887033,0.08536348,-0.15348047,0.083360925,0.22979264,0.062296283,0.13885583,-0.17987113,-0.22088668,0.23153837,0.018088747,0.09417103,-0.030829603,-0.042491227,-0.07261579,-0.09985052,0.1605433,-0.14590544,-0.14714962,0.14962189,0.020525672,-0.24434659,-0.11803001,0.073315725,-0.11408885,0.04616751
conf_38,-0.22260799,-0.080064155,0.1313667,0.14566736,0.12757263,0.16642672,0.23081401,0.15666631,-0.14015573,-0.014013673,0.060604334,0.18146881,-0.108794525,0.077880576,-0.12897544,0.18831562,0.03633047,0.1844788,-0.11622387,-0.009072258,-0.014824005,-0.09776157,0.15814993,-0.1763964,0.10955894,0.05603037,-0.13302334,-0.10471107,-0.07889447,0.09805405,0.029314134,-0.043789275,0.098758906,0.107127756,-0.09169289,-0.15381864,-0.1704418,-0.1103347,-0.1402024,0.28584185,-0.12542662,-0.10520367,-0.09930426,-0.16416365,-0.16846305,-0.21398208,-0.18230516,0.09116908,0.23748517,0.09776134,0.11327563,0.16898817,0.12488092,-0.16451569,-0.19846325,0.070338495,0.12781595,0.053173434,-0.06374853,0.19437395,-0.11629071,-0.12690789,0.01693525,-0.23103634,0.16235551,-0.22061989,0.13022995,0.022200633,-0.057682827,0.12666047,-0.17925598,-0.09735619,-0.118563645,-0.099873565,0.19034459,-0.09289817,-0.2474163,0.1239168,0.12241865,0.10037662,0.11755124,-0.1363405,-0.1168155,0.21110202,0.08405887,0.16787001,-0.15149076,-0.18742847,-0.12724462,-0.07671705,0.037128415,-0.21905152,-0.14123598,0.019399943,0.094169356,-0.15946329,-0.1447703,0.120240316,-0.13103497,-0.046289057
conf_39,-0.18849513,-0.09169288,0.12328178,0.041488767,0.01079174,0.061866153,0.09083208,0.16637063,-0.16705917,-0.24267104,0.12734039,0.20357272,-0.22159195,0.119351,-0.1578225,0.25447133,0.056161508,-0.22745468,-0.22233875,0.14209594,0.09589785,-0.15294303,0.099212736,-0.2439044,0.12311175,0.016205722,-0.16144523,-0.21221872,-0.15297037,0.059715353,0.05534144,-0.18839096,0.07133913,0.1633799,-0.2607145,-0.13426891,-0.17186578,-0.20923108,-0.23010682,0.07469465,-0.13905251,-0.20986226,-0.12061948,0.06490131,-0.17508657,-0.30422047,-0.31063572,0.14448573,0.14333962,0.0844919,0.2283394,0.16017747,-0.22746973,-0.17777288,-0.21310088,0.15704663,0.2537214,0.15674768,-0.089074835,0.104938,-0.120871276,-0.1698008,-0.07385395,-0.18597613,0.1642135,-0.1350265,0.25096443,0.26684806,0.1380666,0.11443201,-0.113674685,-0.31145257,-0.11008133,-0.1727752,0.17316517,0.08785581,-0.18038581,0.085707285,0.11679793,0.16712868,0.14310957,-0.08746566,-0.20161757,0.1672828,0.13873756,0.15457436,-0.13365017,-0.047416124,-0.027755393,-0.16256304,0.12592782,-0.20263259,-0.18372414,0.22586463,0.12841488,-0.2643968,-0.16791476,0.13339491,-0.08731072,-0.100642554
conf_40,-0.104500845,-0.1842427,0.08263982,0.028218798,0.15720923,0.13039735,0.16642016,0.097509556,-0.21985623,-0.17174326,0.061451558,0.27612078,-0.18127689,0.123782575,-0.17037198,0.15454285,-0.1918118,0.025787434,-0.16863123,0.044517677,-0.06410484,-0.14326075,0.19453311,-0.16501975,0.12787376,0.10765629,-0.19985235,-0.20191963,-0.073526494,0.004963975,0.15090218,-0.10805357,0.19032933,0.16652028,-0.038151372,-0.11405152,-0.13274084,-0.13422355,-0.14592814,0.040716417,-0.17314233,-0.23476219,-0.29434147,-0.11337978,-0.14209495,-0.1715727,-0.13358693,0.18747611,0.2420498,0.09703695,0.10890694,0.049191304,-0.062873736,-0.13427782,-0.14647397,0.0643917,0.15167445,0.09764162,-0.12965472,0.17637643,-0.11947521,-0.08154762,-0.07261488,-0.14223275,0.18059626,-0.16013144,0.15178806,0.15370502,0.010955769,0.12424409,-0.20195109,-0.01144699,-0.04068356,-0.09594722,0.11938974,-0.16183786,-0.22655311,0.21620461,0.24991556,0.13145085,0.06924704,-0.114924744,-0.114248954,0.25022012,0.0720841,0.20529296,-0.17877385,-0.13347177,-0.16714862,-0.0935719,0.051653005,-0.10613847,-0.0945942,0.1285989,0.08077361,-0.11027904,-0.17070451,0.13083163,-0.14113146,-0.060620796
conf_41,-0.02364956,-0.06054865,0.00975579,-0.13706702,0.14849198,0.12468602,0.22264427,0.16358025,-0.14428265,-0.12577838,0.14383914,0.1290689,-0.110915706,0.07924875,-0.14001629,0.18536924,-0.048712064,0.05334328,-0.21864538,-0.029023314,0.06266402,-0.25504953,0.21742395,-0.09461266,0.18702897,0.13163166,-0.16284882,-0.12994945,-0.13792594,0.056041446,-0.026152788,-0.2572692,-0.022278488,0.23135868,-0.20786686,-0.061870474,-0.10134715,-0.0838118,-0.15581502,0.13053231,-0.084653206,-0.21934304,-0.1081427,-0.06514302,-0.0895258,-0.17404875,-0.13099425,0.08406287,0.2184111,0.16803586,0.13884884,0.11846955,0.02677938,-0.082890615,-0.17921712,0.17177498,0.278102,0.13862886,0.045959536,0.20374863,-0.11676221,-0.124794,-0.11447574,-0.17812748,0.17879373,-0.0722101,0.26992807,0.20508143,0.078876175,0.12272824,-0.15356237,-0.3658208,-0.11666636,-0.04510346,0.21006578,0.16994438,-0.18043844,0.17064925,0.18046446,0.17452224,0.24130684,-0.13012692,-0.2416229,0.18826012,0.10176214,0.07668798,-0.05786085,-0.16506009,-0.030557992,-0.044436876,0.0980988,-0.14636354,-0.18320987,0.2150294,0.13054313,-0.21136455,-0.07672681,0.07796364,-0.06774572,-0.07047042
conf_42,-0.128047,-0.10893436,0.15539569,0.23223971,0.14171703,-0.00090662483,0.21487315,0.08002814,-0.13368478,-0.006602057,0.10976349,0.19787392,-0.153507,0.17152773,-0.13861103,0.20855297,-0.12088589,0.03616267,-0.13603216,0.14031397,0.012465585,-0.15431663,0.069026046,-0.15818222,0.1054565,0.09378293,-0.2060069,-0.23126216,-0.18228869,-0.07111267,0.039850395,-0.10346318,0.17580914,0.122870885,-0.1469975,-0.07134991,-0.15559642,-0.009381472,-0.11769873,0.17492695,-0.1991329,-0.10418057,-0.24142967,-0.1479439,-0.105852865,-0.20097683,-0.20153254,0.09780469,0.1548678,0.16174845,0.16641365,0.16499603,-0.05113706,-0.20824489,-0.1319081,0.16232018,0.22193259,0.117039874,-0.1904615,0.17850018,-0.114591345,-0.070911154,-0.061149575,-0.10101505,0.24270739,-0.21302563,0.1857584,0.10940633,-0.094751306,0.14527614,-0.117831856,0.10321238,-0.17424047,-0.1390924,0.22032271,-0.005291578,-0.163761,0.12224872,0.09424927,0.2243416,0.1765716,-0.14070444,-0.04666241,0.15903127,0.112670265,0.14832905,-0.09209323,-0.13915607,-0.15591018,-0.15603551,0.12634318,-0.12023619,-0.1422033,0.09554593,0.20562409,-0.07491067,-0.10450915,0.15028524,-0.2503643,-0.06719826
conf_43,-0.13851902,-0.09553774,0.087506056,-0.012970625,0.1361932,0.16683254,0.17923711,0.06886956,-0.15824524,-0.19500339,0.17768978,0.10062994,-0.09636981,0.20548134,-0.17850646,0.12550975,-0.11416589,-0.08487757,-0.25672466,-0.046885293,0.05556528,-0.24182007,0.24476811,-0.25550652,0.14859839,0.13393064,-0.16032316,-0.1973741,-0.17776093,0.017216805,0.22363922,-0.12931651,-0.019076284,0.19232379,-0.16013725,-0.12905468,-0.094332606,-0.053071685,-0.1430786,0.1902505,-0.12213273,-0.14868644,-0.0010153339,-0.04836494,-0.110947065,-0.20067978,-0.11784033,0.10906055,0.28868482,0.19741969,0.24090044,0.15626201,-0.13685685,-0.09390297,-0.1552193,0.15635906,0.16665952,0.154135,-0.026138049,0.20206444,-0.14992315,-0.12919426,-0.09249915,-0.18661134,0.18737525,-0.13397881,0.16516572,0.1523444,0.09544298,0.037279975,-0.10944483,-0.17217083,0.10372054,-0.109300636,0.156813,0.05484163,-0.16163707,0.14843072,0.17444654,0.11337131,0.047112983,-0.011459232,-0.26120153,0.20603077,0.027736844,0.14319216,-0.15502396,-0.10263326,-0.10625822,-0.15039206,0.17237762,-0.15340623,-0.2540956,0.19518591,0.053680867,-0.19239658,-0.06683402,0.0067827655,-0.09235882,0.0651844
conf_44,-0.15766418,-0.05797564,0.14791913,0.038714346,0.21485361,0.012059255,0.23981132,0.14137924,-0.14240934,-0.026449608,0.12007657,0.14614147,-0.23119941,0.1021511,-0.1835893,0.18569848,-0.07871178,0.20385775,-0.10285335,0.098871164,-0.014789178,-0.17054671,0.07870431,-0.1151489,0.19897212,0.12146916,-0.13353081,-0.2567262,-0.16239752,0.07167926,0.13476528,-0.10956761,0.11241884,0.105018355,0.02976777,-0.12082178,-0.27955836,-0.023625387,-0.1924873,0.040294573,-0.1761021,-0.24357507,-0.16942431,-0.19321503,-0.1463663,-0.19000365,-0.12846878,0.17188524,0.18878971,0.15309827,0.107121535,0.13474819,0.019082822,-0.25094774,-0.18557283,0.21330938,0.20579225,0.16227165,-0.20632873,0.15040152,-0.07904746,-0.18650371,-0.16153859,-0.105550826,0.19920622,-0.15039125,0.19404635,0.18161176,-0.044309627,0.1568046,-0.2709716,0.13555756,-0.1806957,-0.20376521,0.15989314,-0.15415233,-0.17115232,0.18466817,0.14327526,0.20236927,0.24151082,-0.18302503,-0.018564513,0.20829916,0.15004069,0.12830827,-0.07117295,-0.17505151,-0.1342174,-0.14795311,0.18134673,-0.10639279,-0.09859898,0.1040999,0.099069804,-0.2243379,-0.24029188,0.114765406,-0.26276496,-0.06505273
conf_45,-0.10156791,-0.24735758,0.10356172,-0.12921946,0.11287823,0.10819784,0.22686462,0.17116226,-0.15518968,-0.044429634,0.09952474,0.13777053,-0.106082745,0.08796827,-0.15706724,0.22052461,0.0008815466,0.03292103,-0.24933828,0.12782282,0.040893465,-0.26450267,0.16292465,-0.14892119,0.13849832,0.024648756,-0.11953564,-0.19327661,-0.19365412,0.03643824,0.029303651,-0.13555896,-0.13260362,0.21977615,-0.17186208,-0.17971067,-0.19917828,-0.03403001,-0.225683,0.24726792,-0.15281288,-0.22767356,-0.17659245,-0.04275209,-0.14757262,-0.2011964,-0.13196394,0.1255227,0.18765213,0.19345146,0.16366757,0.22767009,-0.0014584422,-0.14856401,-0.20556484,0.14721008,0.24692357,0.1173447,-0.15533637,0.1814488,-0.14967768,-0.25834408,-0.012683564,-0.13163707,0.19650269,-0.18787678,0.24242595,0.19198783,0.044491395,0.1194718,-0.1661818,-0.108066395,-0.18493676,-0.1129973,0.10947591,0.21372056,-0.24491218,0.12615092,0.11869913,0.1997787,0.14255558,-0.095890075,-0.21433479,0.18226525,0.18403818,0.1565196,-0.21285067,-0.16191432,-0.16856873,-0.0884687,0.11006575,-0.22249734,-0.16884498,0.2176762,0.091230474,-0.21726441,-0.26168492,0.028331527,-0.22922756,-0.028435921
conf_46,-0.060506407,-0.10987194,0.048845213,-0.07302503,0.21733293,0.045913238,0.25845295,0.106298834,-0.12048579,0.0022939732,0.14030966,0.2234065,-0.10350345,0.13522369,-0.2010757,0.16548093,-0.0029987104,0.08764522,-0.10857456,0.18855706,0.017940067,-0.11546629,0.10576052,-0.15068766,0.18516763,0.005311284,-0.16349022,-0.06948747,-0.14621238,0.10025747,-0.01033051,-0.05198318,0.081612356,0.15797666,-0.041786097,-0.17441744,-0.116568364,-0.050855882,-0.18840766,0.21970284,-0.0022443284,-0.16508856,-0.053380594,-0.1832051,-0.16154471,-0.2302436,-0.1495706,0.15311621,0.1999497,0.1770428,0.119000874,0.07747071,0.07578488,-0.17006622,-0.1287766,0.120525695,0.14439768,0.10478523,-0.10741383,0.1323985,-0.1512164,-0.1667072,-0.11298447,-0.13742037,0.1331531,-0.10196651,0.18834683,0.09854201,-0.09856104,0.061552946,-0.19140388,0.031222668,-0.09772425,-0.18169534,0.16877285,-0.022281531,-0.15154119,0.11003693,0.22803918,0.13205732,0.12044551,-0.09086813,-0.09837041,0.19047031,0.09785412,0.09003304,-0.07431393,-0.08114239,-0.05074092,-0.10823955,0.11245829,-0.05991551,-0.19324724,0.05260514,0.09062637,-0.21386886,-0.21849428,0.12893514,-0.18293793,-0.220915
conf_47,-0.07225059,-0.0937277,0.077004164,-0.018606164,0.12749894,-0.004370273,0.1881862,0.16246824,-0.08013311,-0.0037115272,0.1553158,0.16866302,-0.047431946,0.12433886,-0.12849508,0.14600517,-0.005524088,0.019188087,-0.12498405,0.0096702995,0.042970646,-0.20372827,-0.006191215,-0.14068586,0.060594432,0.08561693,-0.11697555,-0.1857263,-0.14348365,-0.013407009,-0.09660326,-0.138304,-0.097034134,0.22673997,-0.12406455,-0.15334442,-0.04583895,-0.1026832,-0.16857414,0.13074766,-0.06942385,-0.10113303,-0.04147744,0.15226993,-0.1769917,-0.24306157,-0.08276408,0.10730542,0.20936976,0.18111636,0.07947077,0.11905321,-0.068466604,-0.09167409,-0.15155114,0.04649728,0.18275762,0.18266158,-0.025478909,0.082282715,-0.12212461,-0.15455651,-0.07410678,-0.18097152,0.13292369,-0.05783084,0.2251765,0.20232202,-0.06828118,0.042369932,-0.13183515,-0.3457853,0.13803223,-0.19826196,0.14640062,0.11797492,-0.21810411,0.010515939,0.13570459,0.11011532,0.052731287,-0.027452245,-0.16900718,0.17598605,0.0866779,0.16943331,-0.19391723,-0.08647564,0.003571994,-0.09756101,0.17537844,-0.19160971,-0.16832018,0.19791551,0.15305102,-0.14291833,-0.07850626,-0.025366962,-0.08334072,-0.042796142
conf_48,-0.15731388,-0.19093119,0.13161096,0.054513797,0.1062627,0.09530125,0.14429198,0.23883924,-0.14707945,-0.07020135,0.17023396,0.16263467,-0.16554035,0.21832108,-0.23444161,0.2081308,-0.17690273,0.17494415,-0.11502865,0.20272246,-0.023274038,-0.1574628,0.064882286,-0.15836497,0.2120387,0.18708934,-0.18765736,-0.21113996,-0.19811071,0.1740963,0.08114332,-0.24897869,0.1633166,0.111632936,-0.09098793,-0.17068078,-0.119544975,-0.22011395,-0.16405946,0.18502097,-0.18751344,-0.20519952,-0.24499615,-0.18005927,-0.16776681,-0.20810303,-0.20716815,0.18375625,0.24131064,0.14327306,0.25588772,0.018548282,-0.07268364,-0.1349772,-0.20668703,0.15770118,0.18626909,0.15205443,-0.20748442,0.19707774,-0.18194927,-0.1774236,-0.031948227,-0.10458783,0.22291125,-0.05475807,0.197389,0.11064876,-0.052906178,0.20927301,-0.25610238,-0.0155053595,-0.25445735,-0.06523318,0.21143636,-0.18421106,-0.17922458,0.1749727,0.047752775,0.23085454,0.19397186,0.011752488,-0.097207785,0.17694384,0.17725398,0.19634452,-0.089497745,-0.17968786,-0.045975644,-0.14222427,0.045956057,-0.13287368,-0.20081669,0.16056535,0.09827996,-0.1743297,-0.20013686,0.15970889,-0.17749636,-0.18456234
conf_49,-0.13352413,-0.10394726,0.17206842,-0.014274179,0.12448094,0.06429023,0.15295246,0.09061397,-0.14720199,-0.051136263,0.069282904,0.049931448,-0.24442856,0.16095743,-0.18815838,0.25865763,-0.014862608,0.048719503,-0.19183846,0.0046509225,0.0026182982,-0.25005138,0.17942998,-0.2498998,0.17171645,0.20579202,-0.124512374,-0.14386827,-0.1974987,0.05627663,-0.054014247,-0.18887754,-0.0007231964,0.26822156,-0.2799766,-0.14776573,-0.20888342,-0.29798096,-0.14480112,0.14269903,-0.1464303,-0.110272415,-0.14538819,0.05048823,-0.16797243,-0.2495839,-0.14657708,0.17544453,0.2520532,0.1859031,0.13401555,0.20197032,0.029921487,-0.208401,-0.27783284,0.20293576,0.18526001,0.21385664,-0.21212785,0.14734876,-0.17244305,-0.22243488,-0.06771535,-0.09315575,0.2215226,-0.07136328,0.23799749,0.20643307,-0.19023669,0.07444228,-0.20197354,-0.1712673,-0.025448903,-0.13160321,0.22173315,-0.12546495,-0.16946904,0.1095249,0.13932937,0.23111157,0.1824667,-0.021503715,-0.23264134,0.20977068,0.12608038,0.18105118,-0.14814259,-0.11725683,-0.11470179,-0.21997258,0.09710946,-0.089794435,-0.21181738,0.33205318,0.23119658,-0.19248271,-0.23080489,0.07936544,-0.1948216,-0.103218995
conf_50,-0.17504416,-0.060625825,-0.0026335963,0.17186275,0.06196001,0.142518,0.15433182,0.09735909,-0.17870356,-0.042846937,0.11168907,0.18321909,-0.15324719,0.1641708,-0.17737396,0.18875875,-0.05492985,-0.11178547,-0.09422679,0.040182523,0.07450715,-0.14592448,0.1017298,-0.14335302,0.21268168,0.08145022,-0.14757723,-0.103132844,-0.11236326,0.08032523,-0.047681157,-0.0963023,0.08317697,0.09905237,-0.06527178,-0.13586606,-0.079301655,-0.06457964,-0.16161406,0.09725873,-0.13105282,-0.15616235,-0.18118733,-0.032953568,-0.060975134,-0.17789301,-0.23225598,0.13585494,0.16801395,0.049309433,0.18142056,0.16122434,-0.14150181,-0.14750463,-0.16871879,0.17208453,0.15821786,0.17087011,0.012347105,0.05880052,-0.11349737,-0.14184216,-0.043564927,-0.13131747,0.2330007,-0.13068047,0.20056812,0.09246518,0.07642698,0.114812754,-0.13507518,-0.07156856,-0.17162386,-0.06994389,0.16535053,-0.073000036,-0.16853197,0.1496882,0.1993193,0.19120862,0.18583371,0.09232744,-0.03359252,0.12458517,0.061153933,0.18706004,-0.016698765,-0.07134524,-0.08454322,-0.13563523,0.06429963,-0.19691391,-0.1323918,0.08826437,0.03998612,-0.11793856,-0.090823784,0.15844324,-0.05727631,-0.0032361245
conf_51,-0.14439863,-0.09911729,0.050627694,-0.09283329,0.060633525,0.065123945,0.09916505,0.09268299,-0.19977745,-0.14050774,0.099604055,0.24134761,-0.039271533,0.20338297,-0.11347452,0.21044618,0.085908964,-0.09758426,-0.21036647,0.059798934,0.10132418,-0.18106222,0.114980645,-0.21341154,0.13365419,0.17613815,-0.058372438,-0.22248967,-0.12296748,-0.03743825,-0.051696386,-0.14306833,0.03389783,0.21264507,-0.2757004,-0.13818122,0.013542177,-0.12935665,-0.22846681,0.17859036,-0.14675891,-0.20845607,-0.14358363,-0.0092279455,-0.18348987,-0.25340298,-0.09077531,0.11664298,0.1846818,0.12190469,0.111994155,0.16436398,-0.12996837,-0.17046972,-0.09731619,0.03804207,0.20640582,0.115101956,-0.096283644,0.13900185,-0.1154498,-0.12425042,-0.15020347,-0.16752781,0.10440528,-0.10811601,0.21038651,0.16958296,0.043631468,0.13246055,-0.16095804,-0.35912535,-0.06364945,-0.04472159,0.2097534,0.1056442,-0.1925238,0.1823186,0.16995509,0.15216646,0.23838732,-0.096868716,-0.1514606,0.13906218,0.14922081,0.16820344,-0.07462962,-0.19183756,-0.066200666,-0.099244975,0.20911072,-0.13535169,-0.21296051,0.25270548,0.042223714,-0.14667694,-0.09496877,0.055922236,-0.053664923,0.025438428
conf_52,-0.11946418,-0.15151899,0.1389773,-0.020301584,0.11076641,-0.06919402,0.27265245,0.079657294,-0.0744235,-0.053540345,0.19057423,0.18589444,-0.12392811,0.23188835,-0.18123923,0.16322166,0.0047628423,-0.0030238545,-0.12763254,0.04797533,-0.013896729,-0.06124996,0.17720385,-0.13020436,0.17135413,0.11231629,-0.13397804,-0.14615183,-0.14234434,0.13398312,0.06945099,-0.104850896,0.15497726,0.11155977,-0.050081905,-0.08755242,-0.14128841,-0.19615051,-0.17017516,0.21429734,-0.11338212,-0.19475764,-0.23048459,-0.063602746,-0.15148772,-0.1783896,-0.23249361,0.20958312,0.09609004,0.10734488,0.2259111,0.14953737,-0.24922265,-0.1733663,-0.14227755,0.1444297,0.16821136,0.10047366,-0.04477523,0.10572248,-0.108379744,-0.23408969,-0.11404615,-0.19652838,0.22198537,-0.17964621,0.13552214,0.17666203,-0.0008698174,0.14471042,-0.23960654,-0.061464082,-0.1922059,-0.08580665,0.15660593,-0.019034084,-0.1588978,0.08764548,0.07605303,0.1686332,0.045081623,0.039148346,-0.12058137,0.08241393,0.2121594,0.17063706,-0.07631253,-0.054774273,-0.150029,-0.18887281,0.1280867,-0.18384403,-0.100688145,0.088508695,0.13845201,-0.15572056,-0.17527659,0.19785556,-0.14133757,-0.09400734
conf_53,-0.07875081,-0.082600154,0.059101634,-0.0668926,0.0869582,0.0599375,0.0868726,0.20751189,-0.11399532,-0.08737451,0.09735723,0.13543604,-0.0747524,0.14873788,-0.11710828,0.1466897,0.17729959,-0.19406337,-0.1363379,0.018228192,0.22282977,-0.21107367,0.17563765,-0.23268874,0.16436628,0.1784488,-0.21387121,-0.13045356,-0.09067653,0.07677825,0.07749313,-0.1372052,-0.123463705,0.12595703,-0.16690966,-0.12835377,-0.010168075,-0.1091764,-0.17745344,-0.0060384152,-0.083423816,-0.19000417,-0.028103327,0.032867663,-0.1649062,-0.23047075,-0.24896377,0.15763602,0.22512427,0.14315206,0.14860007,0.10470845,-0.25015986,-0.13966525,-0.14495,0.023684053,0.18972169,0.20075007,-0.048298657,0.17803816,-0.15242681,-0.25739384,-0.1415774,-0.30537167,0.19788027,-0.10518568,0.23100297,0.24808002,-0.04839543,0.08088018,-0.12563051,-0.3409663,-0.021529952,-0.11889163,0.21741447,0.1543031,-0.26270646,0.08108339,0.21776018,0.12342421,0.02991756,-0.04308986,-0.21676749,0.21718529,0.14089537,0.17559578,-0.14257371,-0.07758438,-0.12264402,-0.07805548,0.105945125,-0.035929266,-0.2064892,0.2197533,0.029357167,-0.21904914,-0.10034842,0.033143125,-0.012299581,0.084344566
conf_54,-0.054266166,-0.15727608,0.1398637,0.115468524,0.14922662,0.075930744,0.2538312,0.2005692,-0.14568862,-0.06453168,0.049830705,0.18243338,-0.10122043,0.099682905,-0.19701365,0.16117261,-0.05862353,0.13057943,-0.14325605,0.04046727,-0.013097538,-0.17566381,0.18632904,-0.095911466,0.16541103,0.1637633,-0.18365629,-0.11597286,-0.16228041,0.00527868,0.055273943,-0.18582043,0.12094139,0.19668272,-0.09565808,-0.17605527,-0.1560464,-0.15444867,-0.12247389,0.13365033,-0.10307053,-0.18510903,-0.23661695,-0.14743286,-0.07761553,-0.14281906,-0.17391455,0.16444045,0.18347846,0.13455656,0.11448568,0.17734084,0.120808475,-0.13285598,-0.15171112,0.16186647,0.17059337,0.2087476,-0.017023982,0.09862592,-0.20907219,-0.12937963,-0.12359813,-0.05390025,0.20229729,-0.19307812,0.17031766,0.114370055,0.039132398,0.19847807,-0.099271245,0.14362486,-0.25067785,-0.21635427,0.18948373,-0.123745106,-0.12093215,0.14455335,0.13893573,0.13469434,0.18143785,0.0547833,0.09671862,0.1646383,0.20049764,0.20633778,-0.081445426,-0.09796614,0.0026756949,-0.14579919,0.15246993,-0.20174193,-0.11299226,0.07819744,0.07909553,-0.1405449,-0.22472191,0.09267271,-0.17480771,-0.050560195
conf_55,-0.12531026,-0.064372264,0.0984768,-0.07212833,0.08252598,0.060666718,0.20659764,0.16207476,-0.15879363,-0.10442679,0.13106033,0.121492244,-0.15089744,0.22386046,-0.22842576,0.14148124,-0.078296974,-0.09496398,-0.22776082,0.074453436,0.14275357,-0.24633881,0.055440985,-0.19154148,0.24310866,0.15757085,-0.042365097,-0.23949216,-0.15420504,0.1527554,0.00415828,-0.14805484,0.031489205,0.22078386,-0.14876647,-0.1541742,-0.14567731,-0.15998764,-0.175827,0.07746136,-0.087889545,-0.17725812,-0.213519,0.04495748,-0.18031698,-0.12238809,-0.24002317,0.17313018,0.16196369,0.15766604,0.21070653,0.16832863,-0.22651349,-0.17925669,-0.19263524,0.1741897,0.16879334,0.13402764,-0.068930335,0.19138241,-0.16674654,-0.1980075,-0.01665071,-0.20406026,0.18836227,-0.06508725,0.2815941,0.18873744,0.16555369,0.1496,-0.2408504,-0.33950576,-0.13232929,0.045776818,0.20489551,-0.04299888,-0.2411581,0.16012661,0.07236498,0.04680203,0.14822267,-0.06860951,-0.16068438,0.06674622,0.14406359,0.23065919,-0.23774588,-0.108412154,-0.19724642,-0.17367476,0.20684204,-0.13923503,-0.20137237,0.20442097,0.15370195,-0.19137354,-0.18707374,0.042346347,-0.13752344,0.15815978
conf_56,-0.17218146,-0.21736324,0.18314953,0.09739742,0.16172044,0.010272278,0.16599086,0.17342244,-0.123177,-0.01576307,0.14770962,0.16614977,-0.10503463,0.24492526,-0.1912226,0.17698248,-0.057154875,0.108799554,-0.13582005,0.11344145,-0.064475015,-0.24124485,0.07034935,-0.10044512,0.18007316,0.124243714,-0.111065425,-0.18740435,-0.16790563,0.13192478,0.09946963,-0.12865798,0.10711741,0.21452904,-0.05442824,-0.15404499,-0.18934937,-0.18180917,-0.26880112,0.14642985,-0.17136693,-0.20457457,-0.20863272,-0.11210173,-0.25241527,-0.18681054,-0.156318,0.21364313,0.14497982,0.18148452,0.12890933,0.13047835,0.083283864,-0.15476577,-0.15550192,0.29234934,0.2554037,0.17947423,-0.1602993,0.10061908,-0.2089176,-0.21815923,-0.14840043,-0.12125078,0.17180552,-0.10996956,0.2664405,0.15752932,-0.122669086,0.23592146,-0.19909853,-0.0010209617,-0.1535206,-0.23444884,0.159456,-0.18098329,-0.14818548,0.2617329,0.14618395,0.23312311,0.2199595,-0.12750429,-0.12664022,0.22767869,0.12318385,0.21473671,-0.150813,-0.17366652,-0.2014083,-0.18798827,0.21882895,-0.084194295,-0.14921148,0.066547245,0.14953995,-0.22160356,-0.24936782,0.109722935,-0.24344073,-0.2618354
conf_57,-0.038344536,-0.09712667,-0.011197302,-0.105553806,0.19365405,-0.03777232,0.18849924,0.090014584,-0.10289334,-0.121996574,0.10758764,0.13716821,-0.12045135,0.13579705,-0.16451758,0.16431274,0.09247364,-0.11778153,-0.14256209,-0.018714948,0.15391369,-0.2140733,0.1600392,-0.14088064,0.1865845,0.07846197,-0.03971155,-0.17517142,-0.07500475,-0.05870346,-0.00927669,-0.116951175,-0.19436514,0.20867291,-0.3180072,-0.063128754,-0.12943777,-0.084839806,-0.20163147,-0.10282277,-0.12465568,-0.1652675,-0.124785684,0.0748552,-0.1314591,-0.18359669,-0.12000204,0.18129158,0.20315331,0.08434002,0.13096061,0.07042695,-0.2827736,-0.14687052,-0.11931977,0.13723038,0.22135359,0.12592411,-0.048036978,0.0936969,-0.14084415,-0.16748926,-0.07783613,-0.23292111,0.20153604,-0.11691507,0.20052055,0.24581341,0.11180415,0.017998926,-0.10380876,-0.26675346,0.029841812,-0.14233932,0.12977096,0.16003062,-0.14516035,0.106754534,0.26187122,0.05757664,0.12214173,-0.015621302,-0.12882583,0.12606019,0.14608994,0.16368212,-0.041759595,-0.15314597,-0.073402435,-0.15977558,0.07973714,-0.15107453,-0.1588195,0.18997088,0.01867262,-0.096621886,-0.097072154,-0.05907687,-0.025224255,0.17644106
conf_58,-0.20282367,-0.18034036,0.07697793,-0.033151224,0.15730129,0.15711936,0.14685425,0.13197784,-0.23852448,0.05472774,0.18681629,0.11861831,-0.14350389,0.1718263,-0.21007714,0.19407213,-0.078590564,0.18019517,-0.14865723,0.15619011,-0.113587774,-0.15911426,0.067966506,-0.18296896,0.19210415,0.1653872,-0.19735715,-0.16293462,-0.17299289,0.04348272,-0.10345614,-0.1657999,0.0397432,0.16555656,-0.106687404,-0.21394682,-0.19567782,-0.10317716,-0.19398642,0.1079624,-0.09989461,-0.19357428,-0.21357921,-0.07814046,-0.17312814,-0.22705716,-0.15472062,0.08076916,0.14062998,0.19943127,0.08396023,0.13149093,0.097167455,-0.12411067,-0.15823764,0.19836529,0.23134804,0.18109182,-0.14133035,0.20439923,-0.16979668,-0.1332285,-0.20600165,-0.14643334,0.18115734,-0.12295991,0.19137326,0.20833229,-0.10546338,0.13658442,-0.18102781,-0.037972264,-0.011290904,-0.20435245,0.19572979,-0.14877397,-0.2095967,0.14069828,-0.031008627,0.17641483,0.07776613,-0.0333995,-0.105188325,0.18335581,0.10448845,0.15546963,-0.116632685,-0.122727856,-0.15734103,-0.22638401,0.14140639,-0.11816041,-0.14162283,0.053523276,0.18241356,-0.12358241,-0.14024617,0.033777855,-0.17765191,-0.07537668
conf_59,-0.09601754,-0.2070047,0.23243606,-0.23264323,0.04574426,0.03633353,0.16971928,0.18110992,-0.20377982,-0.16292748,0.13797033,0.09397333,-0.18374787,0.17648698,-0.20190753,0.23975697,-0.00979243,0.06796988,-0.2408105,0.08997648,0.031230636,-0.27467284,0.21261425,-0.18494791,0.26803818,0.18856607,-0.133478,-0.14326611,-0.102045335,0.12311421,-0.004832937,-0.24747479,-0.037311967,0.2393336,-0.22545071,-0.1847923,-0.07255798,-0.11804258,-0.21459684,0.21902157,-0.21030192,-0.19479409,-0.07771024,-0.124335065,-0.22544996,-0.14586513,-0.24726348,0.22099763,0.26912728,0.19800669,0.29812387,0.12517667,-0.029401807,-0.24221627,-0.14038852,0.16320013,0.1975796,0.24771385,-0.081153266,0.14534551,-0.15976189,-0.18709208,-0.16851988,-0.18832745,0.20734298,-0.17090142,0.20610878,0.17947383,-0.05583086,0.17050667,-0.17658989,-0.3417288,-0.019569622,-0.16615932,0.19108063,0.030864103,-0.24669783,0.14252096,0.2283611,0.26625517,0.15413338,-0.027716657,-0.19941911,0.22513464,0.20419219,0.19835828,-0.19699252,-0.064323284,-0.1281006,-0.14574832,0.1620666,-0.06637173,-0.3047059,0.22877245,0.16545646,-0.21755381,-0.26031223,0.12578942,-0.1526752,-0.18982969
conf_60,-0.12629506,-0.086048,0.15496954,0.11806248,0.13732046,0.1113672,0.15597455,0.10869513,-0.06141705,-0.0710135,0.04738662,0.16011599,-0.1594951,0.22369623,-0.15995818,0.15797378,-0.004877353,-0.072432436,-0.13561909,0.07928318,-0.0876097,-0.1126856,-0.036733977,-0.12408466,0.16249982,0.16704325,-0.09297231,-0.17016293,-0.09577212,0.14282419,0.07529056,-0.10879427,0.12708382,0.14871655,-0.1459789,-0.12449871,-0.1770886,-0.015558104,-0.15959442,0.1473613,-0.121775776,-0.13416769,-0.31164172,-0.21053624,-0.12942845,-0.12048609,-0.22838414,0.1195464,0.18166725,0.08690029,0.24213842,0.17684928,-0.10595987,-0.19150129,-0.1576891,0.07001734,0.18393527,0.1829829,-0.008374051,0.15120359,-0.1833682,-0.15547279,-0.1686062,-0.17247479,0.2242621,-0.18824421,0.21257077,0.034949526,-0.1152876,0.12886892,-0.14014165,-0.057790894,-0.16312046,0.0045655305,0.15897565,-0.2892591,-0.12500271,0.1345488,0.08558757,0.15406936,0.10380099,0.00027477625,-0.056093477,0.09646222,0.08192913,0.21608692,-0.1285409,-0.05903422,-0.15241504,-0.13736735,0.13869752,-0.1582413,-0.09054486,0.07331648,0.06143394,-0.12524822,-0.07313051,0.09513193,-0.17624167,-0.096971065
conf_61,-0.15802003,-0.19094522,0.06984702,-0.11526195,0.042629257,-0.012030792,0.20996767,0.17442827,-0.12724294,-0.19002545,0.10012898,0.078013256,-0.07393127,0.24968033,-0.1846064,0.15218723,0.014565353,-0.03710472,-0.10789895,0.052791152,0.04065092,-0.17106557,0.16580339,-0.16098587,0.1047952,0.21717091,-0.13221145,-0.14192237,-0.15295075,0.011120912,-0.037926715,-0.13292736,-0.11475708,0.2091847,-0.2666955,-0.19908366,-0.06483717,-0.15403289,-0.116201624,0.26661935,-0.077400185,-0.15183637,-0.004905396,-0.053365007,-0.2339522,-0.1561261,-0.17974287,0.049438134,0.26480782,0.106395796,0.11225934,0.11101917,-0.18337087,-0.061148494,-0.07588181,0.03405825,0.1566807,0.17562565,-0.025766328,0.09725603,-0.07679832,-0.1674243,-0.027962962,-0.172346,0.17413579,-0.15255718,0.16163604,0.09155655,0.012818408,0.18173413,-0.10530649,-0.36930436,-0.08028113,-0.045466423,0.19815043,0.0017786678,-0.21234159,0.08321381,0.18827811,0.13746458,0.084287986,0.0023420104,-0.14144494,0.10914787,0.14444415,0.15553147,-0.17922162,-0.123467594,0.02433833,-0.089767516,0.17437533,-0.10293637,-0.19670042,0.17499827,0.08252125,-0.09352084,-0.09809201,0.09839719,-0.13767956,-0.04276313
conf_62,-0.09007494,-0.025972845,0.09838282,0.12137463,0.17798725,0.09014133,0.28975368,0.19636323,-0.09615176,-0.052086145,0.1165771,0.2338238,-0.108389474,0.08457742,-0.18763115,0.05737237,-0.021632472,0.056618378,-0.026362441,0.10786774,-0.031020246,-0.034090426,-0.028159786,-0.13173854,0.068389945,0.09655423,-0.08829708,-0.134252,-0.13764888,-0.04402948,-0.011060104,-0.11617074,0.028336236,0.15334494,-0.18847167,-0.074125074,-0.14198938,-0.025263263,-0.06943717,-0.098832905,-0.0548028,-0.1722523,-0.28166568,-0.11665276,-0.098026484,-0.1332507,-0.12633322,0.03780521,0.20458625,0.08614044,0.097496666,0.13927901,-0.21654795,-0.17523195,-0.070439465,0.101297155,0.19978787,0.15182708,-0.06879628,0.1682871,-0.21777523,-0.1143822,-0.073148794,-0.117060475,0.13988675,-0.1595861,0.15850204,0.06678868,-0.055996675,0.12194973,-0.15447731,0.051304813,-0.10075104,-0.15470526,0.19179967,-0.04624204,-0.16267797,0.117264934,0.22930184,0.049062338,0.15742286,0.13964517,-0.18642162,0.1109485,0.0640617,0.19308235,-0.09508102,-0.1579239,-0.07469048,-0.26803258,0.12808748,-0.099998035,-0.13076855,0.057841167,0.060213305,-0.1091995,-0.12156568,0.06634565,-0.15192392,-0.10367647
conf_63,-0.04520618,-0.14356579,0.08428266,-0.10962227,0.037373044,0.08625574,0.1470557,0.13106592,-0.23542252,-0.2146768,0.16549574,0.080705896,-0.16581711,0.19235498,-0.16136123,0.24373488,0.13922277,0.054386184,-0.22600016,0.16951111,0.19366287,-0.14526844,0.14903972,-0.22731252,0.15341133,0.13662277,-0.20599152,-0.22152118,-0.12889202,0.09312731,0.19412795,-0.24004029,-0.03882028,0.2599559,-0.18582457,-0.17767277,-0.15052864,-0.1437718,-0.12951942,0.19893783,-0.16094847,-0.24311766,-0.20440304,0.02300079,-0.2110065,-0.13833587,-0.28141323,0.15717411,0.21210016,0.22524865,0.1315432,0.18378006,-0.14203525,-0.19394207,-0.2735091,0.15746267,0.20573924,0.19952503,-0.057113025,0.15997443,-0.2583706,-0.18028478,-0.11286948,-0.12773651,0.2643287,-0.14964996,0.1793574,0.28513965,0.11220515,0.19814444,-0.17955327,-0.29923844,-0.10174495,-0.12812491,0.18802209,0.06210455,-0.1196853,0.13860254,0.17294225,0.24311522,0.16616862,0.050834313,-0.20786135,0.14991112,0.1152236,0.14800705,-0.15027352,-0.21092534,-0.1214454,-0.1710934,0.20939489,-0.042769264,-0.2041116,0.18037476,0.050894912,-0.29870504,-0.16287334,0.13808137,-0.09074703,-0.07131558
conf_64,-0.22720999,-0.1910388,0.0357454,0.038779236,0.108432695,0.09522478,0.17754848,0.1567669,-0.20140113,-0.13923264,0.094013125,0.16496006,-0.12678123,0.18690588,-0.18419755,0.14898972,0.0075484402,0.18285553,-0.13403855,0.14502575,-0.16214816,-0.17056045,0.14904074,-0.17066883,0.12532137,0.15084545,-0.11819278,-0.12996653,-0.2427833,0.15203443,0.06783728,-0.10821728,0.25241414,0.08736982,-0.11540517,-0.118258394,-0.17679761,-0.110779464,-0.16853042,0.049467936,-0.118112,-0.21901788,-0.2712109,-0.15393485,-0.19738296,-0.2391294,-0.10477735,0.15653114,0.21153389,0.120674364,0.19013283,0.050788883,-0.0624608,-0.18045688,-0.14977047,0.17675368,0.19366512,0.12011252,-0.13014707,0.06359037,-0.18111135,-0.17295858,-0.13664463,-0.17501687,0.20098127,-0.1713019,0.16065462,0.14937165,-0.13014527,0.09350585,-0.16697882,-0.008486982,0.025622018,-0.24699907,0.20360872,-0.25363934,-0.24013978,0.12024884,0.17220594,0.14341584,0.19347765,-0.04867311,-0.1601399,0.19805166,0.14624646,0.08580477,-0.11526878,-0.18871066,-0.11700213,-0.21266316,0.0127574215,-0.085269585,-0.09994448,-0.0061548073,0.13471098,-0.13684785,-0.12380235,0.20456669,-0.18971755,-0.18255891
conf_65,-0.17206456,-0.09955403,0.0914798,-0.012685518,0.16973664,0.06576134,0.12023188,0.22348091,-0.10155054,-0.24469893,0.19854964,0.14375353,-0.1662591,0.19359656,-0.16697681,0.17891948,0.17461525,-0.12006602,-0.23781995,0.0650989,-0.0024798508,-0.26933864,0.14517166,-0.17762576,0.22655901,0.20266908,-0.24691519,-0.1607577,-0.13411243,0.18148734,0.21566196,-0.2124424,0.04102635,0.22874115,-0.24161977,-0.24009702,-0.15312354,-0.19193602,-0.15969442,0.17335677,-0.13470471,-0.2961365,-0.11647768,-0.099460155,-0.23936783,-0.25340426,-0.17313856,0.23257113,0.21758881,0.123927735,0.100173436,0.13749237,-0.038899854,-0.14525026,-0.19602941,0.19494003,0.28492814,0.24371326,-0.1378307,0.13017786,-0.14140527,-0.28599948,-0.08477119,-0.07375226,0.22154967,-0.07521817,0.2626326,0.2661027,0.016941113,0.18411535,-0.13719407,-0.23854703,-0.053862248,-0.116871126,0.22151731,0.05010111,-0.2915441,0.1349674,0.16517265,0.20311503,0.084628984,-0.10229388,-0.22638486,0.18414585,0.16069992,0.20744492,-0.06596999,-0.14260447,0.02156213,-0.14798623,0.23086067,0.1039885,-0.2693165,0.19775759,0.1833076,-0.22843327,-0.15232645,0.13573293,-0.20553093,0.020846862
conf_66,-0.12849839,-0.14577754,0.084441476,-0.014941085,0.07249214,0.099518895,0.1681252,0.16913384,-0.12718289,-0.026350848,0.17919667,0.16800015,-0.22346431,0.13380055,-0.15182477,0.13325122,0.0010652983,0.06756235,-0.19407295,0.10059521,-0.0050581675,-0.0564185,0.10346293,-0.15394723,0.1676278,0.19597293,-0.088004865,-0.059770048,-0.13874918,0.1470307,0.112946674,-0.1310725,0.091771334,0.17513974,-0.09985596,-0.1687682,-0.21233068,-0.13295615,-0.18703131,0.2639159,-0.13924636,-0.16666934,-0.1815851,-0.160955,-0.123071484,-0.14191839,-0.14545244,0.21380119,0.18981236,0.13095228,0.15996134,0.14448735,-0.10878925,-0.17563753,-0.06831764,0.18093407,0.2231698,0.18824734,-0.09349219,0.15851489,-0.12601702,-0.10622774,-0.056919415,-0.19717743,0.18355837,-0.14375196,0.14274395,0.06569185,0.02044773,0.13128895,-0.19156834,0.12569956,-0.25008467,-0.09318416,0.1923271,-0.10922368,-0.13448507,0.114467636,0.041449375,0.14185517,0.08879576,0.034608502,-0.11231616,0.116913944,0.18753308,0.15918677,-0.043689273,-0.058374543,-0.15123403,-0.19332698,0.11810041,-0.21893337,-0.121470235,0.14407308,0.13968949,-0.06941078,-0.09711393,0.08503355,-0.2042865,-0.12443255
conf_67,-0.1367418,-0.08105105,-0.023859216,0.1401485,0.16372816,0.054285586,0.18231604,0.17722993,-0.12474595,-0.021420578,0.096849054,0.14676486,-0.02449683,0.04829271,-0.32622504,0.20044747,0.05449666,-0.007641408,-0.11431602,0.07664666,0.13134141,-0.14042345,0.18922849,-0.0958427,0.15751952,0.11169848,-0.05353502,-0.078082405,-0.092293955,-0.07128085,0.0030119799,-0.16717587,-0.15567023,0.14797293,-0.103445835,-0.14293237,-0.11813671,-0.1259648,-0.19392784,0.19733982,-0.027775703,-0.19329807,-0.09885347,0.018667022,-0.02903003,-0.21198903,-0.05911335,0.068950176,0.26973352,0.14228882,0.104087085,0.11904999,-0.12689333,-0.07887558,-0.12040404,0.09241984,0.15862371,0.12352803,-0.087720916,0.1506196,-0.13291386,-0.18427588,-0.09656572,-0.14508948,0.14720772,-0.14049514,0.09325867,0.1583754,0.13756162,0.04523974,-0.12874037,-0.14924598,0.061345935,-0.15463142,0.1516278,0.077992104,-0.14843197,0.11313788,0.1067625,0.14925592,0.1008462,-0.0015909265,-0.19363648,0.18543003,-0.008589619,0.13633752,-0.097219355,-0.14804538,0.115601346,-0.13590704,0.084053166,-0.16794854,-0.15876773,0.09355707,0.058530297,-0.122710176,-0.04417391,0.01199538,-0.029356489,0.021190709
conf_68,-0.11742162,-0.15291066,0.01790764,-0.07934767,0.15562578,0.07130267,0.20732476,0.20722781,-0.13149689,-0.16265778,0.1548997,0.14966205,-0.07537778,0.19285262,-0.16778499,0.06972191,0.011318697,0.15305786,-0.15321203,-0.019809963,-0.054895844,-0.1812515,-0.113235064,-0.140191,0.12885496,0.15245207,-0.19462547,-0.08349233,-0.17749201,0.079892546,0.11326879,-0.109067924,0.1156968,0.087514184,-0.10771419,-0.15870616,-0.19255354,-0.1004476,-0.11687663,0.21925667,-0.07725397,-0.13654883,-0.20419176,-0.2604356,-0.12010853,-0.23043638,-0.21289554,0.16888757,0.17520349,0.10129751,0.16055743,0.17239478,-0.04091649,-0.23208568,-0.13037188,0.20809317,0.17803368,0.14197756,-0.2133609,0.13728823,-0.14586571,-0.1459555,-0.19878432,-0.20300926,0.11021793,-0.18853708,0.23128559,0.13687456,-0.06524289,0.101862155,-0.1897679,-0.0057212026,-0.104927525,-0.097286,0.21154328,-0.14523646,-0.16699643,0.11488631,0.11558935,0.12754413,0.13068284,0.04960168,-0.08470131,0.20504704,0.064643525,0.13387406,-0.15280116,-0.1378091,-0.13187778,-0.14236781,0.22615705,-0.06997461,-0.2366211,0.03147106,0.0752962,-0.18121,-0.12173074,0.15754339,-0.17996325,-0.09270218
conf_69,-0.13667183,-0.15396315,0.116713926,-0.13498072,0.118500374,0.15794599,0.12661506,0.19958255,-0.13395056,-0.123913065,0.24215126,0.09833628,-0.1721957,0.23602486,-0.17091814,0.13494681,0.008051023,-0.044259127,-0.29164726,0.11537543,-0.1268658,-0.22569644,0.27524185,-0.15414369,0.1909492,0.0839173,-0.13678047,-0.11815592,-0.120514475,0.098706245,0.12397342,-0.183127,-0.0065954747,0.24264775,-0.29339635,-0.18015659,-0.08264227,-0.19467905,-0.13297802,0.224615,-0.14352508,-0.21734603,-0.16301565,-0.042835657,-0.08727258,-0.21256481,-0.1675838,0.10409766,0.30102834,0.19229913,0.16192934,0.19162989,-0.042973682,-0.12860999,-0.22231703,0.14417054,0.26568216,0.27181464,-0.00011787449,0.26303047,-0.263238,-0.20231369,-0.18817659,-0.10153344,0.22037077,-0.078165896,0.16308448,0.3206852,0.09684026,0.18866691,-0.16723192,-0.29627913,-0.06990681,-0.14590769,0.20279074,0.004430562,-0.23181422,0.19791785,0.115323566,0.26839465,0.19149517,-0.0023675545,-0.29044232,0.16190793,0.17856675,0.14149621,-0.059491355,-0.22899613,-0.08847526,-0.12639835,0.032687888,-0.12119694,-0.23402143,0.29567516,0.123385146,-0.12087549,-0.18553744,0.12298373,-0.15027228,0.02377195
conf_70,-0.124088585,-0.14728817,0.20871687,-0.069009736,0.1459991,0.11118039,0.16684245,0.22502884,-0.24365243,-0.046616945,0.2264213,0.15796605,-0.2130873,0.2567033,-0.1282144,0.2332454,-0.09421865,0.049815223,-0.21351393,0.12605539,-0.09798282,-0.24543697,0.13192484,-0.14667735,0.21375753,0.15444939,-0.14335197,-0.17482914,-0.18024732,0.11744082,0.040675256,-0.22888596,0.2125548,0.17539434,-0.23682755,-0.10302462,-0.15415415,-0.14571145,-0.25126266,0.078093894,-0.153905,-0.3040849,-0.17300603,-0.12701342,-0.1512735,-0.2019511,-0.29935804,0.15337396,0.15561746,0.17563768,0.18615472,0.13160415,-0.15796196,-0.22178158,-0.08740981,0.2659129,0.21412937,0.15649588,-0.14664972,0.1547436,-0.3067256,-0.20459297,-0.11492415,-0.23710003,0.17906828,-0.17922637,0.19885057,0.14078447,-0.09090443,0.26198977,-0.16501427,-0.08861959,-0.17092428,-0.14363635,0.18361829,-0.21185118,-0.17553477,0.18871048,0.0076500652,0.24287653,0.2458568,-0.054621756,-0.19858675,0.24006243,0.30078822,0.20350805,-0.12271644,-0.20010397,-0.13587226,-0.2369194,0.11613176,-0.25428957,-0.1127107,0.13266763,0.15995839,-0.20081086,-0.19595982,0.14402243,-0.28299716,-0.15171887
conf_71,-0.12746908,-0.1279261,0.12861258,-0.07059077,0.1314456,0.11648052,0.17030968,0.19950394,-0.15517163,-0.035154913,0.12676087,0.1820265,-0.22504957,0.15400162,-0.20554034,0.15731342,-0.032975435,-0.07803804,-0.18965204,0.13691263,0.10606927,-0.20000803,0.1583283,-0.2212683,0.11026156,0.18212757,-0.26483947,-0.19244029,-0.18745503,0.159402,0.033441447,-0.20572038,-0.00097362057,0.13711911,-0.22042346,-0.15758228,-0.10403647,-0.13887109,-0.16307563,0.12473862,-0.097525455,-0.2699506,-0.049346592,-0.03519679,-0.17038225,-0.22554699,-0.21465582,0.1616827,0.23759843,0.17826112,0.17539017,0.15461823,-0.11146676,-0.1553843,-0.14513297,0.16677505,0.2380383,0.16348433,-0.11172694,0.13645104,-0.19947708,-0.21690786,-0.19475326,-0.14895909,0.21474798,-0.033036333,0.14995855,0.24442594,-0.017390799,0.14315726,-0.16195868,-0.35977548,0.035250217,-0.09610303,0.23808955,0.14253585,-0.1906238,0.11810664,0.17250237,0.16067386,0.107608445,-0.06746233,-0.22112794,0.2498904,0.16170107,0.099854715,-0.15279214,-0.18023938,-0.1221394,-0.20265594,0.18041708,0.036773045,-0.19171557,0.2331126,0.16218679,-0.21809909,-0.09700548,0.08523886,-0.15572636,0.011381414
conf_72,-0.19324005,-0.1992818,0.12691745,0.09183921,0.11987223,0.08426229,0.17631288,0.14092648,-0.07190908,-0.039017696,0.06179449,0.10384028,-0.20044193,0.20913903,-0.24481893,0.15749392,-0.080903925,0.12746848,-0.07003797,0.14695485,0.10010673,-0.16443601,0.11048284,-0.083540894,0.13946672,0.23577486,-0.17015384,-0.10317936,-0.16615312,0.035259627,0.014824853,-0.11255205,0.1492078,0.18232115,-0.14753166,-0.1048051,-0.16265075,-0.11498465,-0.17134878,0.11424827,-0.160169,-0.097562715,-0.25180295,-0.12245496,-0.0954374,-0.28232843,-0.0386419,0.10637486,0.20743802,0.1451105,0.12749128,0.1299116,-0.034851797,-0.17484164,-0.21481422,0.07208923,0.1861514,0.07218898,-0.05944923,0.1649135,-0.18377177,-0.036893394,-0.13020141,-0.18523102,0.1731154,-0.124388956,0.18798612,0.09220762,-0.062078442,0.062061563,-0.13038553,0.074330516,-0.15774658,-0.03633622,0.18664013,-0.18778135,-0.17954351,0.07669364,0.22345017,0.1509986,0.16914113,-0.09913709,-0.063336216,0.19049083,0.08614841,0.15156041,-0.045469336,-0.14159022,-0.10964223,-0.10684895,0.06353224,-0.18731205,-0.17772952,0.106095985,0.04002838,-0.15235366,-0.05005256,0.07343998,-0.08660613,-0.13534197
conf_73,-0.14588955,-0.13318247,-0.034341354,0.053357705,0.08152589,-0.048215378,0.17841002,0.10102746,-0.11801202,-0.25609505,0.07481159,0.15028328,-0.054740384,0.18585509,-0.17647475,0.12058253,0.12028042,-0.02043856,-0.189085,0.09417245,0.009432642,-0.10762301,0.12526792,-0.12040353,0.19565696,0.11550004,-0.10217482,-0.0993987,-0.15831564,-0.049519353,0.011522111,-0.10980275,-0.09737498,0.18732652,-0.23817836,-0.19780427,-0.09211442,-0.13927515,-0.19513205,0.039078917,-0.05579363,-0.15072003,-0.14682084,0.17629673,-0.09399952,-0.21611857,-0.12548257,0.11205005,0.14796881,0.1694551,0.1688425,0.13792232,-0.086266086,-0.15017603,-0.092542715,0.09724456,0.2455231,0.07958126,-0.044606026,0.052633468,-0.10694749,-0.22662361,-0.10879255,-0.2103482,0.155525,-0.118049845,0.19959553,0.19445373,0.17968144,0.0629943,-0.1076066,-0.29003268,0.054928474,-0.051462065,0.13609052,0.08099876,-0.17536867,0.14366081,0.217478,0.21001177,0.2129431,-0.1243133,-0.19352773,0.16742644,0.068623155,0.18876234,-0.06258263,-0.16295311,0.018536057,-0.13998184,0.17777915,-0.18479106,-0.28077686,0.11686266,0.05712032,-0.1963451,-0.09484954,0.2132904,-0.14309183,-0.028593149
conf_74,-0.24147922,-0.17732778,0.06375907,-0.0041832486,0.21456464,0.14919262,0.2074362,0.1893187,-0.09539582,-0.038679652,0.13222116,0.23892052,-0.19534077,0.11176792,-0.25767484,0.21479179,0.107325554,-0.095865555,-0.21183047,0.117716506,-0.054050896,-0.17066686,0.04578665,-0.1445879,0.17892493,0.16084822,-0.12170083,-0.08273809,-0.22536282,0.030605402,0.06580638,-0.11971666,0.100841135,0.0729221,-0.1004598,-0.19494332,-0.18313704,-0.09360663,-0.18315074,0.008797915,-0.09108537,-0.13213395,-0.26679862,-0.16566016,-0.093327284,-0.17022634,-0.025640797,0.07378746,0.09013739,0.12624365,0.10986934,0.06747583,-0.2131203,-0.12852833,-0.20113423,0.07186925,0.15703726,0.13874406,-0.07863725,0.07691974,-0.12169661,-0.09613982,-0.17567937,-0.17029114,0.13354094,-0.14018391,0.11177317,0.090534404,0.046216037,0.08313975,-0.16249402,-0.09356954,-0.15053634,-0.12299338,0.17838031,-0.0891798,-0.20911315,0.115461,0.06946392,0.1028236,0.12821092,-0.121127464,-0.1252467,0.1913434,0.16553405,0.18081029,-0.11195053,-0.23807344,-0.1383416,-0.16148798,0.06953645,-0.13408479,-0.20228976,0.05685939,0.0743066,-0.13755524,-0.11160958,0.028688574,-0.19941445,-0.15887408
conf_75,-0.13765322,-0.1879386,0.19972856,-0.016665174,0.13691999,0.04380371,0.18716818,0.1358206,-0.093378,-0.23543158,0.08731471,0.17086841,-0.2521383,0.20352075,-0.1679671,0.17200273,0.15957926,-0.06588453,-0.2895106,0.091452435,-0.13000645,-0.28974116,0.117072016,-0.23194624,0.23514256,0.20134592,-0.17899315,-0.18493903,-0.16381897,0.067072466,0.07487053,-0.23707765,0.025096789,0.25866115,-0.234896,-0.14186268,-0.059585065,-0.21865122,-0.27194202,0.2342087,-0.21898769,-0.30379403,-0.068694405,-0.03356736,-0.14808398,-0.18086728,-0.23848104,0.20211335,0.25013533,0.20675594,0.1621817,0.22389336,-0.04743317,-0.23836255,-0.24440533,0.20426781,0.30542094,0.119828805,-0.18891725,0.22927657,-0.25833258,-0.20405346,-0.14184746,-0.24555992,0.23326442,-0.09732327,0.20360677,0.20660086,0.016641613,0.28317696,-0.20251112,-0.28780493,-0.14701411,-0.16427255,0.25700095,0.0868213,-0.1691903,0.12972932,0.27046064,0.21129324,0.16710341,0.0023491185,-0.3355253,0.16705841,0.11194468,0.07866407,-0.1309955,-0.13020304,-0.14066659,-0.18450794,0.09310568,-0.17455898,-0.31725815,0.29820096,0.13328604,-0.18932958,-0.16527967,0.16925922,-0.10988102,-0.066204436
conf_76,-0.10131318,-0.05028769,0.019811414,0.09953729,0.15447728,0.006934268,0.25673383,0.1475544,-0.083475254,-0.030825993,0.08480007,0.23607118,-0.17848615,0.13998677,-0.051213127,0.11102342,0.0029710906,0.06410955,-0.18898834,0.055281863,0.010048035,-0.2330484,0.16665289,-0.1359277,0.0817788,0.18685624,-0.14238954,-0.1343175,-0.076230325,-0.008184419,0.17056455,-0.18113112,0.070085764,0.17726566,-0.07096592,-0.14111108,-0.12743212,-0.066751,-0.18671153,0.120757945,-0.12851238,-0.09787406,-0.16849366,-0.0048472653,-0.17965466,-0.094503626,-0.077830076,0.10883964,0.20476618,0.120407954,0.16800444,0.09702228,-0.09815776,-0.112311125,-0.18574704,0.14044702,0.18521678,0.212845,-0.056768738,0.12907238,-0.21567884,-0.0822735,-0.118109494,-0.009970575,0.15187718,-0.18021807,0.10715735,0.1073948,0.022643616,0.06799705,-0.16987766,-0.20052697,-0.05253848,-0.08551509,0.24519221,0.1085668,-0.17504404,0.11166325,0.09895742,0.13656017,-0.055262234,0.0126769785,-0.16879675,0.16828893,0.19367461,0.19709386,-0.21024777,-0.16925885,-0.22743128,-0.15058129,0.08913524,-0.113223545,-0.09139572,0.03375954,0.061758246,-0.13941741,-0.14204122,0.07567816,-0.1217543,-0.0998191
conf_77,-0.05459906,-0.09438576,0.13835144,-0.07680332,0.05145749,-0.040083695,0.07565072,0.07669633,-0.048409134,-0.1623832,0.051550265,0.117835276,-0.12517494,0.23314483,-0.1487325,0.13964412,0.1911304,-0.114446275,-0.23163186,-0.050796818,-0.0531216,-0.16936684,0.18769768,-0.24406026,0.17657888,0.14685626,-0.19278857,-0.16091473,-0.13616021,-0.0670457,0.23779969,-0.21383208,-0.15143378,0.15787518,-0.20920889,-0.05691835,-0.10886811,-0.15729795,-0.25117934,0.110985845,-0.05214838,-0.18527827,-0.08980852,0.13959333,-0.14554238,-0.19421871,-0.0066060224,0.030264772,0.26291668,0.08322517,0.14318362,0.11357785,-0.17243928,-0.14213564,-0.13640337,0.121976145,0.14988196,0.1960283,-0.026873818,0.20995112,-0.14452896,-0.15081237,-0.08412486,-0.105941005,0.22816423,-0.08950011,0.21180372,0.23076648,-0.08658478,0.14626516,-0.09003003,-0.3458137,0.06890966,-0.12025891,0.17442445,-0.063729025,-0.21475506,0.17145944,0.18725869,0.041342843,0.08325965,-0.10078849,-0.23836754,0.23508933,0.013700961,0.14020005,-0.097429864,-0.15406382,-0.0046555786,-0.122934684,0.16272172,-0.14902934,-0.2726234,0.16567396,-0.02774677,-0.19840808,-0.18853585,0.007842035,-0.07519893,0.08720337
conf_78,-0.15308177,-0.15197091,0.13690747,0.08710193,0.17679049,0.091505,0.2233942,0.11240667,-0.17830037,-0.0076801963,0.2044614,0.19525151,-0.17087701,0.24380603,-0.15134795,0.23630051,-0.14856412,0.12213706,-0.11756202,0.12801082,-0.16211283,-0.1037796,0.15428472,-0.12926163,0.14876996,0.26430994,-0.22104093,-0.16897878,-0.12420231,0.14608678,-0.03070538,-0.20796955,0.20177834,0.2115743,-0.031506885,-0.16879848,-0.18814234,-0.09632013,-0.17349292,0.035217028,-0.19363002,-0.066953376,-0.17037888,-0.019176917,-0.14080912,-0.23059577,-0.11943798,0.1474092,0.25377166,0.12953037,0.15289944,0.10318041,-0.21482444,-0.108277634,-0.16427043,0.14032634,0.2429021,0.20086835,-0.15667716,0.1792973,-0.20383444,-0.17218195,-0.10735275,-0.17261252,0.20336741,-0.14123175,0.21165472,0.11846977,-0.14120035,0.13458245,-0.15632196,0.07297952,-0.12502368,-0.21835023,0.10962172,-0.19218712,-0.22375879,0.08343546,0.19515465,0.094652876,0.1562123,-0.22781342,-0.05932559,0.15444088,0.20995441,0.114180416,-0.06365973,-0.061744668,-0.17978545,-0.18182501,0.020515982,-0.1521661,-0.18111104,0.14639309,0.13809924,-0.1685518,-0.16365765,0.1673848,-0.23871571,-0.18089922
conf_79,-0.052403025,-0.057917256,0.14780901,-0.016436368,0.17340305,0.15440738,0.27928865,0.14644395,-0.21711513,-0.060202707,0.15419823,0.05587789,-0.10431986,0.17998566,-0.18156268,0.16169624,-0.03839872,-0.04297113,-0.2444967,0.10014937,0.1493558,-0.20380653,0.14981103,-0.08174581,0.116926,0.09318325,-0.17963484,-0.22123784,-0.17395215,-0.023237174,0.01137563,-0.17964087,-0.09315402,0.23140694,-0.18003294,-0.08194507,-0.04911112,-0.16173188,-0.12171551,0.16502917,-0.17202027,-0.223624,-0.009366312,-0.08822492,-0.20837227,-0.21881698,-0.27588132,0.08575218,0.20788048,0.25024313,0.09940743,0.18460456,0.019229004,-0.14073113,-0.18854524,0.058865584,0.16886838,0.03638959,-0.08300357,0.16616878,-0.13190275,-0.15477514,0.022832671,-0.1965957,0.1977365,-0.15576816,0.15974057,0.24711989,0.18497227,0.04256971,-0.16336791,-0.21587764,-0.0246151,-0.02107482,0.22624552,0.13270499,-0.18439744,0.09395945,0.14712058,0.17645867,0.11766078,-0.1474132,-0.22702014,0.1414149,0.13837022,0.1560274,-0.11019723,-0.100990206,-0.103008054,-0.0513737,0.19519055,-0.25847095,-0.19188565,0.24801886,0.16651884,-0.18599729,-0.1143573,0.011878896,-0.11911363,-0.06503677
conf_80,-0.15202366,-0.21157743,0.11564377,0.0077619897,0.20581263,0.083794326,0.17580944,0.1741025,-0.13675591,0.017293332,0.09716732,0.16112295,-0.19044414,0.122125715,-0.057775345,0.191704,-0.007404976,0.15222538,-0.13143854,0.09247624,-0.09005816,-0.15511063,0.037581533,-0.17973943,0.192994,0.22399738,-0.16466807,-0.13909775,-0.21504581,0.11929065,0.06407682,-0.14338723,0.17075622,0.17910162,-0.07873051,-0.22727497,-0.1908784,-0.1511069,-0.1623415,0.057768814,-0.13020402,-0.15390559,-0.2423955,-0.07762939,-0.15880042,-0.22988072,-0.23512004,0.14156196,0.21791784,0.24102247,0.18277636,0.11973299,0.09828328,-0.16297935,-0.15357298,0.17572127,0.22724906,0.12980382,-0.21884125,0.14772923,-0.18883364,-0.2052642,-0.19019395,-0.1675685,0.21552125,-0.2103142,0.23599744,0.14663379,-0.08644005,0.14493056,-0.23477711,0.016361492,-0.27454484,-0.13014556,0.18547033,-0.11602148,-0.21731184,0.15132403,7.113295e-05,0.14580756,0.13206685,-0.087250955,-0.12619084,0.17493528,0.112735555,0.2532034,-0.119047195,-0.2527642,-0.1779757,-0.14089182,0.22004968,-0.20523137,-0.21639037,0.13316296,0.17256318,-0.19170253,-0.2523569,0.13546073,-0.22654185,-0.13114385
conf_81,-0.03427614,-0.12708476,0.058748502,-0.013867132,0.11941692,0.07076059,0.11010839,0.19586003,-0.14942868,-0.06892264,0.116888195,0.15819325,-0.13840947,0.12005461,-0.11609954,0.19753541,0.08763961,-0.09295524,-0.13819371,0.049284425,0.04761637,-0.20711718,0.27940902,-0.19445544,0.07569392,0.14489561,-0.048516475,-0.11356493,-0.09317968,0.002965339,0.08713482,-0.20587781,-0.017683802,0.1554406,-0.19983271,-0.07002886,-0.16326632,-0.1204872,-0.15733834,0.08114135,-0.11574395,-0.038496614,-0.14523652,-0.05148922,-0.18810569,-0.1039353,-0.15929346,0.13159,0.15468226,0.17989834,0.1536461,0.09808316,-0.1581963,-0.058594216,-0.13183571,0.04364757,0.15386498,0.086726725,-0.056554455,0.059512824,-0.13807967,-0.08125274,-0.07235567,-0.1456262,0.20358248,-0.109565966,0.20725405,0.22500925,0.10960879,0.103511676,-0.17317712,-0.21182987,0.1252794,-0.1479945,0.15465787,0.091762,-0.16253169,0.082037054,0.2504828,0.035335828,0.19991298,0.016139075,-0.16593446,0.16524556,0.09150621,0.15714395,-0.08112654,-0.2159354,-0.056066066,-0.17645806,0.034165382,-0.12229711,-0.17356037,0.17088047,0.022091957,-0.11856103,-0.16184263,0.07402605,-0.13740906,-0.009140753
conf_82,-0.17341994,-0.077380076,0.16892953,0.09747346,0.20275441,0.055840846,0.10778441,0.17785802,-0.2168828,-0.0006147434,0.081153244,0.13880065,-0.1390652,0.14310724,-0.10890129,0.21684723,-0.14381813,-0.032045342,-0.11038354,0.052578464,-0.03831233,-0.22536151,0.103842646,-0.20528795,0.12507172,0.1491331,-0.15327053,-0.13411531,-0.2211271,0.111981705,0.12590216,-0.059414703,0.09817589,0.20245874,-0.040389534,-0.16669886,-0.17496675,0.002921062,-0.20897982,0.16208838,-0.06922776,-0.06338088,-0.16520524,-0.022919754,-0.09050153,-0.14921916,-0.21875049,0.10674196,0.22660908,0.17504093,0.117234476,-0.008945351,0.003982577,-0.18268561,-0.08693366,0.1255148,0.116690286,0.07649726,0.011997889,0.08749104,-0.11712273,-0.080623485,-0.094779976,-0.11316221,0.14307,-0.18877076,0.121657394,0.21109353,-0.048480067,0.1372406,-0.113979906,-0.16594398,0.08595654,-0.004100791,0.17192668,-0.07335373,-0.20457204,0.15616603,0.0947478,0.11752912,-0.048258465,-0.076495215,-0.09104369,0.1451979,0.06401732,0.14884375,-0.15617606,-0.14128524,-0.20006196,-0.111691974,0.08996221,-0.19158454,-0.189149,0.10468272,0.12978677,-0.18496083,-0.10587623,0.096689865,-0.11128805,-0.06188007
conf_83,-0.13018684,-0.15425414,-0.022309171,-0.035586122,0.12406622,0.13329548,0.19977438,0.19877625,-0.09459322,-0.23246638,0.13385645,0.13879944,-0.15459608,0.043599498,-0.25001284,0.10456512,0.036864344,0.06283314,-0.23971085,0.04259718,0.121590056,-0.1825542,0.08941012,-0.06776662,0.073597774,0.1287921,-0.11052751,-0.20148604,-0.105654314,-0.06981828,-0.05088376,-0.17856613,-0.031244872,0.113621145,-0.10910746,-0.080617495,-0.05695732,-0.15451452,-0.15805763,0.16391988,-0.031869,-0.16365886,-0.030940264,0.10652405,-0.15811084,-0.2914888,-0.10429924,0.12253302,0.278828,0.07924628,0.17596097,0.030486409,-0.1537931,-0.12768002,-0.18992911,0.095258266,0.15741046,0.08197201,-0.0130453715,0.032451376,-0.11434754,-0.17377132,-0.10654508,-0.15961696,0.14559758,-0.12319464,0.18651353,0.20987763,-0.00082742725,0.017445516,-0.20948349,-0.33959877,0.14008996,-0.08651824,0.1428916,0.18570454,-0.1551511,0.13835886,0.13644384,0.19433784,0.11374301,-0.1326595,-0.17756027,0.19879146,0.1634839,0.12913784,-0.11379424,-0.109114945,0.0058482336,-0.06862291,0.05375737,-0.1893905,-0.23128487,0.15765744,0.088467866,-0.09763571,-0.10660165,0.078694865,-0.044691827,0.009572494
conf_84,-0.19164291,-0.11353724,0.07814479,-0.07087145,0.22137633,0.04275816,0.18329212,0.20462213,-0.19152087,-0.1416388,0.061157897,0.12715954,-0.24953577,0.17638545,-0.12820104,0.145325,-0.047353942,-0.019484213,-0.12208824,0.06842522,-0.08943562,-0.1979113,0.16896531,-0.16369347,0.16246215,0.16712628,-0.20327935,-0.2439968,-0.10731494,0.05275332,0.14025578,-0.16570774,0.15449074,0.18296024,-0.13864903,-0.16549315,-0.17594144,-0.24169767,-0.175233,0.2671888,-0.13869944,-0.22677103,-0.24463536,-0.058778334,-0.22662592,-0.20424752,-0.15679362,0.19623591,0.22095473,0.15273596,0.25089824,0.19684416,0.0152120795,-0.19121608,-0.17999026,0.1513898,0.24839316,0.14723176,-0.19391266,0.18158695,-0.16426583,-0.21447241,-0.12159198,-0.09400504,0.21820042,-0.0787946,0.25427306,0.109348,-0.07275206,0.15979645,-0.2299998,-0.16728038,-0.28467926,-0.16002268,0.23636101,-0.283256,-0.24212244,0.24024957,0.16166194,0.095931254,0.09029602,-0.14456227,-0.17271198,0.15343863,0.24984968,0.14985389,-0.12192235,-0.017157478,-0.112793654,-0.09433043,0.21900058,-0.11877302,-0.13629933,0.2189987,0.12491098,-0.20926979,-0.20367457,0.13982391,-0.14908868,-0.09855798
