problem,p_0,p_1,p_2,p_3,p_4,p_5,p_6,p_7,p_8,p_9,p_10,p_11,p_12,p_13,p_14,p_15,p_16,p_17,p_18,p_19,p_20,p_21,p_22,p_23,p_24,p_25,p_26,p_27,p_28,p_29,p_30,p_31,p_32,p_33,p_34,p_35,p_36,p_37,p_38,p_39,p_40,p_41,p_42,p_43,p_44,p_45,p_46,p_47,p_48,p_49,p_50,p_51,p_52,p_53,p_54,p_55,p_56,p_57,p_58,p_59,p_60,p_61,p_62,p_63,p_64,p_65,p_66,p_67,p_68,p_69,p_70,p_71,p_72,p_73,p_74,p_75,p_76,p_77,p_78,p_79,p_80,p_81,p_82,p_83,p_84,p_85,p_86,p_87,p_88,p_89,p_90,p_91,p_92,p_93,p_94,p_95,p_96,p_97,p_98,p_99,p_100,p_101,p_102,p_103,p_104,p_105,p_106,p_107,p_108,p_109,p_110,p_111,p_112,p_113,p_114,p_115,p_116,p_117,p_118,p_119,p_120,p_121,p_122,p_123,p_124,p_125,p_126,p_127,p_128,p_129,p_130,p_131,p_132,p_133,p_134,p_135,p_136,p_137,p_138,p_139,p_140,p_141,p_142,p_143,p_144,p_145,p_146,p_147,p_148,p_149,p_150,p_151,p_152,p_153,p_154,p_155,p_156,p_157,p_158,p_159,p_160,p_161,p_162,p_163,p_164,p_165,p_166,p_167,p_168,p_169,p_170,p_171,p_172,p_173,p_174,p_175,p_176,p_177,p_178,p_179,p_180,p_181,p_182,p_183,p_184,p_185,p_186,p_187,p_188,p_189,p_190,p_191,p_192,p_193,p_194,p_195,p_196,p_197,p_198,p_199
f1_i1,0.088199556,0.21913035,-0.15644981,-0.15145549,0.17393634,0.1429402,0.06635004,0.18725148,-0.45637056,0.09479575,0.030340903,0.05930929,-0.18760361,-0.17937274,-0.23889676,-0.13066575,-0.2559596,0.14170136,-0.21871766,0.26127067,0.0070839906,-0.106033504,-0.19940813,0.3030948,0.28136578,0.17516845,0.37621856,0.16120405,-0.18158989,-0.22008224,-0.20644967,0.15200192,0.0475046,0.2633262,-0.17345251,-0.28165162,-0.22888547,-0.08270538,-0.18643577,-0.11765762,-0.25643426,-0.34558013,-0.09606044,0.34021154,0.12750208,-0.21492624,0.07991918,0.008492835,-0.09835051,-0.31177834,0.025108062,-0.007475606,-0.3687229,-0.20641367,-0.23537494,0.17025855,-0.0026182707,0.005065646,0.12587152,-0.15022263,0.102772765,0.20470703,0.27317724,0.17674261,-0.15967721,-0.28468907,0.33912462,-0.28602728,-0.08796786,0.36357552,-0.24784401,0.068330474,-0.18756193,0.11986702,0.17633392,0.27120507,0.35636067,-0.22902663,-0.25637388,-0.13849397,0.001111506,0.34285852,-0.024657603,0.15229064,0.3510515,-0.26462916,0.359594,-0.1935603,0.044559408,0.20805313,-0.150352,-0.47189492,0.23709996,-0.063842334,-0.06697295,0.011359254,-0.0987697,0.2032099,-0.09264206,0.14998472,0.02278671,-0.11651177,0.37308377,-0.055856925,0.25567767,-0.14849946,-0.16416676,-0.05427738,-0.16289441,-0.050819736,-0.13564605,0.25767747,-0.29503697,-0.011612434,-0.0132240085,0.06110289,-0.076769225,-0.15353285,-0.040848304,-0.10961486,-0.1425786,0.18858375,-0.12725732,-0.14088014,-0.33100003,0.3754418,0.17206214,0.21279588,-0.42469126,0.18869536,0.026211536,-0.2349021,-0.37640136,-0.04052478,-0.4878209,0.31279626,-0.20551577,-0.10749574,-0.16530998,0.20913517,0.14763893,0.113272496,0.16690513,-0.03698149,0.104376346,-0.1783032,0.11008444,-0.198702,0.1930947,-0.25430724,-0.31344375,0.17070729,0.3371086,-0.1663466,0.19135803,-0.27048478,0.10461078,0.104348905,-0.17480202,-0.084348686,-0.18799202,0.15243542,-0.19458032,-0.23355724,0.06961907,-0.22902599,-0.01805996,-0.19707993,-0.18648763,-0.28846133,-0.13942398,0.16920279,0.1901595,0.2416414,-0.039180618,-0.14611919,0.156061,-0.21275206,0.12330877,-0.08656008,-0.4756886,-0.23419447,0.32220003,-0.15738884,0.17900074,0.19202913,-0.27552623,-0.033622153,0.1765647,-0.1743162,0.074867435,-0.3366983,-0.15544465,0.18816102,0.20905496,0.12866235,-0.17917113,0.40865955,0.16658923,-0.24594645
f1_i2,0.10129385,-0.0150908595,-0.11181328,-0.15132761,0.19493715,0.12652247,-0.02401952,0.28935447,-0.3542888,-0.07813797,-0.0509857,-0.02716341,-0.27027833,-0.20120223,-0.14163639,-0.14510506,-0.17734894,0.17555116,-0.26410192,0.2770532,-0.41725385,0.05907791,-0.21290529,-0.11422424,0.2641958,0.15927897,0.516215,0.120925575,-0.05480062,-0.10556368,0.052892692,0.22592258,0.34681383,0.15013777,-0.14250894,-0.21664186,-0.105244435,-0.22090554,-0.051623356,-0.21425143,-0.38201913,-0.19503258,-0.0052181105,0.17922018,0.14214614,-0.09453463,0.13738622,-0.27657583,-0.21330994,-0.14290495,-0.049216714,0.0304617,-0.08703267,-0.08701309,-0.1454273,0.45585123,0.03012265,0.07069271,0.076748714,-0.0044670613,0.1050424,0.082672976,0.15846556,0.1333757,-0.23524784,-0.25788718,0.30749,-0.21116178,-0.04679973,0.50920624,-0.21992198,0.12802233,-0.11945429,0.15568365,0.182918,0.15045363,-0.09341737,-0.28439277,-0.15886497,-0.16234352,0.020084312,0.1198741,-0.15126698,0.15441023,0.04161112,-0.1365016,0.21715759,-0.099139035,0.09733612,0.11294629,-0.14649574,-0.008083805,0.1289519,-0.19347909,-0.0023684108,0.10624444,-0.0424378,0.3279468,-0.2177714,0.18157582,-0.36450112,-0.22354558,0.15091439,-0.22156857,0.22739208,-0.10058001,-0.11223797,-0.11648628,-0.028705025,-0.3322579,-0.27964258,0.10659291,-0.049868822,-0.1489712,-0.12570477,0.08382123,-0.16916183,-0.23541175,-0.25258583,-0.08223422,0.22208682,0.22331195,-0.008545604,-0.2345465,-0.30325615,0.3620076,0.2042515,0.099433355,-0.33918485,0.11794603,-0.15055907,-0.30662045,-0.25274485,0.13691305,-0.42129007,0.32564822,-0.16056807,-0.008276484,-0.15696307,0.21959592,-0.013234793,0.09029015,0.14084783,0.046441358,0.24195886,-0.01907648,0.024441153,-0.12723675,0.14215893,-0.29041678,-0.36390305,0.26983815,0.18525319,-0.41783547,0.19355269,-0.2643975,0.22837602,0.16580345,-0.12672743,-0.23447761,0.03834821,0.10611304,-0.22401488,-0.237556,0.11129774,-0.21247791,-0.1250708,-0.3508396,-0.28208742,-0.018429473,-0.05177979,0.27230763,0.11272418,0.20603858,0.116555005,-0.16747451,0.28362498,-0.26387253,0.08302037,-0.0287268,-0.36237222,-0.30757394,0.19975056,-0.13620442,0.13481282,0.14783804,0.28798315,-0.07200388,0.20409924,-0.087292425,0.11384462,-0.39338836,0.1361077,0.2649336,0.22567758,0.15567581,-0.34683424,0.27204025,0.26118016,-0.21637934
f1_i3,0.18063785,0.15251115,-0.123515524,-0.2025773,0.13916913,0.13828209,0.22056507,0.043511365,-0.36245742,0.19747202,0.11584813,0.063695446,-0.21021664,-0.19798227,-0.21502481,-0.23370343,-0.090388685,0.22302803,-0.29595515,0.13950045,-0.03387817,-0.07114827,-0.13685152,0.279528,0.23761718,0.041517906,0.5232188,0.1851808,-0.24689579,-0.16736883,-0.28264785,0.1932058,0.19940437,0.13583378,-0.1287867,-0.26573455,-0.2076552,-0.16938269,-0.1852532,-0.04104419,-0.4356,-0.1556251,-0.23580842,0.23977521,0.17763183,-0.23987049,0.14521205,-0.015336124,-0.014089577,-0.18596648,0.038752697,0.08266478,-0.32652944,-0.22520141,-0.124497905,-0.052319992,-0.09606112,0.064460605,0.14446776,-0.04762119,0.23014836,0.08084133,0.12362245,0.2489215,-0.2393024,-0.314263,0.30299935,-0.21953003,-0.0977671,0.2743528,-0.13635562,0.019865554,-0.21775873,0.19699085,0.15491079,0.2287008,0.22263841,-0.25111035,-0.20004563,-0.0874787,-0.18242414,0.1632926,-0.0768448,0.08351718,0.17736448,-0.13761179,0.273851,-0.1590588,-0.018853854,0.21422711,0.030594792,-0.42718327,0.20122726,-0.15476683,-0.06631125,0.00870033,-0.17381835,0.28389022,0.021727497,0.10047595,0.27838802,-0.0780652,0.29140264,-0.06670271,0.24526282,-0.12889452,-0.09246844,-0.038331717,-0.06557207,-0.35906655,-0.12371055,0.20179942,-0.14532332,-0.21460174,-0.02029131,0.027953934,-0.08755969,-0.12198718,-0.08985155,-0.17884146,0.0691925,0.37881276,-0.14637087,-0.06706588,-0.32380813,0.29038396,0.41200376,0.019636922,-0.30831707,0.100296386,0.08855952,-0.23900507,-0.23541194,0.010445911,-0.381727,0.33159655,-0.15113695,-0.22770776,-0.017769435,-0.10318727,-0.02176527,0.19077855,0.14312102,-0.08389951,0.061363593,-0.12326104,0.08735739,-0.2953597,0.12582456,-0.22601804,-0.45491114,0.30315346,0.3601465,-0.16517618,0.19787057,0.01125891,0.13747548,0.23988645,-0.33217543,-0.21998316,-0.10686566,0.14466093,-0.13731864,-0.12875459,0.007889643,-0.31687286,-0.2920954,-0.2626497,-0.12871967,-0.13098758,-0.13897005,0.09543561,0.1329662,0.19798824,-0.46825826,-0.14634304,0.063813396,-0.1460576,0.21951415,-0.0815292,-0.44807532,-0.16772322,0.27396032,-0.18358321,0.104878835,0.17678623,-0.041101895,-0.18830001,0.22057642,-0.15390058,0.17552595,-0.30661926,-0.15410404,0.14868514,0.09168059,0.19651747,0.0882495,0.08287893,0.28476083,-0.25445336
f1_i4,0.16740443,0.13265175,-0.1857795,-0.14510544,0.10814336,0.109241836,0.085362196,0.30295175,-0.3584983,0.09151401,0.12784944,0.010327614,-0.3673474,-0.18812124,-0.15000728,-0.17826661,-0.28616655,0.094945684,-0.23837262,0.18432777,-0.15118255,0.060063507,-0.3081897,-0.11462922,0.32413998,0.20419915,0.4521545,0.22016053,-0.18386775,-0.12663777,-0.17964584,0.103036195,0.2539896,0.23087886,-0.11554086,-0.21952146,-0.48034218,-0.103248686,-0.163375,-0.16283445,-0.39414793,-0.17697774,-0.11246519,0.22355978,0.17081635,-0.13262919,0.0008491559,-0.32925302,-0.11684267,-0.4431175,0.047940426,-0.1276282,0.109575436,-0.22070216,-0.15459299,0.16316666,0.036153104,0.035243325,0.15519142,-0.3512469,0.16323885,0.17468832,0.033346795,0.073039584,-0.20946908,-0.16328824,0.25441536,-0.14287734,-0.17791629,0.47616404,-0.25066653,-0.06300913,-0.13830638,0.17107786,0.2626339,0.16352388,0.06364353,-0.20842679,-0.14938416,-0.086140074,-0.2860759,0.13087685,0.00041911402,0.25579098,0.06276814,-0.15509795,0.49199507,-0.19542202,0.122293,-0.038788397,-0.21688423,-0.3886197,0.25008586,-0.08221241,0.06814338,0.0103547005,-0.068727575,0.30531278,-0.018096734,0.16014619,-0.31610188,-0.12086773,0.26306233,-0.06763952,0.10156088,0.027386602,-0.13426068,-0.13199987,0.09014735,-0.3269148,-0.10861535,0.32726252,-0.20739667,-0.2595719,-0.22730033,0.034679025,-0.15522774,0.0072648586,-0.15208934,-0.00019868222,0.2472034,0.24450287,-0.15469678,-0.10272639,-0.38647902,0.25819045,-0.12179649,0.14516418,-0.2778872,0.18476424,-0.0918217,-0.24501714,-0.29548028,0.13167134,-0.39545706,0.32549095,-0.09989212,-0.13219896,-0.13716926,0.11216184,0.28904665,0.07985453,0.1339096,-0.10761102,0.09901363,0.08068014,0.060687676,-0.18832323,0.1460537,-0.43033093,-0.1673244,0.09926375,0.3133847,-0.28165743,0.21812001,-0.12883307,0.06666244,0.2797293,-0.40407845,-0.2989278,-0.18778342,0.13342242,-0.21106723,-0.2067134,0.156321,0.11458343,-0.39187154,-0.1962976,-0.2213987,-0.0774318,-0.14422034,0.26664996,-0.0031725413,0.2010472,-0.070648156,-0.06854818,0.21846533,-0.27142808,0.15043698,-0.06902578,-0.4203186,-0.22851728,0.22729598,-0.15504235,0.034487966,0.11841209,-0.030636482,-0.06216121,0.19292594,-0.14691466,0.11619917,-0.30970016,-0.047548655,0.21542366,0.27787185,0.09884027,-0.29174015,0.3680902,0.25235495,-0.16354337
f1_i5,0.20857126,0.06387744,-0.12085501,-0.18613291,0.17090665,0.15185682,0.11190919,0.14720964,-0.46669623,0.07531357,0.0001439761,0.034473114,-0.2497848,-0.14413667,-0.22337079,-0.1603499,-0.26467618,0.23275036,-0.27313718,0.17695576,0.003756728,0.03118814,-0.1646553,0.07977011,0.28198913,-0.0074817953,0.3073189,-0.045048486,-0.15154554,-0.18973121,-0.22802508,0.3844556,0.26183674,0.12808523,-0.24444786,-0.13096792,-0.37395957,-0.11614365,-0.26794213,-0.08278695,-0.5156049,-0.24357748,-0.17932865,0.21414936,0.011139576,-0.2212593,0.014943116,-0.11195431,-0.21225886,-0.011048616,-0.1850931,-0.12054996,-0.24091284,-0.07140209,-0.23398003,0.36491433,-0.24440587,-0.07624019,0.20149173,-0.26719043,0.21102004,0.13771532,0.116760164,0.25849864,-0.2399902,-0.21062072,0.25813365,-0.085246585,-0.14714794,0.33396396,-0.20390312,0.13062978,-0.1942649,0.09768462,0.08019639,0.14120193,0.29672384,-0.13314806,-0.14874764,-0.14293161,0.34914032,0.13738129,0.08858149,0.18872748,0.26384062,0.00085778243,0.35949692,-0.16723175,0.013024166,0.32137704,-0.1321761,-0.36813527,0.13856861,0.0052674715,-0.03727465,-0.15807375,-0.030967796,0.24105045,0.012372984,0.13110276,0.021606214,-0.07425126,0.2260167,0.09577351,0.34308282,-0.13311216,-0.16828509,-0.1518393,0.11096907,-0.14819631,-0.16108344,0.3697447,-0.141394,-0.20115647,-0.056755938,0.026092233,-0.15405978,-0.15789482,-0.3443811,-0.05084705,-0.09012568,0.18165967,-0.26465657,0.007677261,-0.28718054,0.24811965,0.1552862,0.1508908,-0.33027387,0.21857673,-0.08662245,-0.10448462,-0.3478291,0.09386657,-0.45870695,0.24361515,-0.18157084,-0.16817641,0.04026647,0.007646592,-0.21734232,0.11055693,0.06279114,-0.17434706,0.24100928,-0.0035310497,0.14596061,-0.1332447,0.25249133,-0.29581437,-0.485239,0.008164523,0.14355396,-0.3184841,0.23478028,-0.25384036,0.16995691,0.1243617,-0.31448743,-0.22913751,-0.36247057,0.19879082,-0.09947265,-0.19669151,0.04613129,-0.05073175,-0.2202589,-0.32623687,-0.13888876,-0.20634973,-0.060163368,0.26538515,0.14233418,0.15337425,-0.08152523,-0.15478607,-0.0745991,-0.2292899,0.16240387,-0.28404242,-0.38680062,-0.07643626,0.18986794,-0.153291,0.044420086,0.13661511,-0.20342076,-0.15536663,0.31717303,-0.16971764,0.2480216,-0.27141047,-0.14345582,0.36315194,0.2655609,0.30793822,-0.12592436,0.28416103,0.2042244,-0.15928492
f2_i1,0.08584007,0.13975431,-0.21912219,-0.16493042,0.116354525,0.17791957,0.070609644,0.33271414,0.0013880604,-0.24873981,0.15708037,-0.27282265,-0.40332678,-0.13837688,-0.05365894,-0.19020951,-0.17793769,0.2409778,-0.23144014,0.11518359,-0.095516495,0.112523265,-0.122163035,-0.1943101,0.28723818,0.08449661,0.06393124,0.13672933,-0.20277202,-0.2749977,-0.021571266,0.25163925,0.28224754,0.16581616,-0.25238025,-0.13788685,-0.08554691,-0.25711203,-0.047052342,-0.15624261,-0.11365929,-0.09571774,0.07707957,0.17711592,0.1954768,-0.19594687,0.20487742,-0.1560912,-0.24946705,-0.042832643,0.036157787,-0.14176156,-0.36285397,-0.39796788,-0.22195166,-0.06044246,-0.21942614,0.046670996,0.14796944,-0.24489346,0.10708138,0.16517031,0.18726695,-0.09636033,-0.06695179,-0.11206825,0.34372488,-0.18387394,-0.085616216,0.29188505,-0.2335107,-0.19200726,-0.25888085,0.3294281,0.20102029,0.29580992,-0.1923142,-0.18273987,-0.16445553,-0.26186252,-0.5710948,0.11397477,-0.3745581,0.20979615,-0.053457003,-0.13729025,0.28631595,-0.22391729,0.058795933,0.18750966,-0.016143622,-0.13340876,0.20956497,-0.034969576,-0.5338478,0.22190142,-0.042287346,0.28340623,-0.3229904,0.21460311,-0.1588241,-0.13583827,0.19748063,-0.2262716,0.3207057,-0.07173357,-0.14800176,-0.047825042,-0.332816,-0.06539418,-0.18001367,0.07647962,0.12929863,-0.27905905,-0.11734063,0.16518083,-0.19045094,0.092249736,-0.25562933,-0.08055419,-0.011503384,0.12586537,-0.20519716,-0.08275176,-0.46439838,0.23502117,0.32177687,0.09879956,-0.1299711,0.14466959,0.028458651,-0.08432811,-0.21543093,0.37251732,-0.21651907,0.37019625,0.2937614,-0.21966504,-0.36426428,-0.29544133,0.104923084,0.1629089,0.13865358,0.10267516,0.13319843,0.26128533,0.0018326577,-0.21774071,0.1627292,-0.18483421,0.29663542,0.25708726,0.21237008,0.31648326,0.18052915,-0.2183317,0.23154251,0.24268225,-0.46615586,-0.15627798,0.09397362,0.097548276,-0.055419058,-0.30934042,0.14572082,-0.26760992,-0.06637953,-0.34193978,-0.12924166,0.105534695,0.009569141,0.1619799,0.058191277,0.12666568,0.15724067,-0.28324592,0.24973264,-0.008445272,0.10532076,-0.18643047,0.012296521,-0.078108944,0.19637749,-0.1046321,0.10898102,0.17717649,0.18572736,-0.3372259,0.22766694,-0.10370786,0.19359767,-0.34492686,0.3060813,-0.015893487,0.17608555,0.12384008,-0.2629576,0.13207094,0.07016768,-0.13993105
f2_i2,-0.05112984,0.16782713,-0.12591271,-0.2367301,0.012370973,0.07925815,0.015785825,0.49161255,-0.07994436,-0.27414688,0.20074211,-0.27785385,-0.2862008,-0.11113557,-0.20260562,-0.10935711,-0.11709368,0.22377153,-0.1833372,0.22570212,-0.34404382,0.12982146,-0.2165086,0.045751903,0.25901368,0.14791311,0.0069468827,0.12509212,-0.24375892,-0.16912036,-0.21039134,0.15354858,0.26483983,0.07756052,-0.29417393,-0.3169014,0.025076982,-0.25036496,-0.16134247,-0.18286428,-0.36976877,0.09328622,-0.03264567,0.16953741,0.14427045,-0.072291106,0.1323605,-0.10335398,-0.22365728,0.1541538,0.30125675,0.1763002,-0.15524366,-0.3257755,-0.23078609,-0.30552334,-0.23226897,0.1885377,0.1080349,-0.10211873,0.19829202,0.16593958,0.22542948,-0.04538897,-0.21681997,-0.27036732,0.30839202,-0.0058593503,-0.1883737,0.34918785,0.032080173,-0.21895517,-0.054769594,0.2590204,0.14302278,-0.007197248,0.05339251,-0.05858854,-0.047357097,-0.14584519,-0.5319252,-0.117383346,-0.14385003,0.20169294,0.2185241,-0.23141573,0.08650831,-0.13366075,0.19284293,-0.037068713,-0.20611967,-0.3417532,0.14807521,-0.24317974,-0.15384227,0.023459844,-0.04719914,0.29928663,-0.27087328,0.1985011,-0.4169445,-0.12843953,0.15445895,-0.22394843,0.34841442,-0.1437366,-0.024718028,-0.16869415,0.0055928975,-0.27806073,-0.15247068,0.19119935,0.26494205,0.020982884,-0.12400824,0.19301862,-0.19748971,-0.53800446,-0.23085888,-0.07200413,-0.058166772,0.25736275,-0.15205505,-0.0368892,-0.36698395,0.023539688,0.16869612,0.084257595,-0.23054239,0.12691888,-0.11229436,-0.053842694,-0.32059425,0.26263124,-0.42227015,0.24674241,-0.09621319,-0.22294824,-0.20631726,-0.5341297,-0.20373206,0.1793569,0.23205958,-0.04611932,0.34127957,0.13007358,0.007957068,-0.28313857,0.16715412,-0.16922206,0.49540827,0.15416838,0.27447712,0.29322293,0.17173843,-0.19597228,0.2046785,0.03172244,-0.39945647,-0.22546963,-0.5004814,0.084221035,-0.124400534,-0.1210567,0.21395363,-0.1640323,0.13210784,-0.31660625,-0.2782343,0.020725628,-0.13854256,0.11773925,0.17315726,0.15112706,0.13123314,-0.11915105,0.21015008,-0.030475887,0.32124043,-0.29779038,-0.28787306,-0.18274288,0.18905257,-0.09261703,0.15055674,0.14514257,0.31839767,-0.34907615,0.12909268,-0.23477125,0.11376836,-0.1843749,0.08264003,0.22285071,0.1793635,0.09632895,-0.2990992,-0.15403189,0.15407343,-0.1180489
f2_i3,0.13740489,0.062125657,-0.24096382,-0.33797908,0.16536926,0.21908127,0.22069727,0.32820758,-0.36182514,-0.17063771,0.101638824,-0.14110985,-0.39956227,-0.23354474,-0.06670466,-0.1609311,-0.10247571,0.1632309,-0.13300207,0.101306416,-0.20944124,0.21368271,-0.073381476,-0.23945262,0.25643426,0.16195206,0.19962445,-0.08962454,-0.21787369,-0.24235387,-0.22126406,0.22815989,0.2764546,0.09219793,-0.16472657,-0.2259578,-0.05600053,-0.17650725,-0.018116996,-0.13410056,-0.17072445,-0.31568024,0.06834955,0.08432074,0.17564772,-0.25033146,0.1797985,-0.16810893,-0.3254444,0.14458364,0.25904524,-0.20103547,-0.035564255,-0.08090856,-0.108728155,0.025363073,-0.099268906,0.19172722,0.10998835,-0.3399404,0.021556448,0.18938376,0.17299275,-0.103237696,-0.18971549,-0.17412017,0.22540176,0.04898993,-0.15362525,0.11438816,-0.13548757,-0.11376218,0.009817233,0.2788696,0.17780884,-0.11165784,0.12776445,-0.19502406,-0.21200755,-0.11775169,-0.5091469,-0.19099903,-0.29808226,0.19491331,-0.018660728,-0.07630337,0.12197259,-0.2386309,0.12377872,0.21079326,-0.28233933,-0.037550855,0.31686616,-0.13802692,-0.066668995,0.16962889,0.012662675,0.2539971,-0.051809862,0.18562706,-0.2505671,-0.22416486,0.17800972,-0.081848174,0.17595708,-0.035735242,-0.20760842,-0.1598093,-0.4858775,0.15158173,-0.16939434,0.17768495,0.03247355,-0.30636406,-0.2669172,0.112014525,-0.26166764,0.09178179,-0.14631005,-0.18974265,0.50529075,0.1435625,-0.3189506,-0.14565882,-0.44691464,0.15298362,0.2739375,0.19950686,-0.1285974,0.2069248,-0.15510914,-0.27020085,0.0055008847,0.2706354,-0.46694016,0.21911956,0.1403614,-0.15531144,0.064410254,-0.13196835,0.06690917,0.18280894,0.025647776,0.18166476,-0.004491326,0.25284445,0.018322904,-0.11917035,0.050884105,-0.23886673,0.04807548,-0.121083006,0.16371202,0.04358511,0.22281906,-0.22300541,0.2252482,0.02642045,-0.051208224,-0.192815,-0.2019906,0.16015092,-0.24317244,-0.22775948,0.11675979,-0.1427236,-0.015749555,-0.26719233,-0.13989198,-0.17064747,-0.27439,0.2651983,-0.2513367,0.21758509,0.058961064,-0.30319777,0.2579511,-0.056778107,0.25731692,-0.22885484,-0.27135867,-0.27143833,0.2837567,-0.13800688,0.19089477,0.19385421,0.26207656,-0.311399,0.123024225,-0.13351744,0.14623767,-0.14257263,0.092323184,0.15415196,0.18757842,-0.005912367,-0.18136202,-0.11042401,0.28399917,-0.05851861
f2_i4,0.06518212,0.33897594,-0.15654014,-0.28181773,0.0044405325,0.24194138,-0.08590855,-0.05087768,-0.17790519,-0.14773148,-0.0069718994,0.021517845,-0.37893936,-0.2572406,-0.055076674,-0.14051227,-0.21689415,0.28129125,-0.17414089,0.18684863,-0.28231624,0.14331938,-0.15586966,-0.23679772,0.123583585,0.37346804,0.20622389,0.1669345,-0.3344243,-0.24034674,-0.16533172,-0.2106307,0.23739545,0.034690436,-0.089390986,-0.19028774,-0.15193862,-0.081771724,-0.25034148,-0.021778867,-0.2447834,-0.19067018,0.04722063,0.22451925,0.15213463,-0.1195804,0.18902878,-0.37199926,-0.24691081,0.2713202,0.20558226,0.09250188,-0.4459995,-0.31295595,-0.21799994,0.08184646,-0.07511868,0.09358918,0.115397684,-0.30165884,0.10583574,0.1543271,0.21616253,-0.13726841,-0.11386189,-0.21504813,0.2859063,0.15734118,-0.24403,0.2153198,-0.19664462,-0.05210384,-0.22129327,0.25581777,0.22556184,0.26648644,0.3323476,-0.16627547,-0.17240323,-0.11617313,-0.6421022,0.14620422,-0.27085,0.038444035,-0.034148976,-0.21319002,0.1307365,-0.20193683,0.031574108,0.13064529,-0.0926723,-0.43855816,0.104093835,-0.07939433,-0.33485106,0.12632598,-0.09761477,0.3472213,-0.36989367,0.14239196,-0.075036906,-0.11445642,0.23904936,-0.19011867,0.3236498,-0.084737234,-0.03373616,-0.1491477,-0.31191024,-0.08289111,-0.18794966,0.30077422,0.3645359,-0.09228668,-0.13216834,0.056489285,-0.25556055,-0.11366609,-0.09380342,-0.16392851,-0.12852411,0.3004132,-0.22898094,-0.045977943,-0.028524412,-0.00091646344,0.14824948,0.16974194,-0.3868446,0.19175632,-0.11488026,-0.37338647,-0.07272586,0.25306684,-0.29959673,0.053439774,0.13480109,-0.23109202,-0.24847749,-0.12892085,-0.122520015,0.15678224,0.30387264,0.3168445,0.046416745,0.10456012,0.1374218,-0.08052816,0.14495657,-0.07443931,0.37430972,0.25870645,0.19138141,-0.0017489957,0.14109354,-0.11688383,-0.022639198,0.10596941,-0.4883429,-0.22306621,0.0967576,0.17216341,-0.09033668,-0.22785696,0.06171802,-0.16238235,-0.094154835,-0.34913173,-0.06820888,-0.017392745,-0.0996811,0.19082811,0.2125377,0.17451207,0.0045166016,-0.2876238,-0.02027226,-0.1584324,0.26247597,-0.10741774,-0.18056045,-0.23563856,0.21555275,-0.19346064,0.22857347,0.088508815,0.3943052,0.003390741,0.16874528,-0.03664589,0.1548269,-0.3123265,0.2306768,0.045723543,0.12634432,0.11641756,-0.13843183,0.041668642,0.14846061,-0.20122547
f2_i5,0.11625155,0.0070160436,-0.20317759,-0.3114304,0.06178629,0.24996927,0.10667027,0.07608314,0.030616796,-0.1794304,0.19315287,-0.060746294,0.015195649,-0.20448516,-0.16011597,-0.051130906,-0.27455804,0.23746185,-0.14695515,0.24984254,0.056108393,0.30131426,-0.2944597,-0.2928652,0.17584352,0.32210547,0.26018813,0.005286087,-0.2852721,-0.15781857,-0.07300925,0.02216164,0.30032793,0.12973303,-0.18364283,-0.24844827,-0.045296203,-0.12542789,-0.15585726,-0.15709342,-0.24484846,0.09066681,0.056656882,0.17310356,0.1628438,-0.17556399,0.21170527,-0.28689766,-0.09687869,0.2981539,0.15162762,-0.25657967,-0.27300465,-0.32642815,-0.1506762,0.05312198,-0.071715765,-0.017863272,0.1737781,-0.38284507,0.08582097,0.08920954,0.20978852,-0.11726334,-0.28767538,-0.0515325,0.17327195,-0.31428802,-0.19759434,0.17890368,-0.10327732,-0.16355601,0.15146902,0.10411508,0.12547654,0.21975802,0.14492604,-0.13187371,-0.14108053,-0.143273,-0.5134798,0.24620396,-0.37931585,0.23577239,0.08650243,-0.12472434,0.1224821,-0.27702424,0.17203914,0.23885965,-0.15057282,-0.21555518,0.18261707,-0.11325155,-0.2687613,0.19142027,-0.2100796,0.2443613,-0.21359783,0.26785573,-0.31268403,-0.18551463,0.2794231,-0.20270787,0.242565,-0.13716303,-0.07185652,-0.15436807,-0.20843588,0.14287472,-0.30227932,0.28291953,-0.058434192,-0.20748615,0.024039937,0.38108674,-0.16650707,-0.30659014,-0.14005487,-0.12849702,0.32809746,0.05226336,-0.1688562,-0.20082057,-0.31510803,0.057081625,0.4875998,0.17727278,-0.036435097,0.18574806,-0.35825646,-0.25270933,0.0032696056,0.18635526,-0.37201375,0.26989985,0.1682742,-0.18655224,-0.22711489,-0.15500094,-0.26233014,0.19831853,0.04631446,-0.033574395,0.18974426,0.13793269,0.15590045,-0.09386186,0.04879305,-0.10230975,0.60657287,0.0975924,0.26940703,-0.09769888,0.017210314,-0.33752918,-0.006538679,0.12613714,0.034659397,-0.17858826,-0.3503256,0.14526987,-0.28951234,-0.073445655,0.12992963,-0.32027948,-0.047649443,-0.2096632,-0.13895284,-0.16320333,-0.020130131,0.17423934,-0.22411086,0.2489244,-0.0030183261,-0.2464356,0.15545045,-0.2847033,0.22830506,-0.19471315,-0.20813146,-0.2694979,0.24097164,-0.18604146,0.18149596,0.2053707,0.28467914,-0.075738825,0.06330575,-0.23872429,0.070823275,-0.21233395,-0.033910196,0.23984985,0.11057405,0.1448524,0.1631543,-0.19933493,0.25902432,-0.11860575
f3_i1,0.32350355,-0.035776794,-0.18613298,-0.2964343,0.2026377,0.04725195,-0.029890314,-0.1952076,0.19991201,-0.31662366,0.18988799,-0.16468167,-0.2853969,-0.22063772,-0.23691478,-0.13686576,-0.25346866,0.12892607,-0.043316826,0.08479601,-0.3128408,0.008007814,-0.16841038,-0.42489487,0.11176264,0.14974177,0.1608468,0.13731128,-0.20518245,-0.0962803,-0.016675139,-0.016851082,-0.04402732,0.22153465,-0.20903732,-0.2921912,-0.17991593,-0.21715298,-0.09844838,-0.11266221,-0.0011720351,0.23519531,0.15675712,-0.04727378,0.16700894,-0.17829324,0.084040724,-0.24931645,-0.08717694,0.31839705,0.26104584,-0.13845651,0.22336875,-0.13080749,-0.22794403,-0.31980807,0.020422772,0.0434958,0.06509487,0.25774232,0.20163485,0.08918013,0.1427495,0.04973332,-0.10908207,-0.11574795,0.22688974,0.09394021,-0.1667585,0.2745995,-0.11546981,0.0107798055,-0.22076967,0.09555716,0.16203699,-0.14809568,0.20520271,-0.43745998,-0.17013521,-0.06717018,-0.40707028,0.07044921,-0.1639494,0.1254262,0.12736802,0.03810558,0.14523938,-0.05782588,0.10423395,0.058627747,-0.21779276,-0.1708449,0.027693497,-0.21328497,-0.0568411,0.18982118,-0.13333821,0.210195,-0.11699846,0.15283667,0.10689162,-0.21602365,0.23078044,-0.1257594,0.1600703,-0.13884395,-0.17101109,-0.21548977,0.12280764,-0.08021104,-0.11905328,0.06712259,-0.05279912,-0.17767787,-0.14595744,0.25378555,-0.14978828,-0.00045010995,-0.18729267,-0.09940721,-0.07309928,0.3187867,-0.08487623,-0.09727633,0.36399224,-0.22155309,0.2529304,0.11247155,0.15417159,0.08589326,-0.17877859,-0.21858688,-0.37000751,0.22022961,0.20639187,-0.050297197,0.20472336,-0.17191659,-0.2009749,0.12742545,-0.49224272,0.20337303,0.14823808,0.37471908,0.3545685,0.03290911,0.10703666,-0.17178586,0.19566828,0.14461496,0.1860367,0.24018791,0.2579629,0.10331473,0.06149087,0.0019216812,0.21306247,0.107498765,0.024858166,-0.10015685,-0.11442038,0.21031944,-0.25982407,-0.19026244,0.1317933,-0.35816118,0.26923835,-0.27113104,-0.054537546,-0.04796504,-0.1801707,0.25415453,-0.18001324,0.25681028,-0.21243355,-0.15638886,0.1901644,0.07365108,0.12536488,-0.23396038,0.24108748,-0.031577658,0.19302875,-0.19840164,0.19989759,0.16129717,0.20304884,-0.22092703,0.151328,-0.14534593,0.09397044,0.072318874,0.32372203,0.18395983,0.118481785,0.061257917,-0.18227684,-0.29157656,0.34438175,-0.18007833
f3_i2,0.25895998,0.48453662,-0.20996515,-0.21627428,0.2522363,0.17039306,0.23124872,0.017934974,0.38606155,-0.21526743,0.08311051,-0.14889014,0.12656602,-0.14314008,-0.302964,-0.1747804,-0.16141228,0.14784768,-0.013074943,0.22735153,-0.23305888,0.07211267,-0.011382717,-0.022704056,0.31257266,0.21991701,0.03567261,0.39751074,-0.23605932,-0.19558637,-0.14777116,0.21956314,0.0055917813,0.32798836,-0.21183947,-0.08531224,-0.11668988,-0.16265397,-0.20015737,-0.041776247,-0.06364003,-0.31818137,0.17737244,0.19542834,0.050134968,-0.16977006,0.107292786,-0.103019595,-0.034707583,-0.058434773,0.080604784,-0.16690576,0.24886402,-0.1865747,-0.10905897,0.076516375,-0.29059142,0.050166886,0.14673948,0.26891106,0.061815243,0.14902534,0.21440667,0.32258323,-0.08120865,-0.008440533,0.18325907,-0.4961844,-0.16760115,0.449026,-0.26561272,-0.19037962,-0.27350977,0.19845814,0.12348816,0.16617125,0.24308866,0.06510617,-0.30126193,-0.2226679,0.002734838,0.0830264,-0.27016452,0.1481511,0.025782753,-0.028652238,0.060847238,-0.18497802,-0.012522035,0.21646145,-0.23944333,-0.064878084,0.023666577,-0.12356023,-0.097828425,0.21197101,-0.2689203,0.074310645,0.0571303,0.22094165,-0.1282573,-0.017690111,0.026288044,-0.14476433,0.05351323,-0.20214996,-0.17815155,-0.13680995,-0.11157031,-0.12151048,-0.3024048,0.25452197,0.025171738,-0.18332198,-0.086735584,0.22411773,-0.24603878,-0.028262928,-0.18170315,-0.20269607,0.25226232,0.35893157,-0.32995284,-0.15115036,0.23048955,-0.12736733,0.069899835,0.07166136,-0.003979623,0.18579738,-0.08123112,-0.19280635,-0.3058084,-0.12124278,-0.030006628,0.088890806,0.26366806,-0.25843355,-0.10583108,0.24747407,0.07156439,0.09557972,0.14445317,0.10470665,0.024651472,0.08196318,0.20852509,-0.24224867,0.22582799,-0.28468215,-0.38414878,0.011313447,0.054853253,0.14996766,0.17694142,-0.23365583,0.35087717,0.14842108,-0.24161714,-0.22124583,-0.53115904,0.2060005,-0.24539998,-0.19925371,0.17592643,-0.094849065,0.2540915,-0.31748462,-0.104383364,-0.07644693,-0.10493187,0.10685024,0.18555209,0.13391456,-0.10830843,-0.25544053,-0.09270319,-0.105587624,0.13402541,-0.18695374,0.2629005,-0.21124884,0.22724845,-0.20999505,0.24418838,0.13797173,0.20724888,-0.24057919,0.29001862,-0.2518261,0.23579434,0.17467079,0.31458,-0.17129305,0.20804949,0.28722367,0.19179201,-0.24865249,0.21079785,-0.26200423
f3_i3,0.24204497,0.0696956,-0.14433861,0.0786883,0.29242536,0.074313164,0.08990794,-0.2655955,0.072253056,-0.09217417,0.21575816,-0.23093559,0.07970216,-0.08823337,-0.2289966,-0.25326562,-0.36149973,0.28157613,-0.2503348,0.039018515,-0.13687111,0.21561557,-0.19677356,-0.11787135,0.20417668,0.25091273,0.092995875,0.17464963,-0.2725266,-0.15579435,-0.24770121,0.112672344,0.032702107,-0.086319946,-0.22051501,-0.1461834,-0.20892438,-0.060254678,-0.22425231,-0.051147163,-0.20889167,-0.16469347,0.24322428,0.1738499,0.23993921,-0.27606964,0.22497134,-0.0034208493,-0.13129021,0.13255095,0.12673306,-0.13077927,0.09502367,-0.0068082497,-0.22157913,-0.018535445,-0.008605948,0.14282326,0.026424335,0.19014779,0.11762093,0.09975933,0.196026,0.25353846,-0.25156084,-0.23030831,0.2024648,0.24375108,-0.26167995,0.036588978,-0.2196085,-0.0020774829,-0.3387263,0.16722524,0.22314268,-0.48367915,0.20494078,-0.25158784,-0.27561587,-0.16561624,-0.29330808,-0.11555699,-0.25062367,0.24741527,0.22080502,-0.25476706,0.19696249,-0.21936485,0.24922584,0.013540581,-0.1582972,0.11469068,0.17505199,-0.1360267,0.15426391,0.10235239,-0.1690696,0.16838954,-0.18707491,0.14481735,-0.021370497,-0.24361555,0.4593475,-0.10675642,0.083611354,-0.24357678,-0.2946604,-0.22971721,-0.07132916,-0.05791537,-0.098892614,0.048671838,-0.36333665,-0.2749427,-0.22172347,0.018127142,-0.021295454,0.18563463,-0.20046917,-0.14488995,-0.09054564,0.104489625,-0.053229414,-0.0764811,0.4568136,-0.22728354,0.2884762,0.052068494,0.17500821,0.16666497,0.06629208,-0.21950555,-0.49232492,0.16175766,-0.15268973,-0.07457317,0.2312152,-0.2297788,-0.05371493,0.48526388,-0.38848722,0.19077277,0.29855415,0.25948745,0.070413455,0.06995876,0.15768383,-0.15248519,0.28726697,-0.20455208,-0.08536629,0.14361493,0.31456473,0.4440906,0.073293425,-0.09831957,0.32787204,0.24251729,-0.35786274,-0.21504399,-0.12328835,0.07050843,-0.028558698,-0.16279915,0.24143344,-0.25514054,0.045475997,-0.15343136,-0.07329104,-0.16884848,-0.22915694,0.19732794,0.023089984,0.061734945,0.04724156,-0.20257461,0.3139306,-0.11249003,0.31193033,-0.029056279,0.26931491,-0.38570642,0.119859144,-0.08696701,0.019505048,0.1188253,0.25801763,-0.17728008,0.20461246,-0.14858657,0.021339633,0.29193178,0.23142897,0.20170113,0.14970449,0.09949926,-0.33734366,0.104649425,0.12218793,-0.09734085
f3_i4,0.26438722,-0.063838966,-0.12068174,-0.06964953,0.22088659,0.17793882,0.20212512,-0.10522438,0.06653056,-0.27543712,0.13913897,-0.1650196,-0.13798825,-0.24360646,-0.27485427,-0.24102128,-0.14011312,0.16414477,-0.10216712,0.12051873,-0.30075347,0.20960197,-0.10189552,-0.26679298,0.059247535,0.12896581,0.011396341,0.23678322,-0.12964317,-0.17336683,-0.13964297,0.026196655,-0.14323425,0.26871622,-0.0593224,-0.21102683,-0.27589518,-0.24219091,-0.19695067,-0.034047466,0.3465704,0.26206532,0.14482647,0.30165204,0.14297646,-0.16610476,0.13707428,-0.29493365,-0.1562893,0.22809204,0.21749331,-0.18667601,0.3240253,-0.1054457,-0.05687403,-0.049373515,0.056001037,0.1096595,-0.03550036,-0.2200067,0.17900468,0.11972405,0.11310163,-0.040297616,-0.17253342,-0.037346587,0.2353795,0.35431072,-0.16245404,0.11648836,-0.021298535,-0.3358161,-0.108983114,0.23255278,0.19143756,-0.22204669,0.35346475,-0.003938451,-0.13996395,-0.14074925,-0.15788794,0.013155195,-0.14550075,0.23191293,0.20372224,0.13914743,0.2349465,-0.2152294,0.14427292,0.23076867,-0.20691568,-0.012043056,0.17517088,-0.06712063,0.17162351,0.09309757,-0.055398945,0.18565108,-0.23696625,-0.021814225,0.038330086,-0.28243488,0.04785384,-0.2726264,0.2111023,-0.02706186,-0.1828373,-0.1441117,-0.27450082,-0.33519295,0.0068353238,0.18198211,-0.14419357,-0.41539475,0.04131401,-0.0454997,-0.21782097,-0.29872572,-0.25282,-0.22340985,0.13461204,0.10163958,-0.25935653,-0.12634222,0.28981042,-0.23097852,0.22897401,0.14303672,0.27048075,0.13195027,-0.21378,-0.27672702,-0.27100423,0.062765375,0.11409358,-0.04499598,0.21963656,-0.018865315,0.11523991,0.37718886,-0.17471936,0.22214325,0.23322627,0.03542628,0.14960767,0.11661468,0.21352391,-0.052609693,0.22938788,0.019448046,0.1531586,0.099511616,-0.04613589,-0.35595432,0.07701287,-0.06274039,0.26494518,0.29366586,-0.46168172,-0.0794519,-0.14197326,0.21324237,-0.23149237,-0.22184227,0.19702598,-0.24629207,0.27139053,-0.2016625,-0.06864243,-0.16048753,-0.2397312,0.1317826,-0.2042914,0.077668734,-0.09153659,-0.13272606,0.053123746,-0.12353944,-0.046355125,-0.20476897,0.39571074,-0.056919564,0.042117838,-0.074741855,0.11259658,0.19740234,0.121909045,-0.041495204,0.21432664,-0.013182471,0.13018964,0.33759278,0.21284553,0.20769249,0.14601101,0.18700331,-0.12997402,-0.11064656,0.13204369,-0.20265952
f3_i5,0.098320484,0.27712572,-0.24732123,-0.009692083,0.20412998,0.15846297,0.46910676,-0.17379235,0.1326433,-0.09215166,0.13164458,-0.20616516,-0.069718204,-0.20547752,-0.2146648,-0.20747982,-0.12624514,0.20671158,-0.26580983,0.19451796,-0.35200873,0.10681143,-0.2381547,-0.1508677,0.16422226,0.2441752,0.07979247,0.08889668,-0.044357754,-0.08629371,-0.15317039,0.47007328,0.22907586,0.19675586,-0.15438558,-0.1560062,-0.051690653,-0.15487978,-0.26888406,-0.1069544,0.013601805,-0.32198152,0.054796766,0.12668371,0.18692452,-0.03947091,0.18439175,-0.2788089,-0.17323898,0.33225998,0.2620514,-0.051210765,-0.03918582,-0.13400671,-0.25309187,0.043767367,-0.6395276,-0.04022523,0.15845741,-0.035558194,0.010627847,0.19046637,0.13820808,0.23167804,-0.013037609,-0.23770647,0.21902639,0.006267708,-0.25442278,0.21407524,-0.3029839,-0.15241258,-0.23377983,-0.02475456,0.11430307,-0.16452204,0.365052,-0.17920716,-0.14740223,-0.15432392,-0.12951787,-0.04271125,-0.121792406,0.20229334,-0.119001225,-0.104112364,-0.075998016,-0.14086848,0.091610454,-0.09175358,-0.08947838,-0.20446822,0.09798866,-0.15375295,0.12494004,0.16268563,-0.07451683,0.17336327,-0.21190214,0.256562,-0.09790078,-0.13207175,0.00635594,-0.24574324,0.17134124,-0.19317457,0.020615568,-0.13908768,-0.18346068,0.05111654,-0.096351154,0.23043823,-0.29184037,-0.17883755,-0.20120525,0.23087953,-0.12212233,-0.3378826,-0.11360991,-0.2436395,-0.08712231,0.089963034,-0.12890664,-0.31775507,0.34573707,-0.26513815,0.25650376,0.10771323,0.05222516,0.22486079,-0.01803133,0.012189558,0.01888457,0.16559203,-0.022768283,0.040545125,0.11768673,-0.1893719,-0.108064555,-0.16100621,-0.18285908,0.15627573,0.1948987,0.20118366,0.14894305,0.23961224,0.13267593,-0.06373193,0.17128165,0.1439852,-0.2967542,0.3410895,0.24726497,0.2993678,0.14812954,-0.17602468,0.29281336,0.15739629,0.13518593,-0.28889418,-0.1939596,0.037668787,-0.19966024,-0.21316114,0.15205358,-0.100866586,0.28482953,-0.2533742,-0.16192153,-0.22670268,0.0018336223,0.18577793,-0.09229691,0.30522814,-0.31989905,-0.14571339,0.20902252,-0.17544626,-0.012385502,-0.09783051,0.20470826,-0.502905,0.086875744,-0.19227712,0.20092352,0.13777976,0.27510154,-0.24510732,0.24584039,-0.21814358,0.11964414,0.26060677,0.29790312,0.39126796,0.3045552,0.035463925,-0.26533872,-0.025528066,0.3046376,-0.19505095
f4_i1,0.22972693,-0.014036329,-0.20592251,-0.27256137,0.23875125,0.16007571,-0.073623724,0.16357538,0.16456534,-0.01207139,0.09970214,-0.23318443,-0.43351462,-0.17262737,-0.13327217,-0.17988506,-0.09958259,0.24131486,-0.04340762,0.1729799,-0.17271413,0.16349247,-0.2124079,-0.1983926,0.1996209,0.16067633,-0.3188064,0.23875783,-0.1939102,-0.1432896,-0.15044859,0.25913426,0.13294339,0.25596023,-0.20109788,-0.057352077,-0.026760887,-0.24909472,-0.12509024,-0.25661623,-0.3390372,-0.4224286,0.19202931,0.08541066,0.17649661,-0.145138,0.18232693,-0.14797905,-0.2512513,0.2790842,0.3468285,-0.1382968,0.17164667,-0.34779555,-0.104810625,0.012776147,0.19363846,0.22132401,0.31915486,-0.36388832,0.18372348,0.08349322,0.19253257,0.5162001,-0.14521481,-0.2154004,0.13982059,0.12974164,-0.19149894,0.20572454,0.13399091,-0.119333595,-0.17511645,0.21433178,0.2454798,-0.34480035,0.063204184,-0.25692335,-0.11794664,-0.18484913,-0.20001203,0.6717253,-0.07227388,0.26088095,0.20899013,-0.06343031,0.21714321,-0.28366667,0.38421842,0.033099867,-0.23981702,-0.09550341,0.16092817,-0.10902426,-0.3862048,0.2423596,-0.17448336,0.09633225,-0.19344226,0.22021563,0.09553242,-0.2558096,0.073537104,-0.17474075,0.43699908,-0.104090214,-0.3155882,-0.12473079,-0.08944412,-0.3691931,-0.21290156,0.10292202,0.035751566,-0.34019282,-0.29249433,0.12242084,-0.21707007,0.36127788,-0.24573685,-0.15677309,0.11237267,0.30157572,-0.20805238,-0.010843557,-0.17810133,-0.17585811,0.088280305,0.2098237,0.14023258,0.1775677,-0.16263373,-0.13762723,-0.21485052,0.25582257,-0.089771524,0.25935122,0.19718575,-0.19345243,-0.015436689,-0.020576663,0.0560962,-0.023157073,0.13665217,0.34062082,0.12222653,0.114182584,0.13129953,-0.2530566,0.14715587,0.059839074,0.11757042,0.08930122,0.21678624,0.22939023,0.2138494,-0.12570848,0.18507221,0.17473117,-0.011813482,-0.29544252,-0.041507702,0.19826384,-0.2241251,-0.17975548,0.14423399,-0.24852839,0.26968893,-0.21347709,-0.10329777,-0.14966385,-0.25502563,0.19149648,-0.1688204,0.07797495,-0.25878823,-0.1831492,0.38118336,-0.19962859,-0.05181677,0.02870905,0.1955591,0.091544054,0.24171934,-0.302426,0.19555914,0.21640623,0.09605959,-0.0064370334,0.06361856,-0.2385504,0.07973063,0.26350665,0.2475218,0.21283379,0.26568624,0.25657186,-0.14068547,0.11294906,0.032470267,0.022771759
f4_i2,0.29297376,-0.09678967,-0.19964054,-0.29343572,0.11029526,0.19790475,0.11698091,-0.19406635,0.2550699,-0.24314307,0.045522004,-0.16780168,-0.1561956,-0.13797738,-0.118940696,-0.26733848,-0.27438554,0.14288215,-0.29443666,0.27646935,-0.41639018,0.28940085,-0.23654394,0.015702842,0.12026466,0.2046228,-0.1873955,0.16501085,-0.2131468,-0.22867532,-0.1289562,0.17788465,0.22800906,0.057653297,-0.14667569,-0.14543027,-0.07794634,-0.24859262,-0.20448628,-0.25245088,-0.31335437,0.062134445,0.12341916,0.2240358,0.14501734,-0.29700688,0.073878326,-0.06041828,-0.10582913,0.20961475,-0.0626533,-0.049148496,0.21610744,-0.1508537,-0.119854055,0.029860882,-0.17094661,0.11415525,0.18657151,-0.12651342,0.2800142,0.16316946,0.15805672,0.020134032,-0.039442282,-0.15917611,0.20206766,0.047308058,-0.22104599,0.45622316,-0.25662643,-0.11285901,0.06887832,0.090650864,0.28631064,-0.4037573,-0.26070747,0.00483594,-0.12950136,-0.16259207,0.17922397,-0.11377738,-0.25781924,0.07206771,0.09129051,-0.089482315,0.23916848,-0.13625193,0.24936111,0.18722285,-0.26516658,-0.016165731,0.16737393,-0.28896537,0.28562513,0.2758911,-0.030344972,0.19463798,-0.16536018,0.058837287,-0.3041597,-0.2872165,-0.25980806,-0.18198429,-0.27494377,-0.041438513,-0.30013895,-0.14267637,-0.14487603,-0.19626774,-0.36127263,0.20008636,-0.08223585,-0.49121478,-0.21700232,0.09570074,-0.10844598,0.037505157,-0.14030692,-0.043409023,0.42315862,-0.06500227,-0.15535916,-0.2189847,-0.14106058,-0.34478772,0.14636657,0.11591899,0.17565322,0.2216084,-0.09993274,-0.17595653,-0.12588288,0.17021535,0.26609924,0.19319104,0.18910243,-0.22305444,-0.23100337,0.46744782,-0.016930895,0.18690938,0.2631705,0.12495395,0.024959043,0.19831602,0.23809752,-0.071706764,0.12361911,-0.16033185,-0.37350306,0.0966795,0.3391854,0.014562018,0.026356641,-0.013151481,-0.041290037,0.1120522,-0.32391235,-0.12272448,-0.19080475,0.17947602,-0.11222574,-0.1703213,0.15803246,-0.14777808,0.0072116917,-0.21887842,-0.11514037,-0.040557504,-0.118034996,0.18687344,-0.29497775,0.120951705,0.41470426,-0.1762464,0.18257576,-0.13599555,0.28949672,-0.028916778,0.26965377,0.07453344,0.24180444,-0.16186842,0.11343733,0.1534841,0.20525105,-0.086193666,0.13144852,-0.15275083,0.05861975,0.3935225,0.18348862,0.092618436,0.2016619,0.096449256,-0.4531616,-0.18712112,0.15376787,-0.14725412
f4_i3,0.03262239,0.29252878,-0.069910385,-0.07279453,0.15689503,0.1256751,0.10518543,0.19036369,0.34150544,-0.10833624,0.1871448,-0.12502456,-0.28174716,-0.26417217,-0.18906485,-0.25678962,-0.047941662,0.1600857,-0.12899645,0.12443596,-0.17639488,0.17486444,-0.3283906,-0.078919716,0.13829327,0.28533813,-0.27849117,0.028947812,-0.24931578,-0.21891637,-0.36366433,0.0649381,0.28584614,0.17698427,-0.23614809,-0.28971127,-0.39795065,-0.22184224,-0.24372903,-0.25599015,-0.5275798,-0.39642796,0.19476743,0.069560036,0.21480979,0.009011607,0.25038117,-0.21019876,-0.20559971,0.09837417,0.35889262,-0.2188642,0.36591524,-0.2192627,-0.16622919,-0.36719343,-0.22668943,0.15733983,0.06349052,-0.12399343,0.045406815,0.07065243,0.26740912,0.04450777,-0.17125848,-0.1767479,0.14832567,0.2993667,-0.21897803,0.22161673,-0.127516,-0.14158252,0.018438324,0.15985261,0.15846929,-0.20032512,0.34439507,-0.23054978,0.078558624,-0.124462605,-0.46626574,-0.03074765,-0.31342366,0.24206716,0.13888143,-0.14222015,0.43121037,-0.3305557,0.059699126,0.15833504,-0.22406937,-0.17769936,0.21464522,-0.13971566,-0.06847511,0.024656057,0.09222807,0.29249167,-0.03467624,0.15972286,-0.34498045,-0.17738312,0.33679074,-0.24483104,0.28617194,-0.1845853,-0.26828843,-0.25596514,-0.14480272,-0.28221112,-0.30219132,0.2754653,-0.39690948,0.05765604,-0.15854447,0.24057676,-0.30867657,0.15439449,-0.20539972,-0.0877957,-0.30452868,0.17641258,-0.111094885,-0.019576587,-0.09024478,0.14222237,0.0959806,0.08953328,0.13701308,0.06657898,-0.056015525,-0.116209775,-0.19627641,0.027781367,0.021492401,0.17594108,0.15105394,-0.04343284,-0.09807832,-0.20869339,-0.15058008,0.119959146,0.19343652,0.15856624,0.16614345,0.10535178,0.09585047,-0.11487621,0.16385606,-0.19543618,0.08587875,-0.06838166,0.012056194,0.52480465,0.13617069,-0.18277885,0.19408068,0.12813145,0.10057299,-0.2001345,0.08260499,0.22625373,-0.10161151,-0.19640565,0.11155071,-0.20471554,0.33612716,-0.22716327,-0.2260122,-0.11891301,-0.08336111,0.16772789,-0.034367148,0.19810612,0.09162959,-0.06863006,0.09783354,-0.19098195,0.19728619,-0.0664751,0.2828038,0.098445065,0.23137484,-0.27818283,0.015031709,0.22563338,-0.028512325,-0.08228768,0.28305292,-0.1333046,0.21742925,0.26149327,0.034658656,0.2937427,0.09164502,0.12702896,-0.21937789,0.12189139,0.04511256,-0.103492014
f4_i4,0.14519277,-0.033914506,-0.1699533,-0.31563178,0.15353788,0.15123357,-0.07427797,-0.24671538,0.3341339,0.027241271,0.114930384,-0.28580326,-0.14423911,-0.10046713,-0.26762185,-0.045734555,0.1948968,0.11458516,-0.02583689,0.19256659,-0.19305538,0.14941505,-0.29512987,0.06424626,0.17211163,0.20553562,-0.027213972,0.08950143,-0.14113434,-0.27964392,-0.020199455,0.2826145,-0.08306419,0.1591515,-0.3523936,-0.23823126,-0.2939172,-0.12416237,-0.22668876,-0.10751859,0.40234607,-0.14771174,0.17371678,0.27251232,0.2167172,-0.20289244,0.07929943,-0.39678687,-0.12979929,0.2050044,0.26166463,-0.044332203,0.19285144,-0.23506589,-0.13172725,-0.14734362,-0.042562205,0.11445057,0.20699823,0.14774513,0.17911053,0.10670497,0.21649979,-0.0071153273,-0.24598618,-0.25274134,0.02229294,0.23003317,-0.04966887,0.34359014,-0.21150663,-0.02347682,0.10364559,0.24416155,0.17463572,-0.27983856,0.32658127,-0.35133624,-0.24207926,-0.19080019,0.008273458,0.016507184,-0.22673039,0.11757347,0.099204056,-0.22846727,0.11632873,-0.1744835,0.2123383,0.066414714,-0.10607274,-0.11301668,0.14030789,-0.27715635,0.1093109,0.083270706,-0.12205599,0.21316133,-0.051270325,0.07358474,-0.2002502,-0.2750885,-0.010607196,-0.2027836,-0.052354358,-0.047713082,-0.32977057,-0.2146646,-0.24944669,-0.33567107,-0.087925866,0.08627755,-0.4208463,-0.23862836,-0.17851768,0.036741093,-0.15672664,0.15515803,-0.2529333,-0.12609333,-0.020130921,0.15365468,-0.06706749,-0.32308158,0.1911842,0.07410775,0.28780177,0.18721472,0.28172755,0.17793874,-0.13810281,-0.14036031,-0.11668716,0.09257009,0.1472859,0.34439406,0.0766394,-0.030592814,-0.161956,0.31106275,0.15702222,0.28613338,0.21679112,0.17549258,-0.061007395,0.20937407,0.047414005,-0.028637912,0.10179775,-0.12378591,-0.28444204,0.20444843,0.17175873,0.090203114,0.32126865,-0.023504866,0.27929103,0.28357178,-0.4266123,-0.10752588,-0.39428747,0.19028065,-0.25364292,-0.1563096,0.06323992,-0.095541485,0.18821849,-0.23380996,-0.19957724,-0.18461823,-0.1724088,0.2304468,-0.22111826,0.017140407,0.16181582,-0.1372832,0.43145007,-0.035819404,-0.044996895,-0.19731374,0.09678748,-0.3721513,0.28364798,-0.269382,0.18985859,-0.0015214679,0.13059807,-0.20255241,0.18752483,-0.097628266,0.11540821,0.23502524,0.27916086,0.21373376,0.22199222,0.2762985,-0.05298283,-0.1734019,-0.0043211854,-0.29503658
f4_i5,0.025713833,0.21716744,-0.22833592,0.04277594,0.19492653,0.101246975,0.21242517,-0.14123265,0.085129835,0.055947676,0.12037146,-0.0818321,0.16823168,-0.19261578,-0.09037535,-0.054027397,-0.16670857,0.30640996,-0.21932338,0.24800584,-0.3282957,0.20220016,-0.1508522,-0.18419069,0.18594307,0.2059448,-0.38882777,0.17504619,-0.23860066,-0.14738038,-0.25337136,0.18791546,0.12339584,0.1689586,-0.0858136,-0.27621058,-0.117321454,-0.08799068,-0.2766583,-0.26147538,-0.22325051,0.19742928,0.2362631,0.23133604,0.09886342,-0.15206188,0.11650015,-0.16624287,-0.12993683,0.20069267,0.25369397,-0.2133837,0.027453925,-0.0027067123,-0.24543554,0.10133737,0.16248731,0.09150725,0.05877158,-0.3263054,0.29775956,0.1936415,0.25554785,-0.016719941,-0.23426466,-0.09202972,0.111340895,-0.107914224,-0.22303392,0.07118666,0.06799107,-0.36694708,-0.0428907,0.1418926,0.2373395,-0.11270948,0.017427297,-0.24128427,0.018100593,-0.101569645,-0.20414232,-0.009709222,-0.16563225,0.283885,0.25926504,-0.1353172,-0.025511496,-0.29405767,0.18290618,0.383753,-0.12255023,-0.38956842,0.15481958,-0.15403335,0.1956971,0.23371933,-0.022088725,0.0010506994,-0.103962,0.078750536,-0.4127747,0.008180844,-0.10409096,-0.13012248,0.081076704,-0.14568648,-0.2696368,-0.12885416,-0.3846984,0.08332668,-0.09528984,0.13790344,-0.45703787,-0.113844596,-0.19889157,0.20400032,-0.10088982,0.1459433,-0.12137738,-0.1776219,-0.15757313,0.1784628,-0.34736323,0.0072828075,-0.08327469,-0.15398115,0.030033866,0.31219548,0.2307448,0.31024206,0.0030343153,-0.2972527,-0.48774356,0.120767556,0.5065787,0.031858318,0.13706622,-0.18943052,0.06860221,0.22410776,-0.31045425,0.27392024,0.16325618,0.094330825,0.23466954,0.086781494,0.20846923,-0.21005866,0.07689849,-0.34593445,0.23967275,0.18850242,0.19687393,0.3403663,-0.058553007,-0.24081263,0.10273292,0.119054444,-0.09990616,-0.24491474,-0.15297526,0.11258538,-0.19303729,-0.23649755,0.20098473,-0.2018878,0.06900338,-0.1282131,-0.25903675,-0.21128766,0.0234461,0.14507265,0.061283324,0.23287065,0.12042082,-0.12481053,0.0643492,-0.27157936,0.23868567,-0.18399893,0.27105156,-0.24924901,0.089688614,-0.13526568,0.18189786,0.22967742,0.25283512,-0.22468655,0.16354303,-0.11699692,0.028382884,0.10898616,0.13134366,0.20134261,0.31615797,0.20387736,-0.19659711,-0.101585574,0.08495677,-0.28900138
f5_i1,0.20956789,0.38052207,0.17555524,-0.37592363,0.21143064,0.25076962,-0.5124119,0.28070575,-0.25568032,-0.033141088,0.08377109,0.26890403,-0.124871545,-0.26509845,-0.144303,-0.19940116,-0.16207172,0.14525428,-0.16163532,0.040670596,-0.22928233,-0.23876747,-0.20118663,0.030966427,-0.18912739,0.32188877,-0.060091563,-0.21376422,-0.076529965,-0.2669973,-0.10203855,0.26105922,-0.04847585,0.15295038,0.059925325,-0.37183014,0.21397628,-0.29456732,-0.13371567,-0.18101276,-0.1098402,-0.40860382,-0.15844877,0.34221268,0.07341785,-0.22743544,0.12216212,-0.23647796,-0.24203849,-0.46724933,-0.047396723,0.03489827,-0.17367202,-0.23392893,-0.083578885,0.37171093,-0.111372784,0.1373608,0.17476493,-0.26615655,0.044983823,0.1891579,0.29591084,0.21432532,-0.24777731,-0.1911741,0.15476963,-0.32570538,-0.19716091,-0.010137235,-0.06239369,0.34219676,-0.18873721,-0.16325755,0.24179438,0.17893592,-0.05284238,-0.34077674,-0.03653443,-0.14073181,-0.41818613,0.30440438,0.33678523,0.1365428,0.19757733,-0.12775624,0.4058111,-0.08200899,0.16807479,0.16640478,-0.10430765,-0.06441697,0.20856592,0.12482955,-0.32002467,-0.2760179,0.19242123,0.123927854,-0.21866564,0.23139688,0.4646421,-0.119192846,0.24839044,-0.2428381,0.3169671,0.24097767,-0.33729446,-0.19017921,-0.34346187,0.07454006,-0.26789036,0.14789014,-0.17086774,-0.06369272,-0.1801538,-0.21050645,-0.11998122,-0.04917423,-0.15239298,0.22822942,-0.2658156,0.2322735,-0.31804094,-0.119906425,0.025504718,0.13367271,-0.51552784,0.20780624,-0.13677253,0.23626287,-0.24317542,0.020187318,-0.39163005,0.23326129,0.04824677,0.290694,-0.439625,-0.061935306,-0.12827967,0.03818646,-0.15318236,0.16108038,0.28872064,-0.041059166,0.22371967,0.15394543,0.13892086,-0.20424883,0.15405734,-0.24993548,-0.052243087,0.10163212,0.18714337,-0.21897244,0.22950624,-0.12884842,0.10930601,0.061521623,-0.2519115,-0.36081252,0.13918039,0.14607042,-0.12251222,-0.237199,0.13115212,-0.153747,-0.10168797,-0.19610122,-0.1535862,0.23710878,0.028133165,0.22304189,-0.28091702,0.14777799,-0.059297267,-0.23625958,0.10291304,0.010747804,0.13848041,-0.06545074,-0.45755097,-0.05951013,0.30419442,-0.22742674,0.32346606,0.16469964,-0.4454299,-0.29322332,0.16150123,-0.12636578,0.13341224,-0.054229822,-0.16572452,0.22040105,0.1793806,0.17218143,-0.28315744,0.06689462,0.23519462,0.19169219
f5_i2,0.09054959,0.29249096,0.067701004,-0.19723007,0.20899,0.12518926,-0.19210249,0.13903446,-0.15964934,-0.1692966,0.118609555,0.15706061,-0.060753267,-0.1446204,-0.18926805,-0.15287246,-0.14829266,0.1375502,-0.25047186,0.24981567,-0.31718284,-0.065837316,-0.27519047,0.014897983,0.16465947,0.0536771,-0.1300111,-0.2503421,0.035641644,-0.23139893,-0.056133155,0.22224505,-0.061427984,0.14913598,-0.08447476,-0.33511814,-0.3729827,-0.28649914,-0.08771709,-0.2846361,-0.0033498409,-0.35918662,-0.22458924,0.032946326,0.09375971,-0.15211338,0.19668059,-0.101686254,-0.22823468,-0.48723674,-0.16923362,-0.098680176,-0.2840166,-0.20036869,-0.13100524,0.20391187,-0.26896828,-0.13107164,0.21968141,-0.22278763,0.03284142,0.14844918,0.20937338,0.2643475,-0.18247081,-0.28840622,0.12176244,-0.17857352,-0.24208528,0.049611058,-0.0090564,0.06020333,-0.31100252,0.15544204,0.20445828,0.28194892,-0.072589114,-0.21288635,-0.20357129,-0.18043762,-0.30762184,-0.21374917,0.16972454,0.1095594,0.12922242,-0.12620036,0.33505562,-0.28073835,0.2292439,0.19500148,-0.08026161,0.21874735,0.22018048,0.28516755,-0.2496132,-0.23575632,0.13787013,-0.011540409,-0.15742117,0.24053322,-0.27595168,-0.0153212305,0.33822858,-0.30163813,0.3479235,0.17402443,-0.341749,-0.16764465,-0.46431884,0.06293183,-0.3031689,0.19179009,-0.21055311,-0.092137046,-0.1564567,-0.08817867,-0.18397889,-0.31602478,-0.22935013,0.17550954,-0.21721442,0.41386232,-0.08454689,-0.08894843,-0.19593847,0.22693428,-0.5285759,0.20784049,-0.15128402,0.13600293,-0.14464867,-0.028863845,-0.23472446,0.18716004,-0.1739735,0.2531737,-0.57724905,-0.04701132,-0.278966,-0.27191833,-0.31219056,0.05570952,0.07749605,-0.18457642,0.23476845,0.376994,0.085238665,-0.21291764,0.22823812,-0.3309254,-0.27330455,0.15167254,0.15562604,-0.33372682,0.15674822,-0.20500888,0.15392038,0.05161639,-0.04899364,-0.22187532,-0.23162161,0.06366483,-0.18004523,-0.1790562,0.13609405,0.050882142,-0.23975609,-0.23220679,-0.13962626,0.17698598,0.020302081,0.1626223,-0.1565095,0.23881155,0.093723536,-0.18077858,0.15410656,-0.048776276,0.24486081,-0.2241766,-0.39150864,-0.36264494,0.11845823,-0.23814729,0.21447022,0.17104869,-0.29371062,-0.11247588,0.16917425,-0.12118848,0.22093405,-0.18421043,-0.09352954,0.24447201,0.09906048,0.20218891,-0.30557474,0.2431836,0.09673277,0.22343245
f5_i3,0.2054362,0.28431466,-0.016719809,-0.26058495,-0.23156728,0.18909211,-0.1949273,0.11505915,-0.01393329,-0.21525039,0.0740244,0.21170324,-0.25545326,-0.22874019,0.0044722925,-0.22860275,0.027508177,0.19620706,-0.2854853,0.10209003,-0.20557469,-0.14100006,-0.16723397,-0.05026907,-0.07585341,0.04777519,-0.22236778,-0.2697777,0.005051139,-0.2310845,-0.093153685,0.2788512,0.07530282,0.2651718,0.051969316,-0.30827427,-0.35753897,-0.31353205,-0.056495696,-0.27236572,-0.22224051,-0.24462448,-0.24550356,0.12474732,0.075655505,-0.11832052,0.09273171,-0.27735746,-0.26486215,-0.3642343,-0.061923124,-0.1417891,-0.32190233,-0.19900493,-0.26583067,0.23378883,-0.054024555,-0.16079669,0.23361102,-0.40589812,0.039598692,0.13215365,0.18936452,0.23955862,-0.27907658,-0.2567334,0.15114276,-0.2680595,-0.26105523,0.30627677,-0.066632606,0.17271146,-0.11636575,0.122011065,0.169454,0.23653106,-0.006247587,-0.18332745,-0.11757085,-0.11519248,-0.29043654,-0.06716012,0.2607874,0.18316029,0.10600989,-0.20574288,0.5144694,-0.19624431,0.23687318,0.22274974,0.014197446,0.3883527,0.23937024,0.26108056,-0.12353707,-0.14947261,0.11803368,-0.15058358,-0.161628,0.13014643,-0.16092111,0.052548226,0.28136703,-0.15799671,0.19606698,0.1849433,-0.25626683,-0.1035849,-0.19443424,0.23579867,-0.15961981,0.17620213,-0.17883712,-0.26950374,-0.30503178,-0.02956095,-0.25478598,-0.22455642,-0.29024896,0.19640578,-0.22327688,0.25131166,-0.17778014,0.00033008127,-0.07107499,0.20594765,-0.46928748,0.28673857,-0.08711726,0.17961872,-0.2424817,-0.07670905,-0.34364176,0.18119588,-0.09221101,0.46129754,-0.4854559,-0.0790605,-0.23448628,-0.44225824,-0.21972506,-0.04489623,0.2673288,-0.22908778,0.19848181,0.011052959,0.07320443,-0.11921466,0.15837133,-0.40773055,0.058194738,0.07655507,0.15691024,-0.210244,0.19239789,-0.11316544,0.2108642,0.20934328,-0.1157372,-0.2157143,0.0369526,0.13077715,-0.26885393,-0.21542335,0.1340452,-0.029810704,-0.31063485,-0.16682427,-0.1410371,0.25038195,-0.25171003,0.10116253,-0.20211281,0.16083619,0.20205751,-0.09624044,0.111804076,-0.17400081,0.22000717,-0.14779744,-0.40708604,-0.2730111,0.2597771,-0.17611101,0.19838138,0.14221457,-0.3641867,-0.18028298,0.19973531,-0.12346516,0.14212589,-0.21866119,-0.21418448,0.22620502,0.1217912,0.20392042,-0.18414772,0.14891033,0.2046597,0.28099027
f5_i4,0.15048164,0.16012298,0.1416528,-0.33364147,-0.14758892,0.193853,-0.27499497,0.10001587,0.14255938,-0.079717346,0.18954583,0.26163045,-0.049739964,-0.27677977,-0.1902048,-0.16828565,-0.22661692,0.16440926,-0.17138506,0.14046507,-0.14979267,-0.17857409,-0.24233449,-0.15326206,-0.08184589,0.096391015,-0.0845739,-0.23304202,-0.10096187,-0.27087244,-0.06611311,0.28587332,0.14762267,0.23736838,0.15892535,-0.28510234,-0.32897362,-0.13802883,-0.12713748,-0.1587426,-0.20989168,-0.3729188,-0.21111932,0.17692597,0.17554319,-0.33985984,0.25247917,-0.14486147,-0.21934819,-0.5344748,-0.07997842,-0.23421298,-0.45295197,-0.062105376,-0.21571873,0.41732073,-0.23472895,-0.0049517807,0.18641311,-0.23924136,0.036680236,0.18343654,0.0065575684,0.14942469,-0.16073182,-0.24673627,0.24406323,-0.23956728,-0.14175165,0.08781353,-0.034805674,0.3311447,-0.22878866,0.19631658,0.14750263,0.24474615,-0.29902473,-0.1993625,-0.17582966,-0.1428616,-0.1257216,0.16007175,0.2398621,0.036146563,0.19544625,-0.0016234904,0.52630025,-0.09873833,0.21678597,0.21431735,-0.24591888,0.40506694,0.22665505,0.30086285,-0.27032065,-0.20161319,0.06733728,0.010251795,-0.3230175,0.1965398,-0.29800797,-0.07717433,0.28779072,-0.28524622,0.20846584,0.0666712,-0.2642161,-0.09714602,-0.034230273,0.30637863,-0.26968315,0.23473293,-0.26384985,0.023961676,-0.13130005,-0.09818305,-0.20072117,-0.13555223,-0.14587238,0.29304546,-0.24430874,0.3750027,-0.09510532,-0.17933933,-0.08386823,0.22281605,-0.5390391,0.11473835,-0.04337499,0.067741826,-0.13503407,-0.072297,-0.34231612,0.027251232,-0.14964253,0.3945747,-0.29179078,-0.03125905,-0.13269666,-0.18186024,-0.36129856,0.1033296,0.12289288,-0.12891978,0.25094864,0.194361,0.09303061,-0.12072388,0.15586565,-0.28946114,-0.05530936,-0.044075493,0.13296196,-0.1838937,0.20832193,-0.32378066,0.25402308,0.06055731,-0.1745235,-0.18536253,0.09758281,0.17093407,-0.19527684,-0.16757601,0.20838687,-0.2062297,-0.28049332,-0.34720224,-0.08127072,-0.10766166,-0.10267107,0.03792307,-0.21129602,0.13789138,-0.06497781,-0.2134263,0.16941893,-0.1411592,0.13963945,-0.14042054,-0.45814887,-0.19627278,0.23817638,-0.25114176,0.12979814,0.21734458,-0.403593,-0.17541805,0.19905046,-0.22524329,0.2641045,-0.2864347,-0.21998993,0.28864506,0.25106034,0.2806063,-0.15760826,0.18831035,0.07250143,0.07648917
f5_i5,0.3035423,0.26993483,0.117206156,-0.19785826,0.02474488,0.131884,-0.40444785,0.1590593,-0.09381602,-0.02334924,0.09759188,0.30224305,-0.11920425,-0.28053564,-0.036550317,-0.2773577,-0.13301007,0.20277247,-0.30145782,0.22032446,-0.37703007,-0.20103882,-0.24708295,0.09012389,-0.08114328,0.026089942,-0.12922381,-0.36863005,-0.17468546,-0.21939398,-0.10395611,0.20038567,0.18322827,0.2540637,0.28477427,-0.3295012,-0.31046373,-0.22310188,-0.066989966,-0.17576696,0.03376155,-0.43914175,-0.13267004,0.15767385,0.11556181,-0.15941222,0.22067879,-0.23788188,-0.2809089,-0.45763823,-0.03139872,-0.066163324,-0.23190859,-0.340732,-0.26275298,0.28929946,-0.15073864,-0.043932553,0.17360742,-0.24216966,0.021022417,0.13687956,0.3326899,0.18644933,-0.18260428,-0.08064789,0.06579453,-0.1596509,-0.10069682,0.35032648,-0.23685022,0.33098727,-0.36762324,-0.11680358,0.20361692,0.17489024,0.0691677,-0.11727197,-0.15471067,-0.1546079,0.40383163,-0.09649358,0.2505875,0.1920339,0.2039593,-0.04499919,0.44679192,-0.21571591,0.110243686,0.06747811,0.026353946,0.39200592,0.2742597,0.3820454,-0.21702561,-0.2658297,0.1685116,0.15849295,-0.25199035,0.18665436,0.32836547,-0.16161552,0.27986637,-0.22617628,0.09439187,0.21417224,-0.36090222,-0.15058942,0.08626817,0.28284127,-0.19045003,0.3112912,-0.15349238,-0.03496172,-0.17936459,0.031194603,-0.15790407,-0.341263,-0.37418687,0.15384668,0.10779151,0.17829157,-0.1301145,-0.08070201,-0.06785616,0.39231426,-0.37729383,0.21747999,-0.12997264,0.17158945,-0.2471596,0.0147649795,-0.169937,0.14491825,-0.22004567,0.4999807,-0.5835686,0.060931224,-0.24880703,-0.24005407,-0.42169422,0.084883265,0.05918528,-0.10231095,0.20935217,0.32378653,0.17881504,-0.18518858,0.14168987,-0.22700688,-0.2918278,0.08941418,0.08016799,-0.060149956,0.17384526,-0.29120794,0.148921,0.09151126,-0.21550606,-0.25607082,0.0599942,0.2415839,-0.16371945,-0.12049596,0.15793477,0.46821097,-0.363495,-0.33985806,-0.23722114,0.04073904,-0.17674096,0.28906772,-0.26997063,0.23010471,0.039656214,-0.29034498,0.25720933,-0.0752025,0.06544581,-0.2132981,-0.19642904,-0.24316242,0.06335006,-0.2021172,0.21914232,0.18599233,-0.3612225,-0.2525119,0.15312788,-0.16316344,0.26699284,-0.18529257,-0.32906657,0.17575185,0.17446901,0.17473689,-0.2586225,0.14925009,0.11928456,0.23459198
f6_i1,0.052369237,0.2166886,-0.16198552,0.020390354,0.109986976,0.030446677,0.05070346,0.017478004,0.26440647,-0.31712416,0.12338817,-0.30375886,-0.19760822,-0.121292956,-0.088894136,-0.1498492,-0.045149785,0.20065811,-0.01183416,0.15008968,-0.19991037,0.09599614,-0.2536592,-0.029226981,0.087737575,0.12355485,-0.2219182,0.16012739,-0.15118232,-0.114514254,-0.2948514,-0.31589594,0.19143394,0.316429,-0.16768278,-0.2792944,-0.15883318,-0.16539834,-0.19120277,-0.24631703,-0.18114471,-0.39659774,0.27743575,0.12906122,0.15243815,-0.13792697,0.13368672,0.035912573,-0.15059157,0.31021267,0.113584645,0.13452902,0.0818471,-0.112955034,-0.15673152,-0.26922303,0.16379046,0.19033864,0.2938206,-0.3343061,0.024488132,0.05570241,0.26092115,0.39616293,-0.23413207,-0.2290752,0.23466827,0.008461662,-0.25702745,0.08756302,-0.2756378,-0.050306838,0.07055089,0.06656946,0.23671702,0.15744223,0.11993735,-0.05524644,-0.19285189,-0.18737005,-0.3742586,-0.031756856,-0.1530983,0.15636428,0.21928816,-0.32557234,-0.035760563,-0.09661454,0.05118469,0.09619018,-0.30461755,-0.0821073,0.072204284,-0.029789146,0.2305361,0.23520976,-0.2400814,0.0730444,-0.24499063,0.19529557,-0.42967516,-0.30411416,0.18333264,-0.15428883,0.32418582,-0.17166129,-0.23106246,-0.10218226,-0.24438155,-0.2718416,-0.0901667,0.16300845,-0.40637237,-0.22481847,-0.25292823,0.2480783,-0.22622646,-0.38972154,-0.10563684,-0.08976759,-0.3127458,0.26348338,-0.13554499,-0.13539612,0.09581563,-0.4277876,0.1250667,0.033025756,0.13703015,0.06525976,0.016492316,-0.16902144,-0.36199254,-0.060987044,0.33196694,0.21169993,0.20175533,-0.04716396,-0.21517868,0.012379001,-0.17730017,0.19302471,0.19012786,-0.0046823327,0.15670572,0.22217593,0.19148274,-0.3545768,0.22079854,-0.0069407667,-0.28526068,0.46609217,0.0828709,-0.003095709,0.05959155,-0.08941125,0.31243768,0.16644585,0.03058286,-0.07943397,0.06885802,0.16910513,-0.12893179,-0.07809644,0.11995913,-0.26418555,0.068203144,-0.17753978,0.12420431,-0.20359029,-0.20922266,0.3317964,-0.26842442,0.24452102,0.16049393,-0.1532941,0.04250621,-0.15462473,0.24814779,-0.1594801,0.0855486,-0.3819892,0.079729326,-0.19916612,0.14697567,0.21313055,0.4436603,-0.24399066,0.18349804,0.00054027373,0.30775252,0.36679906,0.21128382,0.3039921,0.13867126,-0.022784913,-0.026654672,-0.053372122,0.10815411,-0.14622822
f6_i2,0.103007205,0.29456207,-0.260372,-0.11024062,0.27876914,0.05777533,-0.07438187,0.079288125,0.0717347,0.011109344,0.22829849,-0.1786362,-0.07515131,-0.20151983,-0.0436929,-0.2376136,-0.34926102,0.115051135,-0.26267165,0.16132692,-0.045400992,0.19429025,-0.07250061,-0.3618802,0.054558232,0.29157665,-0.12197715,0.08546865,-0.17083664,-0.2825899,-0.08825497,-0.010466713,0.3829151,0.20028955,-0.19835997,-0.27051422,-0.36582476,-0.09751236,-0.16042884,-0.006453294,0.17243181,-0.13413964,0.19098389,0.05836401,0.1663524,-0.0019610329,0.107361205,-0.24296735,-0.16954863,0.31878322,0.29406664,-0.45234978,0.2217083,-0.26538393,-0.23001267,-0.20034297,-0.09445687,0.2588449,0.22477648,0.4387154,0.22379966,0.23591837,0.13918382,0.32458225,-0.1347637,-0.02031259,0.2172022,0.12952882,-0.15551819,0.12652586,0.048636306,-0.1795808,0.15205805,0.19589612,0.08535445,-0.272653,0.3132789,-0.41558537,-0.19770592,-0.28273278,-0.11384319,0.24412397,-0.17633912,0.11632839,0.30684566,-0.04935865,0.041188944,-0.14986877,0.0036553987,-0.11619852,-0.18519866,-0.23579925,0.22157897,-0.21688996,0.44705078,-0.02852755,0.012240954,0.25315663,-0.26991937,0.09614089,-0.14898309,-0.08812821,0.29212427,-0.12547794,0.13046876,-0.23150207,-0.066620685,-0.24135454,-0.19741778,-0.320137,-0.17889117,0.16006447,-0.4477235,-0.16350277,-0.19911535,0.16339508,-0.07827307,0.12907839,-0.05982076,-0.17872837,0.0806124,0.14352971,-0.33626258,-0.0388037,0.29305628,-0.21496204,0.25657517,-0.06091331,0.23424363,0.10157042,-0.27927876,-0.25093582,-0.08754855,0.190929,-0.051108032,-0.07422718,-0.027207233,-0.23227498,-0.22265065,0.20570697,0.04980675,0.12211338,0.14975168,0.09563352,0.22011718,0.20820192,0.15962608,-0.08112556,0.14805385,-0.22392128,0.23291521,-0.1287657,0.11798738,0.21048617,0.009317195,-0.10765365,0.18582037,0.20057793,-0.15396897,-0.16091685,-0.055264395,0.050142713,-0.2896533,-0.25409445,0.19249421,-0.2507574,0.19794069,-0.17667884,-0.10196063,-0.081041984,-0.4013329,0.18457967,-0.336357,0.078860834,0.0004838179,-0.20003885,0.069488555,-0.2120765,0.246954,0.019462109,0.17089188,-0.17933759,0.2602392,-0.16905756,-0.017453765,0.26613167,0.32282987,-0.29450512,0.1786965,-0.30891654,-0.034064896,0.10287312,0.10580495,0.09391507,0.2016645,0.045279257,-0.08814478,0.13945308,0.1335833,-0.25262296
f6_i3,0.16254547,0.302259,-0.15613264,-0.13843733,0.20776033,0.13093133,0.08403463,-0.038473576,0.25193143,-0.11948817,0.28800708,-0.12678768,-0.4142301,-0.30239806,-0.35988808,-0.22128731,-0.08287234,0.10208609,-0.3676844,0.117606394,0.01061992,0.24386558,-0.094648495,-0.3682751,0.2779277,0.2959821,-0.012486323,0.1563374,-0.1818561,-0.19487664,-0.29327613,-0.059594464,0.19675568,0.010650437,-0.09788726,-0.22013107,0.11055059,-0.09992024,-0.11723075,-0.11924981,0.114635855,0.03803038,0.179763,0.16972615,0.2104337,-0.18366864,0.2051448,0.0026256552,-0.06375408,0.22126433,0.2674496,0.0018066632,0.3665951,-0.32762927,-0.13783975,-0.22561206,0.010102203,0.13068804,0.12982596,0.06950765,0.24963756,0.10605708,0.18890955,0.18184645,-0.06888694,-0.14750896,0.22067374,0.10959263,-0.0064643663,-0.13399942,-0.32791793,-0.16950542,0.14125898,0.15662943,0.18982214,-0.013949946,0.14544623,-0.13955556,-0.19271696,-0.15366662,0.16877674,0.07556072,-0.14541413,0.2226315,0.06160775,-0.10648588,0.022532908,-0.20813651,0.09435115,0.2604082,-0.18072605,-0.108171366,0.21871603,-0.15474802,0.085647084,0.28041393,-0.3535801,0.26797044,-0.16803688,0.14477764,-0.25038674,-0.084881246,0.23411408,-0.15192123,-0.011983366,-0.25402313,-0.016564626,-0.074050285,-0.009317503,-0.07342445,0.04485521,0.2560223,-0.16516317,0.061300885,-0.1674193,0.09890838,-0.2599381,-0.35658246,-0.03839099,-0.18335551,-0.04806571,0.18187252,-0.25253016,-0.35961956,0.11690025,-0.18873078,0.13352482,0.031464614,0.041875783,0.08226674,0.03821237,-0.26058814,0.455007,0.21733987,0.14784211,0.25211444,0.024704006,-0.19267026,-0.25584581,-0.24716069,-0.42984802,0.2222768,0.1966998,0.022328658,0.109265044,0.18457967,0.13663208,-0.22935593,0.25039187,-0.250304,0.04903997,0.15544872,0.1112686,0.13489155,0.21936995,-0.23852195,0.058088165,0.12945026,-0.0025390391,-0.066641055,-0.42426246,0.18086332,-0.0600218,-0.059540436,0.12633923,-0.1972759,0.1456623,-0.18916586,-0.22420904,-0.18337096,0.14501664,0.11117478,-0.5211933,0.20243028,0.061323885,-0.15261504,0.16175164,-0.25255072,0.10861271,-0.20115325,0.24008775,0.19691293,0.28572834,-0.095465034,-0.0019486559,0.14314543,0.27197418,-0.27676347,0.14949793,-0.21680836,0.13103017,0.19447462,0.086893804,0.20693296,0.05108637,0.078486025,-0.11057789,-0.29289383,0.28298905,-0.18878329
f6_i4,-0.020138172,-0.012349356,-0.13328214,-0.3348318,0.1773352,0.12179317,0.16735907,-0.10944709,0.2871413,-0.14011805,0.16765438,-0.1459815,0.08807298,-0.2775349,-0.11570546,-0.2447797,-0.20982918,0.19858398,-0.15331365,0.01027886,-0.39314154,0.14178388,-0.23701891,-0.2607228,0.13031113,0.2201805,-0.19181143,0.18234478,-0.101943895,-0.14408524,-0.13065101,0.2563664,0.18455467,0.0063065276,-0.19924742,-0.124347776,-0.19809796,-0.27062243,-0.17113796,-0.2155506,-0.2656639,-0.35917774,0.19648562,0.29697517,0.12977038,0.008047134,0.24029101,-0.28379714,-0.21405353,0.12091177,0.07713514,-0.2927658,0.26924667,-0.07278105,-0.24799453,-0.10347873,0.054770935,0.19624569,0.26240405,-0.09739408,0.14776611,0.18035524,0.05293611,0.31550992,-0.0631184,-0.18262692,0.15912285,-0.24569467,-0.104435176,0.10492064,0.006794733,-0.01724816,-0.34125194,0.18563245,0.19268946,-0.13211358,0.16947192,-0.22225815,-0.17037776,-0.20976587,-0.23910548,0.27595964,-0.07816847,0.10930325,0.15653928,0.015997184,0.1912442,-0.18223971,0.14718768,0.05777118,-0.25289255,-0.21283902,0.023727117,-0.13378277,0.21378767,0.14691475,-0.075255595,0.19272138,-0.15995139,0.16120988,-0.37747672,-0.14527307,0.27179036,-0.048760343,0.046067446,-0.11470298,-0.20324634,-0.16636096,-0.012168029,-0.10597698,-0.3959811,0.23305903,-0.16405556,0.19967887,-0.08337198,0.018908754,-0.11228747,-0.21991876,-0.26615047,-0.23286436,-0.021845456,0.19471414,0.032112636,-0.19907962,0.23852555,-0.12048006,0.14605321,0.20376511,0.270181,0.14702226,-0.17489485,-0.17093717,-0.5617968,0.08538324,0.21252815,0.19834939,0.27906737,-0.15115592,0.034645475,-0.024803225,-0.2680523,0.02652127,0.18894586,0.053914107,0.07914372,0.09174279,0.15883216,-0.22042988,0.20259215,-0.2721676,-0.033511776,-0.15511243,0.03211745,-0.25530365,0.23723355,-0.08033866,0.22427616,0.20598249,-0.09768438,-0.19657053,-0.06539637,0.18995708,-0.30378413,-0.095882386,0.21606962,-0.1206672,0.21673211,-0.119086035,-0.13674054,-0.22602639,-0.30193132,0.27883026,-0.090097144,0.17047797,-0.23790392,-0.21701485,0.36072463,-0.10620943,0.03848495,-0.15843754,-0.048722822,-0.23770761,0.3307616,-0.27123955,0.008421564,0.21543929,0.16839255,-0.16169992,0.20895185,-0.045666754,0.12736435,0.16945496,0.30516315,0.10407226,0.08332596,0.24338713,-0.09051082,-0.08946636,0.3155645,-0.050120298
f6_i5,0.25480327,-0.24635236,-0.23407486,0.28343683,0.15311944,0.16812429,0.18467614,-0.22692552,0.21571763,-0.058028832,0.17172943,-0.12735668,-0.1794411,-0.27529046,-0.20502524,-0.21304677,-0.2577171,0.11749768,-0.23987512,0.12445198,-0.22575589,0.21281853,-0.05417767,-0.0010514103,0.2772203,0.2644134,-0.24596383,0.058840364,-0.22148222,-0.05684396,-0.1492597,0.14828387,0.2026244,0.21480176,-0.1841077,-0.18586765,-0.102565,-0.1830082,-0.1439307,-0.28701574,0.17343691,0.09500033,0.26899356,0.0444599,0.06751288,-0.09768386,0.1180771,-0.023966655,-0.13380602,0.22768235,0.22140516,-0.120570466,0.09587469,-0.024854558,-0.24114498,-0.072907336,0.02023651,0.13846964,0.22385915,-0.14862613,0.092916794,0.24166867,0.22363605,0.23087946,0.041541696,-0.2735015,0.18871456,0.34576976,-0.13089922,-0.15361254,-0.28270826,-0.2169508,-0.18223871,0.14391339,0.22653176,-0.17872813,0.30833632,-0.18652236,-0.11913112,-0.14890444,-0.11899584,0.2926335,-0.14282905,0.11473972,0.14422466,-0.09197174,0.099195436,-0.038621616,0.15218155,0.27329177,-0.29080138,-0.18599217,-0.016099129,-0.21655694,0.41753516,0.24939123,-0.1646087,0.21715769,0.17792594,0.010664486,-0.0151166655,-0.13208656,-0.013407718,-0.16835752,0.09497902,-0.19440068,-0.21129459,-0.2002706,-0.11381156,-0.19185317,-0.16694069,0.25835437,-0.07731648,0.14654234,-0.08345986,0.11412315,0.024506852,-0.34681964,-0.19285111,-0.22919783,0.17355046,0.1599066,-0.3500715,-0.29348323,0.15206873,-0.050255015,0.31112462,0.3092289,0.11856587,0.10273171,-0.22367385,-0.21383052,-0.17095208,-0.057091128,0.06708772,0.07675308,0.26856565,-0.09705241,-0.050111055,0.103626244,-0.18123509,0.24381857,0.2521985,0.33839986,0.23763,0.27892604,0.23301575,-0.2898855,0.13543865,-0.32972145,0.45491263,0.2234338,0.15289238,-0.36779717,-0.059829,-0.22045888,0.12621476,0.058719024,0.14674337,-0.28911844,-0.03341538,0.09531445,-0.28544107,-0.20636575,0.14983414,-0.23387425,0.16052978,-0.16563122,-0.10519231,-0.23341736,-0.08857852,0.10419683,-0.20618944,0.23283029,0.44633636,-0.22105104,0.020990565,-0.24870221,0.03506544,-0.3013246,0.4246495,-0.39470774,0.10304501,-0.13228263,0.11217748,0.18841907,0.05730252,-0.20153941,0.14596307,-0.20551975,0.072405174,0.33273244,0.14126284,-0.021881707,0.11277744,0.18302609,-0.13344043,-0.1211872,0.19600052,-0.24906965
f7_i1,0.04995424,0.1511978,-0.1952451,-0.25110745,0.16769461,0.22998293,0.07390712,0.1912655,0.21155234,-0.21867326,0.23155513,-0.10108897,0.18733294,-0.24971004,-0.14063518,-0.21349593,-0.18768805,0.24332808,-0.21145098,0.07287931,-0.026167722,0.23732498,-0.13840608,-0.37449938,0.22606076,0.18735863,-0.2674112,0.15418991,-0.13857313,-0.062272143,-0.20373364,0.17483386,0.351433,0.036927998,-0.23483472,-0.20827779,0.017458053,-0.054474134,0.06535137,-0.1730527,-0.057564497,-0.3010082,0.26669744,0.03285649,0.19788253,-0.061358016,0.2692654,-0.07781461,-0.19769195,0.36959895,0.18975635,-0.20865582,0.0874282,-0.272492,-0.1697494,-0.22515075,-0.16191569,-0.11688715,0.20008503,0.18159753,0.13263217,0.18492836,0.24237669,-0.12154141,-0.28863642,-0.18425699,0.15421177,-0.31001943,-0.1158356,0.057959504,0.0007934107,-0.23697846,-0.05037997,0.1966072,0.18335561,-0.030651262,0.11958276,-0.21896395,-0.11382767,-0.20418502,-0.5358092,0.09220495,-0.16933875,0.2831385,0.23981933,-0.11979051,0.1954763,-0.22085032,-0.018420199,0.2991515,-0.31197417,-0.0014365765,0.18898071,-0.23816934,-0.029988391,0.3218445,-0.08986275,0.2145186,0.022104677,0.22165255,-0.31918108,-0.2077958,0.1190508,-0.14592528,0.31675464,-0.1542385,0.04084713,-0.10463036,-0.2367663,-0.44018108,-0.02913358,0.12581623,-0.24990812,-0.032074977,-0.283521,0.2675786,-0.14058785,-0.17502476,-0.23079693,-0.2925433,0.058993075,0.07331753,-0.2576671,-0.059438508,-0.06703727,0.10017454,0.23974232,0.112851016,0.11358825,0.16949034,-0.2029396,-0.17169972,0.20217694,0.32618108,0.20450525,0.09795248,0.25950965,-0.20313169,-0.24830753,0.20099829,-0.47391793,0.13278514,0.08394863,0.1042016,0.14654985,0.13465339,0.24044958,-0.15040295,0.20766443,-0.19796179,-0.41315728,0.25447512,0.21901035,-0.337454,0.21534622,-0.11407128,0.24931556,0.16502057,-0.013126124,-0.27395064,0.19498369,0.20450367,-0.08214283,-0.27146012,0.09412237,-0.2136793,0.054025862,-0.2625371,-0.21267515,-0.09212857,0.075402535,0.29192162,-0.058511145,0.19336452,-0.15528095,-0.29532894,0.2925975,-0.21690814,0.3056464,-0.18596502,-0.093189694,-0.35907802,0.17986524,-0.111027695,0.21896935,0.09871223,0.37642983,-0.22105579,0.31194508,-0.11871655,0.004678006,0.13494326,-0.09148598,0.2138439,0.2706067,-0.008453613,-0.10077427,-0.18416137,0.18762614,-0.108228415
f7_i2,0.2723042,0.07213061,-0.21396269,-0.041941542,0.11525135,0.24473517,0.40752208,-0.13484588,0.21937701,-0.021440899,0.21578026,-0.22670652,0.09658848,-0.14695784,-0.13026805,-0.2260354,-0.26396972,0.20525931,-0.14546174,-0.0014506103,-0.1671075,0.024237622,-0.30798277,-0.042604033,0.17505307,0.08643379,-0.12243701,0.0709633,-0.1903046,-0.2166704,-0.037760533,0.121924356,0.09135528,0.24227354,-0.19699258,-0.04871539,-0.27255228,-0.20419636,-0.18510523,-0.068220556,-0.12558019,-0.072295405,0.14046922,0.16463657,0.1418681,0.14484902,0.17478801,-0.22101237,-0.10818168,0.024731118,0.24748656,-0.049370345,0.3446018,-0.19425453,-0.07474738,-0.05917034,-0.5425168,0.080532804,0.16036096,-0.21019112,0.1487721,0.13078856,0.03226372,0.07172996,-0.23669085,-0.17142123,0.28064618,-0.2342355,-0.2522892,0.123121165,-0.20796506,-0.27722874,-0.07988438,0.280583,0.06830797,-0.33487898,-0.10136301,-0.25065067,-0.046335034,-0.24468316,-0.26706818,0.29624927,-0.22950613,0.23901631,0.25231126,-0.22714727,0.3188184,-0.30424988,0.07663063,0.2395613,-0.27201498,-0.10388022,0.16662349,-0.23703086,0.17163803,0.12242957,-0.119803235,0.18847804,-0.18333268,0.13684157,-0.13556214,-0.08087273,0.10519103,-0.13616128,0.071270555,-0.20915838,-0.07266224,-0.19042878,-0.22801045,-0.2303506,-0.28416187,0.22989628,-0.06916709,0.0077036866,-0.19473004,0.046418566,-0.14046979,-0.09738247,-0.23543121,-0.20503922,-0.3098829,0.30897745,-0.13846453,-0.27540722,0.020739894,-0.17560877,0.21556386,0.29087842,0.19311574,0.1268309,-0.2906441,-0.09030582,-0.09830815,0.074398935,0.3017304,0.24156615,0.1650446,-0.098123014,-0.17400931,0.23931035,-0.24028063,0.17778961,0.12406657,0.019927045,0.13724281,0.21976392,0.071135856,0.0093704695,-0.017027898,-0.27358627,0.015089571,0.1582764,0.2262831,-0.07319566,0.26560166,-0.121608436,0.10832221,0.23593698,-0.40814835,-0.18637058,-0.58658123,0.14595659,-0.24855779,-0.114548564,0.14365731,-0.1370778,0.09451953,-0.05129277,-0.048003636,-0.0048790667,-0.08860198,0.041089512,-0.29783276,0.0054361382,-0.11688524,-0.0988935,0.06331553,-0.22845012,0.25911674,-0.29043323,0.13665225,0.10095337,0.17912814,-0.15712069,0.07342983,0.09760114,-0.09307967,-0.044794742,0.14300217,-0.18100381,0.26289365,-0.043996345,0.076101415,0.08822444,0.15680334,0.21125445,-0.063950114,-0.15184157,0.0078112725,-0.14619714
f7_i3,0.017064169,0.06925741,-0.0687803,-0.124195434,0.22806558,0.10893023,0.18954094,0.26828262,0.34332946,-0.1491182,0.13516954,-0.24627034,0.22625877,-0.122602634,-0.19894351,-0.30099314,-0.04355209,0.081630595,-0.2851149,0.19685188,0.035803486,0.17567748,-0.12527236,0.060817223,0.09195146,0.12817018,-0.011850826,0.042166427,-0.2227203,-0.18998095,-0.24375027,0.1393221,0.1668645,0.12062253,-0.1823812,0.0074608214,-0.07667192,-0.09454179,-0.04662995,-0.25308713,-0.10440503,-0.43729514,0.18925436,-0.015393615,0.06980834,0.17853113,0.09350949,0.1306799,-0.08383073,-0.07184419,0.32967106,-0.41945857,0.02414959,-0.2839545,-0.24145775,-0.15213962,-0.31505573,0.11524365,0.2227528,0.22894093,0.2584664,0.15031168,0.021164805,0.2521095,-0.14443722,-0.16808483,0.2420886,0.1870408,-0.11139188,0.23651922,-0.38506034,-0.13025762,-0.38299346,0.17905016,0.20613338,-0.18660073,-0.026916947,-0.24411963,-0.12247252,-0.20823106,0.110548325,0.35813773,-0.09608621,0.13327475,0.31090623,-0.15366045,0.21135227,-0.1074619,0.218976,0.06717497,-0.22687122,0.016319579,0.06511462,-0.14163496,-0.079094104,0.18916482,-0.32559216,0.20311022,-0.16201228,0.1494872,-0.17574427,-0.11559885,0.328823,-0.20295708,0.15752892,-0.2103604,-0.24939531,-0.23421322,-0.1887549,-0.16666706,-0.100272305,0.08313229,-0.3816624,-0.27890342,-0.13595691,0.16942145,-0.19906765,0.14044839,-0.16873346,-0.27172467,-0.41652822,0.20315106,-0.18815331,-0.027407462,-0.3191337,-0.3987242,0.25841382,0.08644906,-0.020447789,0.17859545,-0.13306631,-0.12687358,0.25240615,0.18135095,0.19118898,0.32858005,0.12965727,-0.15594965,-0.077461936,0.15055706,-0.44976088,0.013613201,0.28743324,0.19228104,0.2031229,0.25288165,0.31631988,-0.33332092,0.16001184,-0.33923003,0.2995083,-0.08458283,0.2353931,-0.101081274,0.1335322,-0.22079808,0.24748573,0.122758254,-0.07912105,-0.19775945,0.0008211094,0.12065702,-0.08554039,-0.20012234,0.0872013,-0.21290885,-0.010662115,-0.20631666,-0.05341655,-0.15733445,-0.0033986345,0.30541158,-0.16541232,0.22559662,-0.050677378,-0.25271484,0.09696238,-0.17988269,0.06961147,-0.22451478,0.2758754,0.23658875,0.23094133,-0.08916523,0.29776195,0.17134477,0.09799683,-0.2704073,0.16959773,-0.30257443,0.038091935,0.2752876,0.097280696,0.0832581,0.10910394,0.24052696,-0.12190988,0.18467951,0.24923451,-0.28835452
f7_i4,-0.18234104,-0.10697628,-0.15442508,-0.45614767,0.13500263,0.16469043,-0.017089205,-0.06550892,0.2302322,-0.2101718,0.21189484,-0.09450103,-0.29202524,-0.18509668,0.05986733,-0.16450556,-0.35803658,0.0026015737,-0.09431607,0.13667972,-0.22059296,0.15412079,-0.026386624,-0.3571047,0.22570388,0.25906575,-0.22057095,0.12742588,-0.16462162,-0.31503716,-0.4386315,-0.1933093,0.04642176,0.10681728,-0.12930317,-0.13515474,0.025100809,-0.17422521,-0.08662773,-0.2458024,-0.28914768,0.046627995,0.26182503,0.072485074,0.14117576,-0.31081486,0.14811762,-0.06315897,-0.24645151,-0.06800057,-0.053904314,-0.33128324,0.13799444,-0.08410531,-0.27764574,-0.3996051,-0.3738327,0.03088559,0.14406459,0.32031217,0.20289369,0.14301266,0.19580995,-0.012613957,-0.18522261,-0.06451076,0.22278173,0.1536994,-0.13989761,0.2773402,-0.05544953,-0.22599514,-0.12916459,0.0024854483,0.08118022,-0.1639732,0.21290974,-0.023508968,-0.07112788,-0.2202891,-0.26123998,-0.20055307,-0.14522372,0.19904663,0.111607626,-0.175868,0.31968567,-0.1466595,0.3326759,0.41718972,-0.25722274,0.15130664,0.10276199,-0.17026319,-0.5340429,0.13226368,-0.18745084,0.18784656,-0.085293524,0.15256846,-0.48296043,0.03283636,-0.074423075,-0.24241228,0.2488819,-0.17194968,-0.09302488,-0.17357175,-0.34716937,-0.34748918,-0.31474897,0.2456884,-0.10055866,-0.12893842,-0.24664131,0.21359992,-0.079412185,-0.054164827,-0.22353041,-0.19575088,-0.06896851,0.16988169,-0.29953957,-0.14060974,0.10214577,-0.055103112,0.09195576,0.15752244,0.25918794,0.12763675,0.019139972,-0.32391617,0.103531934,0.19926003,0.41233897,0.34805965,0.20090821,-0.30738667,-0.13011868,-0.46274555,-0.10737127,0.096193336,0.16624798,0.19984421,0.14521003,0.24273686,0.13064149,-0.14393686,0.12577134,-0.26655132,-0.06313718,0.039603345,0.08118242,0.6934421,0.26984224,-0.25882235,0.09407344,0.18670112,-0.25995633,-0.019464659,0.24571174,0.16968533,-0.23941402,-0.17955129,0.2619141,-0.26931065,0.11534531,-0.22032754,-0.338617,0.0014397827,-0.36393604,0.24309744,-0.4255724,0.25970042,-0.4211388,-0.16426243,0.08270994,-0.11729847,0.22178778,-0.035811663,0.05475694,-0.11337452,0.2216401,-0.13007492,0.22925481,0.12532288,0.086753406,-0.227027,0.08093548,-0.18660061,0.18058504,0.3941206,-0.017014027,0.098513044,0.23643394,0.14636503,-0.18813537,-0.21688552,0.10729601,-0.12810959
f7_i5,0.22557975,0.043532383,-0.24149759,-0.10197645,0.17749147,0.13191144,0.3071756,-0.063167766,0.065386444,-0.1087456,0.18297115,-0.17766829,0.17174357,-0.1752352,-0.2768952,-0.13735758,-0.15616898,0.26815298,-0.3163907,0.21781349,-0.3482298,0.25821066,-0.13738805,-0.11249985,0.08767298,0.1397281,-0.46106458,0.10356147,-0.11567686,-0.18725097,-0.19470099,0.13141923,0.10028081,0.17387854,-0.14825,-0.20354675,0.08036746,-0.17430663,-0.0035752873,-0.031280775,0.23750643,-0.4533619,0.24905849,0.010899064,0.024692995,-0.00616134,0.28331167,-0.088567585,-0.22939773,0.44077948,0.18106194,-0.0888245,0.40782693,-0.24833634,-0.18231691,-0.07864044,-0.13026172,0.20516051,0.14063306,-0.020296525,0.26491955,0.07396061,0.15717591,0.22253488,-0.070384495,-0.16588223,0.1363516,-0.087848224,-0.18028924,-0.036983285,-0.16403255,-0.20308283,-0.1684458,0.1182958,0.1482052,0.15884921,0.42999557,0.04823907,-0.021877773,-0.015482607,-0.36646837,0.11840033,-0.048861437,0.20886917,0.06090666,-0.20368853,0.1981631,-0.094792366,0.18945193,0.32495478,-0.10361368,-0.15954837,0.1713667,-0.16006312,-0.27089962,0.09782792,-0.054847147,0.21146844,-0.19075267,0.083421335,-0.18321188,-0.16817775,-0.23381743,-0.17028968,0.15743983,-0.17717086,-0.04288612,-0.196621,-0.14240293,-0.2922912,-0.22585902,0.15708514,-0.01324106,0.0615639,-0.144563,0.0670491,-0.16564314,-0.47487947,-0.16249512,-0.1667925,-0.5192772,0.031701863,-0.27843082,-0.2863905,0.5708445,0.18563779,-0.08477194,0.023849778,0.07860268,-0.002048117,0.05183978,-0.1072946,0.06385788,0.1531058,-0.07204944,0.026522733,0.15706801,-0.24487332,-0.2893677,0.2652721,-0.40475655,0.025232315,0.16091424,0.34415242,0.34833145,0.14158231,0.18544848,-0.15833846,0.1637809,-0.2515943,0.16358082,0.17910206,-0.0017442829,-0.31485575,0.10688877,-0.23491661,0.30992344,0.23939018,-0.013063283,-0.14983717,-0.24276523,0.19375676,-0.17207211,-0.23944941,0.12759058,-0.23757508,0.15978684,-0.1855037,-0.102425255,-0.2773944,-0.039061595,0.090217546,-0.13871816,0.22340553,0.1730708,-0.20578572,-0.015531444,-0.1472007,-0.054239158,-0.30776995,0.123574056,-0.1640498,-0.023989923,-0.14027435,0.08258724,0.06714472,-0.009665227,-0.32289416,0.005604545,-0.09594705,0.07658688,0.03986762,0.08273569,-0.14536619,0.2349168,0.1138439,-0.092522226,-0.38204724,-0.04660764,-0.112138
f8_i1,0.2065673,0.22883984,-0.08167022,-0.01913666,0.13029063,0.16686088,0.0032578476,-0.16801165,0.44330147,-0.25753695,0.25873098,-0.15951625,-0.33645868,-0.19818473,0.09403635,-0.025993273,-0.1777289,0.13033722,-0.09347008,0.2109973,-0.4026475,0.15844592,-0.0722493,-0.14439131,0.2744678,0.3891694,-0.27176264,0.22162631,-0.20200509,-0.11622537,0.023484621,0.19058871,0.054719236,0.33434278,-0.16522714,-0.29164892,-0.43467373,-0.13833863,-0.029209664,-0.06928865,0.33989662,0.032214534,0.078175604,0.045261804,0.109647766,-0.1420713,0.15694155,-0.08434383,-0.13243026,0.52057064,0.13750516,-0.12416136,0.15452018,-0.14071839,-0.15476225,-0.10800975,0.65706944,-0.09628657,0.17047887,0.24571069,0.14601032,0.19742186,0.23472244,0.23102778,-0.28875747,-0.06600743,0.08759307,0.27009246,0.026428955,0.24110071,0.11113655,-0.12963285,-0.054749057,0.21657747,0.1505608,-0.2595914,0.10029973,0.17795804,-0.105585724,-0.13145776,-0.15692028,0.67188036,-0.099785216,0.2381757,0.23060282,-0.22971721,0.28849894,-0.11956787,0.13186456,0.27008203,-0.16214141,-0.33255044,0.3158524,-0.104222775,0.5123716,0.15551779,-0.20338577,0.14524211,-0.25924343,0.22763501,0.4428251,-0.1999176,0.03848429,-0.24872106,0.12929809,-0.14716929,-0.1196102,-0.081025206,-0.30353037,0.045109965,-0.08048904,0.2002417,-0.1663816,-0.08096197,-0.17540279,0.25261098,-0.28895253,0.3014947,-0.15592255,-0.14186426,0.122129925,0.13570002,-0.21846285,-0.34183237,0.08914643,0.16391917,0.055082403,0.098617494,0.3157814,0.0953784,-0.36458397,-0.16574143,0.40552315,0.093048036,0.21667871,0.16893633,0.08006381,-0.14060147,-0.12649363,0.16387594,-0.17212287,0.2035316,0.12483269,0.16034742,-0.03101856,0.1620387,0.08700038,-0.17946343,0.16353332,-0.2174844,-0.20783658,0.30278742,-0.017954206,-0.10129916,0.24495417,-0.15678473,0.03206153,0.13513152,0.26454467,-0.10017827,-0.03235796,0.18042104,-0.17870736,-0.25727573,0.008292241,-0.2267199,0.31510448,-0.23610738,-0.30957037,-0.07559939,-0.22320968,0.21667679,-0.2508004,0.18204293,0.048445184,-0.28833163,0.13323554,-0.20849527,0.008083585,-0.18916579,-0.02015687,0.26901194,0.2515861,-0.2543078,0.25410536,0.18708299,0.14851294,-0.14404911,0.17741986,-0.19402947,0.0027218047,0.06595323,0.059470568,0.1811399,0.28204742,0.09900324,-0.1894718,-0.325319,-0.03202357,-0.23323493
f8_i2,0.28006423,0.19370537,-0.17918362,-0.22887962,0.16996984,0.15399055,0.18852071,-0.10575782,0.022247763,-0.07906143,0.18713999,-0.16629909,-0.066444404,-0.18983431,-0.24276671,-0.20536116,-0.32279193,0.1692956,-0.0061331717,0.24945925,-0.24493673,0.067585126,-0.068843044,0.06485961,0.2096658,0.18693745,0.2557788,0.23119222,-0.14343068,-0.14066502,-0.11573151,0.23258062,0.24146172,0.3196591,-0.23836105,-0.23074557,-0.33213064,-0.1879505,-0.25282124,-0.18218711,0.75809586,-0.011615017,0.16482647,0.2053227,0.22356051,-0.12291792,0.15129326,-0.20370404,-0.06726413,0.028696252,0.24816011,-0.19121972,0.26089764,-0.28743893,-0.17476907,0.04921345,-0.19242343,0.09755193,0.23275448,0.14679733,0.026203278,0.118006565,0.26261866,-0.07115911,-0.17635635,-0.201849,0.12393294,0.44204155,-0.18034524,0.19372152,-0.27822602,-0.2148508,-0.28035632,0.067325674,0.19013306,-0.4318345,0.3020505,0.013566135,-0.26610994,-0.18803762,-0.49927264,0.07852702,-0.16380139,0.16198507,-0.17880987,-0.20031127,0.15077868,-0.061501145,0.10092264,0.08532585,-0.27765897,-0.24581341,-0.009320363,-0.2651684,-0.27278715,0.23139222,-0.3737137,0.09825517,-0.12532131,0.15188573,0.074261904,-0.29188198,-0.13109018,-0.20438275,0.14000924,-0.25060764,-0.22123985,-0.10789994,-0.09925104,-0.0953795,0.009441205,0.25714234,-0.42034552,-0.25298372,-0.12502436,0.05616128,-0.03953394,0.04546281,-0.09738184,-0.20547616,0.04511086,0.1939718,-0.39116994,-0.20340833,0.114380404,-0.12233766,0.31845683,0.071030214,0.3581305,-0.029716294,-0.2087289,-0.14194691,0.51853675,0.0796219,-0.41916677,-0.04672819,0.17476588,-0.106245846,-0.20152237,-0.09860567,-0.29815644,0.1579822,0.21460453,0.1495434,0.09129283,0.18432744,0.16996661,-0.20960802,0.17061956,-0.41189823,-0.4158027,0.13378784,0.13362797,-0.70684314,0.016936034,-0.24063982,0.08811252,0.25282514,0.26358092,-0.06533874,-0.19195063,0.26522398,-0.13080761,-0.27347627,0.14971028,-0.2447144,-0.0357303,-0.1903402,-0.0028921096,-0.22134115,-0.1907976,0.17111965,-0.048786737,0.18879849,0.069649905,-0.16275784,-0.085684344,-0.0046226373,-0.016597185,-0.1824502,-0.104798414,-0.2781336,0.13270587,-0.21399125,0.16263069,0.16014184,0.12899803,-0.23813795,0.15876606,-0.10315347,0.14637418,0.21569157,0.18876983,0.2340215,0.15945847,0.026631625,-0.3281076,-0.12257252,0.33906546,-0.21299693
f8_i3,0.37849456,-0.21098284,-0.2208461,-0.29970366,0.2060635,0.10786175,-0.07018889,0.14353073,0.09100042,0.041606277,0.12947895,-0.18019713,-0.54776865,-0.23206294,-0.19704609,-0.22945145,-0.1047683,-0.023433272,0.057588253,0.2074259,-0.17481409,0.22361504,-0.26948702,-0.070623875,0.11420447,0.32211214,-0.079815425,0.09974269,-0.093576975,-0.21400487,-0.07009581,0.18667473,0.27688095,0.35666257,-0.05569569,-0.21887842,-0.17790875,-0.2483316,-0.21498963,-0.062468186,0.037556972,-0.09084093,0.2521541,0.19640353,0.16572048,-0.23458034,0.18379287,-0.2895869,-0.09140751,-0.09984454,0.03155936,0.06929339,0.12002793,-0.25002167,-0.16352563,-0.091562495,0.26593703,-0.03655558,0.20600349,-0.035453424,0.09907402,0.18504897,0.18146333,0.17953524,-0.07285099,-0.08575354,0.030250154,0.36427358,-0.030300215,0.036400914,0.06746704,-0.17455535,0.19485922,0.13528356,0.0995993,-0.08441112,0.16027151,-0.16406374,-0.19770555,-0.20442916,0.16613787,-0.23280045,-0.3125988,0.17223276,0.10089311,-0.18637685,0.11322162,-0.25095877,-0.22913761,0.058276102,-0.28848705,-0.06451055,0.066005744,-0.17960861,-0.01455442,0.27050945,-0.1761317,0.12688854,0.05615564,0.103384,0.26247984,-0.33011687,0.29484084,-0.21769476,0.136769,-0.09547256,-0.24996315,-0.16451152,-0.17243698,-0.4403074,-0.017523963,0.16586646,-0.20800288,0.009306742,0.060151957,0.090009704,-0.2210176,-0.3336383,-0.27699104,-0.11255184,-0.10874131,0.017536422,-0.07314248,-0.4482525,0.51781195,-0.4305326,0.3258674,0.1645491,0.25799286,0.17448625,-0.4031522,-0.032431018,0.012351745,0.06477008,0.11342045,0.2339462,0.2330423,-0.062277358,0.034164056,0.0788368,-0.3579374,0.17851034,0.16651751,0.20513722,0.1259658,0.099654146,0.18357171,-0.1968073,0.10064566,-0.4094899,-0.31550923,0.51712286,0.22445022,-0.09042413,0.08337633,-0.097502485,-0.0317378,0.08659928,-0.15222515,-0.15523003,-0.39085484,0.108335644,-0.036822416,-0.20463653,0.2044997,-0.4189448,0.22592333,-0.15993018,0.005882955,-0.27969933,-0.26170602,0.30108002,-0.4812392,0.14194812,-0.30510306,-0.24703884,0.38597882,-0.059629966,0.21640573,-0.2833116,0.3845959,0.100981236,0.08135816,-0.19058868,0.28439775,0.14291771,0.06968366,-0.1773128,0.19815788,-0.1327461,0.15385908,0.15623508,0.2640045,0.19327062,0.1634128,0.13917613,-0.23998629,-0.31462047,0.28339812,-0.23808335
f8_i4,0.13773209,-0.048447315,-0.040566966,-0.041527204,0.19842994,0.18158855,0.02972974,-0.18130717,0.2796973,0.005309086,0.0034998187,-0.32560143,0.079586275,-0.28935784,-0.18089469,-0.16604297,-0.13979462,0.07095753,-0.12027623,0.24742234,-0.22369409,0.17048204,-0.30854478,0.053767066,0.15971802,0.3613596,-0.13006389,0.124974795,-0.12037869,-0.07613504,-0.24675691,0.14169736,0.010437598,0.12484305,-0.061756253,-0.13168715,-0.12923165,-0.06904076,-0.07868741,-0.23547436,-0.19652139,-0.22199996,0.22474831,0.24637853,0.15411589,-0.19128202,0.19727077,-0.17047027,0.012683341,0.26416796,0.31265545,-0.2637838,0.2747667,-0.23026241,-0.117755994,-0.0016540964,-0.081362166,0.091206364,0.1753247,-0.2136375,0.29092956,0.25880086,0.1743179,0.18495642,-0.09204835,-0.1300955,0.05510766,0.497019,0.06684531,0.26541495,-0.030371388,-0.10010332,-0.15954728,0.13289557,0.1965505,0.11196832,0.2200847,-0.22173618,-0.07842763,-0.23142913,0.155642,0.34144613,-0.09336761,0.094769575,0.02174684,-0.1807256,0.10876665,-0.19248232,0.23843686,-0.13292418,-0.06640793,-0.124698296,0.33082864,-0.03647268,0.040296666,0.0035579645,-0.34404972,-0.094921,-0.08208477,0.086959004,0.058490098,-0.2011239,0.20859754,-0.20924601,0.045209333,-0.17351523,-0.2150234,-0.1655814,-0.18499266,0.052003223,-0.0713284,0.13897264,-0.42999285,0.20226619,-0.10250683,0.04566999,-0.20410685,-0.29414237,-0.25744766,-0.17493552,0.25832835,0.0832302,-0.017000023,-0.17710033,0.54208475,-0.38675138,0.10465088,0.09836752,0.10708986,0.11475348,-0.13906573,0.013624622,0.2503412,0.09937246,0.080966674,0.18162563,0.05372102,-0.015904782,0.14310099,0.6871543,-0.060542807,0.13401681,0.074125625,0.24946724,-0.0153931,0.15460564,0.25431156,-0.07911851,0.3000974,0.01379941,0.031620298,0.20623192,-0.045926113,-0.2705819,0.15973224,-0.23246232,0.2046414,0.19053899,0.24947953,-0.10089305,-0.116618834,0.13837458,-0.07599337,-0.106691316,0.2087985,-0.21573715,0.29224357,-0.21057232,-0.20475967,-0.10846429,-0.25372866,0.2028928,-0.3747941,0.12344646,-0.15588677,-0.21688648,0.1863347,-0.09300086,0.11388935,-0.20151463,0.38723782,-0.10907801,0.2714351,-0.12912855,0.20680659,0.13900635,0.21691838,-0.19161364,0.2486702,-0.3033212,0.1863772,0.23202059,-0.037209,0.19760832,0.2151073,0.08902252,0.20646779,-0.02194048,0.23988764,-0.22584464
f8_i5,0.1746191,0.13979782,-0.099021114,-0.21759166,0.2742396,0.1739199,0.1084419,-0.00032715139,-0.026519526,-0.06365789,0.086781584,-0.18392497,-0.5069076,0.017744554,-0.27431017,-0.16412751,-0.090898424,0.21900824,-0.18795633,0.22471268,0.10487765,0.18684795,-0.25724426,-0.02563713,0.18713993,0.30725816,-0.08474976,0.15014048,-0.23108186,-0.21489646,-0.06445065,0.16380209,0.23751988,0.024068296,-0.19362348,-0.11050919,-0.35511827,-0.17542736,-0.19650868,-0.042795114,0.22499876,-0.2806235,0.14337602,-0.044634283,0.20602569,-0.041680034,0.065513186,-0.24516542,-0.28041285,0.3025471,0.20456536,-0.18908149,0.14328368,-0.025152648,-0.23068902,-0.32370093,-0.19285157,0.2026907,0.1718284,0.35382548,0.11286808,0.20502508,0.27039725,0.18483934,-0.22821423,-0.1489481,0.20411676,-0.42423165,-0.11607468,-0.013604194,-0.22435883,-0.15714219,-0.205886,0.17249765,0.1713459,-0.3607425,-0.038043477,-0.28727946,-0.102091864,-0.060878173,-0.35045555,0.29296795,-0.24466078,0.1574995,0.14478706,-0.1446457,0.20458162,-0.21537575,0.08891871,-0.008489406,-0.18171473,-0.31209058,0.0330392,-0.22233897,0.14493057,0.21038727,-0.20859797,0.03989306,0.11957953,0.21999563,-0.17625281,-0.12692963,0.61678916,-0.15358827,0.20466216,-0.16602108,-0.28248137,-0.21161556,-0.21419814,-0.3437796,-0.25475177,0.11166432,0.23265994,-0.2504778,0.008361942,0.13938798,-0.088645965,-0.32080188,-0.05676287,-0.09834872,0.18999487,-0.06393823,-0.04733558,0.050551403,0.07132848,0.100853264,0.3271104,0.0737796,-0.12080375,0.21757793,-0.16866419,-0.15320592,0.10904635,0.16128343,0.010119197,0.17898798,0.15977588,0.030984325,-0.23756245,-0.48987913,0.05358246,0.2365842,0.08463944,-0.013598973,0.13556017,0.058106177,0.13959502,-0.21581537,0.20266047,-0.15607975,-0.023297435,-0.11438251,0.23639342,-0.012254125,0.09194364,-0.09803571,0.12901834,0.079009384,-0.23202793,-0.20226353,-0.5017725,0.2236533,-0.24083382,-0.13826509,0.184986,-0.13950288,0.25686246,-0.3238645,-0.17168473,-0.328749,-0.044802718,0.13968015,-0.10330063,0.13677995,-0.05247465,-0.19180843,0.039381936,-0.20683517,0.277992,-0.34746012,-0.09427742,-0.11923022,0.24548581,-0.2240764,0.1479709,0.1775123,0.16129215,0.045873176,0.13660158,-0.22316292,0.21500176,0.15665771,0.24314666,0.23456255,0.2666936,0.1125936,-0.003242597,-0.12613367,0.39189684,-0.2034394
f9_i1,0.21495347,0.12364961,-0.15037115,0.0071497755,0.26141557,0.15684271,0.16255236,-0.3196538,0.07721809,-0.3821367,0.20554136,-0.18469395,0.013691566,-0.17561454,-0.39644238,-0.06464102,-0.103387445,0.12151937,-0.23505117,0.26685742,-0.36399922,0.1807572,-0.044688426,0.08056895,0.20328847,0.17668116,-0.25912744,0.021624446,-0.18404107,-0.16986468,-0.123615526,0.0749843,0.07776541,0.14782153,-0.2453468,-0.1403252,-0.01567784,-0.07427527,-0.25945172,-0.12497769,-0.050469667,-0.35248837,0.07048245,0.26891956,0.19926527,-0.19880334,0.06979676,-0.141109,-0.16318001,-0.2428952,0.1350482,-0.2157478,0.0891419,-0.14911197,-0.15568511,-0.017109424,0.09726802,0.12642986,0.10431124,0.23687086,0.3516869,0.22786799,0.28998166,0.0013000409,-0.17432816,-0.042808298,0.21040003,0.1482502,0.048560012,0.253576,-0.29390836,-0.31126752,0.07359617,0.22392416,0.23684244,-0.25971907,0.20803875,-0.25689608,-0.10456583,-0.110512175,-0.1989108,-0.11618238,-0.08614064,0.16073756,0.0633563,-0.3126557,0.049788266,-0.102809764,0.24788257,0.45066044,-0.074568145,-0.30400684,0.12357836,-0.27318892,-0.0175952,0.3082659,-0.18074726,0.1919777,0.017557515,0.11385026,0.37120533,-0.08439953,0.113917276,-0.13821067,0.3452138,-0.15844269,-0.0054614684,-0.088860504,-0.19299732,0.2816685,-0.09147852,0.23719448,0.051947277,-0.14580989,-0.037948918,0.29290178,-0.14077248,-0.03358363,-0.13213421,-0.20057543,-0.21003808,0.13463879,-0.34893024,-0.0931675,0.18113299,-0.09533639,0.19664383,0.2158506,0.124635264,0.16288856,-0.1967696,-0.09586989,0.07731935,0.22711077,0.17793983,0.097903155,0.22287203,-0.17813937,-0.19664283,0.09487617,-0.06628899,0.072520114,0.12802514,0.29226127,0.25322667,0.26247147,0.24636388,-0.18519828,0.1586728,-0.37005946,-0.47179422,0.2697001,0.21231873,-0.075094745,0.16998972,-0.17828904,0.15327199,0.26359877,-0.18347582,-0.13416258,-0.30760834,0.10761373,-0.127143,-0.122508906,0.27715427,-0.14735365,0.06580289,-0.3313956,-0.39305535,-0.10900806,-0.017206741,0.1360311,-0.28325653,0.12886283,0.19009876,-0.17795394,0.05369149,-0.10888058,0.3456599,-0.34512532,-0.026292615,-0.2756104,0.15265676,-0.20983064,0.2876523,0.08409671,0.12397549,-0.29502037,0.14440353,-0.12382618,0.28155112,0.26631206,0.3311622,0.13384742,0.15173158,0.075724475,-0.1358205,-0.1624314,0.3121356,-0.19207105
f9_i2,0.09028964,0.012709704,-0.13629472,-0.277251,0.15517631,0.23454177,-0.04467518,-0.34995183,0.2614363,-0.27767313,0.17943521,-0.16564228,-0.4165955,-0.07824433,-0.04851895,-0.28506505,-0.12675339,0.20427704,-0.1588929,0.18443821,0.083227545,0.00014341326,0.046511084,0.010226892,0.16926596,0.3082503,-0.18649755,0.17450601,-0.104051985,-0.20746467,-0.06023946,0.16160718,0.02819959,0.3796645,-0.042106412,-0.11376376,-0.2195601,-0.13107677,-0.18441285,-0.2903228,-0.035936218,-0.17306805,0.08937244,0.2748025,0.1805354,-0.15230171,0.14721584,-0.33548874,-0.20892783,-0.29115584,-0.077122904,-0.22617832,0.14490756,-0.30251077,-0.14010191,0.023712428,-0.16268566,0.19488767,0.25241175,-0.32251096,0.055265013,0.13118222,0.22597723,0.39847374,-0.2507822,-0.091035016,0.16495217,0.05896413,-0.16405095,0.35983658,-0.011788376,-0.12711187,0.0022980063,0.04075241,0.1775839,-0.17253853,-0.17065057,-0.2259947,-0.25168526,-0.12604398,-0.031008633,0.5642044,-0.18645586,0.18156768,0.27390164,-0.012123581,0.13202834,-0.008239135,-0.0014724279,0.08147585,-0.14051928,-0.40162885,-0.0027354958,-0.030471753,0.32678983,0.2751599,-0.18927415,0.27948397,-0.13462794,0.06442878,-0.027108092,-0.05236593,0.2331768,-0.07215755,0.35056394,-0.17099659,-0.20957965,-0.27254856,-0.07643866,0.30020797,-0.12327448,0.07338256,-0.022828028,-0.34151763,-0.14886846,0.02833227,-0.17442387,0.40343085,-0.12343768,-0.14403544,-0.36685047,0.27447823,-0.34855738,-0.08502532,0.062115256,-0.4687108,0.12326976,0.08710656,0.08282048,0.25323877,-0.26518154,-0.16467503,-0.118129775,-0.0108090285,0.20909509,0.30147016,0.18280327,-0.12936354,-0.11100201,0.14958784,-0.03045986,0.26231617,0.018588884,0.26702097,0.11430618,0.160398,-0.021588134,-0.032129195,0.22567001,-0.33897924,-0.029692875,0.23521219,0.044922568,-0.2062673,0.08533304,-0.11120315,0.05984359,0.14002816,-0.4145932,-0.220998,-0.059301924,0.21913704,-0.020205025,-0.13989958,0.2799187,-0.15803196,0.20553504,-0.17857754,-0.23446189,0.034135364,-0.17877978,0.15817536,0.3281897,0.07068597,-0.13115604,-0.15983604,0.15519485,-0.16344492,0.024909722,0.01717769,0.23634575,0.058292072,0.2466617,-0.14739178,0.1979233,0.24014702,0.28472388,-0.2478296,0.24426596,-0.27818626,0.16323121,-0.04866768,0.2610964,0.27705258,0.17725022,0.0041137575,-0.061305944,0.039274916,0.26653603,-0.1778953
