conf,c_0,c_1,c_2,c_3,c_4,c_5,c_6,c_7,c_8,c_9,c_10,c_11,c_12,c_13,c_14,c_15,c_16,c_17,c_18,c_19,c_20,c_21,c_22,c_23,c_24,c_25,c_26,c_27,c_28,c_29,c_30,c_31,c_32,c_33,c_34,c_35,c_36,c_37,c_38,c_39,c_40,c_41,c_42,c_43,c_44,c_45,c_46,c_47,c_48,c_49,c_50,c_51,c_52,c_53,c_54,c_55,c_56,c_57,c_58,c_59,c_60,c_61,c_62,c_63,c_64,c_65,c_66,c_67,c_68,c_69,c_70,c_71,c_72,c_73,c_74,c_75,c_76,c_77,c_78,c_79,c_80,c_81,c_82,c_83,c_84,c_85,c_86,c_87,c_88,c_89,c_90,c_91,c_92,c_93,c_94,c_95,c_96,c_97,c_98,c_99,c_100,c_101,c_102,c_103,c_104,c_105,c_106,c_107,c_108,c_109,c_110,c_111,c_112,c_113,c_114,c_115,c_116,c_117,c_118,c_119,c_120,c_121,c_122,c_123,c_124,c_125,c_126,c_127,c_128,c_129,c_130,c_131,c_132,c_133,c_134,c_135,c_136,c_137,c_138,c_139,c_140,c_141,c_142,c_143,c_144,c_145,c_146,c_147,c_148,c_149,c_150,c_151,c_152,c_153,c_154,c_155,c_156,c_157,c_158,c_159,c_160,c_161,c_162,c_163,c_164,c_165,c_166,c_167,c_168,c_169,c_170,c_171,c_172,c_173,c_174,c_175,c_176,c_177,c_178,c_179,c_180,c_181,c_182,c_183,c_184,c_185,c_186,c_187,c_188,c_189,c_190,c_191,c_192,c_193,c_194,c_195,c_196,c_197,c_198,c_199,c_200,c_201,c_202,c_203,c_204,c_205,c_206,c_207,c_208,c_209,c_210,c_211,c_212,c_213,c_214,c_215,c_216,c_217,c_218,c_219,c_220,c_221,c_222,c_223,c_224,c_225,c_226,c_227,c_228,c_229,c_230,c_231,c_232,c_233,c_234,c_235,c_236,c_237,c_238,c_239,c_240,c_241,c_242,c_243,c_244,c_245,c_246,c_247,c_248,c_249,c_250,c_251,c_252,c_253,c_254,c_255,c_256,c_257,c_258,c_259,c_260,c_261,c_262,c_263,c_264,c_265,c_266,c_267,c_268,c_269,c_270,c_271,c_272,c_273,c_274,c_275,c_276,c_277,c_278,c_279,c_280,c_281,c_282,c_283,c_284,c_285,c_286,c_287,c_288,c_289,c_290,c_291,c_292,c_293,c_294,c_295,c_296,c_297,c_298,c_299,c_300,c_301,c_302,c_303,c_304,c_305,c_306,c_307,c_308,c_309,c_310,c_311,c_312,c_313,c_314,c_315,c_316,c_317,c_318,c_319,c_320,c_321,c_322,c_323,c_324,c_325,c_326,c_327,c_328,c_329,c_330,c_331,c_332,c_333,c_334,c_335,c_336,c_337,c_338,c_339,c_340,c_341,c_342,c_343,c_344,c_345,c_346,c_347,c_348,c_349,c_350,c_351,c_352,c_353,c_354,c_355,c_356,c_357,c_358,c_359,c_360,c_361,c_362,c_363,c_364,c_365,c_366,c_367,c_368,c_369,c_370,c_371,c_372,c_373,c_374,c_375,c_376,c_377,c_378,c_379,c_380,c_381,c_382,c_383,c_384,c_385,c_386,c_387,c_388,c_389,c_390,c_391,c_392,c_393,c_394,c_395,c_396,c_397,c_398,c_399
conf_0,-0.20420466,-0.13676445,-0.17789483,0.14797205,-0.04650934,0.027385592,-0.06680259,0.018105784,-0.21415211,-0.12756464,-0.02179148,0.090978816,0.095523894,-0.069937274,-0.10633477,-0.10778303,-0.1809875,-0.07016387,0.13288064,0.15441856,-0.15697148,-0.10088801,-1.1857683e-05,0.037038464,0.20302863,-0.08056974,-0.068739094,0.102448404,0.099190034,0.085497305,-0.006315581,0.02779649,0.18772052,0.20957354,-0.021430586,0.1320408,-0.05277758,-0.013476933,-0.08976359,0.15226504,-0.054423135,0.17022623,-0.04827989,-0.0982633,-0.21337576,0.024837103,0.10951685,-0.081290595,-0.07434714,0.07003651,0.110526636,0.06049895,0.177259,-0.14311294,0.22867039,-0.11857211,0.052560404,0.09864468,-0.11383606,0.21060929,0.15320368,0.18369286,-0.1995222,-0.03442229,0.1770641,0.017902145,-0.17418508,-0.12010567,0.008497933,0.08275969,0.08753813,0.09638736,-0.11916836,0.06972924,-0.06256009,-0.15477249,-0.12668946,0.04765777,0.080566384,-0.22272477,0.012298876,-0.15046632,-0.054093387,0.11827621,-0.23692685,0.18793699,-0.09769823,0.074769534,0.20517564,-0.16791764,0.07481128,0.021154363,0.03733132,0.24519266,0.18868648,-0.10172484,-0.15525432,0.03710191,-0.16858408,-0.17739122,0.1649153,-0.0020128135,-0.22349706,-0.09108074,-0.079997696,0.065604106,-0.041779485,0.028837018,0.12666391,-0.2191894,-0.16656032,-0.10176997,-0.16802114,-0.21357723,-0.08705923,-0.06101213,-0.0069561545,-0.14535469,-0.17681302,-0.044608112,0.11955854,0.0982666,0.0984527,-0.09469334,-0.15439647,0.14506331,-0.15755016,0.09221265,-0.015230391,0.14271009,-0.03892953,-0.09372127,0.075220466,0.035556387,0.0041239825,-0.14123626,0.09848012,0.1645076,-0.041125186,-0.082492635,-0.06784636,-0.01513516,-0.104527436,-0.05107626,-0.15735546,-0.05130661,0.12326516,0.08912007,0.06499503,-0.30444217,0.08085572,-0.14755306,0.06271847,-0.21875234,0.07475225,0.17724364,0.22276337,0.030247547,-0.031264313,0.20625356,-0.10538694,0.0033460676,-0.06912811,0.26550287,0.14285636,-0.034890674,-0.09726872,-0.102056116,0.09074518,-0.121838175,-0.120241135,0.12176684,-0.15673988,0.0011004277,-0.095470935,-0.12246496,0.15515234,0.09356163,0.017161587,-0.18342444,-0.08187265,0.033340763,0.004417531,0.09140043,-0.022968257,0.031945847,-0.04070896,-0.09813251,0.19033542,0.09667176,0.17775106,0.07441277,-0.06370317,0.099454455,-0.04176753,0.12066495,0.12850045,-0.18672638,0.07305882,0.042819653,0.23239754,-0.08071791,-0.07289914,0.13184398,-0.3317838,-0.15440428,-0.10307324,0.101248085,-0.043348964,-0.08823106,0.1715496,0.0218615,-0.009533851,-0.05994231,-0.104614384,0.041589804,-0.06986893,0.06938795,-0.11378764,0.11562728,-0.13313146,-0.13869697,-0.13419539,0.1591372,0.2804512,-0.011858029,-0.14004435,-0.0009819253,-0.046635143,-0.1311206,0.1043334,0.16997239,-0.011187283,0.08016645,0.20220871,-0.1909199,-0.20796855,-0.08933274,-0.046688255,-0.12210078,-0.050312895,-0.041038442,0.17225425,0.1241622,-0.048332833,0.015965162,0.12294749,-0.076739244,-0.15003546,-0.31309545,-0.06392846,0.27204522,-0.047519837,-0.046368387,-0.2208541,0.013475794,-0.05791102,0.047108382,0.29108596,-0.16173263,0.0061165025,-0.1090083,-0.16000436,0.10347152,-0.19016458,-0.085337445,-0.05513412,0.0063559497,0.18994707,0.03228975,-0.083883345,-0.14826879,0.17927215,0.11636085,0.13639161,-0.1511823,-0.013591649,0.12824404,0.0006497471,-0.13071047,-0.0055002384,0.09777724,0.10120966,0.05963708,-0.10477859,-0.12993342,0.082049794,0.007286564,-0.011691644,-0.054017544,-0.06286996,0.015315528,0.18977389,-0.08880856,-0.00514462,0.10136843,0.08744227,-0.013040452,0.105104186,0.14401254,0.09357444,0.08071318,0.15259151,0.0420418,0.2322371,0.062077913,-0.10747164,0.16164802,0.011779021,0.033877563,-0.00041452242,0.110374026,0.13068265,0.06661266,-0.07371656,-0.1321599,0.20631428,-0.17695996,0.07668824,0.12607132,0.068071306,0.040367056,-0.12578325,0.08618067,0.06870349,0.17953114,0.0867301,-0.22271559,0.116636164,0.17734127,0.044385042,-0.1498729,-0.27313069,0.15535362,0.14478579,0.08569101,-0.014704142,0.09610781,-0.20154732,0.08399869,0.21697716,-0.13900012,0.16427684,-0.04193334,0.14290221,0.12749477,0.034746066,0.21954781,0.12281883,0.073245935,-0.10694859,0.0059166662,0.10695558,0.20288037,-0.06454087,-0.15914255,0.06460184,-0.06992528,0.27356195,0.061743375,0.16832095,-0.028436467,0.251201,0.060675647,0.2110759,-0.07633032,0.09096522,0.0628402,0.09436987,0.056089744,-0.11775342,0.1668536,-0.0019347705,0.15810212,-0.19216749,0.05975529,-0.09490475,-0.08764504,0.09091035,-0.18028834,-0.15350376,-0.16172647,-0.10131673,0.16830045,0.1254234,0.006629048,-0.13220777,-0.19911283,-0.07550617,0.13341263,-0.1336758,-0.16326173,0.052630246,0.13310619,-0.10638941,0.13668944,-0.16331652,-0.032127924,0.050683517,0.032305837
conf_1,-0.0038424204,-0.08156271,-0.08669345,-0.046144847,-0.051913675,0.13928951,-0.18533333,0.38073027,-0.12892343,-0.13550305,-0.30767938,0.12143255,-0.08185171,0.010055768,-0.045864817,-0.017191647,-0.16598631,-0.07456516,0.1120642,-0.14040878,-0.08494785,-0.06683933,-0.055315714,0.18219177,-0.02714608,0.087008715,-0.026437439,0.119546756,0.07170748,0.103340626,-0.055070102,0.106995896,0.066902705,0.18703252,-0.055057555,0.13680416,-0.18026195,-0.12707222,-0.13812098,0.085942075,-0.10837986,0.12707525,0.010149704,0.12618399,-0.023274533,0.09932791,0.11591662,-0.038714565,-0.07340611,0.1343422,-0.1163121,-0.088891976,0.07429043,-0.15578344,-0.120598905,-0.17353903,0.1769169,0.21747072,-0.12547176,-0.13278663,0.08093063,0.27059126,-0.07361257,-0.094304435,0.19454429,0.008772187,-0.14659739,-0.060972676,-0.09946227,-0.0023655451,-0.0432637,0.17863223,-0.02190536,-0.08206204,-0.14416242,-0.15649259,-0.18289824,0.039875288,0.0062723123,-0.104869284,0.09317435,0.06104303,-0.13832341,0.0053765927,-0.22386886,-0.17603576,-0.12904486,0.022025723,0.046943255,-0.009521112,0.2123064,0.043260638,0.20567401,0.15622877,0.070862725,0.07872363,-0.15275544,0.07425345,-0.02319016,-0.0838002,0.16073312,0.011715167,0.01385073,0.18329656,-0.19238125,0.053406574,-0.039979197,0.15760846,0.09925236,-0.066733904,-0.16922535,-0.26219967,-0.21229735,-0.16265742,-0.082922034,0.004928049,0.06998252,0.102994785,-0.121532395,0.1282981,-0.028603267,0.1968654,0.13586874,-0.09567045,-0.22763051,0.09614377,-0.04092152,0.032632597,-0.104366966,0.04289913,-0.059350807,-0.07713679,-0.13541397,-0.093580626,0.17758493,-0.08889133,0.23613375,0.10651337,0.016521782,-0.0477275,0.080022745,-0.058868997,-0.100735426,-0.041363396,-0.10770319,-0.08599422,0.2285282,0.050923906,0.12453629,-0.07657432,0.11953211,-0.0259804,0.18942875,0.06293052,0.057682812,0.0138970455,0.17994693,0.11064842,-0.10173876,0.30891994,-0.07903082,-0.04025954,-0.06535711,0.20297375,0.14798945,-0.008654841,-0.098906666,-0.08342892,0.10258723,-0.21517727,-0.10683924,0.02790569,-0.13606226,-0.11047185,-0.04200026,-0.0889005,0.09112487,0.114484854,0.17352346,-0.09145196,-0.04107964,0.02412767,-0.14295012,0.05818476,-0.20078383,0.13917072,-0.027310533,-0.043224845,0.14244859,-0.14215797,0.09424576,0.16390419,-0.19934046,0.14633995,0.071527794,0.17917489,0.06482261,-0.14558265,-0.20114233,-0.0031027466,0.080535464,-0.08813633,-0.3925644,0.17777371,-0.18418351,-0.13567813,-0.04353503,0.005702981,0.017615976,-0.10084453,0.14195365,0.058744762,-0.09380415,-0.06167608,-0.19343701,-0.090079464,-0.117401995,-0.047471885,-0.03661194,0.124365464,-0.089681745,-0.112878,-0.13048287,0.026449978,0.08555113,0.2096616,-0.19722614,-0.07504123,0.034949575,-0.08885456,0.13788939,0.1661359,0.34499258,0.002325998,0.14689822,-0.0958812,-0.35906053,-0.060805175,-0.13697346,-0.06532553,-0.06242349,0.10809508,0.02058307,0.04470884,-0.16868713,0.09321304,0.08636389,-0.1732021,-0.121180505,-0.20465708,0.045936115,0.27543086,0.05079242,0.0023592697,-0.08971146,-0.17637262,-0.113611,0.11733472,-0.062569804,-0.25235006,0.2441874,-0.10287813,-0.1989501,0.24059586,0.12529552,-0.17644005,0.08554551,-0.07324121,0.18719098,0.14617543,-0.12987533,-0.16010049,0.090231374,0.15240598,-0.13702182,-0.123300925,-0.10961161,-0.045574613,-0.14623944,-0.091186255,0.35942334,-0.03937456,0.061358463,0.22034743,-0.0756873,0.14836638,0.13082688,0.1306662,-0.020361166,-0.05263871,-0.15913449,0.1299619,0.06466596,-0.14617333,-0.06486569,0.13366958,0.20245744,0.110976264,-0.01779753,0.16029698,0.13757844,-0.012982955,0.16597986,-0.032219585,0.06707546,0.071119465,-0.07403474,0.14244634,-0.13811177,-0.083828345,0.101716615,-0.0758398,0.07324313,-0.040305242,0.11909112,-0.11345877,0.148652,-0.15222709,0.045203853,0.24007629,0.1273708,0.07706204,-0.18223755,-0.04690217,0.045400366,0.11914451,0.1435659,-0.12793134,0.07382618,0.028984293,0.030911425,0.024000825,0.06729315,0.117020816,0.06300098,0.087399274,-0.124639526,-0.11394763,-0.002676711,-0.2075877,0.03382099,-0.2122493,-0.025920158,-0.033847895,0.22801572,-0.08636098,0.16193795,0.18602443,0.15112045,0.13241716,0.07996319,0.022905232,0.089959115,0.12637019,-0.14142111,-0.1747309,0.15736456,-0.16975093,0.17365348,0.048070166,-0.052687626,-0.028020453,0.07054001,-0.011733005,0.12467633,-0.1045922,0.13814579,0.2730849,0.08917402,0.045390144,-0.009111675,0.07774962,0.047024228,0.014345885,-0.035216104,0.043267585,0.079245046,-0.09418853,0.10623449,-0.044748683,-0.12754488,-0.18016936,0.060598653,0.09574138,0.13830149,-0.2523828,-0.14768647,-0.15625846,-0.007155055,0.09541911,-0.157472,-0.19649784,0.012344856,0.12850419,-0.094708115,0.07615685,-0.14534236,-0.104406245,0.1025167,0.123141885
conf_2,-0.2017538,-0.0818805,-0.17919128,0.06277173,-0.16701084,-0.05903769,-0.10059609,-0.041656923,-0.07576658,-0.12657835,-0.16155943,0.09644129,-0.009522458,0.0050587365,-0.09258507,0.10883682,-0.050497998,-0.13414967,0.19152997,-0.12939139,-0.09590543,-0.12025983,0.04874968,-0.13789727,-0.21586801,0.13929047,-0.03823766,0.15452924,0.051991668,-0.0049626064,0.031705853,0.034592245,0.022924582,0.01096732,-0.17994507,0.11215295,0.0083128195,-0.09775873,-0.040103838,0.021247841,-0.17341185,0.04741667,0.074138895,0.02292224,-0.1242593,0.025285255,0.059655935,-0.12869109,-0.10208973,0.066685215,-0.056119673,-0.11978658,0.1007954,-0.1274641,-0.2709948,-0.15798335,0.22920504,-0.055485383,-0.083357185,0.03800651,0.22274217,0.11224231,0.02162659,-0.05970025,0.040144976,0.059056856,-0.13637307,-0.22267944,-0.11384038,0.22263291,0.13726881,0.14717215,0.025172083,-0.09519446,-0.13908996,-0.1358961,-0.06902047,-0.043454375,0.084149055,-0.12705939,0.26821467,0.24285845,-0.19349916,0.025184747,0.014433329,-0.12123024,-0.033400588,0.15780087,0.028497284,-0.06621263,0.13075317,-0.11771586,0.15202057,0.20416674,0.09337384,0.0016180967,-0.15558104,0.12667231,0.029282883,-0.21636258,0.11636212,-0.15540884,0.019082692,-0.017438907,-0.034140043,0.06237627,0.03852001,0.17335859,0.02701055,0.11493198,-0.09663932,-0.20635581,-0.07736803,-0.1730434,-0.16248879,-0.13425955,0.095282085,0.067245215,-0.10773395,0.031780206,0.09781552,0.16195752,0.13935879,-0.08365057,-0.11697037,0.103958145,-0.10843749,-0.087264545,0.06357792,0.13277599,-0.07534017,0.109519325,0.01692141,-0.100832336,0.18236275,-0.26559192,0.10304608,0.22346966,0.10494867,-0.14795509,0.096088246,-0.11724692,-0.10589451,-0.061073266,-0.16350183,-0.050311048,0.07205074,-0.21351922,0.03791249,0.29122525,-0.0061439737,-0.18422675,0.2268681,-0.26567072,-0.066639565,-0.015821794,0.10406761,0.062682174,-0.092872865,0.05701192,-0.093224965,-0.024150902,-0.05708283,0.30342376,0.09181252,0.13407807,-0.01751478,-0.124861956,0.20344515,-0.093770705,-0.01946876,0.17621686,-0.09885328,0.16798064,-0.08299529,-0.11946982,0.16360319,0.17752253,0.114079274,-0.03248984,-0.17917255,0.057981983,0.021098878,0.06631735,-0.22740659,0.21304734,-0.21750635,-0.13786335,0.056258027,0.12922774,0.12629129,0.1944028,-0.13340095,0.10804118,-0.19414192,0.12246611,-0.0022400222,-0.015359872,0.1305728,0.19564195,0.08072836,0.11304041,-0.02540524,0.17883293,0.08179151,-0.08374357,-0.36988613,0.14137319,0.10968996,-0.20501716,0.09029129,0.14020306,-0.08912322,-0.04516629,-0.22132665,-0.012980908,-0.3247547,0.18358262,-0.06127044,-0.040279046,-0.113870144,-0.12030559,-0.22341968,0.058367293,-0.20706543,0.09481093,-0.033902176,0.17645107,-0.1073962,-0.092327885,0.16178647,0.061354995,0.0239088,0.27001378,0.0773598,0.04575169,-0.08748373,-0.121526,-0.010697109,-0.20383821,0.028223155,0.011101858,-0.059357684,0.019116411,-0.073177636,0.06918869,0.15460017,-0.16761366,-0.10502343,-0.20358326,0.196279,-0.07386061,-0.13788395,-0.029561644,-0.11090493,-0.13366736,0.014404578,0.11819336,-0.11397505,0.07121344,0.10018242,-0.085334554,-0.20741814,0.1105127,-0.008618779,-0.08093923,-0.015864933,-7.188935e-05,-0.07272224,-0.31107146,-0.1452486,-0.17941508,0.1704412,0.15357886,0.1434654,-0.13911362,-0.12786101,0.031642564,-0.14981559,-0.19447024,0.24764246,0.003978293,0.15917957,0.09800293,0.16547385,0.21181627,0.046032377,-0.059601687,-0.0882816,-0.1579794,0.023536537,0.07044057,0.13315096,-0.12593403,-0.17235953,0.20222059,0.105012245,0.04046595,0.19904494,0.11472157,-0.014130574,-0.008278615,0.14877726,-0.19359526,0.22661416,-0.27727088,-0.13359849,0.014415026,-0.2041515,-0.066864416,0.08132613,0.032512363,-0.038704053,-0.08294998,-0.086786315,-0.088266216,0.00622554,-0.16548274,-0.032518096,0.26063028,0.060142204,-0.019717352,0.045635242,0.17343336,-0.13322744,0.085166246,0.062492073,-0.15853424,0.051049415,0.25346375,0.075367264,-0.10577204,-0.027367253,-0.027834015,-0.009502301,0.09209759,-0.10292484,0.01872155,-0.07088477,0.07897231,0.15127425,-0.12435015,0.14209571,0.059047267,0.15396392,-0.1752529,0.056657355,0.08767229,0.33093044,0.12450355,0.088262394,0.1780271,0.14851315,0.02227269,-0.087509036,-0.14137349,0.057819992,-0.15134212,0.09014305,0.0888132,-0.079962075,-0.09696101,0.1815575,-0.13745567,0.067312956,-0.08763792,0.068600275,0.3015605,0.08514391,0.010166288,-0.06454221,0.014016835,-0.25535554,0.23980273,-0.12219205,0.039159916,-0.0948764,0.05068606,-0.021136142,-0.15268208,0.017409455,-0.1936331,0.02108598,0.12257173,0.091351695,-0.13999958,-0.1177315,-0.06636393,-0.12082588,0.029969595,-0.1359456,-0.08930362,0.024627268,-0.00089129317,-0.12320273,0.018333457,-0.092294335,0.16455312,0.10061171,0.108760506
conf_3,-0.23301315,-0.2516691,-0.1460496,0.22734267,-0.1305158,-0.03607719,0.013158528,0.03118462,-0.15050623,-0.06567014,-0.15239266,0.09317071,0.068269834,0.01364149,-0.04920612,0.16994143,-0.18817608,-0.18057874,0.11610552,0.17998052,-0.1259134,-0.09068434,-0.005957378,-0.054765705,0.0044143326,0.002328084,-0.08270531,0.05509461,0.1566284,0.0479905,0.09313569,0.0149375135,0.08303875,0.112649225,-0.13856335,0.21092525,-0.15480125,-0.14731349,-0.07841012,-0.008399995,-0.22205253,0.09246429,0.07441481,0.21807478,-0.06772249,0.07275035,0.050274663,-0.15657578,-0.11061415,0.1456093,0.015848735,-0.053439796,0.22666885,-0.147082,-0.029982805,-0.041570436,0.0053983075,-0.14560649,-0.16092387,-0.11838941,0.03416802,0.19026743,-0.10560448,-0.10172314,0.18901855,0.012067032,-0.04503277,-0.030921025,-0.076458886,0.016890747,0.15823421,0.117712446,-0.073102064,-0.16789545,-0.049326215,-0.094901025,-0.13843891,0.1251356,0.19427495,-0.08507788,0.047929715,0.1423134,-0.035038013,0.14711009,-0.2870325,0.03082505,0.014088549,0.10716982,0.057111412,-0.2250541,0.08105356,-0.047263816,0.15117465,0.17515258,0.10827309,-0.12029791,0.19825797,0.018202884,-0.14042415,-0.061715413,0.17813161,-0.16450062,-0.03151536,-0.026692936,-0.036847048,0.084953316,-0.06432324,-0.08169976,0.11286101,-0.16008314,-0.11947441,-0.15133524,-0.1281739,0.0069350647,-0.048110094,-0.07175565,0.12433186,-0.124787964,-0.06380172,0.0066990983,0.0032468857,-0.077175945,0.115900405,-0.151297,0.06872406,0.06792034,-0.05479405,0.09858798,-0.06536668,0.1895512,-0.06829909,-0.10359102,0.20584841,-0.1507644,-0.10605203,-0.06300087,0.097638845,0.14170468,-0.010379197,-0.2295233,0.10356442,-0.122263245,-0.13220887,-0.15064274,-0.082672946,-0.17140396,0.018923378,-0.09099807,0.16379227,-0.12040047,0.15162192,-0.13676712,0.17036992,-0.28003976,-0.15779221,-0.17472124,0.13966323,-0.3261866,-0.12434719,0.12103576,-0.15796545,0.017447634,-0.10557924,0.17429546,0.12458971,-0.18459116,-0.15152436,-0.0977606,0.024752432,-0.1304271,-0.1054021,0.12977885,-0.10722198,-0.15117098,0.009570634,-0.14963223,0.09374673,0.12533092,0.089173354,-0.063145086,-0.123667195,0.17228404,-0.12692343,0.15433656,-0.06913172,-0.06723283,0.19664888,-0.119507775,0.10323059,0.19615266,0.16208541,0.20995423,-0.10873819,0.10265841,0.02526861,0.000988762,0.009550324,-0.11197556,-0.109857,0.004739852,-0.015496431,0.024966002,-0.15160052,0.034223773,0.07289341,-0.14186226,0.039852,0.039740145,-0.07277756,-0.08048724,0.10905236,-0.07688286,-0.13242434,-0.13526313,-0.119833514,0.0051521114,-0.2123555,-0.07020017,-0.04913236,0.1678172,-0.16870743,-0.07308212,-0.07778098,0.05480289,0.2103833,0.05207977,-0.09911028,0.011818758,-0.030914407,-0.15348189,0.09569708,0.19717747,-0.047739644,0.003909089,0.12676409,0.0070993584,0.20613122,-0.062824145,-0.0938456,-0.16100925,-0.06492555,0.008887118,0.07055998,0.11929541,-0.142624,0.15692723,0.09991168,-0.09368795,-0.13479911,-0.091430664,0.0876536,0.16753721,-0.115703255,0.18198347,-0.13163263,-0.10101083,0.119046204,0.08895683,-0.17236865,-0.057504695,0.09599508,-0.17411737,-0.23179588,0.21529731,0.14201596,-0.10285973,0.04032806,-0.20491691,0.14497916,-0.0015438085,-0.14292467,-0.077828534,0.03552266,0.0359022,-0.21988025,-0.08808132,-0.13148749,-0.1861431,-0.07436534,-0.0009247414,0.035290346,0.11451035,0.13868876,0.06876029,-0.16657002,0.08006386,0.18720518,0.09431889,-0.044680234,-0.06960148,-0.081922,0.03583972,-0.0012637229,-0.0016867188,-0.08476574,0.07620117,0.13057749,0.061980914,0.041993745,0.08015001,0.011193495,0.15351234,0.14234087,-0.097204335,0.14184631,0.13770716,-0.10081681,0.027665151,-0.07379943,-0.065443166,0.124368235,0.13228,0.27539432,0.17056593,-0.16675457,-0.07640191,-0.07351875,-0.071105056,-0.077380374,0.20310633,0.07899597,0.14957523,-0.01954129,-0.021538178,-0.09746386,0.1532255,0.15796304,-0.087399155,0.079164855,0.11962316,-0.014951366,-0.120296985,0.028424306,0.13724294,-0.13253467,0.09771755,-0.03963641,0.10719348,-0.08578889,-0.21103202,0.03968159,-0.11979289,0.004663848,-0.044047497,-0.0059619388,0.0792683,0.06677928,0.043133378,-0.06179082,0.100370646,-0.16233246,0.07436502,0.032969277,0.12131372,-0.063797064,-0.1773872,0.0110305445,-0.16843858,0.15904424,0.025924526,0.2758931,-0.02117724,0.22876552,-0.00853698,-0.0022027495,-0.16646509,0.115734115,0.0769953,0.13093731,0.0027807727,-0.110457115,0.1054369,-0.21688904,0.058326166,-0.13948014,0.05370578,0.051902987,-0.22085676,-0.04012376,-0.03307191,-0.14483373,-0.0833539,0.08464662,0.05138404,0.08465344,0.0996894,-0.16126503,-0.060488567,-0.15259922,0.02327318,-0.0246824,-0.16869798,0.13755623,0.11864787,-0.12674668,0.031665117,-0.14078179,-0.26229584,-0.010461403,-0.02251537
conf_4,-0.0873943,-0.1481398,-0.094610676,0.23693888,-0.08457492,0.122297786,-0.114219226,0.20273119,-0.09254517,-0.23512672,-0.05831454,0.15118115,0.009248729,-0.12813257,-0.13879494,0.027695391,-0.120232195,-0.053300854,0.09854874,0.019702472,-0.12647504,-0.070248775,0.086914495,0.06886018,-0.12956257,0.10233611,0.23834893,0.13756786,0.15480338,0.07254428,0.1130059,0.06313672,-0.0068718363,0.009090231,-0.09921875,0.20730865,-0.057364948,-0.061775584,-0.1545854,0.27668473,-0.18888046,0.10022541,0.07760311,-0.14045356,-0.19329385,0.20121308,0.20052469,-0.1949389,-0.1734111,0.022070425,0.12934728,-0.12027679,0.18492684,-0.044282857,0.0033305604,-0.1935269,0.17261612,0.12914066,-0.10008309,-0.10135449,0.13634016,0.045910932,-0.035471883,-0.055322,0.032382883,0.07725036,-0.11991291,-0.17507425,-0.06565906,0.09301499,-0.05484662,-0.006337727,-0.13413993,-0.05832668,-0.1755922,-0.10369279,-0.15058567,0.14616066,0.19067277,-0.10712432,0.09894023,-0.088382475,-0.08770508,0.1876845,-0.24033073,0.2037908,-0.09115502,0.10733978,0.13670583,-0.12602262,0.14026172,0.14807838,0.0645677,0.11248433,0.14046082,0.032535486,-0.08723568,0.0996694,-0.025896415,0.01778563,0.06751863,-0.16581592,-0.05368694,0.15313843,-0.10637923,0.019923436,-0.013222825,0.059702348,0.16831622,0.036868427,-0.121375255,-0.208469,0.014063723,-0.0966828,-0.07059053,-0.08811564,0.080044314,0.012108001,-0.117361486,-0.16795714,0.1405197,0.16441734,0.14927988,-0.07848958,-0.11190438,0.1433582,-0.13552001,0.19536096,0.10220202,0.062068958,-0.15634933,-0.16722454,0.14707106,-0.043657754,-0.039268456,-0.0055072797,0.13772395,0.14732654,0.16815238,-0.10936724,0.0926667,-0.16127674,-0.09539822,-0.059017647,-0.059114903,-0.07168569,0.07834689,0.17861068,0.16478962,0.020811403,0.0714285,-0.033343907,0.17161188,-0.18442537,-0.016739681,-0.08687729,0.15426949,-0.11611998,-0.071650214,0.15765655,0.037786823,-0.06757124,-0.10469601,-0.033632644,0.14176904,-0.0020134116,-0.04694616,-0.11767464,0.08335305,-0.1495074,-0.15439801,0.13255548,-0.030915119,-0.07781068,-0.16473688,-0.15227817,0.18875223,0.13578558,0.12736711,-0.096454084,-0.08171491,0.091987796,0.03874494,0.055527482,-0.03297743,0.12933688,-0.23693284,-0.05738968,0.14679782,-0.059165496,0.14738455,0.19297381,-0.118291765,0.13360384,0.074765034,0.14313737,0.046061404,-0.22062297,-0.10886341,-0.029383883,0.12113699,-0.10303102,0.031814363,0.031488255,-0.2570737,0.0958112,-0.08652779,0.13416314,0.048179124,-0.17200707,0.22126414,0.16058137,-0.10328268,-0.052879523,0.0201605,-0.068330035,-0.088504665,-0.08227255,-0.14975011,0.15299983,-0.20129533,0.0108715575,-0.16544703,0.105102755,0.053855095,0.04198949,-0.09334205,-0.08631219,0.094860524,-0.12599525,0.09997684,0.110881776,0.07064638,0.013423508,0.10966989,-0.03211414,-0.11693261,-0.0799078,-0.03172222,-0.16383451,-0.043143928,0.091127045,0.08962073,0.062367197,-0.137338,0.108350486,0.048524693,0.0029093353,-0.082244985,-0.28830287,-0.047737412,0.27843213,-0.12303458,0.08018299,-0.035337802,-0.06862994,0.15601903,0.0013967216,-0.0042620134,-0.22150007,0.17480798,-0.17148988,-0.12896575,0.05216341,0.17345844,-0.057692073,-0.03861542,-0.10029795,0.08209586,0.01776297,-0.114642285,-0.115252405,0.1045553,0.12910847,0.10955303,-0.10507676,-0.10727884,0.021495085,0.06366723,-0.12955406,-0.11004222,0.14291184,0.1631516,0.058026843,0.15746002,-0.03717021,0.00444136,0.019370018,-0.17347123,-0.13989061,-0.000107425454,0.06650352,0.08136923,-0.11471119,0.03739084,0.17823882,0.1151448,0.01726366,0.079818085,0.12404197,0.15931821,0.13827336,0.13226846,-0.13439155,0.1121887,-0.09897895,-0.0841501,0.1310832,-0.09071511,-0.1725641,-0.09673313,0.07789926,0.08335922,0.21885401,0.19309804,-0.097543664,0.12479989,-0.14058842,0.13764936,0.19754124,0.15570647,0.040767703,-0.24709335,0.08379028,-0.006347742,0.10013569,0.12698878,-0.09925946,0.21352659,0.16879211,0.01186548,-0.15754104,-0.20672788,0.15201189,0.031215306,0.15040013,-0.06904083,0.19692236,-0.0653026,0.092906,0.07130731,-0.06251499,0.1211502,0.1604007,0.12250708,-0.04914362,0.14799203,0.18302448,0.013180776,0.18632619,0.22089203,0.010751057,0.07275612,0.07742069,-0.13423121,-0.1249453,0.13195354,-0.111430384,-0.016516162,0.12907995,0.03480613,0.117118664,0.07566165,-0.118551515,-0.2196978,-0.1653195,0.1184292,-0.061454616,0.12426696,-0.2176215,-0.17290702,0.088022724,-0.025061086,0.13868712,-0.0033627274,0.14679734,-0.0018406693,-0.07387929,0.05626786,-0.09549117,-0.11066279,-0.15907228,0.07901651,0.15539576,0.17297131,0.150557,-0.08729501,-0.09114189,0.031362046,0.022246866,-0.094983846,-0.13506679,0.06789332,0.050208107,-0.103170075,0.14975135,-0.11676049,-0.07266748,0.13596584,0.1556591
conf_5,-0.14820354,-0.14342701,-0.1447245,-0.0082728695,-0.109795116,0.110003166,-0.17731857,-0.054611415,-0.12447149,-0.15108424,0.04362742,0.061835837,-0.009512645,0.021901257,-0.18326233,0.13021836,-0.09225921,-0.19391689,0.07543666,-0.08646981,-0.23281999,-0.14415704,0.16871698,-0.18297505,-0.10338466,0.024331532,0.09591663,0.10251556,0.09620949,0.06283525,0.09499685,0.105081305,0.10599643,0.094194144,-0.14956991,0.12428938,-0.15044335,-0.14487323,-0.11440251,0.08968968,-0.06483237,0.13591829,0.09457556,-0.038794752,-0.10526058,0.08803591,0.12653586,-0.11022664,-0.074536316,0.09670543,0.07951574,-0.06503636,0.16385056,-0.19160171,0.12909016,-0.032439966,0.10414221,0.04212668,-0.10280526,-0.17646016,0.15799895,0.024490278,-0.11264672,-0.100502,0.115908705,0.06041622,-0.08453181,0.008919258,-0.0710948,0.08766666,0.11116093,0.032652617,-0.08007434,-0.037251547,-0.17406318,-0.062462296,-0.13674337,0.103450224,0.25019494,-0.12582722,0.0852871,0.005731342,-0.094247594,0.15667978,-0.13629054,0.12149636,-0.07667887,0.1771615,0.109363094,-0.10832082,0.14705928,0.03845551,0.1529526,0.15979506,0.17137095,0.019367507,0.021678569,0.1192944,-0.01889498,-0.0073405644,0.006469331,-0.22613984,-0.014523064,-0.06583967,-0.18126619,0.032182615,-0.03482823,-0.03517787,0.057336435,0.13990968,-0.19716783,-0.08374736,0.119962536,-0.08440661,-0.11725931,-0.11128362,0.15032607,0.059141096,-0.08116374,0.114991054,0.11399783,0.08286117,0.15444224,-0.084010735,-0.11852089,0.10887207,-0.12374571,0.18042701,0.055005908,0.12348189,-0.094720736,-0.008520867,0.2166915,-0.19714598,-0.18452862,0.023967076,0.1516691,0.1602087,0.15229322,-0.05661966,0.083707206,-0.14184147,-0.13099715,-0.13760033,-0.106387995,-0.088095546,0.027743852,0.060029946,0.15339182,0.13015153,0.13339807,-0.060385726,0.20185535,-0.21679088,0.05922666,0.029391466,0.052364465,0.06962691,-0.10110157,0.13091122,-0.12826629,-0.0017582644,-0.12712905,0.016484985,0.19639575,0.03905562,-0.19376938,-0.15276596,0.116676256,-0.06603753,-0.13396934,0.1282455,-0.15970024,-0.06269388,-0.11643178,-0.079668425,0.18688639,0.1292362,0.07725086,-0.14474376,-0.15962268,0.19546852,-0.113915965,0.07483705,0.0071790065,0.13859539,-0.17965125,-0.022559606,0.15000401,-0.022890158,0.080153055,0.282841,-0.075285904,0.16398545,0.059026837,0.12640122,0.06458231,-0.17701769,-0.045530442,0.11325703,-0.08788904,-0.087514475,0.04383541,0.1647111,-0.12992695,-0.13164242,-0.035636332,0.22126798,0.09960278,-0.077133745,0.11025481,0.17970453,-0.08772853,-0.20368992,-0.15402126,-0.068894684,-0.003228803,-0.031870224,-0.1628522,0.20525292,-0.11047762,0.035353042,-0.17401004,0.12741503,-0.017533073,0.0494067,-0.095113516,-0.051200364,-0.05550164,-0.09463191,0.108348005,0.12475401,0.05300109,-0.07169483,0.10406815,-0.060955293,0.040259458,-0.07055133,-0.09521727,-0.19042747,-0.03315734,0.0018455788,0.09287048,0.034338813,-0.08446042,0.1687534,0.11688355,-0.04639434,-0.1108157,-0.13521023,0.04614922,-0.11828592,-0.10521148,0.033445742,-0.17818448,-0.21162248,0.09401088,0.08000692,-0.07173446,0.058651317,0.036317304,-0.1474813,-0.09346061,0.1364775,-0.026427599,-0.14182518,0.15686396,-0.041433115,0.13408548,0.12961031,-0.16374674,-0.15122037,0.08910597,0.09852022,-0.084789224,-0.11146035,-0.29615912,-0.26377487,0.09592608,-0.16043413,-0.057788685,0.17374477,0.12360695,0.16060051,0.029512238,0.07366798,-0.04012657,0.115766555,-0.11279915,-0.017865084,-0.14515655,0.17482959,0.100013375,-0.22849044,-0.16532025,0.10302463,0.17876953,0.16226687,0.2280804,0.09661624,0.18824907,0.15369622,0.15327924,-0.060197648,0.062413838,-0.24441184,-0.064393446,0.11163904,0.077112816,-0.08003396,0.008743496,0.12094242,0.11729668,0.11017542,-0.0127480095,-0.15744196,0.035702493,-0.10953015,-0.07875441,0.21843542,0.12443954,0.08638494,-0.019872624,0.112211116,-0.10019597,0.026897155,0.012443634,-0.12446355,0.18558832,0.17049998,0.094186455,-0.058202427,0.09372804,0.13454793,-0.059560068,0.08272759,-0.06695213,0.17393166,-0.14254136,0.12773532,0.12319775,0.10100021,0.05898549,0.08791297,0.17636512,-0.15864454,0.15609336,0.10134685,-0.02195789,0.06936896,-0.030341085,0.14365683,0.15686503,0.09039826,-0.102585405,-0.15263309,0.054540962,-0.11849789,0.20918947,0.17677218,-0.033869736,-0.215247,0.18529178,-0.0924722,-0.168005,-0.1601431,0.038209207,0.15170655,0.11213,-0.01847415,-0.011681554,0.094703756,-0.055650618,0.19375683,-0.19942088,0.03602933,-0.026157157,-0.13177267,-0.00650404,-0.118145354,0.06922986,-0.080171004,-0.0051877624,0.1698737,0.15610762,0.13954161,-0.03844929,-0.16633144,-0.1481415,0.13560382,-0.17450812,-0.06309128,0.045252427,0.1723088,-0.06797257,0.02271973,0.042540282,0.12111939,0.027078297,0.121541895
conf_6,-0.11481859,-0.019940665,-0.102235004,-0.0015904524,-0.018024921,0.16111845,-0.10270233,-0.11773673,-0.075186275,-0.09011034,-0.038140535,0.11817634,-0.07717226,-0.07727888,-0.0028898497,0.16326609,-0.13351081,-0.067894116,0.042515557,0.10870987,-0.1386327,-0.14177814,0.14847212,0.05700901,-0.00014982329,0.017188007,0.17706963,0.08657545,0.24438658,0.13653097,0.08963859,-0.08621876,0.08300816,0.0135081615,-0.13174696,-0.03268677,-0.046870507,-0.0889096,-0.15875685,0.029365353,-0.07727024,0.10046226,0.026555806,-0.0046536475,-0.048144046,-0.045229137,0.18374716,-0.08730994,-0.090233006,0.101438634,0.16003732,-0.1905591,0.39207894,-0.13222472,-0.1021818,-0.103745155,0.018428156,0.014098302,-0.09252591,-0.029000055,0.07599917,0.05918826,-0.1544986,-0.09373103,0.08990048,0.18105677,-0.0028536527,-0.1252159,-0.13780668,0.06267771,0.11393021,0.0107391365,-0.17143783,0.013762382,-0.07103874,-0.07212958,-0.032652806,0.049348574,0.1580361,-0.06136648,0.17691565,0.10158691,-0.071718276,0.13436054,-0.16240717,0.13997638,-0.061013803,0.044617333,0.12649314,-0.12031899,0.12270344,-0.041350514,0.14571387,0.1729446,0.14700261,-0.19399129,0.21168716,0.07895075,0.0445273,-0.04555055,0.1519265,-0.0757377,-0.19894007,-0.23349138,-0.0800438,0.11860041,0.12821847,0.23517291,-0.029714208,0.00064918195,0.07933182,-0.13607648,-0.06934228,-0.15570295,-0.043206945,-0.22143632,0.20780642,0.21779281,-0.07348186,0.07338837,0.093874395,0.16401097,0.10153417,0.100925915,-0.22128071,0.115070745,-0.16304624,0.12975414,-0.10237623,0.15610568,-0.12325639,-0.103189506,0.23846565,-0.032026976,0.029216507,0.045819703,0.10897875,0.07249679,0.2258749,-0.09445469,0.08841407,-0.03450575,0.011467022,-0.046315588,-0.13604662,-0.128781,0.10218658,-0.23708192,0.07857957,0.0015906089,0.10575595,-0.0833514,0.13283285,-0.1895471,-0.021516271,0.14312305,0.1606016,-0.16898169,-0.13065171,0.053748723,-0.19762449,-0.00837998,-0.09033474,-0.003212759,0.2011313,0.114481024,-0.07091955,-0.054364394,0.085864894,-0.15740228,-0.11450535,0.19194579,-0.01744332,-0.22848399,-0.13119991,-0.20158976,0.19822901,0.051068712,0.10970018,-0.016080668,-0.14546275,0.114635326,0.11921588,-0.11924749,-0.03245914,0.2229252,0.061848976,-0.16251011,0.14168485,-0.16973884,0.2208653,0.13122259,-0.037975624,0.0457183,-0.14263603,0.10601446,0.0857182,-0.10140357,-0.15522355,0.10820005,-0.115566954,0.012137384,0.18423901,0.10540119,-0.2615686,-0.13369553,-0.060720723,0.1963802,-0.13297884,-0.13261251,0.0886178,0.20017086,-0.038137987,-0.11242275,0.08161354,0.14446673,-0.21165408,0.15918125,-0.17365639,0.14761814,-0.13668795,-0.04242022,-0.128722,0.11968198,0.11763254,0.033076856,0.036398765,0.12615076,-0.058552325,-0.028350305,0.15372106,0.13987918,-0.011401108,-0.062364694,0.01641707,-0.24409409,-0.036795806,-0.1320218,0.18850905,-0.10707543,-0.06678181,0.022555815,-0.027773406,0.0344332,-0.12842658,0.07155492,0.11983219,0.01675722,-0.13069482,-0.2300961,0.20050952,0.052094594,-0.0962818,0.03906287,-0.051817488,-0.12639132,0.15954936,0.0052061356,-0.013022158,0.25426665,0.13936006,-0.04757515,-0.028326305,0.12699081,0.049472332,-0.11768439,-0.0025185077,-0.09315567,0.18085833,0.02972273,-0.026954336,-0.08068579,0.12197851,0.12815073,0.074493825,-0.14417478,-0.2785093,-0.13537443,-0.030574817,-0.16344954,-0.21735503,0.12265744,0.0663484,0.08794136,-0.011760552,-0.045066133,0.11374049,0.12027832,-0.05206645,-0.04933506,-0.11663341,0.11146669,0.11529317,-0.19318058,0.048165865,0.067053385,0.1773439,0.10638559,0.07313039,0.12949397,0.12970617,0.022222513,0.14060105,-0.13432968,0.08218782,-0.1686668,-0.102722004,0.13389927,0.085419066,-0.07732483,-0.07098364,-0.039074842,0.06779418,0.14304425,0.090604514,0.0010331195,-0.21556093,0.010808478,0.19485769,0.15918222,0.043324698,0.041108157,-0.004204358,0.14440852,0.0896236,0.19191553,0.09530054,-0.11618695,0.17621009,0.1241482,0.08679611,-0.090687096,0.47657737,0.11971852,-0.2261223,0.09028551,0.012976794,0.20497464,-0.080812454,0.3589759,-0.09296894,-0.11891224,-0.0042166123,0.13930647,0.09268799,-0.094518304,-0.04761184,0.14817926,0.038183067,0.02173724,0.018006569,0.07730044,0.18329038,0.06468557,-0.12016759,-0.12754858,0.17619394,-0.1089388,0.15042122,0.07118623,0.094390586,-0.067621686,0.10444962,0.060111936,0.031381134,-0.16452071,0.12657057,0.18268594,0.16710697,-0.1873306,0.13521647,0.06670021,0.05906611,0.19485892,-0.26381734,0.1932592,-0.20593897,-0.07312797,0.028210659,-0.093532525,-0.09076215,-0.10727389,-0.01767854,0.11220958,0.10881799,-0.20686506,-0.10463918,-0.110369265,-0.021432834,-0.07105151,-0.13696946,-0.20146821,0.10382642,0.067148775,-0.064464204,0.063494004,-0.13870838,-0.08886344,0.18964659,-0.020455375
conf_7,-0.12243066,-0.053815354,-0.046999454,-0.117229946,-0.1357177,-0.058466688,-0.12994796,-0.0070036566,-0.11109297,-0.13750076,0.07252745,0.08545703,-0.06868583,-0.084087275,-0.06048848,0.14582758,-0.16120161,-0.16262889,0.065626174,0.013145083,-0.15088531,-0.09160639,0.16917256,-0.12425828,-0.049490314,-0.051598415,0.10332926,0.12250132,0.22003567,-0.03009264,-0.06184007,0.1667986,0.12523493,0.07707768,-0.13507691,0.18249695,-0.077099845,-0.1184622,-0.11706057,-0.0019639016,-0.15429357,0.07732094,-0.04156238,-0.15982442,-0.08726378,-0.13649072,-0.035805233,-0.06660872,-0.03516075,0.13727415,0.07247829,-0.003942295,-0.010408215,-0.15287462,0.028413888,-0.20227091,0.0927774,-0.118499584,-0.07674099,0.10899049,0.16447192,0.14498787,0.009313131,-0.08848529,0.06916552,0.15895273,-0.07817034,-0.03654075,-0.12977886,0.16525717,-0.0132327,0.2060217,-0.034315787,-0.19958238,-0.029491302,-0.20978072,-0.032160554,0.13371423,0.110995494,-0.17681035,0.11705048,0.025428573,-0.12611644,0.072444014,-0.25017503,0.049152665,-0.10220655,0.08207547,0.045678787,-0.11111606,0.08755398,-0.22153781,0.0948153,0.13557559,0.07868047,0.10373768,0.06490203,0.07136499,0.22076733,-0.22059505,0.21666914,0.07703572,-0.03396998,-0.018000275,-0.19181815,0.05703431,-0.17307377,0.18772683,0.0747258,0.24003032,-0.10884434,0.025891066,-0.040665265,-0.17508103,-0.1865619,-0.19001259,0.04241819,0.1380081,-0.029189907,-0.13516742,0.13756381,0.12850878,0.17331652,-0.15041971,-0.17186998,0.15311868,-0.14215134,-0.29503503,0.10344568,0.0028425988,-0.07101628,-0.24720922,0.16298561,-0.13167459,0.21638052,-0.09639518,0.14882094,0.15376343,0.10497632,-0.10065404,0.18453808,-0.07972731,-0.10019016,-0.16811138,-0.04910303,-0.10398841,0.22949342,-0.035935372,0.088403724,-0.08018635,0.17543761,-0.13565592,0.12948503,-0.14791565,-0.034788072,0.022688683,0.14279914,0.21721353,-0.1586506,0.09289044,0.1026317,-0.0040180427,-0.124484316,-0.05056384,0.08995235,0.009109833,0.016705269,-0.04471006,0.019509435,-0.17440791,-0.082294375,0.16566592,-0.057237178,0.07206505,-0.10226145,-0.13252743,0.08738861,0.14239258,0.07148459,-0.030583216,-0.10409616,0.120968595,-0.11051446,0.042331416,-0.09558808,-0.060195148,-0.16415124,-0.08447935,0.06432295,0.048638634,0.12954816,0.14199835,-0.1593302,0.08836359,-0.064070925,0.07956788,0.045990337,-0.111618,-0.14684486,0.025665225,0.18018457,-0.02130365,-0.022975937,0.14582492,-0.012008587,-0.07248748,-0.27351904,0.11667743,0.011580161,-0.1508313,0.06724369,0.1288985,-0.18550196,-0.11234274,-0.18008287,-0.04896052,0.040711273,0.44804043,-0.08766739,0.14044407,-0.07112102,0.002205524,-0.08548626,0.102095574,0.028487265,0.09241883,-0.032550864,0.084874526,-0.056853384,-0.06861135,0.06770549,-0.14047359,-0.11721451,-0.19514276,0.13150343,-0.02331099,0.057613935,-0.18499258,-0.14810923,-0.251565,-0.032167714,0.05839396,-0.041646674,0.1703546,-0.105645485,0.11319098,0.14079784,-0.19753052,-0.08345003,-0.07755763,0.24496436,-0.12441894,-0.21203452,0.0022772024,-0.14921786,-0.03474085,0.16480684,0.17171481,0.01786035,-0.21387665,0.0902189,-0.17527224,-0.19179046,-0.07142743,-0.050701473,-0.11995385,0.027390845,-0.13909683,0.0024406207,0.02013855,-0.07232197,-0.15165032,0.25825986,0.09707017,0.0032173172,-0.12536407,-0.29086852,0.13127781,-0.1017894,-0.107741535,-0.09843935,0.13114516,0.16609971,-0.16484505,0.18726009,0.29795298,0.2616809,0.1505386,-0.15543243,-0.15746193,-0.053533968,0.027547786,0.08045004,-0.16625117,-0.17079338,0.10490002,0.06163257,0.11843648,0.07149402,0.18311232,0.04155002,0.09773128,0.18291748,-0.10229042,0.25566798,-0.19505362,-0.077191815,0.109907836,-0.1025745,-0.030200735,-0.01572583,0.1744571,0.056308802,-0.05553433,-0.114584215,-0.17236437,0.13105609,0.003102168,0.117381044,-0.17646283,0.011234995,0.042740602,-0.06709509,0.038965564,-0.18998104,0.24007937,-0.027705029,-0.13397972,0.057198964,0.2516102,0.14497486,-0.09741717,-0.3543369,0.1828205,-0.12279972,0.16772993,-0.15044487,0.18742152,-0.1509729,-0.07105487,0.05727809,-0.09745829,0.17874153,0.014304577,0.054947592,-0.13183717,-0.028094998,0.11491941,0.17920235,0.07259024,-0.0015589143,-0.017180571,0.0018983068,0.15293626,-0.09076106,-0.04236855,0.11932497,-0.041174524,-0.09900395,0.050781228,-0.2109738,0.24558643,0.08766879,-0.14082547,-0.23557638,-0.055348404,0.12376364,0.22503042,0.102252804,-0.07924219,-0.32531458,-0.0034274876,-0.05007518,0.21805027,-0.11325391,0.1059877,-0.15485853,-0.026144598,0.2138197,-0.14437112,0.03484912,-0.15817069,0.058440577,0.0325687,0.14321744,0.11578908,-0.0782566,-0.14415643,-0.022886787,0.006054699,-0.11575853,-0.11054882,0.06767263,0.11190863,-0.21423063,0.07186697,0.044736646,-0.030657766,0.06499331,0.05657652
conf_8,-0.091929175,-0.22584285,-0.13663872,0.19421756,-0.15298782,-0.1435792,-0.121483706,-0.29402542,-0.083861776,-0.10801377,-0.16233389,0.092222616,0.034976505,-0.16942082,-0.06301859,0.09169208,-0.026778145,-0.15907794,0.08071541,0.032767247,-0.08097319,-0.08446613,0.16629133,-0.066665255,-0.17634338,-0.15957054,-0.063975945,0.11314284,0.16061942,0.122653894,0.20391032,0.061130065,0.0047204145,0.05657464,0.0038487557,0.14851175,-0.065556265,-0.060241226,-0.15104915,0.042892527,-0.19770308,0.14431845,-0.030943107,-0.1446644,-0.174174,0.069961846,0.13631186,-0.1201026,-0.05229204,0.1321112,0.052098684,-0.11746117,0.09152966,-0.07324553,0.12288903,-0.27102163,-0.0017895378,0.027491547,-0.18788585,-0.16381323,0.11321228,0.21554318,-0.048090078,-0.0069572246,0.058881488,0.1195374,-0.1317578,-0.23595352,-0.10371627,0.1489376,0.056838922,0.13494353,-0.02610331,-0.07423117,-0.13666302,-0.1935448,-0.12045323,-0.015704509,0.15919891,-0.13895272,0.20479438,0.35756654,-0.10381172,0.11133367,0.07388898,0.23438103,-0.01630274,0.01028264,0.13418315,-0.057294708,0.1462965,-0.037810933,0.13938487,0.12704201,0.121392526,0.122924305,0.034665134,0.1631299,0.25695875,-0.23347121,0.07712344,-0.1293491,-0.06961412,0.109488465,-0.039574157,0.07122424,0.07868263,0.09558583,0.05139205,-0.19804814,0.09757067,-0.12473386,-0.28441304,-0.22078978,-0.11378801,-0.004630381,0.09354156,0.23354736,-0.058009587,0.07202415,0.17796668,0.27425817,0.16889952,0.089970246,-0.14514528,0.13532303,-0.069091976,-0.018933108,0.27100813,-0.010618688,-0.16245976,0.06017239,0.22050555,-0.1534048,0.1971723,-0.2210606,0.12042796,0.20732473,0.058196116,-0.12244968,0.097546674,-0.06044612,-0.07334401,-0.12019889,-0.13722187,0.058665026,0.09150106,-0.13103378,0.121100545,0.06713959,0.010490034,-0.08390704,0.18069212,-0.097422324,0.25917026,-0.18177038,0.09002468,-0.1856304,-0.057340518,0.04933395,-0.062754236,0.2662457,-0.09148341,0.105764285,0.08380149,0.061484557,-0.14168006,-0.007541457,0.067394875,-0.09565557,-0.075526156,0.21301141,-0.052755382,0.108641066,-0.09202284,-0.1981987,0.051050927,0.19908443,0.06807753,-0.053497113,-0.050501682,0.061036192,0.05136751,0.08015872,-0.16160162,0.1854073,-0.11082855,-0.112071194,0.19605437,-0.24103609,0.0565464,0.22536911,-0.17135227,0.20672977,-0.15618236,0.09922904,0.054717556,-0.14169979,-0.101794675,0.06699289,0.17990711,0.023219606,-0.25419143,0.050963785,0.17034891,-0.17303911,-0.29558387,0.13172027,0.2438425,-0.06546211,-0.061684936,-0.0117266085,-0.10792581,0.054156844,-0.007549721,0.05708054,-0.170039,0.07785269,-0.14419715,0.10367914,-0.12596671,0.0029325897,-0.1375429,0.055626623,0.06588654,0.16304488,-0.017915012,0.070985205,-0.10337544,-0.1865854,0.19667764,0.103702165,-0.06230064,0.24813437,0.22678477,-0.051440664,-0.27392858,-0.031434324,0.0054792576,-0.06070998,-0.01625496,0.031833768,0.033755153,0.111723505,-0.12976815,0.12613061,0.11213692,-0.13421877,-0.15490131,-0.22188641,0.026113689,0.07389615,-0.17792217,-0.06566669,-0.09246194,-0.03291616,0.15448245,0.18452549,-0.13378978,0.12703845,-0.026313717,-0.05229105,-0.20440124,0.16131592,0.124948755,-0.075124,-0.12731428,0.083223596,0.06066993,-0.16762045,-0.023232719,-0.17873465,0.1627405,0.1582364,0.2403424,-0.117460325,-0.11840187,0.07662561,-0.074324936,-0.1706617,-0.026011297,0.07636406,0.1708753,0.022109991,0.25979,0.029596651,0.106893316,0.18429063,-0.13298927,-0.19642897,-0.04818297,0.09945872,0.14649276,-0.043713186,-0.042714655,0.11439659,0.16988148,0.027088324,0.020320956,0.14843448,-0.057119895,0.0022085246,0.10117429,-0.12781858,0.2622176,-0.27208495,-0.11847558,0.06464609,-0.18814345,0.0075537646,0.24441956,-0.03890315,0.1084023,0.021834277,-0.044687912,-0.1396531,-0.030973151,-0.0799266,0.08832008,0.09552137,0.1407402,-0.0066043567,0.11758243,0.063527666,-0.2109252,0.007807122,0.26118603,-0.062227085,0.15283959,0.18900856,0.006366472,0.00020281153,0.12366606,0.10708244,-0.21522193,0.13007972,-0.24326539,0.13941975,-0.11893914,0.16530018,0.20446168,-0.27261615,0.051720507,0.065026306,0.0652562,-0.12234347,0.11678925,0.11522288,0.13759771,-0.0049529593,0.17179169,0.06836956,0.050707184,0.09669813,-0.16734292,-0.15057737,0.19724557,-0.18376084,0.08472342,0.052556444,0.13191505,0.075060785,0.12279542,-0.052335884,-0.020634059,-0.12025619,-0.028913321,0.055773113,0.1050121,0.16282466,-0.16237752,-0.018816572,-0.088201724,0.17109862,-0.00371428,0.17501332,-0.22276902,-0.01486453,0.18325935,-0.1475051,0.003801085,-0.12854329,-0.043195672,0.118790954,0.093934834,-0.16012262,-0.07976192,-0.10408232,-0.039586175,0.07488704,-0.12207327,0.0688333,0.110112116,0.09979307,-0.07221452,0.11640417,-0.17297305,0.34114224,0.071854144,0.10151789
conf_9,-0.1409974,-0.17813493,-0.19121279,-0.039579198,-0.048641898,-0.019920725,-0.06731722,-0.07478653,-0.11730839,-0.066367105,-0.052811116,0.12770377,0.15491478,-0.049091317,-0.05606839,0.06821159,-0.21468303,-0.16677421,0.0780883,-0.09327861,-0.20875978,-0.14770468,0.0109662665,-0.2897313,0.015247367,0.21054687,0.089393295,0.109916955,0.06217765,0.14610706,0.064930275,0.043804962,0.1337877,0.11750456,-0.07811479,0.08517907,-0.16052367,-0.023355843,-0.034794897,0.25337055,-0.21464044,0.19692281,0.14517176,-0.060857765,-0.06799012,0.011523641,0.069923475,-0.1415025,-0.10437619,0.052806254,0.09747893,-0.17911494,0.021070939,-0.13764404,-0.110672295,-0.07918039,-0.028197113,0.04477751,-0.08826923,-0.1515555,0.14551553,0.07156567,-0.110954404,-0.07337303,0.15013708,0.09121192,-0.10000479,-0.17254987,-0.062436983,0.13674666,0.050029363,0.16172515,-0.13574618,0.052343495,-0.12714149,-0.16422124,-0.16684727,0.1402147,0.15318844,-0.16128689,0.19702427,0.004804999,-0.11035926,0.1032048,-0.13942629,0.13173664,-0.08173892,0.104721665,0.21499835,-0.1491825,0.15848336,0.013699933,0.18796222,0.20506327,0.13768202,-0.18065241,0.1479871,0.087325275,0.13481474,-0.2392252,0.21652374,-0.13086604,-0.1820595,0.0026252603,-0.18822865,0.18031347,0.063213624,0.048148796,0.16751198,-0.18680455,-0.01480916,-0.043278277,0.13816409,-0.22426726,-0.14527671,-0.16792421,0.07898836,-0.031388886,-0.10902362,0.015497905,0.01609384,0.12237675,0.084028795,-0.050019752,-0.043532614,0.05137521,-0.11360527,0.002443749,0.11599642,0.03537258,-0.0914116,-0.0960236,0.018152354,-0.12996192,0.20237456,-0.19282216,0.16068234,0.14346941,0.14840393,-0.1625261,0.12081616,-0.14746128,-0.10255265,-0.048435368,-0.18069243,-0.17676204,0.14190802,-0.26004404,0.06753959,0.03601884,0.09223491,-0.11191034,0.096052095,-0.10038402,0.05725798,-0.0716538,0.16628133,0.13800304,-0.031195877,0.14882171,-0.10619404,0.1315297,-0.09768868,0.16342361,0.17284533,0.1149339,-0.051620148,-0.02201624,0.098343275,-0.071663946,-0.04153545,0.062783845,-0.2006101,-0.17169806,0.018107308,-0.13473246,0.19597973,0.13386583,0.2036788,-0.13060577,-0.119303726,0.10413319,0.22281154,0.11739053,-0.11880748,0.009534117,-0.012466627,-0.02347421,0.24957344,-0.342862,0.029740496,0.07010274,-0.05538988,0.17579372,-0.28144285,0.09573862,0.1424772,-0.16794547,0.032492813,0.03234912,0.10571803,-0.047257036,-0.14717464,0.16145632,-0.04236841,-0.072466895,0.0677796,0.08256602,0.1625526,-0.05316359,0.0042818757,-0.02653671,-0.18422191,-0.15996136,-0.08053748,0.1726663,-0.079045095,0.1317514,-0.23183745,0.04361618,-0.08966995,-0.11029963,-0.079339564,0.04338037,0.113406405,0.03249924,-0.11420274,0.07092344,-0.12883803,-0.14555112,0.14541799,0.10170825,-0.2179917,0.1922776,0.10389857,-0.17683002,-0.024632495,-0.10227786,-0.17846556,-0.069022246,0.16360418,-0.063152075,-0.059226066,0.12186339,-0.19177043,0.061296713,0.098958485,-0.09818135,-0.10901424,-0.12535957,0.24868552,0.19062316,-0.19650808,-0.09926909,-0.18550931,-0.09478823,0.016123401,0.13175873,-0.051990207,-0.055931605,0.17416488,-0.099114224,-0.1363883,0.054694425,0.18341228,-0.1312515,-0.026752656,0.093203425,0.18242116,-0.020910366,-0.15123472,-0.07098109,0.19350107,0.12005758,0.10581958,-0.12834455,-0.078875884,-0.08932882,-0.07115866,-0.13406968,-0.16568409,0.12788324,0.09984655,0.006173463,0.07073906,0.0042697396,0.140709,-0.1916469,-0.095929585,-0.017392442,-0.117785126,0.11843558,0.030559696,-0.2043402,-0.0992739,0.17687675,0.155346,0.053538438,0.034156874,0.10423677,0.20660047,0.10418574,0.1822418,-0.0515252,0.21821186,-0.16773424,-0.17145242,0.02358074,-0.09775787,-0.10073582,-0.1764314,0.049733162,-0.08227082,0.11925874,-0.055058233,-0.06843525,0.17526598,-0.2165607,-0.09406919,0.2218069,-0.022645855,0.040125657,0.078903876,0.21622883,-0.04223768,0.12818164,0.115468666,-0.18121235,0.1001989,0.17752321,0.15052915,-0.18669371,-0.1759667,0.03317939,-0.2399224,0.14079794,-0.10196612,0.21182097,-0.18121602,-0.030776458,0.2836612,-0.18860745,0.06675706,-0.10873789,0.080474235,-0.010021095,0.013434036,0.11834793,0.1879643,-0.018711526,0.12259574,0.08942387,0.13208772,0.1922882,-0.1517195,-0.14331202,0.10401959,-0.11065098,0.0986278,0.050751567,-0.03308134,-0.17841133,0.1872594,-0.25100255,-0.096327454,-0.13754989,0.10524906,0.2951845,0.1815194,-0.16632804,0.0218027,0.086360745,-0.114684254,0.16486372,-0.21310182,0.04344098,-0.17670733,0.019899357,-0.14832656,-0.13505547,0.025058674,-0.102049865,-0.14966872,0.07121042,0.13776506,-0.12111134,-0.13712494,-0.09126718,-0.10220076,0.057909917,-0.2058376,-0.10890437,0.028494896,0.104720704,-0.14262599,0.028099565,0.043737218,-0.024332965,0.015696565,0.17056452
conf_10,-0.062628284,-0.17027755,-0.102375165,0.16598377,-0.03592693,-0.02688502,-0.114222765,0.03495967,-0.088620044,-0.16346577,-0.00086173194,0.07277328,-0.0039285584,0.17792481,-0.13600017,0.101686865,-0.13451391,-0.16808732,-0.017864553,-0.16801566,-0.19015524,-0.02884867,0.028439129,0.05618567,-0.18778521,0.052296065,-0.0568894,0.1418454,0.089404196,0.12659857,0.031053754,0.05048243,0.057836782,0.029651476,0.051071975,0.1297238,-0.10146233,-0.039323144,-0.18606278,0.08183472,-0.098682426,0.14363526,0.078385,-0.07251865,-0.15119937,0.033797566,0.10033439,-0.09688533,-0.07670526,0.1540526,0.1824706,-0.01414104,0.13157256,-0.103408724,-0.03186695,-0.12391729,0.21915723,0.23667967,-0.093331926,-0.16715923,0.25051346,0.14796977,-0.15140016,-0.07806878,0.06875754,0.11559407,-0.11547268,-0.021569269,0.0014660368,0.09710885,-0.04346989,0.019744156,-0.07586114,-0.15824033,-0.09486678,-0.16866426,-0.08967142,0.23106655,0.15756437,-0.10539116,0.34185973,0.041798864,-0.16958272,0.08385391,-0.17416683,0.12843178,-0.09836502,0.08449444,0.029973589,-0.17281,0.14394253,0.028185938,0.17284314,0.07857377,-0.005685348,0.067061305,0.099945836,0.07736116,-0.026013248,-0.05808606,0.09211502,-0.20213246,0.06092951,-0.080341145,-0.103095725,0.035330877,-0.0078729335,0.18604684,0.102332234,0.0019298608,-0.11160445,-0.18419358,0.027183983,-0.003260248,-0.18438709,0.007912445,-0.022505099,0.054090615,-0.10054009,0.012992495,0.1314691,0.13243942,0.07998087,0.019642927,-0.24771504,0.13290755,-0.16986321,0.010080902,0.10346615,0.022162028,-0.103863016,-0.14678922,0.19924818,-0.14496955,-0.1155014,-0.029856956,0.14292595,0.14923625,-0.039791748,-0.09834735,0.1186117,-0.14183551,-0.07562212,-0.12553027,-0.19853869,-0.051122263,0.12978823,0.039466616,0.18740548,-0.050627425,0.07973572,-0.0782178,0.10473831,-0.26139602,-0.021398377,-0.041032866,0.18096967,0.101432025,-0.09057439,0.2309912,0.02887553,0.061390024,-0.09942759,0.20884189,0.09565354,0.10701548,-0.0844329,-0.14528789,0.1595273,-0.121319905,-0.15809934,0.17110758,-0.087651975,-0.03186411,-0.1356087,-0.12615693,0.16438442,0.14167489,0.12569225,-0.14309281,-0.22458509,0.06773029,0.069283426,0.21733044,-0.21639131,0.083951615,-0.17715606,-0.24004927,0.12794417,0.08504329,0.21406844,0.15232538,-0.10974322,0.12911242,-0.053492706,0.028503604,0.14353803,-0.13884246,-0.023001714,0.03744772,0.25748327,0.013273618,-0.13798587,0.054632302,0.01373215,-0.06891474,-0.0027359927,0.20080034,0.199899,-0.17008585,0.022667686,0.13643774,-0.18464197,-0.14274172,-0.12234779,0.050333634,-0.08034795,0.12293743,-0.1532993,0.088067345,-0.13748088,0.004835496,-0.19754381,0.102149755,0.005957112,0.122510575,-0.13395461,0.049842577,-0.16302784,-0.11970553,0.16746494,-0.030091256,-0.11023312,-0.15907112,0.09674682,-0.041707255,0.1211926,-0.025778344,-0.08239289,-0.11255653,0.032111593,0.028190399,0.06888268,0.1264739,-0.11568277,0.10897756,0.098742336,-0.19560395,-0.17671178,-0.14506437,-0.017620688,-0.024313802,-0.2517366,-0.07788254,-0.09197649,-0.12462843,0.14073685,0.085327476,-0.11807174,-0.22096515,0.048546188,-0.15247568,-0.1329033,0.101940215,-0.10036113,-0.15442973,0.0483528,0.006837199,0.21345885,0.013491301,-0.12550731,-0.10471642,0.08129613,0.15234412,0.026463116,-0.06463595,-0.04596481,0.034733973,-0.093695536,-0.09790215,-0.0040179887,0.21502997,0.13939743,0.1871106,-0.007485797,0.26413226,-0.00031993137,0.13184416,-0.09173767,-0.13978137,0.01599323,0.06497449,0.11326259,-0.10029739,-0.2275718,0.0960477,0.07752386,0.10122637,0.11995836,0.109158546,0.07641028,0.13811557,0.19904773,-0.14180984,-0.044493932,-0.021021085,-0.110389344,0.069220655,-0.014022987,-0.1362786,0.117778555,-0.049321935,0.03116117,0.18705766,-0.11204421,-0.118896484,0.09266521,-0.1381141,-0.17664951,0.060336456,0.039596844,0.03109239,-0.055446055,0.18280818,-0.23620349,0.14833012,-0.08058995,-0.1035202,0.07125954,0.15560175,0.09674344,-0.18776537,-0.101956144,0.04797853,-0.07767509,0.10586166,0.015965613,0.08953205,-0.14770268,-0.051072013,0.034273475,-0.09407343,0.101381846,0.119803175,0.085557446,-0.18150395,0.042696577,0.13452043,0.22371583,0.167182,0.044132866,0.20552525,0.009553726,0.080341026,-0.048251737,-0.12479023,0.091400184,-0.022496352,-0.053130712,0.16254336,0.22425908,0.2614,0.08733364,0.08538577,-0.07536602,-0.098733544,0.10810392,0.1522488,0.11132615,0.09338735,-0.18321475,-0.004702696,-0.080896094,0.1822163,-0.0586634,-0.03995013,-0.07914965,0.058813907,0.14361192,-0.15012085,0.110084474,-0.15779077,0.06934766,0.089075066,0.16075587,0.1247616,-0.08830922,-0.12186401,0.008291516,0.26243573,-0.1647841,-0.076840736,0.06951824,0.15575261,-0.1878002,0.22701725,-0.10229418,0.039472215,0.044783343,0.14296974
conf_11,-0.13262825,-0.13570434,-0.1522576,0.06901431,-0.116443075,0.007341704,-0.0991904,-0.11349913,-0.030701924,-0.16653705,-0.068054505,0.014247824,0.2194554,0.044261277,-0.15258504,0.114923514,-0.07737714,-0.04245516,0.212774,-0.057818454,-0.0720431,-0.115807965,0.10677211,-0.082073495,-0.12508456,0.11378545,0.29375553,0.14871271,0.20741612,0.009538947,-0.03594697,0.056404583,-0.008594122,0.012894101,-0.04994099,0.11800747,-0.09670495,-0.12032722,-0.18106607,0.23685174,-0.043373726,0.087417655,-0.15811412,0.0008772007,-0.10865023,0.053584605,0.08708477,-0.0777033,-0.1548618,0.033105344,0.07508013,-0.121358395,0.30104497,-0.14722316,-0.08141429,-0.14838216,0.21654913,0.046326302,-0.11707219,0.15278184,0.12833965,0.12968133,-0.11228729,-0.01340133,0.07769859,0.098080486,-0.21151213,-0.12855336,-0.009732234,0.2518089,0.11487784,0.15181786,-0.12794864,-0.1511669,-0.107547864,-0.056758158,-0.025501115,0.12655851,0.22757241,0.010882998,0.07643994,0.20722593,-0.025443485,0.047808897,-0.07644099,0.09474305,-0.052974418,0.15009986,0.026226737,-0.16586539,0.03176524,-0.31770396,0.11637564,0.18093623,0.19090456,0.060470518,0.15588105,0.059534457,0.17759071,-0.053356662,-0.030187484,-0.16734172,-0.16495852,-0.0053708856,-0.06591104,0.1966605,-0.040616486,0.10999447,0.1552908,0.19060026,-0.0022800143,-0.075044274,-0.102776445,-0.01890705,-0.12611085,0.079159476,0.09163784,0.10053464,-0.07847595,-0.2331462,0.1344204,0.16906656,0.1056532,0.0859234,-0.13364789,0.12382427,-0.07173669,-0.089106575,0.13165295,0.13662086,-0.1011367,-0.07165176,0.105409086,-0.1551127,-0.022286197,-0.05099726,0.010169494,0.18031272,0.12654528,-0.11464241,0.091620184,-0.045407888,-0.018098228,-0.20653157,-0.030488128,0.086355716,0.15981618,-0.0064962264,0.054048955,-0.04775034,0.096428536,-0.24140924,0.10831522,-0.12381643,0.031853132,-0.08780759,0.080494486,-0.027635813,-0.10352003,0.2696457,-0.08593172,0.13925366,-0.056247883,-0.017453652,0.040893517,0.14470662,-0.085841835,-0.07988942,0.13092364,-0.16698541,-0.07839562,0.07691501,0.0006566031,0.039954934,-0.11727225,-0.22888422,0.14250413,0.1576252,0.07306716,0.009045097,-0.113303244,0.09212489,0.3797781,0.073775224,-0.17218499,0.15323901,-0.122654036,0.050022617,0.061980784,-0.0024497453,0.2552138,0.14663392,-0.15417102,0.09269082,-0.27191624,0.0032506732,-0.005244393,-0.09307016,-0.06652331,0.10575048,0.14000088,-0.07406054,0.074829824,0.041820396,0.065229334,-0.13252628,-0.16525415,0.16380829,0.18225871,-0.12391698,0.18315366,-0.15800028,-0.028558705,-0.21727332,-0.15805967,0.1397666,-0.086720996,0.36777788,-0.08907682,0.004474034,-0.12658986,-0.117791854,-0.060699824,0.10607719,0.04877902,0.057828344,-0.060117867,-0.055556163,-0.0883058,-0.19907767,0.15256846,-0.001914262,-0.23339418,0.015797604,0.12715082,-0.18521163,0.05523264,0.039402355,-0.118663594,-0.14361423,0.23900929,0.17953202,0.024277633,0.07989121,-0.1400745,0.034978468,0.08969411,-0.15961164,-0.10940245,-0.0113030365,0.09271285,0.07360594,-0.1298196,-0.075443506,-0.0488979,-0.11390005,0.0656186,0.148632,-0.16272661,0.120945305,0.031359572,-0.092586644,-0.0565365,0.14225738,0.27202418,-0.070868365,0.031705983,-0.21865968,0.067564175,-0.16298853,-0.14399831,-0.022883633,0.08299399,0.12133162,0.080437616,-0.12310961,-0.25125962,0.018576479,-0.070264556,-0.12982805,-0.18851608,0.21254711,0.20414783,0.08108969,0.18374881,0.15194291,0.10915381,0.09982206,-0.08355198,-0.11156861,-0.15814406,-0.0076849237,0.14785269,-0.06993898,-0.12329903,0.09217048,0.109953634,-0.032850817,0.080405265,0.08536984,0.04839094,0.10355263,0.17899048,-0.16491078,-0.044537287,-0.3048946,-0.08961541,0.06777809,-0.0049306517,-0.16843286,-0.082433954,0.0543166,0.009309684,0.14284469,-0.08392992,-0.09348892,0.08416812,-0.099445775,0.06213917,0.040951982,0.000155976,0.1292206,-0.044929758,0.31710568,-0.13394253,0.060613256,0.1585571,-0.16961153,0.08197928,0.119873926,0.2169565,-0.15096498,0.026633745,0.10259595,0.12573653,0.16088253,-0.15694122,0.27327266,-0.13473175,0.19095214,0.12902778,-0.17401916,0.18000701,-0.12877999,0.022112146,-0.03543928,-0.0001728776,0.07945828,0.052799106,-0.01751231,-0.24805862,0.07750003,0.06278599,0.10992116,-0.18457037,-0.1638517,0.11942311,-0.13468242,0.04960341,0.036590308,-0.2844478,0.10414644,0.049620967,-0.14170079,-0.24261762,-0.15954617,0.10056635,0.17664973,0.07697383,0.02002069,-0.19852003,-0.067618,-0.117130116,0.20051067,-0.094145834,0.17501234,-0.13985041,0.09367538,-0.02915573,-0.11309645,0.10830568,-0.2101363,0.060778916,0.15122345,0.17122163,-0.12916066,-0.04602911,-0.0538099,-0.05661938,0.04670134,-0.011400551,-0.048426848,0.09779295,0.034087718,-0.14999351,0.10088418,-0.005572471,0.14862618,0.094534084,0.114613526
conf_12,-0.22224987,-0.17031617,-0.14516075,-0.039615422,-0.104831845,-0.07283817,-0.16725661,-0.16240194,-0.051697418,0.033993457,-0.20247227,0.10748717,0.25038558,-0.12524731,-0.19512475,0.2182805,-0.08499788,-0.19879593,0.1413188,0.1584997,-0.21120799,-0.18544638,0.0864683,-0.14140329,-0.12862939,-0.14192456,0.006406674,0.17360628,0.13928953,0.20968427,0.13656102,0.0890391,0.11098454,0.0765611,-0.10487231,0.09040512,-0.09324968,-0.056509726,-0.051538255,0.071684815,-0.07148334,0.06820967,0.23065807,0.08493794,-0.11644433,-0.10140632,0.08961938,-0.08810709,0.0108797345,0.13395381,0.094823696,0.027395498,0.22283716,-0.17420387,-0.23334096,-0.1666587,0.111325145,0.050566208,-0.12523401,0.23083276,0.09303007,0.10424482,-0.17327796,-0.0685632,0.005098443,0.1254872,-0.17301503,-0.0777274,-0.18570942,0.12141871,0.11524794,0.0970061,-0.09910715,-0.0017822786,-0.114370435,-0.10224277,-0.06312723,0.122679465,0.16078708,-0.14897926,0.15446253,0.1611477,-0.07525255,-0.038570385,-0.1885404,0.19635822,-0.090538695,0.09672894,0.090067595,-0.1433182,0.06628693,-0.13631843,0.09263264,0.12901461,0.12332503,0.024927175,-0.07593366,0.08936009,0.16618162,-0.17191912,0.08091453,-0.16661152,-0.091055214,0.04660611,-0.10510328,0.18148859,-0.14253063,0.19695176,0.015734052,-0.0034693175,-0.01994107,-0.0077883033,0.07211536,-0.12200949,-0.12790927,-0.04357448,0.107033215,0.13864748,-0.123016536,-0.08866664,0.0970323,0.09921137,0.099804685,-0.09188608,-0.12526779,0.045055427,-0.08833728,-0.089074366,0.18260959,0.027282033,-0.13992159,-0.110320784,0.18528962,-0.11784112,0.022117853,-0.061117087,0.17054416,0.17614731,0.100809775,-0.13365644,0.014397491,-0.11685866,-0.16842103,-0.16040672,0.0219701,-0.077459514,0.027450452,-0.08635882,0.14438078,0.08468371,0.1089621,-0.09812555,0.14815308,-0.12536874,0.024863223,0.14152218,0.15038915,-0.062867716,-0.12080719,0.024614885,-0.34397632,0.06871729,-0.11151707,0.11214082,0.21673587,0.09760329,-0.13539995,-0.078260355,0.10493867,-0.004012262,-0.080432005,0.10409851,-0.13082628,0.0255623,-0.13125788,-0.18206549,0.19731276,0.10788525,0.16778988,-0.00028898095,-0.07568667,0.065068245,0.05614166,0.0033672263,-0.1667222,0.034272783,-0.17486519,-0.03934088,0.10617429,-0.05284247,0.20547138,0.17684418,-0.09522907,0.12819445,-0.17641129,0.06880938,0.13975574,-0.11779852,-0.08794013,0.058871172,0.102849625,0.032190528,0.06684561,0.19162762,-0.10538289,-0.040730093,-0.0429967,0.2478032,0.03466614,-0.09635713,0.09538305,0.11737857,-0.07764904,-0.01272105,-0.08639907,0.023166202,-0.21775678,0.097839735,-0.0478485,-0.0039356803,-0.11826823,-0.070481025,-0.12280476,0.0983857,0.1750616,0.005964039,-0.14605175,0.15717411,0.00013858435,-0.058037866,0.10930984,0.10659883,-0.011600934,0.15450819,0.044546008,-0.17844592,-0.17659569,0.050072752,0.02122253,-0.2254106,0.13873687,-0.015286005,0.10962535,0.16764964,-0.11299703,-0.016425572,0.20202923,-0.045078892,-0.15130126,-0.2022247,0.03454079,-0.17434792,-0.102719754,0.09993159,-0.12908033,-0.07299744,0.104345195,0.06564384,0.0036536984,0.045944013,0.028600141,-0.19794558,-0.08774624,0.02659757,0.17088956,-0.16524099,0.07614317,0.022365088,0.20261158,-0.2544397,-0.06014833,-0.07898699,0.08141021,0.1225394,-0.009457742,-0.1603271,-0.21785145,0.15757899,-0.12612544,-0.118237905,-0.10088425,0.06057841,0.12693103,0.08792077,-0.031301074,0.021579504,0.13904382,0.052914068,-0.061744142,-0.025744194,-0.14432178,0.10034644,0.214983,-0.0946415,-0.17071427,0.11829912,0.10359143,0.11940746,0.242328,0.08916453,0.21569349,0.097935155,0.16805416,-0.078392126,0.1686908,0.053270344,-0.118557304,0.08880805,-0.20383501,-0.06933631,-0.39416465,0.1695315,-0.028733429,0.102244094,-0.11548531,-0.035823397,-0.02022824,-0.19844061,0.04513266,0.12040373,-0.09636031,-0.010604488,-0.047729675,0.11637898,-0.109285675,0.12948422,0.15756555,-0.17944233,0.11161398,0.1042148,0.1173023,-0.11857135,-0.18105038,0.16273902,-0.12577607,0.15243727,-0.07171043,0.15697563,-0.24379487,0.26178733,0.07707101,-0.09708655,-0.08659692,0.10994892,0.109057,-0.12402445,0.08513756,0.17982489,0.0056724125,0.027090907,-0.07151214,0.15118727,0.14869726,0.08674804,-0.1347848,-0.060700398,0.03404635,-0.09215955,0.15544173,0.18680292,-0.18018247,0.14646943,0.1597724,0.0012867898,0.24749666,-0.11434056,0.12529966,0.32285035,0.08340093,0.13393326,-0.0003917163,0.05719503,-0.08039327,0.19298965,-0.0897591,0.121060774,-0.059921216,-0.08624143,0.25347513,-0.1430354,0.006658475,-0.09417032,0.01676935,0.054808702,0.13389575,0.00855428,-0.07811888,-0.056157432,-0.025639912,0.049333557,-0.16343889,-0.064548075,0.12893361,0.1504362,-0.13840055,0.059211638,0.024659751,-0.0036256677,0.06964473,0.12199772
conf_13,-0.030554555,-0.101474315,-0.122537486,-0.031558212,-0.036461562,0.10274958,-0.12051365,0.13414276,-0.082252204,-0.1485712,0.032756947,0.1123779,0.13867176,-0.09045688,-0.18632926,0.005569636,-0.14921454,-0.03340404,0.13908339,0.14310852,-0.018363211,-0.18547629,0.18786271,-0.005319825,-0.062416263,0.04292577,-0.06533722,0.09890573,0.20577416,0.19134642,-0.09321472,0.11792676,0.11548252,0.06815416,-0.018752698,0.108848795,-0.11918185,-0.16304542,-0.20376046,0.017402798,-0.081286505,0.1356263,0.22870834,0.088922784,-0.0121276425,0.10039749,0.11809312,-0.13895795,-0.11929581,0.030274,0.1390169,-0.099624544,-0.053816166,-0.08992413,-0.13524973,-0.1234327,0.10177633,0.035254013,-0.20575178,-0.26911765,0.11979766,-0.015969742,-0.15764835,-0.10701896,0.10982604,0.083242714,-0.08069372,-0.24902113,-0.052494235,0.10874976,0.066820316,0.06871298,-0.11491264,-0.06814899,-0.16203567,-0.14291668,-0.06346958,0.14722379,0.10900304,-0.1358837,0.062711865,0.061002098,-0.17743485,0.064577065,-0.047472574,0.12977406,-0.019550795,0.042059716,-0.0051955027,0.009220906,0.20254639,0.046157416,0.069284126,0.188348,0.10118352,-0.0016130079,-0.019076632,0.037437174,0.029866025,0.07401257,-0.23384425,-0.074477986,-0.007036333,0.19436719,-0.1031593,0.05745817,0.105914034,-0.027961237,0.052727852,0.0016591056,-0.037780922,-0.0115308305,-0.1570455,0.05501791,-0.06562769,-0.11185218,0.030115623,0.009023217,-0.07996776,0.06309415,0.050312568,0.11704842,0.14421949,-0.15162149,-0.20167471,0.15183388,-0.031122595,0.051502842,0.1995159,-0.07225326,-0.11631376,0.07550636,0.22571057,-0.19754493,-0.29676774,0.049961254,0.2084624,0.088087395,-0.12223299,-0.110386446,0.14889418,-0.21957207,-0.08684018,-0.15828012,0.0679757,-0.13182971,0.0302498,0.27608216,0.009263526,0.0037387023,0.13255283,0.044996805,0.119367085,-0.094358,-0.13736881,-0.03551677,0.14094786,-0.1588999,-0.13675654,0.0956734,-0.14700715,-0.20594202,-0.117064215,0.13799958,0.09507785,-0.06859364,-0.09865098,-0.081132255,0.14618263,-0.1584304,-0.14944132,0.11396032,-0.053542193,0.010424655,-0.14491132,-0.09515641,0.08486535,0.21284685,0.053065818,0.0038462775,-0.118595704,0.1405559,-0.072050355,0.059126753,-0.14857787,0.15216753,-0.12317061,-0.10158521,0.11980996,0.015677685,0.10653111,0.0880594,-0.14064743,0.14675327,0.0135418065,0.0984857,0.07951539,-0.13512786,-0.3087044,0.059767738,0.12851748,-0.05646766,-0.23117977,0.14363436,-0.14379138,-0.144347,-0.059760835,0.022680258,-0.008334131,-0.14848945,0.208546,-0.21545686,-0.07271215,-0.20131856,-0.015679894,-0.11280646,-0.10183191,-0.17313962,-0.075533316,0.100764655,-0.20447296,0.025572497,-0.11391045,0.11272432,0.1857959,0.15471572,-0.16310297,-0.04046558,0.0503357,-0.057965335,0.15340428,0.093702346,-0.052294143,-0.1450599,0.09287417,0.07970362,0.02910292,0.036259204,-0.12523626,-0.17311579,-0.019168537,0.16971405,0.052026037,0.18376325,-0.1023326,0.092099406,0.14054358,0.14326121,-0.108441204,-0.1638273,-0.17539859,0.16657665,0.009679918,0.2520347,-0.14418854,-0.109338395,0.029796671,0.124042146,-0.08342783,0.23272671,0.043336354,-0.05654002,-0.08023211,0.132927,0.23057263,-0.15420629,0.16299838,-0.06496702,0.11075013,0.009783249,-0.08840476,-0.15812245,0.07540159,0.09126416,-0.040319446,-0.13680223,0.042979892,-0.044535805,-0.008164008,-0.19928527,-0.051326584,-0.105073296,0.11405502,0.051503755,0.09820695,0.12391491,-0.12905258,0.035832457,-0.088168874,0.00041506655,-0.16292153,0.13376708,0.1676507,-0.12363146,-0.11837042,0.19927748,0.09611751,0.11341559,0.13003442,0.13716094,0.21192686,0.1465141,0.08793204,-0.13339965,-0.06822587,-0.1560407,-0.09845185,0.10269253,-0.11975474,-0.12964575,-0.04317032,0.12740564,-0.004887773,0.12627679,0.022111371,-0.060006455,0.076249376,-0.13160042,-0.0555509,0.20721214,0.27112085,0.12462497,-0.12849165,-0.024933593,-0.018511707,0.035871692,0.06891573,-0.05704456,0.0556843,0.10085677,0.08633285,-0.1769745,-0.108264536,0.16817479,-0.045228355,0.09421279,-0.09563744,-0.11808329,-0.23731281,0.015674943,0.17421938,0.079333745,0.0045837294,0.11380112,0.24222359,-0.16501571,0.11303537,-0.07544413,0.14120731,0.057896357,0.054285437,0.116976365,0.021080967,0.12109496,-0.127283,-0.033303022,0.112328395,-0.20338725,-0.015480267,0.12901153,0.2545178,-0.011681552,0.03898949,-0.25375775,0.1252149,-0.14677331,0.09507347,-0.06253283,0.16986816,-0.05909171,-0.0076263803,0.059427783,-0.123341784,0.12757815,-0.10854863,0.13325389,0.23565835,-0.022640955,0.012417744,-0.12134721,-0.07120503,-0.06338415,0.10313735,0.14638966,0.08585856,-0.055016283,-0.087801024,-0.19141273,0.02206497,0.21345487,-0.20651756,0.03649716,0.11666233,0.119179524,-0.07741911,0.21303271,0.016989224,-0.17220834,0.01924708,0.09328992
conf_14,-0.075102516,-0.2057578,-0.12986957,0.036638673,-0.07321554,-0.07223458,-0.10581272,-0.0807584,-0.16263013,-0.2083796,-0.07119036,0.050108414,-0.11646716,0.017676027,-0.20229255,0.037576657,-0.19545458,-0.15513484,0.0541844,-0.0541607,-0.097890854,-0.19553727,0.015894568,-0.03580359,-0.007659803,-0.06740313,-0.101669826,0.17229585,0.060039185,0.094464034,0.16956103,0.073425055,0.008449762,0.12874834,-0.09224897,0.102667324,-0.09427379,-0.14283925,-0.09855999,0.0448779,-0.123548284,0.113702774,0.07883182,0.10186325,-0.037118815,0.09573343,0.045924988,-0.11656596,0.013687101,0.116402,0.058180477,-0.05467543,0.065389946,-0.0095404275,-0.2576919,-0.15036286,0.18578206,0.25790766,-0.09090445,-0.02864751,0.19806248,0.17582385,-0.2174745,-0.04217176,0.039380744,0.21890488,-0.14532888,-0.17416556,-0.15515439,0.21455729,0.17529841,0.20358056,-0.10158075,0.047638003,-0.13285482,-0.063943185,-0.107036486,0.060409445,0.186883,-0.120981686,0.1850893,0.109155945,-0.22822887,0.20451616,-0.2522013,0.0072619086,0.008577302,0.096663475,-0.083388604,-0.049422592,0.1665446,-0.15886304,0.09468513,0.08108827,0.14361109,0.09108563,0.046245705,0.15341043,0.13535804,-0.21341942,0.19009352,-0.11354382,-0.029255757,0.1337814,-0.10731737,0.040583283,-0.051310774,0.18252148,0.013608956,-0.005914089,-0.067742564,-0.16335233,-0.13138558,-0.04116178,-0.11036706,0.006041488,0.08288083,0.22244881,-0.15100613,0.06761232,0.10763739,0.18331996,0.119828545,-0.04577615,-0.06771736,0.15898307,-0.21876833,-0.042464472,-0.11460495,0.07882482,-0.12380651,-0.14325674,0.06104353,-0.17433633,0.30795565,-0.22214115,0.0879511,0.19037604,0.08229754,-0.14456934,0.038004067,-0.12989986,-0.087658636,-0.1422281,-0.09408189,-0.039678752,0.015689861,-0.13125278,0.0957815,0.094191395,0.08136842,-0.18493363,0.041750465,-0.18416134,0.11287142,0.0720394,0.07252654,0.07362297,-0.14034818,0.10581662,-0.19475241,0.10848585,-0.086365044,0.11982296,0.15998779,0.18498926,-0.12490498,-0.088748634,-0.04276848,-0.1395899,-0.105232894,0.12155975,-0.06037887,0.05395987,-0.12339339,-0.067433536,0.10840404,0.06890116,0.031933498,-0.16549113,-0.0003826706,0.029421827,-0.19029652,0.118564345,-0.07383286,0.15100826,-0.059089713,0.09313633,0.10239683,-0.054224648,0.11089186,0.19635247,0.011947525,0.08772707,-0.23850057,0.1629599,-0.004116428,-0.14613917,0.16667318,0.20521678,-0.07414489,0.0530769,0.26452932,0.05584424,0.099992596,-0.13004759,-0.09800664,0.16877109,-0.0036021492,-0.13635653,0.036973763,0.1632814,-0.10392732,-0.1283464,-0.25521326,-0.18281727,-0.13949573,0.16303617,-0.14416587,0.090791665,-0.12884578,-0.11181083,-0.16250479,0.20407885,-0.02732671,0.12729265,-0.09961732,0.10843234,-0.25751883,-0.11550087,0.13112332,0.07310815,0.23084937,0.08437721,0.070958115,-0.060177553,-0.2590703,0.03773164,-0.020674929,-0.18099639,-0.0047622384,-0.13614656,0.19268255,0.14022529,-0.14594756,0.12973982,0.06771069,-0.1378115,-0.1594222,0.013284586,-0.046699997,0.017475668,0.022483027,0.044355042,-0.13563426,-0.053811874,0.11448342,0.008631403,-0.16088326,0.31385016,0.07374475,-0.17689936,-0.18788427,0.14154246,-0.05832736,-0.03799456,0.003069056,0.042640675,0.09037506,-0.089591116,-0.05908324,-0.20076147,0.09673453,0.16765422,0.024762888,-0.16199617,-0.30188385,-0.1001874,-0.1918843,-0.11256385,0.27997777,-0.014762074,0.06772922,0.014419518,-0.033474755,-0.06255228,0.19517845,0.15799585,-0.10540494,-0.18793216,-0.16253436,-0.1400648,0.13870601,-0.15638213,-0.027957546,0.13369171,0.15013862,0.058624063,0.14104319,0.20413575,0.14219339,0.09881909,0.09959961,-0.11718952,0.10409773,-0.09598347,-0.115714766,0.053234655,-0.084348164,-0.13302708,-0.03686825,0.027631752,0.03726245,0.16724296,-0.13356718,-0.15559576,-0.059313897,-0.07386341,0.09264759,0.13922857,0.10995705,-0.07931825,-0.119443506,0.07376917,-0.093651205,0.030308885,0.040349707,-0.1254844,0.16752023,0.038388703,0.07111643,-0.05538993,0.035160102,0.14221981,-0.048051555,0.17869507,-0.04055627,0.23060033,0.03698618,0.07299856,-0.14346017,-0.17959529,0.053641874,-0.0013054396,0.05757362,-0.10765542,0.108208835,0.16905813,0.070925534,0.11536783,0.30054352,0.109499924,0.14333844,0.06272027,-0.18117979,-0.1483925,0.101779096,-0.12418581,0.10261796,-0.045893,-0.041894414,0.026653387,0.09202994,0.18576615,0.1304348,-0.047758594,0.055780206,0.23882644,0.06562199,0.05995728,-0.082847424,0.018739933,-0.10569706,0.08367451,-0.104237475,0.26305443,-0.06823532,0.104611866,0.12162864,-0.06860116,-0.096198894,-0.13878077,0.061351,0.16460074,0.13072084,-0.21186963,-0.12422184,-0.105494775,-0.10550241,0.104683414,0.00020750443,-0.17289583,0.15102305,0.1307473,-0.14305407,0.116186835,-0.15115723,0.22663864,0.14430742,0.1218753
conf_15,-0.104006745,-0.07902498,-0.070562065,-0.11979757,-0.0878071,0.10068286,0.028858922,0.24136981,-0.11460564,-0.11626465,0.035109416,0.024169965,-0.03769682,-0.068125024,-0.14025249,-0.04464107,-0.13601874,-0.051597953,0.22129506,0.27150497,-0.101983376,-0.055829443,0.21463905,-0.026728567,-0.16572785,0.1655654,-0.19957638,0.11435513,0.095006056,0.2676497,-0.12019037,0.11067515,0.17006493,0.07441519,0.049881145,0.20582661,0.07459696,-0.121192284,-0.11512006,0.14228424,-0.18858099,0.17068163,-0.14385833,-0.15012631,-0.17763105,0.1653699,0.07758006,-0.15509093,-0.13622607,0.16362159,0.11246129,-0.058141124,-0.02454031,-0.12933175,-0.102203794,-0.15869737,0.105978645,-0.054281764,-0.18517521,-0.18041979,0.11655684,0.050148178,-0.13269551,-0.1393533,0.07785341,0.11182734,-0.09284981,-0.063807696,-0.16227838,0.019689374,0.005229524,0.08000459,-0.112133,-0.12859775,-0.14432868,-0.1682757,-0.1483529,0.11476529,0.07584157,-0.20965566,-0.021239478,-0.2507508,-0.08051465,0.011553839,-0.21952194,0.05180016,-0.10357232,-0.0021970004,0.109376565,-0.10489045,0.04885812,-0.085319735,0.10082379,0.15453815,0.10227635,-0.12815095,-0.07542833,0.08824439,0.1302172,0.04328088,-0.15312302,0.002921842,-0.20513903,-0.06587213,-0.104016654,0.07182839,-0.035623647,-0.28270397,-0.03481576,-0.039510086,-0.033301014,-0.044414423,-0.014175612,-0.11944605,-0.12168096,-0.06746143,-0.06339023,0.061946217,-0.13663656,-0.13280937,0.033561055,0.16052343,0.15950818,-0.07949688,-0.14718552,0.10562876,-0.07789933,0.10586124,0.07847344,0.033977248,-0.137729,0.07682578,0.09316597,-0.14012307,-0.09747009,-0.067358375,0.14509211,0.10045437,-0.19346425,-0.1078433,0.21221036,-0.12558378,-0.17382647,-0.12056534,0.020576257,-0.020998983,0.025638858,0.07815454,-0.045670584,0.18060322,0.0906459,-0.0030946126,0.15157309,-0.11733774,-0.13104877,-0.052264,0.15003474,0.09565658,-0.19274545,0.22738335,0.109057404,-0.01591738,-0.1484235,0.24368562,0.17391993,-0.037947718,-0.047142513,-0.12802948,0.22627221,-0.015341841,-0.11372857,0.0035097732,-0.046480644,-0.0077446797,-0.013400234,-0.029340373,0.16335,0.13663988,0.046894822,-0.16258396,-0.11774656,0.13970377,-0.2939203,0.16507374,-0.21638094,0.05598376,0.05897917,-0.19498506,0.12435953,0.07789019,0.08779983,0.3645497,-0.15495273,0.1782324,0.17837149,-0.026466291,0.05943805,-0.13179524,-0.11232851,0.11732569,0.16154428,-0.15093099,-0.31447697,0.13749693,-0.10454748,-0.056854524,0.052886225,-0.01074487,-0.0003918322,-0.1389195,0.11315311,-0.22668682,-0.10219523,-0.03405425,0.0078248335,0.16432375,-0.09870403,-0.06885639,-0.068665504,-0.0108675575,-0.089893185,0.08716491,-0.14130269,0.09660905,0.036744837,0.08907133,-0.10904191,-0.1371114,-0.012142417,-0.094731435,0.08996708,0.098923095,0.0008474532,0.18787716,0.13855389,-0.046079796,-0.084469914,-0.012314377,-0.11482261,-0.18408692,0.071831495,0.10740622,0.048517883,0.21677424,-0.09651362,0.06519251,0.09207603,-0.03240794,-0.17633781,-0.23457989,-0.08112856,-0.024236763,-0.11265236,-0.031765744,-0.12215589,-0.074587785,-0.045229457,0.010605472,0.1286592,-0.26015303,0.0047971006,-0.16921154,-0.10586102,-0.024533859,0.09315216,-0.12029199,0.15256059,-0.1646324,0.06404033,-0.036881078,-0.18154208,-0.12847646,0.17596029,0.12512216,0.10478252,-0.06572826,0.03113752,0.22035003,-0.30357578,-0.13945068,-0.13247596,0.0480683,0.11156277,0.2713015,0.06668529,0.20246977,-0.009596363,0.062491015,-0.14743526,-0.09902528,-0.11722866,0.26033726,0.2577204,-0.07352996,-0.1257727,0.15433471,0.111320354,0.15627936,0.17293167,0.08683494,0.19027354,0.11344207,0.09539238,-0.11394137,0.11897492,0.11593087,-0.06658497,0.019176928,-0.27394718,-0.06547414,0.077592075,0.13855897,-0.014678189,0.10864642,0.04819488,-0.13902278,0.1918904,-0.14764048,-0.10976802,-0.051420726,0.2518,0.11699464,-0.12871368,0.10250777,-0.040161908,0.075889505,0.022467243,-0.13338934,0.091433726,0.24371362,0.108602375,-0.057533998,-0.035880927,0.19464298,-0.20537318,0.05109845,-0.094587035,0.037022393,-0.15233481,-0.094433114,0.09330246,0.042668864,0.24181673,0.16708395,0.13258794,-0.10139245,-0.0734556,0.0991179,0.2066641,0.073547564,-0.09048611,0.15969475,0.0861236,0.21111782,-0.12057644,-0.14188245,0.09917414,-0.12325212,0.0031247626,0.046097785,0.03704967,0.010016806,0.13531715,-0.10298726,0.035609335,-0.096165456,0.05920274,-0.06744849,0.022030037,-0.081853524,0.0115309255,0.09486456,-0.09802824,0.23190668,-0.06962326,0.051916502,-0.013474765,-0.14052746,-0.14313482,-0.19084877,-0.18606451,-0.11816515,-0.104367495,0.05464429,0.13063101,-0.032034587,-0.14160523,-0.2015384,-0.029081756,0.14778428,-0.13581918,-0.035019733,0.090107195,0.069515005,-0.1292615,0.07642057,-0.12371646,-0.091868125,0.07723225,0.13912727
conf_16,-0.14265601,-0.09176306,-0.040946286,-0.19922473,-0.13826038,-0.18832074,-0.16120517,-0.25356427,-0.098123886,-0.0657845,0.01832918,0.13613054,0.10745463,0.08185011,-0.09610398,0.2387597,-0.0952759,-0.16153844,0.17879969,-0.026513036,-0.19761944,-0.12954885,-0.022802869,-0.113246866,-0.057013657,0.25491586,-0.09350222,0.1566832,0.08103883,-0.12109117,-0.021160265,0.09673579,0.121427506,0.17401832,-0.120935604,0.15320586,-0.09118716,-0.08845785,-0.1198112,0.042984914,-0.13973413,0.17435564,0.14160796,0.15444148,-0.1757187,0.17875838,0.15697923,-0.024697201,0.0009410098,0.15291412,0.010582435,-0.1025901,0.26151875,-0.057242617,0.014055806,-0.021170279,0.04266964,-0.022184417,-0.1240949,-0.008211189,-0.012854866,0.1035608,-0.051008612,-0.021074353,0.14534514,0.104632504,-0.1011114,0.14048356,-0.061853003,0.1795221,0.2106924,0.14447346,-0.07688485,0.00068573304,-0.13103966,-0.11477648,-0.007989388,0.04517532,0.1766096,-0.103461646,0.17971458,0.24151418,-0.11385684,0.13015564,0.0036285424,0.12469742,-0.15436307,0.14888358,0.11192772,-0.10007674,0.077552766,-0.045398355,0.13499612,0.14144036,0.030263362,0.08409843,-0.09998066,0.11978375,0.11775315,0.019380987,0.17547724,0.00010672734,-0.0758801,0.06400784,-0.17459458,0.17334937,0.12624146,-0.13563687,-0.10976961,0.17157756,-0.023294548,-0.00541954,-0.10954651,-0.13374767,-0.016502291,0.04068795,0.14665897,0.1733582,-0.11249137,-0.22117215,0.18308622,0.22140007,0.1349381,-0.22341883,0.07598347,0.07734651,-0.053990822,0.110325545,0.15510355,0.15451601,-0.12635423,-0.11363482,0.10881933,-0.10150984,0.089552276,-0.07579254,0.08599495,0.15327834,0.17423794,-0.034891017,0.08016646,-0.14260718,-0.09321447,-0.12987539,-0.11145233,-0.07693307,0.03105752,0.028859803,0.05745447,-0.17428312,0.030831726,-0.13875625,0.019151164,-0.007742465,0.02876762,-0.064036824,0.086886,-0.008390861,-0.09355861,-0.04467508,-0.33983856,-0.10405206,-0.106044486,0.06536323,0.08493953,-0.02300421,-0.06769246,-0.05445074,0.098409265,-0.13165016,-0.20641002,0.14963713,-0.08420125,0.10340354,-0.22318691,-0.16096763,0.17250776,0.13877852,0.10073281,-0.050830495,-0.11029542,0.043794207,0.047146827,0.08547695,-0.12151955,-0.016290907,-0.064306736,-0.1511001,0.15245102,0.04259,0.24332295,-0.05032376,-0.07872554,0.019125313,-0.16594556,0.1059359,0.09454785,-0.10966366,-0.12388417,0.16079308,-0.11390152,-0.15454069,-0.14500266,0.13001429,0.21054044,-0.1142627,-0.053480837,0.18488045,0.15317592,-0.15501715,0.1799535,0.060199097,-0.23206948,-0.16838793,-0.16212028,0.17256683,-0.09767605,-0.012124393,-0.15022963,0.06426016,-0.11200484,-0.096777305,-0.068244666,0.15832345,0.19502532,0.02436912,0.021421151,0.19701327,0.08028658,-0.14036943,0.093005605,0.1123707,0.030435381,-0.010241736,0.17699483,-0.23855962,-0.046720717,-0.074398614,-0.12379857,-0.13555954,0.14589064,0.06538912,0.016060365,0.091043964,-0.11047751,0.07231096,0.07512835,-0.04798237,-0.07026627,-0.22661152,0.1500043,-0.22042625,-0.09944343,-0.044100147,-0.059627898,-0.12170007,0.15489185,0.14150976,0.051888138,-0.009665532,0.10674243,-0.07319716,-0.16208255,0.21832268,0.025766283,-0.10626617,0.17237303,-0.058787905,0.1375497,-0.18585518,-0.1762343,0.049618945,0.15133636,0.17269717,-0.04757323,-0.13085374,-0.1672646,-0.10000415,-0.18761119,-0.12655014,-0.20946173,0.14932176,0.09225588,-0.13101101,0.08142242,0.28339842,0.00030859446,0.06691903,-0.13615534,-0.045532953,-0.1413793,0.08094371,0.14427558,-0.031029146,-0.109841086,0.1642912,0.113663346,0.20012917,0.14733571,0.14198911,0.08183005,0.11708363,0.16800517,0.017287867,0.26479772,-0.22238606,-0.07918322,0.08587047,-0.17881376,-0.09384225,-0.16673931,0.13061829,0.013060627,0.1208513,-0.15609069,-0.13558035,0.031807408,-0.123644345,0.1339627,-0.06615444,-0.09824486,0.021945724,-0.11311174,0.0541237,-0.088511035,0.07433124,0.12930581,-0.1446216,0.014066705,-0.0026990478,0.13255087,-0.07494377,-0.04704584,0.15288608,-0.19814387,0.17551965,-0.12692112,-0.02460846,-0.038931906,0.10429445,0.2550902,-0.10546479,-0.09569789,0.06699149,0.10107684,-0.120835,0.20646071,0.100917205,0.14081241,0.08819915,-0.25637984,0.045406118,0.1592847,0.21110213,-0.16188355,-0.121332884,0.08759234,-0.15115073,0.10775174,0.106333286,-0.17839168,-0.27176443,0.087194666,0.17832759,0.09151813,-0.09613751,0.06171146,0.22609554,0.048856657,0.1605157,-0.15835983,0.0030718825,-0.040147234,0.10533851,-0.08598422,0.07937274,-0.0038476496,0.044290334,0.08825259,-0.14467339,-0.1494545,-0.04178885,0.21089318,0.10221112,0.14055854,0.052251007,-0.07373959,-0.10104361,-0.04933881,0.15862036,-0.12662771,-0.045545027,0.10910575,0.21724519,-0.19312422,0.21378654,-0.09578342,-0.0006189329,0.13827509,-0.011091378
conf_17,-0.08255586,-0.06620479,-0.17882328,0.15037826,-0.10663941,0.142468,-0.068123035,0.10452497,-0.13799661,-0.1327937,-0.033469167,0.086942114,0.24849306,-0.113099955,-0.1325303,-0.08997125,-0.12924804,-0.11015077,0.04026951,0.06870341,-0.07090139,-0.06915943,0.18092503,0.079724245,0.0017171659,0.1426627,0.19250107,0.07728628,0.1144965,0.20049316,0.07670587,0.104049824,0.05595317,0.1497846,-0.038163636,0.21716125,-0.113780096,-0.070834175,-0.024319742,-0.06150659,-0.062932335,0.17382085,0.1976065,0.00031369342,-0.112439014,0.04742028,0.18584253,-0.17887162,-0.066968486,0.0136828,0.13289857,-0.08788023,0.17079593,-0.16646424,-0.16841342,-0.113997236,-0.029151918,0.059524205,-0.1300601,-0.1922628,0.13176604,0.16017371,-0.21335645,-0.10926151,-0.0061268513,0.13244939,-0.06310002,-0.026424086,-0.06557294,0.034612764,0.028363302,0.028227448,-0.09740124,-0.17486471,-0.056695405,-0.18746668,-0.094874054,0.1489786,0.112092875,-0.09435346,-0.053265966,0.049008563,-0.15583204,0.013092276,-0.19087893,0.0045882426,-0.05647918,0.08275799,-0.04238338,-0.14217387,0.11823065,0.060741767,0.16920961,0.116510645,0.16949515,0.022714585,0.13376895,0.19993268,0.16196416,-0.0119445,0.029249255,-0.15807943,-0.26879126,-0.118214466,-0.08913385,0.08313869,-0.1195654,0.012504358,0.13006587,0.09575398,-0.092758104,-0.09100892,0.32441056,0.08551844,-0.0725564,-0.0334531,0.10503548,0.032737795,-0.039291956,-0.14318879,0.010544361,0.057901885,0.13299023,-0.019937975,-0.13131359,0.09880278,-0.12692422,0.19548097,0.13485204,-0.0023153948,-0.036551107,0.13966502,-0.059687342,-0.096188724,-0.07194139,0.07150209,0.048182726,0.061091833,0.023400443,-0.16554195,0.10919244,-0.19673891,-0.11032323,-0.1506182,-0.044701226,-0.07616797,0.12330497,-0.17628396,0.057506423,-0.023322584,0.14507487,-0.100680284,0.06130892,-0.058405377,-0.13847226,0.05873486,0.15098056,0.024840908,-0.053563982,0.15851766,-0.1920954,-0.052913394,-0.12167176,0.16222782,0.12114474,0.031982895,-0.13155165,-0.117809676,0.10190175,-0.05763597,-0.07878943,-0.114438355,-0.18985064,-0.09628672,-0.081721,-0.13051744,0.09663827,0.08382519,0.059625324,-0.13722976,-0.1269153,0.0012035443,-0.11525866,0.05648999,-0.1049885,0.11128878,-0.11946881,-0.020108461,0.1641114,-0.02001221,0.17072451,0.009468819,-0.12950192,0.12848447,0.17789915,0.04838017,0.024287477,-0.10770707,-0.23025411,0.06454252,-0.04204226,-0.13557832,0.07845054,0.094108574,-0.119980834,-0.0603339,-0.07741728,0.13957794,-0.011496604,-0.05929285,0.140745,-0.069767185,-0.028489565,-0.10266662,-0.115175486,-0.27218938,-0.14090502,-0.108948186,-0.16778357,0.12974846,-0.09305355,0.16498515,-0.13134748,0.061965935,0.16774993,0.20294492,-0.0777083,0.07991077,0.025177857,-0.043473788,0.09009292,0.062482398,-0.050267044,0.043941975,-0.18358673,-0.037666235,-0.012102102,0.031958073,-0.07584098,-0.10968739,0.14757967,0.14042048,-0.07040617,0.10125431,-0.079520985,0.042761568,0.09494755,-0.0068037803,-0.12160779,-0.08415989,-0.094718724,0.12459182,0.057474595,0.28918627,-0.06609791,-0.12140276,0.12082295,0.04267292,-0.1316178,0.17783406,0.11619484,-0.11716983,0.07189335,0.20347232,0.21769719,-0.04569535,0.120675385,0.21514452,0.17291641,0.13699275,-0.12325906,-0.15826201,0.09669384,0.15710962,-0.31807518,-0.07498884,-0.1351027,0.20887677,-0.18525828,-0.14827193,-0.16013047,-0.024065688,0.16868429,0.1260901,-0.041748438,0.08567551,-0.11836726,0.12873606,-0.06359976,-0.029770529,-0.07556641,0.065738596,0.11098422,-0.11028938,-0.114418715,0.08393909,0.14039768,0.155492,0.17689511,0.048166025,0.1194152,0.09027029,0.16877574,-0.13418871,-0.10041721,-0.046749532,-0.17989519,0.064390354,-0.036026936,-0.1685337,-0.21585292,0.20691663,0.11993655,0.1346608,0.038370162,-0.066584416,0.16617838,-0.08916527,-0.12840214,-0.0028029908,0.040468697,0.14474468,-0.11996595,0.027827466,-0.02885171,0.14571011,0.14979298,-0.09663952,0.08425512,0.017766947,0.19640078,-0.06875036,-0.1721514,0.0418369,-0.08269204,0.119028576,-0.08026524,-0.08853967,-0.15868875,0.20316732,0.012315462,0.007949206,-0.039335553,0.06796129,0.1456006,-0.061372403,0.043923203,0.09934495,0.02661777,0.091798484,0.06062112,0.18751626,0.14666909,0.110172555,-0.08130804,-0.12154801,0.17193963,-0.119416416,0.079788744,0.16877002,0.123021424,0.14268836,0.18685818,-0.2860868,0.017688956,-0.14769344,0.19813016,0.26073456,0.1422448,0.063758545,0.101692796,0.112693444,-0.0033329467,0.07416248,-0.10600335,2.3879024e-05,0.116986565,-0.20385765,-0.0070326524,-0.086672105,-0.040017057,-0.081923075,0.053863697,0.10677489,0.091628596,0.045726586,-0.069447525,-0.1932876,-0.07181859,0.059735645,-0.0965982,-0.12024063,0.07358339,0.16830595,-0.040555857,0.07748459,-0.039724573,-0.0786051,0.012621896,0.09767233
conf_18,-0.08277315,-0.15996568,-0.12425173,0.08093949,-0.09215434,0.028940286,-0.035348903,-0.2570486,-0.0626982,-0.08032525,-0.030753275,0.09630874,0.05436682,-0.015493964,-0.14612952,0.1266703,-0.15030365,-0.13972676,0.041645203,0.06939073,-0.18663459,-0.116681814,0.064535886,-0.07492692,-0.07364949,0.05614389,0.1731146,0.1212013,0.15995224,0.11781232,0.13517599,0.1128408,0.10455405,-0.05933298,0.030259104,0.20923465,-0.12672985,-0.1351973,-0.1037929,0.09671301,-0.07121996,0.118015476,-0.06218538,-0.15328634,-0.07978254,0.24688321,0.09675986,-0.044448696,-0.04637116,0.13191265,0.042181466,-0.0113160545,0.12823655,-0.12341272,-0.13976161,-0.16739793,0.05601865,-0.009696225,-0.14451481,-0.031180399,0.113881014,0.2663507,-0.13987532,-0.03336749,0.031075975,0.022465467,-0.1417596,-0.08148809,-0.15325975,0.09614668,0.10212348,0.26102972,-0.07816494,-0.06854247,-0.018701192,-0.03491131,-0.10859223,0.053432133,0.13513215,-0.14113078,0.10556149,0.16378464,-0.08657392,0.066307425,0.002174746,0.18885511,-0.11506193,0.15534833,0.16755147,-0.16695532,0.08878989,-0.15861537,0.18398435,0.18121031,0.16806342,0.06415681,0.14584427,0.026226139,0.06593086,-0.20432822,0.19108307,-0.11598292,-0.054413244,0.11911795,-0.07469667,0.09097191,-0.098066725,-0.041347396,0.17473373,0.03834195,-0.07789253,-0.15876785,0.003437966,-0.19964556,-0.06783642,0.15745053,0.010795331,0.089391455,-0.042486507,-0.15629642,0.08955864,0.14752662,0.17284255,-0.121126585,-0.07194038,0.12726276,-0.053718444,0.024862919,0.068160184,-0.031149851,-0.044240654,-0.1371553,-0.053935375,-0.12045401,-0.08143401,-0.15371567,0.10279909,0.12101472,0.050470572,-0.0898458,0.2053194,-0.11407147,-0.18503667,-0.09706781,-0.12941915,-0.13420147,0.14720261,-0.15155973,0.1637348,0.047065757,0.0058613643,-0.13592225,0.07373172,-0.22889891,0.08415263,0.16856223,0.053206798,0.11650401,-0.08294205,0.09291714,-0.044364363,0.028370898,-0.11409472,0.05577859,0.10382424,0.16809547,-0.1539412,-0.13526094,-0.0201944,0.024258524,-0.118648,0.15383507,-0.19368777,-0.016857093,-0.051567927,-0.11544902,0.13708313,0.1825857,0.111206494,-0.08696043,-0.11034281,0.08351993,0.01742341,-0.017265782,-0.18243183,0.11173411,-0.09088495,-0.13941275,0.10189884,0.048970662,0.12886626,0.31473103,-0.15870401,0.13452578,-0.07514985,0.030238682,0.09651435,-0.100734904,-0.07372646,-0.0718035,0.16737537,-0.09485309,0.28326806,0.16946241,0.06054507,-0.08961813,0.036034647,0.22758709,0.06698721,-0.10912235,0.09057502,0.18068317,-0.15136673,-0.117474064,-0.067197934,0.25462833,0.012603455,0.08773799,-0.18554676,0.16845316,-0.07846927,0.10249538,-0.084108904,0.0969836,-0.003868778,0.105765216,-0.0341701,0.16990657,0.18870695,-0.15738903,0.16461994,0.14489532,0.04222012,0.13886261,0.13405411,-0.022363314,-0.047969803,-0.008695588,0.013880903,-0.18375404,0.19072363,-0.051773597,0.009115425,0.061823137,-0.18840595,0.111320354,0.120765276,-0.11280669,-0.10668723,-0.0667352,0.09307472,-0.1928085,-0.19438103,0.049958188,-0.10404186,-0.06774911,0.23389484,-0.12238889,-0.025379237,0.019835826,0.13170153,-0.07279902,-0.07601193,0.09010715,-0.072458945,-0.054177564,-0.083528936,-0.043183673,0.119274676,0.018365657,-0.105061255,-0.08762679,0.11151414,0.11128824,0.07006495,-0.14617138,-0.160041,0.14803539,-0.09497938,-0.13514313,-0.12585688,0.12468378,0.107802205,0.1715208,0.18398647,-0.01098185,0.19818915,0.111754954,-0.1400475,-0.0125674615,-0.13519499,0.14677253,0.09318421,-0.025796039,-0.018441966,0.04327207,0.17312482,0.16808401,0.0851654,0.0861725,0.046003245,0.11852364,0.19028385,-0.10194692,0.082247555,-0.021579623,-0.14593428,0.1389665,-0.2719177,-0.13886474,0.032345187,-0.03040624,0.22393179,0.166487,-0.06324789,-0.09397831,0.2161585,-0.111624226,-0.030307125,0.14561671,-0.04652974,0.08919942,0.21727209,0.17941636,-0.16590446,0.1282826,0.17331843,-0.20888592,0.02278463,0.19520931,0.12871912,-0.10583406,0.052857593,0.14249529,-0.08206675,0.035026878,-0.15756054,0.24046834,-0.07644241,0.04483548,-0.09114839,-0.2199231,0.22874546,-0.018580878,0.09959794,-0.032855045,-0.0019022366,0.010998694,0.037139162,0.15321113,0.22461626,0.1431729,0.07746849,0.07561461,-0.10462276,-0.103673875,0.22496937,-0.1512582,0.12776233,0.042248826,0.06793001,-0.057345673,0.0147866625,0.07863821,-0.1277086,-0.18818443,0.09995266,0.023956599,0.16968097,0.2113059,-0.17338681,0.07755344,-0.00042184026,0.0881761,-0.13109614,-0.046998985,-0.20589338,-0.26917133,0.11683096,-0.173463,0.027881717,-0.119172715,-0.033683155,0.26966,0.18213527,0.051074427,-0.059932936,-0.16685018,0.0016535582,0.1750315,-0.045961093,-0.061060652,0.19474468,0.114530735,-0.19709821,0.17372508,-0.17243282,0.0048517985,0.19581522,0.117644005
conf_19,-0.116707616,-0.1408717,-0.17507625,0.011430979,-0.17103897,-0.21524675,-0.07736041,-0.13738227,-0.08385662,-0.077074446,0.07391523,0.15816128,0.056236546,0.035731886,-0.13494065,0.07764081,-0.17498472,-0.123375356,0.1666345,0.014419062,-0.006067773,-0.09040727,-0.061952353,-0.019131266,-0.11525541,0.15106614,0.024612429,0.20329873,0.106028676,-0.05907609,0.022228952,0.034074016,0.078229524,0.14992851,0.0425364,0.07672453,-0.11843883,-0.12178119,-0.057681646,-0.13750274,-0.043191224,0.15736447,-0.1384308,0.08004093,-0.053132586,0.04823328,0.09268948,-0.07393964,0.123105325,0.08007575,0.10940261,0.003845301,0.18051785,-0.15616868,-0.037588276,-0.11066571,-0.10655659,0.02532755,-0.09538286,-0.329088,0.25665945,0.18490107,-0.18964827,-0.019675907,0.083884574,0.08412246,-0.05815761,-0.09206344,-0.05299843,0.081240214,0.10135978,0.19242522,-0.1668743,-0.11756177,-0.02176334,-0.18897279,-0.035259016,0.0067907493,0.09321723,-0.13636588,0.040571123,0.082575746,-0.110336214,0.18497998,0.08744023,0.14342432,-0.15643273,0.111972965,0.22929357,-0.079627074,0.11268402,-0.047073767,0.14283176,0.099126436,0.15873747,-0.091188155,0.17404939,0.09380209,0.026214555,-0.18108709,0.07978149,-0.0780959,-0.029129269,0.027533265,-0.06802331,0.1236312,-0.040569626,-0.009176097,0.15101328,0.10858331,-0.08819855,-0.072256625,-0.022943875,-0.22137229,-0.1955113,0.11231862,-0.09031548,0.11332884,-0.19778474,-0.024161346,0.15333629,0.12084543,0.11175589,-0.085254714,0.052726466,0.081491455,-0.08160977,-0.14617266,0.025821349,0.043210313,-0.12878883,-0.100649156,-0.0665264,-0.1261238,0.0036481433,-0.07172503,0.17553498,0.11267668,0.179997,-0.04794743,0.21323293,-0.081495784,-0.15895976,-0.11570163,-0.050347064,-0.008101414,0.12860693,-0.025640428,0.14340341,-0.05920798,0.12673384,-0.17996773,-0.1018625,-0.14838892,0.0541826,0.0164294,0.021410652,0.19729589,-0.12017173,0.03806075,0.1372812,0.14084883,-0.12928772,0.021209305,0.17322226,0.012118968,-0.100682914,-0.15878688,0.07863579,-0.08383826,-0.065109834,0.20114532,-0.090149194,0.092045315,-0.12784635,-0.19534174,0.15070419,0.1863278,0.023825997,-0.11178254,-0.0938689,0.10612896,0.20947167,0.0630517,-0.26822665,-0.06320654,0.022437235,0.017299516,0.13907765,-0.0448661,0.16575874,0.18965529,-0.07176152,0.15191287,-0.122535005,0.0913607,0.11659644,-0.087912545,-0.21629253,0.25272596,0.3029439,-0.0884592,0.17004344,0.15504949,0.14640608,-0.2090011,-0.17580368,0.24265142,0.15203734,-0.021367176,0.2583432,0.15080793,-0.16110052,-0.12450052,-0.20575663,0.2945104,0.09929469,0.21870664,-0.14820944,0.18402764,-0.0101321805,-0.019826565,-0.09334164,0.14030671,-0.15909459,0.16965203,-0.07604833,0.026404157,0.09727785,-0.082104005,0.17752248,0.07282061,-0.11760111,-0.031610332,0.24626558,0.020263225,-0.13262434,-0.03647213,0.034472868,-0.13948788,0.09102317,-0.12706418,0.12530296,0.07123199,-0.07374367,0.06278898,0.15561007,-0.2260616,-0.11357782,-0.29884663,0.16707987,-0.0922465,-0.21684879,0.0384034,-0.18531097,-0.119604856,0.17117132,0.019961901,0.044704188,0.103271365,0.018311972,-0.13596456,-0.12267151,0.050901446,-0.12994435,-0.08283205,0.09285531,-0.1703995,0.16200261,-0.10183739,-0.10609729,-0.12941636,0.113783985,0.12118361,0.08512471,-0.07218741,-0.16231361,-0.06717688,-0.11935281,-0.13602085,-0.32125455,0.18231861,0.12092756,-0.22731817,0.16970986,0.057009276,0.1375954,0.13200146,-0.08545879,-0.21180144,-0.111958764,0.02108884,0.055781372,-0.17175671,-0.15845071,0.07135117,0.06530864,0.06114253,0.052449163,0.11573531,-0.02199233,0.1463253,0.21856225,-0.024359575,0.12442716,-0.3495726,-0.185803,0.04970333,-0.025828693,-0.03856343,0.14567895,0.23350012,0.19811092,0.12508585,-0.12266523,-0.030008499,0.036559176,-0.16940518,0.17172788,0.063814804,-0.08668362,5.0437666e-05,-0.029221682,0.065640435,-0.14972866,0.014657283,0.08809564,-0.18525288,0.18725657,0.13208869,0.16718723,-0.0017325064,0.20470735,0.17899331,-0.089726366,0.13542435,-0.06532743,-0.08029921,-0.08818996,0.12814218,0.09936577,-0.15292792,0.17858687,0.08769951,0.09121744,-0.10905802,0.05674221,0.06816568,0.047678676,0.13395223,-0.117366366,0.062158223,0.19170304,0.102048874,-0.09985695,-0.07623525,0.047875836,-0.0052514947,0.18921159,0.13126323,-0.12184257,0.20814581,0.0383977,0.0990584,0.056344204,-0.15096815,0.12985654,0.1606692,0.12064208,0.054120738,-0.12401299,-0.024729496,0.13216695,0.1816502,-0.14017108,-0.07031335,-0.09073336,0.012494136,-0.098499514,-0.18648171,-0.16780175,-0.12284946,0.040070083,0.14229067,0.069073625,0.00508546,-0.11349171,-0.12576817,-0.063455395,0.08145887,-0.17637321,-0.111468665,0.07102706,-0.030083636,-0.16745436,0.10823971,-0.25745636,0.07405089,0.13883963,0.051526155
