problem,p_0,p_1,p_2,p_3,p_4,p_5,p_6,p_7,p_8,p_9,p_10,p_11,p_12,p_13,p_14,p_15,p_16,p_17,p_18,p_19,p_20,p_21,p_22,p_23,p_24,p_25,p_26,p_27,p_28,p_29,p_30,p_31,p_32,p_33,p_34,p_35,p_36,p_37,p_38,p_39,p_40,p_41,p_42,p_43,p_44,p_45,p_46,p_47,p_48,p_49,p_50,p_51,p_52,p_53,p_54,p_55,p_56,p_57,p_58,p_59,p_60,p_61,p_62,p_63,p_64,p_65,p_66,p_67,p_68,p_69,p_70,p_71,p_72,p_73,p_74,p_75,p_76,p_77,p_78,p_79,p_80,p_81,p_82,p_83,p_84,p_85,p_86,p_87,p_88,p_89,p_90,p_91,p_92,p_93,p_94,p_95,p_96,p_97,p_98,p_99
f1_i1,0.17440918,-0.0065991106,0.6016466,-0.2933826,-0.35617396,0.27981195,-0.1688384,-0.22746761,0.14252469,-0.24500597,0.16662847,-0.399281,0.12702371,-0.2644561,0.124390796,-0.3065865,-0.32777542,0.37053773,0.011932855,0.08420801,-0.20913027,-0.31908038,-0.25751364,0.2599593,-0.21825397,0.5197208,0.44314352,0.088554785,0.26754704,0.12652853,-0.042819183,-0.21634398,0.4976574,0.29049385,0.34039077,0.14663255,0.11170236,-0.37020916,0.2628958,-0.15073939,-0.09017098,0.4266736,0.2899707,0.07671285,0.12570432,0.3025753,-0.53606206,0.14876394,-0.16035688,0.23507446,-0.16108896,0.24738495,0.15290952,-0.03505141,-0.06739302,-0.018532848,-0.062496968,-0.13146399,-0.11555691,0.016904494,-0.03409143,0.059812453,-0.3071422,-0.20498237,-0.1381353,0.4799583,-0.13927227,-0.48661906,-0.18308017,0.18373036,0.096166745,0.05693498,-0.052601762,0.3131264,-0.2189086,0.47744015,0.0821212,-0.17053485,-0.1727089,0.12902631,0.23668149,-0.03233547,-0.1706893,-0.24990374,-0.34883952,-0.104584806,-0.15238953,0.048238546,-0.23024693,-0.4064539,-0.17281026,0.13424435,-0.17599499,-0.26700518,0.11468975,-0.189423,-0.66346055,0.28581136,0.12948784,0.25546804
f1_i2,0.27996746,0.059750263,0.4227724,-0.3965315,-0.30064145,0.24865533,-0.37206444,-0.29515663,0.23007666,-0.05068839,0.122806415,-0.44150198,-0.118757464,-0.16421251,0.1965572,-0.43814945,-0.22675613,0.18747048,0.20399694,0.090471625,-0.119471215,-0.14363967,-0.37595665,0.09926507,-0.16936755,0.53546304,0.08225198,0.27156222,0.026286613,0.09381905,0.034103222,-0.3566502,0.49192086,0.17945336,0.34355724,0.19274606,-0.03276113,-0.350952,0.16704042,-0.22368383,-0.15950464,0.44480926,0.30455914,-0.08198661,0.2104941,0.24465449,-0.3086487,9.129753e-05,-0.2835483,-0.021090029,-0.176259,0.25112948,0.061390713,0.120585345,0.08788125,0.02695188,-0.14536783,-0.10354165,-0.030386498,0.03189974,0.1384013,-0.04319188,-0.41905898,-0.016058002,-0.13827704,0.5039212,-0.15110098,-0.23104852,-0.26731125,0.089043394,0.30702227,0.21353608,-0.0609329,-0.2901511,-0.25718233,0.031191198,0.2504774,-0.23014238,-0.23521495,0.32353917,-0.16524515,-0.22929652,-0.40458363,-0.27708018,-0.14077678,-0.056356087,-0.14113767,0.2483124,-0.18877791,-0.25013593,-0.05068817,0.10395082,-0.05969689,-0.38799787,0.2163798,-0.19663313,-0.513659,0.35269552,-0.41608343,0.16596995
f1_i3,0.20457713,-0.026627809,0.15789318,-0.23479815,-0.3148802,0.17557536,-0.36019948,-0.21835198,0.14882019,-0.17875986,0.12163268,-0.47421166,0.043178014,-0.16289361,0.20331724,-0.3877446,-0.17912748,0.24886373,0.33607185,0.16378953,-0.16697516,-0.2149012,-0.115232036,0.32336345,-0.26311272,0.5075739,0.22484587,0.21991818,0.19905287,0.2335831,0.129956,-0.31830728,0.47267866,0.29206654,0.36515602,0.34125805,-0.20327061,-0.01835907,0.15537362,-0.12808882,-0.17543511,0.25363663,0.2631542,-0.12932406,0.16229624,0.14941478,-0.6124186,-0.22769661,-0.18695532,0.38244173,-0.13112521,0.15278164,-0.02963191,0.30117625,-0.010883806,0.018650696,0.03345765,-0.16477862,-0.24729492,-0.1561479,0.0074138977,-0.013636899,-0.26800516,0.0066786166,-0.18828323,0.4911283,-0.3211557,-0.31331223,-0.054060593,0.13764597,0.27024645,0.20815466,0.104528,0.35643992,-0.28669837,-0.14151971,0.13920298,-0.12925862,-0.168425,0.060502212,-0.11949766,-0.29188514,-0.32927683,-0.19818634,-0.110877454,0.0893664,-0.21542576,0.47948602,-0.2465298,-0.17945419,-0.09686078,0.07765228,-0.26844493,-0.19278324,0.15429793,-0.21973817,-0.4723764,0.26949903,-0.21241343,0.055579156
f1_i4,0.28771213,0.07083586,0.05743392,-0.29942682,-0.40019408,0.17750713,-0.32289225,-0.17939731,0.22034003,-0.24929313,0.25553796,-0.38247803,0.051678658,-0.2409689,0.2155219,-0.33732077,-0.18309751,0.20770128,0.36380967,0.16719417,-0.1139252,-0.0008182918,-0.04475369,0.32080334,-0.19104514,0.440955,0.35014996,0.18196313,0.1737,0.14531651,0.13281499,-0.38737375,0.47318783,0.2817114,0.3991272,0.31177717,0.018549947,0.121388525,0.10163368,-0.20875452,-0.07639671,0.35947978,0.20028768,-0.18869422,0.17034058,0.20557396,-0.58481276,0.2656365,-0.15296774,0.22372878,-0.22169437,0.087170675,0.1520443,0.11095604,-0.016138243,0.083758414,-0.17247863,-0.22665474,-0.17084675,-0.08333882,0.06826423,-0.06465965,-0.32085273,-0.08575161,-0.18441941,0.5163526,-0.20629866,-0.0387275,-0.17756885,0.14359783,0.32685247,0.4019468,0.20236617,0.16961487,-0.18820323,0.19441493,0.28797153,-0.23215814,-0.2975081,0.0076509435,-0.106633045,-0.13549787,-0.2641395,-0.14396891,-0.27516007,-0.12123756,-0.1490074,0.32272524,-0.17666149,-0.5200968,-0.2643347,0.10152284,0.0071332855,-0.4688552,0.22479239,-0.18532105,-0.33173457,0.21889049,-0.16949023,0.27334738
f1_i5,0.1583375,-0.071556844,0.23509029,-0.2695007,-0.31373894,0.15349323,-0.26645058,-0.2725083,0.15143687,-0.20476063,0.27013913,-0.445961,-0.22064514,-0.25790498,0.13089944,-0.34395307,-0.31347877,0.32007363,0.2616374,0.010320845,-0.19773762,-0.28962594,0.20658286,0.10547889,-0.21912883,0.5073969,0.33560017,0.15069215,0.10969146,0.1302775,0.13170512,-0.47377774,0.46860185,0.2566021,0.39768425,0.22619574,-0.28705907,-0.11492849,0.1313432,-0.10325172,-0.1994824,0.3617179,0.26696366,-0.11353827,0.22554971,0.40805116,-0.42174053,0.046407927,-0.25518754,0.36890692,-0.27297834,0.26447514,0.31504595,0.08298076,0.04193899,0.07099321,-0.18463974,-0.16610824,-0.085492104,-0.19925831,0.12369167,-0.13269497,-0.27476737,-0.21746874,-0.215345,0.63944656,-0.22443044,-0.12487667,-0.22634695,0.075854465,0.14853628,0.08568644,0.1753646,-0.29855478,-0.19967858,0.12815413,0.20805256,-0.15888588,-0.22545046,0.11852597,-0.21629855,-0.16764535,-0.13234895,-0.26646137,-0.15169354,-0.10712846,-0.059721775,0.24006858,-0.27951854,-0.472062,-0.18352212,0.098929994,-0.04885121,-0.3674555,0.20853953,-0.18454191,-0.48739904,0.19545448,-0.08123866,0.22038054
f2_i1,0.2539094,-0.10333047,0.20898351,-0.26514322,-0.0536559,0.10298109,-0.2556319,-0.28226554,0.15261589,-0.12135733,0.28829753,-0.28052312,0.35605645,-0.3337218,0.07375766,-0.0947572,-0.11079686,0.29682994,0.026372403,0.3008365,-0.27103212,-0.01975017,-0.16789892,0.17142238,-0.24710904,0.30340645,0.10990022,0.20211563,0.36856994,0.11111312,0.27739465,-0.3067497,-0.0630786,-0.009949411,0.33046773,-0.015174842,-0.24684373,-0.2895103,0.23570281,-0.3512247,-0.09273326,0.35674742,0.33870357,-0.027398016,0.14345992,-0.14623074,0.24282989,0.26977205,-0.29764184,0.41969785,-0.26447788,0.2564632,-0.07759951,0.2937163,0.36513868,0.28611144,-0.25749382,-0.22378458,-0.3267906,0.0898514,0.12868117,0.23467717,-0.29965046,0.04814721,-0.3390238,-0.46859688,-0.2595354,0.13756861,-0.046935234,0.19325978,0.2597343,0.16086257,-0.124824345,-0.2667479,-0.22795187,0.24337907,0.25664625,-0.20554654,-0.23687445,0.30097726,-0.4155582,-0.19428177,-0.11225976,-0.21538961,0.25315413,-0.118786946,-0.22826226,0.005209853,-0.24552636,-0.31256053,-0.14993532,0.083122276,0.13152547,0.2618274,0.13713817,-0.18888743,-0.10600365,0.18897423,0.13055001,0.22598761
f2_i2,0.17627366,-0.26801074,-0.0044359723,-0.16976312,-0.16640931,0.20027746,-0.15342368,-0.19615847,0.470197,-0.11696751,0.14444499,-0.24273413,0.28859913,-0.3152075,0.24390334,-0.11163834,-0.3220653,0.30728433,-0.21824855,0.23447168,-0.19518648,-0.08426536,0.09935705,0.21069846,-0.27297437,0.115789466,0.25833583,0.045852195,0.19581623,0.20432393,0.10259164,-0.41008914,-0.028873757,0.2772921,0.064035736,0.46085483,-0.5235142,0.50799215,0.011444215,-0.28772393,-0.28497532,0.4144382,0.21666537,-0.08654275,0.13019335,0.11850438,0.20593776,0.13605009,-0.387531,0.09936151,-0.12873489,0.119552456,0.17562608,0.21144232,0.16055153,0.31443197,-0.11949712,-0.09692898,-0.15595186,-0.67629117,0.21421231,0.30772445,-0.3358754,0.049709294,-0.20710853,-0.3534939,-0.038838554,-0.09397469,-0.21963757,0.17046186,0.10320929,0.22889997,0.44910765,-0.40881744,-0.19963916,0.14957121,0.18627818,-0.25693586,-0.21029352,0.3263602,-0.21145695,-0.00079021143,-0.18827353,-0.14412883,0.30336395,-0.32873732,-0.2856356,0.44497308,-0.2969421,-0.44690567,0.058721345,0.10828109,0.22242667,0.3841861,0.3218083,-0.3158288,-0.043284725,0.3271165,-0.08039806,0.23131372
f2_i3,0.15295322,-0.070724465,0.37858614,-0.32909548,-0.21127303,0.11969201,-0.28372768,-0.06196131,0.27939206,-0.25824144,0.1673177,-0.325073,0.25024828,-0.22420803,0.115844406,-0.21473932,-0.2637605,0.28041288,0.31611067,0.24491958,-0.20580263,-0.1795527,-0.41888738,0.3062511,-0.23595619,-0.10264147,0.13605599,0.09127316,0.29046062,0.25663662,0.21557118,-0.14744167,0.031903036,0.13454162,0.09246554,0.20596713,0.20611486,-0.46449682,0.26874343,-0.17465346,-0.24696852,0.35758442,0.1641195,-0.3296349,0.10669476,0.30955258,0.16751564,0.31001833,-0.21897087,0.20706195,-0.17672324,0.34459314,-0.023567434,-0.0689668,0.103861354,0.32251614,-0.16663866,-0.31127068,-0.2087086,0.3820921,0.30602077,0.2835461,-0.16090663,-0.39840198,-0.24492949,-0.27689648,-0.12094578,-0.21698178,-0.19377214,0.1013035,0.26554957,0.4020039,-0.11063856,-0.31138778,-0.2622303,0.3028846,0.16265035,-0.2995223,-0.22380003,-0.03714337,-0.1624518,-0.33638334,-0.22219044,-0.22563805,0.12897035,-0.23123346,-0.36588657,0.024722785,-0.1730065,-0.050801344,-0.19401146,0.09241926,0.057925,-0.22658697,0.26631892,-0.18079317,-0.030937377,-0.0026910685,0.28125328,0.15861505
f2_i4,0.13142417,-0.130922,0.59710395,-0.04515328,-0.18475679,0.06653534,-0.22964367,-0.29376045,0.26835737,-0.30720687,0.32872513,-0.17015424,0.1868079,-0.2979684,0.12632196,-0.3224995,-0.17969391,0.21028201,0.55955195,-0.15083784,-0.22090589,-0.15120794,-0.3018042,0.24358676,-0.15971255,-0.04388158,-0.012597055,0.009887423,0.24976183,0.15944389,0.3161751,-0.2787736,0.13721937,0.17258108,0.20092371,0.19200934,-0.5529706,-0.25952685,0.047774803,-0.11496871,-0.08532346,0.38585645,0.16932026,-0.2398071,0.24221341,0.11820671,0.32313707,-0.26784694,-0.41664225,0.18679093,-0.2257771,0.3045739,-0.13903044,0.36812964,0.29378358,0.09362559,-0.322272,-0.07073171,-0.30439335,0.53085786,0.03032809,0.3212848,-0.14967081,-0.518275,-0.2951342,0.05050717,-0.3217354,0.07861953,-0.27413994,0.44514373,0.10646529,0.271675,0.09422852,-0.13894698,-0.22984591,0.45285243,0.2026797,-0.117281914,-0.23458411,0.09812569,-0.007566106,-0.24066499,-0.4514353,-0.18182807,0.3568809,-0.16653144,-0.11492215,0.017888108,-0.28353485,-0.08193763,-0.39710712,0.39254996,0.10105413,0.44016564,0.21542749,-0.14963436,-0.09893007,0.28756306,0.037039068,0.27118817
f2_i5,0.3789849,-0.3095636,0.50708,-0.19416356,-0.07802584,0.16474384,-0.103814095,-0.17573364,0.261837,-0.09493531,0.18100783,-0.39222217,0.10183882,-0.2700434,0.21318384,-0.227139,-0.22768766,0.24478373,0.16508825,0.4163465,-0.12248142,-0.20315933,-0.5793943,0.19510092,-0.21544737,0.2801879,0.36006546,0.196802,0.11483371,0.17246073,0.4002614,-0.24970408,0.021490125,0.23574273,0.14173019,0.22122687,0.15013991,-0.043676402,0.1322709,-0.16334027,-0.17074881,0.07621429,0.09720953,-0.13999966,0.1321735,0.20581716,0.34515902,0.23108566,-0.14621037,0.49733904,-0.15190221,0.19789599,0.25442663,0.23033693,0.22959557,0.12448496,-0.2434276,-0.19441111,0.011886828,-0.42690206,0.36998004,0.21806785,-0.25237906,-0.30213565,-0.18554842,-0.08320416,-0.098796956,0.27626112,-0.30133864,0.008527322,0.1692088,0.11765328,-0.1940374,-0.2637818,-0.2251188,0.20720385,0.09166962,-0.1447149,-0.06329323,0.24863884,0.23165435,-0.24208744,-0.30541283,-0.1254678,0.24617119,-0.15377505,-0.3110956,0.16585809,-0.12052273,0.09836464,-0.2790492,0.30069584,-0.04647957,-0.14023237,0.05413169,-0.20152773,0.30903623,0.042393178,0.16373439,0.0058639464
f3_i1,0.14677317,-0.39471838,0.34816357,-0.33544764,-0.29158098,0.40721065,-0.16924536,-0.28479087,0.13307033,-0.20196854,0.34959704,-0.27290553,0.25089082,-0.27369592,0.27154225,-0.22247154,-0.30088636,0.1436765,-0.03258648,0.13293181,-0.17632698,-0.6262068,0.2863131,0.3444886,-0.14250581,0.2590483,0.14148058,0.19569509,0.18868503,0.25124913,0.1985835,-0.22806975,0.02254318,0.37843814,0.21892177,0.36249903,-0.23118982,-0.22097592,0.2228021,-0.26767018,-0.09556741,0.351261,0.30400574,-0.0071721147,0.23383784,0.23658134,0.40141132,-0.037532356,-0.4707418,0.43088332,-0.21734305,0.12260594,-0.104872905,0.13606754,0.28721666,0.054054644,-0.24800591,-0.0923839,-0.17413415,-0.7229993,-0.0051403586,0.23481932,-0.1933539,-0.25764185,-0.09953334,-0.24015683,-0.080624804,0.24537118,-0.23375508,0.2663931,0.1284958,-0.077895164,0.4259931,-0.07781169,-0.14941171,0.25320867,0.19832423,-0.21878834,-0.23448725,0.101123825,-0.13624638,-0.20940118,-0.12658203,-0.20333873,0.3403906,-0.21849573,-0.23370051,0.40837786,-0.19965538,-0.057035528,-0.18524046,0.1455443,0.07555121,-0.043813206,0.06932048,-0.22530292,-0.30579507,0.3469208,-0.032832906,0.017057946
f3_i2,0.09402878,-0.19453639,-0.1317116,-0.28052625,-0.11544258,0.07903226,-0.23851183,-0.22258136,0.053572115,-0.3590124,0.31784305,-0.1319835,0.32017726,-0.16883564,0.217499,-0.20020698,-0.20810457,0.12084903,-0.5757817,0.09226636,-0.19611014,-0.14958581,-0.4135451,0.2148645,-0.26354313,0.09885321,0.34599814,0.2252394,0.28575575,0.2721839,0.00034174786,-0.28356618,0.2991256,0.37146473,-0.032213308,0.20854478,0.8157157,0.070057206,0.08474031,-0.124163136,-0.24272619,0.24177475,0.07090244,-0.265971,0.14525871,0.6096104,-0.04893981,-0.05085968,-0.12545313,0.077572316,-0.22779982,0.31900728,0.24434102,0.20846875,0.20428461,0.30689922,-0.37133366,-0.15051143,-0.27011105,0.0094584385,0.1798169,0.28779918,-0.0658763,-0.6183911,-0.23481882,-0.19635585,-0.39749092,0.45945176,-0.05183514,0.17706248,-0.052588955,0.16770226,0.20192915,-0.17213333,-0.26874858,0.071599305,0.12079683,-0.063265026,-0.15797868,0.12394435,-0.08326422,-0.25159898,-0.23557901,-0.23803712,0.2659139,-0.1853563,-0.17209825,0.19913207,-0.2589261,0.3106233,-0.2254231,0.112131484,0.1874998,-0.14853229,0.23493008,-0.26954976,-0.5517549,0.1936048,0.25881332,0.27343845
f3_i3,0.15380476,-0.2163234,-0.1428572,-0.2714075,-0.22043459,0.19849414,-0.33212197,-0.31467584,0.04046397,-0.1536886,0.23091714,-0.18053897,0.19843322,-0.1342758,0.2574757,-0.2121162,-0.1507296,0.28190264,-0.43716052,0.016503667,-0.106817074,0.37662116,0.06703455,0.3346834,-0.2230811,0.13530797,0.086591475,0.16775669,0.4059927,0.21624523,0.38802692,-0.090234935,-0.16544208,0.24897733,0.04905714,0.24965332,-0.19084425,-0.040739276,0.22661893,-0.38078848,-0.1686858,0.3001804,0.28424603,0.009775536,0.26449832,0.19585885,0.023756022,0.08948317,-0.22099236,-0.037065957,-0.23375992,0.15696616,0.26259786,0.003284312,0.32480687,0.2423699,-0.23122701,-0.09536718,-0.23321147,-0.6279763,0.31679583,0.19066045,-0.37667322,-0.16266432,-0.08868126,-0.2665734,-0.26648775,-0.10994688,-0.03529958,0.388554,0.25416192,0.36592942,-0.052087046,-0.03496212,-0.18276787,0.13278484,0.21652523,-0.03439684,-0.16074923,0.23784803,-0.11811944,-0.19643031,-0.13120261,-0.07374784,0.21632746,-0.27783203,-0.3384988,0.22833036,-0.22747469,0.16048934,-0.16877781,0.12953328,-0.04336565,0.513298,0.07878144,-0.13144426,-0.35642108,0.3073898,0.35986114,0.52033454
f3_i4,0.1504584,-0.12756464,0.29429084,-0.10985327,-0.11254009,0.28898787,-0.31301817,-0.11513708,-0.024673555,-0.19533715,0.13110222,-0.21858461,0.011346852,-0.17575309,0.26970476,-0.18385842,-0.3265339,0.24802937,-0.2342099,0.3205955,-0.21504478,-0.32930335,-0.24522443,0.3498184,-0.15032873,0.26700133,0.23944806,0.24332382,0.44336426,0.24659285,0.40005043,-0.27425975,-0.4579927,0.047102336,0.39606407,-0.00981959,0.35571826,-0.0075651766,0.16699009,-0.30247933,-0.21890518,0.14616671,0.25212044,-0.104340985,0.29137298,0.13945884,0.15072477,0.22644839,-0.30885077,0.12815855,-0.22443697,0.17701595,0.31319875,0.2463776,0.26543,0.20892628,-0.31468782,-0.24342647,-0.28363764,0.07114195,0.08501549,0.22107202,-0.31590766,-0.3746237,-0.28083283,-0.3721147,-0.09301961,-0.20561482,-0.20238489,0.15789875,0.025650255,0.09957678,0.24824235,0.011157048,-0.22084805,0.28310403,0.274178,-0.19755739,-0.17071798,0.198225,0.18748952,-0.2697675,-0.15475458,-0.24675569,0.19435601,-0.22784688,-0.15003075,0.21832001,-0.1419394,-0.06671383,-0.19965671,0.19198929,0.090200506,-0.22574064,0.11931991,-0.15898013,-0.2817049,0.31412175,0.43042362,0.17285182
f3_i5,0.26894277,-0.16102178,-0.23501417,-0.18058625,-0.27463377,-0.008832808,-0.25153628,-0.097359285,0.27242628,-0.1652193,0.27001575,-0.15410228,0.027610337,-0.15641361,0.29551396,-0.18425521,-0.2325354,0.1268787,-0.37760207,0.2236433,-0.1856365,-0.28398922,-0.25191572,0.13383062,-0.19292718,0.015763234,0.16280603,0.21983132,0.2543236,0.22128606,0.31322026,-0.29875,-0.089059204,0.34423575,0.38246155,0.38377944,0.5190513,-0.41388068,-0.039516006,-0.33171007,-0.26648164,0.4132689,0.23874563,-0.25953862,0.06001555,0.19405828,0.32165486,0.20220605,-0.16458784,0.22241725,-0.3409632,0.2643962,0.13111103,0.28704593,0.25694513,0.25717658,-0.092827305,-0.23722388,-0.2421424,-0.19264197,0.045891687,0.12958671,-0.3553904,-0.10859858,0.0006798147,-0.34769085,-0.23507863,-0.32122624,-0.27073526,0.30447236,-0.0027291805,0.24600041,0.28361544,-0.22595936,-0.16824919,0.15517692,0.2969232,-0.26653472,-0.12956965,0.0967759,-0.059633162,-0.18105602,0.037800625,-0.17580472,0.18422472,-0.16767041,-0.1963067,0.13645113,-0.20980974,-0.08717241,-0.020464703,0.17072727,0.2747299,-0.19367084,0.24982122,-0.2198122,-0.2731328,0.278532,0.25443992,0.2688102
f4_i1,0.2193554,-0.25540406,-0.09784045,-0.07912785,-0.22838406,0.2775886,-0.2645475,-0.3175264,0.079893686,-0.10621501,0.3444159,-0.31814626,0.15531552,-0.23487188,0.22229078,-0.19991271,-0.14464307,0.005830932,0.20480943,0.32412583,-0.26306853,-0.02403215,0.09308294,0.35714018,-0.25845888,0.30348343,-0.2531072,0.19353025,0.29057074,0.09720179,0.22384045,-0.28008762,-0.36417437,0.13632269,0.22156695,0.27191705,-0.16154605,-0.027884772,0.21085489,-0.2643592,-0.27038652,0.3296152,0.22158457,-0.30936652,0.16085017,0.52187943,0.067799404,0.18422367,-0.20145114,0.053186983,-0.067111716,0.19510736,0.36987096,0.24231216,0.26202518,0.18328357,-0.15459004,-0.13617207,-0.15295798,-0.656344,-0.08570979,0.22198097,-0.35292268,-0.11442601,-0.27350527,-0.053395167,-0.27468956,0.5941433,-0.3612997,0.23377119,0.1761515,0.37775567,0.4732272,0.27860862,-0.2628035,-0.019163577,0.24218804,-0.18155804,-0.02759777,0.19290958,-0.37948877,-0.20445174,-0.13809915,-0.21026473,-0.013507225,-0.09957628,-0.20865428,0.19545548,-0.15477954,-0.114344664,-0.21616445,0.27213147,0.41665974,-0.07635976,0.31016004,-0.019946693,-0.2297627,0.2531509,0.20512716,0.11274521
f4_i2,0.21612944,-0.29305074,0.052449413,-0.15437095,-0.30833703,0.10753977,-0.278219,-0.20827395,0.3188262,-0.15743703,0.13789672,-0.19605376,0.2271655,-0.23265421,0.24557354,-0.22982511,-0.27013487,0.1903025,-0.27749944,0.24254535,-0.23724967,-0.1644306,-0.28734848,0.22568361,-0.24070534,0.3844754,0.16076067,0.15649761,-0.0035485686,0.31071597,0.24653076,-0.303407,-0.31469074,0.1450361,0.30555958,0.23996459,-0.21492153,-0.15242684,0.19685456,-0.19511956,-0.2557199,0.3087766,0.30775514,-0.15323785,0.17922294,0.35547486,0.43414617,0.16616252,-0.39871016,0.120742485,-0.22100103,-0.013734845,-0.22545257,0.330969,0.17731017,0.34159216,-0.26594847,-0.21822973,-0.13101758,-0.58406794,0.2461701,0.29216358,-0.17247503,-0.23600319,-0.19793664,-0.077342965,-0.21397252,0.016132984,-0.20187983,0.27374977,0.20911574,0.32778442,0.4842811,-0.18726832,-0.16728431,0.42120248,0.21605244,-0.2526588,-0.29417515,0.0979382,-0.121148385,-0.22297642,-0.17453918,-0.18035273,0.11881216,-0.15707892,-0.25792292,0.18961602,-0.30313182,0.4097739,-0.18900706,0.1337812,0.2785641,-0.51012117,0.22958729,-0.19015804,-0.22452065,0.2830411,0.06345227,0.26995748
f4_i3,0.07438522,-0.20739329,0.13514166,-0.078192644,-0.36359408,0.19971392,-0.3261077,-0.11869457,0.29465124,-0.28685197,0.34947678,-0.09457411,0.014279761,-0.20945573,0.15668061,-0.23343875,-0.27545783,0.1514381,-0.40332168,0.32158944,-0.23790158,-0.039851576,-0.4364641,0.12426581,-0.14384784,-0.16312516,-0.097935714,0.23066574,0.02138175,0.30962458,0.33433828,-0.31608123,-0.08764291,-0.16822743,0.27890694,0.21477894,0.289726,-0.038832776,-0.0023212018,-0.13298607,-0.25824493,0.26565227,0.22183731,-0.3208785,0.18698181,0.45242718,-0.0027763143,-0.23307581,-0.026863925,-0.018167993,-0.3049017,0.33028573,0.11799259,0.211809,0.12660147,0.26494303,-0.111573786,-0.16021232,-0.1328317,0.21200615,0.03859955,0.38554952,-0.36646134,-0.14459634,-0.2923192,-0.31734732,-0.14841896,0.2813262,-0.3362685,0.2668559,0.1109543,0.098948725,-0.079474494,-0.46907496,-0.291507,0.452262,0.25880376,-0.123941824,-0.20964484,0.2019046,-0.14586447,-0.18991442,-0.30811504,-0.21111174,0.20692585,-0.21664402,-0.047626097,0.24142821,-0.23516229,-0.3368034,-0.2024318,0.2290899,0.12404818,-0.20261118,0.16982895,-0.066156,-0.44721675,0.31841865,0.33439434,0.19446953
f4_i4,0.1414383,0.041874252,0.31722918,-0.051037133,-0.15779114,0.09181692,-0.28307474,-0.11433883,0.1830804,-0.29257604,0.09083626,-0.23676397,0.09684065,-0.14511631,0.2450615,-0.1933506,-0.14313088,0.16854712,-0.31174,0.057435133,-0.27681383,-0.24066448,0.01994725,0.17290835,-0.32384667,-0.08124686,0.337723,0.18483038,0.22623327,0.047351256,0.022110121,-0.33715284,-0.4236919,-0.0245965,0.30044448,0.23842826,-0.67062193,-0.39061648,0.31234086,-0.2789452,-0.22700502,0.16453975,0.15731882,-0.22346152,0.28159285,0.37883693,0.18855618,0.06446244,-0.07417431,0.26087877,-0.26000765,0.3720517,0.2059724,0.29056498,0.26046017,0.012248547,-0.18852334,-0.07877609,-0.23858257,-0.29659882,0.17079207,0.122908145,-0.34647912,0.1494792,-0.11193766,-0.09902146,-0.37193084,0.26936817,-0.37434852,0.20706673,0.06952834,0.16995932,0.3243768,-0.23404679,-0.18279713,0.1498545,0.23923323,-0.12127405,-0.13209684,0.38957882,0.030050786,-0.12777235,-0.4849926,-0.25271478,0.23106907,-0.12368383,-0.17865822,-0.05989171,-0.20855474,-0.06196335,-0.1652791,0.30651867,0.29768205,-0.42942902,0.1675887,-0.27194926,-0.18810622,0.30504897,0.26249814,0.26171988
f4_i5,-0.050267447,-0.21489137,-0.16282715,-0.3835749,-0.18503562,0.07242879,-0.25362903,-0.2315903,-0.07758246,-0.23625188,0.1715432,-0.19111553,0.05241854,-0.19234248,0.36267862,-0.09021219,-0.3572642,0.23999913,-0.32327837,0.0012434437,-0.19764425,-0.011229816,-0.7738969,0.31028807,-0.22673666,-0.0016364153,0.21996945,0.21595961,0.24462433,0.26542163,0.40119416,-0.22528465,-0.17928468,0.15296264,0.319817,0.37012443,-0.15592673,-0.3075867,0.09914809,-0.26742053,-0.15063031,0.25950137,0.18857132,-0.19951063,0.28315392,0.4333074,0.20465997,0.4509982,-0.21080196,0.2579016,-0.20164083,0.24928689,0.20171311,0.0759605,0.21935503,0.15531795,-0.11759995,-0.21927989,-0.1470173,-0.14160576,0.014210859,0.3378078,-0.3766103,-0.23749092,-0.09763308,-0.25086737,-0.23973249,0.09227954,-0.02769575,0.32224038,0.05657118,0.31654772,-0.02528123,0.096744694,-0.14825374,0.15814517,0.24851143,-0.15586066,-0.22715093,0.016812414,-0.5397602,-0.09447134,-0.1150468,-0.24986921,0.16655797,-0.25364977,-0.05867661,0.20098329,-0.13867387,-0.0017539484,-0.25691837,0.20892562,0.38734305,-0.4193921,0.15275481,-0.10436482,-0.34206602,-0.020595687,0.27605402,0.08657081
f5_i1,0.2957231,-0.15184148,0.042486563,-0.22917587,-0.3132373,0.278107,-0.21752116,-0.31800684,0.2800453,-0.24622051,0.29266554,-0.07877873,-0.4372896,-0.1651036,0.19944873,-0.16219513,-0.2561604,0.22174647,0.50749016,0.0879546,-0.1353206,0.6766905,-0.28613347,0.20471178,-0.27444664,0.6106754,0.1873974,0.25360438,0.26972184,0.15549831,0.13424917,-0.0412643,0.39380428,0.22952339,0.2852691,0.11942955,-0.22365457,-0.3099377,0.17335339,-0.23925954,-0.109727755,0.3286471,0.2123875,-0.018907415,0.18317464,0.21201903,-0.4304538,-0.008496685,-0.26519436,0.2970693,-0.23857105,0.0505632,0.28244182,-0.41493246,-0.24893874,0.064962916,-0.07787365,-0.0017353924,-0.28695875,0.06668499,0.20338888,-0.36657983,-0.2193177,-0.27380458,-0.2646609,0.20397699,-0.24517071,-0.2673736,-0.1268382,0.27659893,0.26252452,0.4414749,0.131585,0.13124856,-0.21840444,-0.37501317,0.10425546,-0.13235243,-0.08535867,0.17258956,0.19543296,-0.30628368,-0.17357902,-0.24634881,-0.48078638,0.042583276,-0.22147068,0.19076158,-0.23243466,0.26955286,-0.2102413,0.26155868,-0.47140366,-0.5250674,0.047707643,-0.21663052,-0.38057816,0.19004847,0.35140863,0.11315827
f5_i2,0.21462856,-0.19682902,0.075775266,-0.29527795,-0.19437891,0.35498527,-0.22100249,-0.27200434,0.32279932,-0.18016703,0.14175808,-0.16635148,-0.33573076,-0.17692113,0.0978364,-0.13862671,-0.13139243,0.16710617,0.33389226,0.18145226,-0.18813461,0.6325187,-0.19146386,0.19810688,-0.27306655,0.5066303,0.38529554,0.11281976,0.3035773,0.29694584,0.2404798,-0.29300195,0.5070509,0.37168005,0.15322846,0.20185657,-0.080371805,-0.037109386,0.25419825,-0.2824624,-0.14744538,0.22187516,0.21356307,-0.22736306,0.14478514,0.258533,-0.49382463,-0.27840418,-0.07152854,0.28725263,-0.24372834,0.017171793,0.07370718,-0.15107922,-0.24773641,0.11376934,-0.1489313,-0.14904495,-0.11203107,0.18832944,0.14482386,-0.28882933,-0.29374376,-0.109973416,-0.0794133,0.26871732,-0.34924015,-0.18231311,-0.33840898,0.28140083,0.13345993,0.43812272,0.36448127,0.011769333,-0.26445284,-0.38722864,0.24884295,-0.1522758,-0.13841283,0.027192468,-0.110501155,-0.2668283,0.034975927,-0.17819482,-0.36433518,-0.09673652,-0.12323026,0.0068060546,-0.269003,0.5064286,-0.3231486,0.36517012,-0.29481253,-0.36701092,0.22020385,-0.26692823,-0.5865967,0.25047237,0.62479484,-0.03850649
f5_i3,0.19482234,-0.1693401,0.0064254906,-0.3472472,-0.29260045,0.08961437,-0.19232027,-0.2206235,0.26160562,-0.24374652,0.2727422,-0.066721745,-0.5322809,-0.29101384,0.23832658,-0.23827703,-0.24674448,0.3145373,0.37249115,0.26743478,-0.32094556,0.6755861,-0.3273282,0.19773807,-0.2565218,0.37042937,0.29502097,0.076579794,0.2490887,0.2587543,0.3448099,-0.15769164,0.3588412,0.3174648,0.1824804,0.26802492,-0.17860772,-0.17960466,0.15083398,-0.1531743,-0.13159625,0.3290185,0.18978786,-0.11956743,0.18436882,0.20036641,-0.503867,-0.25600606,-0.19531335,0.3006376,-0.14733973,0.099210836,0.010090615,-0.38253006,-0.17883073,0.23295349,-0.24905871,-0.11575757,-0.2374396,0.3824055,0.16472833,-0.26090902,-0.2740476,-0.27573642,-0.13179676,0.15264283,-0.21417591,-0.32187626,-0.3019031,0.24743843,0.11689322,0.36478564,0.3082583,0.2891625,-0.18342133,-0.4818327,0.09792096,-0.19657098,-0.20544448,0.1440971,-0.04063557,-0.34920022,-0.3360508,-0.17372786,-0.2569576,-0.023223901,-0.12996848,0.10592042,-0.26000503,0.5658738,-0.18303728,0.21685085,-0.3277071,-0.37966058,0.08382634,-0.09618998,-0.32403034,0.11438101,0.5860606,-0.03866507
f5_i4,0.13442065,-0.20472552,0.12001783,-0.18374953,-0.4549041,0.09219959,-0.32046255,-0.23002927,0.30482987,-0.24820225,0.32516265,-0.30303812,-0.5049112,-0.27144292,0.22443436,-0.14855762,-0.12805736,0.22933279,0.4843601,0.28489646,-0.24297166,0.65981156,0.0375797,0.17660376,-0.25552708,0.547058,0.17245612,0.21775642,0.26128373,0.26806346,0.2106743,-0.26250967,0.31150457,0.2922195,0.11812017,0.18131918,-0.041277982,-0.3600531,0.13509686,-0.10684412,-0.16796465,0.1706832,0.30102858,-0.22887594,0.082182035,0.27966648,-0.5335432,-0.29270804,-0.24888073,0.1976157,-0.26796588,-0.08596081,0.27294508,-0.020422896,-0.30392984,0.19964057,-0.32195735,0.02821265,-0.25653222,0.30258045,0.2747821,-0.36767414,-0.28610894,-0.13934873,-0.10132909,0.27012506,-0.22113432,-0.29974028,-0.3153256,0.293885,0.16412994,0.49165508,0.36322752,0.3870678,-0.10767792,-0.46134555,0.24172622,-0.15265426,-0.28314295,0.24757859,-0.11188594,-0.30425227,0.036336936,-0.20140108,-0.34579685,-0.09184065,-0.08417672,0.04348226,-0.115195274,0.60956126,-0.10412428,0.18800081,-0.32697052,-0.3050114,0.12082892,-0.283183,-0.065784924,0.21736392,0.47539905,0.09529584
f5_i5,0.28745762,-0.25006577,0.12680636,-0.261048,-0.43140405,0.13232946,-0.37274948,-0.19443038,0.27105835,-0.18386638,0.2904262,-0.23628552,-0.44407764,-0.19243011,0.2556272,-0.10004682,-0.2142544,0.26864523,0.5251523,0.20798142,-0.13744944,0.7171857,-0.036063094,0.31287777,-0.08960078,0.41987228,0.222888,0.2671271,0.14555766,0.113887966,0.2534986,-0.28753358,0.43610814,0.2843696,0.33702224,0.1272086,-0.10340517,-0.18317461,0.08873166,-0.09739555,-0.21644516,0.16690731,0.1920379,-0.15984482,0.25770178,0.3246348,-0.41572452,-0.14086398,-0.048068557,0.1508417,-0.1516054,-0.028904703,0.07078063,-0.14959529,-0.22983566,0.2366098,-0.19969651,-0.15547623,-0.38643962,0.21044713,0.25768045,-0.2351447,-0.30714777,-0.31657138,-0.11967197,0.27729288,-0.29527727,-0.31490287,-0.18929982,0.20120715,0.27410805,0.49989438,0.32358092,0.44849944,-0.25047192,-0.5979656,0.11599885,-0.16618425,-0.2427075,0.032870702,0.071965374,-0.27369305,-0.38503283,-0.2517961,-0.4636538,-0.104585975,-0.13340984,0.10721264,-0.22942747,0.44180262,-0.09169336,0.19865039,-0.27516288,-0.38362426,-0.02291958,-0.17736885,-0.108654335,0.24058528,0.4387142,0.17483053
f6_i1,0.29387432,-0.27139735,0.2896169,-0.06953811,-0.2565402,0.20194669,-0.18122402,-0.21964136,0.009671949,0.01343108,0.1626411,-0.18108514,0.35025638,-0.17344366,0.08359494,-0.33738387,-0.31549516,0.1816888,0.29191983,0.32901165,-0.23745367,-0.35991037,-0.11679061,0.19717139,-0.20209087,0.25268245,0.2830853,0.15985313,0.100230105,0.2421854,0.28324327,-0.064742446,0.011241214,0.34567222,0.14335951,0.366746,-0.44606513,0.3387128,0.09055274,-0.092616305,-0.17450702,0.57084495,0.25513092,-0.33705515,0.13675648,0.3357922,0.26890883,0.10296182,-0.30984497,0.10943847,-0.11839316,0.30756146,0.09867814,0.36109298,0.24252144,0.011485091,-0.21560232,-0.25777695,-0.16548313,0.33674273,0.20973726,0.21705824,-0.14904673,-0.3390925,-0.28417528,-0.22851688,-0.021913325,0.49416235,-0.29428914,0.024072262,0.24779345,0.075964175,0.24103166,-0.18661083,-0.21472688,0.09601402,0.13369204,-0.17471032,-0.24646795,0.19068702,-0.015844902,-0.46846652,-0.15434337,-0.09202422,0.40724257,-0.18297648,-0.18415286,0.15781894,-0.2109852,-0.027615154,-0.10404972,0.14218204,-0.03176257,0.4017172,0.16925928,-0.21588883,-0.43474904,0.21237431,0.32080355,0.18412502
f6_i2,0.37742,-0.24528642,-0.0384022,-0.14834744,-0.29982415,0.10196734,-0.3077466,-0.24412534,0.14559667,-0.2094725,0.13887328,-0.05502912,0.13570721,-0.22592187,0.23343545,-0.24298604,-0.016804384,0.12144345,0.21722245,0.22267638,-0.0752683,-0.053578362,-0.18626283,0.2671221,-0.241192,0.27902555,0.3716788,0.18769889,0.04713585,0.27145115,0.45304146,-0.003051139,-0.31149518,0.011884273,0.23512743,0.104107924,-0.28999928,0.026444819,0.0073233503,-0.15590708,-0.24449024,0.15590692,0.19928823,-0.2530442,0.16540617,-0.034696937,0.2881615,0.36389577,-0.19233398,0.13181598,-0.13691656,0.28343928,0.40885532,0.21204683,0.1746791,0.2557443,-0.2543315,-0.17937553,-0.30388647,-0.18352276,0.22794858,0.26253533,-0.36445835,-0.029057495,-0.28907293,-0.42765445,-0.3287807,0.5400589,-0.09890176,0.3052337,0.33579767,0.25037554,0.1613547,-0.25206846,-0.19224145,0.03124722,0.31722766,-0.27794823,-0.19062264,0.16538025,-0.25021714,-0.53211516,-0.23297362,-0.29939312,0.24164662,-0.27680224,-0.055928513,0.2519674,-0.17492478,-0.0776134,-0.26045826,0.15740648,0.24898115,0.34076306,0.24294315,-0.25115576,-0.17214213,0.32324636,0.43384737,0.33048034
f6_i3,0.09261406,-0.14892508,0.42603433,-0.29303738,-0.22934583,0.0631676,-0.2884283,-0.2365343,0.36381498,-0.27791592,0.27478456,-0.3105854,0.19100486,-0.23527609,0.08688087,-0.22385383,-0.2879475,0.24650922,0.2851687,0.2373558,-0.13966845,-0.23055279,-0.342173,0.19185661,-0.23923366,0.10562899,-0.06319795,0.28992176,0.26533225,0.13776423,0.24479488,-0.2924993,-0.31174704,-0.19838968,0.13173486,0.31947675,-0.52818894,-0.6569496,0.19566126,-0.1336709,-0.18430299,0.13449337,0.238214,-0.25854668,0.16399726,0.18153338,0.06491959,0.22400793,-0.07264446,-0.19667114,-0.1617271,0.273032,0.22476037,0.050311077,-0.030357037,0.13105352,-0.27792588,-0.0861677,-0.13119522,-0.28960043,0.23243529,0.18055585,-0.22415811,-0.15749702,-0.34296477,-0.022152722,-0.10784808,0.12099119,-0.37519598,-0.021975229,0.35346705,0.13060382,0.2225718,-0.24178971,-0.22655806,0.04618277,0.2342138,-0.12842679,-0.19412556,0.2573135,-0.1396136,-0.1246216,-0.035892643,-0.16157718,0.2846436,-0.19102827,-0.14427653,-0.022655386,-0.11846007,0.017602677,-0.08265929,0.08100123,-0.014896068,-0.24376237,0.24752945,-0.10385053,-0.4491886,0.12270342,0.50730824,0.35373005
f6_i4,0.29616717,-0.27916303,-0.05838068,-0.27208674,-0.08992345,0.16227065,-0.21639965,-0.1556541,0.36263022,-0.19316459,0.1414509,-0.26578268,0.053093288,-0.18767159,0.30967495,-0.19691782,-0.11919774,0.20159084,-0.5498147,0.2264807,-0.1456557,-0.20193833,0.13655262,0.14355315,-0.23177727,0.22561264,0.11883282,0.24479839,0.13990782,0.13955311,0.20078836,-0.12380687,-0.3845577,-0.093081914,0.20554212,0.24548586,0.01758999,-0.050713386,0.2082347,-0.18576434,-0.13696076,0.16576633,0.16461733,-0.18103302,0.116639264,0.0011201806,0.00079916,0.09808878,-0.19279335,0.005963484,-0.21432656,0.17938453,0.44931772,-0.03417832,0.19801925,0.07713691,-0.34967208,-0.080365755,-0.26421547,-0.5179644,0.2151842,0.08026079,-0.20462202,-0.10937598,-0.0792782,-0.1636816,-0.26514566,0.6174556,-0.17127885,0.13157,0.41951665,0.27868798,0.090151265,-0.10612865,-0.21525806,0.17966041,0.23431247,-0.2812901,-0.27321586,0.41248935,-0.4600183,-0.3634048,-0.46144962,-0.26951864,0.12381349,-0.17379835,-0.19492778,0.08275909,-0.18112358,-0.18760061,0.03131158,0.13943805,0.39766514,0.1648561,0.2575824,-0.3046226,-0.2682609,0.19652526,0.1917929,0.08761269
f6_i5,0.25793037,-0.11369875,0.4835194,-0.17524506,-0.29606026,0.2198394,-0.2898395,-0.18205032,0.1858789,-0.2097682,0.17040071,-0.31051272,0.20477884,-0.15896955,0.16718698,-0.37012112,-0.2991609,0.24904993,-0.054686647,0.23278792,-0.25490975,-0.046678767,-0.18117628,0.3492859,-0.25547394,0.38192716,0.12919596,0.1871212,0.25550407,0.039859068,0.36748773,0.05453828,-0.38104096,0.17920426,0.12830873,0.23096634,-0.43310356,-0.03189441,0.26145777,-0.2720871,-0.23078491,0.05503376,0.1926531,-0.20570439,0.2081034,-0.04196855,0.5367314,0.026689282,-0.3167354,0.35187835,-0.088322006,0.20728494,0.09520014,-0.05789101,0.13784575,0.19599254,-0.21134202,-0.15138106,-0.12239949,0.09332058,0.28542408,0.22752981,-0.23443337,-0.22402333,-0.29640445,-0.25784087,-0.031683616,0.044636585,-0.10258202,0.24130844,0.16166422,0.33727962,0.19428095,-0.2755991,-0.19237918,0.15195943,0.22685014,-0.12383437,-0.068501815,0.29778588,-0.4498482,-0.38044032,-0.013453463,-0.24363929,0.36883596,-0.25413445,-0.16002056,0.32682696,-0.18484241,-0.49226755,-0.30077344,0.24536781,0.15385258,0.10859204,0.29647347,-0.042343967,-0.3261155,0.12357099,0.0990738,0.12466724
f7_i1,0.29646614,-0.19258198,0.52785885,-0.30235785,-0.14236596,0.20393299,-0.2941894,-0.09166539,0.16244416,-0.31977287,0.13913064,-0.3172753,-0.082233414,-0.23706497,0.23346359,-0.19625378,-0.061452642,0.20132881,-0.23536699,0.32288244,-0.12372581,-0.48413047,-0.040762253,0.3121246,-0.123336054,0.035412237,0.28729457,0.1831355,0.19094782,0.14336789,0.3289249,-0.10274062,-0.3064263,-0.062278997,0.2129242,0.35587373,-0.44849384,0.18265346,0.1265926,-0.19533366,-0.19020464,0.39357328,0.3274267,-0.3296868,0.27389714,0.4026022,0.3694243,-0.035954196,-0.034948803,0.30999887,-0.15815029,0.23914365,0.22752492,0.06497115,0.22771579,0.070903055,-0.09462615,-0.14831081,-0.15315305,0.1640271,0.11919669,0.19518599,-0.42818227,-0.13129683,-0.20099631,-0.35231328,-0.34566885,-0.10584566,-0.12576896,-0.0023399738,0.37566677,-0.09851173,-0.112980776,0.011460194,-0.13025838,0.16034007,0.22265714,-0.19518049,-0.21050572,0.3300049,0.04170141,-0.35597643,-0.104486234,-0.20585948,0.3607586,-0.17476748,-0.06139406,0.038424946,-0.17748415,-0.22649853,-0.19360928,0.082001835,0.05585828,0.08247784,0.1404108,-0.2620962,-0.05386306,0.15669739,0.42477068,0.11112757
f7_i2,0.41895398,-0.25757918,0.22830662,-0.22218117,-0.2363208,0.20179598,-0.07470518,-0.16499524,0.0995762,-0.1250726,0.07581412,-0.18147697,0.16458902,-0.2375778,0.21125418,-0.20447426,-0.23122647,0.28439248,-0.20803584,0.28579724,-0.28488946,-0.5134849,-0.58519137,0.25098932,-0.14363362,0.18236026,-0.11744235,0.28127792,0.099113904,0.3280628,0.20618396,-0.28853428,0.12529527,-0.036834817,0.31852707,0.32584208,-0.1854181,-0.511109,0.26467642,-0.2679486,-0.10761086,0.24254918,0.24716009,-0.24438536,0.15752596,0.23123236,0.43356553,0.16940221,-0.09808806,0.2834412,-0.13147339,0.13887021,0.16598776,0.16331789,0.19861172,0.06327621,-0.42488384,-0.28452417,-0.19935507,-0.3865298,0.19612758,0.16130804,-0.3090821,-0.22886814,-0.08515612,-0.3380414,-0.1609421,0.20654453,-0.10446529,0.054159593,0.028682834,0.018904157,-0.1598822,-0.0441037,-0.16046967,0.5130362,0.20414531,-0.16790459,-0.16045842,0.036057197,0.29966027,-0.21504202,0.054305613,-0.17368145,0.22249304,-0.1407885,-0.29245153,0.052854877,-0.16781305,-0.40152767,-0.12183148,0.047240697,0.11773421,0.19034514,0.14184579,-0.33531305,-0.31812105,0.25966758,0.3077328,0.075928405
f7_i3,0.0004715654,-0.10459049,0.23608357,-0.14663233,-0.06896944,-0.023566432,-0.30398288,-0.14079686,0.18610725,-0.25564212,0.14567934,-0.25762966,0.5471934,-0.12181361,0.242725,-0.23483634,-0.30281985,0.16381289,0.12978804,0.2674557,-0.14586887,-0.08993071,-0.10468239,0.25496128,-0.17672919,0.34653082,-0.12305539,0.24715674,0.22525981,0.16156434,0.111557454,-0.0870156,-0.23059148,0.0044023045,0.21306829,0.12861098,-0.44382688,-0.031130116,0.1936534,-0.083744735,-0.1804005,0.44070688,0.2080073,-0.40018708,0.14197008,0.12063627,0.011029757,0.22790277,-0.3856378,0.2739375,-0.079557784,0.36499733,0.08920673,0.22305292,0.42886162,0.12751561,-0.2875402,-0.31565693,-0.16040842,-0.2423008,0.3656025,0.07673607,-0.10020619,-0.2570024,-0.23491421,-0.3041519,-0.12447194,0.33199817,-0.18408845,0.020503033,0.28595808,0.0032599834,0.42680287,-0.32875222,-0.28582388,0.19879162,0.3008345,-0.11796462,-0.0876323,0.10842432,-0.21126929,-0.28126305,-0.14464015,-0.25857684,0.3512618,-0.21263011,-0.2971656,0.38345793,-0.26862735,-0.4602143,-0.17920697,-0.022271635,0.07466512,0.042848144,0.29132628,-0.33988065,-0.1767862,0.23784629,-0.065715976,0.110076286
f7_i4,0.33841893,-0.07634979,0.72115284,-0.22763975,-0.11365749,-0.032173064,-0.20921381,-0.2580415,0.21733598,-0.05866944,0.30671817,-0.10037926,0.10699897,-0.21305107,0.25168622,-0.25991786,-0.2188693,0.044780772,0.31491557,0.19734332,-0.06383809,-0.012972071,-0.22663203,0.11995125,-0.1998883,0.07534607,0.2623299,0.30125585,0.33242068,0.37918893,0.38487208,-0.21731918,-0.20230682,0.3829328,0.11573902,0.3077856,-0.16877133,0.11268333,0.093385465,-0.277199,-0.25060436,-0.024899138,0.17139724,-0.14857464,0.25027716,-0.11150772,0.16095813,0.3684328,-0.16764554,0.0018499305,-0.26577768,0.27592158,0.1271448,0.25912207,0.15671866,0.30166638,-0.32856405,-0.2079408,-0.20120202,0.40416804,0.16788778,0.11891743,-0.41188157,-0.40231863,-0.08338998,-0.2882203,-0.2283906,0.5088984,-0.13854629,0.20134835,0.2041172,0.42701748,0.045480713,-0.28371575,-0.1635476,0.09083606,0.20308688,-0.3188288,-0.24451886,-0.10384604,-0.49035814,-0.39076373,-0.008549667,-0.10516362,0.1494605,-0.16035226,-0.31765482,0.1190707,-0.18869051,-0.055884372,-0.065730095,0.07571137,0.14848377,0.34626117,0.13005713,-0.3518542,-0.17374623,-0.028937541,0.36466944,0.124019675
f7_i5,0.020505814,-0.09917686,0.2716732,-0.19135748,-0.19756359,0.30645508,-0.25864437,-0.20580108,0.17580889,-0.2289196,0.116013095,-0.31850094,0.12698263,-0.2829955,0.16890813,-0.32762346,-0.31311554,0.1688378,0.81529933,0.3576066,-0.22727202,-0.23600782,-0.09633369,0.28473845,-0.19095883,0.25683638,-0.2431225,0.18317974,-0.031007059,0.031159926,-0.17939705,-0.19340304,0.06047321,0.39700222,-0.025361884,0.2986194,0.40359458,-0.07790216,0.40671045,-0.17172775,-0.14813766,0.048682585,0.19990015,0.020828336,0.24558009,0.26957846,0.35745746,0.041658375,-0.39136332,0.41943526,-0.18330391,0.26902232,0.24175172,0.12570837,0.19885571,0.35195017,-0.23107323,-0.2658455,-0.16234443,0.020584477,0.30077213,0.096015096,-0.10019767,-0.3361169,-0.27293804,-0.19187972,-0.30281547,0.10594655,-0.27001053,-0.038836785,0.08290302,0.11336793,0.35832953,-0.16132717,-0.18913423,0.2568218,0.29038483,-0.21296208,-0.27338433,0.33983853,-0.62958425,-0.17317723,-0.11749394,-0.1641127,0.18417734,-0.13098179,-0.22524858,0.29688346,-0.23739208,-0.04106189,-0.23998334,0.37118325,0.068318844,0.46665815,0.3252692,-0.37591645,-0.27702832,0.24545418,0.17527749,0.09740025
f8_i1,0.12911528,-0.28526273,0.15306132,-0.21310158,-0.25328222,0.4644608,-0.36214218,-0.2268094,0.08182731,-0.27892274,0.0781981,-0.2761842,0.16538106,-0.3028637,0.25046292,-0.3216082,-0.1677784,0.15575433,0.44339314,0.23057657,-0.2804783,-0.49135554,0.02114422,0.18624502,-0.20912795,-0.019959545,-0.3435461,0.21555926,0.19025865,0.074472025,0.201849,-0.38353306,-0.3706239,0.2037141,0.16555344,0.03740336,-0.3205889,-0.56991035,0.19181864,-0.0466999,-0.043779954,0.2079066,0.21438062,-0.1573991,0.0911217,0.2531758,0.31975174,0.0063969293,-0.34374803,0.20547734,-0.3095167,0.10689351,0.23324834,0.15261668,0.32146505,-0.056953017,-0.047473814,-0.06774198,-0.19686979,-0.25922412,0.3699634,0.17413105,-0.0883815,-0.19551826,-0.27186263,-0.06364934,-0.27154633,0.4162307,-0.21190125,0.19940305,-0.02523516,0.0032510543,0.18367366,-0.22557357,-0.23859397,0.31389454,0.22296879,-0.29153907,-0.2410124,0.28874224,0.16906784,-0.03199461,-0.068786435,-0.26331043,0.15260956,-0.25228593,-0.09560831,-0.22346328,-0.34405124,-0.440883,-0.43510902,0.145778,0.36155745,0.055686608,0.25843963,-0.29174623,-0.11434301,0.11155201,-0.005528189,0.26772854
f8_i2,0.30977282,-0.1373034,-0.09845563,-0.11725292,-0.17036943,0.36022317,-0.2641047,-0.107249625,0.12882473,-0.31050816,0.1485394,-0.14255904,0.08833318,-0.28448504,0.26084292,-0.25684366,-0.1512122,0.22876428,0.105059534,-0.14267507,-0.24468926,-0.34393272,-0.37849823,0.18682857,-0.2631862,-0.13451959,0.18753399,0.18459438,0.32397512,0.24028902,0.2460204,-0.23097229,-0.33005872,-0.11467983,0.3383263,0.094540015,-0.50518626,-0.10165309,0.17384768,-0.24586527,-0.10735909,0.27690566,0.21382263,-0.16026117,0.11036516,0.24226204,0.058749337,0.10564929,-0.47874907,-0.081641436,-0.26523542,0.41282904,0.18001696,0.2615104,0.31409925,0.042202253,-0.0758135,-0.19435304,-0.26417512,0.14573172,0.3034128,0.14594832,-0.23087609,0.11708625,-0.28510126,-0.08445204,-0.33963537,0.1328645,-0.24812433,0.35128912,0.056443565,0.06160669,0.12089331,-0.018810203,-0.27095777,0.26967683,0.27303627,-0.19540095,-0.049784496,0.30323657,0.26739192,-0.25330955,-0.28355378,-0.25174332,0.1490466,-0.17633997,-0.078483626,0.20654511,-0.08276165,-0.13966303,0.06814727,0.17852314,0.38873756,0.23774284,0.16776086,-0.429801,-0.44496244,0.2511001,0.17428413,0.4855165
f8_i3,0.10250789,0.08056144,-0.20566292,-0.21417214,-0.34266526,0.28511444,-0.35530344,-0.062239524,0.14246134,-0.030853527,0.17043874,-0.11519818,-0.03356611,-0.20577025,0.33764994,-0.23948511,-0.25967,0.060785048,0.50405395,-0.06835577,-0.22147742,-0.04699353,-0.121969774,0.1770266,-0.05827787,-0.12169885,0.33427104,0.21772441,0.36855984,0.19369046,0.21887678,-0.27878344,-0.4882501,0.16627486,0.28939813,0.28475794,-0.36315334,0.47115594,0.23407932,-0.17031239,-0.12671398,0.1653398,-0.005534617,-0.24736053,0.30675754,0.15835136,0.0993294,0.11919685,-0.26069352,0.3335413,-0.14911568,0.18957764,0.30406016,0.30981106,0.14876558,0.25815916,-0.14020477,-0.06525013,-0.117100805,-0.29501808,0.12359231,0.33965406,-0.47951636,-0.2547676,-0.25576684,-0.32167813,-0.24407387,0.37845093,-0.36002415,0.32840526,0.17100331,0.25466248,0.39192063,-0.29643047,-0.06776076,0.070003584,0.2101127,-0.13499217,-0.18760048,0.25746948,0.2525105,-0.34550878,-0.45457324,-0.2955637,-0.07498602,-0.15061586,-0.16908994,0.06130907,-0.2905618,-0.6972649,-0.21503907,0.1898169,0.51764745,-0.386874,0.08178909,-0.19977868,-0.2628925,0.22032145,0.24399772,0.23991518
f8_i4,0.21175969,0.06445771,-0.17120264,-0.10102989,-0.17571996,0.21749999,-0.27387297,-0.33997914,0.45944664,-0.22766128,0.001025334,-0.22685643,0.3366174,-0.27136922,0.37024647,-0.10399575,-0.12040626,0.22467197,-0.25945568,0.25032693,-0.24737316,-0.35039574,-0.119651854,0.12577632,-0.19082418,-0.050212312,0.31527725,0.18834442,0.114990376,0.06295376,0.20415181,-0.38687932,-0.4654529,0.19634503,0.31628728,0.04127042,0.05085141,0.352719,0.33632937,-0.30708534,-0.21507418,0.1318953,0.286314,-0.2254401,0.24644306,0.32361084,0.21928439,0.24918075,-0.052711137,0.1570108,-0.29712093,0.30450895,0.20326051,0.31092033,0.25393993,0.17236474,-0.06666373,-0.06857989,-0.19172494,-0.02815963,0.2861367,0.17034,-0.34538242,-0.37528953,0.0028192168,0.061723188,-0.31471416,-0.010974868,-0.23816867,0.21606772,0.01850054,0.17404997,0.5637098,-0.16040991,-0.19395684,0.033327058,0.15115365,-0.08793765,-0.18593553,0.19080757,-0.12004813,-0.18141939,-0.13538276,-0.24723323,0.17301275,-0.2152753,-0.20527773,0.1681048,-0.16697691,-0.03357764,-0.16774048,0.19542187,0.14797169,0.4729142,0.26147607,-0.16772163,-0.40962428,0.16783737,0.36037797,0.058269717
f8_i5,0.22614048,-0.28184104,-0.094021566,-0.12258755,-0.22175536,0.35438436,-0.2955073,-0.19616194,0.04871673,-0.221472,0.29195133,-0.17849618,0.440452,-0.10933042,0.11674201,-0.3759407,-0.21567813,0.2387795,0.09376694,0.32059222,-0.19966164,-0.49239254,-0.32361963,0.18210149,-0.07903328,0.15097365,0.19633834,0.109867536,0.2729145,0.14427347,0.1629655,-0.37204018,0.30161914,0.28137714,0.13464862,0.41100004,0.2876917,-0.4363774,0.043859404,-0.18737297,-0.16909996,0.34152588,0.25093955,-0.33820668,0.20096022,0.24658279,0.3630827,-0.0582367,-0.26568618,0.028399017,-0.25735304,0.26137292,0.3703259,0.22084056,0.12448639,0.050336175,-0.34286135,-0.13981359,-0.16228178,0.24847893,0.15399636,0.29245055,-0.16188447,-0.18431233,-0.11812416,-0.25347495,-0.046099447,0.21660295,-0.3536087,0.0081341285,0.30476844,-0.025745546,0.3150221,-0.27005172,-0.29190233,0.068957664,0.24175091,-0.13022815,-0.045280952,0.11685084,-0.22580375,-0.15621346,-0.30366242,-0.2748665,0.24910094,-0.20138614,-0.28846216,0.23280293,-0.26629442,0.008195084,-0.22493015,0.05626473,0.22169852,-0.13913973,0.16835627,-0.1378693,-0.24265644,0.22822852,0.18490142,0.22026125
f9_i1,0.0693627,-0.37918335,0.27959853,-0.24563766,-0.21875021,0.19665898,-0.1515444,-0.1566687,0.06043186,-0.13058628,0.1902141,-0.36285263,0.24780582,-0.25675046,0.2726781,-0.32408968,-0.18791948,0.20568581,-0.120830916,0.08606652,-0.077433586,-0.43067244,-0.1947926,0.30894738,-0.21375407,-0.014603997,0.256099,0.18376957,0.10671201,-0.020787023,0.11861498,-0.27468112,0.27286625,0.19170164,0.24607229,0.14648749,0.0010314529,0.13728039,0.12905702,-0.18630652,-0.21860845,0.02818085,0.20825705,-0.29799545,0.28954327,0.30792364,0.36995834,0.1566859,-0.2583183,0.3530754,-0.29325184,0.099274084,0.1819421,0.21652,0.28868085,0.28860262,-0.31425443,-0.08370393,-0.11756364,-0.025663882,0.30570725,0.19406237,-0.27322474,-0.1335655,-0.3110064,-0.083531454,-0.30834535,0.27009344,-0.33176643,0.108003475,0.26126248,-0.030919818,-0.12044436,-0.19284096,-0.109992355,0.47937423,0.18031298,-0.13667125,-0.14477286,0.37851998,0.0012360271,-0.009738656,-0.26873663,-0.18561919,0.07664764,-0.19043854,-0.29320246,-0.13017543,-0.2609589,-0.64859194,-0.22907509,0.14871752,0.061593045,0.037823465,0.06943308,-0.25447965,-0.26305073,0.30176693,0.18705943,0.2514411
f9_i2,0.20236552,-0.21455106,0.3281475,-0.21584547,-0.335856,0.093530044,-0.15024422,-0.15016474,0.04880056,-0.28301236,0.23900524,-0.13564791,0.08457503,-0.26867747,0.21662582,-0.18024985,-0.26902258,0.18634316,-0.23245639,0.14915319,-0.22351314,-0.35592243,-0.35003114,0.18466811,-0.18511362,0.30242667,0.35164195,0.22417524,0.2214523,0.25557327,0.14964166,-0.23382595,-0.25910097,0.24219444,0.19225411,0.3053126,-0.36990687,-0.19835632,0.121027976,-0.2772848,-0.057272054,0.3743122,0.34139034,-0.006599037,0.1306034,0.2761818,0.2547907,0.19313674,-0.2740916,0.2720885,-0.21931109,0.21708262,0.1433117,0.29553467,0.24141918,0.19091457,-0.21644083,-0.19437447,-0.25076646,-0.26536986,0.10477296,0.20158373,-0.274364,-0.11335832,-0.30792877,-0.30519575,-0.11027451,0.46132058,-0.24867065,0.34172344,0.09059157,0.26506597,0.080696195,-0.07480305,-0.19813783,0.17889537,0.1153752,-0.14838466,-0.19543071,0.039312284,-0.29557288,-0.010472166,-0.10006321,-0.16011243,0.15214105,-0.18854593,-0.1649816,0.13861826,-0.12531322,-0.09607679,-0.19481218,0.14042306,0.24811146,0.16731493,0.22123608,-0.11762352,-0.31592888,0.30749965,0.17741762,0.26900232
f9_i3,0.12843648,-0.11966505,-0.21169628,-0.25038835,-0.18801531,0.188033,-0.20407507,-0.26041013,0.32672992,-0.2314672,0.12752986,-0.19065288,0.33939576,-0.22949445,0.27939016,-0.08648909,-0.2480293,0.2181639,0.12208894,0.030905535,-0.22548673,-0.09688287,0.18414609,0.32618994,-0.2585229,0.26829997,0.46028748,0.20973341,0.10498595,0.21958946,0.14462532,-0.09175759,0.22771928,0.22752625,0.0057422933,0.021459643,0.14179854,-0.057310287,0.20423552,-0.35208634,-0.20717083,0.19016674,0.19913605,-0.021047747,0.28038868,0.025370343,0.21693464,0.30236396,-0.102143966,0.20564042,-0.07589003,0.09371381,0.30713466,0.2961328,0.2507119,0.35385853,-0.25412837,-0.23818573,-0.14895427,0.0015760045,-0.0041105985,0.29416963,0.00850126,-0.2508599,-0.22356914,-0.527258,-0.21172434,-0.075251974,-0.22921233,0.15678099,0.1097407,0.31797597,0.43921334,0.25864896,-0.15785773,0.27801302,0.27868286,-0.19183019,-0.26657814,0.113413595,-0.10520133,-0.3954857,-0.305697,-0.15320443,0.32455808,-0.18809685,-0.23102362,0.27860138,-0.11645602,-0.5701618,-0.11004333,-0.04558276,0.21969073,0.017402029,0.22329581,-0.3081152,-0.27727485,0.10318925,0.47548515,0.13346073
f9_i4,0.13133597,-0.13325492,0.40771198,-0.23277234,-0.27141812,-0.087045655,-0.22892722,-0.08068722,0.2353385,-0.1629361,0.34096906,-0.23245072,0.27383977,-0.10941469,0.23728015,-0.12967505,-0.21855436,0.15376852,0.36240238,0.20943338,-0.1871554,-0.22636881,-0.23908815,0.19138324,-0.09151149,0.19045581,0.10323099,0.26273093,0.19141662,0.12239426,0.1393189,-0.07618182,0.117490254,0.055397976,0.3919105,0.027393477,0.7341257,-0.053648755,0.12952362,-0.02795056,-0.16940658,0.3175956,0.185175,-0.05642269,0.11781436,0.28129283,0.245233,-0.021458149,-0.21168782,0.37094408,-0.30221337,0.18169606,0.14779124,0.18980157,0.19462565,0.39925352,-0.19033556,-0.2692587,-0.048473362,-0.024752961,0.11694648,0.12984504,-0.14872974,-0.31705204,-0.2744841,-0.31008142,-0.29456356,0.6319548,-0.35942382,0.26873225,-0.01783721,0.0916655,0.30893317,-0.13217932,-0.27844656,0.40615642,0.2906739,-0.19569774,-0.15917782,0.12684989,-0.46556902,-0.2839811,0.112164915,-0.21961033,-0.05889161,-0.25746408,-0.24808425,0.10601252,-0.26464388,-0.7535679,-0.2946397,0.1487707,0.26235718,0.32607633,0.24639389,-0.24034117,-0.17637844,0.15100402,0.099732555,-0.17264013
f9_i5,0.064994946,-0.2546595,-0.19325684,-0.15306674,-0.3663628,0.26982614,-0.16163346,-0.11432557,0.19316259,-0.41656613,0.30405486,-0.07254628,0.15634464,-0.12806714,0.16049819,-0.24130069,-0.17636584,0.28628287,0.030383648,-0.025563855,-0.18275224,-0.2558978,-0.07153991,0.20297493,-0.261817,-0.0982274,0.23556082,0.10827306,0.2705485,0.1706333,0.25960568,-0.50243026,0.029649267,0.22632836,0.20851243,0.32184872,0.3792842,0.05616665,0.08020446,-0.038518578,-0.003853633,0.4719721,0.30257997,-0.14632486,0.2604344,0.27318835,0.23438959,0.2304166,-0.0963193,0.10424125,-0.21899912,0.11012292,-0.19654197,0.41095597,0.04984356,0.095249295,-0.17871088,-0.296525,-0.15970482,-0.6946291,0.12036016,0.30618027,-0.23425104,-0.24285917,-0.27850926,-0.32730246,-0.2986692,0.38066956,-0.3494862,0.4196379,0.25904226,0.09464117,0.3666701,-0.26604125,-0.1908339,0.17493159,0.15929438,-0.19190615,-0.11152402,0.36172077,-0.17725882,0.121980935,0.17986852,-0.22578305,0.1237236,-0.2813425,0.009748004,0.26221773,-0.2526716,-0.010027145,-0.2181981,0.07332697,0.36597073,0.42310086,0.27638212,-0.15403004,-0.17797585,0.19639939,0.5253762,0.3047721
f10_i1,0.19958444,-0.12454979,0.053862393,-0.13974881,-0.16991903,0.27625006,-0.24791522,-0.15506572,0.29893565,-0.19240749,0.117173135,-0.18150377,0.3818754,-0.18203141,0.23998113,-0.2578664,-0.17571305,0.2429915,-0.31467283,0.07239248,-0.3291951,-0.057622135,-0.046120618,0.13530523,-0.24599425,0.2571189,0.23631248,0.059552796,0.24253301,0.048043106,0.39520508,-0.36380327,-0.35560936,0.42180058,0.19130678,0.19040747,-0.18594491,-0.22823864,0.304194,-0.19253626,-0.21642214,-0.0039228196,0.3110543,-0.15095617,0.17630263,-0.0023361705,0.3438904,0.1053968,-0.3965578,0.22789715,-0.1996747,0.15054083,0.13400239,0.077463835,0.37378672,0.16784121,-0.22492507,-0.16967826,-0.27446142,-0.029943367,0.17033754,0.16876371,-0.17113443,-0.1889047,-0.15730281,-0.14736974,-0.2920531,-0.13648738,-0.1588494,0.20079719,-0.17677492,0.42290902,0.45210797,-0.37558582,-0.22071636,0.119062744,0.19984557,-0.27311838,-0.2372939,0.4184759,0.4452587,-0.23723234,-0.1478182,-0.12915194,0.18354905,-0.19368084,-0.06803147,0.008344292,-0.17077172,0.02552134,-0.28215855,0.42778885,0.09848505,0.24385272,0.19382128,-0.17274958,-0.28936988,0.16607879,0.14610377,0.23321249
f10_i2,0.21612705,-0.33246687,0.35102472,-0.20416945,-0.23804069,0.20199725,-0.22222224,-0.20803821,0.14308433,-0.2141462,0.28524226,-0.32693493,0.10266775,-0.26540202,0.21533474,-0.18072878,-0.1896621,0.32622656,-0.41189075,0.1158872,-0.267893,0.029948995,-0.14246917,0.2980711,-0.3085061,0.3657389,0.122594796,0.2125943,0.09547464,0.32691905,0.017000461,-0.5039564,-0.21998957,-0.21116124,0.2257636,0.06153176,0.09962279,0.19356473,0.21554928,-0.1557567,-0.15143915,0.36312112,0.19211681,-0.24949884,0.08926979,0.038378462,-0.056389146,-0.059689417,-0.40740246,0.37896612,-0.20585188,0.07198071,-0.023950458,0.19781765,0.27764356,0.23806532,-0.26931036,-0.24724288,-0.15581195,0.04689466,0.029378619,0.20545879,-0.092266254,-0.45559838,-0.33026135,-0.25135925,-0.26406378,-0.016820926,0.046518978,0.30684558,-0.02570656,0.50458705,0.4130454,0.009909525,-0.26387697,0.2532221,0.24676102,-0.16280866,-0.19611265,0.15612985,-0.39754322,0.088003546,-0.4649761,-0.22381335,-0.022437703,-0.24155194,-0.23717971,0.53879106,-0.24172212,-0.5853617,-0.2369561,0.20106071,0.26477256,0.21314032,0.26488805,-0.23890251,-0.26229668,0.20133665,-0.106434725,-0.027692921
f10_i3,0.22032745,-0.25199485,0.09440329,-0.17806649,-0.17821312,0.17501323,-0.29869595,-0.03815038,0.004098997,-0.16365086,0.27911833,-0.32967114,0.09027018,-0.17944996,0.18791556,-0.15874171,-0.2240455,0.15105978,0.47288284,0.2134497,-0.25432217,-0.21428268,-0.3911778,0.14748214,-0.21537834,0.3040908,0.09979934,0.098746926,-0.043116964,0.20615743,0.23014669,-0.14830118,0.42927486,0.24328834,0.36275345,0.02924422,-0.3972861,-0.4404744,0.17218868,-0.08339789,-0.12403592,0.24415897,0.15394768,-0.17576823,0.2896414,0.3617642,0.31375197,0.13651915,-0.25663355,0.4320601,-0.35079327,0.2044134,0.21835247,0.086912036,0.39064237,0.20419464,-0.20171796,-0.23530346,-0.050884593,-0.01797972,0.033706844,0.28437492,-0.13384452,0.028279407,-0.14652357,-0.30653635,-0.21179894,0.19148378,-0.069392785,0.05976792,-0.04383048,0.11797908,-0.0083394265,-0.33935496,-0.08435894,0.2601234,0.26284763,-0.2013404,-0.2469812,0.21753171,-0.08537241,-0.2695449,-0.35129663,-0.1386949,-0.15102068,-0.1734441,-0.06824122,0.25530908,-0.22129957,-0.54894733,-0.34813032,0.17872818,0.25952542,0.3007517,0.17743549,-0.14840059,-0.19577087,0.22114055,0.18886891,0.06856711
f10_i4,0.27503124,-0.22942682,0.54516315,-0.11840823,-0.11909836,0.039416183,-0.1379994,-0.17250207,0.21917853,-0.21503831,0.36062548,-0.27699018,0.16856183,-0.20125292,0.14784929,-0.18059427,-0.16351803,0.19856377,-0.34541324,0.37452245,-0.26696295,0.018592667,-0.42842624,0.23121862,-0.20173113,0.18572281,0.21430795,0.172886,0.26877108,0.34580612,0.34595594,-0.16489264,0.39029637,0.15649079,0.19285774,0.08587344,-0.5977581,-0.49571905,0.2624696,0.06282704,-0.16093032,0.13654245,0.14994457,-0.039826334,0.090423554,0.033682775,0.28650844,0.19017155,-0.042806193,0.13381423,-0.28039727,-0.03972689,0.052210312,0.2917286,0.19905116,0.20090468,-0.25682122,-0.28302726,-0.19316204,0.5118987,0.1748992,0.20221491,-0.1811053,0.1502838,-0.20371303,-0.24164519,-0.23957644,-0.070855685,-0.32908842,0.08361051,0.24322651,0.16299446,0.19462289,-0.3257782,-0.18131755,0.2976078,0.2844464,-0.18589202,-0.21361822,0.032562837,-0.3404987,-0.24026428,-0.32661292,-0.19004951,-0.067009754,-0.14911257,-0.061429907,-0.21306093,-0.25957006,-0.19622673,-0.20692937,0.3448791,-0.14051996,0.26550823,0.082166225,-0.29416028,-0.16311198,0.06668501,0.4968509,0.07806776
f10_i5,0.251253,-0.34395382,0.03890397,-0.25060597,-0.1712685,0.22905411,-0.14315154,-0.23291962,0.2685639,-0.24982987,0.2058832,-0.2021072,0.22341266,-0.3804484,0.17735672,-0.23990442,-0.366499,0.30058172,-0.076929815,-0.055164378,-0.30927086,-0.20390357,-0.07952688,0.2803884,-0.36301413,0.03993484,-0.1840976,0.13619143,0.221705,0.086300395,0.28228948,-0.3022691,-0.24597454,0.27575156,0.32853198,0.13003606,0.045462523,-0.23821586,0.29702684,-0.16171233,-0.29629788,0.29374525,0.21895169,-0.26116922,0.1255458,0.22619054,0.22661896,0.26567176,-0.20146944,-0.037350293,-0.15253645,0.0439801,-0.13966666,0.26432684,0.27234438,0.0010316129,-0.21466863,-0.2388879,-0.19139935,-0.21035779,0.06891936,0.1406074,-0.23328702,0.07267493,-0.2967484,-0.2894118,-0.07998337,0.2587546,-0.36245078,0.24864382,0.17971411,0.23722346,0.14124924,-0.33966306,-0.3083932,0.3604894,0.23615472,-0.30865616,-0.25683874,0.46801177,0.0057630027,-0.2712721,-0.25279313,-0.2627402,0.1672603,-0.20680575,-0.30041113,0.14619847,-0.2620333,0.34076542,0.05404268,0.30729932,0.26098222,0.28157634,0.27561575,-0.35695475,-0.08480489,0.31179693,0.19172691,0.4321838
f11_i1,0.29066864,-0.20674919,-0.003598484,-0.2043819,-0.2566432,0.037675366,-0.29192993,-0.1872892,0.29705575,-0.2047703,0.3589637,-0.17976812,0.0034500773,-0.23134153,0.2904551,-0.2587996,-0.08224686,0.24615961,-0.25150153,-0.050526373,-0.20796533,-0.3508435,-0.2764227,0.08897872,-0.29835933,0.13462876,0.3373358,0.16185127,0.19233508,0.06634951,0.1782663,-0.11859648,-0.51373005,-0.0068222373,0.31750846,0.06998686,-0.1788465,-0.33773255,0.048014298,-0.18359008,-0.26898304,0.2390821,0.29934892,-0.097036816,0.17743391,0.02932745,0.23324326,0.28510827,-0.18159296,0.078373514,-0.24440594,0.20728925,0.22153856,0.40687978,0.16906151,0.41366845,-0.31702134,-0.0648567,-0.25245404,0.023506206,0.0013889282,0.2112502,-0.37227675,-0.12527205,-0.26667818,-0.06647282,-0.32226175,0.027519401,-0.26785082,0.36320487,0.20508821,0.24271934,0.43832278,-0.35128418,-0.13263321,0.31786072,0.253335,-0.24753782,-0.12085323,0.1659388,-0.22672738,-0.16771092,-0.12165438,-0.21749623,0.30661777,-0.3250753,-0.10561856,0.18292546,-0.15146424,-0.39777344,-0.19206762,0.16779582,0.12825243,-0.05634101,0.34364703,-0.31719872,-0.43071437,0.35097402,0.29488173,0.16539624
f11_i2,0.28986463,-0.19439855,-0.09338244,-0.30405796,-0.34790698,0.1505829,-0.20760177,-0.16877866,0.1092926,-0.296024,0.12882769,-0.30205244,0.18320681,-0.25377735,0.17057382,-0.32162413,-0.25052515,0.17788309,0.16935909,0.06010577,-0.26909873,-0.27030596,0.16285856,0.29952404,-0.2740821,0.010087693,0.42505142,0.15331338,0.29196972,0.23718011,0.43649048,-0.25571275,-0.45268396,0.29260546,0.24155621,-0.0049897213,0.012006461,-0.33613887,0.05683147,-0.2665891,-0.25395676,0.1336645,0.23973976,-0.2055637,0.25478807,-0.110846035,0.14041755,0.41933247,-0.26816383,0.14675425,-0.15799993,0.12138094,0.44436014,0.08994248,0.222771,0.4616881,-0.40860265,-0.2866696,-0.16785051,-0.06624846,0.08849664,0.3553758,-0.18809137,0.57612306,-0.2603166,-0.38915217,-0.14988413,0.41260093,-0.3230298,0.15065213,0.14376236,0.28665313,0.19070393,-0.24411066,-0.1596798,0.10207487,0.117508456,0.008264806,-0.16525657,0.36984685,-0.10448853,-0.26563838,-0.14330108,-0.22140117,0.071076535,-0.27855432,-0.069573484,-0.07750878,-0.21991631,-0.11969487,-0.18902834,0.15356918,-0.055127468,-0.43210477,0.21596107,-0.23647217,-0.40760002,0.26649177,0.4883624,0.1810651
f11_i3,0.19316962,-0.2693021,-0.2634916,-0.31123134,-0.2010505,0.1613839,-0.30252254,-0.22240143,0.20078836,-0.22129096,0.17475784,-0.17713149,0.20565753,-0.1977259,0.3204461,-0.30147472,-0.20166019,0.16247602,-0.018656876,-0.026991086,-0.20243783,-0.15166831,-0.5550396,0.052477654,-0.21877901,0.093303345,0.3210397,0.23516007,0.36743128,0.004158555,-0.011410677,-0.15249169,-0.31649765,0.1299718,0.3213946,0.061400015,-0.0904492,-0.34652597,0.271341,-0.097035274,-0.2935042,0.1325504,0.30186602,-0.07319052,0.33129263,0.15542197,0.101153925,0.4187445,-0.25650504,0.36372146,-0.26474604,0.30646917,0.34656116,0.33375317,0.1887864,0.27785844,-0.1841787,-0.20610808,-0.14237604,-0.57545096,0.017671354,0.40130073,-0.12490766,-0.021220353,-0.18006739,-0.17719251,-0.3885072,0.064880416,-0.24108991,0.23871815,0.031218078,0.3214267,0.42470142,-0.3200916,-0.13539003,0.16671146,0.21545589,-0.24361758,-0.12837744,0.18199243,-0.19765152,-0.208081,-0.27782825,-0.24658592,0.16658919,-0.20030805,-0.22439843,0.29725435,-0.30120412,-0.26717013,-0.21686998,0.28562075,0.15558285,0.0770838,0.12811555,-0.23140377,-0.43366283,0.29144868,0.25821304,0.061905563
f11_i4,0.073060066,-0.3307077,0.37989953,-0.17440914,-0.3066426,0.027789345,-0.32057273,-0.3107373,0.13809957,-0.05351584,0.24084882,-0.18149044,0.3552501,-0.20757864,0.16891631,-0.33143726,-0.112042494,0.32251748,0.16781946,0.18529786,-0.19495791,-0.29866654,0.27745268,0.35321933,-0.3188434,0.17792743,0.2439244,0.26289982,0.16181533,0.19882955,0.20517378,-0.1404052,-0.040227234,0.37936407,0.288079,0.29220292,0.1324955,-0.565067,0.25853297,-0.18119705,-0.014731924,0.369831,0.31859806,-0.30396736,0.18276204,0.17486417,0.22926614,0.46245992,-0.20454732,0.50324833,-0.23982495,0.2027296,0.14799121,0.13634604,0.22425334,0.09896489,-0.33100495,-0.12206725,-0.113683105,-0.6150554,0.15585607,0.2915985,-0.26554716,0.34243256,-0.21536365,-0.08431765,-0.16077115,-0.21284074,-0.3822908,0.06938911,0.18539006,0.051464543,0.076478034,-0.28501943,-0.12394811,0.35030833,0.12697232,-0.2027308,-0.2097384,0.1772836,0.2405013,-0.46754408,-0.030959273,-0.21262875,0.25007746,-0.23580995,-0.1970225,0.044283126,-0.23693615,0.09904153,-0.20729563,0.0390862,-0.23689824,0.1555239,0.21057753,-0.123849265,-0.46062285,0.15842976,0.24287258,0.07954312
f11_i5,0.22935258,-0.11678957,-0.039092265,-0.2774974,-0.27364656,0.25777006,-0.19186182,-0.12719534,0.31617066,-0.15519102,0.2147603,-0.14398111,0.19700998,-0.10397366,0.22556831,-0.18471274,-0.31227663,0.26499635,-0.5988651,0.29293033,-0.2567306,-0.0017085357,-0.19531326,0.16484688,-0.24293484,-0.08947038,0.3192328,0.15381432,0.2807125,-0.009652125,0.5371826,-0.23597957,-0.19731525,0.13455877,0.42723033,0.08778916,-0.38699347,-0.23062325,0.28129297,-0.29801682,-0.34334648,0.29689258,0.2564226,-0.032727126,0.25417358,0.2750094,0.29173478,0.31644934,-0.20343602,0.023859447,-0.25534362,0.13297072,0.4005747,0.2047161,0.12944013,0.26639736,-0.16745648,-0.17664893,-0.15668972,-0.36120927,0.1657032,0.29130748,-0.20342146,-0.36729175,-0.24386778,-0.16686429,-0.23212574,-0.4331452,-0.18723415,0.25028452,0.098286435,0.4789604,0.17047988,-0.28557914,-0.1900727,0.24343805,0.12705332,-0.15968744,-0.3297269,0.337664,0.61725825,-0.19380344,0.0633733,-0.16191694,0.09290982,-0.30768946,0.01083011,0.29897302,-0.1464316,0.19397938,-0.20123781,0.09646215,0.09515836,-0.35802868,0.07052051,-0.05537793,-0.08601391,0.21162075,0.31306648,0.24352916
f12_i1,0.22954533,-0.30853483,-0.26020736,-0.23736148,-0.14988466,0.33615407,-0.36103532,-0.2767486,0.20247525,-0.03486792,0.30601013,-0.20511447,0.27705765,-0.22056808,0.29831505,-0.12913488,-0.1666253,0.1593637,0.20821713,0.31308925,-0.24493603,-0.3337172,-0.013665777,0.31711674,-0.14116363,0.10204744,0.31626463,0.17710806,0.2228825,0.23805676,0.08316325,-0.24829873,-0.18991843,-0.07868937,0.07359798,0.08363935,0.015900817,-0.059467144,0.09934273,-0.22608007,-0.1867777,0.005773663,0.19397575,-0.1597639,0.20336688,0.33584616,0.21810788,0.30500755,-0.06652276,0.12941451,-0.23549709,0.20940328,0.058321815,0.12667984,0.19725741,0.0351358,-0.22541088,-0.10987692,-0.15993133,-0.4197607,0.3427352,0.31829304,-0.20147522,-0.29180714,-0.35597625,-0.44081986,-0.13577291,-0.025783945,-0.20005722,0.016699892,0.2398218,0.058709256,0.4091043,-0.21397233,-0.27730435,0.16404437,0.22130123,-0.20425345,-0.27417186,0.2600673,-0.40269396,-0.4360721,0.18548487,-0.23295695,0.3948704,-0.141244,-0.1959786,0.43887192,-0.33957604,0.1721937,-0.04845229,0.45376158,0.22757728,0.45847416,0.17535809,-0.24490257,-0.30001125,0.00058936613,0.27379295,0.32659766
f12_i2,0.21404436,-0.09025662,0.13526891,-0.12048001,-0.21167257,0.2327778,-0.14574572,-0.09242895,0.18979876,-0.26530015,0.3752324,-0.32070324,0.42577043,-0.22208531,0.13500713,-0.2676836,-0.074902736,0.098148055,-0.21220891,-0.07717408,-0.20821764,-0.15627702,-0.06770852,0.18763119,-0.2569594,-0.4269083,0.23698474,0.04347448,0.3735646,0.31001198,-0.16171362,-0.36797842,-0.05992975,0.2686988,0.19819026,0.3225465,-0.25901204,0.23780212,0.4706989,-0.19887194,-0.27407384,0.091906615,0.26610917,-0.35877645,0.18684198,0.03706203,0.042240728,0.02917746,-0.17717782,-0.109585494,-0.20135635,0.29030183,0.011722308,0.41122857,0.34521574,-0.051943514,-0.35776624,-0.18764833,-0.30718568,0.3909866,0.15010487,0.18569466,0.06849011,-0.2247195,-0.14127493,-0.05467815,-0.43908286,-0.07278606,-3.2451237e-05,0.15213637,0.15005176,0.3487621,0.10099899,-0.2539204,-0.16129766,0.4060154,0.30721146,-0.28782094,-0.19434822,0.115932174,-0.43678656,-0.24038364,-0.23236832,-0.21013995,0.20477688,-0.19922787,-0.1422737,0.53955066,-0.15156983,0.03262891,-0.14453578,0.3097288,0.25255024,0.17847721,0.12407602,-0.2990008,-0.25094458,0.24150379,0.2070702,0.33513853
f12_i3,0.32693303,-0.16617395,0.5062688,-0.19826686,-0.1239623,0.028811852,-0.3753611,-0.10366761,0.042125437,-0.37944445,0.078776084,-0.08164003,0.33480594,-0.23361118,0.2327033,-0.2689885,-0.20522462,0.09956621,0.42560312,0.08313021,-0.14973126,-0.3965811,0.2410052,0.16354288,-0.1659423,-0.039531622,0.25487095,0.1443549,0.15470976,0.27061617,0.39664087,0.08549148,0.04059103,-0.20545502,0.2407882,0.29529476,0.17482391,-0.412433,0.06610935,-0.21794781,-0.09448856,0.3614255,0.18833111,-0.2807921,0.2040179,0.20197266,0.1190499,0.12050537,-0.15776023,-0.1899258,-0.20023265,0.17708547,-0.0678327,0.39430293,0.1762504,0.21758774,-0.23168361,-0.29387495,-0.23597176,-0.012754536,0.407067,0.45754674,-0.12957378,-0.18991111,-0.16269925,-0.4582873,-0.2180674,0.40518737,-0.2980716,0.17736906,0.18328856,0.08322232,0.21232188,-0.32132632,-0.24243829,-0.038602192,0.17533773,-0.28858927,-0.10736383,0.011895997,0.1315003,-0.37030774,-0.14855999,-0.24364358,0.41682673,-0.18178438,-0.35866493,0.021841725,-0.23098749,0.22280243,-0.28960815,0.17832236,0.45601884,0.41370484,0.1878106,-0.37623566,-0.26183507,0.2805552,0.30923098,0.27779505
f12_i4,0.36555296,-0.24288948,0.04291755,-0.15683748,-0.24274321,0.1746747,-0.11051614,-0.22660299,0.18410803,-0.24669123,0.17845696,-0.11403367,0.20493773,-0.14013682,0.29755396,-0.17459112,-0.28589824,0.16155182,-0.1678785,0.41761655,-0.263303,-0.12105911,0.21922502,0.08985847,-0.15925303,0.06477784,0.3457903,0.15434556,0.24521641,0.49975196,-0.061136972,-0.062472157,-0.2707836,0.15566328,0.20514795,0.23028119,0.11266792,-0.1912137,0.22504683,-0.36311513,-0.30749115,0.2973482,0.24722895,-0.14946859,0.23617968,-0.001823356,0.12288164,0.09089141,-0.24778074,0.16129287,-0.19815017,0.28225213,0.31557727,0.33366492,0.09109411,0.22083944,-0.332345,-0.21791653,-0.2426523,0.33320367,0.32290903,0.24269934,-0.2745973,-0.7369741,-0.19048882,-0.3298253,-0.059005503,-0.3281771,-0.14650251,0.0033176239,0.0085679935,0.27095285,0.36787355,-0.4068688,-0.17592585,0.23663387,0.109570146,-0.19679792,-0.09833082,-0.17667168,-0.68360263,-0.26604152,-0.07735563,-0.3065129,0.28970486,-0.23351724,-0.12767531,0.27477345,-0.20939496,-0.37954944,-0.14653634,0.0054529565,0.21769045,0.15624897,-0.00077082135,-0.18730539,-0.30574062,0.1275124,0.20939907,0.10629213
f12_i5,0.2629515,-0.14893503,-0.45442548,-0.25590748,-0.060571864,0.11086374,-0.10288309,-0.21643777,0.058362618,-0.25882447,0.20678514,-0.26587802,0.5579788,-0.13860078,0.16357908,-0.21323633,-0.2886919,0.1330129,0.2009381,0.05624363,-0.16294,-0.4802616,-0.054406036,0.25594252,-0.21350491,0.078544885,0.10189669,0.2778473,0.32080442,0.12350963,-0.04590469,-0.15098785,0.035235025,0.37229228,-0.0060538747,-0.015137591,0.3995418,-0.55763286,0.159518,-0.08632017,-0.34887922,0.09972858,0.3054959,-0.2777583,0.19564658,-0.088670366,-0.090963356,0.046370115,-0.3154058,0.06372593,-0.24599059,0.40743276,0.1719185,-0.07812712,0.22064906,0.2336543,-0.44530195,-0.26117915,-0.3124534,-0.344105,0.38587978,0.14704582,-0.080561765,-0.22264121,-0.15644127,-0.36638397,-0.3322355,-0.30475268,-0.11186519,0.2013472,0.23623775,0.021697465,0.23411232,-0.11704213,-0.19690011,0.034224488,0.27334538,-0.098852925,-0.23765847,-0.083449475,-0.4149094,-0.18108709,0.06831776,-0.22800158,0.3063813,-0.2538168,-0.28125957,-0.08083309,-0.2999455,0.32551217,-0.27673915,0.37373412,0.05774148,0.24524044,0.262147,-0.36752054,-0.11328335,0.12176982,0.07770674,0.268102
f13_i1,0.16182017,0.0025074305,0.08623591,-0.13875312,-0.1533268,0.35403562,-0.2485818,-0.15333201,0.17827918,-0.21462335,0.25342882,-0.2211701,0.14830118,-0.29715425,0.21441546,-0.13102937,-0.14475885,0.18152027,-0.40562811,0.40876028,-0.25496864,-0.10967171,0.08797651,0.2354315,-0.15772752,0.5104573,-0.14191897,0.16285628,0.064826384,0.052374225,-0.061215688,-0.3854928,-0.30795217,0.2853729,0.14238721,0.29569623,0.38836434,-0.29841664,0.19460638,-0.27312288,-0.17084204,0.14394313,0.19297236,-0.096968494,0.27820504,0.26267177,0.14141215,0.23220505,-0.13411261,-0.059423797,-0.22628492,0.22652969,0.32813114,0.33710206,0.14651646,0.25243285,-0.21061389,-0.29385158,-0.104714535,-0.28436434,0.40678298,0.19726805,-0.35877475,-0.0021541135,-0.14813767,-0.14741692,-0.39579687,0.39625907,0.0018365467,0.029945968,0.15719776,0.26977143,0.2809904,-0.2523539,-0.19951092,-0.09465292,0.25965878,-0.22147721,-0.355875,0.068991736,-0.46874386,-0.0805871,-0.12260366,-0.22049479,0.21292648,-0.17630354,-0.12745225,0.28525954,-0.22532752,-0.053303223,-0.19977584,0.113894686,0.3075311,0.4871381,0.24179913,-0.39912015,-0.31550193,0.1765833,0.3393258,0.37256634
f13_i2,0.08806986,-0.17339611,-0.22377582,-0.21782188,-0.35481519,0.3241014,-0.33637834,-0.18585238,-0.011889521,-0.18522999,0.35487038,-0.25750387,0.25592998,-0.261685,0.35103187,-0.07969046,-0.122608185,0.14937265,0.20984487,0.23463868,-0.22022396,0.01565103,0.29184476,0.19655417,-0.2693963,-0.068997696,-0.0005747469,0.26922372,0.26768863,0.30540955,0.22972389,-0.3266069,0.51591957,0.37594134,0.0858294,0.13576971,-0.26616734,-0.12503755,0.12790334,-0.24694386,-0.2355785,-0.019241348,0.12255389,-0.3252556,0.206576,0.15843938,0.2967448,-0.08794678,-0.29907843,0.2522926,-0.20127374,0.22962208,0.21841288,0.25443763,0.12658568,0.2430546,-0.06413574,-0.12984692,-0.1993679,-0.24359423,0.047176845,0.09069693,-0.022382906,-0.17747521,-0.09261847,-0.4215307,-0.34349224,0.51851606,-0.19644806,0.2748786,0.22319046,0.17998414,0.28137553,-0.15216129,-0.26915324,0.081362635,0.22044113,-0.15607814,-0.21054336,-0.028805396,-0.39540622,-0.1464918,-0.3500273,-0.2469332,0.36621305,-0.2895352,-0.20303552,0.32525513,-0.2389973,0.18445943,-0.34869686,0.25394788,0.37293017,0.19745426,0.20111288,-0.2621929,-0.24454625,0.14039083,0.37076533,0.211686
f13_i3,0.18577437,-0.2360964,-0.10824019,-0.22994748,-0.06713863,0.3270595,-0.2028489,-0.17857821,0.22090895,-0.24239363,0.20966478,-0.1672094,-0.061723232,-0.25108147,0.3230227,-0.28091043,-0.29401928,0.2410626,-0.5213768,-0.0087122135,-0.17456947,0.1920565,-0.21949604,0.18608291,-0.24265033,-0.15283701,-0.051709566,0.20751126,0.4337567,0.40865052,0.2966655,-0.131033,-0.09957716,0.11271896,0.23397173,0.24275817,0.4760981,-0.25668657,0.26177502,-0.17553252,-0.15904114,0.28016293,0.20696908,-0.20992345,0.2005997,0.33894098,0.2643394,0.42628843,-0.104707114,0.013271806,-0.27558678,0.22301243,0.08910202,0.23956773,0.29285878,0.11850905,-0.12635769,-0.16617951,-0.2955648,-0.20637146,-0.09549083,0.37447932,-0.26539582,-0.20086546,-0.13731234,-0.09811901,-0.19125478,-0.1544438,-0.04629328,0.29077536,0.20057647,0.36316302,0.10340547,-0.29435995,-0.283325,0.3315752,0.13840309,-0.17208298,-0.034414,-0.0200395,-0.0725235,-0.38350782,-0.07428311,-0.3403876,0.19079663,-0.30582285,-0.28307998,0.008009571,-0.2639588,0.34143713,-0.31327483,0.21845834,0.21101679,-0.0020354472,0.1041259,-0.23014177,-0.15895015,0.102068596,0.47474366,0.32845846
f13_i4,0.12476683,-0.36127985,0.051142283,-0.2369709,-0.12181073,0.32668072,-0.21403357,-0.20120504,-0.049194425,-0.2316314,0.32503617,-0.31252506,0.16108608,-0.1577376,0.23049487,-0.22168359,-0.2932787,0.11075513,0.0878527,0.2276856,-0.24354264,0.09599035,-0.033263873,0.09133882,-0.25988808,0.28303614,0.21174528,0.21333872,0.17133158,0.3756805,-0.0138409585,-0.14688186,0.069481395,0.3528265,0.1385383,0.03649303,0.2254366,-0.3502639,-0.03792807,-0.21907115,-0.15770198,0.05495431,0.31237766,-0.15730286,0.034581784,-0.11981523,0.36536855,0.15499105,-0.2176502,0.066354565,-0.09926476,0.046775736,0.2134933,0.27991602,0.1460984,0.0815215,-0.20194343,-0.13741027,-0.2004618,-0.5268913,-0.042350404,0.21079083,-0.34095615,-0.4549157,-0.10006517,-0.20797908,-0.17671914,0.6308951,-0.09728451,0.10586887,0.15606657,0.2669067,0.4420275,-0.3735226,-0.13937855,-0.101442225,0.21956624,-0.1959988,-0.27979857,0.16327395,-0.3856684,-0.37820032,0.0002636998,-0.17210378,0.19988394,-0.23647435,-0.340524,-0.037710227,-0.13032892,-0.15904205,-0.2782156,0.37787825,0.08190025,0.49110743,0.24644941,-0.035058822,0.0065827523,0.12497995,0.10384361,0.38773668
f13_i5,0.28707945,-0.18817851,-0.22427887,-0.23548733,-0.28241283,0.22552502,-0.13834281,-0.32278916,-0.27468532,-0.07111874,0.28421596,-0.13330995,0.22463234,-0.29119167,0.19948766,-0.15296917,-0.26827815,0.044393606,-0.13347599,0.21702887,-0.12573366,-0.035653207,-0.47626677,0.251765,-0.162321,0.19606028,0.1332873,0.24428225,0.19705427,0.29440433,0.19005245,-0.34083542,0.4651833,0.34343326,0.0065992246,0.0013698901,0.32032785,0.100022286,0.21364783,-0.020354617,-0.28602874,-0.010007316,0.14126809,-0.29090372,0.25398648,0.19681886,0.1310789,-0.035574146,-0.19435745,0.08093823,-0.20422573,0.20001604,0.15797247,0.15657365,0.29039934,0.22154377,-0.11378846,-0.20771323,-0.23382813,-0.3696305,0.030842878,0.39564258,-0.25508347,-0.21111779,-0.21982417,-0.06705271,-0.34515077,0.43498987,0.0430086,0.28590158,0.23710124,0.25144032,0.15858626,-0.02655586,-0.14987925,0.25960365,0.22184882,-0.2663484,-0.23754533,0.14398038,-0.27120543,-0.2451144,-0.3873619,-0.16277961,0.33226502,-0.2674727,-0.19220996,0.21571271,-0.17039004,0.041650414,-0.18463656,0.31357804,0.3321548,-0.12718642,0.13009536,-0.13965991,-0.37888342,0.1363838,-0.0014116248,0.33418956
f14_i1,0.19600509,-0.10174035,0.16893896,-0.38026962,-0.33774862,0.17078102,-0.36537704,-0.18421224,0.3288985,-0.14167921,0.20499492,-0.34143388,-0.0066359155,-0.19745383,0.3330565,-0.098605424,-0.21660794,0.30796015,0.2942487,-0.10563039,-0.2453567,0.11631765,-0.16882971,0.26123682,-0.17172797,0.39884374,0.43312016,0.32876152,0.23513313,0.08029279,0.1945464,-0.14712472,0.31663105,0.3416369,0.24952412,0.21273385,0.48335877,0.0010532575,0.19196029,-0.29520383,-0.27960086,-0.05506144,0.3036644,-0.1316722,0.19428997,0.112788595,0.5200498,0.29669315,-0.0083608115,0.22148997,-0.28331795,-0.06898537,0.24114114,-0.0004826156,0.04985524,0.24817114,-0.08224877,-0.18806078,-0.18725693,-0.06738518,0.2650271,0.21730885,-0.34752253,-0.19601175,0.030419797,-0.42404926,-0.36514735,-0.53270835,-0.077363685,0.4368206,0.27878234,0.49814236,0.048009522,0.1433635,-0.18795152,0.23204131,0.31657332,-0.159827,-0.17012544,0.25341994,-0.42059162,-0.22530024,-0.4517474,-0.14006342,0.12639056,-0.23756044,-0.2721413,0.29956427,-0.21471885,-0.18466413,-0.14419857,0.30780727,-0.123596005,-0.39363426,0.25990856,-0.24987155,0.21897809,-0.05005503,0.033516135,0.045123797
f14_i2,0.17889732,-0.16482933,-0.05735648,-0.2569698,-0.31671354,0.18277654,-0.24104919,-0.047880556,0.03865503,-0.096482374,0.43735918,-0.26199052,0.043398876,-0.15832543,0.14894497,-0.23675562,-0.059928738,0.36075258,0.5412512,0.14693101,-0.17674333,-0.3756682,-0.17670661,0.1689702,-0.22066523,0.32483712,0.3939431,0.09583901,0.20980246,0.0705414,0.3537434,-0.22795105,0.5672365,0.4943769,0.27487296,0.1543241,0.43959337,0.09663053,0.15700777,-0.22462827,-0.2249685,0.18102519,0.22292411,-0.16235495,0.1501468,0.35598886,0.3864101,0.478746,-0.08052162,0.21239631,-0.2035975,0.22020456,0.1918558,0.28538254,0.052240893,0.23150505,-0.22693974,-0.32681614,-0.18653117,0.017640078,0.07944627,0.17386094,-0.25280136,-0.4975834,-0.18460028,0.39925912,-0.36997566,-0.16221243,-0.1795906,0.14541346,0.44439116,0.106710635,0.4451872,-0.37398067,-0.10505375,0.3295655,0.1953398,-0.15228043,-0.20079316,0.20652315,0.35164618,-0.32510436,-0.13774769,-0.18529014,0.27384403,-0.33090997,-0.2780796,0.1482357,-0.19727038,0.19672649,-0.13332966,0.21361417,0.05252081,-0.44100684,0.33687824,-0.11349208,0.0856631,-0.055944517,0.35337794,0.39213443
f14_i3,0.14202122,-0.3091669,0.2550592,-0.31261545,-0.3955174,0.38516414,-0.23390236,-0.257844,0.26765603,-0.08815816,0.20712705,-0.31961614,0.11028152,-0.20451044,0.2542112,-0.40409207,-0.3138576,0.2106071,0.29065636,0.24978463,-0.2741063,-0.13948515,-0.05722696,0.11539602,-0.15919274,0.61933166,0.03362982,0.18539803,0.13312383,0.21377277,0.27544034,-0.35748678,0.2069978,0.32694224,0.15143251,0.1835057,0.28784183,-0.22324286,0.2323273,-0.23474018,-0.13337259,0.22831514,0.2190177,-0.19539665,0.3204172,0.18080565,0.44137284,0.014331599,-0.2947836,0.45823264,-0.18146662,0.13797267,0.15660405,0.19861926,-0.0053529143,0.097420685,-0.19280405,-0.054204233,-0.110285014,-0.018995514,0.2937747,0.28815237,-0.37775028,-0.11313148,-0.33023715,0.2837121,-0.11359826,0.18170978,0.06551216,0.124167584,-0.09972617,0.3087232,0.3820496,-0.15205234,-0.29403186,0.38624442,0.13058051,-0.13839282,-0.24247998,0.22367272,0.13368255,-0.2848489,-0.465158,-0.22580326,0.12382541,-0.18755871,-0.20870925,0.33834404,-0.14664441,0.16440007,-0.37256262,0.29965723,-0.088181175,-0.056411494,0.0488123,-0.26160246,0.14211802,0.12974428,-0.2767726,0.13609472
f14_i4,0.23563112,-0.009414323,-0.35223195,-0.23350596,-0.38580844,0.2435926,-0.38348278,-0.32474965,0.32132262,-0.042034782,0.11761342,-0.25592443,-0.20064351,-0.3483471,0.27457443,-0.32147262,-0.26948383,0.2890666,-0.009066524,0.23627968,-0.20751218,-0.13904306,0.04173968,0.34156618,-0.1480072,0.2987776,0.14670502,0.08436919,0.19854209,0.41369325,0.32349446,-0.43692797,0.35281208,0.054698184,0.36049482,0.230682,0.01309662,-0.19438216,0.12716885,-0.111743554,-0.15328908,-0.22649913,0.19475849,-0.35934147,0.2987687,0.19660167,0.30596566,0.41445288,-0.044645216,0.33510476,-0.11545786,0.36560258,0.16753271,0.08639776,0.102718495,0.32786077,-0.1096062,-0.22688301,-0.19439113,-0.051047143,0.33551103,0.35958624,-0.4239736,-0.103638105,-0.31093198,0.14074901,-0.08529875,-0.46005604,-0.08546912,0.18049711,0.23144586,0.25589383,0.17350082,0.006450455,-0.19942196,0.33882543,0.24744317,-0.29004055,-0.18063821,-0.08948478,-0.3851806,-0.09767262,-0.3799069,-0.3467569,0.21548435,-0.19039081,-0.11839436,0.11652749,-0.105423965,-0.24709263,-0.17068516,0.34038386,0.14449906,-0.1219953,0.13672858,-0.20306498,-0.02823156,0.2797839,0.05425516,0.23734698
f14_i5,0.33459035,-0.3684694,-0.007053621,-0.22407512,-0.19744897,0.024234299,-0.19249168,-0.3152624,0.1743581,-0.1680593,0.12017236,-0.24618141,0.055069733,-0.2523254,0.19309232,-0.33730882,-0.3772105,0.30300486,0.51331466,0.11785063,-0.2768535,-0.3012867,-0.2273502,0.28585088,-0.1827451,0.38302225,0.09987122,0.2168402,0.3923252,0.059279475,0.25116307,-0.19725683,0.49366298,0.2266711,0.32627606,0.22258067,-0.17364058,0.113091126,-0.006617577,-0.19035244,-0.22158074,0.075159065,0.30083773,-0.1645478,0.24076864,0.4773757,0.1886582,0.3307532,-0.04587939,-0.11923979,-0.083354354,0.12938076,0.17435452,0.044618104,0.22022295,0.27956226,-0.44397876,-0.1985112,-0.16904362,-0.058956265,0.10602088,0.22778925,-0.2560151,-0.08418991,-0.23088111,-0.18780218,-0.012266649,-0.34007353,0.00139063,0.11522607,0.20909387,0.30276853,0.0010935627,0.04936438,-0.27137756,0.40547878,0.19133365,-0.26855692,-0.13916172,0.122941256,0.32306203,-0.30848014,-0.21082544,-0.30035263,0.3796883,-0.28340825,-0.10558129,0.50119716,-0.20953833,0.1651672,-0.13455719,0.26081583,-0.007966291,-0.08176634,0.16689795,-0.32949975,0.04319434,0.2324703,0.30351594,0.45193362
f15_i1,0.3065488,-0.05337702,0.13521674,-0.27016392,-0.23144887,0.12575504,-0.1699421,-0.2656879,0.0542526,-0.17455453,0.11546347,-0.29930252,0.2660542,-0.20088458,0.15589134,-0.010520016,-0.15871485,0.28556126,-0.32143974,0.18228349,-0.08497033,-0.3395236,0.3037319,0.29478633,-0.11194821,-0.06788135,0.10410733,0.106444255,0.3802104,-0.049244426,0.25159314,-0.11802049,-0.68200696,0.09300342,0.026724447,0.21366148,0.07970306,-0.035592,0.3166883,-0.24165812,-0.14476867,0.11645295,0.37344193,-0.06685686,0.15095901,0.00229304,0.08675582,0.316347,-0.08530563,0.19638538,-0.2845421,0.18964714,0.11337221,0.037491046,0.22107346,0.18992217,-0.2206173,-0.17154883,-0.13773581,-0.333641,0.29747024,0.1924508,-0.09201744,-0.03709303,-0.15864682,-0.38106576,-0.14731328,-0.5999424,-0.30089313,0.17745757,0.37062672,0.097400516,0.35618365,-0.0019194776,-0.17183496,0.25067213,0.2260838,-0.14114742,-0.05650974,0.4280625,0.11265419,-0.33342066,-0.09278489,-0.2217374,0.19181505,-0.21644479,-0.224832,0.26036957,-0.08578986,-0.05621057,-0.2200644,0.30011937,-0.027764207,0.34744918,0.2517998,-0.04256535,-0.13414268,0.2638552,0.49529147,0.2734054
f15_i2,0.25405526,-0.32552123,0.49870324,-0.23400605,-0.24317907,0.3553836,-0.3216521,-0.10621516,0.0046718065,-0.17966121,0.38376108,-0.12400693,0.37360305,-0.16676904,0.32969072,-0.23794708,-0.14954552,0.17910565,0.33441922,0.11272521,-0.21764761,-0.28466776,-0.34927344,0.1746878,-0.27853218,0.22508395,0.2034494,0.23983534,-0.033600725,0.2773405,0.07787196,-0.21330267,-0.06539241,0.17382707,0.22304513,0.060000557,0.09430055,-0.051957026,0.17273457,-0.101410456,-0.17302634,0.19929315,0.23524027,-0.29026482,0.10908705,0.1952687,0.036629587,0.2239561,-0.42822587,0.021757584,-0.1937567,0.31050152,-0.006365196,0.22616711,0.31413162,0.116259664,-0.3265977,-0.14657317,-0.17123808,-0.14868946,0.11202629,0.31125352,-0.17084457,-0.33882546,-0.13822323,-0.3474591,-0.37492475,0.22350827,-0.27138168,0.11594828,0.07886935,0.30689234,0.23822224,-0.46804172,-0.18276979,0.34320986,0.30982226,-0.21702655,-0.32263207,0.2653152,-0.16570397,-0.24564573,-0.15776841,-0.2472206,0.16820945,-0.12425504,-0.13889539,0.35244834,-0.17858955,-0.20511514,-0.17951149,0.35859045,0.30297852,0.538152,0.2626492,-0.104855895,-0.30440107,0.069027476,0.22498272,0.22519822
f15_i3,0.29235667,-0.33187395,0.30631793,-0.1514911,-0.17975919,0.23149733,-0.29480034,-0.122375466,-0.15216215,-0.2994473,0.11491605,-0.30458367,0.21430552,-0.1136837,0.14433178,-0.13091011,-0.14259663,0.16125211,-0.7188352,0.10765491,-0.21791476,-0.2052599,0.07181595,0.20278603,-0.10486431,0.3139369,0.07268361,0.109913096,0.26611936,0.11518121,0.31935814,-0.12116231,0.57377464,0.11776616,-0.083558634,0.108393215,-0.39295128,-0.4174161,0.34534863,-0.16038933,-0.08778693,0.02069387,0.205176,-0.051324435,0.1676259,-0.054704856,0.23499534,0.25491482,-0.07466977,-0.087173074,-0.101397,0.12962273,0.403133,0.2095458,0.25842756,0.25248677,-0.12824856,-0.19050318,-0.14612572,-0.16909939,0.23276462,0.16845776,-0.29952806,-0.3047264,-0.2540152,-0.48063153,-0.16842225,0.30884343,-0.07262347,0.19059533,0.3765403,0.12173375,0.42712414,-0.381777,-0.28998816,0.38351524,0.13164715,-0.20923933,-0.1530531,0.3779041,0.20212355,-0.3841633,-0.09082042,-0.17438664,0.32317838,-0.273722,-0.24530457,-0.035994537,-0.21797241,-0.15055352,-0.25233823,0.30402535,0.12566212,0.4255787,0.15160686,-0.14253467,-0.2998555,0.13566697,0.31524393,0.34501532
f15_i4,0.2332539,-0.14236432,0.3508764,-0.08546592,-0.21456642,0.3092964,-0.1830642,-0.15103608,-0.028635468,-0.052280836,0.26178285,-0.23364587,0.046638146,-0.15586111,0.18711756,-0.23846285,-0.21221152,0.3115257,0.2091221,0.3810553,-0.3015347,-0.019602682,-0.44007823,0.08583335,-0.252471,0.34106612,-0.061124828,0.113423176,0.4097179,0.24341634,0.17453703,-0.49522647,0.30663905,0.2414451,0.03736927,0.070582725,0.14931348,-0.18294191,0.3664565,-0.21507406,-0.20942366,0.14523236,0.3194652,0.047308397,0.20479827,-0.21488445,0.3656194,0.16024514,-0.30989075,-0.021336686,-0.3116729,0.20934048,0.18720905,0.3059998,0.21920635,0.22403696,-0.28779075,-0.10028972,-0.19094177,-0.6575807,0.4599647,0.12597619,-0.2367499,-0.28623593,-0.21399133,-0.37328318,-0.2869057,-0.26536462,-0.389122,0.17920189,0.11660941,0.24286833,0.18535483,-0.40139243,-0.13603258,0.24282575,0.18109955,-0.106726,-0.08859085,0.36434293,-0.51680493,0.2010756,-0.21107417,-0.16026989,0.28966674,-0.31271222,-0.23325835,0.28707865,-0.15184796,0.09955223,-0.20205314,0.34194583,0.15223832,0.32645404,0.1915735,-0.25334528,-0.20353742,0.24641685,0.14040801,0.4236
f15_i5,0.3367777,-0.32350934,0.33029264,-0.13745776,-0.26779783,0.14807768,-0.2144449,-0.23409492,0.36125064,-0.023113457,0.17709434,-0.12451277,0.21106106,-0.24141338,0.27808306,-0.22547267,-0.3459143,0.3129621,0.37821776,0.061922997,-0.21242088,-0.38862956,-0.46923345,0.18078102,-0.10181615,0.3560885,0.16468678,0.16718711,0.11738625,0.45274073,0.26628685,-0.17055003,-0.25624818,0.42990467,0.15679885,0.23445828,-0.48582625,0.13635935,0.32106197,-0.06063269,-0.25183257,0.114863254,0.1752521,-0.30050358,0.2836763,0.053101577,0.29912937,0.33758408,-0.27917302,0.0075770724,-0.2713795,0.020376697,-0.08848618,0.14454746,0.2281134,0.27247134,-0.26825196,-0.23194996,-0.096129045,-0.17647415,0.22708413,0.36816144,-0.20098026,-0.48929504,-0.1926533,-0.40607572,-0.17089766,-0.0140519785,-0.14230803,0.31693622,0.051889766,0.17614521,0.086192936,-0.23761855,-0.26479295,0.03735709,0.26694497,-0.17653792,-0.109902665,-0.023854783,-0.50725275,-0.39734423,-0.14537176,-0.1196464,0.2615288,-0.23792332,-0.24876471,0.21374358,-0.029615946,0.31817836,-0.19022614,0.2978194,0.12497499,-0.19432211,0.18811828,-0.2898196,-0.18550828,0.1298085,0.12629843,0.25234145
f16_i1,0.26361874,-0.07037774,0.1630821,-0.2947796,-0.23733675,0.13468754,-0.23955205,-0.27294067,0.0056166346,-0.07527156,0.23920469,-0.19843651,0.18972906,-0.23570704,0.12815775,-0.28041574,-0.27371308,0.31534195,-0.36449918,0.05891246,-0.15664542,-0.12879388,-0.63338196,0.13189557,-0.32518372,-0.04214361,0.101695865,0.22178783,0.21385367,0.2883831,0.43131277,-0.29476637,-0.19935682,0.53374916,0.17311247,0.12708806,-0.06714501,-0.39909124,0.35822275,-0.20095196,-0.21612653,0.33961827,0.27283353,-0.22872305,0.28416714,0.22714111,0.46330696,0.22553635,-0.01554577,0.042837556,-0.19924045,0.23820685,0.18090689,0.27541414,0.244331,0.22193334,-0.16621214,-0.101349406,-0.2896872,-0.33093598,-0.044612996,0.15653194,-0.14905687,-0.062693276,-0.2441523,-0.16413309,-0.2519293,-0.36808857,-0.12338339,0.24239823,0.09393271,0.38987544,0.118614875,-0.46511707,-0.1759787,0.17826301,0.14902982,-0.17045358,-0.18370019,0.12363942,-0.27243683,-0.16975497,-0.2079192,-0.22463296,0.36000344,-0.2619411,-0.19442016,0.19569348,-0.17481682,-0.07861906,-0.16141999,0.09095907,0.117951386,-0.37261438,0.11570442,-0.17650343,-0.24912691,0.19232458,0.32031435,0.32313207
f16_i2,0.3177469,-0.32123315,0.1394031,-0.17351624,-0.37268817,0.3091494,-0.26619503,-0.21011479,-0.078604944,-0.27607527,0.124504425,-0.3616964,0.29036635,-0.15204342,0.21720208,-0.30015203,-0.3635475,0.263256,-0.3464067,0.26324752,-0.19053508,-0.2654991,-0.28388688,0.32749495,-0.1508414,-0.094719596,0.3903255,0.24455428,0.12116785,0.20872544,0.22530144,0.058812194,-0.10073182,0.19442135,0.42137915,0.08891012,-0.36264744,-0.3988969,-0.051840447,-0.19700393,-0.18179461,0.37094706,0.22452526,-0.13473332,0.2678358,0.36531177,0.28030133,0.197021,-0.35027882,0.485536,-0.119902804,0.024316834,0.23635018,0.07284326,0.1678259,0.015724126,-0.30155635,-0.19716556,-0.2276786,-0.5861943,0.3845977,0.054599,-0.26174393,-0.23264518,-0.38388404,0.010531657,-0.13591704,0.06369564,-0.06309761,0.05158566,0.4119782,0.10911505,-0.45421964,-0.096121535,-0.21385264,0.3250866,0.2257817,-0.17353022,-0.21432975,0.204835,-0.14187545,-0.33902952,-0.23470606,-0.18348503,0.14489324,-0.20640714,0.02674913,0.21877496,-0.23509161,-0.07344907,-0.23763064,0.09877012,0.15643688,-0.056207266,0.15646811,-0.21371764,-0.19224623,0.28929102,0.1682699,0.0864921
f16_i3,0.17419101,-0.15102065,0.34351397,-0.2833444,-0.20613821,0.22509892,-0.1682894,-0.3037224,0.12943816,-0.11510592,0.22507863,-0.34996977,0.2592891,-0.14352198,0.2297676,-0.31677487,-0.2434731,0.18740046,-0.052574914,0.17235295,-0.14424239,-0.59293836,0.060479905,0.10189617,-0.16829485,-0.024574397,0.11941273,0.284431,0.29430413,-0.20279177,0.15109968,0.043024797,0.3295584,-0.03460756,0.22295563,0.45674306,-0.4379213,-0.44080645,0.019390842,-0.23759587,-0.06877642,0.3856876,0.10062147,-0.24043596,0.25277507,0.08497184,0.3084663,0.2966128,-0.1500419,-0.02331968,-0.21270634,0.09401187,0.199396,0.16303104,0.21604653,0.03435218,-0.3208782,-0.03663263,-0.21069643,-0.0778242,0.18405849,0.39449868,-0.17527387,0.25556907,-0.33491403,-0.20238444,-0.23173401,-0.0021174313,-0.12425988,0.12293062,0.3352721,-0.014728837,0.00393733,-0.2580902,-0.08672681,0.37776655,0.13447732,-0.08488006,-0.06626494,0.36084545,-0.3746466,-0.41651908,-0.30517167,-0.17317949,0.2863209,-0.17941512,-0.056897413,-0.09498072,-0.386397,0.17786859,-0.29720366,0.3054535,0.24553533,-0.30896533,0.11941609,-0.28456983,-0.06664252,0.17843728,0.362719,0.405418
f16_i4,0.22517648,-0.09185688,-0.1103201,-0.2862616,-0.26669103,0.23933528,-0.25946158,-0.24969625,0.11897937,0.01889711,0.14338611,-0.21752411,0.3523728,-0.16200884,0.19416998,-0.23969805,-0.22393535,0.18658124,0.26580784,0.20036261,-0.10367114,-0.29824865,-0.26904294,0.26458254,-0.21180809,0.20338754,0.32961747,0.2062454,0.111175776,0.111499496,0.08528135,-0.2806703,0.34292263,0.15681888,0.09701552,0.1206995,0.3277722,-0.15261243,0.0017380912,0.039253812,-0.2209648,-0.01873468,0.24386854,-0.26586363,0.23862898,0.26056316,0.20981741,0.12584051,-0.3687292,0.23614061,-0.1775477,0.19455688,0.46726254,0.033668727,0.04837046,0.15376481,-0.21207926,-0.13052914,-0.2224372,-0.55731696,0.51247656,0.35669464,-0.19324967,-0.19576918,-0.22483541,-0.24719541,-0.32767245,0.5295567,-0.15618873,-0.030565016,0.48524418,0.38298067,-0.10254024,-0.18034254,-0.26897067,0.34480524,0.20638533,-0.14083566,-0.18285811,0.3554189,-0.2754063,0.0348665,-0.15724213,-0.19501922,0.21127081,-0.1695035,-0.19834968,0.32221863,-0.11377478,0.018195076,-0.051793393,0.32337564,0.0747495,-0.50294477,0.14318416,-0.15115212,0.067817725,0.15500812,0.18346898,0.17309017
f16_i5,0.029735297,-0.27291456,-0.7496371,-0.17933242,-0.2381051,0.12777306,-0.2438839,-0.28538036,0.24617793,-0.25748485,0.36036283,-0.121082276,0.031206628,-0.1962189,0.22043738,-0.2425579,-0.044564735,0.14439736,0.084802724,0.37867007,-0.15280923,-0.2405579,-0.041080397,0.22145145,-0.19715741,-0.22999917,0.19028711,0.22335319,0.2962487,0.22072355,0.2215995,0.052869104,-0.2664924,0.20682704,0.055211414,0.25711584,0.43290073,-0.48515975,-0.029245898,-0.054998804,-0.27281561,0.1309854,0.14798151,-0.24927709,0.22497419,0.31646988,0.340324,0.19795991,-0.26659387,0.18569733,-0.1957072,0.32103083,0.4586799,0.20289397,0.22522968,0.20998637,-0.23951149,-0.074970186,-0.30924624,0.44400454,0.10920697,0.37598398,-0.10586536,-0.5215372,-0.23605387,-0.21992703,-0.41449162,-0.007695319,-0.27238005,0.25343132,0.07997445,0.23885964,0.58591586,0.01201058,-0.24038646,-0.14272971,0.25465253,-0.08550341,-0.2211033,0.13063228,-0.30650425,-0.4920044,-0.3393844,-0.279904,0.36454165,-0.20473392,-0.11649413,-0.16663748,-0.28085834,0.007710661,-0.20108846,0.32069725,0.34779742,-0.22810204,0.13390416,-0.33774385,-0.17782553,0.22642386,0.3584211,0.073760085
f17_i1,0.37732056,-0.15743259,0.57138884,-0.0978438,-0.164939,0.16575976,-0.28133357,-0.106987566,0.42178056,-0.34251982,0.33284134,-0.25216734,0.3813579,-0.21762557,0.26683193,-0.1527505,-0.09629642,0.19812079,-0.040121045,0.29053146,-0.1845566,-0.22667569,0.05698593,0.18046226,-0.19978794,0.118186265,-0.02338563,0.09722566,0.34063715,0.2286083,0.16898182,-0.1974663,0.41044852,0.03719216,0.07296795,0.092926644,0.46422157,-0.12847278,0.2980568,-0.15864691,-0.22142711,0.29107228,0.05557596,-0.30252194,0.11798044,-0.09359629,0.24444924,-0.18455754,-0.27456012,0.18753143,-0.26466978,0.27465296,0.14848725,0.095509306,0.36665574,0.23760803,-0.28304964,-0.06871875,-0.22907528,0.2973915,0.28513718,0.18977317,-0.21571791,-0.437456,-0.11094351,-0.43213284,-0.34513167,0.008604985,-0.3266956,0.34374946,0.27550003,0.21929483,0.2078445,-0.3682293,-0.2625262,0.31945774,0.26448354,-0.28855494,-0.20196722,0.2136963,0.14762294,-0.21676941,-0.3081548,-0.25008067,0.22338985,-0.22282855,-0.20614877,0.15491322,-0.064575754,-0.09874108,-0.10913768,0.3213003,0.34855497,0.053374656,0.22250307,-0.18596677,-0.25894275,0.2862555,0.14452559,0.25514454
f17_i2,0.16231531,-0.20719118,0.06853687,-0.22702394,-0.14173953,0.11978883,-0.325107,-0.2040303,0.25629243,-0.082087375,0.0521571,-0.23366329,0.13437457,-0.23466991,0.24934314,-0.1260289,-0.33480188,0.23204602,-0.45719627,0.09237022,-0.2607083,-0.23428835,-0.26589757,0.20271783,-0.16489479,-0.047694646,0.29102033,0.11181279,0.19309787,0.2169787,0.24450415,-0.13291635,0.24895729,0.22753093,0.26631686,0.25272614,0.2315134,-0.13210253,0.16117662,0.020345885,-0.13662536,0.117182925,0.1943199,-0.31122473,0.27380738,0.21284452,-0.058799017,0.0669781,-0.2389632,0.369121,-0.1888177,0.1298704,0.14734614,0.36903375,0.4102173,0.33945888,-0.327268,-0.18941832,-0.17513292,-0.17957062,0.033415392,0.3382332,-0.24510261,-0.2012086,-0.18374893,-0.4135799,-0.053845275,-0.31162488,-0.06505809,0.33127365,-0.09647574,0.053994272,0.46121874,-0.29162857,-0.2282509,0.28134564,0.1686982,-0.15793107,-0.09460086,0.025958387,-0.37384158,-0.3427862,-0.034952547,-0.21778862,0.3335542,-0.27760807,-0.32550287,0.24066244,-0.026875313,-0.2802476,-0.3725947,0.42124167,0.30987635,-0.5415149,0.17953953,-0.36634937,-0.49976733,0.41108343,0.17644344,0.07643191
f17_i3,0.16073552,-0.041713122,0.43023667,-0.2255482,-0.06485451,0.35747507,-0.17243989,-0.15878414,0.22129461,-0.2427724,0.19060627,-0.23517737,0.32141232,-0.18561536,0.21130294,-0.18066224,-0.18455143,0.2379341,-0.38366628,0.35904405,-0.1060989,-0.5290691,-0.27410513,0.13625935,-0.27886504,0.10933503,0.10298384,0.030761953,0.16191755,0.20774174,0.51946586,-0.46254644,-0.14715517,0.14228296,0.2844854,0.10076307,-0.083753295,-0.3679168,0.13867825,-0.13707986,-0.097186625,0.17057714,0.3130399,-0.4103137,0.095670566,0.47215694,0.053264413,0.4173936,-0.18108909,0.076064505,-0.24505292,0.2212017,0.24252294,0.23312913,0.19303837,0.1370603,-0.28979957,-0.2307209,-0.13065547,0.31767353,0.40995768,0.27663717,-0.23601383,-0.18917876,-0.27459183,-0.22551414,-0.3009108,0.1816482,-0.22053963,0.16014609,0.35878375,0.1416425,0.18861082,-0.05879595,-0.16274436,0.13297488,0.13637988,-0.18618788,-0.1661471,0.12195449,0.017656576,0.057974678,-0.2432424,-0.1813409,0.10583208,-0.18708754,-0.09989196,0.09575914,-0.3317482,0.5541824,-0.2384372,0.4851807,0.0323944,0.029487483,0.1765937,-0.2211746,-0.092207015,0.1530324,0.35301447,0.21978058
f17_i4,0.1078567,-0.25501457,0.7144083,-0.3160609,-0.086672604,0.18651927,-0.25632474,-0.19391464,0.16902266,-0.24642186,0.0073674787,-0.15444568,0.2628622,-0.2035881,0.22342438,-0.31624237,-0.17167802,0.27598882,-0.2206607,0.18032344,-0.24641249,-0.19194734,0.16039929,0.18518938,-0.26668134,-0.10001372,0.19079357,0.17556737,0.23292084,0.058600776,0.32735595,-0.121223316,-0.20829521,-0.16039622,0.14707714,0.11109889,0.102146484,-0.5962638,0.1024783,-0.22031589,-0.063771024,0.13285623,0.27477655,-0.16696723,0.21915258,5.197007e-05,0.12530693,-0.046151847,0.0922844,-0.055071115,-0.21661554,0.108041205,-0.10648777,0.11727375,0.34059888,-0.048124418,-0.15942319,-0.20428884,-0.23942082,0.14012833,0.38896006,0.13727814,-0.20489739,-0.1274479,-0.18764873,-0.009261266,-0.4276349,0.0545632,-0.331821,0.25039193,-0.03500165,-0.10499711,0.40630773,-0.255704,-0.1261323,0.16115981,0.2768957,-0.13323037,-0.19803746,0.326969,0.27013746,-0.22648135,-0.22122106,-0.21864875,0.339576,-0.16767639,0.0874811,-0.33028725,-0.20725097,-0.24671848,-0.29639906,0.23453456,0.10667231,0.28905216,0.10380258,-0.16297294,-0.29011476,0.2759457,0.4162514,0.20051825
f17_i5,0.18611069,-0.044950932,0.1653548,-0.1948371,-0.2129117,0.084319025,-0.09853585,-0.30316186,0.12922353,-0.24468529,0.31074327,-0.18029138,0.11075872,-0.23570244,0.16567276,-0.20408693,-0.29518673,0.121750295,0.0703226,0.2355562,-0.25279358,-0.12483403,-0.58071786,0.27998698,-0.31301534,0.37336966,0.21638861,-0.026399711,0.17094843,0.37492967,0.009536429,-0.28946814,-0.011341698,0.21350788,0.29897457,0.1332773,-0.49225435,0.20679486,0.15352692,-0.31182787,-0.08717566,0.07903308,0.2494137,-0.06888832,0.09821261,0.21707968,0.5101178,0.07039629,-0.10658778,0.46668056,-0.13439628,0.29105118,0.13632137,0.21353208,0.3284547,0.29479808,-0.24803399,-0.22692685,-0.25135562,0.17379043,0.18346749,0.27500445,-0.31371796,-0.2860494,-0.30982733,-0.4401079,-0.13218226,0.39815995,-0.14323424,0.21034376,0.37768444,0.31727135,-0.12595688,-0.34952137,-0.1754474,0.28917396,0.10304904,-0.097528696,-0.34305373,0.19609751,-0.41783231,-0.26075304,-0.26813206,-0.22963624,0.227142,-0.2728555,-0.21423429,0.5562921,-0.27689734,-0.14830177,-0.35134724,0.19436911,0.38185906,0.37868866,0.28352123,-0.30906937,0.11852846,0.18338417,0.37733147,0.08015112
f18_i1,0.25822684,-0.16222832,0.14131716,-0.1809918,-0.20280734,0.2954715,-0.29050058,-0.26118383,0.13326517,-0.21832645,0.124266624,-0.3295713,0.32268852,-0.1090398,0.17125079,-0.31968233,-0.2505781,0.2953449,0.36965784,0.17025614,-0.23630555,-0.12281826,-0.62717927,0.24882293,-0.20975955,-0.006579503,0.37250763,0.060668185,0.1248884,0.33974347,0.34411368,-0.23627195,0.15188964,0.33359247,0.2073297,0.19214366,0.49749455,0.085360505,0.25584093,-0.31089047,-0.19929613,0.27006453,0.21360932,-0.14524554,0.15877573,0.18044178,0.2307011,0.33514574,-0.3121799,0.26466292,-0.2526965,0.20229766,0.07967809,0.11495464,0.32299483,0.20479523,-0.22087246,-0.2531751,-0.2929799,-0.07162921,0.22095041,0.33590358,-0.18140225,-0.16368878,-0.13994424,0.020852601,-0.26563737,-0.3362533,-0.113744244,0.23691228,0.40378845,0.40185434,-0.46958238,-0.3955933,-0.1318803,0.35279998,0.20687936,-0.17592527,-0.24298093,0.23792078,0.36308718,-0.13226897,0.07187378,-0.17193395,0.14774054,-0.199065,-0.1535574,0.33281225,-0.12864597,-0.21176594,-0.34657678,0.17381375,0.2791249,0.26377186,0.2362864,-0.20989834,-0.31672373,0.2495504,0.11758777,0.24756317
