problem,p_0,p_1,p_2,p_3,p_4,p_5,p_6,p_7,p_8,p_9,p_10,p_11,p_12,p_13,p_14,p_15,p_16,p_17,p_18,p_19,p_20,p_21,p_22,p_23,p_24,p_25,p_26,p_27,p_28,p_29,p_30,p_31,p_32,p_33,p_34,p_35,p_36,p_37,p_38,p_39,p_40,p_41,p_42,p_43,p_44,p_45,p_46,p_47,p_48,p_49,p_50,p_51,p_52,p_53,p_54,p_55,p_56,p_57,p_58,p_59,p_60,p_61,p_62,p_63,p_64,p_65,p_66,p_67,p_68,p_69,p_70,p_71,p_72,p_73,p_74,p_75,p_76,p_77,p_78,p_79,p_80,p_81,p_82,p_83,p_84,p_85,p_86,p_87,p_88,p_89,p_90,p_91,p_92,p_93,p_94,p_95,p_96,p_97,p_98,p_99,p_100,p_101,p_102,p_103,p_104,p_105,p_106,p_107,p_108,p_109,p_110,p_111,p_112,p_113,p_114,p_115,p_116,p_117,p_118,p_119,p_120,p_121,p_122,p_123,p_124,p_125,p_126,p_127,p_128,p_129,p_130,p_131,p_132,p_133,p_134,p_135,p_136,p_137,p_138,p_139,p_140,p_141,p_142,p_143,p_144,p_145,p_146,p_147,p_148,p_149,p_150,p_151,p_152,p_153,p_154,p_155,p_156,p_157,p_158,p_159,p_160,p_161,p_162,p_163,p_164,p_165,p_166,p_167,p_168,p_169,p_170,p_171,p_172,p_173,p_174,p_175,p_176,p_177,p_178,p_179,p_180,p_181,p_182,p_183,p_184,p_185,p_186,p_187,p_188,p_189,p_190,p_191,p_192,p_193,p_194,p_195,p_196,p_197,p_198,p_199,p_200,p_201,p_202,p_203,p_204,p_205,p_206,p_207,p_208,p_209,p_210,p_211,p_212,p_213,p_214,p_215,p_216,p_217,p_218,p_219,p_220,p_221,p_222,p_223,p_224,p_225,p_226,p_227,p_228,p_229,p_230,p_231,p_232,p_233,p_234,p_235,p_236,p_237,p_238,p_239,p_240,p_241,p_242,p_243,p_244,p_245,p_246,p_247,p_248,p_249,p_250,p_251,p_252,p_253,p_254,p_255,p_256,p_257,p_258,p_259,p_260,p_261,p_262,p_263,p_264,p_265,p_266,p_267,p_268,p_269,p_270,p_271,p_272,p_273,p_274,p_275,p_276,p_277,p_278,p_279,p_280,p_281,p_282,p_283,p_284,p_285,p_286,p_287,p_288,p_289,p_290,p_291,p_292,p_293,p_294,p_295,p_296,p_297,p_298,p_299,p_300,p_301,p_302,p_303,p_304,p_305,p_306,p_307,p_308,p_309,p_310,p_311,p_312,p_313,p_314,p_315,p_316,p_317,p_318,p_319,p_320,p_321,p_322,p_323,p_324,p_325,p_326,p_327,p_328,p_329,p_330,p_331,p_332,p_333,p_334,p_335,p_336,p_337,p_338,p_339,p_340,p_341,p_342,p_343,p_344,p_345,p_346,p_347,p_348,p_349,p_350,p_351,p_352,p_353,p_354,p_355,p_356,p_357,p_358,p_359,p_360,p_361,p_362,p_363,p_364,p_365,p_366,p_367,p_368,p_369,p_370,p_371,p_372,p_373,p_374,p_375,p_376,p_377,p_378,p_379,p_380,p_381,p_382,p_383,p_384,p_385,p_386,p_387,p_388,p_389,p_390,p_391,p_392,p_393,p_394,p_395,p_396,p_397,p_398,p_399
f1_i1,-0.2619905,-0.23546064,0.15494962,0.17898823,-0.01979177,0.11997893,0.12348977,0.27581522,-0.0433739,-0.1700106,-0.21331891,-0.068602026,0.13962418,0.10884832,0.106402725,-0.32500738,0.22777337,0.20929876,0.12402851,0.072915494,-0.23919587,-0.10836123,-0.037869755,-0.13985868,-0.22313863,-0.19334528,-0.103282005,-0.10952281,0.09071212,-0.09563575,-0.15349747,0.11227951,0.06577437,-0.14173527,0.08355725,-0.06344491,-0.13723849,-0.09409546,0.15271138,0.06552972,-0.03601192,0.0718525,0.17508133,0.22416109,0.25727588,0.08434156,0.012537478,-0.18564846,0.21454026,0.09144655,-0.024324385,0.22070982,-0.23364934,0.22955476,-0.09596503,0.07653225,-0.18624985,-0.23847617,0.11202964,-0.03492383,0.16677903,-0.015477377,0.16500981,0.1517132,-0.12818816,-0.09335579,-0.11893246,0.42374375,-0.12612781,-0.18824534,0.21642753,-0.067440495,-0.09128442,0.21057577,-0.009142676,0.2501128,0.19084792,0.1245767,-0.037177105,0.1335835,0.068833254,-0.131102,0.059614312,0.19616085,0.102951825,-0.10313102,-0.2475093,-0.13147986,-0.095267594,0.17274381,-0.17913741,0.16716254,-0.12467695,-0.17056425,-0.16422549,-0.19706306,0.17613044,-0.09487034,0.008001751,0.17614716,-0.3187426,0.13474067,-0.03994227,0.1331739,0.14210275,0.18251936,-0.089823544,0.1468008,-0.0090938825,-0.14932333,-0.05133777,0.087893754,0.07429571,0.012625562,-0.059506282,0.082317375,-0.024918659,0.048475176,-0.02217841,-0.34321597,-0.18724313,-0.1259949,0.18378039,0.17129609,0.23018096,0.079681925,0.10012822,0.056469362,0.24435116,-0.1804561,0.23692821,-0.19974,-0.24753666,-0.16517293,-0.17378362,-0.124494426,0.22403729,-0.047497258,-0.26930282,0.0965938,-0.08979669,0.33012253,0.13262865,-0.22115849,-0.20400554,0.16787378,-0.17011015,-0.16755782,0.251273,-0.2604491,0.013513038,-0.032913283,0.07416456,0.1859363,0.17293827,0.16608146,-0.19165577,0.16037902,0.083994344,-0.2928177,0.20038526,-0.42213964,0.06714681,-0.20133632,-0.12376196,0.1268657,-0.19552827,0.14882016,-0.16940838,-0.09206543,-0.18644413,-0.18174829,-0.075323544,-0.19639596,0.20868261,0.28328618,0.19230804,0.13766722,0.1513806,-0.036160298,0.020362169,-0.19518216,-0.27567044,0.002463893,0.13813902,0.2176923,0.10997214,0.13299344,-0.055581234,-0.2782783,-0.15095137,0.4743504,0.20147432,-0.028193977,0.13866137,0.24991384,-0.030195259,0.17453218,-0.113604166,-0.012877312,-0.20384693,0.05273191,-0.10248071,-0.08092047,-0.03124069,-0.097936,0.22058736,0.18423654,0.16495816,0.069939435,0.27726477,0.18986283,-0.13082862,0.2572063,0.13399006,-0.11063686,-0.12692437,-0.22252478,0.015424286,0.2160898,-0.08033616,-0.16672076,0.109999955,-0.17510386,0.17878404,0.21515042,-0.16027254,0.19152376,-0.17424087,-0.1439528,-0.16149402,-0.09003989,-0.27187687,-0.20261198,-0.17007034,0.06789032,-0.011035894,-0.15013336,0.17422162,0.2706375,0.17631495,-0.12974973,0.19283837,0.094199665,0.13609183,0.18516274,0.14651492,-0.09126064,-0.17568503,0.17372182,-0.064415425,0.0063230423,-0.14157636,-0.055217374,0.13930985,0.16003191,-0.2411497,0.25772512,0.15227039,0.14457712,-0.13024938,0.19364576,-0.05147037,-0.24327098,-0.1928722,0.08164727,-0.23839712,0.13185066,-0.16920169,0.07336829,-0.13143483,0.2780746,0.13795058,0.21429394,-0.23139563,0.05441166,-0.2542281,0.236729,0.08241866,0.09604091,-0.17096567,-0.16751888,-0.12739521,0.15982181,-0.14239533,-0.091005236,0.19666848,-0.14268854,0.12540315,-0.05157827,0.21933743,-0.06741625,-0.16970737,0.123841375,0.15807275,-0.06946427,-0.23997779,-0.10712009,0.02120552,-0.11480744,-0.06941486,0.11190409,-0.11617731,-0.1008414,0.20039126,-0.30416805,-0.12192287,0.14724612,0.25857788,-0.17778258,-0.2606685,-0.26256806,-0.4340368,-0.15940881,-0.25826314,0.1740367,0.22502685,0.010119301,-0.015440229,-0.09076095,0.17265464,0.12732168,-0.0063559967,0.08189281,-0.30946666,-0.20138298,0.013466867,0.11909306,0.04904764,0.1734221,-0.12386553,0.33144808,-0.08835019,-0.1084518,0.26324365,-0.23689803,-0.08814678,0.07111076,-0.06272499,-0.20171095,-0.118064836,0.27752003,-0.18358295,0.13776025,0.15638979,0.05017243,0.18118118,0.16082923,-0.23697947,0.053216074,0.22264941,-0.21279307,0.13384001,0.073581345,0.1932545,0.13891436,-0.055312134,-0.1358048,-0.1384379,-0.105867304,0.06573757,0.31694677,-0.15827256,-0.2961595,-0.1533998,0.09259772,0.06917778,-0.121779375,-0.035377268,0.19692102,-0.27713445,0.11949986,-0.09171438,0.10925833,0.04844261,-0.19385844,-0.1708689,0.2638107,-0.10068959,0.14371112,0.16599064,0.08258298,-0.13100268,0.12720542,-0.08051571,0.18693821,0.0010487752,0.18074682,0.17349102,-0.10156259,0.12160263,0.07827194,-0.15582326,-0.19496275,0.03570965,-0.1967898,0.13985898,0.24852195,0.013976845,0.09477822
f1_i2,-0.030434836,-0.16828473,0.18400878,0.14576606,-0.17380658,0.17033921,0.116976984,0.22382975,0.098423176,-0.11230585,-0.32929096,-0.06386978,0.07862332,0.16281943,0.20963018,0.14386864,0.17916517,0.06504231,0.17051573,0.2002156,-0.06675986,-0.0639408,0.0140674645,-0.095098,-0.17535174,-0.18173084,-0.19329087,-0.28663558,0.1320113,0.20406677,0.10081121,0.16550532,0.13706838,-0.2421929,0.17235863,-0.12444546,-0.07042002,-0.0120291095,0.19477138,0.20435752,-0.06589283,0.018195992,0.2189258,0.12896791,0.09753913,0.19631802,-0.10953353,-0.12714207,0.14505401,0.14756328,-0.031137327,-0.2966073,0.06263677,0.06309112,-0.015266831,0.01091357,-0.074584946,-0.044459086,0.15439773,0.13614526,0.14465296,0.1342576,0.23156019,0.096718505,0.12336209,-0.11749227,-0.17476086,0.19824922,-0.21648881,-0.16636787,0.1284114,-0.17251402,-0.2269883,0.11649531,-0.1720217,0.091913514,0.23734915,0.19881941,-0.19598508,0.09000618,-0.14703636,-0.032479536,0.07987792,0.1690055,0.14740323,-0.41654617,-0.1519455,-0.10732492,-0.11782964,0.08493091,-0.21633315,0.22546197,-0.12935199,-0.15525223,-0.13745815,-0.13782585,-0.026867224,-0.14660154,-0.19908802,0.16542774,-0.32774952,0.030878667,0.022965165,0.17936645,0.19815652,0.016586479,-0.06619148,0.0124603575,-0.12531078,-0.20727366,-0.15575483,0.048363734,0.09692101,-0.046875965,-0.15186898,0.0092089465,0.128401,0.14686015,0.07905959,-0.60255116,0.15524365,0.00826849,0.0094544375,0.15614201,-0.04673297,0.16125251,0.061863884,0.22268708,0.06988133,-0.085472256,0.22144444,-0.22426318,-0.16604781,-0.1519041,-0.07357561,-0.1569664,0.103454575,-0.018723287,-0.21535362,-0.1277276,-0.035948895,0.17590873,0.11016321,-0.119426586,-0.15565135,0.09076995,-0.20304422,-0.14013198,-0.005242717,-0.20125343,0.113768145,-0.1434947,0.08033488,-0.17915484,0.1563339,0.124362625,-0.18795311,0.1875425,0.17679974,-0.0690755,0.15705958,-0.5018329,0.1358922,-0.23114182,-0.14241165,0.19141895,-0.09969051,0.07134051,-0.13549413,-0.13776317,-0.07587034,-0.22780901,-0.073282704,-0.09201066,0.18143882,0.15447663,0.08315137,0.12962666,0.16504937,-0.13549677,0.05482275,-0.18961176,-0.253827,-0.07092796,0.15475523,0.19571564,0.19506826,0.155385,-0.10975719,-0.062578455,-0.062456373,0.32637632,0.10384932,0.107997686,0.23746844,-0.030488973,-0.057792623,0.2764785,0.06794995,-0.08448168,-0.21537568,0.11524677,-0.08015484,-0.14812393,0.056059208,-0.14908451,0.07784582,0.116705865,0.09615644,0.14021792,0.2699218,0.25821027,-0.07175995,0.06685788,0.18582639,0.11186747,-0.14745949,-0.33718285,0.108727306,0.15241735,-0.062423613,-0.19321412,0.1728532,-0.10101394,-0.2649323,0.10857407,-0.14967045,0.12520552,-0.12843892,-0.17306027,-0.1910257,-0.11452316,-0.17871466,-0.117645346,-0.2124787,0.09884498,-0.18330795,-0.14976382,0.125922,0.13324149,0.042602275,-0.25852573,0.16225746,-0.03064525,0.22723408,0.19985366,0.24516688,-0.074130446,-0.057026856,0.07466945,-0.17474872,0.024917478,-0.20244761,-0.12508601,0.16866268,0.14998254,-0.06721249,0.0087366365,0.18676516,0.13659386,-0.29869565,0.16460396,-0.048744347,-0.07814086,-0.26635444,0.13916537,-0.1882335,0.106384955,-0.115928315,0.23431711,-0.08219945,0.24150573,0.11495898,0.12374463,-0.15857895,0.20197733,-0.22942193,-0.108340435,0.08827182,0.12292066,-0.12146381,-0.1497869,-0.1433922,0.16540195,-0.09508941,-0.045450106,-0.0028888357,-0.13703178,0.06988109,-0.2917605,0.11247946,0.046090834,-0.11280676,0.22349557,0.113394186,-0.19019529,-0.15884139,-0.22545533,0.07037433,-0.18162347,-0.18158373,0.15041627,-0.26417542,0.06218871,0.15139872,-0.3123874,-0.02237101,-0.0747488,0.30729148,-0.06393261,-0.29792252,-0.27549782,-0.24223888,-0.25341803,-0.20244698,0.07498007,-0.0023072727,0.03735846,-0.18936837,-0.19581084,0.027820418,0.29950747,0.19027819,-0.048679296,-0.212041,-0.12564272,0.041548155,0.12228027,0.08676891,0.22583844,-0.11218074,0.21601985,-0.30984557,-0.14139077,0.123631954,-0.21357492,-0.20446984,0.26306605,0.048561472,-0.14811133,-0.15048184,0.23732805,-0.1892962,0.20290521,0.07820516,0.2824733,0.15967856,0.23301882,-0.16985771,0.14758307,0.17650765,-0.22596343,0.20479403,0.078452155,0.08155223,0.11552857,-0.0002692154,-0.25221664,-0.21421866,-0.07059817,-0.117200375,0.24875121,-0.09136614,-0.3905487,-0.27924258,0.0467727,0.14792088,0.11117478,0.010007427,0.12236792,-0.21523727,0.19623995,-0.11670583,0.105809875,0.024431713,-0.17873888,0.059339333,0.07264012,-0.06288769,0.0013474429,0.13740394,0.1018488,-0.2768198,0.12836511,-0.2872412,0.060470548,0.22251356,-0.03245146,0.15480973,-0.1860252,0.16976142,0.22203659,-0.1524387,-0.23638228,0.10956306,-0.18694544,0.11310332,0.23525818,0.14999205,0.24512652
f1_i3,-0.10486224,-0.18629743,0.11451306,0.125491,0.04243411,0.15404947,-0.12245738,0.36706018,0.20185801,-0.15682964,-0.07894169,-0.08858402,-0.030215433,0.15655431,0.14424662,-0.14283873,0.14878099,0.23162599,0.080737375,0.049852114,-0.20925094,0.17680643,-0.043167997,-0.0922,-0.15982261,-0.00023574052,-0.0061983024,-0.22578533,0.21254365,-0.08551825,-0.09803053,0.15378478,0.13819067,-0.19993205,0.16342753,-0.16551796,-0.050760392,-0.11152946,0.21315856,-0.003975087,-0.09963436,-0.0026495634,-0.042379595,0.14791554,0.11621196,0.020935709,-0.098660834,-0.11766067,0.13489762,0.175619,0.2419484,0.1184456,-0.19627301,0.14891037,0.18925843,-0.04556426,-0.21673162,-0.060152087,0.11977558,-0.07566579,0.12813626,0.0050988654,0.2674672,0.019051615,-0.038119894,-0.17323725,0.12531841,0.071370445,-0.082081705,-0.18691492,0.10724043,-0.059511386,-0.08014961,0.11992219,-0.1515821,0.16144349,0.24932939,0.1503316,-0.039958544,0.17267516,0.10052754,-0.10873045,0.033987995,0.13958338,0.3233022,0.041829526,-0.20417833,-0.14675237,-0.096530475,0.13577776,-0.24017087,0.08388779,-0.14338863,-0.23413366,-0.2383527,-0.12963091,0.3595025,-0.13442515,-0.010516728,0.0497355,-0.22248632,0.1751283,-0.035104305,0.17120561,0.26892328,0.07384647,-0.25449973,0.18700054,0.041418046,-0.16125816,-0.06924644,0.2745862,0.19077677,-0.03787527,0.017237674,0.07670476,0.13641247,0.069547474,-0.21823819,-0.11329361,0.044633053,-0.10344726,0.18834952,-0.31483072,0.00089559,0.17720136,0.24835098,0.08093374,0.10349765,-0.14953682,0.18200739,-0.22276811,-0.02438381,-0.12961358,-0.3624819,-0.14332439,0.19237286,-0.001735023,-0.109216236,-0.04510851,0.00141835,0.20540453,0.16003145,-0.14550966,-0.13532647,0.05065624,-0.18770206,-0.31548718,0.21535088,-0.28619155,0.18280523,-0.012618818,0.10967644,0.20180313,0.14550598,0.15885101,-0.22861281,0.042882603,0.16274662,-0.15851577,-0.09770043,-0.09469079,0.19985563,-0.27740306,-0.11126928,0.14694043,-0.11296824,0.18792476,-0.12925884,-0.2049135,-0.31273064,-0.271653,-0.156306,0.026450058,0.23464651,0.13165784,0.25053784,0.08517805,0.21075815,-0.18476674,0.18450126,-0.15475267,-0.4232537,-0.015571958,0.2118927,0.07767508,0.18380544,0.14532125,-0.19945085,-0.14374368,-0.13330452,0.26732767,0.17635763,0.03360041,0.10910509,-0.021073109,-0.045030564,0.002437647,-0.0015544032,0.057812076,-0.052441463,0.13263488,-0.15918335,-0.13859576,0.1873941,-0.17127323,0.2018524,-0.010607781,0.17303017,0.20766394,0.16962814,0.28258994,-0.15628165,0.17497659,0.10595578,-0.034388583,-0.059312653,-0.30999765,0.22484508,0.21722709,-0.021959096,-0.08182746,0.1442239,-0.18346936,-0.06630598,0.22888547,-0.14667101,0.09724586,-0.13456522,-0.07403708,-0.19230448,-0.17795733,-0.20148197,-0.13695054,-0.16337532,0.10054299,-0.00981293,-0.18485428,0.022480661,0.24202444,0.20149428,-0.23868611,0.21184914,0.1427133,0.1386376,0.0836953,0.11257235,0.12964514,-0.1318852,0.13692524,-0.24193506,0.12658703,-0.13128412,-0.09127429,0.12926814,0.15281469,-0.19690472,0.112336636,0.10283343,-0.029898122,-0.0048446576,0.09736391,0.017109828,-0.21490134,-0.04040874,0.17979631,-0.18939444,0.3683011,-0.1607286,0.04351139,-0.05237827,0.25562012,0.1833622,0.12078286,-0.18122166,0.063344784,-0.27789173,0.18684785,0.2031419,0.10215443,-0.29050222,-0.076845825,-0.19001882,0.15886062,-0.11666028,-0.14805718,0.119925365,-0.23081633,0.13808696,-0.117880985,0.11132191,0.24144934,-0.13907652,0.13378444,0.13009816,-0.11483113,-0.18590061,-0.11020872,-0.02460131,-0.16371405,-0.054872397,0.14988858,-0.121658914,0.006384186,0.08874227,-0.22418514,0.1000573,-0.022948366,0.060862377,-0.23211814,-0.2474449,-0.29372168,-0.4467379,-0.14807707,-0.13560033,0.26817375,0.31250316,-0.12785761,-0.15228225,-0.13311402,0.18424886,0.19081482,0.18016696,0.20918517,-0.31626436,-0.06325813,-0.031862702,0.15618388,0.0331267,0.15646893,-0.18766835,0.24338269,0.05645395,-0.08650704,0.1409218,-0.2519292,-0.14585426,0.2483373,-0.01293806,-0.21747592,-0.16739084,0.06796088,-0.08140133,0.17204875,0.23814201,0.14114319,0.08105614,0.083562285,-0.18553615,0.1707308,0.16414018,-0.17641498,0.2008977,0.103340544,0.11531681,0.1498521,0.004268739,-0.17795713,-0.13701695,0.12689847,0.045884088,0.21716988,-0.20844528,-0.21839425,-0.0460105,0.04519075,0.1763438,-0.19541238,0.11028078,0.111601084,-0.33089653,0.1652425,-0.16950807,0.066011146,-0.17702194,-0.10707084,0.001943461,0.15273876,-0.13664027,0.122601226,0.10283293,0.22380647,-0.04758612,0.2700749,-0.1743995,0.15789756,0.15560506,0.22503601,0.07013215,-0.11536504,0.23717251,0.2127014,-0.22329202,-0.14275895,0.20424165,-0.14126204,-0.01568872,0.1280165,0.3436373,0.027255684
f1_i4,-0.28511173,-0.04449757,0.18748751,0.003554164,-0.0076022907,0.17555785,-0.1302296,0.16981646,-0.037034605,-0.29348746,-0.22588561,-0.21145333,0.092541456,0.22236794,0.18037994,-0.029665085,0.14963146,0.20001033,0.09488105,0.010200973,-0.14186284,-0.06620996,-0.087300174,-0.09993727,-0.24152087,-0.04273441,-0.17694134,-0.17194322,0.050366443,0.21351193,-0.25894144,0.07558312,0.15962963,-0.16174878,0.17522381,-0.1379473,-0.26931763,-0.10537096,0.163673,-0.01252259,-0.11330847,0.09000739,0.053219073,0.18091191,0.16475783,0.17255375,-0.097354054,-0.22082224,0.13696922,0.16886815,-0.11646215,0.0125486385,-0.065499805,0.26209077,-0.057895742,0.12482074,0.11526731,-0.20353389,0.23082761,-0.032552082,0.19705267,-0.002001277,0.17003578,-0.13159537,-0.055598117,-0.16305125,-0.04969572,0.33167988,-0.08836934,-0.2408827,0.08433871,-0.101111,-0.02311057,0.11409905,-0.06728101,0.12225325,0.18135673,0.1847968,0.12680338,0.09459743,-0.100255996,-0.00718438,0.12048418,0.20616902,-0.007089345,-0.066860445,-0.25368237,-0.14569832,-0.06904702,0.26301003,-0.17223504,-0.06702373,0.09153531,-0.11333021,-0.15798846,-0.123853005,0.17857328,-0.14394334,-0.08656968,0.13355443,-0.33216685,0.16146813,-0.03443952,0.1020022,0.23355749,0.13815542,-0.100888774,0.13424611,0.056131884,-0.18195082,-0.24049841,0.016579477,0.15467346,0.017974287,-0.07629396,0.14576983,-0.06282089,0.1455548,-0.08740187,-0.23130493,0.18219301,-0.1181584,0.14763975,-0.14788844,0.080820985,0.10667558,0.14021531,0.24880211,0.12346997,-0.103914626,0.15179335,-0.2277655,-0.0272585,-0.05235716,-0.13632163,-0.089350834,0.09968694,-0.1345922,-0.25775322,-0.15001658,-0.07752457,0.19421348,0.17004488,-0.11297119,-0.16000481,0.1217871,-0.1001353,-0.13555756,0.18401402,-0.15482081,0.11494109,-0.10164785,0.09752233,0.022373574,0.0746911,0.1115865,-0.24569754,0.11690612,0.1531651,-0.07415069,-0.07741832,-0.46062928,0.15877418,-0.29670128,-0.017322501,0.2648914,-0.114554696,0.17385896,-0.14138068,-0.16835003,-0.30851373,-0.08236528,0.21819194,-0.037982665,0.22396994,0.16021353,0.18342516,0.22336747,0.11983931,-0.17079,0.057678238,-0.16144255,-0.4001399,-0.18131046,0.1839568,0.043722108,0.10922911,0.11431499,-0.08134024,-0.12610805,-0.09956342,0.25280744,0.1483106,0.052868392,0.17192529,0.091620125,0.0055738566,0.049090825,-0.011767363,0.06878321,-0.1606115,0.24469075,-0.12418209,-0.18033014,0.23468709,-0.19482861,0.21496871,-0.06722086,0.14841877,0.0770108,0.14916237,0.21613479,-0.100876115,0.047716267,0.19302785,0.042897373,-0.1654343,-0.30417496,0.1604197,0.0892281,-0.029073311,-0.11006691,0.065920055,-0.18802202,-0.20462132,0.15556394,-0.08952251,0.15633981,-0.26549032,-0.20989475,-0.15926242,-0.13455497,-0.11537706,-0.22667713,-0.23320065,0.090975106,-0.3258384,-0.18274845,0.24444932,0.11177853,0.11055272,-0.13655934,0.13272949,0.17247233,0.12657236,0.116427384,0.034562502,0.017468046,-0.12386235,0.097215824,-0.16146672,0.075600736,-0.14213377,-0.114524424,0.14443827,0.117680244,-0.23111069,0.123619854,0.13795282,-0.160795,-0.04255607,0.19366334,-0.1256319,-0.18451528,-0.1043755,0.13354036,-0.19964808,0.07126548,-0.11271847,0.088242054,-0.11101115,0.22411348,0.16649364,0.13305901,-0.239992,-0.019787263,-0.2595038,0.044236876,0.18160322,0.16284138,-0.1523797,-0.27262762,-0.20443922,0.1825422,-0.1494077,-0.10221455,0.1907145,-0.005349329,0.015145011,-0.24658261,0.15492387,0.18121763,-0.06035823,0.13511063,0.086111635,-0.12761973,-0.11823265,-0.16805752,-0.1973291,-0.17237176,-0.0022909562,0.025403706,-0.1660358,-0.115070514,0.040187266,-0.14496264,-0.105998114,-0.029826337,0.067020625,-0.15010975,-0.34988025,-0.2302475,-0.38371065,-0.043564767,-0.26782167,0.15404435,0.12686333,-0.08755818,-0.035270058,-0.2636639,0.18782847,0.16909108,0.19907093,-0.002038559,-0.31302914,-0.16607656,0.00257931,0.16732158,0.03568094,0.2230081,-0.124385275,0.27316836,-0.31478703,-0.15676047,0.34078926,-0.2592346,-0.17670953,0.20209976,0.1663412,-0.12325467,-0.11250667,0.17365947,-0.29360998,0.24465251,0.21820149,0.2840413,0.17978501,0.16699973,-0.254706,0.06310172,0.23701873,-0.14847857,0.12213671,0.17706142,0.19064772,0.18447354,-0.0016182973,-0.16100615,-0.09412271,0.1360284,0.22909507,0.08220161,-0.09499976,-0.28719333,-0.14518033,0.1076015,0.18325616,-0.20678467,0.023983188,0.18863602,-0.21632318,0.1698972,-0.19296905,-0.09499813,-0.18656366,-0.18580574,-0.27839106,0.1614034,-0.018350502,-0.0115319425,0.18547031,0.23518126,-0.31498918,0.24056661,-0.21137933,0.20259382,0.12875557,0.09610588,0.19849554,-0.13966018,0.14722544,0.05280966,-0.079245135,-0.14657223,0.19197492,-0.20099102,0.095081486,0.18553224,0.123101,0.11173536
f1_i5,-0.31971306,-0.062195458,0.2243456,0.14794882,0.028963875,-0.0473693,-0.17185646,0.2781087,-0.041561022,-0.2070366,0.03878921,-0.23418353,0.14387533,0.10124859,0.24643871,0.15809788,0.1682916,0.087773845,0.033078313,-0.05677271,-0.16269402,-0.055079866,-0.10108235,-0.036894362,-0.08612731,-0.0047991863,-0.23098171,-0.24500188,-0.15605308,0.026951618,0.26558462,0.15607077,0.17796531,-0.22289303,0.09162861,-0.16863759,-0.11386576,-0.061610576,0.15445876,-0.021603748,-0.075581506,0.020284668,0.086089514,0.2722575,0.19744723,0.037167035,-0.057383627,-0.17811051,0.12378413,0.03705446,0.051390946,0.04143909,-0.26654583,0.28177392,0.06824153,-0.34611338,-0.19709307,-0.1659851,0.16918753,0.098397344,0.17551462,-0.009846437,0.30176267,0.23361197,-0.013842968,-0.11420658,-0.26330882,0.464873,-0.18531035,-0.099348456,0.15251973,-0.13600184,-0.12397877,0.15073651,0.065044865,0.25399736,0.19628128,0.15311222,0.06923352,0.23130813,0.11793367,-0.08889067,0.16869174,-0.019181978,0.19697043,0.26252696,-0.15411419,-0.15401894,-0.14747605,0.23157145,-0.19924149,0.04304575,0.22904088,-0.14280456,-0.026681041,-0.1417755,0.20648512,-0.06657569,-0.14641094,0.18705599,-0.26391757,0.11830509,-0.1827216,0.12647213,0.20995705,0.10964487,-0.07076168,0.22533627,0.082082,-0.09244089,0.24694312,-0.09084129,0.14065987,0.3018415,-0.23435673,0.077982865,0.025835248,0.10183924,-0.0032959399,-0.096182,-0.27820742,-0.2203537,0.2186424,0.21452995,0.11589687,0.039440766,0.1301381,0.14941742,0.2684578,-0.07963083,0.21694449,0.054562353,-0.25014806,-0.14386696,-0.35420966,-0.124036826,0.17389616,0.22242443,-0.10482859,-0.07767343,-0.060452517,0.19860369,0.0988789,-0.08372226,-0.18476295,0.16871026,-0.09012749,-0.20507568,0.009626055,-0.23100728,0.035252046,-0.17566489,0.10352384,0.14822552,0.109455824,0.20423199,-0.13513948,0.18194804,0.18066415,-0.03232392,0.20263909,-0.0729866,0.2547897,-0.3150606,-0.24435027,0.16216974,-0.13964717,0.090873145,-0.17670633,-0.1346875,0.066723,-0.11409495,-0.035905987,-0.09608933,0.20802829,0.23003826,0.24491958,0.14240105,0.1903386,-0.1330337,0.11915825,-0.16906421,-0.43045256,-0.044334397,0.15005128,0.17314918,0.11186771,0.19431028,-0.20332678,-0.034242794,0.009173186,0.54255754,0.22640462,-0.051768884,0.26441774,0.14156541,-0.09611288,0.16161911,0.084016025,0.035427276,-0.13976713,0.119651295,-0.0066448688,-0.095429,0.032600798,-0.16265492,0.1356393,0.01059681,0.14567594,0.23668516,0.24689828,0.1826456,-0.24775277,0.11136063,0.19421549,0.17809403,-0.1934047,-0.21174377,0.19627436,0.20244627,-0.036022466,-0.114069894,0.17992014,-0.07762388,0.14177276,0.17023899,-0.075123586,0.20251715,-0.013841981,-0.20773388,-0.16857,-0.013914574,-0.08790179,-0.1924492,-0.18564855,0.111784436,0.1883701,-0.14060648,0.18973786,0.32347807,0.11645113,-0.105763234,0.25480923,-0.06648681,0.03493765,0.1245151,0.13184725,-0.03918898,0.0056333626,0.05195112,-0.18622677,-0.0067060273,-0.095242664,0.031139303,0.23628795,0.10799752,-0.2323951,0.2017511,0.118700616,0.08627074,-0.22539985,0.13246633,-0.034327894,-0.14096531,-0.15452933,0.13003065,-0.2682937,0.008909432,-0.062392805,0.124711104,-0.11950682,0.08816693,0.11177389,0.21197946,-0.14270711,0.024923217,-0.21096131,0.09655552,0.12766899,0.03427869,-0.19397919,-0.12604357,-0.115452655,0.14883733,-0.32704437,-0.026910977,-0.05264793,-0.051802546,0.1214379,-0.15980566,0.1254745,-0.09468722,-0.1474575,0.11121389,0.21028082,-0.17185655,-0.095661916,-0.24775289,0.104942665,-0.27933753,0.052535452,0.16191065,-0.17506395,-0.1343203,0.053384747,-0.20496188,-0.12419605,0.08884942,0.26652288,-0.1563627,-0.20339137,-0.23731413,0.15194389,-0.083696455,-0.16024478,0.12464256,0.10305359,-0.14232284,-0.12937489,-0.31826302,0.047425136,0.010724495,0.06641278,0.06630213,-0.32571465,-0.06602254,-0.020963999,0.27647614,0.07830915,0.23162772,-0.21362507,0.26176745,0.46294948,-0.07454442,0.3560999,-0.29928124,-0.15665315,0.0743906,-0.13423553,-0.10726102,-0.1526274,0.053307973,-0.27732122,0.20996998,0.2518545,0.07249268,-0.046141498,0.17554864,-0.2315832,0.10835112,0.20855701,-0.16170803,0.23295955,0.0492129,0.13141449,0.16378655,0.09664023,-0.14366014,-0.15551603,0.097025804,0.18488088,0.08504858,-0.03766496,-0.2409696,-0.12820564,-0.0660588,0.13256545,0.0886428,0.034939718,0.051167402,-0.17906356,-0.0018926584,-0.09888414,0.12903929,0.09976893,-0.18859278,-0.003733544,0.30854923,-0.268802,-0.05684279,0.21181923,0.17776848,0.21627879,0.2196009,-0.077141635,-0.01650935,0.079247564,0.17648949,0.11773658,-0.20663925,0.1850472,0.2687796,-0.0048798337,-0.14401536,0.086676344,-0.12756164,0.078860715,0.2481746,0.19096474,0.14183368
f2_i1,0.22667956,0.0050246897,0.17977682,0.07707002,-0.35518387,-0.03648986,-0.16273734,0.28686464,0.046515014,0.03938806,-0.13728526,-0.20161192,-0.04525787,0.2075354,0.12594277,-0.27919286,0.124812014,0.13088286,0.21072231,-0.25401556,0.04954056,0.13960172,0.0051958887,-0.059335623,-0.06969033,0.03682906,-0.15462331,-0.29421625,0.1261292,-0.051266227,0.12434447,0.119159125,0.11765212,-0.06184002,-0.0554868,-0.11868862,-0.02995063,0.010853519,0.07137072,0.1436071,0.026008153,-0.022522015,-0.21591201,0.08680962,0.20208114,0.15675734,-0.14404951,-0.17966191,0.18206185,0.17932682,0.30183887,-0.08280014,0.15752685,0.22471549,-0.032587446,0.10066215,0.08094472,-0.16668752,0.040471975,0.3439764,-0.095521055,-0.15352224,0.110132776,-0.13978602,0.20766763,-0.073485926,-0.17477438,0.1595434,-0.13602507,-0.18562306,0.18654005,-0.10303909,-0.05568966,0.15457574,-0.14840044,0.1306287,0.083532594,0.096619576,-0.03006103,0.14263663,-0.08978827,-0.3473177,0.17945743,0.13139564,-0.49051502,0.038256392,-0.08949505,-0.14461716,0.00579079,0.26534098,-0.09821195,0.28575233,-0.1746206,-0.19299644,-0.08175561,-0.09943961,0.0002609826,-0.17935847,-0.18898998,0.20792426,-0.12323047,0.06593901,-0.062000364,0.174356,0.17928296,-0.22109044,-0.110539176,0.24491483,0.16034684,-0.05997602,-0.4169802,0.25660694,0.13564682,0.11075995,-0.00084621774,0.13306004,0.2729298,0.042787436,-0.04626137,0.17878422,0.14236945,-0.10811773,-0.09867175,0.19526094,0.29480106,0.08190919,0.23803063,0.14839657,0.15144132,-0.050909054,0.12973335,0.047901906,0.25387895,-0.011514968,-0.22766492,0.11044274,-0.23755705,0.2872177,-0.17595777,-0.14340258,-0.19846947,0.21584977,0.04919548,-0.19333191,-0.30929008,0.06691202,-0.10073726,-0.31535515,0.20953573,0.34900653,-0.22024201,-0.06349689,0.0031525071,-0.32215595,0.09011525,0.16607161,-0.14070807,0.08666633,-0.0023734695,-0.101218425,-0.27133495,-0.035505332,0.21022283,-0.16195634,-0.20955248,0.10518283,-0.15377687,0.14801066,-0.13071214,-0.052950807,-0.20728678,-0.093614556,0.1672214,0.24057905,0.0822284,0.03383981,0.12516814,0.30573723,0.09068471,-0.1451537,0.11577238,-0.22770396,-0.3148198,-0.12704328,0.2210468,0.32314253,0.19565417,0.1702381,-0.15194727,-0.25503656,-0.13165197,0.0024690859,0.1186319,-0.117415585,0.19960096,-0.078168646,-0.15316753,0.17236929,-0.21596767,-0.0071809413,-0.23142071,0.19983272,-0.21751015,-0.14556889,0.23415641,-0.18050547,0.20650072,0.29884818,0.22328797,0.15560012,0.1512417,0.08786369,-0.29682386,0.16260251,0.057871886,-0.05847388,-0.09284177,-0.16166408,0.11512966,0.04933872,0.053746685,-0.12306785,0.19380799,-0.10149423,-0.1790064,0.13019644,-0.048248917,0.16316752,-0.10599509,-0.11923258,-0.21020322,-0.046116494,-0.12306509,-0.10469579,-0.17577365,0.08996742,-0.27300376,-0.121003844,0.014042217,0.17965445,0.22525606,-0.22668858,0.16597465,-0.039285686,0.18761717,0.25741452,0.20161851,-0.23714738,-0.043628015,0.12345496,-0.34449112,-0.1030704,-0.20628805,0.0690857,0.09459998,0.13585363,-0.07179275,0.05225523,0.08484788,0.22132745,-0.15361157,0.10729757,0.114646696,-0.10508257,-0.20885752,0.05641291,-0.11859098,-0.107621714,-0.10197397,0.24739881,0.14120425,0.1657798,0.13347061,0.14021152,-0.115248844,0.15623643,0.009229639,-0.17235711,0.3010037,0.2825114,-0.2171125,0.081988946,-0.07508809,0.22854923,-0.14538802,-0.24958733,0.24904163,-0.089420296,0.12746069,-0.18377319,0.18466051,0.016533522,-0.024598625,0.16624734,0.25974122,-0.10534454,-0.16765971,-0.18473712,0.1578251,-0.08887887,0.11676995,0.17830375,-0.084126346,-0.1657125,-0.023683663,-0.26933476,-0.03713197,0.18940619,0.16622172,-0.13686253,0.08642168,-0.23638743,0.12888665,-0.2226169,-0.16224451,0.17199038,-0.038663637,-0.24836105,-0.051767524,-0.30411607,0.14039457,0.2322627,0.24783993,0.15278271,-0.20005661,-0.20440683,0.038611203,0.2470498,0.24380887,0.041979026,-0.16124786,0.12837744,-0.24302052,-0.1810252,0.2812099,-0.23883246,-0.282467,0.06035655,-0.15682206,-0.059930723,-0.15310492,0.25363746,-0.031079479,0.08768421,0.1457294,0.26376653,0.06470552,0.2511077,-0.27117836,-0.016927805,0.32515764,-0.18685076,0.19701532,0.019126097,0.17589441,0.13035022,-0.13355494,-0.0543935,-0.19293268,0.32488564,0.20343708,0.19773252,-0.067475855,-0.1046037,-0.105828844,0.122005835,0.14050718,0.18802132,-0.16315532,0.08319923,-0.23885553,0.2296366,-0.16800883,0.036648992,-0.13197263,-0.22119544,-0.12606502,0.14933611,-0.026896827,-0.06337394,0.18702433,0.15918748,-0.26246995,0.04535502,-0.08162895,0.16411482,0.091144234,-0.05273061,0.09574583,-0.10085286,0.188799,-0.08070628,-0.21724574,-0.21764886,0.0032084615,-0.13255651,0.11206058,-0.056559388,0.22526726,0.08663255
f2_i2,0.15426433,-0.030393982,0.15632188,0.12656954,-0.25787482,0.11372098,-0.23678827,0.32375377,0.07408682,0.013407797,-0.14212929,-0.18794024,-0.048008062,0.11174732,0.22054946,-0.22733846,0.1892004,0.047719415,0.21416406,0.0785298,0.15941723,-0.01075478,-0.045251913,0.0062644365,-0.09733955,-0.05733679,-0.084196545,-0.24399522,0.06306396,-0.17856632,-0.07764128,0.22433661,0.099438295,-0.08641787,0.015424824,-0.19206199,-0.10158555,-0.12962294,0.13833256,-0.06123612,-0.04783141,0.0507471,0.14510353,0.03527433,0.22709933,0.11068065,-0.17750934,-0.13237754,0.18612781,0.011497508,0.3199489,-0.17363065,-0.08652473,0.25428784,0.06691068,0.12208525,0.16589478,-0.09670015,0.087848425,0.014861467,-0.11250107,-0.1909051,0.102205396,-0.12716903,0.026862057,-0.11301193,-0.22273973,-0.049211126,-0.13696086,-0.118562184,0.18950307,-0.20786381,0.1440664,0.121452756,0.013625383,0.12979537,0.2671859,0.17126772,-0.1305842,0.1496562,-0.2084705,-0.1960379,0.09634929,0.15132129,-0.43863508,0.0075032604,-0.13864326,-0.01744917,-0.085212685,0.19881596,-0.13510075,0.31426895,-0.108629495,-0.22672307,-0.051315516,-0.08279695,-0.14902657,-0.24237029,-0.2435469,0.12025618,-0.13011903,-0.039967872,-0.051726706,0.09533358,0.2640197,-0.22655584,-0.20016672,0.2500617,0.024124224,-0.0730406,-0.21273126,0.1766591,0.20680797,0.09466049,-0.11961497,0.11531504,0.251962,0.04894338,-0.22421868,0.3007191,0.21307419,-0.21022052,-0.07162986,0.06967181,0.2605983,0.07920885,0.2802863,0.26958576,0.21510573,0.22359127,0.04922406,-0.057887703,0.066475935,-0.01357552,-0.18828087,-0.00092342566,-0.2246334,0.17761652,-0.22600585,-0.016325738,0.025788182,0.23680131,0.17234294,-0.17615913,-0.112219036,0.07617654,-0.21362019,-0.34514552,-0.0023592575,-0.065835714,-0.01516978,-0.036415838,-0.04642193,0.116649374,0.14202318,0.12544107,-0.21863031,0.07667542,0.03592148,-0.20019326,-0.028073171,-0.24937925,0.043156527,-0.075456224,-0.0878225,0.19023176,-0.13366893,0.22083056,-0.1080032,-0.079677165,0.013855985,-0.18783717,-0.021879245,0.41217956,0.1383817,0.19321656,0.22638837,0.18232717,0.09006641,-0.1882773,0.14250256,-0.05997503,-0.037557747,-0.085082576,0.1250675,0.14484431,0.15874739,0.14506657,-0.17526765,0.004832458,-0.08257521,-0.0032977709,0.19796886,-0.05256753,0.25460428,0.021333659,-0.12608184,0.14273345,-0.01349895,0.0033323932,-0.23619418,0.21867341,-0.12484442,-0.16539809,0.35845593,-0.16743943,0.16089803,0.16327739,0.2324859,0.08579792,0.13368829,0.16661136,-0.2620381,0.08976154,0.12922084,0.025469437,0.07972666,-0.24083552,0.19045196,0.23421526,0.17659374,-0.15536505,0.052621346,-0.21148123,-0.006691492,-0.040373046,-0.08561763,-0.009381421,-0.155664,-0.19711295,-0.19281064,-0.106478184,-0.06480315,-0.06724067,-0.19097309,0.14117903,-0.18485276,-0.18781368,0.25449008,-0.041094918,0.1757898,-0.22036915,0.19333403,-0.02884101,0.06414242,0.14163488,0.13129821,-0.13145486,0.023272663,0.1380326,-0.2818662,0.096810944,-0.13687848,0.09048524,0.12213963,0.09512985,0.061470788,0.0071077403,0.1946817,0.45747355,-0.116060846,0.17496614,0.18864994,-0.20356789,0.18094307,0.027601678,-0.17306782,-0.2767268,0.010171697,0.1410195,0.20252664,0.1959101,0.17280316,0.14212593,-0.15624781,0.16166532,0.060702346,-0.0955764,0.16741428,0.045891088,-0.1370532,0.09377139,-0.20753136,0.014662026,-0.029435156,-0.17546035,0.19313891,-0.26121625,0.08650141,-0.07039392,0.16943054,0.23873103,-0.17927082,0.14965889,0.17786622,-0.13593334,-0.15687394,-0.1705031,0.2544737,-0.23147283,0.23680842,0.17239143,-0.11514166,-0.15582126,-0.02771743,-0.37634516,-0.054744225,0.2832972,0.21880747,-0.20694382,0.12218328,-0.23843485,0.089426786,-0.15368424,-0.17835152,0.16673385,0.078998685,-0.24844155,-0.11713957,0.106378354,0.1299568,0.09949766,0.18921699,-0.023828933,-0.18204896,-0.015787369,-0.16631748,0.22947055,0.20720375,0.13301575,-0.1063237,0.29249385,-0.20212775,-0.11306357,0.36122838,-0.13704626,-0.14202972,0.29291263,-0.11242227,-0.104596056,-0.10908079,0.0021648845,-0.13339008,0.089839414,0.038664307,0.14395222,0.0950377,0.09631,-0.15044144,0.17661358,0.22215833,-0.20193358,0.1556412,-0.08081127,0.14959912,0.07018746,-0.17673765,-0.09878469,-0.20063041,0.23787251,0.34081578,0.1695986,-0.18399957,-0.23568036,-0.16329089,0.13758644,0.10612343,0.17498532,-0.13088891,0.12563609,-0.14692509,0.30296174,-0.1328551,0.15582667,-0.08671773,-0.20602015,-0.20025009,0.08644531,-0.03297217,0.22439717,0.12150964,0.13027547,-0.30178514,0.12035158,-0.12062347,0.32545558,-0.022593373,0.14267315,0.11928079,-0.12530017,0.19245976,-0.030534228,-0.22884549,-0.14895472,0.13101481,-0.08665775,0.15983455,0.015076918,0.007808469,0.04601161
f2_i3,0.00394786,-0.02688119,0.17120144,0.26734394,-0.38176748,0.06876097,-0.046785846,0.37395406,0.20169596,0.03969924,-0.061897352,-0.12771817,-0.14717998,0.11616009,0.19365215,-0.33379394,0.17006028,0.18606655,0.19719638,0.119262986,0.18646842,0.19800738,0.10464354,-0.1594148,-0.08583511,-0.20498565,-0.100147106,-0.28398508,0.04270998,0.15381406,-0.080048114,0.17880222,0.09029192,-0.088625245,0.062285908,-0.18989612,-0.16742459,-0.16052172,0.11228324,-0.054949515,-0.12595324,-0.017517494,-0.03391331,0.1690707,0.23159957,0.11326407,-0.25075158,-0.24887529,0.21021111,0.065771766,0.39095595,-0.34147647,-0.06908267,0.19827025,-0.1670268,-0.18198812,0.32631662,-0.013013184,0.25682852,0.0044458965,-0.230589,-0.12807599,0.18539125,-0.014642329,0.06298854,-0.15950851,-0.09784332,-0.20987986,-0.21820533,-0.0931451,0.19877975,-0.22381595,0.07208024,0.21082807,0.01683864,0.1058739,0.10393974,0.19395082,0.024332296,0.11117565,-0.16875273,-0.3606855,0.11756932,0.08309941,-0.27278876,-0.077276215,-0.18290097,-0.07371362,-0.04342463,0.16644555,-0.19128734,0.31436968,0.2752617,-0.07615878,-0.08251368,-0.15395257,0.050893754,-0.020397784,-0.2843278,0.13129565,-0.10321456,0.12690482,0.0665734,0.15658982,0.24576822,0.10633019,-0.1221425,0.19175068,0.11869463,-0.13636169,-0.3389695,0.23205718,0.09912615,0.1393242,-0.07778341,0.06072442,0.11263471,0.16431615,-0.16860968,0.21648581,0.19759722,-0.008624961,0.070784114,0.21875629,0.39909822,0.031456515,0.14892054,0.26728427,0.046436034,0.035019923,0.130411,0.29942486,0.11363842,-0.15351912,-0.06098032,-0.08777394,-0.24821731,0.1644156,-0.29383168,0.0110586425,0.025883669,0.22601983,0.20639169,-0.18020812,-0.1734289,0.096562505,-0.17245694,-0.27260375,0.0033953472,0.15955931,-0.046312287,-0.14419504,-0.08811077,-0.16666289,0.099179775,0.16916975,-0.11956509,0.18070035,0.061871324,-0.019364173,0.060645003,-0.31027377,0.105794124,0.027846135,-0.070016265,0.21206471,-0.16080974,0.052395448,-0.12790005,-0.12920222,-0.050017297,-0.1509412,-0.09381738,0.15826297,0.12696964,0.14095615,0.14478844,0.3384943,0.16295181,-0.15659666,0.17582774,-0.1617848,0.20250314,-0.020036612,0.18831986,0.25017574,0.1957601,0.11481661,-0.17015512,-0.14764082,-0.018495128,-0.16582835,0.16113536,-0.16296023,0.24510297,0.022421563,-0.089515634,0.19538724,-0.20911518,0.07394563,-0.2713895,0.16216943,-0.13596594,-0.068455,0.34065738,-0.07143251,0.23943645,0.3023614,0.19866176,0.2247096,0.14760843,-0.015449123,-0.3638501,0.0820224,0.13868187,-0.0003541602,-0.12544711,-0.24120972,0.15931971,0.1684697,0.06900028,-0.15656075,0.24259447,-0.24581508,0.24651687,0.13357936,-0.18426035,-0.116912015,-0.0691582,-0.19052207,-0.16874751,-0.17813022,-0.10136572,-0.08885042,-0.26178437,0.1495007,-0.030797565,-0.22623298,0.12694891,0.013127388,0.22203173,-0.15298752,0.08100901,0.006752103,0.15575464,0.12560292,0.13437806,-0.122411996,0.0074793417,0.16447279,-0.3379258,0.16566752,-0.11759886,-0.06775811,0.12716359,0.14728141,-0.017943477,0.20262314,0.116695255,0.2277555,-0.19173102,0.18141949,0.11390296,-0.12191219,-0.08623117,0.22215192,-0.18871027,-0.06201198,-0.11883906,0.24736507,0.01289955,0.21665527,0.11679249,0.06699279,-0.107864335,0.20264688,0.066740386,-0.18822701,0.18113987,0.19907899,-0.13084033,0.37510714,-0.09076538,0.14222409,-0.08130484,-0.07466354,0.029633066,-0.21133135,0.035205502,0.01723977,0.1536217,0.1363548,-0.08749316,0.06398146,0.17907625,-0.17768209,-0.21742795,-0.17590655,0.35522985,-0.038226377,0.21473716,0.23269919,0.011715475,-0.12311128,-0.09135888,-0.27650416,-0.07137265,0.21118918,0.17640018,-0.1778312,0.06096217,0.10801161,-0.064159855,-0.18030763,-0.113329045,0.13845539,0.017203886,-0.24013796,-0.13539752,-0.06386685,0.14447057,0.18197143,0.17111742,0.045406435,-0.28694934,-0.11937619,-0.039210733,0.2111802,0.006475123,0.01144141,-0.044383403,0.09715913,-0.17080233,-0.08914234,0.21930856,-0.1821567,-0.1262764,0.088680975,-0.2601215,-0.07837493,-0.10129074,0.23900886,-0.050784193,0.2753128,0.097769104,0.06603833,0.16027588,0.23540018,-0.2526382,0.16101314,0.1320484,-0.18165801,0.22494823,-0.10815122,0.15678816,0.13863362,-0.16789898,-0.12829348,-0.18241544,0.21535653,0.39976293,0.3515446,-0.0772123,-0.1343714,-0.11861017,0.030165806,0.012444948,0.24025762,3.684865e-05,0.15848126,-0.17429201,0.2093208,-0.050347693,-0.028846314,-0.19443458,-0.1439255,0.053761005,0.17246716,0.028940093,0.19651894,0.16821633,0.12787634,-0.4362184,0.16015905,-0.16762997,0.15126286,0.027525913,0.08454089,0.08918997,-0.083832175,0.14721845,0.037192505,-0.12936266,-0.12812914,0.06811953,-0.116775915,0.11817975,0.0016845677,0.0797507,0.18192412
f2_i4,0.14131351,0.09010908,0.1240115,0.111339875,-0.27972782,0.16394623,-0.0006971712,0.18168958,0.14714392,-0.073798835,-0.045284387,-0.11190035,-0.049585033,0.21193537,0.13880822,-0.08182167,0.21550068,0.08091128,0.18944062,0.2243681,0.17132922,0.12518613,0.03922112,-0.05519269,-0.010042199,-0.22220202,-0.059161518,-0.2908923,-0.026762636,-6.904188e-05,-0.18462734,0.17768103,0.10639401,-0.14898436,0.05201469,-0.07908338,-0.14771444,-0.016161235,0.114060074,0.27609783,-0.060858905,-0.04649211,0.11717488,0.1584289,0.124524236,0.09068636,-0.21067214,-0.27101657,0.079845995,0.13660024,0.34173656,-0.28415316,-0.18929026,0.22143206,-0.21112004,0.07738414,0.21244766,-0.13959332,0.011135281,0.27595755,-0.1075125,-0.05061183,0.05607854,-0.13863915,0.23555192,-0.18088359,0.06205644,0.005432736,-0.080140874,-0.13137554,0.14574444,-0.11449705,0.17313169,0.18430474,-0.14518318,0.11623168,0.18342613,0.24454772,0.08461419,0.15962903,0.26948792,-0.3451163,0.08480582,0.14542681,-0.46072787,0.0696884,-0.10981445,-0.1742849,-0.096820354,0.23001559,-0.118544176,0.29679278,0.13411362,-0.064614,-0.050959956,-0.14773014,-0.15538529,-0.018654691,-0.31969243,0.13967805,-0.08088836,0.09365536,-0.0923564,0.08657528,0.16092362,-0.048470825,-0.023212817,0.19877501,0.14604767,-0.13140988,-0.3144067,0.18549769,0.1971869,0.20769314,-0.13011369,0.103291385,0.103762,0.018572984,-0.05080791,-0.12822789,0.077479124,-0.18743716,0.056467727,0.44137618,0.3137736,0.091229744,0.15686291,0.1653479,0.10351013,0.012525976,0.16888674,0.24091913,0.008004276,-0.043429162,-0.35957038,0.10016433,-0.018617164,0.34516862,-0.19320598,-0.21154746,-0.17314532,0.12651925,0.22000359,-0.19993044,-0.078822225,0.18410203,-0.18439545,-0.14512517,0.18816583,-0.0024389746,-0.039027117,0.076280385,-0.17067315,-0.36787575,0.21342221,0.1657986,-0.120160416,0.12680127,0.1350253,0.0341911,-0.04167831,-0.11090622,0.1384296,-0.20516333,-0.03885769,0.14967541,-0.12242551,0.090733,-0.052235298,-0.13225247,-0.0084937215,-0.1888039,-0.13945204,0.24541783,0.05943009,0.23493502,0.12102162,0.06622809,0.048205167,-0.030733453,0.10231122,-0.22248785,-0.027775353,-0.15128809,0.17100257,0.41819468,0.10834205,0.055713505,-0.067483544,-0.227601,-0.10676843,0.0577415,0.18495242,-0.10003531,0.2463598,-0.10299978,-0.13860232,0.2288526,-0.19416559,-0.06222088,-0.26212493,0.16280729,-0.28252187,-0.18524566,0.042837355,-0.115062974,0.12702866,0.28442958,0.17667621,0.13795653,0.14985378,-0.34225154,-0.34955454,0.13369957,0.09991844,-0.14861761,-0.04250528,-0.2721158,0.07525792,0.13185453,0.038263988,-0.21553613,0.13219048,-0.1840079,0.24969919,0.1248751,-0.096553385,0.11334195,-0.19485031,-0.10833207,-0.14840238,-0.12608302,-0.14917903,-0.119382806,-0.22650355,0.14077795,-0.21068169,-0.15280408,0.013964709,0.06524573,0.08627898,-0.20944454,0.20283821,-0.08774389,0.1557574,0.17941357,0.20360361,-0.13261856,0.012874877,0.1977111,-0.19003409,0.08343158,-0.03411413,0.030496653,0.14052261,0.043220796,0.023054184,0.18793795,0.20919421,0.12091272,-0.21126144,0.2389758,0.098553225,-0.14763267,0.06717457,0.02610857,-0.21207066,0.18722643,-0.17279652,0.20216449,-0.027957805,0.19019385,0.09014905,0.1823102,-0.13856229,0.0914601,0.019141866,-0.18570377,0.12868612,0.059362993,-0.16506581,0.3044336,-0.13607219,0.085918985,-0.045140594,0.016132837,0.05517628,-0.29372963,0.10491782,0.19728877,0.14184488,0.12714277,-0.07223985,0.1535274,0.12093345,-0.19449787,-0.19007729,-0.23470524,0.26058453,-0.07115199,0.21029818,0.14469227,-0.18373021,-0.23000778,-0.111220144,-0.2040938,-0.1641986,0.059829358,0.17300959,-0.1319878,-0.14555809,-0.1512264,0.12424305,-0.1462339,-0.17093734,0.04263257,0.037753664,-0.27483323,-0.11030167,-0.24248384,0.1832548,0.13829152,0.19489112,-0.022085689,-0.16650996,-0.17046748,-0.06283169,0.10721412,0.17370395,0.02684777,-0.16032787,0.20101781,-0.20546079,-0.17915712,0.20534863,-0.14169797,-0.26115462,0.120811105,-0.17398468,-0.047860842,-0.12894629,0.27633747,-0.13808785,0.08668473,0.15287757,0.10895912,0.15433209,0.07920022,-0.23943155,0.10445843,0.18521565,-0.2330196,0.24727558,-0.060227044,0.027089886,0.03339306,-0.1832511,-0.1749946,-0.20741653,0.22561686,0.4561363,0.20646685,-0.1272434,-0.3339852,-0.042163398,0.15383337,-0.026653534,0.20533666,-0.099570304,0.11083962,-0.1478703,0.2662224,-0.16668165,0.17623904,0.026105938,-0.14617756,-0.063676,0.15934317,-0.17412086,0.06207902,0.15478997,0.19753923,-0.50567913,0.18789464,-0.16100287,0.25388286,0.015253995,0.13192524,0.17884299,-0.06407839,0.018246768,0.06934222,-0.26774225,-0.15041038,0.111914836,-0.13030107,0.15247235,0.17523365,0.03199387,-0.0076359687
f2_i5,0.08003372,-0.02236396,0.21409021,0.24164586,-0.18180951,0.23906389,-0.18739243,0.29361686,0.01868547,-0.022103665,-0.25201684,-0.16993669,-0.15107152,0.14676905,0.14308272,-0.34759858,0.11164144,0.24744108,0.041695323,-0.032948524,0.021330006,0.2161902,0.064740784,-0.16933209,-0.0070134536,-0.27576098,-0.043470785,-0.15007162,0.04203322,0.055386215,-0.1253049,0.091745384,0.20662746,-0.117921256,-0.19745858,-0.00749532,-0.13970351,-0.15213245,0.1616471,0.23883936,0.0894335,-0.13983017,0.15322997,0.093639344,0.16168575,0.032917902,-0.15615737,-0.18615666,0.14513001,0.0015370458,0.20522204,-0.2872896,-0.06915397,0.31228036,0.09205308,-0.02283256,0.015090731,-0.1486684,0.10187026,0.3282311,-0.25825134,-0.14234549,0.13319421,-0.121612236,0.18945435,-0.18535036,0.087690786,-0.38118488,-0.1041032,-0.17944826,0.20375498,-0.1627906,0.09970891,0.15767545,-0.08973751,0.17061369,0.17445874,0.14610751,0.08616791,0.09659234,-0.2278333,-0.35406536,0.19121435,0.01333749,-0.41381446,0.098187566,-0.12406752,-0.06466954,-0.026868885,0.22287187,-0.1365452,0.28762278,0.04336664,-0.14278552,-0.09451038,-0.09790757,0.16706157,-0.115393765,-0.25850174,0.078870684,0.053619318,-0.017919837,-0.0342507,0.11287532,0.26011494,-0.22504139,-0.14344315,0.21263717,0.0399384,-0.12345037,-0.1984793,0.18218923,0.07797103,0.1496116,-0.17267078,0.0055932836,0.28293812,0.11172833,0.026648602,-0.23817846,0.20473103,-0.027041342,-0.030184397,0.16122513,0.06625809,0.19087401,0.17912783,0.16069886,0.17003272,0.1263345,0.12852778,0.18198411,-0.088134006,-0.1330358,-0.1695612,0.11820044,-0.12049307,0.3472541,-0.3144062,-0.23895241,-0.11320712,0.117467344,0.18340914,-0.07444354,-0.19701467,0.12417548,-0.19457924,-0.25899944,-0.01211539,0.2036068,-0.08122146,-0.17286809,-0.091146514,-0.2681528,0.17169935,0.13102195,-0.19941205,0.17755361,0.12878785,-0.025483105,0.23878482,0.05923458,0.1382649,-0.23671968,-0.098868415,0.1220004,-0.12956905,-0.02533638,-0.21553694,-0.14613041,0.093404785,-0.22471201,0.0043978854,0.18406707,0.24108088,0.09141787,0.24890366,0.23400444,0.09248096,-0.095141836,0.24072276,-0.14647838,-0.27399552,-0.10803428,0.17275031,0.19157442,0.08452544,0.21899426,-0.11533702,-0.30919975,-0.067526676,0.006502594,0.23221953,-0.14779267,0.30201688,-0.11734141,-0.06224726,0.24510242,-0.013024515,0.021986311,-0.15896544,0.06119613,-0.16646564,-0.16393737,0.18910322,-0.17727141,0.048936903,0.34692833,0.2702584,0.18665464,0.06993654,-0.18540794,-0.30184305,0.03148711,0.16942884,-0.0006275488,-0.072288774,-0.3323493,0.07134674,0.16293167,0.22121158,-0.21453601,0.15564975,-0.2556341,-0.10919399,0.10560592,-0.17994833,-0.03504151,-0.2514162,-0.22922246,-0.1962649,-0.22258219,0.01570681,-0.09503187,-0.27018955,0.10972478,-0.14774211,-0.19727258,0.08909385,0.01958691,0.18229109,-0.24050508,0.1091544,0.16609678,0.1290066,0.14511484,0.19428186,-0.16091804,-0.014453226,0.22147895,-0.2147641,0.13068411,0.027980316,-0.17703226,0.19452232,0.15916203,0.06386447,0.22949195,0.08138384,0.024156742,-0.23676264,0.10086037,0.09431842,-0.15890057,0.23451808,0.1437138,-0.13536957,0.15806262,-0.3023677,0.11072497,-0.01156324,0.22558922,0.14152934,0.17536952,-0.21717173,0.20156178,0.24931446,-0.26565278,0.23593135,0.11372561,-0.2664573,0.39964366,-0.13733765,0.10192221,0.01134198,-0.1359267,0.24330828,0.018648256,0.05282447,0.0060469825,0.15340668,-0.042608917,-0.12662674,0.15174848,0.10686194,-0.22581656,-0.2211231,-0.13695401,0.17149496,0.010619305,0.081078,0.18614608,-0.031336717,-0.15617287,-0.009200516,-0.4135145,-0.19445024,0.01575546,0.1984738,-0.13642521,0.01126408,-0.0409888,0.06316318,-0.1385421,-0.051117077,0.17816187,-0.086739,-0.32324314,-0.22144774,-0.034291167,0.22200516,0.02459543,0.21877582,0.13397561,-0.1632714,-0.1282459,-0.14676082,0.15510306,0.18067704,0.23821221,-0.09446714,0.13871351,-0.3164052,-0.16980615,0.17136441,-0.15175049,-0.15341514,0.23751922,-0.1115298,-0.08330134,-0.03128882,0.17287977,-0.19349268,0.16663848,0.17621659,0.073640876,0.11294968,0.034288753,-0.18014966,0.09901309,0.19776544,-0.13497618,0.12901722,-0.09078765,0.1429947,0.11779646,-0.08357252,-0.05805224,-0.14696035,0.16511862,0.3077124,0.28039166,-0.23814908,-0.20331945,-0.18579851,0.14738445,0.05389652,0.25517637,-0.111295775,0.16666152,-0.022785107,0.20290022,-0.21610372,0.019815788,-0.078554615,-0.20387664,-0.32577944,0.11739349,-0.16236995,0.09004313,0.07284013,0.18732026,-0.21410878,0.06203352,-0.1030298,0.23842525,0.1508978,0.106651045,0.10535179,0.039298505,-0.021725375,0.30308565,-0.21281858,-0.10755458,0.1816902,-0.09459904,0.1763032,-0.0836839,0.113984555,0.2037137
f3_i1,0.18224192,0.3954004,0.045802858,0.2366445,0.0526847,0.34619486,-0.24685895,-0.13519484,0.10457216,-0.03213019,0.04679118,-0.14042984,-0.10905032,0.08139207,0.3238539,0.25304896,0.13466045,-0.067668185,0.16370966,-0.08004909,0.21040231,0.10283524,0.086980745,0.01578503,0.024931192,-0.020925459,-0.12556116,-0.1719173,-0.13653696,0.1696399,0.009411792,0.02883969,0.04605973,-0.15145592,-0.1591221,-0.19298185,-0.12322129,-0.15402626,0.16302508,-0.052004572,0.11948912,-0.060335707,-0.11248518,0.07956904,0.11152451,0.11442796,-0.15242474,-0.10569554,0.160809,-0.15525998,0.19534616,-0.00093412923,0.24510683,-0.00922132,-0.0013642464,-0.15536034,-0.13227229,-0.23173785,0.018293351,0.15873536,-0.12717952,-0.07102654,-0.009288303,-0.12364232,0.08064178,-0.16082032,0.10325496,-0.5026096,-0.2168192,0.023536565,0.053525943,-0.046559006,0.10752877,0.21854876,0.0027917533,0.064226285,0.013826676,0.18871635,0.004298334,0.15967666,0.32432905,0.07912235,0.18719114,0.024290442,0.53096104,0.35248917,-0.06916203,0.0059315385,-0.010502783,0.1330934,-0.2076005,0.2981732,-0.03874069,-0.15119442,-0.2650977,-0.060599722,-0.0033674212,-0.2423083,0.34021258,0.060157176,-0.114714876,-0.047687262,0.18479125,0.24475786,0.15717913,-0.084371865,-0.13425818,0.101592205,0.1366393,0.001275186,-0.28402212,0.09680531,0.15733945,0.11453103,0.17649491,0.17209329,0.015260379,0.17382933,-0.16483288,-0.3998474,0.30353147,-0.010631003,-0.20409136,-0.046058588,0.24244702,-0.055432744,0.19476242,0.053940423,0.22153586,0.121035755,0.27836928,0.21842702,0.4492249,0.15611982,-0.18115844,0.19067276,-0.15478753,-0.14171131,-0.21370989,-0.25541297,0.38696808,0.157281,0.37326497,-0.27011162,-0.14667457,0.16816504,-0.14677225,-0.03881098,-0.24586628,0.31386667,-0.18556993,0.07007941,-0.11364991,-0.22260688,-0.0020363887,0.14791949,0.007898524,0.09443289,0.25443918,-0.3115103,-0.21661451,-0.36109993,0.026620187,-0.2329855,-0.19911356,0.1012146,-0.06304247,0.094613045,-0.16797589,-0.225458,0.14608197,0.1440374,0.10875222,0.14090964,0.21851344,-0.15159221,-0.09626657,-0.07704027,0.12155043,-0.115075365,0.2317834,-0.19424428,-0.28890803,-0.107738435,0.07333708,0.15522294,0.10973644,0.23599935,-0.11580348,0.43348652,-0.17309172,0.08960889,0.114880666,-0.15632062,0.10726841,-0.025424141,-0.2467103,0.15733631,0.053805314,-0.015563972,-0.040666703,0.0107661765,-0.29977047,-0.23769021,0.15986189,-0.143844,0.06856153,0.10146568,0.08978187,0.16648927,0.33276418,-0.25441274,0.1464773,0.14580344,0.055856295,-0.0014828244,-0.05151876,-0.11341625,0.1172123,0.13953266,0.1139009,-0.16920224,0.2773436,0.04510252,0.21514814,0.075689085,-0.13538593,-0.07706299,-0.3028885,-0.21342671,-0.16389175,-0.19644177,-0.16236354,-0.0064197276,-0.25282776,0.034896046,0.2560227,-0.1839746,0.02624152,0.16102079,0.08808981,-0.17798838,-0.0013771327,0.048652917,0.23951457,0.19100736,0.0096718,-0.08390926,0.15156049,0.07128237,0.20984158,-0.15561104,0.052276805,0.1733856,0.13079391,0.21866147,0.27189124,0.12364081,0.19068351,0.17749688,0.0048167133,0.060913075,0.06920389,-0.30038878,-0.35093454,0.11764952,-0.15936738,0.12070804,-0.045132477,0.29061186,0.030508371,0.2199368,0.28770816,-0.1695971,-0.14184262,0.12507875,0.0705803,-0.067296766,0.1693358,0.101198085,-0.04610488,-0.004485749,-0.12938498,0.049306545,0.026784193,-0.035520993,0.10506711,-0.022545751,0.07707416,0.07962841,0.16592783,0.25922132,-0.060691822,0.26998702,-0.0038893954,-0.22098795,-0.17918733,-0.08702108,0.012701583,0.21258156,0.13405752,0.16635478,-0.026998015,-0.13437869,-0.12699378,0.21943325,-0.09176044,-0.18684272,0.045166746,-0.20646629,-0.28730014,-0.08776159,-0.111228734,0.09956368,-0.29231593,-0.059797086,-0.19323272,0.100242734,-0.12479063,0.16441704,0.028893227,0.13954593,0.09121339,-0.14249553,-0.0041185203,-0.12103753,-0.16261035,-0.0955156,0.1526058,0.29517183,-0.058864564,0.15841325,0.05027387,-0.114486456,-0.053157263,-0.04384017,-0.16545346,0.22023378,-0.2248014,-0.0050095776,-0.07360238,0.2176923,-0.046470005,-0.096851714,0.098233566,0.1693842,0.15432093,-0.12774694,-0.19048965,-0.042251196,0.0758746,-0.16012558,-0.093256004,-0.11367957,0.24347726,0.16253245,-0.090558775,-0.09297863,-0.017713955,-0.20190294,0.016651532,0.21807587,-0.12139558,0.0062515344,-0.14875609,0.12033597,0.0528619,0.046797812,-0.06656543,0.11080027,-0.1930626,0.2384296,-0.15377118,-0.31768698,0.18483427,-0.2236953,-0.13926733,0.27228782,0.017026274,0.23215929,0.07278937,0.11465086,-0.15771638,0.26525736,-0.08988664,-0.32522452,-0.03223564,0.072306484,0.15569179,0.020052034,0.26840022,0.16941099,-0.14429815,-0.19720082,-0.27665964,-0.14307548,0.11670918,-0.16474038,0.24939035,0.06383736
f3_i2,0.101284996,-0.09217917,0.15086481,0.23741753,0.0076180263,-0.2040346,-0.18499307,-0.26585814,0.1931589,0.12934287,-0.19857584,-0.077287965,-0.21073073,0.19594906,0.08465098,0.124936976,0.16042322,-0.19763906,0.09353854,0.17702343,0.15946907,0.18002556,0.091573164,0.24052952,-0.1335807,-0.3693774,-0.042910166,-0.0045337495,-0.1338065,-0.22616088,-0.13956828,0.15655749,0.13996616,-0.049313936,-0.14323267,-0.022735704,-0.25976908,-0.13685888,0.14071786,-0.047406856,0.0958923,-0.25179753,0.00093905,0.17455512,0.20759155,0.08410223,-0.15934242,-0.16833009,0.09671374,-0.06302858,0.15387043,0.2808455,0.17568852,0.15326065,-0.0053091743,-0.060165998,-0.35401705,-0.19307387,0.1585254,0.38320485,-0.15109432,-0.05898168,0.10444131,-0.04801388,0.17553955,-0.19112603,0.26283926,-0.3027194,-0.11873327,0.3117744,0.16424732,-0.103564225,0.09681623,0.22691692,-0.23665355,0.086467505,0.13852417,0.08536662,0.14036138,0.16351135,0.32937312,0.13262026,0.19887383,-0.0047925147,0.45414668,0.28629693,-0.13821864,-0.14604299,-0.18327093,0.043470543,-0.09417385,0.28386793,-0.12029301,-0.18582031,-0.20324282,-0.14440621,-0.034866378,-0.111420184,0.15178068,0.17178634,-0.17077383,0.004944343,0.17584302,0.1893879,0.06653681,0.07309765,-0.09465245,0.14792027,0.089559704,-0.2649005,0.07279707,0.13358752,0.0038459115,0.16913359,0.035756215,0.09006866,0.05041307,0.12092073,-0.22367023,-0.3562534,0.2557186,-0.1885006,-0.17016369,0.25599024,0.17968965,0.048508123,0.08365476,0.22217877,0.32566658,0.11372524,0.15181784,0.06336621,0.16492237,0.010928533,-0.23449343,0.24172935,0.02373709,-0.19671147,-0.18698499,-0.24191095,0.13359539,-0.048807245,0.17672494,-0.14891356,-0.24700442,0.19386292,-0.22581,-0.10922423,-0.17284478,0.013435702,-0.1144272,0.11636639,-0.118577935,-0.37807322,0.17730062,0.11922324,-0.15851206,0.116422385,0.13457088,-0.33891642,0.32823944,-0.23986717,0.22699073,-0.3540119,-0.0010798314,0.026722552,-0.20700048,0.124852985,-0.11577791,-0.0003123711,0.08034613,0.13505983,-0.24372905,0.13836315,0.34397283,0.065207906,-0.043600705,-0.1593659,0.19860886,-0.20659035,0.0499476,-0.16901836,0.09153614,-0.13360226,0.15712614,0.09814347,0.16696887,0.19608775,-0.24118176,-0.008556218,-0.13943946,-0.14203662,-0.09443041,-0.047456823,0.08526927,-0.13025543,-0.16714218,0.19510388,0.06240004,-0.009229222,-0.16767158,0.22971982,-0.1646413,-0.18758976,0.06696882,-0.24632032,0.070335396,0.08834228,0.07854955,0.19760181,0.24837129,-0.17120934,0.28642306,0.24483643,0.13065827,0.18563266,-0.12616718,-0.070752464,0.15620397,0.30311087,0.16011746,-0.20331167,0.26327232,-0.080075815,-0.00076223083,-0.1003788,-0.106322646,-0.20348205,-0.27567616,-0.10674288,-0.0726968,-0.080430016,-0.022944348,-0.10521662,-0.26920408,0.12500669,0.11696045,-0.072908185,0.14255805,-0.06937411,0.026633257,-0.14898439,0.16971597,0.014825258,0.09669175,0.15025204,0.21386053,-0.19572966,0.04373362,0.19491182,-0.012574065,-0.18199702,-0.018947363,0.07897976,0.1559025,0.16688503,0.044207472,0.1492731,0.18435244,0.17015596,0.06273348,0.080396846,0.181693,-0.07429708,-0.41013247,0.112094514,-0.10031271,-0.08985586,-0.13650832,0.15708533,0.06084608,0.21364239,0.26635346,-0.06386424,-0.048088614,0.22060806,0.036622196,-0.14427872,0.0742043,0.20077215,-0.357498,0.09772222,-0.10988233,-0.235018,0.06690174,-0.08649721,0.18553105,0.19627866,-0.020582106,0.070732415,0.21383046,0.3576823,-0.13681573,0.2101465,0.20007774,-0.088798806,-0.20578818,-0.19240402,0.16984326,0.3329669,0.08914825,0.16793036,-0.14873655,0.010197362,-0.19282867,0.13636744,-0.24937698,0.10364663,-0.20384452,0.0047133025,-0.056385607,-0.23756789,0.14018653,-0.024324138,-0.17145632,0.10744806,-0.046070714,-0.015031324,-0.09983378,-0.2358169,-0.055682454,0.2125079,0.09603396,-0.1423248,-0.12934737,-0.13541335,-0.21106565,0.057021778,0.3151508,0.31203791,-0.103383765,0.25607574,-0.2999912,-0.16020407,0.21925198,-0.059224173,-0.15125231,0.16881132,-0.0799929,-0.12260032,-0.08354841,0.26370007,-0.11253187,-0.06974576,0.021485189,0.12653026,0.10583245,0.18591918,-0.22913797,0.19541264,-0.17104574,-0.029562369,0.05893705,-0.13702597,0.19700333,0.17936888,-0.053816106,0.06539741,-0.124372296,-0.06032146,0.10606798,0.40873086,-0.1537076,0.09317428,-0.30802387,0.18765171,0.022257248,0.262472,-0.1968334,0.15114945,-0.17069103,0.30517632,-0.053903744,-0.1761514,0.18371616,-0.19294979,-0.14645019,0.15047766,-0.088347025,0.13575183,0.14369085,0.05770117,-0.44654372,0.18099366,-0.029537953,-0.0646782,0.26086703,0.064878464,0.10228257,-0.18306911,0.10126536,0.19733647,-0.19231752,-0.22025149,-0.23642243,-0.1364966,0.18163672,-0.25578618,0.19633996,0.14921914
f3_i3,0.18034112,0.21853948,-0.021580221,0.11748014,0.025253953,-0.1353828,-0.14511351,-0.28642106,0.14237918,0.08000644,-0.13058211,-0.13258356,-0.24998233,0.17300722,0.16333425,0.09330893,0.21652722,-0.26344052,0.1394426,-0.011974566,0.10542745,0.15327622,0.10756052,0.23722056,-0.1669715,0.004301449,-0.21223879,-0.09482072,-0.023587763,0.0511998,-0.1621008,0.1296176,0.11627964,-0.008365251,-0.062557995,-0.18490824,-0.05188815,-0.1469589,0.166358,-0.24063972,0.109071895,-0.041926377,0.43600005,0.15032212,0.14080533,0.12935726,-0.16055351,-0.18496142,0.16693623,-0.12589633,0.050897952,-0.18864776,0.15107499,0.0712216,0.035112645,-0.04779155,-0.2158531,-0.17890048,0.044737015,0.38506344,-0.17907676,-0.16502658,-0.10975399,-0.07379798,0.20418522,-0.13306256,0.006850777,-0.60108,-0.14275596,0.11825166,0.23179501,-0.1470335,0.1555678,0.19906245,-0.14741254,0.1561285,0.17236033,0.230676,0.0659469,0.122030206,0.18236223,-0.10307759,0.18808722,-0.01829299,0.26559374,0.09705547,0.019715901,-0.16922233,-0.17799868,0.099213466,-0.15086499,0.06409956,-0.08535716,-0.1150692,-0.1045206,-0.27270147,0.05078034,-0.20984782,0.059346866,0.2320992,-0.115706176,-0.029218772,0.14403397,0.08575404,0.23463711,-0.0038564622,-0.15368164,0.26306143,0.0659687,-0.12607086,-0.14626011,0.19086124,0.22723845,0.1255377,0.10315395,0.11802453,-0.038334746,0.08574168,-0.07794284,-0.24166279,0.21181929,-0.045866903,-0.1744523,0.11275317,0.28286645,-0.12856531,0.19062114,0.15171762,0.43270913,0.24192919,0.017975777,0.16763929,-0.05575205,0.20206282,-0.3007236,0.12719487,0.01997759,-0.1617541,-0.14441407,-0.16804446,-0.056311082,0.10352732,0.09666436,-0.16905658,-0.14026323,0.19469228,-0.03501996,-0.085247524,-0.04549009,0.39107662,-0.007051829,0.15352191,-0.09661492,-0.25287604,0.24389425,0.11041991,-0.17294021,0.21936361,0.18148911,-0.07074765,-0.37432516,-0.37131104,0.07992382,-0.19003505,-0.09871775,0.07803061,-0.115188256,0.22431234,-0.15452747,-0.21809879,0.11573208,0.009028093,0.10271464,0.31479374,-0.014605141,0.07087332,-0.11983253,-0.22324815,0.0057172757,-0.10580894,0.1622576,-0.18489082,-0.17749569,-0.15453365,0.119380794,0.17699116,0.06991962,0.029256772,-0.10670619,0.28949162,-0.12288249,-0.29299524,0.13913608,-0.17255785,0.11716127,-0.050749253,-0.009297779,0.13909099,0.07035654,0.19458808,-0.16662313,0.101239145,-0.15901557,0.105308965,0.14519992,-0.17968825,-0.021700872,0.019202095,0.15235262,0.16095589,0.33234462,-0.15780365,-0.16803725,0.2115799,0.13117608,0.077035725,-0.14749318,-0.14734118,0.20369661,0.21350679,-0.0032749255,-0.10291607,0.27279666,-0.1137867,0.16389021,0.1488854,-0.049351245,-0.23888005,-0.313334,-0.13069381,-0.13047947,-0.24276674,-0.13192432,-0.17137723,-0.20222515,0.07093572,0.32856116,-0.08523292,0.21284652,-0.04014925,0.032093942,-0.22171506,0.037116293,0.015705187,0.20871091,0.097049445,-0.0077107353,-0.058402427,0.09498316,0.1469905,0.26820093,-0.103900194,0.12849379,0.25377735,0.20090105,0.09654038,0.13423225,0.14951563,0.2449118,0.18025237,0.04523543,0.1591442,0.056702115,-0.07401099,-0.24576966,0.019270789,-0.09087255,-0.07322972,-0.1419493,0.08849513,0.026155213,0.2196235,0.19998194,-0.1057775,-0.1273559,0.16803679,0.059402674,-0.1352347,0.33129138,0.22684638,-0.17707007,0.34623864,-0.17032433,0.05560935,0.07697814,0.11918639,0.12316397,0.2823511,0.13896336,-0.009153011,0.17638853,0.27866325,-0.20270401,0.14470868,0.05429146,0.080807805,-0.21050248,-0.24022345,0.20343252,0.056670923,0.17707136,0.19217856,-0.094092734,-0.28277048,-0.08501401,0.19114698,-0.108236246,0.17598167,-0.10080193,-0.028643513,-0.081184804,-0.149759,-0.24022005,-0.044091262,-0.080762416,0.12908357,-0.027107798,0.045744278,-0.19796467,-0.013113977,0.22598684,0.013886319,0.09920563,-0.071237415,-0.07760958,-0.06934822,-0.16128893,-0.12718725,0.23359753,0.19245075,-0.18588626,0.30563635,0.04258061,-0.16907619,0.12170201,-0.06812084,-0.22594646,0.19427669,-0.22359522,-0.10922454,-0.09672849,0.045675192,-0.28005674,-0.035550524,0.15535593,0.013237983,0.09283362,-0.11825548,-0.2995089,-0.021652492,-0.031032408,0.0026004277,0.056029864,-0.112972125,0.092612095,0.18079197,-0.1281191,0.13810076,-0.06117626,-0.166673,-0.22936822,0.3822807,-0.2142814,-0.23391615,-0.12068513,0.1604239,-0.009166229,0.013680831,-0.03941549,0.025420437,-0.06449273,0.23916258,-0.14623567,0.042873327,0.27517095,-0.21488497,0.15206729,0.07076627,-0.16898742,0.012831567,0.11485783,0.15089718,-0.31958607,0.21897992,-0.072287634,0.31256548,0.06366122,0.22614333,0.089135304,-0.014348888,-0.056259494,0.19970705,-0.18201278,-0.2221204,-0.18269673,-0.14083515,0.061906323,-0.118405156,0.22014189,0.123770006
f3_i4,0.24809381,-0.048515476,0.1533569,-0.005513583,0.09733744,-0.12027556,-0.015084029,-0.14342178,0.13614953,0.058030028,-0.14250015,-0.13912216,-0.17966731,-0.093097776,0.13792503,0.057125192,0.17744118,-0.09713054,0.2322768,-0.17323853,0.07235282,0.012166765,0.17034748,0.13423756,-0.12522401,0.1148786,-0.31338122,-0.15844269,-0.25943458,-0.046451986,-0.091669686,0.15403742,0.15066066,-0.21072169,0.053409114,-0.18006793,0.01588117,-0.12741198,-0.016662136,-0.124578476,0.18321161,-0.09641512,0.0948725,0.13509248,0.21975476,0.20154512,-0.15176237,-0.16242947,0.05595297,-0.013257368,0.10699881,-0.2806813,0.105730385,0.0103621725,0.016595244,-0.07927139,-0.2574118,-0.07106324,0.10160174,0.50959325,-0.09096722,-0.18137844,0.04288224,-0.11660632,0.2311967,-0.21684316,-0.021147281,-0.42059398,-0.12546444,-0.19382893,0.16675264,-0.18354614,0.11074716,0.16555107,-0.1851392,0.097244956,0.1843954,0.1468877,0.1775554,0.19063179,0.3911331,-0.08526436,0.15923305,0.124590956,0.22594284,-0.20175181,-0.17937435,-0.18704441,-0.11068151,0.1352386,-0.12326143,0.17817444,0.003752498,-0.043148253,-0.16556914,-0.12276573,-0.14516748,-0.14206833,0.24474485,0.13001835,-0.14502735,-0.23633063,0.11322374,0.19854777,0.23323788,0.23511043,-0.1856405,0.052837044,0.31406432,-0.21927474,-0.036160104,0.15678243,0.2802958,0.1333338,0.20951392,0.03837427,0.048284236,0.07735412,-0.092651986,-0.31465808,0.24481168,-0.020037828,-0.21344885,-0.1320944,0.28802258,-0.03809568,0.2754208,0.1064046,0.24770756,0.20495564,0.08552004,0.17802066,-0.011907686,0.05866754,-0.234329,0.1297942,-0.14346755,-0.039120916,-0.17538375,-0.1112359,-0.37950984,0.11682039,0.12749153,-0.15532649,-0.23864058,0.04910992,-0.17518066,-0.04669096,-0.107881,0.21395746,-0.22455978,0.060064826,-0.07809146,-0.290849,0.11673611,0.19878356,-0.011913887,0.083118476,0.17458169,0.019523732,-0.038623776,-0.14136732,-0.042794183,-0.45477125,-0.13666551,-0.06475404,-0.03726036,-0.011196996,-0.2157812,-0.19899191,0.11496302,-0.02922197,0.09898355,0.28110552,0.09476464,-0.17134412,-0.0351501,-0.10196491,0.15262912,-0.22441511,0.14313313,0.0096520865,0.027172897,-0.14398709,0.10564123,0.3325764,0.17094162,0.05936998,-0.15077007,0.3409077,-0.14735913,-0.015023962,-0.06996437,-0.06355982,0.1947843,-0.177171,-0.12858307,0.016003868,-0.062531665,-0.05870313,-0.2144721,0.14756754,-0.06343148,-0.0669884,0.038593154,-0.14627816,0.18221997,0.31293765,0.004684043,0.11211092,0.17446378,-0.040226385,-0.07629976,0.16690643,0.18853344,0.2824708,-0.09223421,-0.24493307,0.115142204,0.17110431,0.19833472,-0.15861976,0.19640918,0.055711757,-0.017637836,0.26472455,-0.15022717,-0.23899585,-0.20854852,-0.1380769,-0.17957881,-0.29259115,-0.18930866,-0.028734963,-0.06199598,0.15396321,0.59991556,-0.15226635,0.20791253,-0.06599068,-0.16842371,-0.24492365,0.012005885,-0.23280224,0.09994064,0.08864445,0.084134564,-0.19366722,-0.013987082,0.080135874,0.16495536,-0.20867038,0.22477682,0.26334986,0.103727184,0.16598302,0.012596147,0.10703597,0.1703752,0.13576026,0.043219384,0.14846255,0.13962339,-0.2353351,-0.05763863,-0.035532825,-0.10900838,-0.008816349,-0.12885457,0.20625374,-0.048364524,0.25519034,0.20259757,-0.1403342,-0.095942035,0.17927808,0.15053566,-0.11421116,0.13223073,0.16953239,-0.36660784,0.2988739,-0.25266913,-0.037987415,0.15605268,0.2614993,0.14484946,0.019515885,0.14269918,0.123038895,0.098335624,0.29673612,-0.18559219,0.115768485,0.1872932,0.014926791,-0.12165646,-0.023998845,0.07487765,0.0567275,0.08075013,0.17779417,-0.16817015,-0.15838507,-0.14864042,0.28319535,-0.09017409,0.03253734,-0.12823105,-0.05390807,-0.055965163,-0.25558776,-0.07429562,-0.22739321,-0.30014578,0.14898346,0.084634826,0.0018301138,-0.07128617,-0.09842247,0.25510234,0.19067523,0.24339433,0.06544764,0.12339767,-0.17465276,-0.11535849,-0.18034305,0.1356799,0.18630911,-0.10443416,0.18574718,0.077676855,-0.13191915,0.061694793,-0.026437258,-0.19661899,0.14924732,-0.10683287,-0.20431504,-0.17808925,0.09449656,-0.120689444,-0.01839724,-0.004260879,0.13723497,0.120024286,-0.07783597,0.03858311,0.084990196,-0.06309021,-0.26179463,0.0713529,-0.050236978,0.0069920723,-0.08064977,-0.113998935,-0.13288517,-0.09914193,0.13298723,0.10316388,0.1535635,-0.13357356,-0.16045216,0.15849599,0.21775736,0.08349421,0.06730509,-0.009752085,0.022543551,-0.07167538,0.24822386,-0.040093698,0.021825122,0.13148539,-0.15067364,-0.10518582,0.026690822,0.03591239,0.1306418,0.11559016,0.15359394,-0.21256272,0.18006636,0.055031076,0.25661382,0.1493847,0.20057991,0.22745225,-0.32706046,0.30458987,0.24858259,-0.23104714,-0.16676621,-0.08462225,-0.04034198,0.10741092,-0.23057613,0.28898638,0.22965631
f3_i5,0.24230577,-0.08116358,0.07383162,0.093134806,-0.025724377,0.29779887,-0.03222467,-0.42924666,0.16262533,0.11315341,-0.14634937,-0.12524447,-0.052411858,-0.061909776,0.24633318,-0.034897756,0.15503845,-0.24807833,0.095576905,-0.13985983,0.10664617,0.029864227,0.23933965,0.23745337,-0.16527547,-0.123320185,-0.2365843,-0.099574886,-0.17690386,-0.2735176,-0.25881326,-0.048963215,0.10452048,-0.121712394,-0.1190284,-0.24982421,-0.13638452,-0.028660862,0.21197471,-0.19069907,0.058555398,-0.044325244,0.18218142,0.15861756,0.13504505,0.16631517,-0.067788266,-0.042369608,0.1516946,-0.12743157,0.054123674,0.36570728,0.2572268,0.05217145,-0.22194457,-0.15769663,-0.26418307,-0.033572596,0.16529179,0.41257706,-0.12164477,-0.038893037,-0.022806656,-0.22138835,0.21542536,-0.0861358,0.12685563,-0.32602718,-0.07528903,0.04348719,0.13468881,-0.21579069,0.19920334,0.19017273,-0.27961287,0.12895386,0.20081589,0.19446205,0.1907836,0.2370506,0.3178036,0.05759831,0.12808315,0.010289393,0.51174366,0.14822513,-0.073378734,-0.06892848,-0.19351053,0.12803838,-0.12925993,0.16652921,-0.1361615,-0.06121967,-0.17093734,-0.17845453,-0.07538302,-0.21677771,0.041224416,0.22776699,-0.1333176,-0.07496949,0.00043488844,0.06548466,0.0396899,-0.07062589,-0.08169293,0.050838105,0.10380874,-0.088374175,-0.17953087,0.09702125,0.030053847,0.11831354,0.16947423,0.08345135,0.20345698,0.17809872,0.09745934,-0.22924271,0.2161738,-0.06821105,-0.16027837,0.14609927,0.25621277,-0.16633269,-0.04242997,0.18120107,0.14437173,0.044594765,0.09776906,0.06884982,-0.01522986,0.051890712,-0.25650728,0.13022271,-0.13365467,-0.275564,-0.23572098,-0.18661411,0.17536241,0.09489806,-0.07691005,-0.234677,-0.25593755,0.17633006,-0.057610977,-0.045509435,-0.25312182,0.21951406,-0.16425599,0.04809382,-0.0119701,-0.27719513,0.17161185,0.16013849,-0.072310224,0.06735585,0.20379208,-0.19774215,0.25020307,-0.3092077,0.18033418,-0.4787747,-0.04527754,0.11172856,-0.0063041155,-0.04520105,-0.18712762,-0.13749135,0.12170579,0.2002874,-0.055754937,0.12874605,0.29356766,0.031946436,-0.040359683,-0.32614318,0.13861758,-0.102060616,0.05446952,-0.11167973,0.06466589,-0.040719356,0.1063344,0.2771833,0.18335137,0.12553948,-0.121807516,-0.29702204,-0.17623018,-0.114726715,0.13138579,-0.23196454,0.25114262,-0.083093636,-0.02592513,0.04950558,0.08150699,0.08110494,-0.085276395,0.16811989,-0.16195385,-0.14623575,0.09926971,-0.14451365,0.099475175,0.24664323,0.15658455,0.07023384,0.31577715,-0.16996872,-0.055081617,0.1862449,0.1443236,0.31676456,-0.14707945,0.05430479,0.11074515,0.16808704,0.098444894,-0.20908749,0.19104451,-0.034611482,0.11922144,0.17818557,-0.12732567,-0.11556824,-0.279451,-0.15978123,-0.066844694,-0.15264653,-0.18133594,-0.02139798,0.039864045,0.14085004,0.29809844,-0.15206915,0.25423893,0.061461907,0.09185549,-0.17616223,0.13263895,0.19722575,0.11492899,0.08093295,0.033317834,-0.20569223,0.0004121189,0.16343583,0.1619422,-0.17579354,-0.033274505,0.20158893,0.096113674,0.12315612,0.11645826,0.050036922,0.18036053,0.10753041,-0.08498467,0.18878952,0.07412336,-0.11389737,-0.18540275,0.10193061,0.0042548077,0.0955908,-0.2316883,0.1276428,0.18279862,0.073324636,0.16069797,-0.12476512,-0.0059802206,-0.0077821086,-0.0068967966,-0.10768932,0.24941683,0.20219244,-0.36272857,0.22143683,-0.06573727,-0.29137644,0.106864996,0.073486544,0.2476484,0.17180566,0.026892053,-0.023645004,0.094946824,0.09505259,-0.14108264,0.1087617,0.12534183,-0.07892681,-0.18791649,-0.03535693,0.3687562,-0.04605621,0.012962209,0.25403598,-0.08004059,-0.03542717,-0.124363005,0.20283623,0.02918278,-0.08325814,0.10327671,-0.22677512,-0.08973167,-0.03796219,0.42514014,-0.05727734,-0.31023896,0.1175245,-0.06016506,-0.13072194,-0.13143915,-0.2545299,-0.120176315,0.04018347,0.1789438,-0.105801225,-0.07636733,-0.2693065,-0.09035445,-0.1081492,0.21200128,0.41813987,-0.24238372,0.17084737,0.110105924,-0.18901543,0.43815383,-0.02749885,-0.072091766,0.090406515,-0.13449709,-0.11254773,-0.09415766,0.22163983,-0.14686044,0.110355325,-0.13200706,0.1474273,0.08681951,0.37202513,-0.33987233,0.21673445,-0.026789458,-0.13257693,-0.016997665,-0.18659863,0.13901553,0.020095536,-0.10599033,-0.11827523,-0.14821467,0.060126994,0.09216016,0.17967796,-0.13280067,-0.15436427,-0.10144638,0.097794674,-0.24826555,0.034766734,-0.16011365,0.113940366,-0.15665346,0.14770494,-0.22298917,-0.21828322,0.16628724,-0.11225256,-0.26027763,0.20693691,-0.11280519,-0.018548762,0.23916121,0.1539247,-0.104780294,0.16780819,0.00241363,0.3260208,0.19231081,0.18509938,0.15515397,-0.10067087,0.3338432,0.13516572,-0.22938518,-0.21984608,-0.18272197,-0.1498866,0.1290267,-0.08861911,0.16847458,0.081554
f4_i1,0.16926122,-0.079614,0.11040747,0.11140859,0.19037908,0.12248633,-0.17568976,-0.30294728,0.14073974,0.15839028,-0.04841087,-0.24832353,-0.09132687,-0.29621562,0.15672982,-0.06907595,0.06272219,-0.32367662,0.10477739,-0.109077305,0.06320501,0.068179674,0.21377456,0.05013467,-0.23740727,-0.06733612,-0.16221909,-0.11673161,-0.10775491,-0.22781397,-0.10133372,0.14081168,0.14569505,-0.20327964,-0.090488896,-0.4412802,-0.05285507,-0.25201356,0.13685837,-0.22642884,0.16461878,-0.2606064,-0.21270238,0.09448236,0.16559072,0.26139644,-0.14464524,-0.013823217,0.16250783,-0.20732397,0.23966555,-0.04372999,0.27253583,0.15777214,0.021827163,-0.22723004,-0.14822926,-0.0103017865,0.08846313,0.22077122,-0.13165794,-0.20252384,0.016479678,-0.21626897,0.19909763,-0.11779849,0.004996474,0.34183893,-0.0127543155,-0.17770351,0.14626145,-0.15134922,0.18784642,0.2687062,-0.03331109,0.09801692,0.04302085,0.14637543,0.16758007,0.1244509,0.13723132,0.22702861,0.17336114,0.04260803,0.030682754,0.18679054,-0.16325699,-0.08296164,-0.19436425,0.18432572,-0.16422069,-0.008708739,-0.14802144,-0.08112021,-0.040291592,-0.055625807,-0.15823631,-0.04747638,0.08851157,0.05552177,-0.26474503,-0.24861535,0.0762287,0.14983077,0.17760389,-0.21189784,-0.16869943,0.16492255,0.28239718,-0.20024666,-0.22515766,0.24841624,0.14468682,0.07906244,0.11345893,0.007753503,0.18421023,0.11888801,0.04608783,-0.25070667,0.20880304,-0.11263215,-0.14384143,0.062224947,0.13944662,-0.11333439,-0.19833368,0.291881,-0.42406413,0.16819315,-0.08925155,0.056982476,0.28362754,0.14636737,-0.27204183,0.076153584,0.016479319,-0.23565596,-0.035949856,-0.25207135,0.2764198,0.20780489,-0.063791275,-0.20161515,-0.067344286,0.12371882,-0.085734054,-0.008933816,-0.021539165,0.17496556,-0.18500935,0.20806186,-0.11170705,-0.0865681,0.22298235,0.12813742,-0.054691143,0.035226792,-0.022946592,-0.20098256,0.37608585,-0.4023726,0.05383407,-0.30284235,-0.18812247,0.19434561,-0.039096124,0.08100413,-0.1626667,-0.23651603,0.07170353,0.039748345,-0.17461357,0.15226197,0.09389926,0.2256111,-0.12472459,-0.011740262,0.15877011,-0.12648816,0.17465322,0.010898816,0.5047821,-0.18655375,0.23590063,0.15347174,0.20766395,0.17828396,-0.112647295,0.3688132,-0.123263314,-0.290203,-0.23948961,-0.21798004,0.18114974,0.02455947,-0.2633563,0.26318866,0.16547684,0.21695264,0.18012747,0.23572199,-0.17691009,-0.07347385,0.088611454,-0.06867623,0.05449524,-0.02902784,0.07914451,0.11200948,-0.22598237,-0.0044893,0.023685522,0.17645648,0.16775785,-0.26446202,-0.12097042,-0.06688749,0.22282436,0.18070719,0.1614487,-0.12221428,0.08391495,0.023783205,-0.41936827,0.15224765,-0.1487325,0.0013064235,-0.056274228,-0.14151448,-0.13307105,-0.040711824,-0.13746849,-0.07113875,-0.22074899,0.16250145,0.0048845634,0.049617205,0.17035489,0.14610453,-0.112655975,-0.0145620275,0.18095511,-0.13721663,0.17907344,-0.018693019,-0.08064166,-0.18658057,0.22490656,0.11953308,0.02523366,-0.31974387,0.17811649,0.23982708,0.24695863,0.19677491,-0.085742004,0.1794499,0.18368793,0.29221022,0.066106394,0.1488338,0.030587634,0.04523108,-0.2217508,0.054163463,-0.1164007,-0.18131667,-0.17584626,0.11414212,0.20271239,0.038765043,0.09454955,0.022708349,-0.19089325,0.06260947,0.18558048,-0.028381012,0.2834099,0.21277753,-0.19889814,0.3316631,-0.08505162,-0.15579975,0.110517465,0.15060848,0.10469115,0.34002098,0.10093613,0.22386065,0.08512669,0.122981265,-0.146405,0.15747796,0.27868783,-0.16934767,-0.17228475,-0.14035451,0.17163564,0.033528216,0.0055242935,0.19010377,-0.075182565,-0.18096031,-0.041400563,0.046639636,-0.13232912,-0.0198384,0.17545696,-0.17601672,0.12579593,-0.094047815,0.13560331,-0.11962843,-0.012594638,0.110323526,-0.16055419,-0.19677521,-0.21677393,-0.23761617,-0.211856,0.1831387,0.19973083,-0.17925441,0.23030515,-0.17388485,-0.045012347,0.062111687,0.10653968,0.001086981,-0.19380555,0.079442844,-0.3115307,-0.1514448,0.019461969,-0.11085473,-0.32816327,0.16042452,-0.09658873,-0.27627212,-0.17262346,0.20308764,-0.15466796,-0.07193539,-0.16045842,0.20033705,0.07834367,-0.22380376,0.22413921,0.19077685,0.0976812,-0.12643479,0.30220294,-0.27191854,0.14280719,0.074201874,-0.046943933,-0.121579826,-0.18429376,0.0019027132,0.2612776,-0.043174956,-0.18103307,-0.22556119,0.1444813,0.0773416,-0.0696769,0.2871579,-0.14546321,0.19130646,-0.12812884,0.096299976,-0.20465532,-0.33671442,0.1453961,-0.18903117,-0.20125201,0.23919913,-0.24866997,0.12357821,0.12037613,0.16181765,0.038707763,0.010429684,0.028564963,0.14819266,0.0114135975,0.042421732,0.14064315,-0.14840691,-0.09967356,-0.080310814,-0.09940057,-0.14770636,-0.024693608,-0.08886741,0.037264332,0.053395204,0.065278344,0.071666785
f4_i2,0.26204005,0.19086441,0.08641408,0.1803177,0.100831196,0.0215071,-0.14996453,-0.23574103,0.07615557,0.18004629,-0.020444628,0.092775434,-0.105002895,0.043339085,-0.003411947,-0.09651858,0.18556756,-0.20867787,0.20782165,-0.18583852,0.14565079,0.09167983,0.21100268,0.20679188,-0.13432065,-0.25727856,-0.13593477,-0.04812531,-0.0836186,-0.019653091,-0.22560567,0.2200739,0.2693996,-0.39710313,-0.19317296,-0.17076391,-0.20758417,-0.03742842,0.103541926,-0.11768145,0.2067861,-0.27069247,0.20889916,0.28927013,0.18873064,-0.024498697,-0.20306784,-0.10723795,0.15616646,-0.13280606,0.15424657,0.061210636,0.19952513,0.15997328,-0.12547532,-0.0899988,0.0032138624,0.06813582,-0.15129092,0.2170014,-0.14765577,-0.14164029,0.15263163,-0.103253886,0.06808831,-0.18342796,-0.092168644,-0.12991779,-0.10340903,-0.42956185,0.12045812,-0.13610579,0.1629316,0.14805351,-0.22743276,0.13137405,0.18833351,0.27336177,0.03288529,0.10868729,0.1299202,0.024810152,0.15357253,0.23234315,-0.23562606,0.23195472,-0.19085754,-0.16855,-0.094999135,0.32803434,-0.1125964,0.20993158,-0.2070592,-0.18442252,-0.08844638,0.024913812,-0.28319147,-0.10945525,0.33310035,0.09588632,0.028730689,-0.14203337,0.1537041,0.17809205,0.19382267,-0.26980075,-0.19529332,0.11842408,0.1368675,-0.05513061,-0.07785755,0.08421746,0.10875495,0.11181519,0.14948711,0.123090394,0.32051137,0.1415771,0.08313247,-0.15387966,0.10638228,-0.11592691,-0.09991312,-0.44911617,0.17176,0.023997365,-0.012081764,0.1481766,-0.07863646,0.09591971,0.2801211,0.2053454,0.37446606,0.0827997,-0.052984368,0.19868888,-0.015665928,-0.19087705,-0.010118485,-0.13229364,0.14481619,0.004799129,0.14770542,-0.041040603,-0.16624443,0.2175625,0.028614242,-0.29698038,-0.04631778,0.058792386,-0.06596944,0.15917183,-0.14264908,-0.25260484,0.17666832,0.14894229,-0.14825372,0.11975113,0.086847395,-0.11298887,-0.2849283,-0.033868253,0.11722428,-0.1939822,-0.14301325,0.052075792,-0.23591006,-0.028007029,-0.107328,-0.16989118,0.108524516,0.25614622,-0.12092704,0.05971689,0.12534039,0.11052018,-0.23169938,-0.37838987,0.11261634,-0.20868622,0.10862304,-0.12178107,0.13817301,-0.11368294,0.09936869,0.04968141,0.23555991,0.08826582,-0.19944564,0.015078211,-0.13065785,-0.0129490625,-0.0032789686,-0.24987862,0.14246373,-0.020907655,-0.39446718,0.14127028,0.11778836,-0.008535792,0.10673737,0.10172931,-0.32949293,-0.24906673,0.14172506,-0.06186895,0.043354694,-0.087114766,0.22832744,0.1354603,0.006506078,-0.30908173,0.079650514,0.17618482,0.2399862,-0.12218024,-0.022588255,-0.15621068,0.14093289,0.03661882,0.094754934,-0.13898802,-0.052178673,-0.13886753,0.4566581,-0.03748643,-0.12884572,-0.25058165,-0.11981398,-0.14588836,-0.10564151,-0.12173748,0.057562303,0.013679201,-0.04691045,0.15221086,0.091905035,-0.19050395,0.21843614,0.25458372,0.036554452,-0.07237721,0.20659317,0.16828075,0.15513179,0.08418682,-0.16300571,-0.1228026,-0.079256564,0.03555004,0.1648576,-0.12071966,-0.08801795,0.047266982,0.11837468,0.116218336,0.11983688,0.07169508,0.18628833,0.23792312,0.11855861,0.07011592,0.14047664,-0.033515982,-0.3172196,0.064560235,-0.13368428,0.04826125,0.0058929385,0.22175223,0.038960624,0.023323543,-0.015665088,0.12074907,-0.07167212,0.18590242,0.2335404,0.03281486,0.092498384,0.05403565,-0.03900629,0.3153832,-0.043523856,-0.19167136,0.15510939,0.13075598,0.0489741,0.3178639,0.14908211,0.0922348,0.16777147,-0.034218214,-0.1275121,0.35081762,0.08787147,-0.17001079,-0.0879215,-0.121938296,-0.05895153,0.22253753,0.16938768,0.2179981,-0.07962008,0.0028314507,-0.06482674,-0.14220631,-0.1393073,-0.16699728,0.50135976,-0.10495574,-0.10459197,0.012569282,-0.00837998,-0.27191976,-0.26622906,0.2004325,-0.15775903,-0.15326178,-0.24535044,-0.12491506,-0.18311226,0.13931985,0.09145692,-0.14898917,0.16717637,-0.23648766,-0.13155538,-0.2356889,0.1018834,0.19699018,-0.13800482,-0.040024374,-0.46788266,-0.1603762,0.0132661415,-0.037120577,-0.28869292,0.13892336,-0.1513797,-0.27602682,-0.0097937975,0.23921704,-0.07736625,-0.26010242,-0.17196631,-0.0003672936,0.25548005,-0.15422887,0.32084748,0.027306939,0.10576633,-0.03389292,0.30924338,-0.18190548,0.15457383,0.11499785,-0.12980579,-0.10311877,-0.1115931,0.047211118,0.39213008,0.19337143,-0.11542487,0.07190204,-0.17161368,0.1267817,-0.13260514,0.22358456,-0.20675525,0.0043993257,0.0052847783,0.012520069,-0.114284135,-0.09851353,0.05313266,-0.07444893,-0.10323199,0.071370654,-0.1548173,0.25366592,0.18949395,0.04315297,-0.039000563,0.14827988,-0.32134947,0.3023159,-0.09059985,0.1587189,0.11625263,-0.100346655,0.20654863,0.13943298,-0.19945602,-0.185711,-0.094751954,-0.22562128,0.0011751642,-0.21266738,0.027810529,0.11426193
f4_i3,0.14477727,-0.0062571424,0.14341944,0.12875734,0.30392402,-0.1492882,-0.08388568,-0.10174754,0.047623407,-0.038994092,-0.07676413,-0.16701514,-0.23536304,-0.5391181,0.17812438,0.26847595,0.1483391,-0.12411526,0.22406247,-0.051308498,0.12912458,0.22080006,0.09606808,0.23795655,-0.19853966,-0.011512601,-6.873795e-05,-0.12936915,-0.261711,-0.1855512,-0.06982756,0.052022036,0.1334778,-0.16052191,-0.18312658,-0.21905676,-0.08131652,-0.10063869,0.13776323,-0.18892944,0.23548405,-0.1480416,-0.09050024,0.17668936,0.16850092,0.091848426,-0.16530062,-0.06836072,0.1524239,-0.10075157,-0.1285559,0.17043808,0.13392733,0.084263586,0.03853003,-0.19268811,-0.12807253,-0.059682883,-0.05598432,-0.17530145,-0.13990892,-0.052964427,0.21124569,-0.18579054,0.26646018,-0.15076074,-0.049128193,0.2802133,-0.17704843,0.29993036,0.08320648,-0.08372145,0.12899882,0.17750163,-0.14898542,0.0834023,0.13602054,0.15818377,0.21580565,0.09295276,0.22602494,-0.08327748,0.09730839,0.09552834,0.40298963,0.08039489,-0.082589485,-0.19227599,-0.07319265,0.22670226,-0.16172744,0.080378965,-0.08352498,-0.1813713,-0.06403878,-0.03558785,-0.07513213,-0.24179235,0.25893962,0.18010573,-0.1336122,-0.2031256,0.055695456,0.10624015,0.28882468,-0.29644567,-0.0514042,0.19875263,0.04989214,-0.03583735,-0.137548,0.09985648,-0.11414477,0.055467628,0.20251782,0.09818887,0.2824309,0.18812317,-0.22252813,-0.2360966,0.16769749,-0.086213775,-0.22569254,-0.21664931,0.026335746,-0.17035164,0.26117492,0.1362552,-0.20769694,0.08307872,0.051539395,0.13757564,0.009371379,0.08182396,-0.25006828,0.1215358,0.034814402,-0.30935723,-0.049850438,-0.1896739,-0.025009189,0.08494285,0.20000233,-0.23821928,-0.14197716,0.1864168,-0.1953762,-0.11969244,-0.19766906,0.16202988,-0.01665144,0.12974465,-0.1470219,0.035976868,0.044873238,0.2181074,-0.02537054,0.17556335,0.21792622,0.056587283,-0.014461508,-0.45944464,-0.040655117,-0.47782913,-0.1000618,0.010042495,-0.003018719,0.095953695,-0.14346632,-0.14777578,0.108987994,0.13759403,-0.18625182,0.22173996,0.4326854,0.21911153,-0.23369803,-0.019308599,0.15570012,-0.18697178,0.15985626,-0.18921717,-0.090121135,-0.1474391,0.15104489,0.138216,0.18986042,0.21732791,-0.11045315,-0.028792003,-0.12562802,0.009588196,0.16816424,-0.12846717,0.11211181,-0.19506004,-0.09608069,0.32351428,0.14405037,0.24532627,0.08392531,0.061403215,-0.14847231,0.08610609,-0.08761394,-0.068394646,0.080394626,0.16638295,0.11063772,0.24939957,0.4842488,0.02909637,0.1367914,-0.016045893,0.099011734,0.1284277,-0.04964928,-0.1593595,0.17262127,0.15837209,0.14192855,-0.045176353,0.09908764,-0.08009276,-0.01874963,0.13234928,-0.13932428,-0.19385427,-0.09976286,-0.13103035,-0.21484889,-0.065772034,-0.15507482,0.016430112,-0.10275985,0.10207351,0.4147397,-0.21972242,0.23688349,0.22189543,-0.03498202,-0.19383647,-0.08204444,-0.15019631,0.122524776,0.078775324,-0.051035065,-0.24856055,0.066598706,0.14601947,0.13900281,-0.21790518,0.1754261,0.32336482,0.2583916,0.17745076,0.3583632,0.20223972,0.15865594,0.27349266,-0.30564058,0.249876,0.13655515,-0.05346956,0.0062532993,0.22802843,-0.18897004,-0.12353346,-0.06330233,0.13679065,0.27364746,0.11473366,0.030697197,-0.102460355,-0.039933186,0.15938269,0.23000896,-0.021125574,-0.07519568,0.042933963,-0.18649419,0.3738546,-0.25000986,-0.26840603,0.04646964,0.2565573,0.14161022,0.06486505,0.09598824,0.12379302,0.17064922,0.1310747,-0.22596033,0.10390379,0.23600708,-0.25626004,-0.18247674,-0.11182925,0.012443687,-0.010371532,0.18881513,0.13421671,-0.19477566,-0.055667736,-0.06391232,-0.087594345,0.063238226,-0.09774722,-0.050343256,-0.166531,-0.26768374,0.11066523,0.307902,0.007538828,-0.049181473,-0.05478994,-0.08253286,-0.22519125,-0.1804749,-0.15688989,0.1400143,0.13677013,0.16013245,-0.20099314,0.32873493,-0.10322681,-0.014500141,-0.20285842,0.0766434,0.03607159,-0.20108877,0.12678893,0.03926221,-0.16938224,0.0066699935,-0.11170466,-0.16344866,0.055510335,-0.18222098,-0.09844864,-0.13458359,0.20463362,-0.03161614,-0.003508023,-0.3108409,0.34623146,0.062201496,-0.101685464,-0.20372744,0.19131233,0.09492764,-0.2835232,0.022009587,-0.28839186,0.11269698,-0.09187631,-0.14063302,-0.0815251,-0.070358746,0.09102864,0.026520608,0.23414735,-0.10104373,-0.20285161,-0.042196956,0.16395395,-0.05849022,0.30579233,-0.11095088,0.09121498,-0.1680845,0.14224593,-0.10628777,-0.10417966,0.053665068,-0.21690634,-0.24863753,0.1678661,-0.2976698,0.10962306,0.18043621,-0.009560837,-0.30533224,0.2238256,-0.1501252,0.31978118,0.0074351635,0.041570775,0.12989196,-0.028159149,-0.036581133,0.04237178,-0.16076712,-0.17341088,0.08973551,-0.10196073,0.13472246,0.049395654,0.12056706,0.180143
f4_i4,-0.028940404,0.16316533,0.053788994,0.18475065,0.10436454,0.3103141,-0.075583406,-0.07589011,0.11252954,-0.0117059015,-0.2566816,-0.16265498,-0.124428555,-0.12769577,0.26544693,0.19238289,0.1993979,-0.06628873,0.23942989,-0.040253613,0.14715135,0.22402704,0.11984206,0.21428965,-0.22936568,0.16406547,0.1479652,-0.0030409787,-0.018859357,0.024836902,-0.061035518,0.06573804,0.074959956,-0.28298593,-0.2090287,0.21967077,-0.12714416,-0.07741547,0.047401484,-0.19437213,0.09954168,-0.09788497,0.22158274,0.15324986,0.22832805,0.024840208,-0.16798754,-0.17605177,0.12782934,-0.06186355,0.18006761,-0.18487334,-0.010623006,0.20957218,-0.07316963,-0.07829791,-0.327169,-0.33280626,0.1786088,-0.029301316,-0.07336373,-0.1165585,0.21635504,-0.2571184,0.12464788,-0.15154782,-0.22327553,0.17705317,-0.20074533,0.23594922,0.09744472,-0.1505851,0.025775138,0.131035,0.019904274,0.12884302,0.15253228,0.13939917,0.15432924,0.19295803,0.22358456,0.1175626,0.13535447,0.20887998,-0.15142447,0.34446186,-0.18118088,0.027284825,-0.14713115,0.1744428,-0.22764933,0.25402865,-0.04433385,-0.13096769,-0.17913547,-0.053157832,-0.06720517,-0.19851884,0.13428189,0.17462438,-0.2484088,-0.07601982,0.18081973,0.021521896,0.10829298,-0.14826834,-0.0669347,0.08220636,0.06257436,-0.18461704,-0.13917048,0.20763499,-0.07487634,0.07840722,0.11571015,0.27292997,0.24780379,0.04113437,-0.24362959,-0.2689977,0.14438227,-0.18118425,-0.19887048,-0.18578297,0.2585488,-0.15297721,-0.07014977,0.12825854,-0.05321847,0.14379291,-0.10247276,0.16675203,0.38860807,0.14135766,-0.1712026,0.15907599,-0.22644284,-0.27570882,-0.07986724,-0.23362534,0.35219646,0.10532067,0.23823638,-0.18219787,-0.15479834,0.22129303,-0.059799876,0.008797357,-0.20060712,-0.030332867,-0.09735396,0.21782841,-0.1464472,0.1491647,0.1183039,0.1181172,-0.1370977,0.02020678,-0.08460278,-0.13895994,0.010840318,-0.36596537,0.08629762,-0.20636414,-0.22736903,0.14508352,-0.1275193,-0.028430583,-0.18129781,-0.05836434,0.1507396,0.0963561,0.12522392,0.12915745,0.07262769,0.19049764,-0.20780896,-0.15383801,0.28881136,-0.068916254,0.1481037,-0.05635643,0.32608673,-0.23910652,0.11337465,0.25122574,0.12987727,0.24188007,-0.12899904,-0.0799946,-0.22267945,0.16288139,-0.07545879,-0.12968163,0.12312667,-0.07086706,-0.1482203,0.17190465,0.14359175,0.09827857,0.3144861,0.098875776,-0.2896035,-0.28614762,0.1526541,-0.06372637,0.12803596,-0.053783234,0.26725486,0.14583272,0.05303969,-0.19723846,-0.08262892,0.1532634,0.10545938,-0.26259696,-0.07177175,-0.26615217,0.19344607,0.20972131,0.24659978,-0.047293827,0.10899218,-0.09016868,0.01642033,0.15085322,-0.19910781,-0.24155037,0.011222302,-0.11954721,-0.11772674,-0.14058535,-0.32489023,-0.04227848,-0.0839249,0.14598955,0.121341236,-0.20668687,0.25015566,0.25831926,0.10208654,-0.17239857,0.2401682,-0.072197355,0.10863364,0.040387828,0.14595675,-0.008651495,0.1723854,0.17340414,0.02866918,0.020844243,0.29943967,0.21440977,0.11555039,0.07697385,0.2105829,-0.0079690255,0.046029516,-0.24403986,0.059919864,0.11896206,0.14114892,-0.062301192,-0.35325837,0.081865504,-0.28600407,0.27695516,-0.06715301,0.07226457,0.13622354,0.20209517,0.12198263,-0.20992567,-0.24964145,0.09568078,0.16739796,-0.2525666,0.3368174,0.11772272,-0.44119367,0.26634565,-0.078799926,-0.05103442,0.07253409,0.107053556,0.16593531,0.38346586,0.13697639,0.10129343,0.059966214,-0.100128785,-0.10487536,0.0484547,0.16587147,-0.28464276,-0.14917198,-0.09474719,0.10334018,0.0067677875,0.14431635,0.14726068,-0.19865377,0.1005424,-0.048350476,-0.16952582,-0.24304491,-0.19723745,-0.3020646,-0.24985051,-0.27268666,-0.060665395,-0.08234654,-0.12375584,0.16579708,-0.032724936,-0.17750475,-0.3868006,-0.2064315,-0.10986864,-0.27554327,0.021479702,0.14988351,-0.1421536,0.18247527,-0.13206297,-0.15730424,-0.10240492,0.2483062,-0.01263925,-0.09824295,0.16872501,0.12043086,-0.15878269,-0.075069495,-0.19258286,-0.28635982,0.17037047,-0.12227416,-0.106620416,-0.06040659,0.24457587,-0.16755226,0.14927071,-0.34959283,0.025341425,0.06121265,-0.20511404,-0.13386293,0.1406886,0.152673,0.005275313,0.08957488,-0.19890322,0.19099139,0.17663111,-0.12642328,-0.32851815,-0.100180365,0.0050455485,0.0048333043,-0.019940423,-0.1810075,-0.33624375,0.039019883,0.078759655,0.07899487,0.17561178,-0.21500553,-0.019256316,-0.2019187,0.14828962,-0.14849776,-0.42908162,0.14755608,-0.11663223,-0.22392912,0.15455447,-0.012187914,0.058298316,0.13841014,0.050370563,-0.21609533,0.14344858,-0.19227816,0.5848427,0.07218292,0.08918352,0.2613634,-0.24978687,0.22273476,0.071420886,-0.13438192,-0.25742856,0.13426673,-0.08168709,0.13088588,-0.064414315,0.18392818,-0.021190481
f4_i5,0.20374355,-0.16956402,0.10657553,0.16441548,0.2704612,-0.28889012,-0.2231686,-0.34970492,0.046647236,0.20612314,-0.09966624,-0.022586595,-0.21646284,-0.18977621,-0.21430063,0.2202471,0.17292632,-0.14773738,0.18261816,-0.31423822,0.14180888,0.070410036,0.093742445,0.14896452,-0.01272604,-0.24264549,-0.043834172,-0.08248469,0.015327302,-0.099401355,-0.19007166,0.0778074,-0.0641053,-0.28636864,-0.18768977,-0.0088716,-0.13158289,-0.055929482,0.23795295,-0.0934735,0.12224254,-0.20366566,-0.018151397,0.17993917,0.20702471,0.13444291,-0.18289343,-0.16011332,0.15224989,-0.1730498,-0.096853256,0.1609088,0.1328199,0.22412091,-0.25868735,-0.1663852,-0.314781,-0.11179896,0.0069015766,0.47534773,-0.20090912,-0.1396695,-0.018792829,-0.1320381,0.16463566,-0.069121644,-0.32501942,0.37800515,-0.054396883,0.23139618,0.04310114,-0.22422658,0.14672352,0.11065747,-0.024823433,0.16504216,0.0014621976,0.09146703,0.1975868,0.17297217,0.25936383,0.17291477,0.20676962,0.061489843,0.4153764,-0.1441969,-0.15686864,-0.018589377,-0.23872712,0.139651,-0.21178815,0.15811831,-0.17643173,-0.10528809,-0.025364023,-0.07491951,-0.30233872,-0.18160158,0.06933934,0.085783206,-0.014614159,-0.16730556,0.056585822,0.15789758,0.049074426,0.19996256,-0.00325802,0.05495872,0.14114337,-0.047276292,-0.08891661,0.13978434,0.13117008,0.23339643,0.0047494103,0.07559527,0.26820418,0.16070314,0.045228597,-0.34918955,0.03516163,-0.038236912,-0.15323822,-0.2908061,0.3341638,-0.08149115,0.048147555,0.15488604,0.025470993,0.15446319,0.19819872,0.107329674,0.45464414,0.22028558,-0.2592473,0.14544132,-0.1289004,-0.050029594,-0.084007226,-0.15134306,0.2698485,0.20943005,0.06982131,-0.07272147,-0.2209669,0.16426024,-0.03204847,-0.21047881,-0.06517861,-0.060069516,-0.041923545,0.15432255,-0.14230108,-0.23068781,0.17359269,0.15361176,-0.16486347,0.16752183,0.064396195,-0.25338143,0.11121601,-0.13606206,0.07758242,-0.30153516,-0.085848846,0.17323126,-0.087858655,0.16327304,-0.1340974,-0.2942885,0.20904931,0.23120323,-0.209694,0.25820398,0.09218684,0.06280473,-0.07365775,-0.27756986,0.1748055,-0.09478428,0.20014861,-0.2235515,0.3128548,-0.06777823,0.18337144,0.091971815,0.22939494,0.13817179,-0.09681883,0.10449255,-0.075868554,0.12114281,0.05336472,-0.065663375,0.16221856,0.08621431,-0.23802194,0.08528617,0.12630215,0.20499429,-0.059902664,0.18027143,-0.16655326,0.09277681,0.14356996,-0.07883684,0.17570901,0.0130955,0.17481475,0.01946918,-0.21267672,-0.2086999,0.04954508,0.19323948,0.24301673,0.092191406,-0.24756764,-0.16019875,0.13911837,0.17263904,0.103674576,-0.10598726,0.07568225,-0.11398327,-0.33318356,0.07141922,-0.050661974,-0.09483213,-0.24814273,-0.11561992,-0.2203378,-0.12735711,-0.13003595,0.04738082,-0.004379802,0.1409401,0.5341747,-0.2301184,0.16109978,0.25621662,0.25889024,-0.12209983,0.042388983,-0.002625971,0.14801657,0.17512113,0.01736297,-0.20908019,0.06897555,0.041862417,0.16612852,-0.23893043,0.2506584,0.15436599,0.119518116,0.20802632,-0.011400586,0.22564434,0.22597392,0.25410998,-0.06313107,0.060712595,0.12713908,-0.1524795,-0.29130644,0.04433553,-0.20681885,0.25162947,-0.043341618,0.113408834,0.12825416,-0.057656493,0.13918453,0.07098886,-0.20141977,0.06922355,0.2090739,-0.21688914,0.39354643,0.2216321,-0.30312568,0.1349487,0.024951179,-0.1908335,0.12019198,0.17818652,0.22921099,0.070657186,0.057874534,0.1494425,0.13745378,0.2414237,-0.12442766,0.21353553,0.052944828,-0.17239138,-0.10317124,-0.13751219,0.17939459,0.16881424,0.06930084,0.04886312,-0.2155771,-0.061219536,-0.065542795,0.20310387,-0.3050884,-0.16605517,0.17558537,-0.19078419,-0.03821246,-0.4092066,0.09534148,-0.0044928486,-0.14040166,0.21101241,-0.04525717,-0.11344152,0.011858044,-0.18290117,-0.20662254,0.17891696,0.087096386,-0.09818793,0.10536819,-0.15683725,-0.18755879,-0.031946734,0.17516164,0.1485697,-0.07522032,0.20324168,-0.29476717,-0.09493993,0.30451882,-0.10457775,-0.11133936,0.24255827,-0.08066975,-0.1465678,-0.22395211,0.1947899,-0.17761981,-0.122296855,-0.09904843,-0.040766187,0.21038066,-0.29677686,-0.062281758,0.22586425,0.12642331,0.051863726,0.15699127,-0.114430584,0.14300115,0.04425692,-0.077675655,-0.051701877,-0.12970331,0.22056268,0.21080066,0.084548235,-0.14112075,-0.21905935,-0.09349901,0.09394035,-0.12957536,-0.026958747,-0.24299413,0.11354995,0.04340338,0.19882768,-0.11275419,0.027313426,0.1383502,-0.22139625,-0.27099353,0.1596892,-0.22005534,0.035929956,0.09453995,0.101218715,0.2311082,0.22288093,0.014088829,0.13104032,-0.113805264,0.19484985,0.19873537,-0.032445427,0.02908691,0.22413176,-0.2183451,-0.063075416,-0.13231273,-0.21597914,0.03256961,-0.074623056,0.14556979,0.253331
f5_i1,0.19458643,-0.19896428,0.096686,0.12085815,-0.09943667,0.15131228,0.08727127,0.16734707,-0.30030563,-0.25837913,0.07402988,-0.1174245,0.09222843,0.18301682,0.11413917,-0.09197057,0.21483555,0.19030386,0.26219139,-0.047533695,-0.1976024,-0.16097926,-0.269542,-0.3256101,-0.11897571,-0.19446237,-0.13042471,-0.14962831,-0.15867686,0.12724973,0.07190081,0.18414433,0.23116529,-0.12859392,0.11838273,-0.18034619,-0.17433771,-0.13425827,0.13573839,0.24330613,-0.079405084,0.19694859,0.17199141,0.18139039,0.17074755,0.05851691,0.22437721,-0.13895641,0.14939888,0.1901536,-0.15634714,-0.09568326,0.11081121,0.1193424,0.2878922,-0.15903215,-0.082472794,-0.15196075,0.23838188,0.39497966,-0.037812505,0.06635244,0.19187024,-0.04844178,0.085594945,-0.11500434,-0.19657984,-0.025213983,-0.26916012,-0.21458785,0.29524115,-0.07949083,-0.18070506,0.21454681,-0.038476028,0.12081336,0.25342125,0.22026907,-0.28819695,0.09441828,-0.18524733,-0.09598265,-0.031752598,0.03241155,0.4843542,0.31742442,-0.17863223,-0.18192352,-0.087364286,0.016780116,-0.14325629,0.33719182,0.08104244,-0.093477145,-0.25489777,-0.1749812,0.08917481,0.22161096,-0.075571254,0.10656613,-0.27391666,0.04521577,-0.095711865,0.10416266,0.1878309,0.3759555,-0.16840361,0.11307868,0.044948597,-0.12853016,0.1354544,-0.08004492,0.19768909,0.00020765986,-0.11588284,0.20006454,0.19708219,-0.021204619,-0.2893429,0.57628554,-0.27368677,-0.160781,0.20612986,-0.07719573,-0.15541112,0.19439091,0.20150128,0.049412023,0.062264655,-0.0049811834,0.20214239,-0.08538918,-0.2838433,-0.096398346,-0.02826656,-0.17894712,0.008234962,0.07743753,-0.09012562,-0.03110183,-0.20695174,0.14883113,0.23905127,-0.18599953,-0.008426475,0.18191755,-0.1983528,-0.2322854,0.21719979,-0.21106662,0.043620575,-0.09262274,0.17483145,0.11695761,0.22484553,0.11784408,-0.20114006,0.202714,0.21590328,-0.22383648,-0.09072415,0.16791125,0.109966554,-0.32973197,-0.19318382,0.11927429,-0.14233133,0.015782755,-0.15479235,-0.23376797,-0.20649697,-0.1295987,0.3325078,-0.10882188,0.32201624,0.0991805,0.2599476,0.16273646,0.19891404,-0.24281333,0.04819266,-0.26244783,0.1142269,-0.05170826,0.11439682,0.020367606,0.10012621,0.029043885,-0.11441833,-0.022298561,0.012379593,0.30094713,0.18160981,0.09498558,0.20994548,-0.16795965,-0.17362575,0.1579786,-0.030662311,-0.06524356,-0.07294833,0.08547458,-0.2538786,-0.014504318,-0.06568406,-0.16134438,0.2413343,0.051568367,0.061133146,0.05453096,0.24764796,0.22771117,0.051813666,0.14815962,0.2266548,0.114398405,-0.30809328,-0.12067293,0.24033198,0.14297417,-0.028500887,-0.1915246,0.033821255,-0.22560626,0.01970335,0.18230301,-0.235917,0.18000644,-0.23242007,-0.17031313,-0.09262513,-0.17045604,-0.18326506,-0.12438493,-0.13657314,0.20336387,0.36421564,-0.070032,0.14257409,0.2501954,0.17698161,0.026516771,0.18206352,0.07823148,0.068605796,0.14940241,0.1868324,0.10802748,-0.19831805,0.20886928,-0.027293408,0.10534969,-0.22529547,-0.08733827,0.22018795,0.21227598,-0.06838216,0.28652966,0.09157187,0.048285738,0.063564695,0.21492454,-0.023185506,-0.2593675,-0.33861345,0.22533399,-0.046257723,0.07914075,-0.13034151,0.20964071,-0.13898781,0.0730656,0.17682098,0.008481914,-0.20449182,0.17163585,-0.16209154,0.1269121,0.19505797,0.32510325,-0.12296904,-0.16349325,-0.14274074,0.0859064,-0.07832614,-0.19713792,-0.12555875,-0.15612231,0.21731724,-0.29951972,0.18046916,-0.14442284,-0.1962217,0.12268747,0.042675138,-0.057373583,-0.24744801,-0.26980057,0.26394418,-0.15066613,-0.07476044,0.26397872,-0.22169939,-0.18249825,0.22831608,0.07024011,-0.11942526,0.15550035,0.13237114,-0.17275518,-0.21670307,-0.084394984,0.14254653,-0.11424863,-0.16203287,0.15601932,0.15234526,-0.19419853,-0.12883058,-0.571191,0.18874796,-0.11280228,0.11630163,0.05040385,-0.29606384,-0.11832205,0.012347202,0.047971696,0.16689204,0.1583185,-0.12150567,0.123892725,-0.027118482,-0.11798272,0.04819901,-0.29419652,-0.10328981,0.30435625,0.13457674,-0.25606272,-0.08135961,-0.05961467,-0.0033928263,0.11200481,0.1440048,0.12387995,0.14837295,0.11057835,0.013587332,0.07120171,0.11211624,-0.18741028,0.17291693,0.060722206,0.041685563,0.21340428,0.16113773,-0.15187718,-0.13349172,-0.1489655,-0.33904144,-0.010561551,-0.07950443,-0.0054408535,-0.07169887,-0.047353745,0.09012976,0.059008148,0.06274584,0.08284822,-0.108468056,0.10432151,-0.25449038,-0.10502126,-0.17150068,-0.1930321,0.0124471085,0.19323486,-0.15939103,0.020717213,0.15686499,0.17453855,-0.050391395,0.17239107,-0.12931705,0.2512861,0.14579691,0.27619556,0.10382262,-0.15073265,0.17075162,0.26406133,-0.19887885,-0.16413334,0.07200197,-0.23335592,0.06333449,0.17916432,0.30366215,0.11517265
