problem,p_0,p_1,p_2,p_3,p_4,p_5,p_6,p_7,p_8,p_9,p_10,p_11,p_12,p_13,p_14,p_15,p_16,p_17,p_18,p_19,p_20,p_21,p_22,p_23,p_24,p_25,p_26,p_27,p_28,p_29,p_30,p_31,p_32,p_33,p_34,p_35,p_36,p_37,p_38,p_39,p_40,p_41,p_42,p_43,p_44,p_45,p_46,p_47,p_48,p_49,p_50,p_51,p_52,p_53,p_54,p_55,p_56,p_57,p_58,p_59,p_60,p_61,p_62,p_63,p_64,p_65,p_66,p_67,p_68,p_69,p_70,p_71,p_72,p_73,p_74,p_75,p_76,p_77,p_78,p_79,p_80,p_81,p_82,p_83,p_84,p_85,p_86,p_87,p_88,p_89,p_90,p_91,p_92,p_93,p_94,p_95,p_96,p_97,p_98,p_99
f1_i1,0.15667787,-0.08334676,0.23580389,-0.24437852,-0.24212806,0.25860775,-0.15183178,-0.17753716,0.15637968,-0.25157964,0.17221391,-0.29182127,0.27877825,-0.2658792,0.14761873,-0.17896602,-0.3095791,0.2740644,0.045816015,0.13050754,-0.1959051,-0.2336816,-0.2437307,0.20897785,-0.2540636,0.18987009,0.31255165,0.14624283,0.27582192,0.18633923,0.16247174,-0.21358311,0.24878411,0.25432518,0.20228224,0.15069664,0.30730432,0.14420825,0.29101023,-0.19264984,-0.18499793,0.27553257,0.20984033,-0.12845917,0.14815283,0.25988394,0.10163041,0.25219586,-0.20724337,0.170383,-0.18548907,0.2583152,0.14069323,0.00594371,0.07095603,0.07752982,-0.10174141,-0.18236792,-0.16735466,-0.052446708,0.104076214,0.25109792,-0.16381499,-0.0956067,-0.15398993,-0.1698857,-0.2128475,0.0653877,-0.20685649,0.17343663,0.11531903,0.13091329,-0.14611648,-0.22018275,-0.20046,0.25270465,0.14619082,-0.13060196,-0.117094524,0.20225506,0.06688696,-0.1027592,0.17327029,-0.26282293,0.043399915,-0.23289104,-0.16659646,0.08022143,-0.19182676,-0.22189604,-0.17180833,0.16713285,0.21099578,0.04857434,0.22948366,-0.20134507,-0.2742404,0.24139065,0.25828007,0.21025123
f1_i2,0.21122275,-0.13717557,0.24327753,-0.2791551,-0.18461606,0.23515995,-0.27777192,-0.27240035,0.23303922,-0.11441988,0.12083643,-0.28051186,0.18084389,-0.16504574,0.1628602,-0.3019051,-0.20973794,0.17352705,-0.15385553,0.10867721,-0.18673664,-0.13083008,-0.3262063,0.07054838,-0.1477614,0.2448277,0.14592604,0.22162326,0.08712581,0.14034878,0.14601481,-0.2977336,0.22868069,0.19438364,0.25974697,0.16550778,0.2176596,-0.018553652,0.24400751,-0.24498983,-0.12951152,0.27213648,0.22398801,-0.17768061,0.19353634,0.27755648,0.23105697,0.15655091,-0.20761363,0.06740086,-0.1891481,0.24941084,0.13470544,0.1940636,0.23684403,0.1414123,-0.14396252,-0.12588212,-0.101370476,-0.04982704,0.17956646,0.20617476,-0.26493043,-0.19863743,-0.25613102,-0.06467466,-0.11228549,0.09129893,-0.24109699,0.2037242,0.24460639,0.26315263,-0.19249187,-0.29286775,-0.23739626,0.19713143,0.25078687,-0.20111987,-0.1835428,0.23093358,0.00083274156,-0.16093335,-0.16362628,-0.21709554,0.21243353,-0.12476759,-0.24460594,0.3040468,-0.12743905,-0.031472992,-0.1079754,0.15878218,0.05164975,0.11134315,0.2130588,-0.17838164,-0.30177227,0.29070255,0.06089797,0.18722054
f1_i3,0.20510507,-0.14241877,0.15585248,-0.21201093,-0.20912579,0.21909037,-0.30909762,-0.22418122,0.2099093,-0.23262592,0.1278712,-0.2999604,0.18405338,-0.1623853,0.21701182,-0.2415422,-0.20682685,0.25557438,0.1505061,0.25278413,-0.15615971,-0.25074401,-0.21774378,0.26432493,-0.25964463,0.28911692,0.15697517,0.18615574,0.17898515,0.20204559,0.25891253,-0.23155572,0.18777518,0.17368452,0.21754602,0.2518861,0.23371354,0.12435382,0.17733066,-0.19326177,-0.14257032,0.21618633,0.27207637,-0.13288553,0.14620982,0.19841483,0.095796525,0.05860243,-0.21506001,0.2961184,-0.17039615,0.21161263,0.022681471,0.2622087,0.17388211,0.15159285,-0.14301892,-0.2406477,-0.23215234,-0.038740788,0.15970254,0.21877111,-0.1549009,-0.08519268,-0.17464897,-0.041952215,-0.283826,0.039224725,-0.08224891,0.20125301,0.27988976,0.24627636,-0.24861081,-0.07318414,-0.26509333,0.07550062,0.1714439,-0.10854695,-0.14497276,0.13092482,-0.15514803,-0.30214125,0.05688231,-0.21374927,0.07100905,-0.10093165,-0.26459578,0.267085,-0.22448163,0.20858803,-0.12547196,0.07762235,-0.03752606,0.14126337,0.14945394,-0.25478035,-0.27824277,0.23735623,0.16830203,0.088305935
f1_i4,0.22706108,-0.10243306,0.15870303,-0.2431191,-0.33018756,0.19912337,-0.23706695,-0.21597704,0.29405525,-0.29833248,0.2556915,-0.21565023,0.23198004,-0.22911018,0.21033092,-0.20544092,-0.19332096,0.14921649,0.08366466,0.22895841,-0.14379284,-0.13648988,-0.1380693,0.26570246,-0.22274621,0.19577366,0.3417832,0.15550895,0.20674916,0.19117011,0.17881559,-0.30988705,0.18591306,0.21542957,0.21990396,0.2690123,0.11090593,0.23876594,0.119814694,-0.23400703,-0.10818075,0.21402393,0.15879667,-0.24512823,0.14340223,0.19124627,0.104019344,0.2943666,-0.22335942,0.18435445,-0.23495297,0.1487231,0.2028103,0.10264767,0.14990784,0.15313964,-0.23495568,-0.16765766,-0.17602862,0.05189099,0.1519969,0.25448564,-0.23000251,-0.19609985,-0.26991162,-0.094366096,-0.23495914,0.26410663,-0.15506275,0.206866,0.2418372,0.32153141,-0.06464956,-0.056357026,-0.17810357,0.19608489,0.25629437,-0.2118,-0.26182923,0.09300124,-0.06227986,-0.15307388,-0.019850483,-0.15696584,0.1450628,-0.109493844,-0.14387695,0.16222422,-0.13230705,-0.13626039,-0.21660751,0.17825776,0.21520896,0.021841874,0.27032596,-0.15739012,-0.18713292,0.18715641,0.2440689,0.22731799
f1_i5,0.15357214,-0.17154422,0.1905747,-0.16196083,-0.22524324,0.1622353,-0.18024768,-0.2333959,0.16931,-0.1992229,0.25146967,-0.26223618,0.083698496,-0.22700323,0.12393654,-0.23779155,-0.29040867,0.2579234,0.10468623,0.07286666,-0.16616601,-0.19560118,-0.069280505,0.12988128,-0.1654041,0.15046777,0.17906582,0.16569115,0.102232434,0.20957278,0.2307426,-0.32440272,0.18569246,0.26941732,0.2542173,0.22362031,0.323064,0.14288643,0.14451094,-0.14775376,-0.18165205,0.28298774,0.19906954,-0.18838295,0.20206499,0.2719615,0.21662448,0.11216517,-0.24402696,0.22563578,-0.24015054,0.2251054,0.31619805,0.17755346,0.17247728,0.097861715,-0.18818986,-0.17956477,-0.18067192,0.053348348,0.1940959,0.13088557,-0.13087125,-0.2401645,-0.19911824,-0.078389175,-0.21781418,0.1454633,-0.21649526,0.10296042,0.15496033,0.13346119,-0.17341433,-0.29581934,-0.1806084,0.205966,0.25042108,-0.14812243,-0.25272584,0.108491205,-0.10478616,-0.16936804,0.07035959,-0.21986324,0.173346,-0.15187569,-0.093674496,0.21687052,-0.19488837,-0.19174848,-0.1311278,0.11866592,0.09101686,0.007290305,0.23861086,-0.16131566,-0.17986843,0.16201876,0.1463405,0.17519303
f2_i1,0.22323827,-0.11478177,0.20332107,-0.21430917,-0.12029064,0.13379374,-0.21622871,-0.19669034,0.086431816,-0.18479705,0.24643914,-0.26268387,0.21568531,-0.2644711,0.124860734,-0.16510466,-0.18275507,0.19938296,0.04610141,0.25895926,-0.21923432,-0.14005183,-0.26168096,0.12575921,-0.2027372,0.15286021,0.13311952,0.20947808,0.23560956,0.15355913,0.22743437,-0.26326314,0.25996834,0.05286028,0.25828946,0.08024895,0.1302455,0.17544468,0.14027183,-0.23915412,-0.088049755,0.26441482,0.28007376,-0.12995417,0.15070838,0.14380263,0.1275209,0.22045018,-0.23360035,0.27376887,-0.23951988,0.22690864,-0.097965546,0.23857798,0.25788653,0.16754037,-0.20125392,-0.22839457,-0.26184013,0.104827374,0.18078497,0.21524216,-0.29220983,-0.08929015,-0.24374305,-0.25748643,-0.20951805,0.29501462,-0.13466477,0.1511177,0.18229388,0.107856125,-0.18144777,-0.190374,-0.2002154,0.2164285,0.20349677,-0.16470824,-0.15711509,0.21872887,0.06104872,-0.13937727,0.03123756,-0.1676746,0.24601057,-0.091455795,-0.14047943,0.12434302,-0.23784451,0.06758978,-0.23002286,0.13880068,-0.053519588,0.21360199,0.14749931,-0.19608197,-0.11799877,0.17865598,0.13520499,0.26485142
f2_i2,0.2152465,-0.17252713,0.21269226,-0.17442328,-0.1755432,0.22946161,-0.15163982,-0.1794143,0.22639793,-0.16050917,0.15661593,-0.21218954,0.19514985,-0.25691554,0.20955801,-0.13197161,-0.24510641,0.28339788,-0.2141609,0.18566197,-0.15806974,-0.10678121,-0.2192327,0.23443304,-0.24387212,0.16764314,0.13445325,0.12836272,0.21492259,0.24610586,0.12064682,-0.28543627,0.242258,0.2672136,0.10912654,0.2976498,0.08118369,0.22482389,0.07177997,-0.19954057,-0.24226698,0.28159592,0.1848433,-0.18826394,0.13033326,0.2047451,0.11275342,0.18952477,-0.2763766,0.18998362,-0.12590481,0.18752913,0.022190494,0.16635521,0.16602258,0.28821054,-0.15277272,-0.07736142,-0.14007759,-0.049545344,0.18382658,0.3012841,-0.26766452,-0.021351488,-0.20522732,-0.18878609,-0.1629101,0.049660202,-0.17664722,0.13547225,0.19608472,0.21522862,-0.10334037,-0.1903766,-0.1896623,0.1644679,0.20603219,-0.19924612,-0.15028645,0.1488368,0.17496277,-0.116711855,0.07316005,-0.13812068,0.33885118,-0.27546716,-0.2716482,0.20408224,-0.2419651,-0.05073238,-0.14242913,0.16874263,0.025320843,0.13743988,0.24213952,-0.26807737,-0.16800922,0.2662566,0.20261766,0.21409686
f2_i3,0.16471876,-0.119379655,0.24932069,-0.2643362,-0.19909732,0.13215427,-0.27328306,-0.089309484,0.18268315,-0.22044584,0.18488304,-0.27768922,0.16336082,-0.21700379,0.14292744,-0.19576702,-0.22119923,0.2423743,0.092218265,0.21044764,-0.23795782,-0.20545153,-0.31052384,0.26243833,-0.20903882,0.11343841,0.06905898,0.09501845,0.2314911,0.20248571,0.21806544,-0.12572731,0.21726048,0.068459675,0.1391674,0.18521975,0.16048461,-0.017063178,0.22541259,-0.19229828,-0.1647065,0.3070392,0.17164962,-0.18925631,0.09124555,0.23182185,0.18487549,0.22335038,-0.22866756,0.11007105,-0.23154965,0.27378902,-0.0018238883,-0.03206299,0.20288573,0.25449046,-0.1779719,-0.27414024,-0.19951476,0.19003773,0.26618946,0.28273767,-0.19996098,-0.094670035,-0.2159929,-0.28202602,-0.21773279,0.14568584,-0.19200905,0.12333796,0.21170807,0.23357204,-0.1455369,-0.26615182,-0.24175867,0.28939697,0.21943173,-0.21388537,-0.2120593,0.14375827,0.17858657,-0.25907883,-0.08265535,-0.17717429,0.1968376,-0.21418944,-0.2262353,0.10359792,-0.19523765,0.23973252,-0.15662467,0.17577213,-0.13368645,-0.024850208,0.22262856,-0.21593389,-0.17705563,0.09960614,0.19183823,0.24918272
f2_i4,0.18056323,-0.18234926,0.25475845,-0.09453303,-0.21902193,0.11187178,-0.21819322,-0.2178315,0.19329137,-0.22819956,0.239058,-0.15188229,0.13310504,-0.23449136,0.15088081,-0.29535973,-0.18118906,0.1840982,0.21835381,0.07373934,-0.21734641,-0.1376007,-0.2431596,0.18812001,-0.14628223,0.24571544,0.1212558,0.0538513,0.19335698,0.10600646,0.23419623,-0.24279697,0.26611263,0.22588557,0.20391484,0.13847919,0.015288625,0.07920854,0.05100515,-0.16324343,-0.08107608,0.24457164,0.18299691,-0.19124079,0.1916536,0.12907052,0.20353836,0.07284005,-0.2969314,0.115984514,-0.21527289,0.23663901,-0.1222023,0.32923725,0.20036975,0.12166471,-0.22796078,-0.11099013,-0.2582417,0.25815484,0.117400706,0.24861689,-0.18947485,-0.31274423,-0.23717745,-0.09775079,-0.29934433,0.29938877,-0.20160933,0.28501365,0.15709178,0.22065347,-0.36504358,-0.18848205,-0.17648017,0.2512803,0.19689119,-0.11908414,-0.20325617,0.10542488,-0.052721728,-0.24455823,-0.103708506,-0.2086759,0.28921714,-0.1353956,-0.17268841,0.13479091,-0.24026684,0.38330448,-0.24495456,0.26125094,-0.1711966,0.17451176,0.26386452,-0.15247045,-0.10838847,0.14966233,0.16107379,0.2322416
f2_i5,0.26969638,-0.24787417,0.26995838,-0.19850174,-0.115048274,0.11457543,-0.2006061,-0.18041985,0.24920146,-0.14650054,0.20955633,-0.31872427,0.2328726,-0.2532995,0.21550658,-0.24547781,-0.2194226,0.24212326,0.20687929,0.28457952,-0.14979441,-0.22490051,-0.1266755,0.20581421,-0.20342393,0.135295,0.20655237,0.2016731,0.13340196,0.21678977,0.25508928,-0.20841181,0.15235636,0.028450541,0.14737941,0.23048964,0.15521482,0.19550331,0.13076398,-0.21363744,-0.16356906,0.15834397,0.15721023,-0.15233861,0.14242008,0.16854571,0.19067417,0.20024094,-0.22302431,0.3315197,-0.17224671,0.22423235,0.067920014,0.22056223,0.18050323,0.17976794,-0.17801964,-0.17308144,-0.09498443,-0.016975034,0.30332017,0.22389056,-0.16786727,-0.22469579,-0.17285307,-0.16823246,-0.17639652,0.17964582,-0.26996428,0.19153005,0.14781919,0.16621605,-0.40517884,-0.20471108,-0.20905904,0.23793377,0.16394427,-0.15646489,-0.11548835,0.23424348,0.22600126,-0.23042215,-0.25122893,-0.17567846,0.3352533,-0.1644146,-0.19348879,0.09191321,-0.1463883,0.2003769,-0.16856632,0.2635681,-0.08990699,0.07173942,0.13678032,-0.22125068,-0.06860921,0.17199033,0.23119111,0.22458601
f3_i1,0.19272155,-0.27170143,0.22370695,-0.2540788,-0.29645872,0.23024538,-0.15311779,-0.24324201,0.1471711,-0.21813376,0.2562129,-0.24699043,0.17542177,-0.2743831,0.26516283,-0.18042079,-0.24349731,0.14664853,0.04749165,0.14795241,-0.12123321,-0.23868564,-0.090630606,0.26796004,-0.18257396,0.29890433,0.08440957,0.18005848,0.17865324,0.21438995,0.18273969,-0.1665935,0.26104262,0.17296103,0.22682182,0.27119663,0.04651397,0.20385352,0.13763271,-0.2290701,-0.13030057,0.24205106,0.27494264,-0.08152017,0.20196201,0.20870762,0.28656572,0.15311226,-0.25253284,0.18094636,-0.1746022,0.14762095,-0.014654145,0.16962193,0.2354128,0.12888265,-0.20259437,-0.09313757,-0.15815932,-0.14300384,0.11800244,0.20736523,-0.18352361,-0.1635531,-0.11134507,-0.18510234,-0.1375037,0.17943053,-0.18620466,0.17566541,0.21157952,0.08101815,-0.04863764,-0.12156272,-0.1414629,0.15644965,0.21931264,-0.18692969,-0.2573363,0.18423402,-0.11120904,-0.23600458,0.08976716,-0.22993957,0.28628543,-0.20486335,-0.18168502,0.20091438,-0.18293084,0.025980255,-0.100395255,0.17678729,-0.10831388,0.091256574,0.091633305,-0.1777974,-0.1840792,0.24591032,0.23401423,0.05147302
f3_i2,0.15086658,-0.26582488,0.1769397,-0.25458,-0.17151578,0.101984434,-0.26477364,-0.22685996,0.15024464,-0.26641008,0.202564,-0.15640852,0.1678243,-0.20466304,0.21593541,-0.1531349,-0.2801339,0.13462764,-0.24654475,0.19726022,-0.10609857,-0.009304871,-0.13526781,0.21462269,-0.27389,0.2609284,0.085625455,0.18914998,0.20956415,0.21213707,0.23804699,-0.26007357,0.122356944,0.15544692,0.095510125,0.19626787,0.21628241,0.25301287,0.0674389,-0.14962913,-0.20733629,0.20884794,0.14624968,-0.18903542,0.1227628,0.3067604,0.110544294,0.11311051,-0.18921815,0.10612938,-0.23150411,0.19120185,0.194256,0.09681647,0.20947434,0.25772306,-0.30345884,-0.07911894,-0.2142999,-0.06652161,0.17139255,0.18864034,-0.1747079,-0.3056951,-0.25978205,-0.18793966,-0.2868779,0.1921265,-0.13699098,0.18438628,0.09159328,0.25446084,-0.008841494,-0.09373337,-0.23802783,0.10368628,0.11966856,-0.13941987,-0.25110134,0.1903144,0.001700423,-0.24227463,0.14889263,-0.21695141,0.20570467,-0.17953062,-0.17081214,0.21622092,-0.25156406,0.28482866,-0.19330418,0.122098796,-0.03294481,0.23835717,0.21955745,-0.19903402,-0.29824254,0.17096144,0.22657527,0.27691427
f3_i3,0.1945125,-0.22163586,0.06592577,-0.28861302,-0.23654857,0.18584478,-0.28720427,-0.21256438,0.23568231,-0.21279036,0.21794488,-0.1799054,0.19903077,-0.16190712,0.27309403,-0.19560906,-0.15488574,0.22613339,-0.24993558,0.089452825,-0.1307025,-0.0050383173,-0.110592626,0.2570506,-0.22927202,0.30565926,0.10966227,0.13044226,0.32072788,0.21387774,0.2784714,-0.1429393,0.16077043,0.07209396,0.18815021,0.22477408,0.118583515,0.2263701,0.1640602,-0.27790478,-0.23208474,0.19622366,0.26890376,-0.11246826,0.26421207,0.14008713,0.17092513,0.20242077,-0.23290403,0.14450333,-0.20230803,0.17582928,0.19595006,0.0027455415,0.29359972,0.20235313,-0.19464426,-0.13635167,-0.22068517,-0.10387241,0.2747767,0.20900202,-0.27357024,-0.17137793,-0.1240633,-0.2099641,-0.2551826,0.08748864,-0.12217646,0.31453446,0.19421233,0.24945822,-0.10119076,-0.05510116,-0.1906277,0.12270707,0.2627196,-0.08201396,-0.1787677,0.21491133,-0.22066875,-0.16503757,0.101174824,-0.1290515,0.09576691,-0.23020427,-0.24801518,0.15132134,-0.18224262,-0.06152898,-0.22374067,0.14324625,-0.0049484265,0.23142996,0.16051951,-0.17866257,-0.20991167,0.28337446,0.22535774,0.2784755
f3_i4,0.13554819,-0.13400167,0.113950856,-0.1025431,-0.101157896,0.2018049,-0.3026094,-0.18236937,0.14397542,-0.11852496,0.16716579,-0.20648345,0.13154885,-0.17678136,0.19615087,-0.19379076,-0.27028316,0.20010763,0.05646098,0.23077688,-0.19301756,-0.17296457,-0.26957458,0.25222522,-0.150548,0.2609831,0.0832735,0.1903005,0.2823631,0.26776472,0.25692347,-0.2176158,0.056991715,0.002491667,0.28672153,0.075381,0.2176066,0.2504028,0.07947621,-0.26139295,-0.20996001,0.12865894,0.20881666,-0.12724075,0.27239543,0.18028359,0.13506463,0.13426591,-0.20526648,0.16231939,-0.18440802,0.2656816,0.2663132,0.21207881,0.2156283,0.16950953,-0.24475163,-0.17908207,-0.24891031,0.19011635,0.12485355,0.24398911,-0.25374404,-0.27985686,-0.3020621,-0.2623248,-0.24939603,-0.12127791,-0.18948397,0.22013423,0.19079348,0.17588192,0.04531858,-0.11117356,-0.22485517,0.16669297,0.22703457,-0.16716862,-0.2127284,0.15582645,0.12934716,-0.16494863,-0.08225419,-0.2254654,0.21316601,-0.2048016,-0.12570374,0.22414751,-0.14822921,-0.13855892,-0.16916947,0.1802501,0.02655224,0.15817025,0.1587052,-0.099840626,-0.20109007,0.3022589,0.30422154,0.1475106
f3_i5,0.23326296,-0.19366024,0.081737734,-0.20700599,-0.26860863,0.09024461,-0.21498202,-0.1343509,0.15735887,-0.18644711,0.24032164,-0.20886758,0.14981672,-0.15433617,0.2493865,-0.24627934,-0.20604444,0.11570174,0.022456719,0.17620653,-0.15029584,-0.20857616,-0.27502018,0.15714514,-0.15447949,0.13383642,0.09034415,0.14142546,0.18976733,0.18141536,0.22906321,-0.2115175,0.20021993,0.25373656,0.27238327,0.21801569,0.21264906,0.21372953,0.07861708,-0.22108248,-0.22436152,0.19309439,0.25012174,-0.21238585,0.10062232,0.21943039,0.26708454,0.2158454,-0.1745666,0.09801443,-0.27093372,0.26128381,0.06465442,0.23182112,0.18029028,0.23209168,-0.13095163,-0.20801124,-0.20001864,0.005678334,0.115423016,0.17025496,-0.2485651,-0.15218343,-0.123957455,-0.14852722,-0.20816028,0.08007002,-0.29197133,0.20995075,0.117802516,0.2430278,-0.22460829,-0.13829547,-0.15209325,0.3026548,0.2577341,-0.2553929,-0.14034244,0.12585258,-0.04264288,-0.23325267,0.115204744,-0.17368671,0.14772294,-0.15672289,-0.15102358,0.22071235,-0.18816939,-0.047492206,-0.13206439,0.24393371,0.07716798,0.14841169,0.19827808,-0.20770432,-0.20988075,0.21892506,0.16523005,0.2495092
f4_i1,0.19628732,-0.23789954,0.21314962,-0.13509974,-0.2064388,0.22870272,-0.23466752,-0.28523788,0.22260669,-0.13225247,0.22709057,-0.25277525,0.25692943,-0.23086007,0.19155398,-0.212144,-0.2073533,0.12962027,-0.0440487,0.21315823,-0.22130542,-0.09998949,-0.19683863,0.2672575,-0.23940235,0.29744264,0.05462042,0.17359394,0.32003585,0.17338705,0.25476387,-0.17853132,0.113632984,0.16041297,0.20751624,0.12673934,0.103936136,0.11903094,0.17919013,-0.24120131,-0.22432652,0.2716693,0.20985675,-0.270387,0.15663762,0.29321468,0.26101807,0.21836625,-0.19556832,0.055986,-0.13892794,0.15814115,0.16600166,0.22499973,0.261932,0.26441896,-0.24487527,-0.09729571,-0.1428462,-0.03388359,0.06202683,0.23671733,-0.28413853,-0.11020386,-0.2268266,-0.19052576,-0.2161173,0.32064915,-0.25124276,0.22262713,0.1797599,0.25884667,0.19236526,-0.028925253,-0.22920604,0.17309691,0.23378825,-0.1772182,-0.08577778,0.08312756,-0.27179673,-0.22848701,-0.030178418,-0.19438305,0.14318812,-0.16906917,-0.17393981,0.1838896,-0.21623726,-0.15736702,-0.16183865,0.19359317,0.27415302,0.0667872,0.19133516,-0.15267314,-0.18216194,0.20845968,0.22335309,0.14511485
f4_i2,0.16629034,-0.19700672,0.20035456,-0.18555969,-0.30740356,0.18084832,-0.2646238,-0.17516188,0.16318423,-0.18166721,0.123233765,-0.16852637,0.24971569,-0.22393507,0.1918293,-0.19620591,-0.23638962,0.1929071,-0.15676333,0.248531,-0.22309518,-0.24648556,-0.13452885,0.2034334,-0.19981438,0.10018342,0.050156713,0.16060776,0.11707927,0.2330311,0.19780035,-0.29586473,0.23316962,0.14774533,0.2087698,0.2075836,0.19887537,0.1873251,0.21076187,-0.20131992,-0.24868837,0.21930137,0.2679366,-0.20537986,0.1770214,0.2463783,0.22048385,0.2017233,-0.28865346,0.1885727,-0.15710777,0.079556964,0.0358832,0.32520685,0.1709286,0.22535902,-0.2136524,-0.2029727,-0.13802427,0.018484337,0.22127149,0.23730548,-0.16862614,-0.12848833,-0.2337448,-0.20565362,-0.21270198,0.055391006,-0.18341534,0.16901979,0.18263066,0.23341715,0.035616152,-0.15676817,-0.17899725,0.3367217,0.21525402,-0.21054132,-0.20320944,0.08175859,0.16912594,-0.2626385,0.10726845,-0.18028498,0.15321787,-0.11406514,-0.21446747,0.19097273,-0.2367413,0.15438344,-0.15564397,0.21118638,0.11297911,0.08209984,0.19393352,-0.1646993,-0.18149655,0.2137024,0.20352933,0.17020293
f4_i3,0.10875363,-0.19849981,0.14014104,-0.13816568,-0.25673655,0.15245138,-0.25971276,-0.11725959,0.12685145,-0.26064444,0.24506988,-0.12190385,0.1359969,-0.21518299,0.13756087,-0.23102306,-0.2580654,0.18134339,-0.29574087,0.20581858,-0.21597788,-0.15930411,-0.18125378,0.103544734,-0.17114663,0.10779406,0.042942367,0.20959236,0.07640842,0.24426574,0.18991116,-0.24859545,0.19693834,-0.11737642,0.14265501,0.18279478,0.22973868,0.16137609,0.06603595,-0.14152904,-0.20445624,0.22006647,0.23278667,-0.19170994,0.136964,0.2192792,0.18736273,0.086130954,-0.14430514,0.09306176,-0.26280418,0.2511117,0.07443435,0.15714923,0.17683357,0.2507033,-0.15146662,-0.15366198,-0.15882827,-0.027256977,0.17173734,0.27635685,-0.27863747,-0.17781647,-0.23117895,-0.21740331,-0.14321348,0.16259721,-0.1898137,0.22373058,0.09004475,0.14575385,0.13949843,-0.3718774,-0.23322156,0.32289973,0.23504105,-0.11824406,-0.16682296,0.18686624,0.029155627,-0.13980739,0.11257944,-0.16197652,0.21199328,-0.18971892,-0.114894435,0.1346963,-0.18719782,-0.21537377,-0.20832027,0.2041247,0.053031664,-0.017566778,0.14597355,-0.08915147,-0.290256,0.2571094,0.15660131,0.19255239
f4_i4,0.27628195,-0.090474375,0.16844712,-0.11433755,-0.2179014,0.10711233,-0.22576346,-0.16295084,0.237666,-0.26161605,0.15223822,-0.21647434,0.17500788,-0.18824075,0.23528479,-0.20714219,-0.19056351,0.21496478,-0.07727952,0.22923641,-0.2672199,-0.20779589,-0.1746283,0.18256745,-0.29802454,0.23779124,0.31614876,0.18481706,0.195091,0.18837844,0.18180692,-0.29726383,0.21223375,0.08161351,0.2133434,0.16554119,0.122312434,0.2450005,0.2552525,-0.2328627,-0.22689752,0.20132741,0.20096955,-0.2264536,0.2276352,0.2437398,0.23046784,0.16514638,-0.18498686,0.18674697,-0.22016175,0.30021402,0.09149592,0.31762183,0.28215873,0.12042577,-0.23650709,-0.14809187,-0.26612628,-0.07051597,0.22359367,0.2194251,-0.33998343,-0.15866908,-0.13263711,-0.15584177,-0.2939769,0.27602768,-0.27560574,0.23241526,0.047924437,0.18089323,-0.15735145,-0.21617866,-0.19271612,0.21389243,0.23449177,-0.21732226,-0.17272319,0.16107136,0.08479882,-0.21063541,-0.16276722,-0.24611585,0.26115367,-0.1533753,-0.2448995,0.12665518,-0.18058243,0.10424348,-0.19999674,0.23651506,0.15253186,0.15891716,0.18707967,-0.21632765,-0.19354118,0.24250333,0.11738107,0.18582667
f4_i5,0.08708307,-0.17490621,0.15261123,-0.2863274,-0.20132944,0.094522245,-0.20856148,-0.21185802,0.1353513,-0.2730001,0.1792687,-0.19734418,0.23357502,-0.15373823,0.2784953,-0.113802336,-0.31332287,0.23306839,-0.26003814,0.05377437,-0.19550593,-0.16581108,-0.31036082,0.25224236,-0.17545575,0.15848891,0.07361564,0.18203302,0.20955387,0.18716313,0.25931513,-0.18904315,0.13651927,0.050061144,0.20126589,0.2339909,0.18545052,0.21839537,0.09023586,-0.19032271,-0.16074952,0.23963201,0.19864179,-0.16297401,0.22064486,0.2583846,0.2150359,0.25783423,-0.17076658,0.19755049,-0.17596115,0.25840074,0.098490596,0.18628667,0.24527165,0.1373355,-0.21006244,-0.16189069,-0.1510993,-0.10367022,0.1504093,0.24312028,-0.22142483,-0.18932733,-0.17782643,-0.21392563,-0.21657105,0.18343188,-0.15770102,0.24764411,0.09352342,0.1448889,-0.04004272,-0.01805993,-0.14806736,0.15032855,0.21943498,-0.15508561,-0.19213471,0.15466753,-0.23151559,-0.18276133,0.06383034,-0.21156341,0.21139415,-0.20342955,-0.11297639,0.18904828,-0.13931316,-0.17911226,-0.16155271,0.25433984,0.24990141,0.14190967,0.18155335,-0.1322251,-0.2675892,0.09509922,0.16597696,0.14703646
f5_i1,0.2920587,-0.11752821,0.03127996,-0.21995649,-0.24405876,0.29507318,-0.23022918,-0.2897296,0.22303948,-0.23430684,0.22284791,-0.18212011,0.1579941,-0.1914861,0.20695941,-0.19541322,-0.24577627,0.3029967,0.5123486,0.14117582,-0.19411884,0.48537254,-0.30886075,0.20114543,-0.24035232,0.47408956,0.19510831,0.24931023,0.30442962,0.19199787,0.12911654,-0.025836842,0.22305721,0.27821738,0.31426373,0.19506058,-0.006613641,-0.15739578,0.19840656,-0.23579748,-0.102041826,0.19977547,0.18750112,-0.24568777,0.19298337,0.1586748,0.2431052,0.15795073,-0.30805823,0.25447914,-0.25602892,0.04779497,0.27553064,-0.19124651,0.12988488,0.13133562,-0.12905626,-0.09799799,-0.25191,0.20630774,0.2395088,-0.21075688,-0.1850871,-0.23366842,-0.20317815,-0.08780781,-0.28375828,-0.3672957,-0.23699656,0.2866574,0.28104937,0.4472159,0.29889038,0.09592169,-0.21220544,0.10802292,0.14854021,-0.1288023,-0.13095656,0.16444826,0.22834681,-0.3018854,0.51198375,-0.22409669,-0.121915996,-0.039444424,-0.22428726,0.2340588,-0.1687283,0.2567383,-0.23424797,0.2597385,-0.45236626,-0.50137585,0.1299645,-0.24678512,-0.09979075,0.20937823,0.26174748,0.14790632
f5_i2,0.16737632,-0.097702526,-0.024836555,-0.23037796,-0.11415436,0.25856015,-0.27003163,-0.28415388,0.26006857,-0.16828166,0.17189078,-0.21987028,0.17237243,-0.16232687,0.14670329,-0.134454,-0.19597949,0.23685572,0.28997645,0.15052348,-0.2093161,0.44018188,-0.37829658,0.21428834,-0.29152602,0.36409283,0.31109738,0.06592519,0.24766886,0.2908217,0.14967525,-0.27614492,0.2646749,0.39232612,0.2512514,0.14651969,-0.024734912,0.042790238,0.27273172,-0.22916347,-0.12816161,0.23950031,0.22611378,-0.25001052,0.13311183,0.18861765,0.16061102,0.045371436,-0.23601449,0.3363199,-0.22278725,0.016003119,0.118409745,0.025265299,0.14345086,0.20700899,-0.21019253,-0.1683045,-0.07452781,0.22765149,0.13581891,-0.14038672,-0.12656681,-0.034999657,-0.12958421,0.029379532,-0.30159009,-0.34544352,-0.3000378,0.2189273,0.12533413,0.38942647,0.37878123,0.067708135,-0.27652138,0.02362643,0.22489029,-0.15617672,-0.17578977,0.11912332,0.120838955,-0.3155358,0.49467608,-0.20471069,-0.09530628,-0.0784736,-0.13290423,0.041879926,-0.21864949,0.27737787,-0.27910954,0.3054004,-0.37992692,-0.35796338,0.1785007,-0.30012068,-0.237547,0.2609581,0.38356978,0.08712871
f5_i3,0.13454548,-0.09164057,0.07286358,-0.27884302,-0.15816267,0.14568464,-0.22123936,-0.16964296,0.20887761,-0.25889462,0.22310524,-0.17123224,0.048065186,-0.25095096,0.27383563,-0.21605457,-0.26470664,0.36644343,0.46447733,0.20529953,-0.20979564,0.47216055,-0.38771456,0.18258339,-0.24190661,0.3521426,0.25679258,0.057020057,0.22410698,0.22693738,0.21436124,-0.24132958,0.2725743,0.32861668,0.30258495,0.1710182,0.06345767,-0.018439077,0.20592383,-0.20000501,-0.16436301,0.2417944,0.217353,-0.22716191,0.16541363,0.21099949,0.111414015,-0.014152638,-0.23983546,0.26646912,-0.16772558,0.09925223,0.06978986,-0.051516023,0.11436794,0.2284267,-0.24485235,-0.09756059,-0.17393954,0.21342129,0.14655225,-0.09543651,-0.082192734,-0.21037856,-0.11215885,-0.05677379,-0.24055181,-0.4245922,-0.3329318,0.30263394,0.20425019,0.39189932,0.3653555,0.16442566,-0.17198972,-0.020108478,0.14440209,-0.18792222,-0.21322867,0.1286309,0.15680997,-0.3166642,0.39727798,-0.14616752,0.047148157,-0.09312741,-0.13446026,0.19348122,-0.27376634,0.34424552,-0.20491768,0.258526,-0.42111224,-0.47923046,0.084054545,-0.15809716,-0.15089218,0.16436282,0.38707018,0.066215955
f5_i4,0.15586981,-0.14188555,0.2368345,-0.19667594,-0.26450542,0.10244911,-0.3185301,-0.15152691,0.21460588,-0.2472339,0.27051067,-0.28084606,0.11091621,-0.23735483,0.25073344,-0.17510189,-0.18714899,0.3124216,0.5425605,0.19754878,-0.18454096,0.39541775,-0.27391064,0.14810084,-0.254805,0.41186705,0.15438071,0.18662974,0.28683668,0.21750224,0.22660476,-0.12976708,0.25187826,0.31519455,0.27595368,0.11364564,0.06395744,-0.1874065,0.15499397,-0.10051856,-0.17440756,0.17149472,0.28221828,-0.3107412,0.092409976,0.19285215,0.071442775,-0.077400595,-0.32716525,0.2684833,-0.25178322,0.059686117,0.2998666,-0.047948234,0.0015423445,0.16954455,-0.2246281,-0.06500867,-0.121369585,0.27069587,0.21608521,-0.2420195,-0.1408604,-0.22966884,-0.09740824,0.040459283,-0.2334537,-0.37223288,-0.2582973,0.21062174,0.2591825,0.47897103,0.36042762,0.23791379,-0.120151766,0.016252477,0.23010568,-0.14761756,-0.2998116,0.25470662,0.11768575,-0.34659934,0.49634123,-0.19945844,0.03089153,-0.15156302,-0.14783081,0.13748813,-0.15802118,0.3602517,-0.19898799,0.19378245,-0.39925542,-0.3562385,0.106194295,-0.28124058,-0.118301965,0.18154056,0.38766274,0.072835654
f5_i5,0.23674358,-0.17774808,0.13099006,-0.26758307,-0.25558144,0.15973686,-0.32768154,-0.13693792,0.24669895,-0.22423844,0.24352573,-0.2773656,0.21900102,-0.18847716,0.27202472,-0.13401437,-0.25467822,0.32144308,0.47104546,0.2514055,-0.18729383,0.46976978,-0.20452045,0.27660975,-0.1355035,0.29143333,0.21085212,0.18986712,0.12947431,0.10724275,0.2017787,-0.08116914,0.31147915,0.36461824,0.41930035,0.15208052,0.11350538,0.019960083,0.1735707,-0.09126314,-0.20465416,0.31050062,0.23896834,-0.26693627,0.25761792,0.29844162,0.20750767,0.051571313,-0.15461735,0.17166996,-0.1593998,0.021234395,0.18841861,-0.016298108,0.1019701,0.27268007,-0.21912463,-0.16501829,-0.23880449,0.24530536,0.23046084,-0.061546747,-0.09651778,-0.27683964,-0.16077535,-0.06766748,-0.30843884,-0.34719694,-0.19110017,0.17957596,0.29878804,0.50518143,0.48766276,0.20603035,-0.2232519,-0.034919046,0.13703813,-0.1940357,-0.24346383,0.039180044,0.29004702,-0.3332998,0.3499085,-0.24660364,-0.11508016,-0.14376043,-0.15303576,0.12016823,-0.18230112,0.22446756,-0.12539572,0.17232575,-0.38687557,-0.45499226,0.056536768,-0.24921687,-0.12283741,0.21308886,0.30262828,0.13395698
f6_i1,0.23685662,-0.24019352,0.2218402,-0.14503464,-0.29064727,0.18055303,-0.20594269,-0.20592007,0.12540744,-0.091303706,0.18983142,-0.22906907,0.16359483,-0.20298958,0.12765895,-0.28349176,-0.27390987,0.23561174,-0.04258805,0.18758158,-0.21841584,-0.28876236,-0.15130183,0.22311161,-0.19923219,0.20154655,0.111631505,0.15960947,0.1665926,0.24630095,0.23825026,-0.19951104,0.12724583,0.20541878,0.251063,0.25771546,0.13663156,0.32585946,0.10844601,-0.14705639,-0.16592377,0.279807,0.26082954,-0.26802948,0.16276236,0.1808541,0.25772515,0.21165146,-0.2550048,0.11820653,-0.12904426,0.28768894,0.17965616,0.25521663,0.19084764,0.1578869,-0.15047869,-0.23430422,-0.20522608,0.2583138,0.2116235,0.25208426,-0.1957773,-0.1507602,-0.2213433,-0.25618908,-0.12591892,0.18544622,-0.23534097,0.031307753,0.19986348,0.17943433,-0.022871178,-0.14663158,-0.18743226,0.14284019,0.17888682,-0.1689287,-0.20362663,0.1793557,0.0861764,-0.26466268,0.027641986,-0.13792773,0.3245259,-0.20187162,-0.1847368,0.12643196,-0.19195491,-0.029790247,-0.20543952,0.2207318,-0.008460557,0.27158275,0.22159271,-0.17677872,-0.23438771,0.17252484,0.18416423,0.17897007
f6_i2,0.23070075,-0.1668321,0.2301263,-0.19390656,-0.24107137,0.16644499,-0.2688967,-0.2173809,0.18912128,-0.20606308,0.1705757,-0.14483535,0.20167384,-0.18229051,0.21207589,-0.26067463,-0.117123485,0.15475927,-0.13962288,0.19774503,-0.08448635,-0.18004087,-0.1953369,0.2646791,-0.21129546,0.16236241,0.26120096,0.1511409,0.057022054,0.21743046,0.3101747,-0.13093568,0.142324,-0.025463626,0.24059261,0.0982372,0.14575502,0.22687794,0.093021266,-0.16210245,-0.22392574,0.19280215,0.20879361,-0.22966662,0.15397653,0.15119879,0.13762112,0.22002017,-0.25360906,0.11004814,-0.16439186,0.22052784,0.23475486,0.06845618,0.22236963,0.15365809,-0.25527942,-0.17033735,-0.27082646,0.1981811,0.19827114,0.18373387,-0.2304667,-0.1001888,-0.26085758,-0.28197184,-0.22537085,0.34018955,-0.10687363,0.24958892,0.10401652,0.16593452,-0.30461425,-0.19919117,-0.18868336,0.16454282,0.25772083,-0.2800205,-0.16220596,0.22117819,-0.09453873,-0.34474933,-0.018436104,-0.26128834,0.14530951,-0.22958131,-0.09161389,0.19528984,-0.16661653,0.18563354,-0.253602,0.17634805,0.016119933,0.26544487,0.16967279,-0.21598388,-0.15663171,0.30177325,0.2215562,0.2750154
f6_i3,0.13486083,-0.20604292,0.34589657,-0.28289884,-0.25937304,0.11752425,-0.25999174,-0.22538805,0.28259477,-0.26024202,0.24818689,-0.27016392,0.17439301,-0.24435318,0.11764491,-0.17644146,-0.30365714,0.2798076,-0.13855144,0.18025994,-0.1317908,-0.19220273,-0.22840337,0.17741115,-0.24404934,0.27808908,-0.05093899,0.25400573,0.25944427,0.19138275,0.24219203,-0.1934372,0.14132078,0.060200628,0.22763251,0.29999048,0.13273652,0.23162748,0.1836971,-0.15918699,-0.19805695,0.15666547,0.2098354,-0.18667011,0.17179094,0.15843527,0.1822014,0.16071185,-0.13311559,0.05707907,-0.16261154,0.2147244,0.1041543,0.12434527,0.12537695,0.22924381,-0.22209495,-0.14880107,-0.14610885,-0.0109974835,0.21749137,0.22913532,-0.22518516,-0.13229574,-0.24108374,-0.16204587,-0.17842908,0.10895073,-0.19625437,0.1326078,0.26823992,0.19566593,0.03441602,-0.27048197,-0.2240795,0.08593192,0.23469451,-0.17666382,-0.17895813,0.23439479,0.05956808,-0.21105558,0.1284817,-0.12852356,0.2519075,-0.22382052,-0.13450088,0.15069643,-0.11307115,0.13752848,-0.17437193,0.15284887,-0.034434702,0.17565396,0.22868976,-0.16448712,-0.32435617,0.20898584,0.3102204,0.24607316
f6_i4,0.24661583,-0.2871173,0.16617566,-0.26847932,-0.1367736,0.20588216,-0.21085903,-0.16298911,0.23383436,-0.24091384,0.19226655,-0.22922924,0.1634742,-0.18292738,0.25511023,-0.17289068,-0.2367032,0.27213714,-0.04759711,0.19594412,-0.1196294,-0.19826464,-0.14110053,0.15080236,-0.20104726,0.21641281,0.11525888,0.24431102,0.24048218,0.18830931,0.2619247,-0.1753923,0.17746723,0.16244909,0.107809484,0.18269545,0.24639313,0.20529635,0.17129304,-0.23521379,-0.14109235,0.26112756,0.20140116,-0.16824618,0.14650412,0.21850565,0.14740016,0.10464309,-0.18865421,0.13721007,-0.21678294,0.14650624,0.26506674,0.044543758,0.16551018,0.078436665,-0.31790754,-0.13604592,-0.24932279,0.0014780808,0.1796657,0.1860207,-0.22426657,-0.16629836,-0.1491739,-0.16824105,-0.157478,0.16726398,-0.18990488,0.19167447,0.24621493,0.23408845,-0.2705657,-0.11968836,-0.21757695,0.22941136,0.19505909,-0.27171826,-0.25263128,0.22787032,-0.0124556655,-0.28203216,0.010513815,-0.22996296,0.11200573,-0.17244096,-0.20946047,0.14977206,-0.15821481,0.10003698,-0.10863176,0.16076928,0.060343474,0.08371557,0.16732417,-0.22916193,-0.25840455,0.169642,0.20434514,0.13598433
f6_i5,0.14594625,-0.16107258,0.22620933,-0.16141017,-0.23132989,0.17687677,-0.23210315,-0.18080722,0.1597489,-0.17071949,0.20727678,-0.25205812,0.23875017,-0.15974024,0.13110232,-0.29954144,-0.25558236,0.2124816,-0.14158072,0.162128,-0.20526022,-0.17212175,-0.2875204,0.2872043,-0.22256394,0.18884808,0.057610605,0.21441549,0.11452799,0.11223292,0.25369653,-0.13317263,0.16537574,0.03328711,0.10082025,0.1727384,0.09231422,0.17173097,0.23435898,-0.1787932,-0.24459559,0.111383356,0.16804768,-0.20817748,0.16823302,0.07743432,0.32750177,0.036129627,-0.26397142,0.2686787,-0.096369006,0.16857581,0.090512134,0.035281546,0.1942491,0.12869696,-0.16853344,-0.18380192,-0.1074969,0.097637095,0.15255688,0.27634525,-0.15544,-0.25467852,-0.30658478,-0.28618604,-0.11571053,0.20872694,-0.10617935,0.21875499,0.058727898,0.18313248,-0.002223558,-0.25314322,-0.21373254,0.20375372,0.19381197,-0.11024788,-0.1380238,0.20871213,-0.29525158,-0.26194555,0.31949115,-0.23054658,0.24250187,-0.23910208,-0.16071948,0.26269615,-0.18058349,-0.106064394,-0.26025063,0.24229817,-0.08540696,0.23279993,0.28101093,-0.123533994,-0.24204409,0.17138632,0.14197093,0.21977729
f7_i1,0.20384678,-0.20694087,0.13916697,-0.28089762,-0.17123254,0.14450973,-0.25892597,-0.10751492,0.17943454,-0.22346634,0.16877933,-0.2720698,0.1904123,-0.24558207,0.23057932,-0.20329504,-0.097203285,0.22963662,-0.004858617,0.23989336,-0.16603006,-0.28803363,-0.044830706,0.22128767,-0.106619395,0.13224773,0.17121874,0.15142018,0.14973094,0.22946201,0.2046594,-0.1316085,0.11612803,0.20021328,0.23941426,0.2143084,0.17152448,0.26980543,0.1131636,-0.19228818,-0.1822395,0.19366138,0.30210713,-0.21120638,0.2541124,0.18332325,0.2697454,0.038327903,-0.2170737,0.25220978,-0.14780316,0.2058767,0.05607285,0.054903843,0.23790441,0.2195409,-0.102816485,-0.17053777,-0.15091793,0.1610843,0.15198222,0.1816039,-0.22166276,-0.050699964,-0.14675468,-0.27358115,-0.23713267,0.07147161,-0.13396285,0.085074954,0.18120207,0.10716329,-0.253985,-0.14928035,-0.10800318,0.15973057,0.19803233,-0.15491703,-0.20906715,0.18141222,0.29204074,-0.2359328,0.11098444,-0.19919398,0.2866218,-0.17863172,-0.105780214,0.1680895,-0.16032134,0.114537805,-0.15250805,0.12551276,0.047499217,0.13290837,0.13938549,-0.22817287,-0.13691524,0.17226095,0.247535,0.19396667
f7_i2,0.23217282,-0.2197507,0.051628005,-0.1898333,-0.1984875,0.13182299,-0.12980191,-0.25080246,0.15499999,-0.17537422,0.086228274,-0.19543791,0.17437185,-0.2349541,0.21193317,-0.18133265,-0.18057048,0.27086887,-0.10796948,0.20772056,-0.23116001,-0.3108217,-0.20084904,0.2021848,-0.16364212,0.108345956,0.018835718,0.2502298,0.14707129,0.28165486,0.1469855,-0.19736055,0.30398536,0.086595684,0.21051805,0.2426399,0.17091879,0.06810046,0.23526666,-0.17133324,-0.13727093,0.16007367,0.25400138,-0.22748624,0.16261382,0.27621788,0.27444404,0.15113,-0.17211755,0.2183091,-0.16481565,0.1806504,0.110234484,0.18478982,0.2539996,0.14709355,-0.28198177,-0.27160308,-0.23917603,-0.062301878,0.22270536,0.19418436,-0.18883806,-0.2500862,-0.10027378,-0.32381585,-0.19918741,0.06309204,-0.23269053,0.13409589,0.123734355,0.110556975,-0.1578882,-0.21589682,-0.15173033,0.31982052,0.2017786,-0.16745278,-0.17277898,0.13293922,0.41139817,-0.22844903,0.21964376,-0.17594753,0.22093795,-0.13142051,-0.24976003,0.2134177,-0.16376358,-0.0028632164,-0.2172098,0.16426237,-0.03125297,0.13223176,0.18015893,-0.24448967,-0.27285644,0.24215887,0.23060828,0.11480166
f7_i3,0.10108387,-0.18874925,0.267941,-0.13245337,-0.104788885,0.072083816,-0.29848492,-0.20490848,0.13319272,-0.22714783,0.1919913,-0.20099817,0.2433745,-0.1404465,0.20454216,-0.22124587,-0.2742507,0.19884022,0.18449305,0.21914615,-0.1741007,-0.12133398,-0.2269736,0.21533364,-0.1781585,0.24668881,-0.031283192,0.22560674,0.15308318,0.20381962,0.17763019,-0.10774884,0.1620364,0.116545565,0.14765255,0.19850764,0.03487956,0.10145378,0.1913138,-0.16876413,-0.13796714,0.26571953,0.19361056,-0.2159734,0.16878954,0.235232,0.118045524,0.1726635,-0.22395499,0.13376188,-0.14082761,0.22960451,0.14561355,0.13253437,0.30496892,0.14404261,-0.25968906,-0.21820468,-0.14490996,-0.12350672,0.23817825,0.1256703,-0.21257085,-0.29602632,-0.24530931,-0.28734365,-0.21795397,0.17635761,-0.17402229,0.12335296,0.1873756,0.1293815,0.16572398,-0.22600889,-0.2260615,0.14060865,0.2907765,-0.027601926,-0.09839753,0.13966224,-0.23968358,-0.24568541,-0.09313947,-0.20699519,0.2430984,-0.15812337,-0.1930726,0.24625443,-0.22331488,-0.017153941,-0.22601782,0.07150076,0.13495114,0.23767668,0.24812037,-0.25508854,-0.21853876,0.19174816,0.19350447,0.18129294
f7_i4,0.2726318,-0.115144916,0.32774615,-0.21775979,-0.12210136,0.09256796,-0.273982,-0.21043694,0.16737653,-0.1419082,0.20014322,-0.12261786,0.19421415,-0.19478506,0.24840978,-0.23375267,-0.23235118,0.118128404,-0.11764216,0.20416792,-0.12917796,-0.21065363,-0.19643022,0.19985257,-0.20930915,0.13104491,0.18573835,0.26849458,0.22202311,0.20518029,0.3039644,-0.3021819,0.24487458,0.16930445,0.19937691,0.19204557,0.14243205,0.15988222,0.13123947,-0.2879679,-0.17219605,0.11687928,0.17358609,-0.17106345,0.19503841,0.17653492,0.23666595,0.17530063,-0.1897623,0.21214637,-0.24362099,0.2182098,0.010795896,0.1794144,0.20802923,0.24269834,-0.20353083,-0.20863281,-0.20727511,0.20723812,0.16810073,0.132603,-0.30051747,-0.1222121,-0.196653,-0.2667556,-0.19408606,0.09167725,-0.17106846,0.18389806,0.13468981,0.24409363,-0.17078789,-0.16477495,-0.1614644,0.183077,0.21747833,-0.2494437,-0.17596948,0.07501646,-0.17666863,-0.27205893,0.14449403,-0.16089265,0.16907477,-0.18861786,-0.22619519,0.11342305,-0.19981538,-0.0007197964,-0.11690545,0.17918144,-0.01626927,0.13873066,0.18600698,-0.27070832,-0.21547873,0.06597121,0.24043344,0.12755056
f7_i5,0.121243276,-0.18204387,0.251121,-0.18363164,-0.20163311,0.25678307,-0.24657087,-0.16766903,0.18584317,-0.20600653,0.15112929,-0.26492384,0.14547719,-0.25865287,0.17149821,-0.28344083,-0.26596048,0.17208147,0.106067725,0.25208142,-0.16740918,-0.14562967,-0.27845487,0.23361386,-0.16806586,0.18234833,0.11387304,0.17048587,0.12281857,0.1087013,0.07273228,-0.2533281,0.18806611,0.18580721,0.11470904,0.24939418,0.20659618,0.14365639,0.26305875,-0.19556749,-0.15488201,0.17844391,0.1641448,-0.076184034,0.20746535,0.24776573,0.27466792,0.16544247,-0.2341755,0.26051128,-0.14621373,0.18931857,0.20300034,0.032471675,0.22004327,0.23586382,-0.19870651,-0.22417094,-0.1554189,0.15431567,0.24662666,0.13960604,-0.20910645,-0.18591607,-0.19532628,-0.16365783,-0.23365761,-0.06421977,-0.15004554,0.09314617,0.19195874,0.17715806,0.20391013,-0.19798522,-0.18757218,0.28840348,0.26355255,-0.13554968,-0.21124452,0.20062706,-0.11797235,-0.15222742,-0.111523405,-0.13281956,0.21484296,-0.14918815,-0.18958162,0.1855254,-0.2304984,0.074602164,-0.19680353,0.19637538,0.061302762,0.2718611,0.27517337,-0.27638647,-0.19951083,0.18189731,0.21473636,0.20081182
f8_i1,0.22303241,-0.23124982,0.1827586,-0.17554428,-0.25645664,0.2766831,-0.30287126,-0.18936133,0.1676136,-0.24563263,0.10983637,-0.24494363,0.16607955,-0.27207792,0.24217184,-0.25560123,-0.1766519,0.2214618,0.092310406,0.2905005,-0.24701583,-0.37487662,-0.064849384,0.19165917,-0.17406698,0.12038878,-0.03555714,0.28266916,0.20848057,0.18721993,0.22935362,-0.21397734,0.19412173,0.15568542,0.18649103,0.1819674,0.16602519,0.13338839,0.24005859,-0.118725315,-0.08692207,0.18144388,0.23963177,-0.21043816,0.14513966,0.22222108,0.17221867,0.10352355,-0.23384422,0.2597464,-0.27129498,0.17312615,0.32633716,0.16019551,0.28176045,0.18929937,-0.15205692,-0.17339323,-0.21222115,0.21716547,0.31301305,0.21494472,-0.15996064,-0.24496682,-0.22546305,-0.2186263,-0.23203258,0.25493142,-0.1916251,0.16786477,0.1496188,0.11210389,0.013491128,-0.16736762,-0.23637718,0.24977458,0.2455704,-0.28196618,-0.19295594,0.16633737,0.05513788,-0.19676252,0.1234497,-0.23800717,0.21417941,-0.2245984,-0.23525742,0.13937443,-0.24201357,-0.22809146,-0.26585275,0.18423519,0.11053905,0.1480941,0.212858,-0.2748308,-0.19268648,0.19035856,0.17040631,0.25403473
f8_i2,0.19270061,-0.16310877,0.14604497,-0.14965943,-0.1777973,0.25424865,-0.1909159,-0.117966466,0.116904326,-0.25383982,0.08354952,-0.20069043,0.14688452,-0.25735977,0.23353992,-0.20023263,-0.16402842,0.20652103,0.011032327,0.10330436,-0.22770774,-0.25278717,-0.279189,0.17823645,-0.26190382,0.107048675,0.21376812,0.1997007,0.19851428,0.22897892,0.22846992,-0.21136914,0.18861206,0.08893633,0.26621127,0.16745344,0.042142488,0.2291332,0.16509716,-0.22738583,-0.11599175,0.2116126,0.21422206,-0.2177352,0.15983543,0.24812765,0.18948576,0.1545358,-0.31219277,0.20066,-0.2266938,0.2998828,0.17997512,0.19013146,0.26066852,0.12831713,-0.1714197,-0.21586654,-0.24401754,0.01555051,0.26891023,0.19078702,-0.23908822,-0.11214434,-0.2382212,-0.23067006,-0.25629523,0.13583007,-0.2240445,0.1684358,0.1350543,0.11901541,-0.27680022,-0.18188633,-0.2390559,0.16884908,0.2538809,-0.182422,-0.09923862,0.22233137,0.21285304,-0.22864312,-0.03417729,-0.21767576,0.13175072,-0.18036237,-0.146262,0.18341367,-0.102204144,-0.0925568,-0.10400191,0.19836047,0.17171699,0.09907098,0.18399578,-0.27470452,-0.27144632,0.17198765,0.25284418,0.30806002
f8_i3,0.19197205,-0.088850476,0.038862523,-0.21701317,-0.2809262,0.25124788,-0.278982,-0.13477704,0.22325751,-0.12083641,0.15117428,-0.18383989,0.17296624,-0.23596326,0.3011736,-0.1956208,-0.2611332,0.16187808,0.30942297,0.10748899,-0.23037776,-0.21046056,-0.20747618,0.18576106,-0.118039556,0.1124501,0.23643035,0.18282814,0.26921833,0.18627961,0.14473267,-0.20359573,0.038461942,0.041878715,0.1603619,0.20150782,0.15076841,0.31607398,0.24150385,-0.1708141,-0.21012504,0.1764502,0.11511146,-0.18124256,0.25676495,0.18426831,0.23077469,0.23100609,-0.2583066,0.22606008,-0.19092451,0.1653741,0.30209693,0.22854976,0.15942158,0.23217602,-0.13558517,-0.15657148,-0.15202682,0.25663844,0.15047418,0.32814083,-0.29781076,-0.05360045,-0.27606094,-0.25466794,-0.20305659,0.19725928,-0.2719913,0.21067445,0.11888302,0.18193515,-0.0209385,-0.16699028,-0.10688735,0.08629144,0.20591354,-0.20228188,-0.16201423,0.27091014,0.28375858,-0.2824771,-0.41435212,-0.22734757,0.049945243,-0.22983311,-0.1360338,0.046386003,-0.27510044,-0.025142385,-0.20497444,0.20868747,0.20826446,0.19214056,0.17254731,-0.23285021,-0.22206786,0.19880125,0.18505995,0.26205978
f8_i4,0.19685242,-0.06663148,0.21789789,-0.12883759,-0.14247233,0.18301636,-0.22091576,-0.31176662,0.25711942,-0.2244135,0.09673357,-0.20552573,0.25422361,-0.2579695,0.29878265,-0.117552415,-0.15465222,0.2299091,-0.19603686,0.2032516,-0.21106516,-0.3030287,-0.2504029,0.121583335,-0.16058056,0.029193157,0.11968665,0.20299993,0.1530897,0.10788914,0.17310327,-0.2888587,0.1448836,0.17117251,0.26906297,0.07657009,0.19663918,0.26686114,0.27671048,-0.23783135,-0.17050011,0.16807652,0.2560226,-0.19711071,0.20563327,0.19403876,0.29708079,0.17182222,-0.10239618,0.22477758,-0.23745298,0.21925907,0.18799596,0.3157833,0.23076978,0.14422493,-0.12961392,-0.08475083,-0.17271003,0.16103505,0.22440024,0.2401683,-0.25328526,-0.18316506,-0.16125019,-0.13559297,-0.26245657,0.13109043,-0.1945436,0.1756281,0.14194612,0.23473094,-0.10559013,-0.17132297,-0.16975363,0.18616828,0.15072185,-0.144256,-0.15415472,0.17577474,0.13240618,-0.21582268,-0.015672639,-0.21721524,0.10793892,-0.19589756,-0.22789164,0.1623618,-0.15641755,0.2884834,-0.13484374,0.20231852,-0.08803618,0.10038735,0.22588827,-0.19892476,-0.20444281,0.16448821,0.3084056,0.10328362
f8_i5,0.16953546,-0.15955234,0.10848491,-0.14153108,-0.22591443,0.2736097,-0.25805688,-0.16708884,0.13015333,-0.16150257,0.19897546,-0.21624143,0.2909206,-0.14932437,0.156844,-0.31762525,-0.16200265,0.23851578,0.14374767,0.26176885,-0.24837221,-0.36509916,-0.2505231,0.16487873,-0.107639976,0.18008186,0.18001884,0.12834857,0.22831886,0.12984614,0.19078328,-0.3167975,0.17047882,0.20172392,0.17918865,0.24410152,0.16181684,0.15632473,0.17555374,-0.1843847,-0.17984375,0.23634897,0.26428714,-0.25643885,0.18035862,0.21202417,0.17732155,0.062276732,-0.22927634,0.21722063,-0.2604845,0.2092478,0.31256095,0.18470459,0.1433946,0.10263112,-0.23785108,-0.20808686,-0.12700132,0.12331753,0.2030826,0.19258343,-0.22095835,-0.11179269,-0.10509941,-0.13402714,-0.17164822,0.06070109,-0.2430714,0.14351511,0.15296194,0.10913806,-0.08431112,-0.2194235,-0.23708034,0.1792772,0.23225631,-0.15869546,-0.13090093,0.13119176,-0.08216793,-0.18669334,-0.313559,-0.2498199,0.21511917,-0.16182326,-0.18914859,0.28253174,-0.18280974,-0.1556248,-0.24726732,0.14503488,-0.06872194,0.08165395,0.14299028,-0.2065793,-0.26841965,0.14078826,0.1931298,0.16990736
f9_i1,0.12861091,-0.22662328,0.24813084,-0.18453872,-0.18745571,0.16843021,-0.19098522,-0.13422965,0.15700978,-0.17281152,0.2196107,-0.2820469,0.12696621,-0.18461508,0.2557297,-0.2598218,-0.17167021,0.18509516,0.10147556,0.100592494,-0.13287981,-0.19442475,-0.18719958,0.2409807,-0.18236053,0.10474159,0.04928833,0.17298666,0.15816264,0.12036489,0.13998422,-0.22564921,0.31619266,0.2012541,0.2095176,0.17464916,0.2043948,0.31286326,0.23791713,-0.1860453,-0.18718563,0.08417431,0.22927308,-0.23828103,0.22337924,0.25342268,0.20005365,0.1002096,-0.21248777,0.18797155,-0.25418663,0.10435441,0.06417745,0.15448867,0.21526642,0.19834404,-0.22208463,-0.088384435,-0.1907365,0.07193931,0.23902348,0.21925585,-0.20400941,-0.14394833,-0.24131328,-0.14999075,-0.27005476,0.19961573,-0.24907294,0.1457653,0.13422291,0.123422734,-0.1705802,-0.25946474,-0.1286418,0.2335535,0.20661753,-0.08523427,-0.18154623,0.14625393,0.013723868,-0.14698945,0.017482784,-0.16993481,0.07983665,-0.22780712,-0.25698802,0.09919351,-0.20126227,0.020243134,-0.14683698,0.18096016,-0.043080963,0.21271731,0.15739806,-0.17133848,-0.25574732,0.25355697,0.23331624,0.25103745
f9_i2,0.16544428,-0.175722,0.22396073,-0.19957843,-0.28390896,0.12008862,-0.19702502,-0.18063541,0.12192862,-0.21196593,0.1863608,-0.16853692,0.20114858,-0.21202245,0.20421833,-0.190304,-0.2292671,0.21323453,-0.05850366,0.23464319,-0.22232696,-0.30611002,-0.22091216,0.175078,-0.18210505,0.22289124,0.26504686,0.22157162,0.24357045,0.19970748,0.16353354,-0.16792889,0.15844971,0.17769502,0.21054846,0.25038642,0.12187503,0.23740298,0.20025407,-0.2606027,-0.08666886,0.277781,0.29035583,-0.09768003,0.16246352,0.21317853,0.21874733,0.19305253,-0.23054807,0.24412414,-0.19169743,0.18542205,0.14905813,0.1801547,0.25951982,0.16867664,-0.16129972,-0.18283539,-0.22273867,0.06751942,0.16409364,0.25433066,-0.17485091,-0.17364646,-0.2620766,-0.26357114,-0.15034062,0.2028966,-0.18458538,0.23899032,0.17572074,0.20769092,-0.17685334,-0.12115462,-0.20347609,0.15493074,0.18796134,-0.08854592,-0.15668283,0.046661932,-0.0053622536,-0.13305527,0.031678323,-0.18620475,0.15094882,-0.13860081,-0.12753505,0.17488979,-0.15650311,-0.07849779,-0.23233125,0.16085714,0.10786344,0.113486126,0.15528682,-0.14305012,-0.24573421,0.22679637,0.17438722,0.19407383
f9_i3,0.100779936,-0.070889026,0.054293983,-0.2526666,-0.16354135,0.19574726,-0.21589264,-0.17369877,0.22739844,-0.22810945,0.16216263,-0.20139821,0.25368932,-0.21459565,0.23955658,-0.12637709,-0.20126823,0.21938677,0.3027455,0.1554327,-0.17471601,-0.2377901,-0.016585544,0.23875411,-0.23145352,0.14979985,0.1552359,0.18895864,0.14508677,0.1955761,0.16456322,-0.20196809,0.19952543,0.19562672,0.1472789,0.12607113,0.18002418,0.13456082,0.20155187,-0.2581493,-0.21749404,0.16807748,0.23750582,-0.11550896,0.18765797,0.13027781,0.19793993,0.27490836,-0.19646148,0.10909464,-0.12724726,0.14229879,0.3586736,0.26923853,0.1936356,0.30672005,-0.24742047,-0.2012605,-0.09786986,0.10528941,0.10816235,0.282842,-0.13019454,-0.28495705,-0.23284614,-0.35457703,-0.20423292,0.17946322,-0.29894328,0.155429,0.26658475,0.19735783,0.0030910275,-0.07718696,-0.14674029,0.29885134,0.22916473,-0.13169776,-0.2230773,0.06980444,-0.013047946,-0.23997818,-0.15020554,-0.17879637,0.24685049,-0.13642605,-0.19544797,0.108864225,-0.1660145,-0.062289305,-0.048676535,0.036708,0.070875965,0.047952924,0.25374302,-0.23370904,-0.1466752,0.17411782,0.28103858,0.17607829
f9_i4,0.18016659,-0.20718072,0.16576834,-0.2002012,-0.2594271,0.1050493,-0.2520483,-0.15258938,0.22003216,-0.21914066,0.2865693,-0.2190559,0.1663625,-0.107642904,0.24933547,-0.18060383,-0.21099351,0.19487362,0.060212065,0.19868898,-0.16134566,-0.25302708,-0.17554964,0.19134979,-0.11678969,0.13808013,0.14028716,0.20337684,0.1910639,0.121419005,0.23800306,-0.16095033,0.14127462,0.18085493,0.2802583,0.1098965,0.35172683,0.1705013,0.109115295,-0.12982081,-0.2125372,0.24779452,0.19211973,-0.12869303,0.14316334,0.29942665,0.25701547,0.13866378,-0.18880348,0.23503025,-0.24665958,0.19577123,0.21059765,0.14702499,0.19479135,0.2676381,-0.22008625,-0.25218406,-0.086410776,-0.072902,0.18670323,0.21588565,-0.19555685,-0.27592856,-0.18447891,-0.22408248,-0.31974947,0.30524322,-0.2676005,0.25056386,0.14481054,0.17517374,-0.09481437,-0.11530726,-0.25399405,0.26779556,0.23638853,-0.16253056,-0.19720103,0.20481662,-0.285319,-0.23563293,0.04867662,-0.2371331,0.112874545,-0.24511719,-0.22185197,0.11962786,-0.28550103,-0.08615229,-0.18087532,0.13083458,0.18753317,0.18714352,0.23842983,-0.21917553,-0.26685745,0.14998391,0.19107449,0.09951288
f9_i5,0.16912794,-0.22019513,0.055677235,-0.15019035,-0.26078388,0.231798,-0.176696,-0.10442373,0.18951961,-0.30084917,0.27239442,-0.11570449,0.20429385,-0.14951801,0.19656491,-0.2538236,-0.16261578,0.28164986,-0.056395967,0.050257325,-0.16013493,-0.19788308,-0.08101094,0.17850544,-0.26239312,0.14391233,0.20055875,0.11933602,0.2003124,0.1962975,0.17834218,-0.33868513,0.18495569,0.1323865,0.1510769,0.32381016,0.19512777,0.15590179,0.13008422,-0.08717391,-0.07201393,0.23926778,0.25960487,-0.15699908,0.2181114,0.21470173,0.22445115,0.18714426,-0.18024924,0.22815727,-0.1793626,0.16482937,0.0042325784,0.25713885,0.1834119,0.17467767,-0.16899407,-0.24122171,-0.13566291,-0.09179713,0.17049465,0.23934428,-0.28933367,-0.16354367,-0.2197806,-0.22567585,-0.23855738,0.13234298,-0.21346454,0.28074318,0.1595905,0.21329118,-0.1534099,-0.14117002,-0.16861688,0.15065788,0.1559918,-0.15953922,-0.17047134,0.25578296,0.059675124,-0.13500448,0.35097817,-0.19990353,0.0628645,-0.20703003,-0.0804163,0.10534471,-0.19828756,-0.048580553,-0.11806958,0.19289888,0.12754482,0.17553678,0.20295636,-0.10505748,-0.19370584,0.18338878,0.25041315,0.22088987
f10_i1,0.2445322,-0.11723563,0.12615246,-0.19933058,-0.1564109,0.29601598,-0.25133628,-0.1782086,0.23920451,-0.18971649,0.16264942,-0.18062848,0.20324928,-0.15262826,0.21498588,-0.23786002,-0.16923593,0.23332012,-0.3075781,0.13370147,-0.23824033,0.0074251103,-0.20108081,0.20210858,-0.26470515,0.19083092,0.12808883,0.08423652,0.17111272,0.15712,0.2621733,-0.18017745,0.11178687,0.23477225,0.22709757,0.18880618,0.025337365,0.22568595,0.22229487,-0.15806204,-0.18560812,0.14702307,0.2520881,-0.22297801,0.17216125,0.1840806,0.21288316,0.12831055,-0.30920595,0.19157098,-0.17403342,0.17118146,0.26034692,0.09538393,0.29069945,0.22844633,-0.19932349,-0.11194831,-0.23623198,0.23520167,0.16537572,0.19826879,-0.2101013,-0.11983062,-0.15823722,-0.14684507,-0.2795795,-0.03715211,-0.13751936,0.18336791,0.09374367,0.31687188,-0.055018898,-0.2232908,-0.21566181,0.15063444,0.1819896,-0.2650004,-0.2237119,0.24737245,0.35933325,-0.2996129,-0.10069896,-0.14931771,0.09768684,-0.1530398,-0.15267952,0.12849075,-0.19021599,0.17633799,-0.22905882,0.2832798,-0.016635155,0.29762223,0.2265528,-0.21939643,-0.21445236,0.22182357,0.24164988,0.21468875
f10_i2,0.21384239,-0.21207152,0.27791107,-0.23576891,-0.21043664,0.22296453,-0.2095281,-0.2078894,0.1607042,-0.25280455,0.23525839,-0.28186473,0.117013924,-0.22447816,0.17583913,-0.17130873,-0.15085085,0.29823378,-0.10873261,0.21307716,-0.19329624,-0.05865688,-0.29992244,0.23718582,-0.23264603,0.18191151,0.053590942,0.17239018,0.115826696,0.24210219,0.16859412,-0.26536888,0.13877726,0.08473864,0.17543517,0.20852436,0.21772604,0.17536432,0.1556395,-0.15080744,-0.13181949,0.2876501,0.17021343,-0.25508067,0.11601711,0.15323913,0.15897763,0.123809926,-0.29564658,0.20456935,-0.23278154,0.15310633,-0.009590725,0.17725436,0.26283637,0.14667527,-0.18665528,-0.20564176,-0.16922063,0.20962161,0.18239827,0.23507515,-0.11981838,-0.27600235,-0.21409404,-0.16524148,-0.25869372,-0.09533,-0.07170028,0.21739936,0.19588234,0.3693579,-0.014301657,-0.13835607,-0.23229788,0.15635829,0.19743899,-0.14586608,-0.21416357,0.20801364,0.37247613,-0.12361213,0.021739962,-0.22506899,0.12672774,-0.21102084,-0.19352888,0.2675133,-0.2456762,-0.031076554,-0.19591199,0.20729847,-0.06838155,0.13996702,0.22749883,-0.21890369,-0.20485729,0.15856463,0.1050004,0.11418143
f10_i3,0.17010571,-0.22965708,0.16573896,-0.18027192,-0.17483167,0.2196291,-0.2789326,-0.14418425,0.121645205,-0.16522601,0.21605803,-0.3069655,0.17414805,-0.19975352,0.19386919,-0.1790698,-0.2665375,0.21582323,0.09599194,0.14498687,-0.25026464,-0.1892161,-0.16949917,0.21306112,-0.2155271,0.24898319,0.13165036,0.09070975,0.116257615,0.21980286,0.29659507,-0.20229359,0.15845287,0.11991465,0.26734304,0.1406693,0.14204992,0.077764586,0.1344404,-0.16078871,-0.17533192,0.13256273,0.21260308,-0.2541038,0.23845787,0.26023886,0.27004254,0.27222547,-0.24054545,0.19117862,-0.27995518,0.20795357,0.21778175,0.23374343,0.24399768,0.15887944,-0.19991717,-0.2177137,-0.15426092,0.21098806,0.13308261,0.27364033,-0.18335554,-0.011332895,-0.1462844,-0.24038485,-0.23757632,0.14192341,-0.17310776,0.14571638,0.029376699,0.14905323,-0.12818119,-0.17506833,-0.127194,0.2229658,0.25022346,-0.25291228,-0.19741122,0.18372302,0.17492478,-0.2247772,-0.2667761,-0.19850197,0.1339259,-0.2567663,-0.1201119,0.2073523,-0.16965836,0.07395503,-0.26189718,0.1688552,-0.002616096,0.14569297,0.24297157,-0.1715359,-0.23764582,0.22068559,0.1904888,0.21145943
f10_i4,0.19355883,-0.17098849,0.3423344,-0.1529183,-0.17665167,0.12198216,-0.15916833,-0.22672704,0.18935542,-0.19453463,0.28387058,-0.24340081,0.20409603,-0.18145408,0.13455465,-0.19917805,-0.17540264,0.21282312,-0.17803016,0.32424262,-0.25057766,-0.035899002,-0.32187128,0.22453584,-0.19439667,0.2546063,0.14863354,0.1565262,0.20787217,0.25668684,0.27439207,-0.15771826,0.2536828,0.24234976,0.18110003,0.16259597,0.15476082,0.1376004,0.23360157,-0.0951547,-0.1288671,0.17922314,0.1723537,-0.15345092,0.09708212,0.22698882,0.26310578,0.16852805,-0.13501367,0.22108044,-0.26865488,0.063579634,-0.10953975,0.27246904,0.22549355,0.12368412,-0.2163867,-0.20960823,-0.1642079,0.21179925,0.16524506,0.20076351,-0.21920756,-0.07313828,-0.18063189,-0.16192047,-0.23833185,0.1224846,-0.28096893,0.16524972,0.21227002,0.1616755,0.22382905,-0.28722158,-0.16583543,0.2548838,0.2320415,-0.18176797,-0.21872069,0.13336496,-0.09611315,-0.22438505,0.030142035,-0.18776938,0.061439224,-0.1972754,-0.13991809,0.086783186,-0.25356078,0.2080613,-0.21770357,0.28064913,-0.23968236,0.14161366,0.09620515,-0.28683144,-0.22865424,0.18768881,0.28594044,0.13781159
f10_i5,0.25039232,-0.2650765,0.14075376,-0.25242168,-0.13519898,0.17192271,-0.14378713,-0.19986065,0.27664608,-0.20728835,0.15388133,-0.22651455,0.17660868,-0.29564956,0.17622276,-0.23758908,-0.31023505,0.23418875,-0.08589898,0.066306345,-0.23717766,-0.16361111,-0.07946849,0.2688206,-0.30575106,0.21654998,0.029489035,0.12810479,0.2544281,0.15136331,0.13550569,-0.15373518,0.14954756,0.3128056,0.22888842,0.1888747,0.17048375,0.13097444,0.20046829,-0.11423391,-0.25185993,0.25323045,0.15923586,-0.21893078,0.13283446,0.2834268,0.11765478,0.25066635,-0.15157777,0.15258832,-0.18540454,0.106158786,-0.059603278,0.17191249,0.21707375,0.11218232,-0.24018688,-0.16002788,-0.14215896,0.22540422,0.15617502,0.15498427,-0.19464031,0.047597826,-0.2363295,-0.1621314,-0.17083162,0.21339631,-0.24918427,0.22865301,0.22983451,0.17904614,-0.0800684,-0.21103643,-0.26000112,0.18254781,0.1981651,-0.24296379,-0.18310377,0.32027844,0.1830082,-0.19303878,0.112501696,-0.23808607,0.16356124,-0.21226297,-0.16773628,0.1744177,-0.24737076,0.22487116,-0.09019291,0.25879833,0.050816454,0.03888333,0.20871684,-0.2656997,-0.1801584,0.2782708,0.21164003,0.26074782
f11_i1,0.23076336,-0.1931875,0.15927538,-0.22496668,-0.17091134,0.116388455,-0.2574348,-0.19330645,0.2313464,-0.1792206,0.26107705,-0.16778605,0.14182518,-0.21583739,0.23206995,-0.21571185,-0.16407281,0.23596933,-0.096282825,0.100925826,-0.23200668,-0.19641645,-0.30563384,0.12762468,-0.27122575,0.26973295,0.25397214,0.18922535,0.16745062,0.08839702,0.17943723,-0.2056861,0.18558154,0.00944733,0.27003834,0.14104836,0.0643627,0.13023622,0.058452,-0.15185797,-0.28384098,0.21969792,0.25444376,-0.20912902,0.20128275,0.2305015,0.23678423,0.3095413,-0.21031088,0.1340176,-0.21494773,0.1799063,0.15308379,0.2545371,0.22298034,0.26074836,-0.27008918,-0.07914869,-0.195552,0.18485267,0.15288469,0.24431379,-0.2797056,-0.04291066,-0.24582706,-0.18087497,-0.1894075,0.051701345,-0.22762632,0.16617815,0.16572426,0.24031478,0.021692384,-0.18889967,-0.1547671,0.20376363,0.23240837,-0.19932303,-0.15011016,0.24106431,0.13180353,-0.12993191,0.11685913,-0.22981122,0.27600187,-0.28990063,-0.11100041,0.14017524,-0.17431818,0.05499581,-0.14616814,0.1679666,-0.026695736,0.113696255,0.30028763,-0.2457302,-0.24075116,0.2683486,0.22372913,0.15413862
f11_i2,0.1770666,-0.12912932,0.18289635,-0.28866962,-0.30231404,0.14702876,-0.20329472,-0.18114622,0.14293759,-0.2208382,0.18466188,-0.2740023,0.1856286,-0.16415912,0.18012221,-0.2859945,-0.23415598,0.21359374,0.047930233,0.18501934,-0.24196988,-0.17686917,-0.18672152,0.2940888,-0.23443475,0.15982445,0.16461858,0.18645595,0.18226257,0.26105267,0.2872737,-0.22597767,0.12697281,0.15562041,0.22574621,0.07842475,0.11297334,0.14267473,0.15516427,-0.23381421,-0.19919398,0.19335425,0.21636514,-0.17510034,0.23720634,0.112653196,0.14114644,0.22809571,-0.22530936,0.13060889,-0.19723703,0.09799342,0.17216742,0.05844976,0.21154115,0.3330991,-0.2651048,-0.20455575,-0.22628124,0.088231444,0.12673499,0.3075201,-0.19306022,0.040650476,-0.21103217,-0.2922701,-0.15552011,0.13304642,-0.22764558,0.1079727,0.14589694,0.26092628,-0.104321994,-0.14744459,-0.19917762,0.1786811,0.1409253,-0.095148355,-0.22079596,0.2819796,-0.13349718,-0.18607007,0.17187154,-0.20863216,0.12917796,-0.25340396,-0.13496916,0.1358568,-0.23201773,-0.054859348,-0.2012106,0.1643988,-0.03854132,-0.030699125,0.14845689,-0.184887,-0.28024483,0.2987216,0.34840128,0.20857383
f11_i3,0.2416333,-0.20859976,0.032973226,-0.27282786,-0.15807225,0.13245063,-0.24661842,-0.1638654,0.1771352,-0.11388779,0.17527768,-0.17054667,0.20248562,-0.17185362,0.27032062,-0.28492802,-0.23861969,0.15256901,0.16025984,0.15544079,-0.1851469,-0.15223272,-0.27886686,0.08911874,-0.15729685,0.09821414,0.22678877,0.23210214,0.2292385,0.1194174,0.19317292,-0.16313833,0.12620504,0.15841515,0.26322982,0.16646655,0.017751541,0.1579192,0.19487154,-0.11837569,-0.22381155,0.18417212,0.25103498,-0.15748799,0.2656171,0.1648362,0.3026261,0.2805302,-0.20918353,0.23464839,-0.17706767,0.18790537,0.21245483,0.3168588,0.19684604,0.25001115,-0.14148127,-0.18466294,-0.068769306,0.09727005,0.08188695,0.29441372,-0.20512299,-0.037399296,-0.24810955,-0.1631332,-0.26769435,0.023280341,-0.2566147,0.23074266,0.11031616,0.29281458,0.015009189,-0.20332849,-0.14413755,0.20152839,0.17520675,-0.20476775,-0.13942254,0.10259292,0.09828161,-0.15386136,0.17036696,-0.2127118,0.23602195,-0.19875212,-0.21156764,0.26053882,-0.24191986,0.16597079,-0.062367298,0.23835893,-0.011784666,0.16489093,0.114987396,-0.15039828,-0.19785887,0.23374778,0.24185279,0.11917766
f11_i4,0.18430384,-0.18455791,0.2121135,-0.18917097,-0.25335371,0.103607744,-0.2829102,-0.23588124,0.19152635,-0.19430998,0.2121299,-0.24313065,0.28377187,-0.1820812,0.18969531,-0.23697919,-0.1582337,0.28087732,-0.3030245,0.20391002,-0.25783306,-0.28689554,-0.08624687,0.29678014,-0.30036503,0.2599921,0.12736267,0.20091921,0.15962504,0.18846914,0.16661178,-0.24079241,0.13010873,0.16503835,0.18389414,0.20565753,0.20138922,0.1388655,0.22624998,-0.16861103,-0.15372254,0.1965309,0.29543677,-0.22354327,0.22928071,0.2238373,0.22413583,0.2807159,-0.20705883,0.29131165,-0.23773263,0.23370963,0.1741789,0.1290437,0.2633147,0.18726589,-0.25150144,-0.14811926,-0.13715221,-0.12220622,0.21116412,0.24767394,-0.2549188,0.056703012,-0.18556108,-0.22264259,-0.21001406,0.07086895,-0.22182646,0.1269224,0.13649775,0.20720652,-0.09205224,-0.20735309,-0.15767299,0.29647195,0.13706012,-0.23897506,-0.21380712,0.2563935,0.15396896,-0.30126578,0.17385897,-0.22966523,0.2235371,-0.24975927,-0.1990306,0.13127236,-0.19344923,0.15078531,-0.21569312,0.1526936,0.112062514,0.17405336,0.18490732,-0.17460477,-0.30343154,0.16957964,0.18562993,0.21472469
f11_i5,0.18814921,-0.084119,0.11552567,-0.20084773,-0.24180698,0.2716069,-0.20146993,-0.20363082,0.26851735,-0.12571535,0.1985324,-0.17442638,0.25653422,-0.15003046,0.21149851,-0.21344599,-0.21470638,0.2248561,-0.2131953,0.20832548,-0.2522408,-0.20274736,-0.11487123,0.20112635,-0.21725273,0.10272694,0.21710362,0.19039446,0.26521996,0.121849604,0.26721576,-0.24859126,0.15960868,0.15626986,0.30492872,0.17328237,0.12880802,0.049261395,0.21546516,-0.26118994,-0.26466557,0.22442941,0.2582197,-0.13319382,0.24645087,0.2439176,0.23885417,0.16650152,-0.16967416,0.12534052,-0.23147385,0.16365841,0.12635525,0.24811363,0.22279228,0.19858271,-0.21643634,-0.20697634,-0.209495,0.011460918,0.17593302,0.24091567,-0.18007872,-0.2123062,-0.20195058,-0.16728978,-0.28590214,0.058218505,-0.19515099,0.23364124,0.10486862,0.2935813,-0.1896196,-0.17589642,-0.18859851,0.23893753,0.19003254,-0.10485837,-0.26226828,0.19088267,0.18119144,-0.21493623,0.12108528,-0.18768592,0.17557472,-0.22033735,-0.14659368,0.2002002,-0.17945844,0.23647682,-0.16636182,0.16936113,-0.10130238,0.06981088,0.09935142,-0.11507621,-0.15901387,0.180194,0.2818223,0.22170144
f12_i1,0.2633103,-0.2739208,0.0103297345,-0.20767502,-0.17648944,0.17974211,-0.30558342,-0.24350269,0.16783266,-0.11738878,0.22612847,-0.19157907,0.25751948,-0.19162075,0.26670796,-0.16653171,-0.18125369,0.11597131,0.05304039,0.23567948,-0.25487992,-0.20349656,-0.18206002,0.2799021,-0.19712983,0.12618476,0.08286129,0.17334807,0.22496352,0.2422562,0.15434282,-0.26652998,0.1719497,0.103148356,0.20028713,0.17273645,0.17883065,0.20210183,0.14628625,-0.2170593,-0.18567581,0.16580838,0.17797546,-0.14917836,0.21949823,0.2540004,0.23217665,0.21889742,-0.1132811,0.25307545,-0.25266328,0.23954515,0.23686995,0.19530627,0.18312535,0.06819258,-0.27025872,-0.15860812,-0.14980017,0.082135394,0.27020296,0.2993655,-0.19257519,-0.08714423,-0.31410453,-0.3274615,-0.12328012,0.07261524,-0.16440998,0.084075294,0.21761039,0.1397685,0.13542151,-0.20892552,-0.24510297,0.07659576,0.20824778,-0.15519908,-0.24670725,0.23575746,-0.031022044,-0.28333035,0.16562627,-0.18452983,0.31679136,-0.16211872,-0.1481298,0.32108474,-0.26332006,0.048543576,-0.13182867,0.29400393,0.16465686,0.3113905,0.18244466,-0.26478896,-0.274049,0.07658074,0.19791205,0.24096079
f12_i2,0.19858164,-0.18242596,0.22170866,-0.20160177,-0.26185808,0.19790365,-0.1856107,-0.07191964,0.12844169,-0.28387535,0.27128366,-0.3064721,0.27909923,-0.21855141,0.14405368,-0.2351807,-0.1218066,0.09167792,-0.09521486,0.120321505,-0.15574652,-0.11480316,-0.09996967,0.21086508,-0.2698453,0.13272786,0.11034038,0.11605286,0.23705566,0.18063472,0.115442984,-0.30223078,0.21197872,0.16254489,0.19651537,0.22394037,0.04385762,0.1853456,0.3187071,-0.18957992,-0.24218489,0.1282779,0.2673878,-0.30814058,0.20077868,0.22729175,0.07556901,0.20657457,-0.25529727,0.13050464,-0.22320822,0.22641166,0.05402814,0.2606369,0.25618595,0.08017682,-0.23703547,-0.145327,-0.25703493,0.28135684,0.2143121,0.20555523,-0.13015044,-0.11697001,-0.14328204,-0.19418126,-0.32661313,0.23222797,-0.10098994,0.13825102,0.20300648,0.2919732,-0.11898306,-0.21265505,-0.16687886,0.24435996,0.3119562,-0.18361041,-0.24699709,0.17536102,0.21621206,-0.22919744,0.20390476,-0.2218732,0.21710703,-0.19189548,-0.15391125,0.24537636,-0.1487515,0.09236867,-0.21749271,0.23317549,-0.016882164,0.020282462,0.07469088,-0.26448843,-0.24537419,0.22558677,0.236766,0.21253918
f12_i3,0.21443544,-0.13386543,0.19526991,-0.2360982,-0.14239451,0.09931191,-0.3359029,-0.13015342,0.09923092,-0.31170154,0.21727465,-0.16293721,0.22716103,-0.19656506,0.20209453,-0.25789762,-0.20259303,0.15425374,0.1935268,0.18316019,-0.17189626,-0.23210669,-0.079382226,0.19097798,-0.17676407,0.20727171,0.085861295,0.15164454,0.14598936,0.24606597,0.25705045,-0.08037721,0.30441993,0.038199335,0.25462314,0.1584121,0.20229216,-0.01673989,0.27275497,-0.20754543,-0.16718623,0.1874651,0.21770862,-0.22582309,0.16729523,0.20559503,0.16639344,0.12195318,-0.21587689,0.14519183,-0.21124776,0.19019035,-0.0040792776,0.33038223,0.11141798,0.17123057,-0.21669203,-0.25080368,-0.22839446,0.055232137,0.300625,0.32687733,-0.12967016,-0.2272602,-0.17811501,-0.3104984,-0.21615605,0.13048413,-0.2692025,0.103720054,0.23200639,0.17601642,-1.7110524e-05,-0.2604101,-0.22029977,0.1735651,0.15928742,-0.25464126,-0.17673959,0.11604683,0.058547527,-0.27627227,0.17344058,-0.19417563,0.31513107,-0.18049924,-0.22387254,0.16500096,-0.17406477,0.18851198,-0.24230514,0.19486651,-0.051957667,0.22342373,0.12885948,-0.24692579,-0.27891782,0.26728642,0.24175523,0.18237701
f12_i4,0.25684646,-0.16850185,0.14701666,-0.16483077,-0.2348516,0.20650072,-0.18026175,-0.18678793,0.09485854,-0.222252,0.20839366,-0.16826718,0.1715493,-0.20295253,0.27172762,-0.19699086,-0.27519235,0.15993796,-0.10283551,0.2503245,-0.21010965,-0.1875578,-0.18224204,0.17826371,-0.18986693,0.14796455,0.13402514,0.15258305,0.17608425,0.3187533,0.12701698,-0.16238086,0.29822358,-0.0310854,0.24613322,0.22413166,0.15265457,0.22024445,0.19784118,-0.30290285,-0.2723589,0.21349902,0.23027782,-0.08968328,0.1816137,0.17564729,0.15281539,0.21155924,-0.24945049,0.12620355,-0.19699991,0.26968837,0.27793688,0.31419268,0.17532523,0.118814215,-0.25408345,-0.18897563,-0.20492668,0.30553737,0.24749297,0.20344542,-0.25843063,-0.31099868,-0.21507019,-0.26206803,-0.13852058,0.028157154,-0.19954959,0.083174415,0.119212635,0.23684233,-0.055112377,-0.31585643,-0.17981966,0.12912446,0.13109753,-0.20063797,-0.14081761,0.07761231,-0.1303252,-0.19051112,0.23764724,-0.2935427,0.1707156,-0.16358276,-0.09154117,0.25127867,-0.23866682,-0.12145574,-0.12936717,0.14043355,-0.15971693,0.24530403,0.08327238,-0.17903432,-0.2223491,0.13825731,0.17661275,0.101009
f12_i5,0.18459114,-0.18631384,0.12868442,-0.21456507,-0.12268167,0.15676677,-0.12955593,-0.16236034,0.118702754,-0.2115476,0.18203546,-0.23310687,0.28406012,-0.1449319,0.11035089,-0.17991239,-0.25295562,0.17279753,-0.15241961,0.14539692,-0.17126428,-0.20023699,-0.17553368,0.24113487,-0.22908038,0.1898122,0.13594387,0.18345773,0.22794083,0.12167951,0.19353114,-0.211666,0.1930741,0.22555852,0.13667136,0.10293056,0.18326968,0.14065936,0.18663059,-0.15578656,-0.24814302,0.19828409,0.25465557,-0.20169224,0.18577154,0.11766937,0.14516948,0.08854811,-0.21284497,0.175279,-0.2292108,0.2966511,0.005824366,0.068947695,0.20152703,0.13592102,-0.29003963,-0.23569423,-0.25038525,0.29445958,0.33811247,0.1657373,-0.10015831,-0.20948803,-0.18789424,-0.2538196,-0.23557204,-0.19148295,-0.16530298,0.12972708,0.17307973,0.114702426,-0.14122047,-0.2213352,-0.20246375,0.2152006,0.2443889,-0.10128677,-0.22676194,0.0664139,0.10697171,-0.17461838,0.020666294,-0.20097654,0.27627286,-0.22856711,-0.24341245,0.18343833,-0.23385197,0.27409336,-0.24880478,0.26600942,-0.025460888,0.26625207,0.2247865,-0.21602674,-0.18995284,0.147468,0.17519127,0.193531
f13_i1,0.108183816,-0.080266446,0.15051915,-0.12690866,-0.18798162,0.29677615,-0.2192328,-0.1645154,0.13065301,-0.21095325,0.27473605,-0.19841196,0.16423824,-0.243912,0.1884367,-0.113833725,-0.17954995,0.18519263,-0.41620815,0.2871933,-0.2120638,-0.19117124,-0.18230492,0.23312448,-0.20994887,0.2887623,0.14331597,0.21624085,0.15107407,0.13258062,0.112055354,-0.25948572,0.14565986,0.15982905,0.15299204,0.27496994,0.18066362,0.1395636,0.15246086,-0.2016159,-0.18108293,0.18130688,0.18542407,-0.1258967,0.22273548,0.18029033,0.23054072,0.15640928,-0.15661702,0.024470845,-0.1864187,0.24645193,0.07359555,0.28507373,0.17414127,0.17102109,-0.17522277,-0.2714708,-0.11404991,-0.089776166,0.27596813,0.21660338,-0.24793634,-0.10038012,-0.1649283,-0.24007896,-0.27091417,0.31152046,-0.09355199,0.12511517,0.22520745,0.18308525,-0.1566468,-0.22596075,-0.19922258,0.07983267,0.25032246,-0.19564012,-0.28249502,0.09596548,0.15326123,-0.21294762,0.035409987,-0.21326452,0.2208841,-0.1789077,-0.15763421,0.20970145,-0.21343608,0.12901591,-0.21497811,0.17886005,0.021763032,0.33315793,0.1937649,-0.26811182,-0.22289547,0.20181568,0.30091482,0.23205249
f13_i2,0.12852684,-0.11095626,0.1307953,-0.15722351,-0.23729734,0.25507456,-0.21448229,-0.15252548,0.15065749,-0.21360277,0.2421296,-0.22415936,0.19859765,-0.2658932,0.28423733,-0.117418565,-0.14853029,0.17104608,0.106847756,0.19530718,-0.2015698,-0.20980516,-0.025771938,0.16575465,-0.24386384,0.052562088,0.18925898,0.18211026,0.275603,0.18706995,0.21805906,-0.24727109,0.29219386,0.27287164,0.17052522,0.11590535,0.119449385,0.16209848,0.050929233,-0.24823192,-0.24404606,0.15029411,0.14909485,-0.26111704,0.17268674,0.1882487,0.22598128,0.10425657,-0.27804273,0.19975236,-0.18822435,0.17379501,0.11783433,0.25010085,0.18292825,0.19593072,-0.17599759,-0.13560277,-0.16849624,-0.116001956,0.17463714,0.22242497,-0.10399893,-0.17389908,-0.20664482,-0.32905644,-0.2631347,0.25544006,-0.23606434,0.21010958,0.2644923,0.0697998,-0.3432096,-0.16829386,-0.2562121,0.1953901,0.15823033,-0.092993304,-0.18202078,0.06838041,0.046775017,-0.17298315,-0.061763998,-0.23872247,0.2949508,-0.23624268,-0.16084006,0.1981313,-0.24506617,0.07405013,-0.18590388,0.21352863,0.1428729,0.14767532,0.15981555,-0.24316862,-0.2563423,0.15728328,0.29168916,0.19426863
f13_i3,0.13257106,-0.22750686,0.17692684,-0.22575471,-0.1070647,0.24364418,-0.17544061,-0.14408635,0.21376196,-0.1795739,0.13047288,-0.2030011,0.14264219,-0.22890061,0.28934625,-0.27136213,-0.26458865,0.21859586,-0.28633618,0.14420664,-0.204402,-0.053152032,-0.1515345,0.19510524,-0.24558556,0.20620212,-0.050307885,0.19459686,0.3232955,0.29551774,0.20002379,-0.09846412,0.11880262,0.17499402,0.23259063,0.19631562,0.15473278,0.19051678,0.16962534,-0.20825323,-0.21723284,0.25826037,0.23504074,-0.17008817,0.20364243,0.26811343,0.24740551,0.20739833,-0.17680547,0.14786178,-0.2821425,0.19554836,0.18541409,0.12116823,0.23474714,0.19118235,-0.16598165,-0.13570601,-0.22635797,0.22102995,0.12768178,0.24953108,-0.23952948,-0.18173294,-0.11646139,-0.16722491,-0.23876266,0.111737885,-0.157033,0.13386428,0.16239308,0.18685518,-0.08661921,-0.1666712,-0.25077185,0.18514831,0.14668478,-0.165227,-0.10780241,0.10172718,0.048453998,-0.23944609,0.1222052,-0.28117675,0.13238688,-0.2135532,-0.21482351,0.10828722,-0.28098953,0.058864634,-0.29779238,0.19668691,-0.17816591,0.15661873,0.103978135,-0.2216453,-0.176685,0.20185958,0.2957447,0.2155592
f13_i4,0.13838266,-0.31430763,0.15790571,-0.23805834,-0.16347544,0.29959837,-0.21927465,-0.23977304,0.15266879,-0.23618765,0.20796895,-0.28965476,0.17027496,-0.17040874,0.19478725,-0.233934,-0.23421031,0.18651885,-0.13303916,0.276575,-0.18132828,0.009568126,-0.25952694,0.17349197,-0.23881662,0.31924534,0.23433132,0.21423264,0.19211352,0.3306305,0.19077517,-0.18462871,0.26152134,0.24093673,0.17510834,0.13757525,0.13766964,0.08225899,0.085604094,-0.18548726,-0.18326165,0.14323306,0.26924002,-0.18157633,0.08498373,0.14406213,0.20724581,0.13895342,-0.21004377,0.23595607,-0.15563038,0.12299794,0.1346736,0.27826002,0.21589845,0.15008777,-0.20506962,-0.1446057,-0.20690833,-0.09179989,0.13217208,0.20215583,-0.20595953,-0.26755905,-0.18547669,-0.16619128,-0.25296935,0.114397965,-0.11750026,0.1373948,0.20191698,0.19596164,0.03809024,-0.25462466,-0.1396282,0.09322134,0.24311551,-0.19298229,-0.23613285,0.25558686,-0.32309142,-0.29119757,0.35359317,-0.16402218,0.16230698,-0.22657016,-0.2371451,0.06790281,-0.14004712,-0.0997981,-0.22958012,0.29576838,-0.1714401,0.17167947,0.14771739,-0.14082935,-0.18325602,0.15475267,0.22785567,0.2384279
f13_i5,0.25712237,-0.20758905,0.17680556,-0.24282613,-0.2858206,0.1885013,-0.17842555,-0.29090577,0.10745645,-0.1446361,0.16922277,-0.1569677,0.22243711,-0.24709934,0.1585604,-0.121647924,-0.23323719,0.13940479,-0.2111094,0.19562687,-0.10750508,-0.080405205,-0.1667086,0.19229761,-0.123799115,0.2111142,0.10717604,0.17833386,0.17575265,0.27265617,0.19635668,-0.24398486,0.20854007,0.2268864,0.13151203,0.16863294,0.10809218,0.09369022,0.164536,-0.11302421,-0.24375115,0.2432599,0.16670886,-0.22403194,0.25787082,0.2694214,0.20110698,0.07591326,-0.20369448,0.13891889,-0.15976718,0.14993015,0.21168485,0.2628903,0.25311482,0.20498747,-0.19454227,-0.19831783,-0.20673504,0.015365249,0.16874412,0.31204474,-0.23664002,-0.22624491,-0.1715729,-0.2256106,-0.25854415,0.10782395,-0.14223245,0.23096672,0.24058023,0.2293369,-0.22074133,-0.13591728,-0.14835921,0.22837965,0.22133823,-0.24724975,-0.2385776,0.19660872,-0.2095016,-0.2902346,-0.08565126,-0.19852588,0.22620994,-0.24199015,-0.13671368,0.22632977,-0.18729934,0.01921892,-0.20398992,0.21251862,0.07908318,0.072907865,0.19560078,-0.19381757,-0.27072123,0.14180952,0.16831619,0.28095224
f14_i1,0.17177862,-0.0963362,0.18374608,-0.21241899,-0.26680744,0.17532977,-0.23430367,-0.12999965,0.21742465,-0.13558349,0.21308762,-0.24777411,0.1507111,-0.18779634,0.26562473,-0.09561803,-0.2320416,0.20320275,-0.13650465,0.03601741,-0.2507562,-0.15805955,-0.29994267,0.21779862,-0.16144371,0.18885756,0.21013525,0.24230352,0.18763512,0.16354407,0.2774216,-0.1298182,0.19441497,0.14713438,0.21557046,0.17236605,0.2375497,0.1809353,0.21057914,-0.22104762,-0.2328107,0.10064455,0.23349246,-0.20278542,0.19191524,0.27433798,0.36019072,0.101441674,-0.17599952,0.16100752,-0.23453651,0.116251424,0.157475,0.14860973,0.17196624,0.18899137,-0.14892235,-0.21767823,-0.16123945,-0.03373677,0.26933682,0.27188805,-0.22869337,-0.15002565,-0.14746621,-0.30488288,-0.26450032,0.03909409,-0.16922474,0.2914489,0.16255997,0.3175269,-0.27815622,-0.07195468,-0.18096928,0.19843452,0.23933846,-0.13250808,-0.1591672,0.21308598,0.023915505,-0.14186224,-0.17884289,-0.1347857,0.12088875,-0.21846944,-0.20071125,0.18376708,-0.19947937,-0.11625319,-0.13471426,0.2214135,-0.021777838,0.10247233,0.2587326,-0.22272857,-0.09468239,0.123131864,0.15455386,0.09692866
f14_i2,0.16454658,-0.2501755,0.08220928,-0.19169265,-0.25138947,0.19016208,-0.21469016,-0.09981527,0.24604385,-0.09972165,0.27785763,-0.21158384,0.12749231,-0.19656374,0.14508486,-0.11734771,-0.13171357,0.28715137,-0.12599592,0.24398613,-0.15416232,-0.20414852,-0.3000506,0.17575367,-0.18418863,0.05903881,0.09878652,0.15107843,0.14852612,0.12599878,0.25400305,-0.1936453,0.231171,0.20081368,0.22941773,0.2045168,0.30775693,0.2928503,0.17304824,-0.25400287,-0.18858337,0.22191873,0.21249308,-0.14256875,0.19863664,0.268939,0.24367769,0.23366182,-0.13020802,0.23962587,-0.16613562,0.22005902,0.1765826,0.20358434,0.16478308,0.20635465,-0.26375636,-0.26477998,-0.17234182,0.15902546,0.1933284,0.22939552,-0.14100333,-0.107777715,-0.14775656,-0.14804168,-0.31193888,0.05001548,-0.14970575,0.18595536,0.3310111,0.17091481,-0.21513338,-0.27849665,-0.095620245,0.25283566,0.19987153,-0.07030621,-0.22725128,0.22077729,0.34225643,-0.3012775,-0.0026040138,-0.1549318,0.20840314,-0.23950966,-0.18726924,0.1428095,-0.14685507,0.091341704,-0.13834198,0.12013794,-0.031935293,0.15925701,0.20449774,-0.1750389,-0.18221617,0.11420563,0.3220141,0.25742614
f14_i3,0.16283219,-0.23607048,0.12965837,-0.25656423,-0.24827456,0.2914958,-0.22011346,-0.20959671,0.15841119,-0.13484998,0.21410827,-0.26137125,0.18002106,-0.20268917,0.23655927,-0.29530945,-0.2230735,0.15552762,-0.117709056,0.26251528,-0.19880165,-0.17300364,-0.19389375,0.11360117,-0.16048576,0.18597178,0.11230765,0.20771232,0.24767756,0.2021891,0.21791591,-0.25417966,0.1267731,0.1291366,0.1398724,0.17346628,0.21099769,0.27999482,0.22155139,-0.23817448,-0.09605615,0.22677207,0.19085509,-0.19378024,0.28159213,0.18870252,0.24957335,0.14691263,-0.19319515,0.3058185,-0.17597473,0.19825381,0.22983162,0.089403726,0.13433245,0.18975097,-0.16585965,-0.085894085,-0.14568236,0.16995761,0.28770736,0.26951912,-0.24758272,-0.16419402,-0.2825148,-0.14065322,-0.180413,0.3044339,-0.12878825,0.1593525,0.15737253,0.21187142,0.1971545,-0.1743765,-0.24947017,0.31235647,0.13865386,-0.11092485,-0.22403963,0.20788924,0.23167342,-0.26047483,-0.0923996,-0.25075054,0.20751336,-0.210773,-0.1523466,0.24303257,-0.1648631,0.119962715,-0.26046425,0.28786334,0.12369817,0.37709463,0.1395333,-0.22898221,-0.17615314,0.17479292,0.2156711,0.16686757
f14_i4,0.18149295,-0.09305285,0.0061978674,-0.17390944,-0.25702417,0.22110084,-0.2947887,-0.27258503,0.22542574,-0.12585984,0.20341347,-0.18329124,0.1732764,-0.25861636,0.22653204,-0.22426887,-0.24161516,0.22753926,-0.14739752,0.23533715,-0.15287906,-0.17362642,-0.21170422,0.23250788,-0.15864733,0.121430956,0.1783249,0.11319098,0.13425349,0.29934603,0.2522293,-0.30067262,0.16743939,0.1927123,0.23925167,0.19377397,0.25285438,0.2573015,0.1988162,-0.13998751,-0.13350667,0.122157775,0.17719394,-0.24379402,0.26198405,0.18085581,0.28051308,0.28259134,-0.1555481,0.23214382,-0.15511748,0.29102203,0.19540219,0.102184154,0.16743334,0.20838544,-0.15088695,-0.21054277,-0.17154555,0.07403919,0.25261548,0.32566407,-0.1822662,-0.17836589,-0.29205447,-0.18137565,-0.10768852,0.016298475,-0.13752665,0.18878037,0.21304913,0.20137355,-0.30184355,-0.11250587,-0.18611017,0.17457896,0.25969076,-0.18885009,-0.2117114,0.13695757,0.24291453,-0.18500197,0.015952434,-0.29150558,0.11321245,-0.15867049,-0.12220903,0.1597057,-0.08040379,-0.044255037,-0.08758806,0.19645984,-0.01719728,0.22944072,0.1672682,-0.20393723,-0.15699427,0.2924143,0.19085434,0.1957362
f14_i5,0.22817484,-0.28906155,0.24937023,-0.21758601,-0.1552281,0.108464666,-0.22031875,-0.27097806,0.25851366,-0.18436395,0.1294815,-0.22228569,0.08981857,-0.24587207,0.16598326,-0.20379683,-0.29972634,0.2469185,0.07465884,0.14928234,-0.2276525,-0.20796722,-0.15699255,0.20438309,-0.1592117,0.24923031,-0.03087794,0.23857677,0.33000457,0.1310216,0.24073467,-0.14461705,0.21138285,0.13609113,0.24868397,0.22654246,0.11031979,0.07705164,0.14096245,-0.18649459,-0.21550052,0.16076557,0.26773334,-0.097159065,0.17733246,0.27950874,0.18799303,0.17105705,-0.12937026,0.102597475,-0.16726646,0.1669396,0.14110027,0.18556948,0.17987007,0.2037695,-0.32011655,-0.15528134,-0.18879867,0.09090675,0.18048346,0.21002059,-0.22297588,-0.26291424,-0.19809708,-0.23606017,-0.18194617,0.118803985,-0.17822179,0.115399644,0.16218697,0.24893987,0.02550283,-0.13604562,-0.24618378,0.21548477,0.24248117,-0.20541736,-0.14123794,0.100383475,0.11977007,-0.29290962,0.051982246,-0.24713369,0.25991255,-0.2669287,-0.2345971,0.25939432,-0.1727698,0.0647865,-0.20230606,0.18711832,0.02267618,0.27903438,0.1871783,-0.24444889,-0.22152841,0.25235882,0.2284629,0.23213716
f15_i1,0.210267,-0.16839533,0.1553541,-0.24142091,-0.2645529,0.14830713,-0.17460522,-0.2518513,0.17191721,-0.21227287,0.17428619,-0.2940318,0.14760852,-0.20673464,0.16569299,-0.11204932,-0.21108949,0.23706305,-0.30042693,0.16010061,-0.13501121,-0.23290503,-0.15440585,0.22016045,-0.15900385,0.20970075,0.0050667007,0.109235875,0.23458397,0.18635404,0.14119619,-0.23195054,0.07244673,0.18268895,0.1523435,0.24497665,0.1579417,0.34626493,0.23250513,-0.17941935,-0.14109011,0.14540859,0.31345057,-0.13409464,0.16361687,0.1663273,0.159485,0.2550777,-0.23098597,0.17147931,-0.24875034,0.21811235,0.12114256,0.14290479,0.21583521,0.091174185,-0.19310288,-0.216509,-0.10724037,0.037354972,0.20592938,0.16228011,-0.17054191,-0.14099744,-0.16526349,-0.23950097,-0.16228598,-0.08132081,-0.17548333,0.21799931,0.28542736,0.18004428,0.0047674216,-0.13619371,-0.18189566,0.15206897,0.21514894,-0.16560675,-0.11397612,0.2214007,-0.0023437997,-0.21369839,0.10344383,-0.22338946,0.22320999,-0.18895167,-0.25220305,0.22403868,-0.13422029,-0.18765007,-0.27629054,0.23541068,0.028315125,0.1661491,0.22462265,-0.15639758,-0.21424952,0.24940623,0.24791272,0.29854223
f15_i2,0.20258309,-0.28989163,0.17835803,-0.20759721,-0.22678432,0.20247136,-0.26726124,-0.18096069,0.1769958,-0.17413718,0.2547771,-0.16599873,0.21062864,-0.16917965,0.290478,-0.24579637,-0.13746323,0.18462613,0.0851463,0.15773588,-0.21020204,-0.19133855,-0.13704517,0.25236368,-0.24020095,0.23146473,0.084272176,0.21174215,0.10873425,0.2769493,0.1587737,-0.20493455,0.21093284,0.08724611,0.23357835,0.06552517,0.104962304,0.11376398,0.12304162,-0.16042502,-0.19707885,0.25073063,0.21837977,-0.25137043,0.12944873,0.1587073,0.21381724,0.15336919,-0.2995852,0.10517651,-0.18332455,0.23536138,0.1011605,0.24493758,0.26256144,0.22074361,-0.22030598,-0.14204887,-0.15441921,0.20537448,0.15506184,0.26427904,-0.2172714,-0.19730948,-0.15335558,-0.20823342,-0.3110003,-0.02774256,-0.24637285,0.15335482,0.15127108,0.24389787,-0.16558667,-0.18360408,-0.17499432,0.18870455,0.26525098,-0.15662014,-0.26491722,0.24101529,0.22557285,-0.26864251,0.008867018,-0.21226276,0.2077351,-0.1008664,-0.11949975,0.19135025,-0.21663846,-0.16355117,-0.21576641,0.26756018,-0.014490616,0.27820572,0.19372973,-0.1458859,-0.20782101,0.13918398,0.27479768,0.18755098
f15_i3,0.19487968,-0.18350261,0.20867638,-0.19202152,-0.20564002,0.22187148,-0.28186738,-0.09411505,0.07772838,-0.21234567,0.1332339,-0.2785633,0.16135617,-0.13781187,0.14981917,-0.15871945,-0.11176669,0.15628873,-0.25868315,0.15653995,-0.23834918,-0.21526377,-0.17986743,0.22773354,-0.12721893,0.332175,0.07904812,0.16344054,0.18153875,0.0988474,0.25581545,-0.22209007,0.29858416,0.08062232,0.13499841,0.15064108,0.091468185,-0.004786515,0.27682856,-0.17579314,-0.124830574,0.18621294,0.2206794,-0.17355202,0.19132148,0.16394721,0.2173109,0.14981751,-0.17249064,0.12039586,-0.13785827,0.1521254,0.33283144,0.14559092,0.1936067,0.1708098,-0.16227688,-0.22568356,-0.1756599,0.06171692,0.2338626,0.16870445,-0.26092643,-0.21861449,-0.20333976,-0.25781718,-0.18810542,0.12985569,-0.18445802,0.13393481,0.279305,0.20268299,0.14655797,-0.24729365,-0.2739966,0.11215487,0.1732288,-0.18767485,-0.13706246,0.25921705,0.00491842,-0.29116037,0.21507202,-0.19412759,0.20145492,-0.24857993,-0.2336364,0.21159378,-0.20555641,-0.024207113,-0.28432187,0.21089233,-0.061642513,0.26212677,0.19349836,-0.1455585,-0.26848024,0.06678669,0.26092464,0.27479705
f15_i4,0.17994422,-0.16447961,0.30220258,-0.19224739,-0.17755157,0.19236533,-0.20409572,-0.16550641,0.018350583,-0.12478384,0.23204307,-0.18255694,0.12865503,-0.1473535,0.19657956,-0.2632834,-0.13943471,0.2540761,0.09733542,0.26017037,-0.25052768,-0.13368973,-0.19541793,0.14630184,-0.21373035,0.21406843,0.06400067,0.18430422,0.25461006,0.22316852,0.10486688,-0.2656422,0.09428769,0.12587844,0.14392668,0.10521292,0.18304704,0.16744587,0.2765324,-0.19262046,-0.17479636,0.11073901,0.26828706,-0.087487854,0.22046897,0.12902008,0.3390631,0.12462615,-0.24838962,0.077724166,-0.2553465,0.18551439,0.032337762,0.27086967,0.13229899,0.20067896,-0.19470613,-0.12303296,-0.19219051,-0.017880285,0.2727772,0.13928308,-0.177695,-0.30272666,-0.19927198,-0.24444632,-0.31847823,0.0729408,-0.27981544,0.16439536,0.13364579,0.20955695,-0.033052627,-0.2650196,-0.1333684,0.24137047,0.2080344,-0.114796095,-0.14698729,0.27898023,-0.073612325,-0.099330775,-0.27884546,-0.1481517,0.24885345,-0.26066062,-0.15337883,0.21315582,-0.12806083,0.081195354,-0.22005726,0.26730573,-0.064954914,0.059444617,0.1642096,-0.1975789,-0.17180972,0.13219154,0.204362,0.29889202
f15_i5,0.23731205,-0.19700237,0.22980551,-0.13195671,-0.22323427,0.18931368,-0.20223482,-0.1924111,0.2235934,-0.14185219,0.25190133,-0.18131177,0.22181715,-0.21423079,0.23298194,-0.24287234,-0.26977366,0.27163145,0.008259591,0.12616275,-0.1480107,-0.20485136,-0.30153206,0.1492451,-0.12076397,0.21601053,0.00028397114,0.18542716,0.112227656,0.28026575,0.25814244,-0.18388131,0.13137443,0.20829207,0.22893825,0.20572388,0.043701652,0.1358939,0.26864418,-0.1259353,-0.18320727,0.16768086,0.17349805,-0.21917446,0.23363289,0.22775036,0.2114664,0.2683941,-0.2158198,0.14891016,-0.26626918,0.12499427,0.2524823,0.10289784,0.18756582,0.15252289,-0.19718671,-0.23813643,-0.106489085,0.03310456,0.21872371,0.27947497,-0.23819223,-0.24212638,-0.17928262,-0.26399198,-0.20799723,-0.027471103,-0.15866207,0.24825266,0.2357333,0.22821863,-0.025134195,-0.23171698,-0.2559427,0.0698831,0.22095288,-0.15207975,-0.13039295,0.08870004,-0.20034058,-0.2721225,-0.019419193,-0.13618352,0.24277127,-0.2074492,-0.22477874,0.22502859,-0.09559522,0.19968818,-0.2400042,0.19687562,-0.029033208,0.12708743,0.20365326,-0.18200764,-0.23137826,0.15720561,0.19193271,0.25914824
f16_i1,0.19628271,-0.17429087,0.10165539,-0.25468633,-0.22340685,0.188287,-0.21603064,-0.21517727,0.09188624,-0.10346875,0.20525265,-0.17175478,0.13625236,-0.25194117,0.16622029,-0.23077108,-0.2668359,0.25574362,-0.11515527,0.1728629,-0.167232,-0.24003635,-0.27737185,0.15456882,-0.2759291,0.09171079,0.119157024,0.22344427,0.15690012,0.22011504,0.18937792,-0.24143992,0.08692401,0.2433163,0.15984012,0.20093513,0.208823,-0.02414536,0.22726579,-0.17813414,-0.18127663,0.27701277,0.26202404,-0.26506418,0.25098932,0.28882957,0.24973589,0.20371947,-0.1277382,0.12489543,-0.19577159,0.19290014,0.17246012,0.09005745,0.25680265,0.14025971,-0.20395246,-0.07990332,-0.2906917,0.0018229007,0.1468138,0.19619776,-0.18964471,-0.04817697,-0.19968171,-0.23561576,-0.17654844,0.10419092,-0.19556707,0.16843946,0.07947996,0.24273643,-0.28998685,-0.31738764,-0.17827569,0.22853039,0.17778067,-0.15012437,-0.16973172,0.19163568,0.085492544,-0.23296279,-0.30564055,-0.24949025,0.27415785,-0.22913599,-0.17580202,0.24872564,-0.21478765,-0.038195085,-0.17817454,0.1915809,0.16830632,0.028983407,0.099168025,-0.16515769,-0.23083515,0.16996185,0.23647423,0.28227073
f16_i2,0.22664201,-0.1890675,0.079026304,-0.14901449,-0.24843104,0.22102264,-0.27375042,-0.19691336,0.09710344,-0.21228617,0.15458423,-0.28162193,0.25180307,-0.1335802,0.22714792,-0.20979194,-0.30519402,0.17177916,-0.060745943,0.18182014,-0.19726166,-0.23686244,-0.1634929,0.21209493,-0.13832122,0.070833385,0.21585084,0.21867886,0.21616368,0.176278,0.18101591,-0.113282144,0.2428124,0.031079717,0.22620861,0.12979099,0.19810188,-0.038087644,0.09243291,-0.20170718,-0.21730955,0.2838669,0.2062271,-0.13443375,0.25034028,0.21416624,0.20872907,0.13664065,-0.28018507,0.229501,-0.1470461,0.10925201,0.27909324,0.17514716,0.1889173,0.18534718,-0.23705803,-0.15749846,-0.21048716,0.0008928261,0.21867146,0.14983058,-0.20724136,-0.22657308,-0.27261996,-0.16105926,-0.18645447,0.0031198778,-0.12801443,0.09101591,0.22838114,0.15868796,-0.34367225,-0.25869468,-0.1900524,0.1450341,0.2174214,-0.10706203,-0.19782576,0.2421791,0.1927673,-0.21897165,-0.09448421,-0.18291086,0.17257182,-0.1990429,-0.11040023,0.23536563,-0.16165707,0.15602407,-0.17122959,0.17074314,0.121111125,0.10122965,0.17319982,-0.19537224,-0.2360242,0.22516118,0.19066606,0.16594422
f16_i3,0.16004457,-0.18427989,0.26200768,-0.25831452,-0.2340495,0.20472485,-0.205125,-0.27180642,0.23722766,-0.10651484,0.19684124,-0.30553076,0.24979144,-0.15685438,0.25463545,-0.2900855,-0.2758607,0.19567399,-0.043011326,0.18415554,-0.23203148,-0.30348638,-0.22477803,0.13617706,-0.20267852,0.2744907,0.27977854,0.2657152,0.2286268,0.041251715,0.19290224,-0.08569647,0.3138163,0.22098805,0.20158088,0.22259158,0.22020486,-0.084519014,0.16018496,-0.23658764,-0.13622275,0.28930017,0.15698439,-0.17778696,0.21916506,0.18206243,0.163495,0.28001332,-0.22365521,0.14086504,-0.22350158,0.19902903,0.048105292,0.10534658,0.19789465,0.1562698,-0.2339268,-0.080277875,-0.20228064,0.30194584,0.20894428,0.30511203,-0.13059844,-0.15057698,-0.28492248,-0.21309285,-0.2092208,0.041558042,-0.1510546,0.16964544,0.18741372,0.18250524,-0.20584954,-0.21838982,-0.12719694,0.23138677,0.16412324,-0.1099007,-0.0829334,0.1984699,-0.18444198,-0.25224888,-0.07206379,-0.2049622,0.22192878,-0.20863649,-0.17168002,0.20260783,-0.2899738,0.16233006,-0.23714772,0.27040112,0.041000254,-0.0547176,0.22425988,-0.22326915,-0.21723351,0.13017224,0.30641535,0.2632259
f16_i4,0.11494985,-0.18560214,0.028874474,-0.21391253,-0.23337114,0.18917027,-0.20297836,-0.23453869,0.1848928,-0.11546926,0.22579512,-0.22020444,0.28135535,-0.17491782,0.1637148,-0.20563829,-0.22539729,0.25495598,0.10157461,0.18409957,-0.12098,-0.18957695,-0.11871516,0.1966837,-0.22179668,0.11459651,0.26851815,0.21010762,0.15489425,0.22464631,0.09129771,-0.15206863,0.30839172,0.16657607,0.14814936,0.16825278,0.12196701,0.027501306,0.16559905,-0.107847385,-0.21572529,0.19819005,0.2355616,-0.27825707,0.19398507,0.25408188,0.21074024,0.11663927,-0.2707397,0.26527357,-0.16042411,0.26919824,0.27815053,0.11020791,0.18312488,0.16994421,-0.23985799,-0.09390602,-0.22312434,0.0054297606,0.26552564,0.31667382,-0.23742534,-0.19573048,-0.25226036,-0.20582102,-0.25429294,0.1487807,-0.19332492,0.13622116,0.25070825,0.31693843,-0.3447707,-0.16637792,-0.20987484,0.2330763,0.20551518,-0.19751456,-0.20887773,0.17086555,-0.16156814,-0.21730609,-0.08646187,-0.1934301,0.17485401,-0.128889,-0.19671921,0.24136463,-0.13998154,-0.0060963077,-0.11005485,0.19916117,0.051670987,0.050680473,0.15191688,-0.08204055,-0.20789386,0.2042924,0.23498371,0.2024845
f16_i5,0.1468611,-0.2463098,-0.08287611,-0.1523174,-0.24322195,0.18031248,-0.20124407,-0.21292372,0.17773695,-0.13926663,0.23659103,-0.18844022,0.12933983,-0.17563593,0.18189415,-0.20221923,-0.098544076,0.219941,-0.057184454,0.2855763,-0.109265685,-0.12198051,-0.115915574,0.22076981,-0.21161091,0.17749646,0.14933023,0.23651037,0.30300865,0.14475252,0.23449002,-0.14512716,0.20642197,0.26490325,0.11999442,0.17296693,0.24438985,0.0014954037,0.09410732,-0.12501732,-0.26600835,0.22758202,0.19261613,-0.1752009,0.1753011,0.261021,0.34079084,0.2297846,-0.24468334,0.2604,-0.18431543,0.19550279,0.3631308,0.117631465,0.23795865,0.20754606,-0.26175356,-0.09667958,-0.22940786,0.19178459,0.12137775,0.29260707,-0.13217254,-0.31765383,-0.24863656,-0.21469691,-0.25205383,-0.16136551,-0.21930331,0.21104877,0.17901796,0.21785535,0.061354958,-0.14531615,-0.19962266,0.09619567,0.24825294,-0.107111394,-0.19400157,0.1784832,0.015146092,-0.2820884,-0.19377081,-0.2158402,0.2057234,-0.17350157,-0.19451067,0.10680875,-0.18254283,0.22854109,-0.1583471,0.19659299,0.034372576,-0.010512464,0.06695339,-0.26579458,-0.18309852,0.1805987,0.26463404,0.13447472
f17_i1,0.30122858,-0.15593366,0.18718672,-0.119164474,-0.19271001,0.17295136,-0.26015157,-0.11571556,0.22606088,-0.17378794,0.2622761,-0.22693738,0.18976156,-0.20160183,0.20693661,-0.1577817,-0.13272838,0.17518705,0.11034019,0.23375489,-0.16097571,-0.18209763,-0.19132528,0.22544464,-0.19132726,0.24316086,0.17905214,0.113414735,0.23248516,0.2806637,0.1464411,-0.1615048,0.26010808,0.11281833,0.18279612,0.15986155,0.26910222,0.1899871,0.2565463,-0.1990717,-0.14359464,0.26821965,0.1148827,-0.29955822,0.1570553,0.115920104,0.22267835,0.13739729,-0.15768385,0.232768,-0.21369958,0.2309753,0.2608233,0.117219344,0.2720138,0.2434003,-0.24716927,-0.14158261,-0.22205384,0.2287737,0.1915459,0.18793933,-0.2629893,-0.2686345,-0.18066925,-0.2687432,-0.24603885,-0.06701121,-0.25960463,0.31808034,0.30062348,0.2861185,-0.08918474,-0.14224026,-0.20747031,0.18688506,0.22018282,-0.22542742,-0.21353549,0.10928053,0.11944895,-0.16746698,0.01848696,-0.22713076,0.20580117,-0.1792094,-0.11686799,0.13078122,-0.08582235,-0.07684456,-0.13856825,0.19112465,0.11742037,0.09765406,0.16154264,-0.22837019,-0.25532252,0.24547085,0.2562587,0.22715332
f17_i2,0.17575948,-0.1944735,0.15436845,-0.17652693,-0.21220274,0.13597995,-0.2604462,-0.18529455,0.22388496,-0.12780966,0.115070716,-0.21668762,0.1373542,-0.1920565,0.21155217,-0.15332504,-0.2622052,0.19985531,-0.21924545,0.13186544,-0.21767671,-0.21316536,-0.30994856,0.15520875,-0.18606374,0.06125885,0.23640303,0.16959752,0.17327413,0.19901757,0.1649394,-0.21601391,0.3290415,0.2018583,0.18741709,0.19123957,0.15099303,-0.06945416,0.2283269,-0.084090106,-0.120887995,0.17372282,0.17650643,-0.2735134,0.22273213,0.22901264,0.16192827,0.16168882,-0.2005648,0.28563565,-0.20360492,0.14069246,0.17293994,0.2853381,0.2787206,0.1854887,-0.26898724,-0.1915703,-0.16225019,0.10179423,0.15477975,0.30738774,-0.22963353,-0.22443864,-0.22740196,-0.22950141,-0.1203024,0.034011904,-0.19953941,0.25402492,0.107040845,0.09244426,0.22502665,-0.30272684,-0.1885044,0.23581226,0.18065827,-0.14174886,-0.11341896,0.1453896,-0.23884939,-0.2228333,0.28493276,-0.19823828,0.26373383,-0.24468224,-0.16058089,0.17744298,-0.09833854,0.015238472,-0.29306766,0.30607253,0.054051254,0.059254196,0.19793297,-0.22850905,-0.28000468,0.3012733,0.15027331,0.109049596
f17_i3,0.17990299,-0.1560274,0.31362522,-0.20642805,-0.11380674,0.2382154,-0.21002705,-0.17249662,0.15553984,-0.2301417,0.20556825,-0.23104748,0.23781934,-0.19638564,0.17809702,-0.20048203,-0.20112866,0.20745155,-0.002772742,0.23583141,-0.14177044,-0.27585116,-0.22106928,0.1512534,-0.23467802,0.17414498,-0.0141210165,0.13111617,0.11505247,0.18698333,0.3153986,-0.2874645,0.18003212,-0.05575508,0.26251933,0.10775126,0.16398516,0.078678116,0.1626478,-0.19276622,-0.073235646,0.24283792,0.2612561,-0.30760884,0.12090603,0.3054978,0.1723148,0.25360918,-0.24521196,0.20998408,-0.21500309,0.24282408,0.16573042,0.21300828,0.16713367,0.19355017,-0.25603437,-0.16813123,-0.14525051,0.21067086,0.25662416,0.20498717,-0.2623241,-0.16783796,-0.191701,-0.22015491,-0.24720359,0.21595648,-0.17617777,0.2169719,0.25787607,0.24494226,-0.19464327,-0.19407296,-0.15400027,0.16292803,0.20140868,-0.21766533,-0.14956838,0.17173569,0.044942096,-0.18696104,0.0047278814,-0.18207769,0.07873219,-0.155811,-0.21547388,0.17792208,-0.23976731,0.28333697,-0.2728127,0.312276,-0.0044036605,0.07635705,0.11731772,-0.1376711,-0.19455248,0.2188367,0.23100783,0.15031321
f17_i4,0.21906765,-0.25978458,0.34603253,-0.22952843,-0.16632222,0.16386065,-0.24765186,-0.17805234,0.13655283,-0.26880127,0.14243159,-0.21770458,0.20350823,-0.23912147,0.23866281,-0.31926242,-0.20962387,0.2189034,-0.11169492,0.20836413,-0.23791814,-0.23767659,-0.1974247,0.1925231,-0.24277352,0.0719194,0.028988438,0.17209576,0.18906665,0.17174439,0.23071752,-0.15108454,0.22661832,0.059048712,0.20074445,0.18380822,0.14914277,0.09968406,0.055754527,-0.23562257,-0.13553621,0.22790867,0.28054154,-0.18845825,0.23017608,0.1209094,0.17289412,0.12595133,-0.15527596,0.09954025,-0.22689478,0.20582175,-0.04286979,0.28691906,0.31284612,0.11760653,-0.1602459,-0.25123894,-0.1951764,0.02745974,0.25584486,0.19551255,-0.21361406,-0.13953404,-0.18761352,-0.17607732,-0.30901188,0.2559148,-0.28929436,0.2627973,0.054812323,0.1061862,0.025115341,-0.21255557,-0.17355098,0.1724255,0.28068054,-0.13892472,-0.20678121,0.24157986,0.2862866,-0.21251498,-0.118261166,-0.22264482,0.33586165,-0.1688708,-0.09371017,0.056516636,-0.2342813,-0.018119456,-0.2711244,0.25001755,0.018982327,0.21553855,0.11563639,-0.1484379,-0.19888833,0.2737485,0.19060718,0.1539397
f17_i5,0.19342098,-0.19605912,0.09044029,-0.1843699,-0.18864276,0.1781806,-0.10930613,-0.25382167,0.2202927,-0.17657432,0.27270532,-0.14150259,0.14892489,-0.2071204,0.15334798,-0.19017823,-0.19547531,0.1412684,0.26301304,0.23538356,-0.18584087,-0.11990033,-0.25450686,0.2537816,-0.27056596,0.32000953,0.11871995,0.03936896,0.2188864,0.30823573,0.08026857,-0.22518355,0.20106903,0.08999031,0.24889426,0.17880242,0.0706402,0.22490695,0.17363092,-0.2432619,-0.09791065,0.13430409,0.26949024,-0.1665412,0.1060379,0.19466187,0.28110877,0.07227956,-0.1831017,0.27498436,-0.11358344,0.2553543,0.30995694,0.21025522,0.27756587,0.20319743,-0.24415927,-0.23087001,-0.25069934,0.07160144,0.24028225,0.2365682,-0.31580076,-0.13866696,-0.19433501,-0.21706857,-0.17720917,-0.0069522397,-0.18778086,0.21407235,0.35481438,0.318662,-0.18970208,-0.27321655,-0.146622,0.21150292,0.1329434,-0.08705516,-0.27195445,0.20582847,0.08761088,-0.25919506,-0.13260561,-0.1940839,0.16079801,-0.21916328,-0.23874538,0.28758052,-0.22646582,-0.16166621,-0.26884803,0.13152702,0.26776135,0.09343022,0.16280362,-0.27468872,-0.10416991,0.18072978,0.2556303,0.14240576
f18_i1,0.22220968,-0.19805953,0.092655316,-0.17152216,-0.16688621,0.1823941,-0.19754285,-0.22724637,0.23757245,-0.2378372,0.1713013,-0.2697711,0.20070022,-0.099238805,0.21531795,-0.24820356,-0.24362609,0.24133995,0.3331825,0.160136,-0.23667133,-0.14040244,-0.18381129,0.21193823,-0.16640805,0.11070779,0.2310059,0.12385603,0.1528879,0.2703539,0.18885265,-0.12730871,0.21997641,0.15130326,0.22841135,0.17664015,0.21021488,0.33712736,0.20242949,-0.2436129,-0.20180607,0.19367664,0.20378137,-0.17117614,0.114747025,0.16547075,0.23003946,0.26551512,-0.23555484,0.28237438,-0.22642362,0.21406332,0.2720266,0.13877112,0.2938972,0.23501265,-0.22227044,-0.22354107,-0.2761897,0.16703801,0.1352658,0.22945443,-0.1630315,-0.18923898,-0.18784142,-0.18534614,-0.24985752,-0.11426965,-0.20046522,0.1995911,0.3078215,0.2869663,-0.27560443,-0.35142884,-0.11936086,0.17321983,0.1962079,-0.115871206,-0.20596592,0.22707726,0.13049671,-0.23036009,0.18326576,-0.17459011,0.030147905,-0.15052605,-0.17365476,0.16854179,-0.14329664,-0.21192555,-0.20519076,0.19137025,0.121940136,0.14879556,0.2441961,-0.21673414,-0.23464972,0.21482606,0.18245053,0.18476437
f18_i2,0.23004769,-0.06802701,0.11468529,-0.19453585,-0.24062674,0.22883788,-0.26454368,-0.19133897,0.11683207,-0.23181644,0.19613014,-0.20718464,0.27197334,-0.15929349,0.26196557,-0.253422,-0.11871906,0.12071737,-0.0007371174,0.21470943,-0.18268394,-0.1972301,-0.18763341,0.17510845,-0.26056415,0.15227333,0.20684928,0.1829757,0.18524794,0.2669535,0.25781664,-0.25300977,0.1546302,0.22390573,0.25749537,0.17936446,0.21422108,0.0743316,0.19240803,-0.22218075,-0.17233942,0.16691323,0.16040577,-0.24145032,0.17904356,0.3197478,0.14823334,0.23348872,-0.27662814,0.17946991,-0.16900508,0.2254726,0.048965126,0.100851305,0.13651039,0.115243606,-0.23229575,-0.15604502,-0.12934655,0.19087026,0.23889793,0.2089609,-0.22726963,-0.097143054,-0.2719574,-0.13101844,-0.24324256,0.3180954,-0.22342497,0.19226213,0.16233177,0.20991082,0.020545442,-0.16687769,-0.23801091,0.12789416,0.1822049,-0.19238119,-0.232262,0.22949132,-0.2127522,-0.10281885,-0.16320984,-0.2548,0.122314535,-0.17751607,-0.14786617,0.17567131,-0.23200178,0.22350167,-0.27042845,0.25147143,0.20035589,0.16373968,0.12194524,-0.09578142,-0.20256174,0.17295809,0.28058457,0.13907574
